svm_type c_svc
kernel_type rbf
gamma 0.001953125
nr_class 2
total_sv 87
rho 0.18840902450280037
label 1 -1
nr_sv 44 43
SV
13.58999250871002 1:-0.733509 2:-0.732567 3:-0.731566 4:-0.528098 5:-0.46616 6:-0.413018 7:0.359713 8:-0.349238 9:-0.684395 10:-0.604138 11:0.671645 12:-0.740723 13:-0.620761 14:-0.803707 15:-0.85886 16:-0.121637 17:-0.36785 18:-0.951939 19:-0.070403 20:-0.267311 21:0.369458 22:-0.411554 23:-0.536332 24:0.252524 25:0.526992 26:0.02199 27:-0.45979 28:-0.473603 29:0.285051 30:-0.572163 31:-0.520967 32:-0.015707 33:-0.899095 34:-0.567797 35:-0.857887 36:1.0 37:0.137111 38:0.445782 39:0.795712 40:0.349905 41:0.37095 42:0.493742 43:-0.399046 44:0.30901 45:-0.545455 46:0.534843 47:-0.08201 48:-0.792214 49:0.056697 50:0.027418 51:0.370838 52:-0.057851 53:0.180968 54:-0.714585 55:0.216701 56:0.234701 57:-0.778499 58:-0.162317 59:-0.581112 60:-0.200675 61:0.507042 62:-0.12527 63:-0.860733 64:-0.365904 65:-0.457219 66:-0.231109 67:-0.312536 68:0.344497 69:0.588775 70:0.161905 71:0.472423 72:0.850574 73:-0.714234 74:0.056088 75:-0.55085 76:-0.231482 77:-0.198567 78:0.34421 79:-0.171233 80:0.342865 81:-0.292227 82:-0.260255 83:0.284148 84:-0.593218 85:-0.516869 86:-0.5306 87:0.665197 88:0.319672 89:0.648149 90:-0.460889 91:-0.153917 92:0.018953 93:0.524138 94:0.213956 95:0.400138 96:0.108915 97:-0.18552 98:-0.149806 99:-0.396154 100:-0.142358 101:0.402141 102:0.650565 103:-0.248083 104:-0.599546 105:-0.301486 106:-0.228571 107:-0.348042 108:-0.938123 109:-0.309227 110:-0.181864 111:-0.855429 112:-0.086066 113:0.242689 114:-0.702145 115:-0.078431 116:-0.690696 117:0.91118 118:-0.054121 119:-0.445037 120:0.534448 121:-0.396979 122:-0.298321 123:-0.191874 124:-0.296296 125:-0.622602 126:-0.721266 127:-0.643109 128:0.168948 129:0.514322 130:-0.426724 131:-0.730187 132:-0.264591 133:0.450549 134:-0.22361 135:-0.921095 136:0.025892 137:-0.385481 138:-0.151717 139:-0.182828 140:-0.460935 141:-0.415015 142:-0.680297 143:-0.271587 144:-0.793812 145:0.515451 146:0.451918 147:0.044623 148:0.100837 149:-0.36283 150:0.536636 151:-0.135888 152:0.344085 153:-0.801935 154:0.004633 155:-0.892621 156:0.840474 157:-0.008311 158:-0.186139 159:0.201163 160:-0.014084 161:0.105965 162:-0.5207 163:0.193787 164:-0.298658 165:0.024907 166:-0.290631 167:-0.428621 168:0.495308 169:0.075862 170:0.392535 171:-0.497866 172:0.004896 173:-0.797325 174:0.387574 175:0.028647 176:0.519303 177:0.442434 178:-0.1 179:0.687071 180:0.157026 181:0.813392 182:-0.090221 183:0.142777 184:1.0 185:0.978028 186:1.0 187:-1.0 188:1.0 189:1.0 190:-0.501603 191:-0.193757 192:-0.191628 193:-0.391236 194:-0.319212 195:0.64571 196:0.407407 197:-0.20076 198:-0.484084 199:0.331889 200:-0.459216 201:0.757319 202:-0.549191 203:-0.774981 204:-0.532327 205:1.0 206:-0.072511 207:-0.882688 208:0.10229 209:-0.102742 210:-0.232878 211:0.033164 212:-0.15514 213:-0.193821 214:-0.574751 215:0.295845 216:-0.006559 217:0.608092 218:-0.112304 219:0.711659 220:0.021061 221:-0.094442 222:-0.547557 223:-0.365079 224:0.329859 225:-0.145383 226:0.386271 227:0.186726 228:0.33934 229:-0.087734 230:-0.111297 231:-0.283921 232:-0.148387 233:0.537989 234:-0.029698 235:-0.053778 236:-0.146244 237:0.305948 238:-0.627737 239:-0.69449 240:0.179141 241:-0.31114 242:-0.111561 243:-0.855393 244:-0.108879 245:0.162383 246:0.924658 247:-0.61496 248:-0.741409 249:0.346727 250:-0.207317 251:-0.013704 252:-0.931216 253:-0.054587 254:0.278317 255:0.241243 256:-0.370284 257:-0.532151 258:-0.198745 259:-0.234043 260:0.009227 261:-0.839926 262:0.582734 263:-0.098204 264:0.536091 265:-0.01571 266:-0.012239 267:0.111762 268:-0.030848 269:0.64551 270:0.118954 271:0.132228 272:-0.198394 273:-0.771978 274:-0.371055 275:-0.38633 276:-0.177985 277:-0.369427 278:0.549931 279:-0.065658 280:-0.909394 281:-0.528341 282:-0.643088 283:0.446921 284:0.385099 285:-0.650686 286:0.483506 287:-1.0 288:1.0 289:-1.0 290:0.199282 291:1.0 292:0.928785 293:0.900238 294:-1.0 295:-0.042373 296:-1.0 297:1.0 298:-0.787012 299:-0.343479 300:0.432514 301:-0.28501 302:-0.101289 303:-0.978375 304:0.981481 305:-1.0 306:1.0 307:0.02587 308:-0.151006 309:0.778161 310:-0.751983 311:-0.738667 312:0.518933 313:-0.793333 314:-0.190392 315:-0.717753 316:-0.453429 317:0.195936 318:-0.557875 319:-0.319838 320:-0.430771 321:0.691671 322:1.0 323:-0.045322 324:-0.679938 325:0.90027 326:0.90256 327:0.904846 328:-0.944494 329:-0.898335 330:0.999328 331:0.247601 332:0.543855 333:-0.714752 334:-0.361102 335:-0.758472 336:0.193987 337:-0.904744 338:-0.914066 339:-0.389412 340:-0.112212 341:-0.179454 342:-0.849722 343:0.208417 344:-0.665495 345:-0.246159 346:-0.871631 347:-0.901402 348:-0.818567 349:-0.087859 350:0.203234 351:-0.936165 
32.632037682473445 1:-0.371664 2:-0.368201 3:-0.364561 4:-0.417788 5:-0.452851 6:-0.34065 7:0.855239 8:-0.125048 9:-0.697273 10:-0.518359 11:0.612404 12:-0.70287 13:-0.809822 14:-0.793615 15:-0.843271 16:0.300601 17:-0.362086 18:-0.87655 19:-0.040514 20:0.063571 21:0.364452 22:-0.633261 23:-0.403042 24:0.434251 25:-0.609254 26:0.497203 27:-0.282611 28:-0.549246 29:0.455815 30:-0.339517 31:-0.274717 32:-0.157687 33:-0.227355 34:-0.652542 35:0.762046 36:0.412315 37:-0.479915 38:-0.578175 39:0.81734 40:-0.683159 41:-0.824738 42:-0.446054 43:-0.017488 44:-0.760095 45:-0.689053 46:0.489916 47:-0.046663 48:-0.797757 49:0.312676 50:-0.222578 51:0.777108 52:0.082645 53:0.660711 54:-0.778877 55:0.022898 56:-1.0 57:-0.146017 58:-0.348492 59:-0.423311 60:-0.323204 61:0.288732 62:-0.305197 63:-0.24464 64:-0.222302 65:-0.208114 66:0.030769 67:-0.174038 68:-0.116163 69:0.410861 70:-0.415873 71:0.163437 72:-0.367193 73:0.342507 74:0.410867 75:-0.568767 76:0.368286 77:0.404626 78:0.026365 79:-0.232877 80:-0.030488 81:-0.4249 82:0.506216 83:0.342794 84:-0.603242 85:-0.166384 86:0.00607 87:0.082621 88:0.196721 89:-0.423827 90:-0.552647 91:-0.031895 92:0.271045 93:0.49088 94:-0.11565 95:-0.750749 96:0.486855 97:-0.031674 98:0.216852 99:-0.914992 100:-0.202091 101:0.513179 102:0.681988 103:0.404358 104:-0.002508 105:-0.41401 106:1.0 107:-0.42186 108:-0.756542 109:-0.060262 110:-0.519565 111:-0.891137 112:-0.428023 113:-0.468126 114:-0.466064 115:0.405229 116:-0.085199 117:-0.774455 118:0.105193 119:-0.495763 120:0.511416 121:-0.747138 122:-0.743735 123:-0.131315 124:0.08642 125:-0.489011 126:-0.932085 127:-0.181423 128:-0.750336 129:0.412208 130:-0.594736 131:-0.657157 132:-0.252788 133:0.087912 134:-0.093275 135:-0.756496 136:-0.16388 137:-0.366304 138:-0.161867 139:-0.4236 140:-0.647223 141:-0.43301 142:0.024164 143:-0.38244 144:-0.855062 145:0.011559 146:-0.672806 147:0.03922 148:-0.531893 149:-0.814723 150:0.438046 151:-0.498258 152:0.116531 153:-0.926875 154:-0.105027 155:0.145655 156:0.787439 157:-0.32672 158:-0.765979 159:0.093737 160:0.15493 161:-0.061876 162:-0.971467 163:0.300887 164:-0.858817 165:-0.036438 166:-0.876127 167:-0.891406 168:0.335703 169:0.227586 170:0.098066 171:-0.809599 172:-0.119676 173:-0.203079 174:0.333748 175:-0.425945 176:-0.709218 177:0.188968 178:-0.4 179:0.148819 180:-0.887189 181:0.712635 182:0.337851 183:0.178442 184:-0.414978 185:-0.569783 186:-0.100369 187:-0.031185 188:0.00265 189:-0.886985 190:0.018556 191:0.080262 192:-0.148681 193:-0.266891 194:-0.450432 195:0.755137 196:0.259259 197:0.307287 198:-0.877335 199:0.240799 200:-0.425836 201:0.739713 202:-0.855393 203:-0.986593 204:-0.563917 205:0.264706 206:-0.172476 207:-0.985817 208:0.167777 209:-0.550792 210:-0.255261 211:-0.277237 212:-0.510214 213:-0.697601 214:0.408638 215:-0.642751 216:-0.628897 217:-0.253193 218:-0.375748 219:0.605988 220:-0.744826 221:-0.893716 222:-0.809439 223:0.650794 224:-0.521316 225:-0.981976 226:-0.164657 227:-0.469675 228:0.295643 229:-0.711028 230:-0.830104 231:-0.444205 232:-0.187097 233:-0.079255 234:-0.94194 235:0.00238 236:-0.6612 237:0.276714 238:-0.796253 239:-0.809254 240:0.18375 241:0.284833 242:0.008123 243:-0.889097 244:0.106613 245:-0.250414 246:0.916079 247:-0.735825 248:-0.890055 249:0.343067 250:-0.207317 251:-0.078009 252:-0.948249 253:-0.227611 254:-0.797695 255:-0.211763 256:-0.828529 257:-0.940428 258:-0.204002 259:-0.617021 260:0.078976 261:-0.91369 262:-0.093712 263:-0.286599 264:0.547051 265:-0.724591 266:-0.87223 267:-0.031729 268:0.233933 269:-0.054723 270:-0.949126 271:-0.281077 272:-0.885792 273:-0.758106 274:-0.967176 275:-0.979776 276:-0.228465 277:-0.171975 278:-0.030612 279:-0.95684 280:-0.209227 281:0.286606 282:-0.745209 283:-0.704316 284:-0.89796 285:-0.058459 286:-0.251649 287:0.112146 288:-0.942167 289:-0.159174 290:-0.30095 291:-0.953279 292:-0.693949 293:-0.785113 294:-0.019589 295:-0.076271 296:-0.029138 297:-0.919263 298:-0.327554 299:0.513229 300:0.422866 301:-0.539144 302:-0.754672 303:-0.773468 304:0.333333 305:-0.039682 306:-0.985678 307:0.282058 308:-0.69298 309:0.790847 310:-0.891414 311:-0.968452 312:0.528039 313:-0.226667 314:0.08315 315:-0.961137 316:0.495332 317:-0.273677 318:-0.560449 319:-0.595573 320:-0.676782 321:0.739684 322:-0.549107 323:0.381986 324:-0.855211 325:0.844044 326:0.846549 327:0.849083 328:-0.744626 329:-0.702099 330:0.986711 331:0.377164 332:-0.009883 333:-0.4809 334:-0.454211 335:-0.802001 336:0.194753 337:-0.853022 338:-0.870318 339:-0.386187 340:0.014615 341:0.156897 342:-0.502541 343:0.008961 344:-0.668254 345:-0.248333 346:-0.885928 347:-0.917434 348:-0.81781 349:0.482428 350:0.276726 351:-0.939053 
15.081350564134556 1:-0.432516 2:-0.427312 3:-0.421913 4:-0.647492 5:-0.468534 6:-0.394324 7:0.696955 8:0.004333 9:-0.350825 10:-0.634934 11:0.709759 12:-0.779173 13:-0.864354 14:-0.88588 15:-0.756142 16:-0.367618 17:0.164803 18:-0.685986 19:-0.535357 20:0.895691 21:0.345251 22:0.40647 23:0.480486 24:0.672925 25:0.040488 26:0.638597 27:-0.284746 28:-0.830877 29:0.715458 30:-0.335753 31:-0.29909 32:-0.366525 33:-0.670958 34:0.083686 35:-0.197651 36:-0.313183 37:-0.030057 38:0.329288 39:0.830063 40:0.717022 41:0.114256 42:0.306771 43:0.096979 44:0.103636 45:-0.638016 46:0.188175 47:-0.022317 48:-0.799754 49:0.497943 50:0.085062 51:0.641542 52:0.181818 53:0.468056 54:-0.600084 55:0.259772 56:-0.119354 57:-0.078568 58:0.113586 59:0.063562 60:-1.0 61:0.422535 62:-1.0 63:0.154618 64:-0.16388 65:-0.593212 66:0.082257 67:0.094889 68:0.273166 69:-0.20402 70:0.003175 71:-0.584181 72:0.252016 73:0.320704 74:-0.237869 75:-0.940918 76:0.068612 77:0.260972 78:0.312216 79:-0.205479 80:0.223345 81:-0.291389 82:-0.087586 83:0.167771 84:-0.612221 85:-0.139217 86:0.154585 87:0.529413 88:0.606557 89:0.215577 90:-0.412003 91:-0.072127 92:0.578476 93:0.360207 94:0.669686 95:0.091434 96:0.44799 97:0.058823 98:0.063782 99:-0.73941 100:-0.221399 101:-0.657446 102:0.149284 103:-0.355192 104:-0.710141 105:-0.388896 106:-0.285714 107:-0.471037 108:-0.708301 109:0.118679 110:-0.812533 111:-0.889604 112:-0.682525 113:-0.689847 114:-0.439099 115:0.457516 116:0.181385 117:-0.624315 118:-0.171681 119:-0.602921 120:0.299452 121:-0.792856 122:-0.797417 123:-0.114379 124:0.067901 125:-0.352825 126:-0.87186 127:-0.384057 128:-0.111962 129:0.553102 130:-0.420368 131:-0.800593 132:-0.272894 133:0.340659 134:-0.289593 135:-0.965054 136:-0.05121 137:-0.81265 138:-0.149191 139:-1.0 140:-0.736351 141:-0.377392 142:-0.070632 143:-0.226328 144:-0.698926 145:-0.215945 146:0.005753 147:-0.027562 148:0.071458 149:-0.431855 150:0.368787 151:0.135889 152:-0.002592 153:-0.860045 154:-0.379362 155:-0.073621 156:0.839248 157:-0.124019 158:-0.632156 159:0.056407 160:-0.15493 161:-0.180975 162:-0.942694 163:-0.1541 164:-0.153202 165:0.097857 166:-0.341643 167:-0.667935 168:0.379837 169:0.668966 170:0.16209 171:-0.840474 172:0.076206 173:-0.306686 174:0.409772 175:-0.323734 176:-0.597933 177:0.205963 178:0.72 179:0.220682 180:-0.841194 181:-0.740319 182:-0.205987 183:0.107576 184:-0.29659 185:-0.382248 186:-0.091296 187:-0.85447 188:0.036221 189:-0.814561 190:-0.543107 191:-0.208316 192:-0.289049 193:-0.597951 194:-0.841379 195:0.740413 196:-0.037037 197:0.284254 198:-0.940422 199:0.058198 200:-0.055898 201:0.729565 202:-0.4245 203:-0.81476 204:-0.579138 205:-0.235294 206:-0.215768 207:-0.953293 208:-0.291922 209:-0.308204 210:-0.650023 211:-0.376175 212:-0.787939 213:-0.65173 214:0.222591 215:-0.535234 216:-0.942137 217:-0.375585 218:-0.579854 219:0.666717 220:-0.853621 221:-0.919294 222:-0.807161 223:0.68254 224:-0.450397 225:-0.954007 226:-0.256975 227:-0.400694 228:0.274961 229:-0.72431 230:-0.887126 231:-0.440125 232:-0.032258 233:0.001655 234:-0.966434 235:0.109275 236:0.187986 237:0.568664 238:-0.670522 239:-0.839883 240:0.18325 241:0.165638 242:5.4E-4 243:-0.993285 244:0.184877 245:-1.0 246:0.917453 247:-0.988006 248:-0.973588 249:0.346857 250:0.042731 251:-0.006397 252:-0.895732 253:-0.192324 254:-0.033391 255:-0.067029 256:-0.449244 257:-0.634492 258:-0.199783 259:-0.723404 260:0.016757 261:-0.871165 262:0.108223 263:-0.343227 264:0.547264 265:-0.747215 266:-0.898914 267:-0.02996 268:-0.670951 269:-0.001668 270:-0.96074 271:-0.158047 272:0.104864 273:-0.773736 274:-0.637635 275:-0.761137 276:-0.228797 277:0.133758 278:-0.031512 279:-0.943094 280:-0.122912 281:0.217782 282:-0.690219 283:-0.546275 284:-0.79604 285:-0.066662 286:0.178134 287:-0.021974 288:-0.921764 289:0.172725 290:0.237529 291:-0.954905 292:-0.657896 293:-0.732932 294:-0.016523 295:-0.144068 296:0.051512 297:-0.931969 298:-0.341844 299:-0.075127 300:0.443699 301:-0.676435 302:-0.837 303:-0.76511 304:0.314815 305:0.055922 306:-0.96667 307:0.245069 308:-0.373272 309:0.795873 310:-0.718819 311:-0.802162 312:0.526369 313:-0.6 314:0.01328 315:-0.920693 316:0.471734 317:-0.075007 318:-0.557934 319:-0.613206 320:-0.79475 321:0.73783 322:-0.321429 323:0.352549 324:-0.944864 325:0.829677 326:0.833511 327:0.837332 328:-0.899225 329:-0.863747 330:0.998533 331:-1.0 332:0.468545 333:-0.780564 334:-0.450167 335:-0.832074 336:0.059608 337:-0.942906 338:-0.938932 339:-0.391425 340:-0.027661 341:-0.709809 342:-0.616341 343:0.146618 344:-0.996255 345:-0.262691 346:-0.960199 347:-0.948412 348:-0.818796 349:-0.335463 350:0.139815 351:-0.873634 
25.999351351004584 1:-0.430162 2:-0.427417 3:-0.424527 4:-0.4103 5:-0.206496 6:-0.394554 7:0.516327 8:-0.372449 9:-0.705342 10:-1.0 11:1.0 12:-1.0 13:-0.667293 14:-0.584103 15:-0.801032 16:0.197532 17:-0.168858 18:-0.905065 19:0.081337 20:0.437605 21:0.398337 22:0.506306 23:0.631299 24:0.193856 25:-0.33162 26:0.064501 27:-0.111906 28:-0.281718 29:0.267846 30:-0.418401 31:-0.476698 32:-0.244043 33:-0.412787 34:0.302701 35:0.492666 36:0.216025 37:0.039372 38:-0.216786 39:0.714442 40:-0.814266 41:-0.775429 42:-0.068702 43:0.516693 44:-0.121661 45:-0.759622 46:-0.231025 47:-0.153505 48:-0.790052 49:-0.332515 50:-0.349518 51:0.468135 52:-0.045455 53:0.35541 54:-0.677971 55:0.42159 56:0.327333 57:0.237112 58:-0.013627 59:-0.387547 60:-0.185778 61:-0.006162 62:-0.117033 63:-0.76143 64:-0.044098 65:0.133208 66:0.077316 67:0.146798 68:0.238013 69:0.102391 70:-0.149206 71:-0.205424 72:-0.304195 73:-0.578895 74:-0.405896 75:-0.544731 76:-0.114369 77:0.151254 78:-0.297279 79:-0.315069 80:-0.357366 81:0.049005 82:0.156094 83:-0.159134 84:-0.642781 85:-0.689937 86:-0.532625 87:0.290013 88:0.836066 89:-0.169455 90:-0.661613 91:-0.053833 92:-0.351595 93:0.429266 94:-0.906745 95:-1.0 96:0.14612 97:-0.004525 98:-0.107644 99:-0.912336 100:-0.131066 101:0.310123 102:0.146764 103:0.320163 104:-0.185215 105:-0.304483 106:-0.6 107:-0.346061 108:-0.808201 109:0.26961 110:-0.286627 111:-0.887396 112:-0.255505 113:-0.279385 114:-0.465078 115:0.333333 116:-0.02788 117:-0.810611 118:0.456051 119:-0.710044 120:0.519306 121:-0.840397 122:-0.799094 123:-0.116991 124:0.283951 125:-0.372457 126:-0.851057 127:-0.239356 128:-0.130217 129:0.573814 130:-0.2534 131:-0.509443 132:-0.228568 133:-0.052198 134:-0.013881 135:-0.807027 136:-0.202321 137:-1.0 138:-0.172465 139:-0.972677 140:-0.746198 141:-0.339448 142:-0.189591 143:0.138408 144:-0.567498 145:0.473095 146:-0.461666 147:-0.037165 148:-0.770375 149:-0.802699 150:0.434846 151:0.533101 152:0.059344 153:-0.887352 154:0.332386 155:-0.524747 156:0.857189 157:-0.592175 158:-0.729194 159:0.039171 160:-0.492958 161:-0.26344 162:-0.874903 163:0.475736 164:-0.373219 165:0.106501 166:-0.552567 167:-0.782193 168:0.312996 169:0.186207 170:-0.012857 171:-0.909402 172:0.047724 173:-0.607023 174:0.377875 175:-0.252754 176:-0.426296 177:0.162838 178:0.1 179:0.111896 180:-0.733213 181:-0.159612 182:-0.508386 183:0.132792 184:-0.718806 185:-0.815419 186:-0.109051 187:-0.264033 188:-0.041173 189:-0.928314 190:0.023989 191:-0.417076 192:-0.246607 193:-0.798274 194:-0.768913 195:0.725903 196:-0.185185 197:0.150082 198:-0.813735 199:-0.22923 200:-0.783277 201:0.740496 202:-0.964581 203:-0.85709 204:-0.554789 205:0.058824 206:-0.097304 207:-0.798459 208:-0.407255 209:-0.394626 210:-0.369629 211:-0.228675 212:-0.669588 213:-0.615357 214:0.302326 215:-0.416349 216:-0.876483 217:-0.28558 218:-0.281328 219:0.465261 220:-0.583966 221:-0.80284 222:-0.80749 223:0.174603 224:-0.466534 225:-0.964339 226:-0.21647 227:-0.377933 228:0.227809 229:-0.883017 230:-0.927395 231:-0.444735 232:-0.006452 233:-0.107351 234:-0.973933 235:0.035352 236:-0.217659 237:0.247939 238:-0.605369 239:-0.629708 240:0.188967 241:-0.177046 242:0.155851 243:-0.831898 244:0.118509 245:-0.745566 246:0.942025 247:-0.985452 248:-0.898361 249:0.34849 250:-0.597561 251:0.067938 252:-0.827323 253:-0.156394 254:-0.561696 255:-0.039492 256:-0.842862 257:-0.935482 258:-0.20772 259:0.148936 260:-0.079341 261:-0.973223 262:-0.038951 263:-0.161134 264:-0.025517 265:-0.780312 266:-0.875305 267:-0.029893 268:0.398458 269:-1.71E-4 270:-0.933794 271:-0.114161 272:-0.241598 273:-0.774476 274:-0.739609 275:-0.848458 276:-0.230252 277:0.796178 278:-0.104824 279:-0.949767 280:-0.056221 281:0.022156 282:-0.626321 283:-0.560098 284:-0.595607 285:-0.060518 286:0.129123 287:0.051889 288:-0.793249 289:0.048995 290:-0.086252 291:-0.955263 292:-0.862987 293:-0.915566 294:-0.017288 295:-0.211864 296:0.042625 297:-0.964678 298:-0.393889 299:-0.479073 300:0.450437 301:-0.947011 302:-0.948849 303:-0.768495 304:0.62963 305:-0.028693 306:-0.964788 307:0.374212 308:-1.0 309:0.7985 310:-1.0 311:-0.954684 312:0.527049 313:-0.36 314:0.036201 315:-0.9286 316:0.257759 317:-0.2157 318:-0.561812 319:-0.597654 320:-0.764324 321:0.734177 322:-0.178571 323:0.281977 324:-0.933005 325:0.832081 326:0.835772 327:0.839461 328:-0.882686 329:-0.832955 330:0.997112 331:-0.511567 332:0.182299 333:-0.606891 334:-0.472218 335:-0.905455 336:0.197094 337:-0.925191 338:-0.926666 339:-0.390745 340:0.141442 341:-0.466781 342:-0.669348 343:0.114305 344:-0.871173 345:-0.275206 346:-0.955899 347:-0.937309 348:-0.818803 349:0.405751 350:0.141927 351:-0.880323 
2.936484568501681 1:-0.464349 2:-0.46579 3:-0.46704 4:-0.114588 5:-0.13807 6:-0.011574 7:0.49606 8:0.248887 9:-0.4239 10:-0.484887 11:0.57976 12:-0.673382 13:-0.719087 14:-0.611116 15:-0.870588 16:0.282412 17:-0.451509 18:-0.662792 19:-0.144472 20:0.171454 21:0.362885 22:-0.275828 23:-0.124325 24:0.321832 25:-0.218509 26:0.190354 27:-0.388447 28:-0.586981 29:0.482053 30:-0.464233 31:-0.594217 32:-0.460573 33:-0.37882 34:0.237288 35:0.695513 36:0.139003 37:-0.203296 38:-0.077613 39:0.816303 40:-0.496839 41:-0.848363 42:0.076174 43:0.287758 44:0.086364 45:-0.859153 46:-0.644942 47:0.482687 48:-0.901392 49:-0.018585 50:0.244649 51:0.182763 52:0.632231 53:-0.10879 54:0.191427 55:0.204328 56:-0.053411 57:-0.172851 58:0.236613 59:-0.241274 60:-0.448868 61:-0.014084 62:-0.389783 63:-0.71708 64:-0.69539 65:0.475607 66:0.069738 67:0.09994 68:-0.232199 69:0.962922 70:-0.51746 71:0.806672 72:-0.406269 73:0.240483 74:-0.046274 75:-0.541854 76:-0.244211 77:-0.441429 78:0.154035 79:0.09589 80:0.126624 81:-0.68234 82:0.231548 83:-0.942206 84:-0.626593 85:-0.737024 86:-0.455671 87:0.309555 88:0.221311 89:-0.121375 90:-0.320799 91:-0.53069 92:-0.415772 93:0.4973 94:-0.827918 95:-0.631352 96:-0.034197 97:0.276018 98:-0.398844 99:-0.657452 100:-0.293151 101:-0.771902 102:0.176701 103:0.073593 104:0.027904 105:-0.5152 106:0.042857 107:-0.542886 108:-0.217101 109:-0.126539 110:-0.537879 111:-0.884472 112:-0.17227 113:-0.089176 114:-0.382297 115:0.379085 116:0.281864 117:-0.346526 118:-0.31332 119:-0.854366 120:0.524466 121:-0.68358 122:-0.720036 123:-0.155416 124:0.234568 125:-0.627407 126:-0.82594 127:-0.630182 128:0.203615 129:0.518711 130:-0.468785 131:-0.785847 132:-0.263282 133:-0.274725 134:-0.214882 135:-0.957127 136:-0.069385 137:-0.442313 138:-0.17813 139:-0.668936 140:-0.771598 141:-0.412895 142:-0.249071 143:-0.384083 144:-0.794552 145:-0.042231 146:-0.67871 147:0.036612 148:-0.568601 149:-0.819308 150:0.461061 151:-0.219512 152:0.251779 153:-0.906842 154:0.082376 155:-0.153092 156:0.841214 157:-0.246056 158:-0.656865 159:-0.003952 160:0.042254 161:-0.34889 162:-0.871099 163:-0.154434 164:0.119625 165:0.183322 166:-0.380121 167:-0.69795 168:0.377693 169:0.02069 170:0.165919 171:-0.881435 172:-0.297121 173:-0.58536 174:0.369872 175:-0.481214 176:-0.626641 177:0.321217 178:0.8 179:0.637983 180:-0.758839 181:0.355577 182:0.072328 183:0.133536 184:-0.306801 185:-0.683331 186:-0.108218 187:0.168399 188:-0.050606 189:-0.946476 190:-0.127227 191:-0.306543 192:-0.148916 193:-0.662434 194:-0.798321 195:0.734292 196:0.333333 197:0.242025 198:-0.924434 199:0.195266 200:-0.778737 201:0.738054 202:-1.0 203:-0.956647 204:-0.566242 205:0.176471 206:-0.190201 207:-0.929161 208:-0.354597 209:-0.32166 210:0.259593 211:-0.36196 212:-0.561471 213:-0.665726 214:0.249169 215:-0.576958 216:-0.714094 217:-0.203879 218:-0.669593 219:0.681394 220:-0.714818 221:-0.802708 222:-0.815302 223:0.206349 224:-0.660856 225:-0.861957 226:-0.038439 227:-0.628736 228:0.217803 229:-0.798109 230:-0.789317 231:-0.443114 232:0.458065 233:-0.05426 234:-0.870735 235:0.057761 236:0.066474 237:0.243037 238:-0.724829 239:-0.866724 240:0.182616 241:0.508323 242:-0.034753 243:-0.990832 244:0.181731 245:-0.708292 246:0.916273 247:-0.856841 248:-0.868423 249:0.349452 250:-0.353659 251:0.060203 252:-0.876529 253:-0.074575 254:-0.54391 255:-0.111538 256:-0.763322 257:-0.839502 258:-0.208685 259:-0.404255 260:-0.10885 261:-0.910395 262:0.147628 263:-0.627134 264:0.528286 265:-0.663244 266:-0.721183 267:-0.032872 268:-0.177378 269:-0.070518 270:-0.861851 271:-0.089039 272:0.759071 273:-0.756422 274:-0.583342 275:-0.757435 276:-0.229726 277:-0.375796 278:-0.050993 279:-0.975193 280:0.0249 281:0.308278 282:-0.660677 283:-0.543669 284:-0.71435 285:-0.064454 286:0.095193 287:0.004067 288:-0.909126 289:-0.09748 290:-0.274935 291:-0.930543 292:-0.623948 293:-0.688566 294:-0.015997 295:-0.245763 296:0.059952 297:-0.886669 298:-0.391152 299:-0.13749 300:0.399162 301:-0.719987 302:-0.844647 303:-0.765562 304:-0.074074 305:0.054441 306:-0.968117 307:0.354991 308:-0.662303 309:0.743713 310:-0.99845 311:-0.975561 312:0.526348 313:-0.413333 314:-0.030528 315:-0.94349 316:0.366449 317:-0.177096 318:-0.570455 319:-0.673049 320:-0.881642 321:0.732103 322:-0.428571 323:0.230845 324:-0.971498 325:0.774326 326:0.77793 327:0.781569 328:-0.67388 329:-0.674742 330:0.97666 331:0.300054 332:-0.072904 333:-0.504745 334:-0.421732 335:-0.641976 336:0.196172 337:-0.832823 338:-0.804644 339:-0.394189 340:-0.069936 341:-0.632205 342:-0.253107 343:-0.016957 344:-0.610657 345:-0.292468 346:-0.909316 347:-0.909461 348:-0.817773 349:0.124601 350:0.296231 351:-0.929898 
5.716611994052546 1:-0.595026 2:-0.590762 3:-0.586367 4:-0.732688 5:-0.661867 6:-0.440232 7:-0.290186 8:-0.325716 9:-0.613785 10:-0.3359 11:0.460729 12:-0.580768 13:-0.813643 14:-0.427257 15:-0.782022 16:-0.71277 17:-0.030883 18:-0.086983 19:-0.075821 20:0.039589 21:0.364316 22:-0.321119 23:-0.518819 24:0.26855 25:-0.588689 26:0.072996 27:-0.551738 28:-0.720938 29:0.533496 30:-0.433546 31:-0.280935 32:-0.211346 33:-0.528567 34:-0.103814 35:0.112866 36:-0.434146 37:0.231361 38:-0.00247 39:0.815921 40:0.015826 41:-0.274437 42:-0.026431 43:-0.00318 44:-0.082917 45:-0.62882 46:0.197938 47:0.288852 48:-0.817064 49:0.166637 50:0.519532 51:0.59639 52:-0.330579 53:0.479066 54:0.222786 55:0.601214 56:-0.708927 57:-0.105259 58:-0.746183 59:-0.80541 60:-0.344838 61:0.369718 62:-0.401374 63:-0.68607 64:-0.199994 65:-0.281531 66:0.045166 67:-0.405005 68:0.089123 69:0.263663 70:-0.009524 71:-0.091873 72:0.159548 73:-0.590349 74:-0.010907 75:-0.547572 76:-0.090772 77:0.148963 78:0.242871 79:0.554794 80:0.193701 81:-0.224102 82:0.379962 83:-0.349186 84:-0.621463 85:-0.366409 86:-0.511626 87:0.701399 88:0.639344 89:0.600792 90:-0.764812 91:-0.037968 92:0.101853 93:0.439194 94:0.101535 95:-0.050904 96:-0.113231 97:0.348416 98:-0.341498 99:-0.478785 100:-0.352205 101:-0.095161 102:0.03139 103:-0.25477 104:-0.136162 105:-0.102988 106:-0.032143 107:-0.098148 108:-0.371303 109:0.171381 110:-0.72312 111:-0.888093 112:-0.639008 113:-0.628759 114:-0.436924 115:0.48366 116:0.192762 117:-0.573099 118:0.417943 119:-0.372668 120:0.540899 121:-0.540154 122:-0.616001 123:-0.127713 124:-0.333333 125:-0.433458 126:-0.891532 127:-0.315989 128:0.085446 129:0.58572 130:-0.419012 131:-0.578185 132:-0.254146 133:0.274725 134:-0.139828 135:-0.828979 136:-0.094703 137:-0.152118 138:-0.126927 139:-0.493711 140:-0.811107 141:-0.419599 142:-0.605948 143:-0.354388 144:-0.944039 145:-0.119346 146:0.12625 147:0.078546 148:-0.23348 149:-0.609557 150:0.436162 151:-0.163763 152:0.127931 153:-0.908793 154:0.008088 155:-0.397832 156:0.839993 157:-0.191412 158:-0.610643 159:0.166361 160:-0.672535 161:0.102121 162:-0.835873 163:0.220947 164:-0.409386 165:-0.294264 166:-0.787038 167:-0.85088 168:0.322066 169:0.172414 170:-0.001063 171:-0.894197 172:-0.15078 173:-0.537341 174:0.396796 175:-0.53238 176:-0.660097 177:0.281872 178:0.08 179:0.505026 180:-0.825429 181:0.447515 182:-0.248767 183:0.030668 184:-0.387945 185:-0.526167 186:-0.114962 187:-0.679834 188:-0.089093 189:-0.897207 190:-0.42516 191:-0.222493 192:-0.068788 193:-0.436754 194:-0.699067 195:0.732068 196:-0.777778 197:0.219722 198:-0.921416 199:-0.228192 200:-0.616448 201:0.74113 202:-0.696397 203:-0.7359 204:-0.502469 205:-0.235294 206:0.093137 207:-0.786176 208:-0.42685 209:-0.642957 210:-0.266652 211:-0.510339 212:-0.726226 213:-0.623734 214:-0.122924 215:-0.451014 216:-0.832163 217:-0.240319 218:-0.767779 219:0.621118 220:-0.714733 221:-0.772751 222:-0.812779 223:0.492063 224:-0.597968 225:-0.815712 226:-0.221613 227:0.189404 228:-0.01788 229:-0.603734 230:-0.776136 231:-0.44171 232:-0.025806 233:-0.042882 234:-0.965931 235:0.144607 236:-0.052515 237:0.249918 238:-0.628216 239:-0.717875 240:0.184161 241:0.404027 242:0.031105 243:-0.903071 244:0.089285 245:-0.521775 246:0.916432 247:-0.75059 248:-0.830037 249:0.34362 250:0.182927 251:-0.070951 252:-0.922058 253:-0.293229 254:-0.234629 255:0.014277 256:-0.640404 257:-0.784045 258:-0.207986 259:-0.234043 260:-0.081397 261:-0.911846 262:-0.090442 263:0.366411 264:0.538519 265:-0.577309 266:-0.824001 267:-0.029179 268:0.316195 269:0.015841 270:-0.980865 271:-0.310728 272:-0.491833 273:-0.759244 274:-0.862893 275:-0.936036 276:-0.228465 277:0.528662 278:-0.025341 279:-0.991185 280:-0.286724 281:0.092485 282:-0.747404 283:-0.715021 284:-0.837642 285:-0.064076 286:-0.38737 287:0.006965 288:-0.929099 289:-0.012404 290:0.527338 291:-0.957727 292:-0.614241 293:-0.69041 294:-0.01868 295:-0.114407 296:0.003005 297:-0.90973 298:-0.285766 299:-0.082646 300:0.438273 301:-0.61972 302:-0.82199 303:-0.765092 304:0.12963 305:0.049236 306:-0.980713 307:0.283429 308:-0.53948 309:0.770971 310:-0.835296 311:-0.848594 312:0.52762 313:-0.36 314:0.053227 315:-0.895362 316:0.450929 317:-0.466509 318:-0.56543 319:-0.751083 320:-0.860091 321:0.733565 322:-0.314732 323:0.259522 324:-0.931299 325:0.89508 326:0.897484 327:0.899877 328:-0.940231 329:-0.882882 330:0.998407 331:0.075969 332:0.048299 333:-0.315935 334:-0.49134 335:-0.665975 336:0.18774 337:-0.908909 338:-0.890313 339:-0.389223 340:1.0 341:-0.142743 342:-0.763631 343:0.193919 344:-0.613977 345:-0.274723 346:-0.875098 347:-0.884661 348:-0.817018 349:-0.4377 350:0.342456 351:-0.908769 
19.956608851850195 1:-0.117438 2:-0.113171 3:-0.108713 4:-0.276177 5:-0.408372 6:-0.440739 7:0.279687 8:-0.610176 9:-0.879242 10:-0.680464 11:0.73951 12:-0.796808 13:-0.720974 14:-0.689269 15:-0.783213 16:0.426081 17:-0.082678 18:-0.738306 19:-0.129801 20:-0.309434 21:0.367925 22:-0.382688 23:-0.417529 24:0.171831 25:-0.532134 26:-0.157372 27:-0.439717 28:-0.183621 29:0.485663 30:-0.44438 31:0.313195 32:0.354927 33:-0.206175 34:0.065148 35:0.386171 36:0.161784 37:0.001612 38:0.007497 39:0.850408 40:-0.339621 41:-0.398663 42:-0.574443 43:-0.233704 44:-0.76645 45:-0.550141 46:0.672498 47:-0.093243 48:-0.822662 49:0.23183 50:0.206896 51:0.470138 52:0.090909 53:0.310704 54:-0.561598 55:0.099298 56:0.821157 57:-0.225369 58:0.600701 59:-0.08861 60:0.003914 61:0.15493 62:-0.008549 63:-0.795603 64:-0.065483 65:-0.026692 66:0.022925 67:-0.099533 68:-0.405038 69:0.245686 70:-0.098413 71:-0.072203 72:-0.806475 73:-0.36941 74:-1.0 75:-0.55322 76:-0.821084 77:-0.879615 78:0.180078 79:-0.041096 80:0.322504 81:-0.427373 82:1.0 83:-0.770423 84:-0.646375 85:-0.561426 86:-0.393837 87:0.254127 88:0.75 89:-0.23495 90:-0.31053 91:0.655606 92:0.278856 93:0.532164 94:-0.299964 95:-0.455084 96:0.364809 97:0.384615 98:0.126173 99:-0.647283 100:-0.126122 101:-0.264441 102:0.157452 103:-0.422644 104:-0.567016 105:-0.477089 106:-0.257143 107:-0.612509 108:-0.687841 109:0.075676 110:-0.019933 111:-0.880697 112:-0.276973 113:-0.423156 114:-0.449769 115:0.535948 116:0.038315 117:-0.991419 118:0.052106 119:-0.680602 120:0.554388 121:-0.6233 122:-0.602444 123:-0.135689 124:-0.259259 125:-0.48536 126:-0.821005 127:-0.177667 128:-0.750602 129:0.966521 130:-0.761164 131:-0.846518 132:-0.261449 133:0.252747 134:-0.202952 135:-0.875046 136:-0.022933 137:0.032627 138:-0.150076 139:0.351157 140:-0.380766 141:-0.451319 142:0.167286 143:-0.266271 144:-0.862289 145:0.150908 146:-0.729945 147:0.028925 148:-0.504595 149:-0.653353 150:0.460935 151:0.170732 152:0.240495 153:-0.83531 154:0.325786 155:-0.672877 156:0.844764 157:-0.678841 158:-0.778464 159:0.039022 160:-0.126761 161:-0.278482 162:-0.862449 163:0.126563 164:0.016406 165:-0.093515 166:-0.32534 167:-0.665495 168:0.34527 169:0.613793 170:0.081317 171:-0.886122 172:-0.18087 173:-0.33875 174:0.400911 175:-0.61774 176:-0.74251 177:0.212907 178:0.48 179:0.208601 180:-0.898265 181:-0.064501 182:-0.642155 183:0.128694 184:-0.708823 185:-0.859608 186:-0.104768 187:0.035343 188:0.008237 189:-0.962535 190:-0.107054 191:-0.028816 192:-0.341614 193:-0.484005 194:-0.659823 195:0.758884 196:-0.333333 197:0.377466 198:-0.855405 199:0.201975 200:-0.407705 201:0.745996 202:-0.63716 203:-0.836634 204:-0.596934 205:-0.198529 206:-0.302348 207:-0.912841 208:-0.179217 209:-0.817619 210:-0.29377 211:-0.751855 212:-0.764873 213:-0.635154 214:-0.074751 215:-0.554696 216:-0.675252 217:-0.522304 218:-0.77812 219:0.638551 220:-0.56376 221:-0.673965 222:-0.799485 223:1.0 224:-0.353305 225:-0.805067 226:-0.261869 227:-0.645819 228:0.285026 229:-0.717884 230:-0.772677 231:-0.435827 232:-0.006452 233:0.0839 234:-0.878663 235:-3.16E-4 236:-0.363714 237:0.552669 238:-0.885664 239:-0.959584 240:0.183205 241:0.404027 242:-0.061758 243:-0.983782 244:0.167409 245:1.0 246:0.924193 247:-0.290337 248:-0.538184 249:0.33761 250:-0.256098 251:-0.063089 252:-0.933499 253:-0.19259 254:-0.337947 255:0.033951 256:-0.774433 257:-0.850015 258:-0.20453 259:-0.06383 260:0.030461 261:-0.892661 262:-0.055032 263:-0.533791 264:0.554107 265:-0.8922 266:-0.973195 267:-0.029382 268:0.562982 269:0.027589 270:-0.976892 271:-0.066531 272:0.10281 273:-0.848474 274:-0.674657 275:-0.825018 276:-0.232125 277:-0.78344 278:-0.146669 279:-0.944525 280:-0.146273 281:-0.257627 282:-0.959389 283:-0.846569 284:-0.970842 285:-0.065264 286:-0.025448 287:-0.031437 288:-0.959645 289:0.042925 290:-0.416041 291:-0.952209 292:-0.906808 293:-0.882374 294:-0.018495 295:0.033898 296:-0.034878 297:-0.903711 298:-0.555808 299:-0.019889 300:0.432561 301:-0.664877 302:-0.737945 303:-0.762844 304:-0.185185 305:0.087952 306:-0.908092 307:0.246466 308:-0.128442 309:0.757807 310:-0.859253 311:-0.895844 312:0.527208 313:-0.76 314:0.038273 315:-0.952186 316:0.493743 317:-0.369969 318:-0.550716 319:-0.89342 320:-0.963397 321:0.734195 322:0.553571 323:0.277045 324:-0.976914 325:0.727488 326:0.732874 327:0.738276 328:-0.746621 329:-0.718687 330:0.991559 331:0.016149 332:0.321738 333:-0.744554 334:-0.435739 335:-0.59187 336:0.22505 337:-0.865825 338:-0.897306 339:-0.390942 340:0.05689 341:-0.376647 342:-0.804272 343:0.051712 344:-0.822087 345:-0.268355 346:-0.899181 347:-0.926761 348:-0.816437 349:0.329073 350:0.438087 351:-0.885536 
22.39389431698795 1:0.056192 2:0.053711 3:0.051453 4:0.258918 5:0.18707 6:-0.026443 7:0.509684 8:-0.257479 9:-0.810652 10:-0.331249 11:0.44644 12:-0.563143 13:-0.617363 14:-0.365162 15:-0.88754 16:-0.122936 17:-0.460863 18:-0.474042 19:-0.047775 20:0.070074 21:0.358573 22:-0.180172 23:-0.072344 24:0.363121 25:-0.699229 26:0.27327 27:-0.333775 28:-0.112495 29:-0.129285 30:-1.0 31:0.135879 32:0.058239 33:-0.73104 34:-0.254237 35:-0.27077 36:-0.540056 37:0.250056 38:0.365212 39:0.840394 40:0.903391 41:1.0 42:0.350406 43:-0.240064 44:0.102758 45:-0.193156 46:0.053316 47:0.616487 48:-0.81133 49:1.0 50:0.740669 51:0.702644 52:-0.018595 53:0.440749 54:-0.324122 55:-0.191466 56:0.049452 57:-0.469778 58:-0.002815 59:-0.370894 60:-0.276466 61:0.978873 62:-0.224746 63:-0.792601 64:-0.223062 65:0.178878 66:-0.048627 67:-0.128016 68:-0.194764 69:0.444217 70:-0.174603 71:0.208789 72:-0.647947 73:0.059899 74:-0.186678 75:-0.552862 76:-0.385156 77:-0.489892 78:0.226674 79:-0.643836 80:0.248197 81:-0.582735 82:0.576227 83:0.107349 84:-0.615749 85:-0.11708 86:-0.070906 87:0.394359 88:0.47541 89:0.023227 90:-0.63367 91:-0.077374 92:-0.86032 93:0.474081 94:-0.959676 95:-0.946297 96:0.061155 97:0.029412 98:-0.257742 99:-0.824501 100:-0.00245 101:-0.529934 102:0.097994 103:0.097095 104:0.047082 105:-0.711066 106:-0.244085 107:-0.715957 108:-0.293022 109:0.070329 110:0.398568 111:1.0 112:0.517404 113:0.328836 114:-0.295174 115:0.633987 116:0.197031 117:-0.788264 118:0.280914 119:-0.575249 120:0.521698 121:-0.427045 122:-0.543157 123:-0.119799 124:0.199074 125:-0.398492 126:-0.886165 127:-0.310443 128:-0.123955 129:0.43928 130:-0.491407 131:-0.680364 132:-0.263647 133:-0.252747 134:-0.219457 135:-0.847035 136:0.057866 137:0.673613 138:-0.098748 139:0.120858 140:-0.472744 141:-0.32163 142:-0.665428 143:-0.074124 144:-0.904032 145:-0.091654 146:-0.472051 147:-0.765731 148:-0.13068 149:-0.466125 150:0.348994 151:-0.108014 152:-0.113933 153:-0.762782 154:-0.13105 155:0.435298 156:0.865332 157:-0.084818 158:-0.648524 159:0.014632 160:0.352113 161:-0.273291 162:-0.953187 163:0.068924 164:-0.364057 165:0.012775 166:-0.552493 167:-0.766717 168:0.315457 169:0.02069 170:-0.004034 171:-0.90756 172:0.485358 173:0.031971 174:0.399975 175:-0.052569 176:-0.474778 177:0.230588 178:-0.1 179:0.294922 180:-0.913663 181:0.620234 182:-0.391108 183:0.150356 184:-0.687788 185:-0.776709 186:-0.111462 187:0.634096 188:-0.069662 189:-0.923749 190:-0.597796 191:0.367107 192:-0.418011 193:-0.413687 194:-0.722349 195:0.709375 196:0.703704 197:0.104136 198:-0.940058 199:0.392664 200:-0.602112 201:0.738199 202:-0.908825 203:-0.994868 204:-0.561452 205:-0.088235 206:-0.154383 207:-0.977494 208:-0.450153 209:-0.453327 210:-0.297239 211:-0.4245 212:-0.609404 213:-0.485218 214:0.310631 215:0.050106 216:-0.60279 217:-0.122648 218:0.05596 219:0.622681 220:-0.123807 221:-0.454723 222:-0.843036 223:0.968254 224:-0.615674 225:-0.864507 226:-0.285883 227:-0.108411 228:-0.341173 229:-0.674453 230:-0.885352 231:-0.445602 232:0.045161 233:-0.101696 234:-0.99203 235:0.105566 236:-0.68501 237:0.253373 238:-0.812197 239:-0.849137 240:0.185887 241:0.702014 242:0.14963 243:-0.908235 244:0.08146 245:0.855244 246:0.921111 247:-0.254531 248:-0.655482 249:0.335331 250:0.085366 251:-0.070795 252:-0.957192 253:-0.264595 254:-0.152685 255:-0.0525 256:-0.539153 257:-0.652514 258:-0.203 259:-0.191489 260:-0.004467 261:-0.828391 262:0.031147 263:-0.134197 264:0.534135 265:-0.586738 266:-0.798335 267:-0.028319 268:-0.496144 269:0.032353 270:-0.945093 271:-0.269978 272:-0.032392 273:-0.766862 274:-0.746597 275:-0.896327 276:-0.230378 277:-0.579618 278:-0.113728 279:-0.97329 280:-0.101902 281:0.670961 282:-0.59666 283:-0.598195 284:-0.839129 285:-0.06794 286:0.396795 287:-0.044453 288:-0.945184 289:-0.053041 290:0.300316 291:-0.961687 292:-0.764028 293:-0.813034 294:-0.016754 295:-0.076271 296:0.055883 297:-0.942298 298:-0.303265 299:-0.360069 300:0.436059 301:-0.746765 302:-0.817908 303:-0.774268 304:-0.703704 305:-0.117328 306:-0.914887 307:0.362035 308:-0.163664 309:0.689369 310:-0.924279 311:-0.984719 312:0.524528 313:-0.15 314:-0.122103 315:-0.938736 316:0.345432 317:-0.112405 318:-0.564711 319:-0.618517 320:-0.694102 321:0.738598 322:0.080357 323:0.36906 324:-0.860233 325:0.5851 326:0.592607 327:0.600151 328:-0.599183 329:-0.655281 330:0.976669 331:0.204215 332:0.287514 333:-0.816449 334:-0.462632 335:-0.461154 336:0.195105 337:-0.605969 338:-0.662966 339:-0.373273 340:-0.334159 341:0.129975 342:-0.434727 343:0.074126 344:-0.140132 345:-0.537338 346:-0.627733 347:-0.705817 348:-0.817006 349:0.226837 350:0.240301 351:-0.889972 
25.578842933225076 1:-0.264302 2:-0.258763 3:-0.253036 4:-0.508798 5:-0.445542 6:-0.456398 7:-0.118307 8:-0.624869 9:-0.760531 10:-0.50367 11:0.585455 12:-0.668499 13:-0.599814 14:-0.555634 15:-0.774673 16:-0.129107 17:-0.097043 18:-0.678304 19:0.672992 20:-0.818772 21:0.370131 22:-0.287833 23:-0.213559 24:0.182368 25:-0.167095 26:-0.104102 27:-0.192158 28:-0.212747 29:-0.097131 30:-0.423359 31:-0.43413 32:-0.237236 33:-0.532149 34:-0.572034 35:0.154051 36:-0.201331 37:0.390801 38:-0.283769 39:0.781066 40:-0.671589 41:-0.349189 42:0.178468 43:0.262321 44:0.29143 45:-0.474294 46:0.868023 47:-0.570128 48:-0.794448 49:0.22385 50:0.360757 51:0.206913 52:-0.107438 53:-0.015497 54:-0.259439 55:0.165493 56:0.846457 57:0.061214 58:1.0 59:0.217475 60:-0.202153 61:0.408451 62:-0.172816 63:-0.905843 64:-0.099717 65:-0.57361 66:0.069318 67:-0.638493 68:-0.647542 69:0.606473 70:-0.098413 71:0.648887 72:-0.405145 73:0.394111 74:-0.065707 75:-0.557178 76:0.026686 77:0.836977 78:-1.0 79:-0.315069 80:-0.958341 81:1.0 82:-0.019503 83:-0.440853 84:-0.583035 85:-0.686015 86:-0.755531 87:0.154361 88:0.147541 89:-0.523019 90:-0.731577 91:-0.388221 92:0.118043 93:0.509669 94:0.896052 95:0.222195 96:-0.446843 97:0.307692 98:-0.44761 99:-0.691334 100:-0.799242 101:0.226887 102:0.105442 103:0.593344 104:0.012791 105:-0.6248 106:0.0 107:-0.536615 108:-0.79449 109:-0.046107 110:-0.100911 111:-0.886949 112:-0.162042 113:-0.242188 114:-0.430076 115:0.437909 116:0.11046 117:-0.864156 118:-0.153942 119:-0.308871 120:0.520657 121:-0.525105 122:-0.72233 123:-0.120045 124:-0.493827 125:-0.399902 126:-0.993632 127:-0.279359 128:-0.16059 129:0.407341 130:-0.472919 131:-0.770919 132:-0.263075 133:-0.032967 134:-0.213201 135:-0.948932 136:-0.069429 137:-0.29238 138:-0.168989 139:-0.494104 140:-0.840069 141:-0.372916 142:1.0 143:-0.16782 144:-0.964751 145:0.118566 146:-0.457957 147:0.032639 148:-0.491651 149:-0.71529 150:0.453876 151:-0.344948 152:0.201907 153:-0.908836 154:0.360247 155:-0.287991 156:0.839575 157:-0.154037 158:-0.584431 159:0.015894 160:-0.612676 161:-0.2795 162:-0.878566 163:-0.019135 164:1.0 165:-0.029975 166:0.200716 167:-0.444051 168:0.467393 169:-0.393103 170:0.174542 171:-0.91998 172:-0.33267 173:-0.256456 174:0.419285 175:-0.646754 176:-0.775427 177:0.247622 178:0.08 179:0.377986 180:-0.932039 181:-0.766986 182:0.054769 183:0.190385 184:-0.400359 185:-0.530861 186:-0.132763 187:-0.180873 188:-0.199971 189:-0.86464 190:-0.09476 191:-0.687837 192:-0.126699 193:-1.0 194:-1.0 195:0.729345 196:-1.0 197:0.173852 198:-0.898736 199:-0.17813 200:0.035082 201:0.762841 202:-0.046368 203:-0.601791 204:-0.476377 205:-0.073529 206:-0.051606 207:-0.917027 208:-0.047119 209:-0.440482 210:-0.253675 211:-0.224119 212:-0.651925 213:-0.552587 214:-0.096346 215:-0.258272 216:-0.837076 217:-0.297991 218:-0.253141 219:0.666068 220:-0.395466 221:-0.692507 222:-0.812341 223:-0.015873 224:-0.507257 225:-0.957224 226:-0.192779 227:-0.089763 228:0.234294 229:-0.757472 230:-0.919032 231:-0.440777 232:0.587097 233:-0.004058 234:-0.995961 235:-0.007146 236:-0.688822 237:0.252779 238:-0.820815 239:-0.889049 240:0.18605 241:0.147945 242:0.16685 243:-0.936276 244:0.124165 245:-0.249296 246:0.908526 247:-0.773575 248:-0.787897 249:0.345337 250:-0.109756 251:-0.041193 252:-0.907966 253:-0.094824 254:-0.507649 255:-0.021211 256:-0.724042 257:-0.810175 258:-0.20538 259:-0.744681 260:-0.011575 261:-0.878288 262:0.101679 263:-0.166185 264:0.556026 265:-0.570079 266:-0.740832 267:-0.027791 268:0.172237 269:0.040404 270:-0.921798 271:-0.145965 272:1.0 273:-0.757228 274:-0.419863 275:-0.726605 276:-0.227607 277:-0.630573 278:-0.009635 279:-0.993728 280:-0.210664 281:-0.299489 282:-0.64957 283:-0.821986 284:-0.951404 285:-0.061895 286:-0.244109 287:0.065984 288:-0.942487 289:0.158507 290:-0.170662 291:-0.954099 292:-0.666752 293:-0.784163 294:-0.012931 295:-0.279661 296:0.141853 297:-0.904365 298:-0.339442 299:-0.761586 300:0.433497 301:-1.0 302:-1.0 303:-0.768325 304:-0.12963 305:-0.033333 306:-0.974016 307:0.297042 308:-0.007597 309:0.806403 310:-0.621309 311:-0.804079 312:0.530416 313:-0.626667 314:0.08412 315:-0.953613 316:0.522826 317:-0.285891 318:-0.560155 319:-0.642938 320:-0.77925 321:0.729829 322:-0.214286 323:0.187566 324:-0.905812 325:0.766833 326:0.771835 327:0.776826 328:-0.829175 329:-0.82907 330:0.996878 331:-0.167781 332:0.471724 333:-0.812011 334:-0.438949 335:-0.436845 336:0.247472 337:-0.796597 338:-0.814697 339:-0.390793 340:-0.534968 341:-0.295331 342:-0.723097 343:0.064341 344:-0.437381 345:-0.325255 346:-0.804445 347:-0.875295 348:-0.815825 349:-0.182109 350:0.349785 351:-0.928993 
4.07870684396874 1:-0.338674 2:-0.347682 3:-0.356415 4:0.390402 5:0.271962 6:0.58405 7:0.251762 8:0.137924 9:-0.592926 10:-0.311196 11:0.387071 12:-0.470406 13:-0.229169 14:0.181188 15:-0.473637 16:-0.329941 17:0.268072 18:-0.149665 19:-0.507792 20:0.745424 21:0.594122 22:0.111151 23:0.400202 24:0.284578 25:-0.33162 26:0.145541 27:-0.162306 28:-0.587886 29:0.504611 30:-0.409692 31:-0.027559 32:0.260717 33:-0.442058 34:1.0 35:0.195232 36:0.110059 37:-0.209424 38:0.245755 39:0.784412 40:-0.081266 41:-0.001804 42:0.429323 43:-1.0 44:0.396015 45:-0.421895 46:0.080547 47:-0.383081 48:-0.790817 49:0.473688 50:1.0 51:-0.302937 52:-0.421488 53:-0.490839 54:1.0 55:0.543679 56:0.039196 57:0.462966 58:0.24065 59:-0.165349 60:-0.428143 61:0.080986 62:-0.369059 63:-0.803129 64:0.544689 65:-0.142704 66:0.025544 67:-0.239335 68:-0.294166 69:0.539629 70:-0.136508 71:0.371002 72:-0.543644 73:0.785484 74:-0.078741 75:-0.551254 76:-0.014259 77:0.339144 78:0.863306 79:0.178082 80:0.762063 81:0.146325 82:-0.433726 83:-0.682938 84:-0.621611 85:-0.418844 86:0.093771 87:0.353741 88:-1.0 89:-0.019947 90:0.159835 91:-0.494648 92:-0.293114 93:0.555423 94:0.091033 95:0.065604 96:-0.350257 97:0.972851 98:-0.547279 99:-0.392882 100:-0.695439 101:0.049778 102:-0.050992 103:-0.328849 104:-0.533733 105:-0.150048 106:-0.776786 107:-0.143506 108:-0.731725 109:0.071577 110:-0.532742 111:-0.88723 112:0.151516 113:0.436624 114:-0.334006 115:0.751634 116:0.253579 117:-0.186381 118:-0.304951 119:-0.292008 120:0.541439 121:-0.296525 122:-0.403438 123:-0.11775 124:-0.135802 125:-0.393005 126:-0.874613 127:-0.471085 128:0.781278 129:0.520689 130:0.300446 131:0.135714 132:-0.434796 133:-0.379121 134:-0.565803 135:-0.281966 136:0.136508 137:0.172188 138:-0.181517 139:0.961363 140:0.756417 141:0.051523 142:-0.130112 143:0.149151 144:-0.335723 145:0.031793 146:-0.446693 147:-0.210509 148:-0.435793 149:-0.651612 150:0.379625 151:-0.247387 152:-0.150225 153:-0.750165 154:0.056219 155:-0.501504 156:0.840044 157:-0.184503 158:-0.486684 159:0.07378 160:0.225352 161:-0.136482 162:-0.790044 163:-0.214165 164:0.694312 165:0.0768 166:0.714299 167:0.657585 168:-0.886264 169:-0.02069 170:-0.539399 171:0.528375 172:0.172235 173:-0.031705 174:0.343825 175:0.178724 176:0.430039 177:0.316661 178:-0.16 179:0.427992 180:-0.352872 181:0.701905 182:-0.14457 183:0.03165 184:-0.05481 185:-0.269629 186:-0.079678 187:-0.031185 188:0.043436 189:-0.815787 190:0.679678 191:0.339784 192:1.0 193:-0.149681 194:-0.309896 195:0.783208 196:0.407407 197:0.378296 198:-0.71942 199:-0.637916 200:-0.211453 201:0.737524 202:-0.141528 203:-0.405003 204:-0.764854 205:0.764706 206:-0.508777 207:-0.595836 208:-0.295481 209:-0.436383 210:-0.270449 211:-0.459776 212:-0.81853 213:-0.673594 214:0.116279 215:-0.638699 216:-0.871925 217:-0.226354 218:-0.41134 219:0.617194 220:-0.440488 221:-0.625374 222:-0.814857 223:0.730159 224:-0.536962 225:-0.847687 226:0.298917 227:-0.428914 228:0.290035 229:-0.457542 230:-0.557917 231:-0.419267 232:0.045161 233:0.147498 234:-0.743977 235:-0.434772 236:0.249741 237:0.262432 238:0.18909 239:0.270083 240:-0.1033 241:-0.102549 242:-0.849179 243:0.654979 244:-0.850214 245:0.736436 246:0.92008 247:0.832973 248:0.83127 249:-0.638492 250:-0.365854 251:-0.890555 252:0.626922 253:-0.434297 254:-0.507294 255:-0.153041 256:-0.574808 257:-0.555583 258:-0.233532 259:0.138298 260:-0.506539 261:-0.331055 262:0.217951 263:0.349512 264:0.861295 265:-0.495993 266:-0.711261 267:-0.026858 268:0.213368 269:0.046733 270:-0.944504 271:-1.0 272:0.195646 273:-0.762533 274:0.688629 275:0.741558 276:-1.0 277:-0.910828 278:-1.0 279:0.924898 280:-0.980118 281:-0.320699 282:-0.640557 283:0.429393 284:0.385539 285:-0.556419 286:0.366635 287:-0.859229 288:0.710655 289:0.04817 290:0.621024 291:-0.952053 292:-0.232295 293:-0.203984 294:0.024378 295:-0.449153 296:0.328243 297:-0.454754 298:-0.759349 299:0.328006 300:0.43299 301:-0.224234 302:-0.204325 303:-0.866424 304:-0.259259 305:-0.394622 306:-0.42023 307:0.417995 308:-0.346642 309:0.693152 310:-0.645602 311:-0.591154 312:0.529407 313:-0.253333 314:0.071173 315:-0.776091 316:0.346971 317:-0.200652 318:1.0 319:-0.684216 320:-0.7495 321:0.725187 322:0.607143 323:0.052778 324:-0.787429 325:0.646223 326:0.64959 327:0.653043 328:-0.398301 329:-0.369744 330:0.896318 331:0.319075 332:-0.164344 333:-0.42993 334:-0.469893 335:-0.708855 336:0.191748 337:-0.612453 338:-0.602864 339:-0.381698 340:-0.175625 341:-0.041886 342:-0.135602 343:0.068919 344:-0.622723 345:-0.243894 346:-0.679984 347:-0.671678 348:-0.809265 349:-0.054313 350:0.432175 351:-0.684127 
11.42825858149334 1:0.11464 2:0.112407 3:0.11048 4:0.281203 5:0.262633 6:0.161079 7:0.060241 8:-0.096197 9:-0.753227 10:0.457946 11:-0.415025 12:0.363207 13:0.601887 14:0.652557 15:0.491313 16:-0.086992 17:0.327002 18:-0.506971 19:0.210247 20:-0.215482 21:0.365192 22:-0.531383 23:-0.280004 24:0.371166 25:-0.321337 26:0.308176 27:-0.258375 28:0.01676 29:-0.537721 30:-0.405081 31:-0.237233 32:-0.240902 33:-0.418876 34:-0.726695 35:0.328225 36:-0.367695 37:0.193777 38:0.068372 39:0.815815 40:0.161969 41:0.236907 42:-0.370974 43:-0.017488 44:-0.389178 45:-0.492386 46:0.159036 47:0.387687 48:-0.796259 49:0.720849 50:0.855093 51:0.630512 52:-0.051653 53:0.423406 54:-0.313348 55:0.100586 56:-0.355631 57:-0.176931 58:-0.32207 59:-0.458999 60:-0.111984 61:0.183099 62:0.024237 63:-0.775601 64:-0.152162 65:-0.02155 66:-0.020151 67:-0.114697 68:-0.064572 69:0.311444 70:-0.073016 71:0.018982 72:-0.431835 73:0.374808 74:-0.141496 75:-0.573739 76:-0.322833 77:-0.005519 78:0.797166 79:-0.015411 80:0.945548 81:0.474544 82:-0.045041 83:-0.188255 84:-0.617156 85:-0.436721 86:-0.349272 87:0.502896 88:0.492828 89:0.270335 90:-0.535593 91:-1.0 92:0.339333 93:0.466049 94:0.332247 95:-0.187462 96:0.524398 97:-1.0 98:0.161725 99:-0.661699 100:0.196601 101:-0.320121 102:0.131184 103:-0.072235 104:-0.184221 105:-0.45583 106:-0.0375 107:-0.509455 108:-0.60383 109:-0.518832 110:0.442035 111:-0.878746 112:0.657944 113:0.611233 114:-0.497682 115:0.673203 116:0.014075 117:-0.721893 118:-0.400403 119:1.0 120:0.535237 121:1.0 122:0.494392 123:0.598177 124:-0.268519 125:-0.134113 126:-0.826852 127:-0.423852 128:-0.616696 129:0.521175 130:-0.627076 131:-0.770927 132:-0.24764 133:0.186813 134:-0.014918 135:-0.862603 136:-0.174336 137:-0.418903 138:-0.173165 139:-0.091159 140:-0.181786 141:-0.437115 142:-0.36803 143:-0.308448 144:-0.646146 145:-0.171606 146:0.270778 147:0.017105 148:-0.102663 149:-0.652327 150:0.438263 151:-0.076655 152:0.139514 153:-0.956371 154:-0.656135 155:-0.27609 156:0.836991 157:0.009108 158:-0.450437 159:0.120779 160:-0.295775 161:-0.056639 162:-0.844596 163:0.062921 164:-0.710323 165:0.04032 166:-0.751364 167:-0.759658 168:0.341864 169:0.77931 170:0.118502 171:-0.755663 172:-0.087039 173:0.075205 174:0.446111 175:-0.424451 176:-0.576256 177:0.180262 178:0.4 179:0.118902 180:-0.849061 181:0.388346 182:0.170496 183:0.150936 184:-0.466934 185:-0.580781 186:-0.106702 187:-0.064449 188:-0.034772 189:-0.909811 190:0.03425 191:-0.445985 192:-0.199204 193:-0.648201 194:-0.786135 195:0.701143 196:-0.148148 197:-0.038294 198:-0.859211 199:0.200852 200:-0.21857 201:0.734264 202:-0.369169 203:-0.646654 204:-0.53777 205:-0.161765 206:-0.11449 207:-0.887936 208:-0.295868 209:-0.996088 210:-0.267963 211:-0.689256 212:-0.835925 213:-0.681423 214:-0.255814 215:-0.820475 216:-0.705036 217:0.022184 218:0.273663 219:0.728249 220:0.049824 221:-0.31006 222:-0.899824 223:0.372024 224:-0.733732 225:-0.774838 226:0.152722 227:1.0 228:0.339219 229:0.303244 230:-0.319203 231:-0.521315 232:0.580645 233:-0.217211 234:-0.912114 235:3.35E-4 236:-0.228791 237:0.268487 238:-0.770945 239:-0.826767 240:0.184892 241:0.255034 242:0.072465 243:-0.937847 244:0.122529 245:-0.199568 246:0.921233 247:-0.569619 248:-0.544563 249:0.344503 250:-0.018293 251:-0.037576 252:-0.795346 253:-0.102717 254:0.28797 255:0.175853 256:-0.621435 257:-0.863309 258:-0.207832 259:-0.489362 260:-0.077872 261:-0.978547 262:0.049949 263:0.085675 264:0.589523 265:-0.577357 266:-0.766187 267:-0.030988 268:-0.167095 269:-0.017212 270:-0.931875 271:-0.307914 272:-0.243904 273:-0.711457 274:-0.759547 275:-0.8626 276:-0.228534 277:0.33758 278:-0.026592 279:-0.961268 280:-0.201885 281:0.013568 282:-0.540379 283:-0.686636 284:-0.74041 285:-0.065677 286:-0.146089 287:-0.021037 288:-0.852756 289:-0.007684 290:0.140119 291:-0.940627 292:-0.667647 293:-0.775253 294:-0.018175 295:-0.398305 296:0.011125 297:-0.928088 298:-0.490327 299:-0.152414 300:0.438004 301:-0.756786 302:-0.84322 303:-0.768415 304:-0.037037 305:2.0E-4 306:-0.976087 307:0.262076 308:-0.291652 309:0.910628 310:-0.663484 311:-0.69823 312:0.53096 313:-0.52 314:0.103912 315:-0.853159 316:0.254076 317:-0.379411 318:-0.603568 319:-0.824866 320:-0.876152 321:0.733214 322:0.071429 323:0.232707 324:-0.883761 325:0.445701 326:0.449457 327:0.453397 328:-0.143961 329:-0.261471 330:0.804171 331:0.390779 332:0.078437 333:-0.689739 334:-0.197438 335:-0.104024 336:0.268801 337:-0.065128 338:-0.316838 339:-0.420844 340:0.141442 341:-0.306919 342:-0.511296 343:-0.310803 344:0.369986 345:-0.303417 346:-0.101793 347:-0.312418 348:-0.733186 349:-0.399361 350:0.444624 351:-0.817824 
6.178676223492908 1:-0.17848 2:-0.177067 3:-0.175332 4:-0.1056 5:0.140683 6:0.096388 7:0.470427 8:0.448502 9:-0.076242 10:-0.461656 11:0.551688 12:-0.641397 13:-0.627939 14:-0.248291 15:-0.7422 16:0.064175 17:0.022131 18:-0.270486 19:-0.239169 20:0.619473 21:0.333082 22:0.284114 23:-0.655866 24:0.310537 25:0.079692 26:0.191189 27:-1.0 28:-1.0 29:0.902543 30:-0.394661 31:-0.879713 32:-0.696641 33:-0.683009 34:-0.038136 35:-0.289307 36:-0.36526 37:-0.314025 38:-0.542529 39:0.806151 40:-0.595616 41:-1.0 42:-0.352787 43:0.656598 44:-0.567986 45:-1.0 46:0.086076 47:-0.200972 48:-0.796872 49:0.6043 50:0.815003 51:0.549243 52:0.161157 53:0.364897 54:-0.283583 55:-0.294003 56:0.026303 57:-0.225725 58:0.126123 59:0.153963 60:0.873823 61:0.239437 62:1.0 63:0.937982 64:-0.201247 65:0.123507 66:0.02564 67:0.170144 68:0.07163 69:0.874095 70:-0.174603 71:0.668284 72:-0.313552 73:0.052465 74:0.053744 75:-0.555448 76:0.110598 77:0.168636 78:0.049001 79:0.246575 80:-0.008399 81:-0.496564 82:0.124289 83:-0.221898 84:-0.636968 85:0.303116 86:0.623115 87:0.121074 88:0.327869 89:-0.259223 90:-0.025397 91:0.306092 92:-0.095573 93:0.475587 94:0.48179 95:0.020367 96:-0.340553 97:-0.21267 98:-0.45508 99:-0.657767 100:-0.304302 101:-1.0 102:0.135052 103:-1.0 104:-0.559989 105:-0.063285 106:0.585714 107:0.338253 108:0.276139 109:0.125289 110:-0.774812 111:-0.892874 112:0.044229 113:0.276961 114:-0.464376 115:0.431373 116:0.014109 117:-0.157012 118:0.163715 119:-0.885855 120:0.523079 121:-0.735822 122:-0.728213 123:-0.092942 124:0.135802 125:-0.200449 126:-0.839797 127:-0.116865 128:-0.799294 129:0.547422 130:-0.748535 131:-0.901153 132:-0.258222 133:-0.076923 134:-0.141027 135:-0.948212 136:-0.301275 137:-0.482497 138:-0.145973 139:-0.934908 140:-1.0 141:-0.372608 142:-0.159851 143:-0.175671 144:-0.980297 145:0.057777 146:-0.198386 147:-0.017064 148:-0.456273 149:-0.788198 150:0.445678 151:0.449477 152:0.159374 153:-0.960423 154:0.37215 155:0.182244 156:0.844473 157:-0.012971 158:-0.422594 159:0.107055 160:0.014085 161:-0.080205 162:-0.850611 163:0.352888 164:0.255403 165:0.198252 166:-0.303227 167:-0.591064 168:0.342121 169:0.393103 170:0.073111 171:-0.8583 172:-0.196616 173:-0.099292 174:0.345626 175:-0.357032 176:-0.675657 177:0.248414 179:0.350004 180:-0.910647 181:-0.325168 182:-0.053956 183:0.082693 184:-0.393894 185:-0.776347 186:-0.11854 187:-0.513514 188:-0.111265 189:-0.976716 190:-0.356574 191:0.257435 192:-0.303855 193:-0.137863 194:-0.501807 195:0.760236 196:0.0 197:0.304427 198:-0.871086 199:0.133952 200:-0.426552 201:0.740298 202:-0.624574 203:-0.728373 204:-0.539524 205:-0.308134 206:-0.08307 207:-0.848644 208:-0.145937 209:-0.701195 210:-0.219198 211:-0.708732 212:-0.745325 213:-0.626494 214:0.215947 215:-0.486182 216:-0.644945 217:-0.399389 218:-0.835064 219:0.678037 220:-0.4821 221:-0.610136 222:-0.854709 223:0.365079 224:-0.978392 225:-0.557086 226:-0.202356 227:-0.645648 228:0.284974 229:-0.83929 230:-0.921679 231:-0.443774 232:0.2 233:-0.07175 234:-0.954926 235:0.099401 236:-0.499687 237:-1.0 238:-0.893173 239:-0.926289 240:0.184687 241:0.34443 242:0.093229 243:-0.95874 244:0.326188 245:-0.405939 246:0.917624 247:-0.908651 248:-0.990546 249:0.347495 250:0.134146 251:0.01238 252:-0.978989 253:-0.145967 254:-0.680529 255:0.011117 256:-0.796731 257:-0.885014 258:-0.207119 259:-0.636968 260:-0.055871 261:-0.934582 262:0.003886 263:0.504688 264:0.396151 265:-0.572557 266:-0.721285 267:-0.025996 268:-0.012853 269:0.072983 270:-0.902867 271:-0.050875 272:-0.133431 273:-0.762073 274:-0.734841 275:-0.804856 276:-0.229728 277:0.643312 278:-0.079421 279:-0.942207 280:-0.015956 281:0.165949 282:-0.594425 283:-0.559249 284:-0.80507 285:-0.064748 286:0.517436 287:1.91E-4 288:-0.934883 289:0.045597 290:-0.137079 291:-0.953733 292:-0.628256 293:-0.791758 294:-0.015626 295:-0.347458 296:0.068547 297:-0.954868 298:-0.301474 299:0.101126 300:0.434929 301:-0.478204 302:-0.709205 303:-0.756765 304:0.166667 305:0.105394 306:-0.963692 307:0.290728 308:-0.617811 309:0.773671 310:-0.89664 311:-0.912314 312:0.527885 313:-0.513333 314:0.076485 315:-0.928875 316:0.542705 317:-0.735967 318:-0.563171 319:-0.791367 320:-0.773061 321:0.733666 322:0.482143 323:0.258646 324:-0.798291 325:0.782367 326:0.785967 327:0.789592 328:-0.695503 329:-0.586779 330:0.973547 331:0.287051 332:-0.380196 333:-0.00765 334:-0.47288 335:-0.72027 336:0.178895 337:-0.728977 338:-0.678206 339:-0.399524 340:0.183717 341:-0.637218 342:-0.031131 343:0.193138 344:-0.633827 345:-0.24902 346:-0.758338 347:-0.726893 348:-0.815149 349:-0.233227 350:0.339026 351:-0.768084 
39.48323583207922 1:0.260336 2:0.25666 3:0.253328 4:0.430457 5:0.313492 6:0.324552 7:0.304435 8:-0.106073 9:-0.760952 10:-0.23682 11:0.368609 12:-0.497971 13:-0.683249 14:-0.451646 15:-0.685262 16:-0.503167 17:0.279488 18:-0.231429 19:-0.121965 20:0.783362 21:0.269778 22:0.008115 23:-0.108577 24:0.439895 25:-0.192159 26:0.394663 27:-0.494717 28:-0.381823 29:-0.120687 30:-0.399068 31:-0.080067 32:-0.285128 33:-0.477667 34:-0.258475 35:0.151365 36:-0.665584 37:-0.661393 38:-0.120149 39:0.842551 40:-0.317762 41:0.435344 42:-0.21886 43:-0.435115 44:-0.311017 45:0.246811 46:-0.202843 47:0.757389 48:-0.8246 49:0.324797 50:0.310369 51:0.341594 52:0.214876 53:0.15812 54:-0.180337 55:-0.188203 56:0.08406 57:-0.035542 58:0.191678 59:-0.49222 60:-0.201896 61:0.676056 62:-0.146799 63:-0.92269 64:-0.27256 65:-0.474003 66:0.04184 67:-0.414915 68:-0.41069 69:0.495439 70:-0.161905 71:0.336167 72:-0.257613 73:0.406158 74:-0.55914 75:-0.563352 76:-0.155296 77:0.133269 78:-0.360394 79:-0.256849 80:-0.436843 81:0.28638 82:0.048906 83:-0.590718 84:-0.62116 85:-0.678359 86:-0.597838 87:0.194473 88:0.672131 89:-0.414973 90:-0.521621 91:-0.145314 92:-0.191342 93:0.505706 94:-0.059663 95:-0.154313 96:-0.234749 97:0.493213 98:-0.478749 99:-0.528348 100:-0.411411 101:-0.025049 102:0.166618 103:-0.626011 104:-1.0 105:-0.227754 106:-0.475 107:-0.215691 108:-0.930457 109:0.051948 110:-0.257388 111:-0.891521 112:0.080274 113:0.043193 114:-0.522216 115:0.647059 116:-0.101412 117:-0.572697 118:-0.125897 119:-0.374437 120:0.54213 121:-0.502071 122:-0.628367 123:-0.10052 124:-0.135802 125:-0.322197 126:-0.914519 127:-0.577251 128:0.001802 129:0.527404 130:-0.654365 131:-0.861187 132:-0.259142 133:0.208791 134:-0.167336 135:-1.0 136:-0.042366 137:-0.225262 138:-0.154761 139:-0.426624 140:-0.743413 141:-0.389809 142:-0.152416 143:-0.227813 144:-0.926397 145:-0.162294 146:-0.281658 147:-0.035041 148:-0.282024 149:-0.537027 150:0.509197 151:-0.108014 152:0.387938 153:-0.751766 154:0.39696 155:-0.603384 156:0.850127 157:-0.480827 158:-0.617001 159:0.032755 160:0.380282 161:-0.275301 162:-0.803631 163:-0.363864 164:0.39843 165:0.1457 166:-0.404497 167:-0.795753 168:0.303394 169:0.317241 170:-0.021986 171:-0.941403 172:-0.008193 173:-0.417134 174:0.39836 175:-0.684382 176:-0.817106 177:0.254225 178:-0.08 179:0.418951 180:-0.920752 181:0.521991 182:0.043737 183:0.047564 184:-0.571642 185:-0.836924 186:-0.105682 187:-0.176975 188:-0.018741 189:-0.976758 190:0.025427 191:-0.401019 192:-0.459735 193:-0.735679 194:-0.865942 195:0.731535 196:0.333333 197:0.218545 198:-0.912691 199:-0.17478 200:-0.58492 201:0.736562 202:-0.86917 203:-0.935706 204:-0.562584 205:-0.0 206:-0.163789 207:-0.94259 208:-0.222563 209:-0.880213 210:-0.237365 211:-0.886114 212:-0.926104 213:-0.619494 214:0.222591 215:-0.454153 216:-0.765865 217:-0.264605 218:-0.361464 219:0.309419 220:-0.513425 221:-0.761542 222:-0.803054 223:-0.126984 224:-0.413499 225:-0.925047 226:-0.299551 227:0.020814 228:0.245354 229:-0.563343 230:-0.793567 231:-0.4472 232:0.483871 233:-0.111502 234:-0.968888 235:0.079916 236:-0.64432 237:0.335225 238:-0.942812 239:-0.93769 240:0.183601 241:0.687114 242:-0.044277 243:-0.934879 244:0.076449 245:-0.09322 246:0.934356 247:-0.706734 248:-0.886124 249:0.348661 250:-0.158537 251:0.017489 252:-0.975031 253:-0.14641 254:-0.2643 255:0.260398 256:-0.664941 257:-0.761663 258:-0.211873 259:-0.361702 260:-0.169733 261:-0.875995 262:0.11752 263:-0.891596 264:0.544278 265:-0.821083 266:-0.853826 267:-0.02826 268:-0.017995 269:0.071628 270:-0.901537 271:-0.198389 272:0.289207 273:-0.720071 274:-0.648481 275:-0.808086 276:-0.228257 277:-0.273885 278:-0.015617 279:-0.974303 280:-0.051096 281:-0.565648 282:-0.642371 283:-0.81502 284:-0.991281 285:-0.061972 286:-0.447691 287:0.062526 288:-0.97307 289:-0.080405 290:-0.822564 291:-0.953622 292:-0.780741 293:-0.855834 294:-0.017202 295:-0.144068 296:0.040783 297:-0.94568 298:-0.39902 299:-0.612629 300:0.437957 301:-0.771751 302:-0.836125 303:-0.765306 304:-0.407407 305:0.06855 306:-0.900722 307:0.216499 308:-0.675111 309:0.763831 310:-0.940521 311:-0.953026 312:0.525625 313:-0.04 314:-0.062341 315:-0.920426 316:0.351296 317:-0.642735 318:-0.55906 319:-0.904443 320:-0.956216 321:0.736351 322:0.357143 323:0.432299 324:-0.921275 325:0.532459 326:0.538053 327:0.543739 328:-0.362097 329:-0.222237 330:0.891749 331:0.279931 332:-0.060366 333:-0.42382 334:-0.42899 335:-0.350363 336:0.166427 337:-0.573897 338:-0.569619 339:-0.368994 340:0.270911 341:0.156065 342:-0.150815 343:0.067255 344:-0.569018 345:-0.264661 346:-0.594198 347:-0.57425 348:-0.792011 349:-0.246006 350:0.618526 351:-0.525579 
42.86088522440082 1:0.3778 2:0.376472 3:0.375566 4:0.376832 5:0.176448 6:0.347504 7:0.553474 8:-0.034429 9:-0.724004 10:-0.332221 11:0.432882 12:-0.536172 13:-0.500469 14:-0.609865 15:-0.613664 16:-0.044118 17:0.27883 18:-0.525927 19:-0.043387 20:0.076614 21:0.359722 22:0.315363 23:0.555912 24:0.365826 25:-0.15617 26:0.264486 27:0.05567 28:-0.546159 29:-0.246218 30:-0.447978 31:-0.300134 32:-0.756239 33:-0.788275 34:-0.006356 35:-0.458273 36:-0.8515 37:0.145414 38:-0.286941 39:0.787037 40:-0.715665 41:-0.755524 42:-0.218373 43:0.104928 44:-0.382366 45:-0.776628 46:-0.397299 47:0.409406 48:-0.860563 49:-0.270444 50:0.020415 51:0.632988 52:0.095041 53:0.663376 54:-0.211427 55:0.333912 56:-0.679168 57:-0.206889 58:-0.203921 59:0.132302 60:-0.636265 61:0.5 62:-0.73039 63:0.487094 64:-0.153282 65:-0.548117 66:0.04575 67:0.243899 68:0.146297 69:0.410821 70:0.351587 71:0.144323 72:-0.582614 73:-0.027599 74:0.460023 75:-0.676048 76:0.249876 77:0.290779 78:0.165019 79:-0.136986 80:0.075021 81:-0.474045 82:0.283897 83:-1.0 84:-0.619511 85:-0.945332 86:-0.066983 87:0.321979 88:0.672131 89:-0.093336 90:1.0 91:-0.385793 92:-0.577205 93:0.462185 94:-0.448654 95:-0.165781 96:0.522064 97:-0.230769 98:0.345791 99:-0.146207 100:-0.506671 101:0.050255 102:-1.0 103:-0.105587 104:-0.225784 105:-0.095117 106:-0.166071 107:-0.12175 108:-0.570504 109:0.198339 110:-0.565642 111:-0.888485 112:-0.105197 113:0.088631 114:-0.531758 115:0.740196 116:-0.205737 117:-0.247608 118:0.374964 119:-1.0 120:0.529277 121:-0.74099 122:-0.613433 123:-0.16431 124:-0.234568 125:-0.736633 126:-0.608585 127:-0.482628 128:0.017411 129:0.551746 130:-0.308482 131:-0.680453 132:-0.252988 133:0.054945 134:-0.144479 135:-0.928572 136:-0.012024 137:0.503096 138:-0.172684 139:-0.166898 140:-0.627886 141:-0.3785 142:-0.189591 143:-0.178377 144:-0.960999 145:0.006171 146:-0.54335 147:-0.053337 148:-0.710905 149:-0.887035 150:0.449275 151:-0.12892 152:0.187996 153:-0.947141 154:-0.740756 155:-0.478032 156:0.841453 157:-0.687456 158:-0.865776 159:0.058746 160:0.126761 161:-0.162564 162:-0.932069 163:0.181501 164:-0.54296 165:1.0 166:-0.68456 167:-0.715793 168:0.2922 169:0.593103 170:-0.136411 171:-0.745442 172:0.115862 173:-0.58941 174:0.399692 175:-0.459204 176:-0.691479 177:0.264212 178:-0.48 179:0.417072 180:-0.884404 181:-0.039318 182:-0.104689 183:0.137192 184:-0.270075 185:-0.70469 186:-0.103905 187:-0.72973 188:-0.030333 189:-0.967677 190:-0.08454 191:-1.0 192:-0.225034 193:-0.85483 194:-0.824151 195:0.717985 196:0.074074 197:0.025907 198:-0.761839 199:0.421757 200:-0.560756 201:0.746385 202:-0.687246 203:-0.837255 204:-0.566385 205:0.176471 206:-0.18497 207:-0.90936 208:-0.592006 209:-1.0 210:-0.239037 211:-0.821582 212:-0.844621 213:-0.603416 214:-0.149502 215:-0.313912 216:-0.734426 217:-0.278542 218:-0.496138 219:0.607975 220:-0.661386 221:-0.827873 222:-0.814455 223:0.285714 224:-0.606673 225:-0.895932 226:-0.147041 227:-0.96747 228:0.258663 229:-0.958281 230:-0.908414 231:-0.446098 232:0.2 233:-0.192604 234:-0.865478 235:-0.013471 236:-0.097981 237:0.247831 238:-0.713426 239:-0.8349 240:0.184966 241:0.282039 242:0.065079 243:-0.969005 244:0.230361 245:-0.232878 246:0.917146 247:-0.593981 248:-0.833665 249:0.351165 250:-0.5 251:0.037147 252:-0.969965 253:-0.237971 254:-0.523553 255:0.021021 256:-0.857269 257:-0.965948 258:-0.2068 259:-0.18617 260:-0.035394 261:-0.958061 262:-0.135455 263:-0.124828 264:0.559074 265:-0.764311 266:-0.878672 267:-0.02996 268:-0.300771 269:-0.002171 270:-0.958662 271:-0.206267 272:-0.185437 273:-0.692783 274:-0.766078 275:-0.858927 276:-0.228392 277:-0.375796 278:-0.019375 279:-0.955634 280:-0.179165 281:-0.103978 282:-0.68507 283:-0.701218 284:-0.860938 285:-0.066513 286:-0.508011 287:-0.038 288:-0.929767 289:0.056371 290:0.616785 291:-0.951746 292:-0.632545 293:-0.772064 294:-0.017499 295:-0.245763 296:0.027736 297:-0.95154 298:-0.216914 299:-0.695314 300:0.42508 301:-0.9282 302:-0.923178 303:-0.768034 304:0.185185 305:-0.003069 306:-0.955496 307:0.480322 308:-0.350781 309:0.816211 310:-0.866387 311:-0.902236 312:0.526845 313:-0.466667 314:0.022143 315:-0.929038 316:0.406428 317:-0.873107 318:-0.560184 319:-0.936571 320:-0.927521 321:0.733279 322:0.285714 323:0.195226 324:-0.870626 325:0.468866 326:0.476169 327:0.483578 328:-0.370578 329:-0.417985 330:0.913849 331:0.208748 332:0.113783 333:-0.665808 334:-0.463338 335:-0.499209 336:0.098208 337:-0.696957 338:-0.616558 339:-0.376419 340:-1.0 341:0.246389 342:0.248396 343:0.105121 344:-0.739184 345:-0.271119 346:-0.794991 347:-0.761372 348:-0.8152 349:-0.105431 350:0.371328 351:-0.724962 
21.06013172511854 1:0.148859 2:0.14962 3:0.150701 4:0.13753 5:0.278305 6:0.031494 7:0.460658 8:-0.078771 9:-0.678645 10:-0.163702 11:0.295941 12:-0.431833 13:-0.501018 14:-0.178578 15:-0.736107 16:0.016078 17:-0.028995 18:-0.537656 19:-0.211502 20:0.340425 21:0.351092 22:0.258267 23:0.317838 24:0.117887 25:-0.449871 26:-0.072432 27:-0.086201 28:-0.30015 29:-0.115041 30:-0.372313 31:0.026817 32:-0.471274 33:-0.660125 34:0.081568 35:-0.169989 36:-1.0 37:-0.154594 38:0.030164 39:0.773623 40:-0.090558 41:-0.359494 42:-0.427673 43:0.713831 44:-0.501105 45:-0.689349 46:0.367026 47:-0.452505 48:-0.793179 49:0.573679 50:0.383524 51:0.327081 52:-0.07438 53:0.1577 54:-0.451689 55:0.688732 56:0.028087 57:0.327584 58:-0.107207 59:0.023322 60:0.015542 61:-0.098592 62:0.148988 63:-0.307834 64:0.092647 65:-0.613857 66:0.066319 67:-0.46394 68:-0.445707 69:0.771559 70:0.180952 71:0.883456 72:-0.207999 73:0.769174 74:-0.366673 75:-0.558447 76:-0.507775 77:-0.586449 78:-0.178446 79:-0.178082 80:-0.324104 81:-0.466684 82:0.742765 83:-0.572921 84:-0.609441 85:-0.701311 86:-0.048322 87:0.170185 88:0.639344 89:-0.48977 90:0.34547 91:-0.173973 92:-0.799031 93:0.469433 94:-0.883871 95:-0.337146 96:0.227365 97:0.095023 98:0.028206 99:-0.225234 100:-0.516749 101:-0.073784 102:0.085396 103:0.463461 104:0.940143 105:1.0 106:-0.157143 107:0.522047 108:0.589899 109:-0.005713 110:0.57951 111:-0.951424 112:0.524558 113:0.612998 114:-0.402266 115:0.183007 116:0.094947 117:-0.680098 118:-0.07449 119:-0.314517 120:0.563655 121:-0.380801 122:-0.353677 123:-0.117854 124:-0.123457 125:-0.392516 126:-0.800178 127:-0.068013 128:-0.175871 129:0.565379 130:-0.335661 131:-0.701979 132:-0.274335 133:0.090659 134:-0.282811 135:-0.886427 136:-0.162641 137:-0.317283 138:-0.171662 139:-0.161079 140:-0.639343 141:-0.412373 142:0.107807 143:-0.26182 144:-0.911795 145:-0.042939 146:0.035144 147:0.214013 148:-0.338749 149:-0.735068 150:0.432438 151:0.003484 152:0.107118 153:-0.92504 154:0.200249 155:-0.527018 156:0.85187 157:-0.216449 158:-0.68588 159:0.061046 160:-0.528169 161:-0.168177 162:-0.942138 163:-0.035193 164:-0.470527 165:0.012691 166:-0.651377 167:-0.766203 168:0.337924 169:-0.048276 170:0.084415 171:-0.888484 172:0.064337 173:-0.254612 174:0.517614 175:-0.605124 176:-0.785451 177:0.234026 178:-0.4 179:0.308942 180:-0.908058 181:0.462947 182:-0.649555 183:0.138807 184:-0.883274 185:-0.908626 186:-0.106449 187:-0.064449 188:0.017606 189:-0.905168 190:0.12404 191:-0.67093 192:-0.21444 193:-0.668453 194:-0.729055 195:0.715211 196:-1.0 197:0.073671 198:-0.761042 199:0.001326 200:-0.569804 201:0.736921 202:-0.917196 203:-1.0 204:-0.579303 205:-0.411765 206:-0.281249 207:-0.981293 208:-0.269349 209:0.177806 210:-0.186099 211:0.225262 212:-0.049543 213:-0.362521 214:0.249169 215:-0.089484 216:-0.436187 217:-0.332013 218:0.181254 219:0.619144 220:0.03133 221:-0.328499 222:-0.89952 223:0.611111 224:-0.74299 225:-0.80781 226:-0.110058 227:-0.107609 228:0.476999 229:-0.529345 230:-0.620715 231:-0.45166 232:0.225806 233:-0.155899 234:-0.853606 235:0.093105 236:-0.235673 237:0.262632 238:-0.736017 239:-0.850862 240:0.183619 241:0.374229 242:0.007556 243:-0.968144 244:-0.114714 245:0.810409 246:0.882176 247:-0.522819 248:-0.785529 249:0.344753 250:-0.47561 251:-0.032433 252:-0.972277 253:-0.18767 254:-0.176376 255:-0.014506 256:-0.631984 257:-0.868609 258:-0.205003 259:-0.06383 260:-0.021108 261:-0.968319 262:-0.00341 263:-0.210582 264:0.463294 265:-0.571526 266:-0.769963 267:-0.029845 268:0.275064 269:0.003718 270:-0.94445 271:-0.164065 272:-0.120403 273:-0.760659 274:-0.800293 275:-0.861293 276:-0.229045 277:-0.88535 278:-0.060073 279:-0.952369 280:-0.089517 281:-0.441111 282:-0.580489 283:-0.780526 284:-0.879788 285:-0.065839 286:0.351555 287:-0.036364 288:-0.895015 289:-0.074675 290:-0.36899 291:-0.954873 292:-0.939806 293:-0.902995 294:-0.017763 295:-0.11017 296:0.012542 297:-0.914786 298:-0.396661 299:-0.525706 300:0.461993 301:-0.790598 302:-0.843083 303:-0.767715 304:-0.037037 305:0.014486 306:-0.921704 307:0.292072 308:-0.303227 309:0.739757 310:-0.951112 311:-1.0 312:0.527487 313:-0.44 314:0.065166 315:-0.98074 316:0.31486 317:-0.237287 318:-0.560152 319:-0.393942 320:-0.553896 321:0.72514 322:-0.428571 323:0.197173 324:-0.875994 325:0.64479 326:0.648388 327:0.652045 328:-0.412976 329:-0.243971 330:0.881762 331:0.00327 332:-0.393746 333:-0.009595 334:-0.460018 335:-0.341487 336:0.173911 337:-0.359594 338:-0.352454 339:-0.374714 340:0.268269 341:-0.104507 342:-0.106833 343:0.053368 344:-0.242735 345:-0.252693 346:-0.384231 347:-0.382285 348:-0.760177 349:-0.060703 350:0.589979 351:-0.524213 
36.57036043748922 1:-0.484808 2:-0.481081 3:-0.477208 4:-0.549717 5:-0.474344 6:-0.398874 7:0.951469 8:-0.229007 9:-0.651465 10:-0.356409 11:0.485508 12:-0.608585 13:-0.916266 14:-0.986245 15:-0.871742 16:-0.214313 17:-0.614728 18:-0.824096 19:0.059745 20:0.133212 21:0.330353 22:0.632186 23:1.0 24:-0.687084 25:-0.025707 26:-0.842897 27:1.0 28:-0.146038 29:-0.148816 30:-0.421096 31:-0.63946 32:-0.090849 33:-0.55192 34:-0.271186 35:0.1756 36:0.457093 37:0.360785 38:-0.355822 39:0.797996 40:-0.641462 41:-0.694203 42:-0.232959 43:0.338633 44:-0.390192 45:-0.674815 46:-0.360903 47:0.393572 48:-0.833704 49:0.553046 50:-0.034445 51:0.286928 52:-0.504132 53:0.117933 54:-0.828666 55:-0.469007 56:0.516318 57:-0.247943 58:0.282531 59:-0.2407 60:0.034866 61:0.447183 62:0.072241 63:-0.716916 64:-0.51602 65:0.265328 66:0.048467 67:0.192409 68:-0.437876 69:0.394332 70:0.180952 71:0.128006 72:-0.976726 73:0.181986 74:0.867464 75:-0.533252 76:1.0 77:1.0 78:0.208757 79:-0.205479 80:0.04323 81:-0.346186 82:0.341368 83:-0.051699 84:-0.620536 85:-0.176436 86:-0.033599 87:0.363704 88:0.770492 89:-0.016046 90:-0.581989 91:0.190357 92:-0.591169 93:0.454088 94:-0.637067 95:-0.001435 96:0.749149 97:0.348416 98:0.730505 99:0.665915 100:0.184263 101:-0.522697 102:0.137314 103:-0.188929 104:0.002518 105:0.141485 106:-0.092857 107:0.17549 108:-0.013162 109:0.065693 110:-0.481931 111:-0.883538 112:-0.429812 113:-0.438232 114:-0.453865 115:0.797386 116:9.77E-4 117:-0.720147 118:0.141266 119:-0.559173 120:0.550596 121:-0.848412 122:-0.959114 123:-0.116931 124:-0.518519 125:-0.371147 126:-0.99785 127:-0.495606 128:0.10847 129:0.530391 130:-0.257046 131:-0.560028 132:-0.239472 133:0.318681 134:-0.073729 135:-0.890398 136:-0.296282 137:-0.030606 138:-0.17146 139:-0.365023 140:-0.560631 141:-0.351332 142:-0.39777 143:-0.095323 144:-0.874494 145:-0.130612 146:-0.292391 147:0.115187 148:-0.701408 149:-0.934473 150:0.443831 151:0.595819 152:0.144444 153:-0.959028 154:-0.240632 155:-0.621306 156:0.840941 157:-0.402285 158:-0.725023 159:0.05781 160:0.190141 161:-0.17443 162:-0.941518 163:0.143102 164:-0.233005 165:-1.0 166:-0.501045 167:-0.662303 168:0.297229 169:-0.02069 170:-0.056932 171:-0.776327 172:0.094124 173:-0.128352 174:0.363888 175:-0.5291 176:-0.790899 177:0.192406 178:-0.08 179:0.136571 180:-0.94919 181:-0.119401 182:0.02541 183:0.127833 184:0.111773 185:-0.369734 186:-0.05618 187:-0.474013 188:0.083803 189:-0.889982 190:-1.0 191:-0.159678 192:-0.067287 193:-0.644568 194:-0.870149 195:0.712849 196:-0.277778 197:0.06169 198:-0.949279 199:-0.458808 200:-1.0 201:0.739691 202:-0.958872 203:-0.934426 204:-0.518326 205:-0.897059 206:0.189962 207:-0.762436 208:-0.065914 209:-0.394223 210:-0.303562 211:-0.5178 212:-0.815235 213:-0.508989 214:0.009967 215:0.039996 216:-0.77156 217:-0.353128 218:-0.437601 219:0.448858 220:-0.679805 221:-0.820391 222:-0.816032 223:-0.515873 224:-0.651143 225:-0.928156 226:-0.317532 227:-0.913849 228:0.276896 229:-0.93272 230:-0.936016 231:-0.442423 232:-0.16129 233:-0.01103 234:-0.937045 235:0.05022 236:-0.181978 237:0.259878 238:-0.680269 239:-0.825384 240:0.185276 241:0.582819 242:0.071091 243:-0.952863 244:0.260947 245:-0.381439 246:0.920943 247:-0.666627 248:-0.724311 249:0.347152 250:0.341463 251:-0.007601 252:-0.84176 253:-0.149223 254:-0.495217 255:-0.04458 256:-0.857959 257:-0.946168 258:-0.208175 259:-0.531915 260:-0.101761 261:-0.970915 262:0.124193 263:-0.60981 264:0.528871 265:-0.686707 266:-0.866634 267:-0.028527 268:0.316195 269:0.03763 270:-0.967083 271:-0.14391 272:0.025346 273:-0.753671 274:-0.696137 275:-0.851256 276:-0.226576 277:0.235669 278:0.048377 279:-0.977532 280:-0.147924 281:-0.191163 282:-0.635398 283:-0.699502 284:-0.902862 285:-0.06756 286:-0.070688 287:-0.057019 288:-0.941652 289:0.03416 290:0.299863 291:-0.952328 292:-0.384399 293:-0.601804 294:-0.008835 295:-0.042373 296:0.117779 297:-0.915174 298:-0.375952 299:-0.303774 300:0.442221 301:-0.754321 302:-0.789771 303:-0.768499 304:0.074074 305:-0.00138 306:-0.912981 307:0.296128 308:-0.313687 309:0.717581 310:-0.936206 311:-0.922045 312:0.528279 313:-0.04 314:0.114092 315:-0.91268 316:0.429252 317:-0.073916 318:-0.536602 319:-0.721022 320:-0.874415 321:0.735005 322:-0.392857 323:0.305057 324:-0.979904 325:0.866532 326:0.869559 327:0.872585 328:-0.922176 329:-0.846276 330:0.998386 331:0.131133 332:0.242762 333:-0.409735 334:-0.492176 335:-0.857893 336:1.0 337:-0.933229 338:-0.87125 339:-0.389215 340:0.35282 341:-0.118952 342:-0.313436 343:0.15339 344:-1.0 345:-0.288576 346:-0.934022 347:-0.884075 348:-0.817879 349:0.162939 350:0.302303 351:-0.711404 
6.429201996939536 1:-0.43342 2:-0.441001 3:-0.448358 4:0.266985 5:0.257056 6:0.394623 7:0.172986 8:0.145759 9:-0.566477 10:-0.1495 11:0.174795 12:-0.197533 13:0.213558 14:0.591354 15:0.274185 16:0.243761 17:0.548622 18:0.046828 19:-0.338807 20:0.246491 21:0.309435 22:-0.204639 23:0.17522 24:0.31292 25:-0.100257 26:0.175446 27:-0.14436 28:-0.583277 29:0.078654 30:-0.421099 31:0.090581 32:0.070423 33:-0.906623 34:0.177966 35:-0.538287 36:-0.272635 37:-0.053094 38:0.724899 39:0.797043 40:1.0 41:0.812627 42:0.17322 43:-0.233704 44:-9.36E-4 45:-0.467678 46:0.04061 47:0.662568 48:-0.82999 49:0.599265 50:0.432212 51:0.588775 52:-0.107438 53:0.402078 54:-0.392116 55:-0.164203 56:-0.715325 57:-0.138273 58:-0.21304 59:-0.403991 60:-0.347787 61:0.443662 62:-0.328644 63:-0.697204 64:-0.466484 65:0.605756 66:0.136637 67:0.739392 68:0.445939 69:-1.0 70:-0.022222 71:-0.915365 72:-0.043613 73:0.418785 74:0.055135 75:-0.576638 76:-0.24989 77:-0.280745 78:0.164034 79:-0.260274 80:0.139218 81:-0.602571 82:-0.503656 83:-0.086616 84:-0.774314 85:-0.677058 86:-0.908559 87:0.155979 88:-0.319672 89:-0.513765 90:-0.998682 91:0.090374 92:-0.608595 93:0.5437 94:-0.220614 95:-0.205447 96:0.315822 97:0.384615 98:0.061623 99:-0.354635 100:0.373872 101:0.531414 102:0.167282 103:0.566498 104:0.127289 105:-0.114214 106:-0.114286 107:-0.227939 108:-0.809971 109:0.086481 110:0.357371 111:-0.898552 112:0.82137 113:0.893241 114:-0.634924 115:0.555556 116:-0.062003 117:-0.656483 118:0.034658 119:-0.045973 120:0.52321 121:0.705143 122:0.588716 123:-0.257925 124:-0.160494 125:-0.468506 126:-0.729846 127:-0.421633 128:-0.46458 129:0.146306 130:-0.583539 131:-0.702273 132:-0.245489 133:-0.230769 134:-0.009048 135:-0.800771 136:0.233335 137:0.094346 138:-0.183141 139:-0.240851 140:-0.753245 141:-0.436304 142:-0.546468 143:-0.339475 144:-0.925191 145:0.410735 146:1.0 147:-0.548985 148:0.233541 149:-0.596614 150:0.450367 151:0.365854 152:0.167711 153:-0.984113 154:-0.193354 155:0.398184 156:0.859726 157:0.171833 158:-0.558339 159:0.101572 160:-0.169014 161:-0.111009 162:-0.941794 163:0.17621 164:-0.921292 165:0.029305 166:-0.814825 167:-0.836513 168:0.342387 169:0.158621 170:0.135855 171:-0.790236 172:-0.691486 173:-0.214803 174:0.36828 175:-0.450413 176:-0.658548 177:0.204741 178:0.605 179:0.200164 180:-0.883533 181:-0.219908 182:-0.537766 183:0.09899 184:-0.805435 185:-0.893474 186:-0.106679 187:-0.496882 188:-7.53E-4 189:-0.942348 190:-0.074723 191:-0.174671 192:-0.215718 193:-0.463247 194:-0.721292 195:0.733523 196:-0.259259 197:0.228149 198:-0.948817 199:0.382488 200:-0.312619 201:0.727461 202:-0.628008 203:-0.766054 204:-0.596433 205:-0.117647 206:-0.298234 207:-0.855627 208:-0.274768 209:0.473374 210:-0.336297 211:-0.009123 212:-0.66993 213:-0.570951 214:0.116279 215:-0.336791 216:-0.974991 217:-0.031175 218:0.506572 219:0.662567 220:0.322438 221:-0.236127 222:-0.984144 223:0.047619 224:-0.775612 225:-0.839528 226:-0.122551 227:0.743153 228:0.280428 229:0.29079 230:-0.158067 231:-0.538881 232:-0.083871 233:-0.254185 234:-0.828627 235:0.039235 236:-0.709222 237:0.248811 238:-0.828408 239:-0.870417 240:0.185288 241:-0.035502 242:0.11688 243:-0.896273 244:0.194879 245:-0.041858 246:0.92421 247:-0.791593 248:-0.871904 249:0.353202 250:-0.085366 251:0.124357 252:-0.921421 253:-0.112552 254:1.0 255:-0.152161 256:-0.413007 257:-0.732898 258:-0.20153 259:0.031915 260:-0.009937 261:-0.967631 262:-0.050247 263:1.0 264:0.120426 265:-0.447574 266:-0.789963 267:-0.033848 268:0.069409 269:-0.045478 270:-0.978237 271:-0.217238 272:-0.415215 273:-0.740344 274:-0.822977 275:-0.890682 276:-0.229284 277:0.324841 278:-0.082246 279:-0.935048 280:-0.142244 281:0.024356 282:-0.590532 283:-0.716871 284:-0.804634 285:-0.060489 286:0.155514 287:0.076759 288:-0.907762 289:0.074315 290:-0.861512 291:-0.953574 292:-1.0 293:-0.938226 294:-0.017841 295:0.076271 296:-0.001187 297:-0.905111 298:-0.234843 299:0.114583 300:0.445739 301:-0.630397 302:-0.731507 303:-0.774409 304:0.925926 305:-0.072006 306:-0.954064 307:0.095005 308:-0.241211 309:0.780466 310:-0.801077 311:-0.886011 312:0.527183 313:-1.0 314:0.034809 315:-0.963652 316:0.342553 317:-0.086291 318:-0.564223 319:-0.542962 320:-0.728469 321:0.73278 322:-0.339286 323:0.261246 324:-0.946857 325:0.661496 326:0.664223 327:0.666996 328:-0.384403 329:-0.23974 330:0.846171 331:0.324589 332:-0.60171 333:0.241057 334:-0.402638 335:-0.351147 336:0.185477 337:-0.35055 338:-0.339892 339:-0.405633 340:-0.508546 341:-0.328367 342:-0.106174 343:0.017774 344:-0.072367 345:-0.284189 346:-0.375363 347:-0.450567 348:-0.746704 349:-0.13099 350:0.662458 351:-0.568346 
7.673089200147317 1:0.503627 2:0.507729 3:0.512178 4:0.152028 5:-0.006049 6:-0.193195 7:0.208935 8:-0.364073 9:-0.872337 10:-0.081582 11:0.223616 12:-0.375425 13:-0.383132 14:-0.110285 15:-1.0 16:-0.228604 17:-0.595813 18:-0.452895 19:0.279179 20:-0.798069 21:0.375191 22:-0.595124 23:-0.323178 24:0.205611 25:-0.341902 26:-0.147231 27:0.018295 28:-0.178272 29:-0.175129 30:-0.420004 31:-0.320743 32:-0.336912 33:-0.52338 34:0.266949 35:0.13668 36:-0.344978 37:0.388699 38:-0.302223 39:0.80484 40:-0.619864 41:-0.754973 42:-0.478891 43:0.033386 44:-0.779051 45:-0.714969 46:-0.174155 47:0.20288 48:-0.835184 49:0.142918 50:0.21888 51:0.718091 52:-0.605372 53:0.645336 54:-0.201143 55:-0.518175 56:0.515427 57:-0.286124 58:0.118403 59:-0.010466 60:0.421282 61:-0.43662 62:0.523309 63:-0.130743 64:-0.232943 65:-0.215807 66:0.023115 67:0.333711 68:0.871306 69:-0.038962 70:0.079365 71:-0.304883 72:0.704201 73:0.087026 74:-0.06108 75:-0.561986 76:-0.3191 77:0.336773 78:-0.336003 79:-0.246575 80:-0.472373 81:0.16264 82:0.794562 83:-0.457354 84:-0.631271 85:-0.343508 86:-0.326473 87:0.491771 88:0.754098 89:0.217668 90:-0.418343 91:0.233123 92:-0.396664 93:0.489755 94:-0.06611 95:-0.37252 96:0.253136 97:0.511312 98:-0.016192 99:-0.667227 100:-0.531224 101:-0.244204 102:0.12492 103:-0.500719 104:-0.881949 105:-0.387721 106:0.342857 107:-0.491203 108:-0.830628 109:0.451927 110:0.134787 111:-0.880232 112:0.272548 113:0.355771 114:-0.435818 115:0.27451 116:0.068645 117:-0.636322 118:0.385702 119:-0.270842 120:0.512205 121:-0.289516 122:-0.328827 123:-0.09989 124:-0.283951 125:-0.348961 126:-0.855282 127:-0.172795 128:-0.70689 129:0.598174 130:-0.62729 131:-0.747779 132:-0.259459 133:0.406593 134:-0.173579 135:-0.849941 136:-0.011516 137:-0.072623 138:-0.130841 139:-0.556287 140:-0.777813 141:-0.355433 142:-0.115242 143:-0.091513 144:-0.925797 145:0.246937 146:-0.013739 147:0.081133 148:-0.543638 149:-0.894504 150:0.445196 151:0.114983 152:0.156513 153:-0.96752 154:0.540158 155:-0.103231 156:0.833469 157:-0.25365 158:-0.650614 159:-0.027458 160:0.28169 161:-0.417179 162:-0.871723 163:-0.211672 164:-0.193949 165:0.013978 166:-0.420468 167:-0.464203 168:0.325698 169:-0.158621 170:0.035916 171:-0.580648 172:-0.165359 173:-0.944901 174:0.383987 175:-0.358215 176:-0.535856 177:0.179548 178:-0.32 179:0.133695 180:-0.811015 181:0.182646 182:-0.226249 183:0.1088 184:-0.520105 185:-0.716658 186:-0.104061 187:-0.496882 188:-0.010765 189:-0.936318 190:-0.157399 191:0.448025 192:-0.170759 193:-0.264204 194:-0.570341 195:0.728998 196:0.185185 197:0.206678 198:-0.913338 199:0.161511 200:-0.244358 201:0.741083 202:-0.444216 203:-0.810285 204:-0.598236 205:0.058824 206:-0.268512 207:-0.926749 208:-0.258879 209:-0.727078 210:-0.230942 211:-0.873556 212:-0.956395 213:-0.637464 214:-0.069767 215:-0.624651 216:-0.883932 217:-0.830553 218:0.212925 219:0.585369 220:-0.094174 221:-0.585073 222:-0.835807 223:0.714286 224:-0.577751 225:-0.944886 226:-0.490361 227:0.220445 228:0.279064 229:-0.40342 230:-0.651418 231:-0.443067 232:-0.16129 233:-0.064866 234:-0.937204 235:0.036233 236:-0.456869 237:0.32625 238:-0.839032 239:-0.871146 240:0.183171 241:-0.251542 242:-0.042473 243:-0.930311 244:0.068835 245:-0.567515 246:0.917765 247:-0.823985 248:-0.884923 249:0.347606 250:-0.182927 251:0.007701 252:-0.936471 253:-0.196846 254:-0.369674 255:-0.023278 256:-0.816341 257:-0.948234 258:-0.205173 259:-0.914894 260:0.024051 261:-0.98034 262:0.037952 263:-0.09473 264:0.52108 265:-0.644031 266:-0.821212 267:-0.030538 268:-0.218509 269:-0.012562 270:-0.964003 271:-0.098485 272:0.033655 273:-0.746169 274:-0.624104 275:-0.754035 276:-0.228786 277:0.235669 278:-0.030591 279:-0.924926 280:0.00608 281:-0.271635 282:-0.82569 283:-0.726042 284:-0.79768 285:-0.061714 286:0.034873 287:0.054175 288:-0.87072 289:0.015163 290:-0.368475 291:-0.948384 292:-0.810669 293:-0.867829 294:-0.014215 295:0.072034 296:0.172801 297:-0.912042 298:-0.424732 299:0.43678 300:-0.104153 301:-0.586093 302:-0.688006 303:-0.764077 304:0.851852 305:0.057381 306:-0.94638 307:0.57338 308:0.209751 309:0.820066 310:-0.801699 311:-0.935319 312:0.524879 313:-0.101667 314:-0.042601 315:-0.97584 316:0.427199 317:-0.683038 318:-0.569573 319:-0.864403 320:-0.952531 321:0.733334 322:0.928571 323:0.22816 324:-0.95784 325:0.57291 326:0.581654 327:0.590405 328:-0.693679 329:-0.742607 330:0.990887 331:0.40591 332:0.479714 333:-0.914464 334:-0.622225 335:-0.455748 336:0.20013 337:-0.742816 338:-0.777074 339:-0.396612 340:0.141442 341:-0.541419 342:-0.523514 343:0.398685 344:-0.34263 345:-0.275817 346:-0.680415 347:-0.71277 348:-0.812502 349:0.533546 350:0.355709 351:-0.843474 
14.413030092951848 1:-0.336437 2:-0.336192 3:-0.335765 4:-0.143817 5:0.026152 6:-0.183534 7:0.278229 8:-0.06573 9:-0.628049 10:-0.564585 11:0.654373 12:-0.738713 13:-0.885156 14:-0.730987 15:-0.834 16:-0.271477 17:-0.329113 18:-0.620074 19:0.03732 20:0.004714 21:0.375649 22:-0.248335 23:-0.555282 24:0.497685 25:0.29563 26:0.549804 27:-0.57399 28:-0.278152 29:-0.002016 30:-0.464513 31:-0.519409 32:-0.987744 33:-0.506627 34:-0.559322 35:0.259175 36:-0.871988 37:-0.007234 38:-0.188775 39:0.824861 40:-0.045657 41:0.217449 42:-0.678665 43:0.116057 44:-0.744109 45:-0.30758 46:-0.330431 47:-0.210382 48:-0.792827 49:-0.052166 50:-0.193169 51:0.413085 52:-0.454545 53:0.241848 54:-0.672792 55:0.024448 56:-0.365278 57:0.25494 58:-0.425946 59:-0.110398 60:-0.271143 61:0.295775 62:-0.223822 63:0.270209 64:-0.330633 65:-0.463512 66:-0.081718 67:-0.038674 68:0.400113 69:0.125253 70:-0.428571 71:-0.224181 72:0.357426 73:-0.025467 74:-0.372938 75:-0.591851 76:-0.161344 77:0.158419 78:-0.130418 79:-0.013699 80:-0.19182 81:-0.224084 82:0.175052 83:0.309276 84:-0.66224 85:-0.220399 86:-0.169241 87:0.491845 88:0.45082 89:0.182683 90:-0.548384 91:0.439339 92:-0.139189 93:0.297111 94:0.12692 95:0.237901 96:0.328136 97:0.040724 98:0.034158 99:-0.336723 100:-0.180859 101:0.021565 102:-0.926716 103:-0.226755 104:-0.598478 105:-0.199157 106:-0.414286 107:-0.222477 108:-0.858775 109:0.564865 110:-0.159551 111:-0.888498 112:0.260781 113:0.351764 114:-0.454196 115:0.784314 116:0.042247 117:-0.59115 118:0.145488 119:-0.678156 120:0.508636 121:-0.651279 122:-0.484328 123:-0.117353 124:0.716049 125:-0.385293 126:-0.691641 127:-0.277976 128:0.756029 129:0.399643 130:-0.301864 131:-0.726081 132:-0.267578 133:0.406593 134:-0.235054 135:-0.972109 136:-0.388625 137:0.029564 138:-0.083977 139:0.378286 140:0.078398 141:-0.773348 142:-0.092937 143:-0.679257 144:-0.310131 145:-0.491786 146:-0.448819 147:0.015313 148:0.355635 149:0.048536 150:0.339985 151:0.28223 152:0.005511 153:-0.698833 154:0.719771 155:-0.815116 156:0.841751 157:0.358746 158:0.381216 159:1.0 160:0.228873 161:1.0 162:1.0 163:0.820483 164:-0.029134 165:0.08907 166:-0.45625 167:-0.721188 168:0.355992 169:-0.675862 170:0.123145 171:-0.887199 172:0.579132 173:-0.011372 174:0.378596 175:-0.093093 176:-0.498942 177:0.345914 178:-0.68 179:0.544459 180:-0.874395 181:-0.850482 182:-0.222849 183:0.023005 184:-0.027234 185:0.07646 186:-0.273104 187:0.209979 188:-0.605564 189:-0.097346 190:0.231548 191:-0.183869 192:-0.204609 193:-0.106619 194:-0.074248 195:1.0 196:-0.537037 197:1.0 198:0.071084 199:0.226061 200:-0.518324 201:0.738833 202:-0.244874 203:-0.659491 204:-0.527677 205:-0.352941 206:-0.106761 207:-0.909806 208:-0.010084 209:0.025635 210:-0.820948 211:1.0 212:1.0 213:1.0 214:0.249169 215:0.446508 216:0.868087 217:-0.557112 218:0.026261 219:0.745305 220:0.008893 221:-0.25135 222:-0.912727 223:0.746032 224:-0.797493 225:-0.68198 226:-0.181837 227:-0.544449 228:0.253985 229:-0.694813 230:-0.73209 231:-0.443956 232:0.612903 233:-0.07425 234:-0.871295 235:-0.179401 236:0.372566 237:0.26417 238:-0.513795 239:-0.645446 240:0.178162 241:0.404027 242:-0.080559 243:-0.894386 244:0.863348 245:0.235953 246:0.916813 247:0.207188 248:0.23793 249:0.695402 250:1.0 251:0.725528 252:0.286946 253:0.434173 254:0.12215 255:-0.10171 256:0.182558 257:0.085056 258:0.070267 259:0.191489 260:0.725728 261:0.405797 262:-1.0 263:-0.223929 264:0.667763 265:0.397333 266:0.282042 267:-0.466841 268:-0.321337 269:-0.951032 270:0.798743 271:-0.335653 272:0.136886 273:-0.759981 274:-0.625819 275:-0.78997 276:-0.230114 277:0.33758 278:-0.067387 279:-0.951186 280:-0.248133 281:0.096101 282:-0.647675 283:-0.529206 284:-0.767306 285:-0.060963 286:0.146089 287:0.04359 288:-0.936697 289:-0.046287 290:0.369534 291:-0.987581 292:-0.321149 293:-0.061952 294:-0.032653 295:-0.088983 296:-0.109168 297:-0.389462 298:-0.928894 299:-0.414286 300:0.45578 301:-0.460949 302:-0.44597 303:-0.841485 304:0.222222 305:-0.552249 306:-0.219328 307:0.10458 308:0.608337 309:1.0 310:-0.611849 311:-0.670583 312:0.520777 313:-0.253333 314:-0.071202 315:-0.882757 316:-1.0 317:0.248152 318:-1.0 319:1.0 320:1.0 321:-1.0 322:-0.625 323:-1.0 324:1.0 325:0.803633 326:0.807151 327:0.810695 328:-0.747321 329:-0.722591 330:0.987837 331:-0.099538 332:0.051336 333:-0.587107 334:-0.706621 335:-0.544831 336:0.197008 337:-0.7549 338:-0.752125 339:-0.384511 340:-0.365866 341:0.044187 342:-0.43242 343:0.228727 344:-0.430546 345:-0.29518 346:-0.784615 347:-0.81718 348:-0.819518 349:-0.182109 350:0.165823 351:-0.91431 
0.8152708793437433 1:-0.293947 2:-0.296875 3:-0.299555 4:0.088412 5:0.329084 6:0.157339 7:0.515467 8:0.151804 9:-0.456086 10:-0.343251 11:0.457532 12:-0.570586 13:-0.674876 14:-0.498465 15:-0.748493 16:0.234775 17:0.03049 18:-0.569165 19:-0.203044 20:-5.69E-4 21:0.230371 22:-0.026757 23:0.15627 24:0.289644 25:-0.084833 26:0.143952 27:-0.046388 28:-0.485964 29:0.429005 30:-0.448704 31:0.022073 32:0.56588 33:-0.207185 34:0.033898 35:0.553674 36:0.205648 37:-0.046467 38:-0.596391 39:0.795359 40:-0.26518 41:-0.121716 42:0.75287 43:0.160572 44:0.862291 45:-0.03785 46:0.209467 47:0.048686 48:-0.825833 49:0.432257 50:0.573315 51:-0.112391 52:0.157025 53:-0.313617 54:0.103049 55:0.620979 56:-0.082352 57:-0.263328 58:0.322605 59:0.051004 60:1.0 61:0.323944 62:0.94613 63:0.430384 64:-0.103924 65:0.436789 66:-0.038943 67:0.379121 68:-0.251 69:-0.126549 70:-0.352381 71:-0.375368 72:-0.744257 73:-0.65095 74:0.653003 75:-0.524644 76:0.199404 77:0.329517 78:0.043893 79:0.205479 80:-0.014899 81:-0.444109 82:-0.158732 83:0.249095 84:-0.638058 85:-0.255348 86:-0.082101 87:1.0 88:0.672131 89:1.0 90:0.218485 91:0.097035 92:-0.537949 93:0.487363 94:0.382499 95:-3.54E-4 96:-0.291119 97:0.674208 98:-0.438169 99:-0.575266 100:-0.129095 101:0.222912 102:0.092157 103:0.160952 104:-0.643736 105:-0.646545 106:0.171429 107:-0.640063 108:-0.909315 109:-0.26721 110:-0.387395 111:-0.887282 112:0.384552 113:0.383149 114:-0.441956 115:0.326797 116:0.058772 117:-0.613225 118:0.038519 119:-0.74447 120:0.52456 121:-0.694167 122:-0.681989 123:-0.104877 124:0.061728 125:-0.301618 126:-0.841662 127:-0.096632 128:0.332395 129:0.255059 130:-0.308348 131:-0.717313 132:-0.290941 133:0.362637 134:-0.381516 135:-0.936285 136:-0.054604 137:1.0 138:-0.237024 139:0.125893 140:-0.298959 141:-0.37939 142:0.286245 143:-0.173926 144:-0.890387 145:0.168365 146:-0.40747 147:0.010395 148:-0.392888 149:-0.780683 150:0.449918 151:0.170732 152:0.177847 153:-0.936496 154:-0.409061 155:-0.833147 156:0.840143 157:-0.459598 158:-0.742391 159:0.038654 160:-0.239437 161:-0.248832 162:-0.883284 163:-0.279575 164:-0.217732 165:0.01582 166:-0.591482 167:-0.802215 168:0.36701 169:0.531034 170:0.193204 171:-0.947942 172:-0.358303 173:-0.011899 174:0.374184 175:-0.168717 176:-0.508385 177:0.266779 178:-0.04 179:0.38138 180:-0.884534 181:0.293142 182:0.067527 183:0.200053 184:-0.358973 185:-0.628162 186:-0.118415 187:-0.297297 188:-0.107743 189:-0.909317 190:0.209857 191:0.08412 192:-0.255811 193:-0.434139 194:-0.769272 195:0.731385 196:-0.333333 197:0.216081 198:-0.978012 199:0.246858 200:0.128596 201:0.75768 202:-0.241015 203:-0.646206 204:-0.555184 205:0.352941 206:-0.16007 207:-0.923048 208:-0.549809 209:-0.152274 210:-0.347563 211:-0.440097 212:-0.76494 213:-0.624644 214:-0.003322 215:-0.450118 216:-0.884719 217:0.070241 218:-0.340273 219:0.667506 220:-0.150883 221:-0.374743 222:-0.89158 223:0.111111 224:-0.841642 225:-0.714465 226:-0.241869 227:-0.192489 228:0.116748 229:-0.72749 230:-0.810372 231:-0.44961 232:0.303226 233:-0.188764 234:-0.918096 235:0.123606 236:0.165241 237:-0.039766 238:-0.717852 239:-0.839201 240:0.185765 241:0.880805 242:0.099319 243:-0.959601 244:0.149472 245:0.581863 246:0.922136 247:-0.425635 248:-0.752507 249:0.344197 250:-0.207317 251:-0.032533 252:-0.97348 253:-0.15322 254:0.045887 255:0.073028 256:-0.674071 257:-0.899367 258:-0.206986 259:-0.319149 260:-0.059167 261:-0.991655 262:0.133678 263:-0.515527 264:0.527873 265:-0.734777 266:-0.831853 267:-0.02743 268:0.151671 269:0.0784 270:-0.908869 271:-0.123069 272:-0.102375 273:-0.750351 274:-0.731783 275:-0.867651 276:-0.229443 277:-0.477707 278:-0.065965 279:-0.973388 280:-0.055616 281:0.39785 282:-0.787851 283:-0.589772 284:-0.820634 285:-0.063448 286:-0.32705 287:0.016513 288:-0.942196 289:-0.07233 290:-0.503832 291:-0.954762 292:-0.779545 293:-0.882134 294:-0.017832 295:-0.023305 296:0.016642 297:-0.95513 298:-0.540051 299:0.331884 300:0.465007 301:-0.645725 302:-0.857851 303:-0.771981 304:-0.703704 305:-0.043262 306:-0.993259 307:0.226584 308:-0.272986 309:0.876331 310:-0.744874 311:-0.785939 312:0.526895 313:-0.52 314:0.025582 315:-0.914857 316:0.322392 317:-0.206745 318:-0.560634 319:-0.699072 320:-0.83858 321:0.738096 322:0.071429 323:0.386605 324:-0.953117 325:0.737757 326:0.741982 327:0.746248 328:-0.645333 329:-0.62473 330:0.971214 331:0.34802 332:-0.103236 333:-0.464611 334:-0.382824 335:-0.625848 336:0.194823 337:-0.658255 338:-0.622978 339:-0.387763 340:0.479647 341:-0.16275 342:-0.194562 343:-0.068413 344:-0.457428 345:-0.3805 346:-0.70821 347:-0.766928 348:-0.816342 349:-0.214058 350:0.272877 351:-0.832445 
37.460485556803086 1:0.319965 2:0.325287 3:0.331026 4:-0.028328 5:0.182665 6:-0.020463 7:0.245874 8:0.072762 9:-0.532075 10:-0.35069 11:0.463716 12:-0.577866 13:-0.631593 14:-0.341882 15:-0.902957 16:0.28631 17:-0.520631 18:-0.394149 19:-0.128103 20:0.478747 21:0.371603 22:0.10573 23:-0.491548 24:0.423386 25:-0.557841 26:0.357658 27:-0.797978 28:-0.403378 29:0.012021 30:-0.413006 31:-0.595669 32:-0.277094 33:-0.63209 34:0.067797 35:-0.0915 36:-0.007776 37:-0.496753 38:0.523066 39:0.776313 40:0.229413 41:0.039309 42:0.522022 43:-0.602544 44:0.369735 45:-0.467799 46:-0.065992 47:-0.142618 48:-0.881037 49:0.176303 50:0.323707 51:0.018579 52:0.278926 53:-0.268431 54:-0.049564 55:0.414947 56:-0.687518 57:-0.611361 58:-0.715895 59:-0.586174 60:-0.02884 61:0.15493 62:0.316319 63:-0.268515 64:0.738975 65:-0.49147 66:0.027594 67:-0.628721 68:-0.444147 69:0.267075 70:-0.285714 71:-0.129474 72:-0.376771 73:-0.172966 74:-0.417233 75:-0.56225 76:-0.709884 77:-0.324209 78:-0.354332 79:-0.441781 80:-0.721336 81:0.030255 82:0.132311 83:0.338995 84:-0.61213 85:-0.293088 86:-0.441338 87:0.343607 88:0.163934 89:-0.042728 90:-0.773596 91:0.219976 92:0.624382 93:0.411778 94:0.895117 95:-0.022182 96:-0.210222 97:0.348416 98:-0.318361 99:-0.786096 100:0.044456 101:-0.102016 102:0.109061 103:-0.173433 104:-0.383163 105:-0.276119 106:-0.214286 107:-0.317804 108:-0.714062 109:-0.230339 110:-0.403345 111:-0.888219 112:0.301043 113:0.410705 114:-0.085298 115:0.257353 116:0.542557 117:-0.149677 118:-0.23914 119:-0.244756 120:-0.032362 121:-0.331462 122:-0.406159 123:0.046935 124:0.05787 125:0.051393 126:-0.749919 127:-1.0 128:0.601594 129:0.474609 130:-0.266547 131:-0.632161 132:-0.243677 133:0.019231 134:-0.09541 135:-0.921046 136:-0.413614 137:0.318859 138:-0.148882 139:-0.338474 140:-0.578243 141:-0.375284 142:0.033457 143:-0.173457 144:-0.898708 145:0.02271 146:-0.033187 147:0.067719 148:-0.282754 149:-0.72339 150:0.487374 151:0.214286 152:0.309643 153:-0.93297 154:0.40532 155:0.12705 156:0.845 157:-0.202573 158:-0.693016 159:-0.014247 160:-0.042254 161:-0.365379 162:-0.940926 163:0.159868 164:-0.240414 165:0.071374 166:-0.696827 167:-0.793958 168:0.334611 169:0.117241 170:0.072271 171:-0.868819 172:0.352932 173:-0.376192 174:0.402686 175:-0.642327 176:-0.836824 177:0.265025 178:0.6 179:0.46388 180:-0.929476 181:0.219272 182:-0.968187 183:1.0 184:-0.738845 185:-0.786253 186:-0.115878 187:0.471933 188:-0.125342 189:-0.860599 190:-0.391035 191:0.053821 192:-0.053229 193:-0.438376 194:-0.587293 195:0.713529 196:0.443287 197:0.120705 198:-0.875686 199:-0.277001 200:-0.076851 201:0.741576 202:-0.420511 203:-0.733618 204:-0.547785 205:-0.330882 206:-0.134475 207:-0.942235 208:0.087813 209:-0.117162 210:-0.330438 211:-0.415428 212:-0.802394 213:-0.619536 214:0.063123 215:-0.430658 216:-0.951324 217:-0.750477 218:-0.608138 219:0.644332 220:-0.080985 221:-0.381101 222:-0.917387 223:0.174603 224:-0.885092 225:-0.713205 226:-0.147943 227:-0.103347 228:0.250756 229:-0.446326 230:-0.602499 231:-0.448223 232:0.251613 233:-0.108798 234:-0.889665 235:0.118272 236:-0.092698 237:0.242858 238:-0.65184 239:-0.771797 240:0.185598 241:0.404027 242:0.076393 243:-0.939384 244:0.144589 245:-0.212826 246:0.918152 247:-0.705909 248:-0.843133 249:0.344892 250:-0.329268 251:-0.042942 252:-0.960263 253:-0.125764 254:0.169914 255:-0.297133 256:-0.656743 257:-0.850305 258:-0.212509 259:0.659574 260:-0.180934 261:-0.947962 262:0.015836 263:-0.021717 264:0.541787 265:-0.608164 266:-0.795951 267:-0.029203 268:0.03856 269:0.016428 270:-0.956195 271:-0.197528 272:-0.180439 273:-0.775035 274:-0.76319 275:-0.833918 276:-0.229134 277:-0.834395 278:-0.057645 279:-0.942242 280:-0.15509 281:-0.077031 282:-0.61764 283:-0.786588 284:-0.854207 285:-0.066797 286:-0.26673 287:-0.060894 288:-0.904274 289:0.118289 290:-0.71345 291:-0.953762 292:-0.761306 293:-0.811815 294:-0.017275 295:-0.177966 296:0.037059 297:-0.925751 298:-0.268011 299:0.090859 300:0.446022 301:-0.602011 302:-0.721289 303:-0.771268 304:-0.087963 305:-0.026296 306:-0.921051 307:0.225384 308:0.242461 309:0.73936 310:-0.665566 311:-0.736216 312:0.528776 313:-0.693333 314:0.062325 315:-0.906765 316:0.417003 317:-0.138341 318:-0.565024 319:-0.648172 320:-0.809386 321:0.732551 322:-0.267857 323:0.245659 324:-0.95693 325:0.595811 326:0.602997 327:0.610214 328:-0.594864 329:-0.529 330:0.966815 331:-0.164258 332:0.0409 333:-0.556121 334:-0.322371 335:-0.309373 336:0.249549 337:-0.630124 338:-0.705549 339:-0.38119 340:-0.302452 341:-0.012995 342:-0.623204 343:0.28529 344:-0.449965 345:-0.262739 346:-0.686814 347:-0.792508 348:-0.815296 349:-0.329074 350:0.291952 351:-0.91413 
