svm_type c_svc
kernel_type rbf
gamma 0.015625
nr_class 2
total_sv 99
rho 0.17387895031543477
label 1 -1
nr_sv 53 46
SV
1.0436712468379017 1:0.054176 2:0.058313 3:0.062613 4:0.264463 5:0.109662 6:0.635662 7:0.282892 8:0.190714 9:-0.592926 10:-0.622889 11:0.678031 12:-0.709024 13:-0.466946 14:0.181188 15:-0.473637 16:-0.280934 17:0.268072 18:-0.172163 19:-0.507792 20:0.545929 21:0.194882 22:-0.066999 23:-0.133149 24:-0.191066 25:-0.546269 26:-0.05824 27:-0.335203 28:-0.726639 29:0.581684 30:-0.782783 31:-0.124999 32:-0.033832 33:-0.481377 34:1.0 35:0.192162 36:0.119722 37:-0.209424 38:0.245755 39:0.09953 40:-0.086123 41:0.044222 42:0.562134 43:-1.0 44:0.511805 45:-0.072666 46:-0.055293 47:-0.43916 48:0.786334 49:0.43559 50:0.872164 51:-0.3409 52:-0.421488 53:-0.486693 54:0.717391 55:0.543679 56:0.015267 57:0.097747 58:0.272166 59:0.028958 60:-0.551432 61:-0.306604 62:-0.299844 63:-0.796829 64:0.544689 65:-0.142704 66:-0.35709 67:-0.443911 68:-0.484584 69:0.336309 70:-0.309278 71:0.268254 72:-0.556034 73:0.808404 74:-0.136884 75:-0.673123 76:-0.014259 77:0.289211 78:0.799727 79:0.178082 80:0.762057 81:0.046555 82:-0.377331 83:-0.6721 84:-0.305082 85:-0.423015 86:0.050352 87:0.353741 88:-1.0 89:0.120547 90:-0.035537 91:-0.423907 92:-0.205102 93:0.917327 94:-0.038437 95:-0.110267 96:-0.350257 97:0.972851 98:-0.547279 99:-0.392882 100:-0.695439 101:0.049778 102:-0.30632 103:-0.320412 104:-0.537188 105:0.009669 106:-0.897727 107:-0.143506 108:-0.731725 109:0.071577 110:-0.594011 111:-0.677455 112:0.083102 113:0.313873 114:-0.334006 115:0.504 116:0.063575 117:-0.063795 118:-0.265971 119:-0.292008 120:0.348166 121:-0.296525 122:-0.420503 123:-0.11775 124:-0.027933 125:0.246024 126:-0.883703 127:-0.471085 128:0.800796 129:0.51364 130:0.300446 131:0.135714 132:-0.910397 133:-0.379121 134:-0.647559 135:-0.281966 136:0.534705 137:0.1298 138:-0.181517 139:0.960063 140:0.756417 141:0.229825 142:0.09589 143:0.377116 144:-0.051501 145:0.077826 146:-0.535199 147:-0.090929 148:-0.435793 149:-0.651612 150:0.379625 151:-0.298701 152:-0.150225 153:-0.759816 154:0.270554 155:-0.341798 156:0.702147 157:-0.139461 158:-0.486684 159:0.095321 160:0.143135 161:0.135768 162:-0.81561 163:-0.603902 164:0.731947 165:-0.121406 166:0.714299 167:0.657585 168:-0.886264 169:-0.02069 170:-0.969452 171:0.682129 172:0.041932 173:-0.031705 174:0.275157 175:0.181478 176:0.440588 177:0.405528 178:-0.142857 179:0.302042 180:-0.326319 181:0.7363 182:-0.144332 183:0.03165 184:-0.022035 185:-0.269629 186:0.77815 187:-0.033333 188:0.650114 189:-0.77979 190:0.692374 191:0.339784 192:1.0 193:-0.239662 194:-0.346459 195:0.761596 196:0.367089 197:0.378296 198:-0.71942 199:-0.972792 200:-0.202582 201:0.966897 202:-0.088289 203:-0.37706 204:-0.807866 205:1.0 206:-0.881003 207:-0.461193 208:-0.295481 209:-0.436383 210:0.545309 211:-0.511481 212:-0.832393 213:-0.86367 214:0.135135 215:-0.638699 216:-0.880186 217:-0.226354 218:-0.41134 219:0.233078 220:-0.442516 221:-0.625374 222:-0.733566 223:0.661546 224:-0.065545 225:-0.847687 226:0.298917 227:-0.456165 228:-0.122146 229:-0.457542 230:-0.564651 231:-0.463458 232:0.045161 233:0.131413 234:-0.743977 235:-0.297847 236:0.249741 237:0.551278 238:0.18909 239:0.270083 240:0.276319 241:-0.102549 242:-0.84155 243:0.656477 244:-0.839229 245:0.651604 246:0.925428 247:0.832973 248:0.831242 249:-0.636211 250:-0.365854 251:-0.890555 252:0.629532 253:-0.503173 254:-0.486999 255:-0.153041 256:-0.574808 257:-0.555583 258:-0.233532 259:0.138298 260:-0.561942 261:-0.331055 262:0.217951 263:0.450112 264:0.933021 265:-0.495993 266:-0.711261 267:-0.400094 268:0.213368 269:0.022808 270:-0.943297 271:-1.0 272:0.05352 273:-0.321973 274:0.688629 275:0.741558 276:-1.0 277:-0.785714 278:-1.0 279:0.9252 280:-0.980511 281:-0.487571 282:0.047666 283:0.431514 284:0.387256 285:-0.556419 286:0.413793 287:-1.0 288:0.652119 289:-0.122111 290:0.621024 291:-0.708239 292:-0.212162 293:-0.183706 294:-0.447058 295:-0.449153 296:0.262441 297:-0.413343 298:-0.824204 299:0.222264 300:0.43299 301:-0.269821 302:-0.245985 303:-1.0 304:-0.103448 305:-0.796906 306:-0.401631 307:0.441126 308:-0.284263 309:0.533285 310:-0.565266 311:-0.546437 312:0.589101 313:-0.253333 314:0.080425 315:-0.776091 316:0.39088 317:-0.207356 318:1.0 319:-0.70818 320:-0.775656 321:0.767208 322:0.666667 323:0.052778 324:-0.778617 325:0.808057 326:0.812264 327:0.816123 328:-0.647966 329:-0.380184 330:0.896303 331:0.252417 332:-0.173545 333:-0.383257 334:-0.019198 335:-0.708855 336:0.019552 337:-0.60721 338:-0.60117 339:-0.381698 340:-0.068182 341:-0.176466 342:-0.32001 343:0.068919 344:-0.622723 345:-0.996779 346:-0.674367 347:-0.657921 348:-0.809265 349:-0.054313 350:0.441334 351:-0.690754 
0.8991383963094841 1:0.563053 2:0.556631 3:0.550594 4:0.664734 5:0.294556 6:0.721147 7:0.313862 8:-0.128931 9:-0.884075 10:-0.175136 11:0.305302 12:-0.388678 13:-0.238339 14:-0.079791 15:-0.416589 16:0.030614 17:0.101624 18:-0.758375 19:0.340632 20:-0.751193 21:-0.237205 22:-0.213515 23:-0.568971 24:-0.389766 25:-0.60597 26:-0.522776 27:-0.374516 28:-0.41971 29:-0.494922 30:-0.772422 31:-0.375519 32:-0.606709 33:-0.455834 34:-0.323171 35:0.347535 36:-0.576791 37:-0.23967 38:-0.417873 39:0.125562 40:-0.491448 41:-0.732663 42:-0.302881 43:-0.391831 44:-0.242731 45:-0.64785 46:-0.417049 47:0.373614 48:0.786055 49:0.360705 50:-0.201424 51:0.476355 52:-0.402893 53:0.411526 54:-0.959292 55:0.074573 56:-0.013433 57:0.093289 58:-0.133153 59:-0.48649 60:-0.234872 61:-0.245283 62:0.012348 63:-0.821243 64:-0.360796 65:0.533509 66:-0.474303 67:0.356192 68:0.062904 69:0.346903 70:-0.113402 71:0.15353 72:-0.585436 73:-0.564623 74:0.277756 75:-0.752937 76:-0.233081 77:-0.259399 78:0.196503 79:0.013699 80:0.072149 81:-0.680057 82:0.603604 83:-0.664115 84:-0.394898 85:-0.43912 86:-0.532895 87:0.406826 88:0.409836 89:0.209889 90:-0.574373 91:0.146492 92:0.239024 93:0.930058 94:0.657106 95:0.552678 96:-0.679624 97:0.131222 98:-0.555432 99:-0.060257 100:-0.584298 101:-0.160557 102:-0.358 103:0.506301 104:0.052896 105:-0.549565 106:-0.309091 107:-0.667744 108:-0.536614 109:0.168786 110:-0.045231 111:0.400437 112:0.381685 113:0.600378 114:-0.675837 115:0.322667 116:-0.502248 117:0.167903 118:0.204076 119:0.095759 120:0.342139 121:-0.140062 122:-0.084517 123:-0.447029 124:-0.083799 125:-0.265941 126:-0.605348 127:-0.294901 128:0.160295 129:0.48503 130:-0.456759 131:-0.695028 132:-0.661426 133:-0.195055 134:-0.135944 135:-0.908701 136:0.167536 137:0.604108 138:-0.110295 139:-0.16577 140:-0.64963 141:-0.357289 142:0.150685 143:-0.068537 144:-0.951057 145:0.013181 146:-0.685716 147:0.218811 148:-0.776132 149:-0.889502 150:0.446849 151:-0.324675 152:0.16977 153:-0.927686 154:0.025968 155:-0.077447 156:0.707545 157:-0.171053 158:-0.75253 159:0.10428 160:-0.433301 161:0.155969 162:-0.989389 163:-0.116186 164:0.06869 165:-0.138713 166:-0.610108 167:-0.880969 168:0.305824 169:0.682759 170:-0.344007 171:-0.999236 172:-0.304049 173:1.0 174:0.449717 175:0.155117 176:-0.563583 177:0.351782 178:0.619048 179:0.209914 180:-0.988168 181:-0.725332 182:0.354075 183:0.137382 184:-0.289863 185:-0.493634 186:0.722112 187:0.233333 188:0.497795 189:-0.886567 190:-0.644078 191:0.046484 192:0.732628 193:-0.323093 194:-0.636617 195:0.689058 196:-0.291139 197:0.138308 198:-0.933651 199:-0.888297 200:-0.119981 201:0.96584 202:-0.023461 203:-0.498467 204:-0.46604 205:-0.6 206:0.115891 207:-0.806232 208:-0.30657 209:-0.11603 210:0.467567 211:-0.369387 212:-0.625568 213:-0.951662 214:-0.027027 215:-1.0 216:-0.652722 217:-0.313969 218:0.061438 219:0.29591 220:-0.073349 221:-0.372695 222:-0.771125 223:0.265214 224:-0.13764 225:-0.788044 226:-0.294186 227:0.270613 228:0.225416 229:-0.441842 230:-0.697221 231:-0.496222 232:0.251613 233:-0.153757 234:-0.933883 235:0.298497 236:-0.447654 237:0.533435 238:-0.841448 239:-0.899778 240:0.685827 241:0.210336 242:0.107341 243:-0.964922 244:0.233679 245:-0.080469 246:0.920918 247:-0.752007 248:-0.911177 249:0.352173 250:-0.402439 251:-0.069811 252:-0.949058 253:-0.270916 254:-0.670926 255:0.080535 256:-0.957843 257:-1.0 258:-0.208306 259:0.191489 260:-0.171782 261:-0.957631 262:-0.067229 263:0.098914 264:0.783311 265:-0.596911 266:-0.84626 267:-0.400674 268:0.521851 269:0.029639 270:-0.963472 271:-0.144678 272:-0.760898 273:-0.245636 274:-0.788759 275:-0.882161 276:-0.229058 277:-0.547619 278:-0.058438 279:-0.949376 280:-0.146896 281:0.477403 282:0.050573 283:-0.492241 284:-0.866554 285:-0.071791 286:0.344828 287:-0.174518 288:-0.972055 289:0.005379 290:0.016766 291:-0.71674 292:-0.650507 293:-0.728881 294:-0.507589 295:0.194915 296:-0.036724 297:-0.934795 298:-0.651778 299:0.303372 300:0.467516 301:-0.505273 302:-0.683845 303:-0.898045 304:0.086207 305:-0.30139 306:-0.904758 307:0.249236 308:1.0 309:0.696029 310:-0.491678 311:-0.725119 312:0.590186 313:-0.52 314:0.084453 315:-0.964099 316:0.441113 317:-0.204561 318:-0.568119 319:-0.614339 320:-0.75385 321:0.77858 322:-0.060185 323:0.359034 324:-0.896097 325:0.622598 326:0.630232 327:0.637255 328:-0.448752 329:-0.311271 330:0.82905 331:0.156192 332:0.333373 333:-0.850719 334:3.58E-4 335:-0.290495 336:0.029809 337:-0.30593 338:-0.37595 339:-0.352427 340:0.022727 341:-0.1266 342:-0.347499 343:0.117416 344:-0.04107 345:-0.996957 346:-0.312384 347:-0.430187 348:-0.859289 349:0.060703 350:0.012157 351:-0.795744 
1.5568564381062717 1:0.586861 2:0.588004 3:0.589227 4:0.138723 5:-0.044212 6:0.117683 7:0.516873 8:-0.162368 9:-0.844541 10:-0.385885 11:0.45315 12:-0.47537 13:-0.223266 14:0.618489 15:0.036118 16:-0.074754 17:0.463955 18:-0.01944 19:0.15427 20:-0.229664 21:-0.170347 22:0.281167 23:-0.399503 24:-0.255372 25:-0.707463 26:-0.133515 27:-0.745674 28:-0.475386 29:-0.011334 30:-1.0 31:-0.363359 32:0.151496 33:-0.517332 34:0.170732 35:0.213282 36:0.676921 37:-0.431534 38:0.541559 39:0.114753 40:0.693184 41:0.091447 42:-0.616471 43:0.080182 44:-0.27461 45:-0.720011 46:-0.203748 47:0.379919 48:0.781523 49:0.008616 50:-0.082652 51:0.644151 52:0.355372 53:0.728403 54:-0.606128 55:0.204927 56:-0.239978 57:-0.243768 58:-0.161082 59:-0.064264 60:-0.462081 61:0.634434 62:-0.255929 63:-0.452755 64:0.115882 65:-0.300735 66:-0.344342 67:-0.260266 68:0.177437 69:0.556885 70:-0.185567 71:0.543417 72:0.239892 73:-0.362793 74:0.031794 75:-0.645232 76:0.044253 77:0.245737 78:0.24793 79:-0.356164 80:0.104131 81:-0.169596 82:-0.46573 83:0.352262 84:-0.228397 85:0.053601 86:0.442017 87:-0.027722 88:0.639344 89:-0.277192 90:-0.429354 91:-0.122689 92:-0.467504 93:0.900946 94:-0.219534 95:-0.45307 96:0.015282 97:0.239819 98:-0.247829 99:-0.520807 100:0.100639 101:-0.463331 102:-0.164954 103:-0.643804 104:-0.626828 105:-0.163243 106:-0.090909 107:-0.447982 108:-0.603708 109:0.582911 110:-0.070851 111:-0.801658 112:0.394929 113:0.444423 114:-0.708313 115:-0.36 116:-0.539754 117:-0.251391 118:0.407555 119:0.3515 120:0.749229 121:0.423579 122:0.435345 123:0.133523 124:-0.430168 125:0.401348 126:-0.687774 127:-0.506883 128:-0.3411 129:0.53816 130:-0.365173 131:-0.736209 132:-0.667859 133:-0.097527 134:-0.194737 135:-0.928862 136:0.173557 137:-0.324519 138:-0.154904 139:-0.588977 140:-0.755734 141:-0.291546 142:0.260274 143:0.26569 144:-0.797547 145:0.382241 146:0.608983 147:0.138906 148:0.123469 149:-0.640569 150:0.47116 151:-0.017857 152:0.209801 153:-0.981425 154:0.635044 155:-0.458824 156:0.701996 157:-0.305783 158:-0.593072 159:0.137937 160:-0.191821 161:0.253153 162:-0.82145 163:-0.291944 164:-0.373608 165:-0.156967 166:-0.469104 167:-0.607581 168:0.336186 169:0.062069 170:-0.194728 171:-0.760707 172:-0.076714 173:0.198918 174:0.431397 175:-0.20541 176:-0.455913 177:0.302886 178:0.066667 179:0.092142 180:-0.885399 181:0.434729 182:-0.611132 183:0.118791 184:-0.302451 185:-0.593642 186:0.709124 187:-0.5 188:0.440644 189:-0.89985 190:0.039592 191:0.287235 192:0.673707 193:-0.345919 194:-0.517398 195:0.747432 196:0.113924 197:0.355382 198:-0.819872 199:0.351014 200:-0.114371 201:0.969507 202:-0.275822 203:-0.684888 204:-0.567946 205:-0.258333 206:-0.114982 207:-0.93004 208:-0.303441 209:-0.799869 210:0.553599 211:-0.572292 212:-0.841054 213:-0.825059 214:-0.037162 215:-0.392692 216:-0.916305 217:-0.541255 218:-0.32215 219:0.260491 220:-0.152916 221:-0.399758 222:-0.762355 223:0.493867 224:-0.132905 225:-0.794434 226:-0.589148 227:0.858829 228:-0.194442 229:0.178525 230:-0.271398 231:-0.509791 232:0.2 233:-0.138683 234:-0.893679 235:0.312558 236:-0.405564 237:0.550844 238:-0.774205 239:-0.851959 240:0.687511 241:0.642416 242:0.167802 243:-0.925989 244:0.195537 245:-0.714033 246:0.922888 247:-0.835671 248:-0.928482 249:0.354724 250:-0.085366 251:-0.025567 252:-0.94846 253:-0.194682 254:0.448845 255:-0.156707 256:-0.535963 257:-0.839214 258:-0.203796 259:0.06383 260:-0.054316 261:-0.981628 262:0.095961 263:0.11917 264:0.769758 265:-0.682095 266:-0.827089 267:-0.411069 268:-0.012853 269:-0.156905 270:-0.903543 271:-0.12488 272:-0.188333 273:-0.362227 274:-0.642575 275:-0.733243 276:-0.227871 277:-0.833333 278:-0.004282 279:-0.901567 280:-0.01959 281:-0.363018 282:0.037076 283:-0.565399 284:-0.643134 285:-0.064415 286:-0.262931 287:-0.095802 288:-0.822998 289:-0.11722 290:0.301668 291:-0.755632 292:-0.592936 293:-0.737464 294:-0.509958 295:-0.415254 296:-0.079964 297:-0.958022 298:-0.283783 299:0.279115 300:1.0 301:-0.5223 302:-0.5913 303:-0.880687 304:0.034483 305:-0.139012 306:-0.842721 307:0.386668 308:0.620082 309:0.57063 310:-0.520642 311:-0.698322 312:0.587884 313:-0.42 314:0.055686 315:-0.933064 316:0.343319 317:-0.197218 318:-0.56316 319:-0.714213 320:-0.913415 321:0.77368 322:-0.444444 323:0.245833 324:-0.983874 325:0.681958 326:0.689842 327:0.697125 328:-0.58355 329:-0.373794 330:0.885985 331:0.027175 332:0.122522 333:-0.650046 334:-0.170484 335:0.019894 336:0.094283 337:-0.376901 338:-0.481252 339:-0.334449 340:0.272727 341:0.05338 342:-0.511838 343:0.448214 344:-0.135907 345:-0.99714 346:-0.453799 347:-0.496692 348:-0.797203 349:-0.003195 350:0.404262 351:-0.775736 
0.6074149241373575 1:0.352497 2:0.355402 3:0.358394 4:0.160454 5:0.101396 6:0.265175 7:0.086608 8:-0.029071 9:-0.753227 10:-0.032532 11:0.107269 12:-0.109973 13:0.107754 14:0.652557 15:0.491313 16:0.038587 17:0.327002 18:-0.454713 19:0.210247 20:-0.30515 21:-0.259235 22:-0.606516 23:-0.554258 24:-0.136539 25:-0.534328 26:0.075464 27:-0.411444 28:-0.325567 29:-0.514041 30:-0.776953 31:-0.340294 32:-0.418255 33:-0.457563 34:-0.656504 35:0.325663 36:-0.362191 37:0.193777 38:0.068372 39:0.11888 40:0.158205 41:0.29394 42:-0.520931 43:-0.065053 44:-0.3103 45:-0.185741 46:0.009414 47:0.185655 48:0.785684 49:0.676362 50:0.73652 51:0.541712 52:-0.051653 53:0.434998 54:-0.454862 55:0.100586 56:-0.389394 57:-0.285484 58:-0.304849 59:-0.300469 60:-0.207979 61:-0.169811 62:0.073568 63:-0.76842 64:-0.152162 65:-0.02155 66:-0.420727 67:-0.327262 68:-0.260333 69:0.138258 70:-0.257732 71:-0.057384 72:-0.457852 73:0.441606 74:-0.203022 75:-0.697373 76:-0.322833 77:-0.016065 78:0.74689 79:-0.015411 80:0.945546 81:0.346208 82:0.050064 83:-0.180602 84:-0.285153 85:-0.440944 86:-0.413917 87:0.502896 88:0.492828 89:0.370844 90:-0.613822 91:-1.0 92:0.469342 93:0.900707 94:0.149908 95:-0.364251 96:0.524398 97:-1.0 98:0.161725 99:-0.661699 100:0.196601 101:-0.320121 102:-0.173158 103:-0.060573 104:-0.190266 105:-0.253647 106:0.043182 107:-0.509455 108:-0.60383 109:-0.518832 110:0.419732 111:-0.653187 112:0.630364 113:0.477797 114:-0.497682 115:0.376 116:-0.236897 117:-0.698714 118:-0.340569 119:1.0 120:0.342741 121:1.0 122:0.488244 123:0.598177 124:-0.148045 125:0.464384 126:-0.839404 127:-0.423852 128:-0.472431 129:0.514124 130:-0.627076 131:-0.770927 132:-0.661204 133:0.186813 134:-0.06791 135:-0.862603 136:0.114951 137:-0.491558 138:-0.173165 139:-0.127866 140:-0.181786 141:-0.464247 142:-0.123288 143:-0.333075 144:-0.501985 145:-0.149758 146:0.226166 147:0.17116 148:-0.102663 149:-0.652327 150:0.438263 151:-0.13961 152:0.139514 153:-0.967159 154:-0.280022 155:-0.14036 156:0.696461 157:0.064844 158:-0.450437 159:0.141227 160:-0.433301 161:0.196484 162:-0.863417 163:-0.237874 164:-0.624754 165:-0.12949 166:-0.751364 167:-0.759658 168:0.341864 169:0.77931 170:-0.127758 171:-0.730441 172:-0.137617 173:0.075205 174:0.372217 175:-0.419675 176:-0.547082 177:0.286868 178:0.390476 179:-6.46E-4 180:-0.842868 181:0.416403 182:0.182995 183:0.150936 184:-0.44845 185:-0.580781 186:0.725937 187:-0.066667 188:0.526434 189:-0.892187 190:0.072526 191:-0.445985 192:0.743927 193:-0.777199 194:-0.835991 195:0.680525 196:-0.012658 197:-0.038294 198:-0.859211 199:0.009784 200:-0.209647 201:0.963206 202:-0.305314 203:-0.613906 204:-0.575248 205:-0.05 206:-0.139046 207:-0.845533 208:-0.295868 209:-0.996088 210:0.546717 211:-0.718997 212:-0.848459 213:-0.868431 214:-0.243243 215:-0.820475 216:-0.733706 217:0.022184 218:0.273663 219:0.317755 220:0.048486 221:-0.31006 222:-0.814727 223:0.317613 224:-0.201962 225:-0.774838 226:0.152722 227:0.885312 228:-0.044408 229:0.303244 230:-0.324905 231:-0.568683 232:0.580645 233:-0.240177 234:-0.912114 235:0.242663 236:-0.228791 237:0.558719 238:-0.770945 239:-0.826767 240:0.686518 241:0.255034 242:0.126709 243:-0.929432 244:0.204851 245:-0.240365 246:0.926583 247:-0.569619 248:-0.544818 249:0.352985 250:-0.018293 251:-0.037576 252:-0.782783 253:-0.155671 254:0.297557 255:0.175853 256:-0.621435 257:-0.863309 258:-0.207832 259:-0.489362 260:-0.117511 261:-0.978547 262:0.049949 263:0.227078 264:0.801786 265:-0.577357 266:-0.766187 267:-0.405726 268:-0.167095 269:-0.042742 270:-0.930394 271:-0.307914 272:-0.377146 273:-0.176139 274:-0.759547 275:-0.8626 276:-0.228534 277:0.380952 278:-0.026592 279:-0.953375 280:-0.21766 281:-0.216979 282:0.105818 283:-0.680367 284:-0.735548 285:-0.065677 286:-0.172414 287:-0.122058 288:-0.857794 289:-0.187957 290:0.140119 291:-0.638712 292:-0.640401 293:-0.745352 294:-0.510173 295:-0.398305 296:-0.085739 297:-0.922626 298:-0.545266 299:-0.219902 300:0.438004 301:-0.822203 302:-0.906981 303:-0.894976 304:0.103448 305:-0.288196 306:-0.978273 307:0.282664 308:-0.221736 309:0.730227 310:-0.582276 311:-0.650504 312:0.590714 313:-0.52 314:0.113447 315:-0.853159 316:0.310042 317:-0.384615 318:-0.603568 319:-0.838157 320:-0.889083 321:0.774007 322:0.111111 323:0.232707 324:-0.874475 325:0.699263 326:0.70504 327:0.710316 328:-0.49916 329:-0.271216 330:0.804156 331:0.337808 332:0.066562 333:-0.634585 334:0.169717 335:-0.104024 336:0.113021 337:-0.061665 338:-0.315446 339:-0.420844 340:0.272727 341:-0.404272 342:-0.627243 343:-0.310803 344:0.369986 345:-0.997032 346:-0.098109 347:-0.301618 348:-0.733186 349:-0.399361 350:0.453862 351:-0.824977 
1.2147043488847473 1:0.159598 2:0.168483 3:0.177331 4:-0.207961 5:-0.006654 6:0.208512 7:0.506995 8:0.482273 9:-0.076242 10:-0.738375 11:0.795171 12:-0.831901 13:-0.742708 14:-0.248291 15:-0.7422 16:0.237399 17:0.022131 18:-0.267707 19:-0.239169 20:0.434373 21:-0.322928 22:0.078233 23:-0.78695 24:-0.174719 25:-0.068657 26:-0.020713 27:-1.0 28:-1.0 29:1.0 30:-0.763775 31:-1.0 32:-0.767517 33:-0.728898 34:0.004065 35:-0.294225 36:-0.359735 37:-0.314025 38:-0.542529 39:0.112925 40:-0.602784 41:-1.0 42:-0.496318 43:0.576399 44:-0.497513 45:-1.0 46:-0.050735 47:-0.291535 48:0.785611 49:0.562826 50:0.698992 51:0.464869 52:0.161157 53:0.376012 54:-0.428295 55:-0.294003 56:0.002053 57:-0.314707 58:0.154729 59:0.387174 60:0.86293 61:-0.09434 62:1.0 63:1.0 64:-0.201247 65:0.123507 66:-0.356956 67:-0.060678 68:-0.1273 69:0.626606 70:-0.340206 71:0.543256 72:-0.353987 73:0.153704 74:0.002742 75:-0.677646 76:0.110598 77:0.138188 78:0.149201 79:0.246575 80:-0.008427 81:-0.540381 82:0.236258 83:-0.214029 84:-0.373776 85:0.301067 86:0.605058 87:0.121074 88:0.327869 89:-0.08577 90:-0.189568 91:0.488925 92:0.005556 93:0.902481 94:0.266674 95:-0.155668 96:-0.340553 97:-0.21267 98:-0.45508 99:-0.657767 100:-0.304302 101:-1.0 102:-0.170331 103:-1.0 104:-0.563249 105:0.084382 106:0.836364 107:0.338253 108:0.276139 109:0.125289 110:-0.845757 111:-0.693597 112:-0.032836 113:0.163982 114:-0.464376 115:-0.018667 116:-0.236854 117:-0.028975 118:0.100304 119:-0.885855 120:0.332108 121:-0.735822 122:-0.749227 123:-0.092942 124:0.217877 125:0.408433 126:-0.851411 127:-0.116865 128:-0.638735 129:0.540249 130:-0.748535 131:-0.901153 132:-0.675293 133:-0.076923 134:-0.200603 135:-0.948212 136:-0.056464 137:-0.558408 138:-0.145973 139:-1.0 140:-1.0 141:-0.372619 142:0.068493 143:-0.127006 144:-0.986903 145:0.1069 146:-0.271701 147:0.131815 148:-0.456273 149:-0.788198 150:0.445678 151:0.350649 152:0.159374 153:-0.971233 154:0.514736 155:0.269224 156:0.710394 157:0.041545 158:-0.422594 159:0.127822 160:-0.090555 161:0.178564 162:-0.868688 163:0.14517 164:0.308016 165:-0.094491 166:-0.303227 167:-0.591064 168:0.342121 169:0.393103 170:-0.185829 171:-0.843352 172:-0.213499 173:-0.099292 174:0.276866 175:-0.352482 176:-0.644644 177:0.346157 178:0.009524 179:0.225669 180:-0.90698 181:-0.31153 182:-0.050192 183:0.082693 184:-0.372877 185:-0.776347 186:0.703065 187:-0.516667 188:0.405467 189:-0.972167 190:-0.302809 191:0.257435 192:0.72158 193:-0.226919 194:-0.543727 195:0.738902 196:0.088608 197:0.304427 198:-0.871086 199:-0.068587 200:-0.416105 201:0.970038 202:-0.548808 203:-0.693999 204:-0.577045 205:-0.215885 206:-0.07992 207:-0.793832 208:-0.145937 209:-0.701195 210:0.574343 211:-0.736609 212:-0.764779 213:-0.835025 214:0.236486 215:-0.486182 216:-0.680964 217:-0.399389 218:-0.835064 219:0.279469 220:-0.484187 221:-0.610136 222:-0.771632 223:0.310944 224:-0.37158 225:-0.557086 226:-0.202356 227:-0.659637 228:-0.130145 229:-0.83929 230:-0.929985 231:-0.488728 232:0.2 233:-0.091971 234:-0.954926 235:0.365729 236:-0.499687 237:-1.0 238:-0.893173 239:-0.926289 240:0.686226 241:0.34443 242:0.148523 243:-0.950234 244:0.423446 245:-0.437028 246:0.922964 247:-0.908651 248:-0.990874 249:0.355996 250:0.134146 251:0.01238 252:-0.965141 253:-0.200998 254:-0.657901 255:0.011117 256:-0.796731 257:-0.885014 258:-0.207119 259:-0.636968 260:-0.094701 261:-0.934582 262:0.003886 263:0.581289 264:0.708409 265:-0.572557 266:-0.721285 267:-0.398919 268:-0.012853 269:0.049717 270:-0.900755 271:-0.050875 272:-0.268906 273:-0.32066 274:-0.734841 275:-0.804856 276:-0.229728 277:0.666667 278:-0.079421 279:-0.934392 280:-0.035406 281:-0.093626 282:0.074445 283:-0.553453 284:-0.800027 285:-0.064748 286:0.586207 287:-0.099823 288:-0.937111 289:-0.125143 290:-0.137079 291:-0.718462 292:-0.601654 293:-0.761579 294:-0.506393 295:-0.347458 296:-0.022693 297:-0.95144 298:-0.349451 299:0.01345 300:0.434929 301:-0.533247 302:-0.76833 303:-0.882492 304:0.293103 305:-0.152658 306:-0.965415 307:0.311783 308:-0.592599 309:0.606201 310:-0.804049 311:-0.858571 312:0.587519 313:-0.513333 314:0.085784 315:-0.928875 316:0.561207 317:-0.738181 318:-0.563171 319:-0.8072 320:-0.796757 321:0.77439 322:0.537037 323:0.258646 324:-0.789427 325:0.881922 326:0.885329 327:0.88849 328:-0.821849 329:-0.598614 330:0.973531 331:0.214279 332:-0.38702 333:0.02524 334:-0.021269 335:-0.72027 336:0.00396 337:-0.723355 338:-0.676433 339:-0.399524 340:0.318182 341:-0.688176 342:-0.234576 343:0.193138 344:-0.633827 345:-0.996801 346:-0.752459 347:-0.712682 348:-0.815149 349:-0.233227 350:0.347589 351:-0.775041 
2.8484262078783824 1:0.448377 2:0.448549 3:0.448889 4:0.302613 5:0.146459 6:0.408365 7:0.336875 8:-0.038341 9:-0.760952 10:-0.565802 11:0.664894 12:-0.728833 13:-0.780957 14:-0.451646 15:-0.685262 16:-0.508757 17:0.279488 18:-0.236821 19:-0.121965 20:0.57953 21:-0.448502 22:-0.153515 23:-0.448129 24:-0.093259 25:-0.384328 26:0.146565 27:-0.599005 28:-0.589953 29:-0.075645 30:-0.769348 31:-0.178914 32:-0.452148 33:-0.517956 34:-0.207317 35:0.148128 36:-0.662673 37:-0.661393 38:-0.120149 39:0.135354 40:-0.323682 41:0.501527 42:-0.31507 43:-0.462462 44:-0.228464 45:1.0 46:-0.288923 47:0.485351 48:0.782303 49:0.290549 50:0.226613 51:0.268529 52:0.214876 53:0.167552 54:-0.336141 55:-0.188203 56:0.061248 57:-0.200807 58:0.221949 59:-0.337737 60:-0.305654 61:0.490566 62:-0.088821 63:-0.920216 64:-0.27256 65:-0.474003 66:-0.334395 67:-0.608237 68:-0.598397 69:0.297955 70:-0.329897 71:0.23603 72:-0.304867 73:0.469607 74:-0.643177 75:-0.68617 76:-0.155296 77:0.106863 78:-0.177854 79:-0.256849 80:-0.436883 81:0.174421 82:0.153367 83:-0.580473 84:-0.303062 85:-0.683293 86:-0.674393 87:0.194473 88:0.672131 89:-0.220066 90:-0.602204 91:-0.025671 92:-0.096573 93:0.908082 94:-0.156105 95:-0.330982 96:-0.234749 97:0.493213 98:-0.478749 99:-0.528348 100:-0.411411 101:-0.025049 102:-0.147258 103:-0.62131 104:-1.0 105:-0.057245 106:-0.513636 107:-0.215691 108:-0.930457 109:0.051948 110:-0.307649 111:-0.689726 112:0.006115 113:-0.055481 114:-0.522216 115:0.333333 116:-0.381781 117:-0.521823 118:-0.126035 119:-0.374437 120:0.34877 121:-0.502071 122:-0.648167 123:-0.10052 124:-0.027933 125:0.305746 126:-0.920716 127:-0.577251 128:0.090875 129:0.520325 130:-0.654365 131:-0.861187 132:-0.676519 133:0.208791 134:-0.228287 135:-1.0 136:0.293159 137:-0.288002 138:-0.154761 139:-0.474617 140:-0.743413 141:-0.397053 142:0.075342 143:-0.207929 144:-0.908685 145:-0.139339 146:-0.360068 147:0.111115 148:-0.282024 149:-0.537027 150:0.509197 151:-0.168831 152:0.387938 153:-0.761425 154:0.533912 155:-0.432841 156:0.720921 157:-0.452152 158:-0.617001 159:0.05525 160:0.314508 161:0.030204 162:-0.827516 163:-0.801654 164:0.446162 165:-0.106137 166:-0.404497 167:-0.795753 168:0.303394 169:0.317241 170:-0.307492 171:-0.934773 172:-0.083015 173:-0.417134 174:0.326906 175:-0.678735 176:-0.783474 177:0.351212 178:-0.066667 179:0.293189 180:-0.9175 181:0.55275 182:0.051302 183:0.047564 184:-0.556788 185:-0.836924 186:0.727907 187:-0.179427 188:0.551786 189:-0.972217 190:0.064052 191:-0.401019 192:0.688294 193:-0.871524 194:-0.918025 195:0.710549 196:0.316456 197:0.218545 198:-0.912691 199:-0.430251 200:-0.573313 201:0.965808 202:-0.781996 203:-0.897209 204:-0.600666 205:0.133333 206:-0.231816 207:-0.917445 208:-0.222563 209:-0.880213 210:0.564051 211:-0.897014 212:-0.931749 213:-0.830768 214:0.243243 215:-0.454153 216:-0.787097 217:-0.264605 218:-0.361464 219:-0.001594 220:-0.515556 221:-0.761542 222:-0.722292 223:-0.161605 224:0.020049 225:-0.925047 226:-0.299551 227:-0.033956 228:-0.192766 229:-0.563343 230:-0.80132 231:-0.492261 232:0.483871 233:-0.132474 234:-0.968888 235:0.341523 236:-0.64432 237:0.640726 238:-0.942812 239:-0.93769 240:0.68468 241:0.687114 242:0.004062 243:-0.926477 244:0.155392 245:-0.139021 246:0.939743 247:-0.706734 248:-0.886435 249:0.357169 250:-0.158537 251:0.017489 252:-0.961211 253:-0.201463 254:-0.247276 255:0.260398 256:-0.664941 257:-0.761663 258:-0.211873 259:-0.361702 260:-0.21275 261:-0.875995 262:0.11752 263:-0.599055 264:0.779937 265:-0.821083 266:-0.853826 267:-0.402005 268:-0.017995 269:0.048327 270:-0.899396 271:-0.198389 272:0.145189 273:-0.200734 274:-0.648481 275:-0.808086 276:-0.228257 277:-0.190476 278:-0.015617 279:-0.966358 280:-0.069852 281:-0.685859 282:0.046612 283:-0.808274 284:-0.985717 285:-0.061972 286:-0.517241 287:-0.034532 288:-0.973991 289:-0.273687 290:-0.822564 291:-0.717788 292:-0.751647 293:-0.824577 294:-0.508731 295:-0.144068 296:-0.053177 297:-0.941554 298:-0.450593 299:-0.643473 300:0.437957 301:-0.837725 302:-0.899641 303:-0.891644 304:-0.241379 305:-0.200129 306:-0.90009 307:0.236343 308:-0.657752 309:0.59729 310:-0.845788 311:-0.898139 312:0.585171 313:-0.04 314:-0.054242 315:-0.920426 316:0.394644 317:-0.645731 318:-0.55906 319:-0.911694 320:-0.960787 321:0.776665 322:0.407407 323:0.432299 324:-0.911804 325:0.746334 326:0.752506 327:0.758194 328:-0.626784 329:-0.231729 330:0.891734 331:0.2058 332:-0.070712 333:-0.377346 334:0.009163 335:-0.350363 336:-0.011164 337:-0.56878 338:-0.567961 339:-0.368994 340:0.411932 341:-0.006321 342:-0.332451 343:0.067255 344:-0.569018 345:-0.996867 346:-0.588868 347:-0.561295 348:-0.792011 349:-0.246006 350:0.628876 351:-0.531582 
3.1900113260651426 1:0.52568 2:0.525914 3:0.526327 4:0.251538 5:0.025035 6:0.428468 7:0.592108 8:0.028915 9:-0.724004 10:-0.639027 11:0.71063 12:-0.756285 13:-0.654559 14:-0.609865 15:-0.613664 16:0.094974 17:0.27883 18:-0.469704 19:-0.043387 20:-0.046439 21:-0.270085 22:0.104472 23:-0.036751 24:-0.139903 25:-0.342537 26:0.039545 27:-0.162216 28:-0.69896 29:-0.207605 30:-0.831202 31:-0.404882 32:-0.813191 33:-0.837034 34:0.034553 35:-0.463836 36:-0.850207 37:0.145414 38:-0.286941 39:0.101147 40:-0.723372 41:-0.744251 42:-0.314412 43:0.051437 44:-0.303168 45:-0.64169 46:-0.449234 47:0.203261 48:0.778012 49:-0.289304 50:-0.044808 51:0.544054 52:0.095041 53:0.676922 54:-0.363891 55:0.333912 56:-0.720989 57:-0.303426 58:-0.183699 59:0.362873 60:-0.777521 61:0.254717 62:-0.642907 63:0.534683 64:-0.153282 65:-0.548117 66:-0.32895 67:0.00835 68:-0.054371 69:0.224512 70:0.086985 71:0.058563 72:-0.590254 73:0.082195 74:0.430918 75:-0.80772 76:0.249876 77:0.246373 78:0.241884 79:-0.136986 80:0.074995 81:-0.519821 82:0.411761 83:-0.98712 84:-0.295689 85:-0.951051 86:-0.118103 87:0.321979 88:0.672131 89:0.057267 90:0.663103 91:-0.299814 92:-0.508058 93:0.899989 94:-0.459837 95:-0.342492 96:0.522064 97:-0.230769 98:0.345791 99:-0.146207 100:-0.506671 101:0.050255 102:-1.0 103:-0.094344 104:-0.231522 105:0.056971 106:-0.120455 107:-0.12175 108:-0.570504 109:0.198339 110:-0.628226 111:-0.681043 112:-0.194309 113:-0.012823 114:-0.531758 115:0.485333 116:-0.512662 117:-0.136388 118:0.2654 119:-1.0 120:0.337528 121:-0.74099 122:-0.633051 123:-0.16431 124:-0.117319 125:-0.043806 126:-0.636961 127:-0.482628 128:0.105092 129:0.544553 130:-0.308482 131:-0.680453 132:-0.668324 133:0.054945 134:-0.204236 135:-0.928572 136:0.334132 137:0.477652 138:-0.172684 139:-0.206154 140:-0.627886 141:-0.38099 142:0.041096 143:-0.131206 144:-0.958898 145:0.049158 146:-0.637769 147:0.090048 148:-0.710905 149:-0.887035 150:0.449275 151:-0.188312 152:0.187996 153:-0.957877 154:-0.345426 155:-0.320822 156:0.70477 157:-0.670193 158:-0.865776 159:0.080636 160:0.03408 161:0.115934 162:-0.940073 163:-0.08123 164:-0.463102 165:0.083181 166:-0.68456 167:-0.715793 168:0.2922 169:0.593103 170:-0.453884 171:-0.719197 172:0.002893 173:-0.58941 174:0.32817 175:-0.454312 176:-0.660173 177:0.359901 178:-0.447619 179:0.291348 180:-0.879661 181:-0.019903 182:-0.102899 183:0.137192 184:-0.244764 185:-0.70469 186:0.731341 187:-0.733333 188:0.533454 189:-0.961361 190:-0.041556 191:-1.0 192:0.738411 193:-1.0 194:-0.875068 195:0.697163 196:0.139241 197:0.025907 198:-0.761839 199:0.268563 200:-0.549327 201:0.976928 202:-0.608557 203:-0.800716 204:-0.60456 205:0.333333 206:-0.271673 207:-0.873722 208:-0.592006 209:-1.0 210:0.563104 211:-0.838658 212:-0.856491 213:-0.82099 214:-0.135135 215:-0.313912 216:-0.759502 217:-0.278542 218:-0.496138 219:0.226048 220:-0.663726 221:-0.827873 222:-0.733182 223:0.234727 224:-0.113875 225:-0.895932 226:-0.147041 227:-0.961766 228:-0.171731 229:-0.958281 230:-0.916663 231:-0.491124 232:0.2 233:-0.215106 234:-0.865478 235:0.225513 236:-0.097981 237:0.533336 238:-0.713426 239:-0.8349 240:0.686624 241:0.282039 242:0.118949 243:-0.960455 244:0.320591 245:-0.272108 246:0.922485 247:-0.593981 248:-0.833967 249:0.359689 250:-0.5 251:0.037147 252:-0.956181 253:-0.29742 254:-0.503039 255:0.021021 256:-0.857269 257:-0.965948 258:-0.2068 259:-0.18617 260:-0.073471 261:-0.958061 262:-0.135455 263:0.04913 264:0.787082 265:-0.764311 266:-0.878672 267:-0.404324 268:-0.300771 269:-0.027324 270:-0.957763 271:-0.206267 272:-0.319861 273:-0.12282 274:-0.766078 275:-0.858927 276:-0.228392 277:-0.285714 278:-0.019375 279:-0.947765 280:-0.195389 281:-0.312134 282:0.021826 283:-0.694894 284:-0.855739 285:-0.066513 286:-0.586207 287:-0.139824 288:-0.93217 289:-0.112442 290:0.616785 291:-0.706373 292:-0.605872 293:-0.742217 294:-0.50917 295:-0.245763 296:-0.067501 297:-0.94786 298:-0.261774 299:-0.719574 300:0.42508 301:-1.0 302:-0.989705 303:-0.894568 304:0.310345 305:-0.292408 306:-0.956912 307:0.50447 308:-0.288969 309:0.644725 310:-0.775273 311:-0.848777 312:0.586439 313:-0.466667 314:0.030972 315:-0.929038 316:0.442619 317:-0.874171 318:-0.560184 319:-0.941385 320:-0.935089 321:0.774062 322:0.333333 323:0.195226 324:-0.861405 325:0.711831 326:0.719351 327:0.726311 328:-0.631746 329:-0.428735 330:0.913834 331:0.121029 332:0.101519 333:-0.611436 334:-0.014654 335:-0.499209 336:-0.093917 337:-0.69144 338:-0.61485 339:-0.376419 340:-0.954545 341:0.071316 342:-0.005987 343:0.105121 344:-0.739184 345:-0.996895 346:-0.788989 347:-0.746877 348:-0.8152 349:-0.105431 350:0.380098 351:-0.73175 
1.861599620126743 1:0.375016 2:0.379431 3:0.383874 4:0.023611 5:0.115283 6:0.15167 7:0.496983 8:-0.012712 9:-0.678645 10:-0.509679 11:0.613185 12:-0.681305 13:-0.654938 14:-0.178578 15:-0.736107 16:0.174142 17:-0.028995 18:-0.478979 19:-0.211502 20:0.187219 21:-0.287202 22:0.056531 23:-0.18414 24:-0.296036 25:-0.683582 26:-0.237437 27:-0.274805 28:-0.535778 29:-0.069709 30:-0.735511 31:-0.069164 32:-0.594804 33:-0.70539 34:0.118902 35:-0.174452 36:-1.0 37:-0.154594 38:0.030164 39:0.092882 40:-0.095457 41:-0.329961 42:-0.597663 43:0.630862 44:-0.427488 45:-0.501687 46:0.180884 47:-0.495439 48:0.786052 49:0.532997 50:0.295092 51:0.254806 52:-0.07438 53:0.167128 54:-0.578341 55:0.688732 56:0.003881 57:0.016668 58:-0.084528 59:0.240615 60:-0.069445 61:-0.54717 62:0.192012 63:-0.285684 64:0.092647 65:-0.613857 66:-0.300304 67:-0.65412 68:-0.632599 69:0.537611 70:-0.051546 71:0.742302 72:-0.261299 73:0.793837 74:-0.440336 75:-0.68088 76:-0.507775 77:-0.530609 78:-0.032501 79:-0.178082 80:-0.324141 81:-0.513101 82:0.916327 83:-0.562791 84:-0.250642 85:-0.706313 86:-0.098548 87:0.170185 88:0.639344 89:-0.28456 90:0.118828 91:-0.058342 92:-0.744615 93:0.901337 94:-0.799664 95:-0.514479 96:0.227365 97:0.095023 98:0.028206 99:-0.225234 100:-0.516749 101:-0.073784 102:-0.206627 103:0.481858 104:0.925766 105:1.0 106:-0.109091 107:0.522047 108:0.589899 109:-0.005713 110:0.562702 111:-0.861063 112:0.486223 113:0.479453 114:-0.402266 115:-0.424 116:-0.135439 117:-0.64916 118:-0.085859 119:-0.314517 120:0.367595 121:-0.380801 122:-0.370137 123:-0.117854 124:-0.01676 125:0.246436 126:-0.814664 127:-0.068013 128:-0.070943 129:0.558123 130:-0.335661 131:-0.701979 132:-0.696748 133:0.090659 134:-0.34979 135:-0.886427 136:0.130743 137:-0.384734 138:-0.171662 139:-0.200138 140:-0.639343 141:-0.429103 142:0.315068 143:-0.260708 144:-0.887494 145:-0.005791 146:-0.023884 147:0.397892 148:-0.338749 149:-0.735068 150:0.432438 151:-0.064935 152:0.107118 153:-0.935655 154:0.381874 155:-0.364598 156:0.724167 157:-0.173171 158:-0.68588 159:0.082883 160:-0.69036 161:0.111666 162:-0.948898 163:-0.367481 164:-0.393141 165:-0.135612 166:-0.651377 167:-0.766203 168:0.337924 169:-0.048276 170:-0.171367 171:-0.876557 172:-0.032788 173:-0.254612 174:0.440066 175:-0.599743 176:-0.752406 177:0.33364 178:-0.371429 179:0.185458 180:-0.904285 181:0.492512 182:-0.668968 183:0.138807 184:-0.879227 185:-0.908626 186:0.726426 187:-0.066667 188:0.609266 189:-0.886637 190:0.158757 191:-0.67093 192:0.740674 193:-0.799037 194:-0.777318 195:0.694423 196:-0.594937 197:0.073671 198:-0.761042 199:-0.223951 200:-0.558308 201:0.966214 202:-0.827782 203:-0.960224 204:-0.617793 205:-0.333333 206:-0.452848 207:-0.96837 208:-0.269349 209:0.177806 210:0.593095 211:0.107993 212:-0.122149 213:-0.674488 214:0.27027 215:-0.089484 216:-0.497736 217:-0.332013 218:0.181254 219:0.234565 220:0.029966 221:-0.328499 222:-0.814437 223:0.547219 224:-0.20838 225:-0.80781 226:-0.110058 227:-0.154521 228:0.173363 229:-0.529345 230:-0.62772 231:-0.496859 232:0.225806 233:-0.177708 234:-0.853606 235:0.357908 236:-0.235673 237:0.551523 238:-0.736017 239:-0.850862 240:0.684706 241:0.374229 242:0.058516 243:-0.959598 244:-0.04979 245:0.722097 246:0.887417 247:-0.522819 248:-0.785823 249:0.353237 250:-0.47561 251:-0.032433 252:-0.958476 253:-0.244703 254:-0.160537 255:-0.014506 256:-0.631984 257:-0.868609 258:-0.205003 259:-0.06383 260:-0.05866 261:-0.968319 262:-0.00341 263:-0.023362 264:0.740831 265:-0.571526 266:-0.769963 267:-0.404167 268:0.275064 269:-0.021287 270:-0.943242 271:-0.164065 272:-0.256141 273:-0.316624 274:-0.800293 275:-0.861293 276:-0.229045 277:-0.761905 278:-0.060073 279:-0.944513 280:-0.107513 281:-0.585046 282:0.082535 283:-0.773908 284:-0.874536 285:-0.065839 286:0.396552 287:-0.138111 288:-0.898607 289:-0.266932 290:-0.36899 291:-0.725403 292:-0.908113 293:-0.870943 294:-0.509562 295:-0.11017 296:-0.084184 297:-0.908314 298:-0.448147 299:-0.563472 300:0.461993 301:-0.857274 302:-0.906839 303:-0.894226 304:0.103448 305:-0.269789 306:-0.921856 307:0.313149 308:-0.234898 309:0.57549 310:-0.855862 311:-0.943793 312:0.587106 313:-0.44 314:0.074367 315:-0.98074 316:0.362937 317:-0.243683 318:-0.560152 319:-0.439935 320:-0.600476 321:0.767168 322:-0.407407 323:0.197173 324:-0.866746 325:0.80728 326:0.811619 327:0.815594 328:-0.656552 329:-0.253604 330:0.881746 331:-0.123673 332:-0.400422 333:0.023359 334:-0.012351 335:-0.341487 336:-0.002085 337:-0.355174 338:-0.351025 339:-0.374714 340:0.409091 341:-0.230291 342:-0.296483 343:0.053368 344:-0.242735 345:-0.996816 346:-0.379603 347:-0.37091 348:-0.760177 349:-0.060703 350:0.600147 351:-0.53021 
3.3555622356292174 1:-0.041993 2:-0.027825 3:-0.01391 4:-0.630967 5:-0.55158 6:-0.225296 7:1.0 8:-0.153748 9:-0.651465 10:-0.657592 11:0.748078 12:-0.808322 13:-0.942095 14:-0.986245 15:-0.871742 16:-0.128862 17:-0.614728 18:-0.705489 19:0.059745 20:0.00369 21:-0.328342 22:0.370499 23:0.23818 24:-0.802949 25:-0.191045 26:-0.870844 27:0.587208 28:-0.433554 29:-0.105214 30:-0.797206 31:-0.753305 32:-0.303259 33:-0.594234 34:-0.219512 35:0.172455 36:0.469777 37:0.360785 38:-0.355822 39:0.107901 40:-0.648836 41:-0.680103 42:-0.334151 43:0.273828 44:-0.311362 45:-0.478373 46:-0.419229 47:0.190426 48:0.781217 49:0.512897 50:-0.096161 51:0.21684 52:-0.504132 53:0.127037 54:-0.91482 55:-0.469007 56:0.504271 57:-0.328013 58:0.31511 59:-0.055574 60:-0.048453 61:0.183962 62:0.119145 63:-0.707857 64:-0.51602 65:0.265328 66:-0.325166 67:-0.03984 68:-0.62495 69:0.2102 70:-0.051546 71:0.043469 72:-0.936329 73:0.269387 74:0.860321 75:-0.653705 76:1.0 77:0.874549 78:0.276825 79:-0.205479 80:0.043203 81:-0.40309 82:0.474955 83:-0.044926 84:-0.300274 85:-0.179895 86:-0.08312 87:0.363704 88:0.770492 89:0.12391 90:-0.652402 91:0.356988 92:-0.52295 93:0.898483 94:-0.606954 95:-0.177549 96:0.749149 97:0.348416 98:0.730505 99:0.665915 100:0.184263 101:-0.522697 102:-0.168677 103:-0.178733 104:-0.004911 105:0.260714 106:-0.027273 107:0.17549 108:-0.013162 109:0.065693 110:-0.541169 111:-0.666893 112:-0.545099 113:-0.507443 114:-0.453865 115:0.578667 116:-0.253329 117:-0.696644 118:0.082759 119:-0.559173 120:0.356174 121:-0.848412 122:-0.982936 123:-0.116931 124:-0.374302 125:0.26446 126:-0.998005 127:-0.495606 128:0.188026 129:0.523297 130:-0.257046 131:-0.560028 132:-0.650329 133:0.318681 134:-0.129792 135:-0.890398 136:-0.049722 137:-0.083378 138:-0.17146 139:-0.410944 140:-0.560631 141:-0.342399 142:-0.150685 143:-0.002306 144:-0.833364 145:-0.10389 146:-0.371457 147:0.284098 148:-0.701408 149:-0.934473 150:0.443831 151:0.487013 152:0.144444 153:-0.96983 154:0.041118 155:-0.448857 156:0.703816 157:-0.369272 158:-0.725023 159:0.079722 160:0.104187 161:0.106911 162:-0.948354 163:-0.131955 164:-0.163725 165:-0.36003 166:-0.501045 167:-0.662303 168:0.297229 169:-0.02069 170:-0.352201 171:-0.753174 172:-0.012161 173:-0.128352 174:0.294194 175:-0.523973 176:-0.757753 177:0.297432 178:-0.066667 179:0.016657 180:-0.947105 181:-0.101605 182:0.032263 183:0.127833 184:0.150324 185:-0.369734 186:0.82355 187:-0.477083 188:0.713951 189:-0.868484 190:-0.920734 191:-0.159678 192:0.772096 193:-0.773282 194:-0.92235 195:0.692089 196:-0.101266 197:0.06169 198:-0.949279 199:-0.762977 200:-0.985354 201:0.969351 202:-0.867514 203:-0.895954 204:-0.555329 205:-0.883333 206:0.433863 207:-0.680402 208:-0.065914 209:-0.394223 210:0.526549 211:-0.563951 212:-0.829349 213:-0.763564 214:0.027027 215:0.039996 216:-0.792095 217:-0.353128 218:-0.437601 219:0.104725 220:-0.682171 221:-0.820391 222:-0.734688 223:-0.535072 224:-0.144705 225:-0.928156 226:-0.317532 227:-0.911426 228:-0.142913 229:-0.93272 230:-0.944385 231:-0.487335 232:-0.16129 233:-0.030106 234:-0.937045 235:0.304633 236:-0.181978 237:0.548139 238:-0.680269 239:-0.825384 240:0.687064 241:0.582819 242:0.125266 243:-0.944383 244:0.35342 245:-0.413681 246:0.926293 247:-0.666627 248:-0.724595 249:0.355651 250:0.341463 251:-0.007601 252:-0.828872 253:-0.204411 254:-0.475084 255:-0.04458 256:-0.857959 257:-0.946168 258:-0.208175 259:-0.531915 260:-0.142278 261:-0.970915 262:0.124193 263:-0.360849 264:0.772498 265:-0.686707 266:-0.866634 267:-0.40237 268:0.316195 269:0.013476 270:-0.966367 271:-0.14391 272:-0.113338 273:-0.296669 274:-0.696137 275:-0.851256 276:-0.226576 277:0.285714 278:0.048377 279:-0.969574 280:-0.164766 281:-0.382711 282:0.05066 283:-0.693186 284:-0.897545 285:-0.06756 286:-0.086207 287:-0.159745 288:-0.943649 289:-0.138626 290:0.299863 291:-0.709916 292:-0.361781 293:-0.574825 294:-0.49632 295:-0.042373 296:0.031361 297:-0.908731 298:-0.426675 299:-0.359211 300:0.442221 301:-0.819646 302:-0.851683 303:-0.895066 304:0.206897 305:-0.290232 306:-0.912807 307:0.317271 308:-0.246792 309:0.555407 310:-0.841683 311:-0.868029 312:0.587928 313:-0.04 314:0.123715 315:-0.91268 316:0.462481 317:-0.081682 318:-0.536602 319:-0.742194 320:-0.887528 321:0.775524 322:-0.37037 323:0.305057 324:-0.970144 325:0.927587 326:0.930115 327:0.932474 328:-0.954468 329:-0.859777 330:0.99837 331:0.028597 332:0.229078 333:-0.363721 334:-0.034649 335:-0.857893 336:1.0 337:-0.926943 338:-0.869273 339:-0.389215 340:0.5 341:-0.242707 342:-0.465438 343:0.15339 344:-1.0 345:-0.996969 346:-0.927555 347:-0.868571 348:-0.817879 349:0.162939 350:0.310631 351:-0.718139 
2.366972103711368 1:-0.008175 2:-0.001945 3:0.004367 4:0.146912 5:0.096455 6:0.469741 7:0.202157 8:0.198069 9:-0.566477 10:-0.498779 11:0.526978 12:-0.512932 13:-0.160787 14:0.591354 15:0.274185 16:0.473587 17:0.548622 18:-0.016781 19:-0.338807 20:0.104022 21:-0.369836 22:-0.332158 23:-0.272433 24:-0.173219 25:-0.277612 26:-0.033655 27:-0.320961 28:-0.723581 29:0.133908 30:-0.79721 31:-0.003691 32:-0.179666 33:-0.958608 34:0.211382 35:-0.544155 36:-0.266303 37:-0.053094 38:0.724899 39:0.107313 40:1.0 41:0.896205 42:0.215542 43:-0.270802 44:0.096193 45:-0.146107 46:-0.088217 47:0.408485 48:0.78166 49:0.557921 50:0.340668 51:0.502248 52:-0.107438 53:0.413496 54:-0.525168 55:-0.164203 56:-0.758046 57:-0.262332 58:-0.193049 59:-0.238758 60:-0.464139 61:0.179245 62:-0.261472 63:-0.687514 64:-0.466484 65:0.605756 66:-0.202374 67:0.472085 68:0.238298 69:-1.0 70:-0.216495 71:-0.921708 72:-0.11695 73:0.480885 74:0.004208 75:-0.700501 76:-0.24989 77:-0.25984 78:0.241097 79:-0.260274 80:0.139194 81:-0.637161 82:-0.454225 83:-0.079618 84:-0.988138 85:-0.681989 86:-1.0 87:0.155979 88:-0.319672 89:-0.305249 90:-0.998904 91:0.24301 92:-0.541533 93:0.915147 94:-0.281778 95:-0.382302 96:0.315822 97:0.384615 98:0.061623 99:-0.354635 100:0.373872 101:0.531414 102:-0.146773 103:0.58619 104:0.118936 105:0.040526 106:-0.054545 107:-0.227939 108:-0.809971 109:0.086481 110:0.331683 111:-0.709836 112:0.806967 113:0.742546 114:-0.634924 115:0.184 116:-0.33234 117:-0.621162 118:-5.58E-4 119:-0.045973 120:0.332222 121:0.705143 122:0.583715 123:-0.257925 124:-0.050279 125:0.182343 126:-0.749431 127:-0.421633 128:-0.333889 129:0.140992 130:-0.583539 131:-0.702273 132:-0.65834 133:-0.230769 134:-0.061733 135:-0.800771 136:0.665456 137:0.047972 138:-0.183141 139:-0.282594 140:-0.753245 141:-0.463095 142:-0.287671 143:-0.381229 144:-0.906934 145:0.501826 146:1.0 147:-0.480673 148:0.233541 149:-0.596614 150:0.450367 151:0.272727 152:0.167711 153:-0.995054 154:0.077659 155:0.462195 156:0.738797 157:0.236557 158:-0.558339 159:0.122466 160:-0.293087 161:0.155139 162:-0.948597 163:-0.08822 164:-0.828524 165:-0.131931 166:-0.814825 167:-0.836513 168:0.342387 169:0.158621 170:-0.105557 171:-0.768475 172:-0.556199 173:-0.214803 174:0.298362 175:-0.44555 176:-0.627851 177:0.308163 178:0.585714 179:0.078933 180:-0.878755 181:-0.204143 182:-0.552829 183:0.09899 184:-0.798688 185:-0.893474 186:0.725981 187:-0.5 188:0.580233 189:-0.931082 190:-0.032129 191:-0.174671 192:0.740401 193:-0.577769 194:-0.769338 195:0.712512 196:-0.088608 197:0.228149 198:-0.948817 199:0.222562 200:-0.303007 201:0.955505 202:-0.552082 203:-0.730931 204:-0.63534 206:-0.48481 207:-0.803021 208:-0.274768 209:0.473374 210:0.508004 211:-0.103959 212:-0.695144 213:-0.801246 214:0.135135 215:-0.336791 216:-0.970647 217:-0.031175 218:0.506572 219:0.267674 220:0.321483 221:-0.236127 222:-0.89527 223:0.006074 224:-0.230997 225:-0.839528 226:-0.122551 227:0.644181 228:-0.137331 229:0.29079 230:-0.163073 231:-0.586796 232:-0.083871 233:-0.277849 234:-0.828627 235:0.290987 236:-0.709222 237:0.534541 238:-0.828408 239:-0.870417 240:0.687082 241:-0.035502 242:0.17337 243:-0.888039 244:0.282507 245:-0.090075 246:0.929569 247:-0.791593 248:-0.872212 249:0.361739 250:-0.085366 251:0.124357 252:-0.907976 253:-0.165978 254:1.0 255:-0.152161 256:-0.413007 257:-0.732898 258:-0.20153 259:0.031915 260:-0.047077 261:-0.967631 262:-0.050247 263:1.0 264:0.575264 265:-0.447574 266:-0.789963 267:-0.409625 268:0.069409 269:-0.071718 270:-0.977764 271:-0.217238 272:-0.544994 273:-0.25862 274:-0.822977 275:-0.890682 276:-0.229284 277:0.369048 278:-0.082246 279:-0.927261 280:-0.159198 281:-0.208246 282:0.076705 283:-0.71049 284:-0.799592 285:-0.060489 286:0.172414 287:-0.019624 288:-0.910918 289:-0.091288 290:-0.861512 291:-0.717496 292:-0.967324 293:-0.905581 294:-0.509678 295:0.076271 296:-0.099258 297:-0.897905 298:-0.280363 299:0.025835 300:0.445739 301:-0.691108 302:-0.791403 303:-0.901399 304:1.0 305:-0.381229 306:-0.955427 307:0.112867 308:-0.164381 309:0.612355 310:-0.713151 311:-0.833008 312:0.58679 313:-1.0 314:0.043747 315:-0.963652 316:0.387035 317:-0.093953 318:-0.564223 319:-0.577646 320:-0.756821 321:0.773639 322:-0.314815 323:0.261246 324:-0.93726 325:0.816344 326:0.820103 327:0.823517 328:-0.639835 329:-0.249346 330:0.846156 331:0.258982 332:-0.606096 333:0.265829 334:0.027435 335:-0.351147 336:0.011945 337:-0.346159 338:-0.338476 339:-0.405633 340:-0.426136 341:-0.422707 342:-0.295944 343:0.017774 344:-0.072367 345:-0.996951 346:-0.370765 347:-0.43863 348:-0.746704 349:-0.13099 350:0.673089 351:-0.574517 
2.449577252518117 1:0.608484 2:0.61067 3:0.612872 4:0.03742 5:-0.136662 6:-0.045139 7:0.239 8:-0.280543 9:-0.872337 10:-0.446648 11:0.561718 12:-0.640769 13:-0.573417 14:-0.110285 15:-1.0 16:-0.147658 17:-0.595813 18:-0.411951 19:0.279179 20:-0.821149 21:-0.2394 22:-0.660037 23:-0.580986 24:-0.240794 25:-0.558209 26:-0.298931 27:-0.191877 28:-0.454935 29:-0.132876 30:-0.795824 31:-0.426043 32:-0.491833 33:-0.564915 34:0.296748 35:0.133387 36:-0.339276 37:0.388699 38:-0.302223 39:0.112118 40:-0.62714 41:-0.743675 42:-0.666978 43:-0.016641 44:-0.7185 45:-0.542784 46:-0.265272 47:0.035843 48:0.78104 49:0.113372 50:0.140972 51:0.624521 52:-0.605372 53:0.658735 54:-0.354712 55:-0.518175 56:0.503358 57:-0.35088 58:0.146813 59:0.202711 60:0.371322 61:-1.0 62:0.547409 63:-0.102926 64:-0.232943 65:-0.215807 66:-0.360473 67:0.092406 68:0.653767 69:-0.165875 70:-0.134021 71:-0.356978 72:0.539714 73:0.184572 74:-0.118272 75:-0.684698 76:-0.3191 77:0.287112 78:-0.158368 79:-0.246575 80:-0.472414 81:0.061451 82:0.973284 83:-0.447968 84:-0.348291 85:-0.347458 86:-0.390026 87:0.491771 88:0.754098 89:0.325431 90:-0.516322 91:0.405741 92:-0.315529 93:0.905116 94:-0.161138 95:-0.549982 96:0.253136 97:0.511312 98:-0.016192 99:-0.667227 100:-0.531224 101:-0.244204 102:-0.177737 103:-0.494442 104:-0.882824 105:-0.194996 106:0.527273 107:-0.491203 108:-0.830628 109:0.451927 110:0.100202 111:-0.657437 112:0.213893 113:0.237968 114:-0.435818 115:-0.274667 116:-0.168436 117:-0.597258 118:0.273792 119:-0.270842 120:0.322597 121:-0.289516 122:-0.344985 123:-0.09989 124:-0.162011 125:0.283173 126:-0.865774 127:-0.172795 128:-0.554576 129:0.590766 130:-0.62729 131:-0.747779 132:-0.676941 133:0.406593 134:-0.234855 135:-0.849941 136:0.334818 137:-0.127546 138:-0.130841 139:-0.608642 140:-0.777813 141:-0.348224 142:0.109589 143:0.003607 144:-0.907814 145:0.318552 146:-0.075758 147:0.244886 148:-0.543638 149:-0.894504 150:0.445196 151:0.038961 152:0.156513 153:-0.978369 154:0.644589 155:0.014113 156:0.689904 157:-0.212427 158:-0.650614 159:-0.003562 160:0.205453 161:-0.077687 162:-0.887189 163:-0.600609 164:-0.126002 165:-0.135327 166:-0.420468 167:-0.464203 168:0.325698 169:-0.158621 170:-0.233415 171:-0.537907 172:-0.191854 173:-0.944901 174:0.313267 175:-0.353661 176:-0.50743 177:0.286247 178:-0.295238 179:0.01384 180:-0.80326 181:0.206547 182:-0.229189 183:0.1088 184:-0.503465 185:-0.716658 186:0.73104 187:-0.5 188:0.5644 189:-0.923874 190:-0.111528 191:0.448025 192:0.750001 193:-0.363148 194:-0.614174 195:0.708043 196:0.21519 197:0.206678 198:-0.913338 199:-0.036302 200:-0.235245 201:0.970926 202:-0.376861 203:-0.774282 204:-0.637187 205:0.2 206:-0.42888 207:-0.896602 208:-0.258879 209:-0.727078 210:0.56769 211:-0.885658 212:-0.959726 213:-0.841697 214:-0.054054 215:-0.624651 216:-0.890724 217:-0.830553 218:0.212925 219:0.208812 220:-0.095715 221:-0.585073 222:-0.753578 223:0.646302 224:-0.093824 225:-0.944886 226:-0.490361 227:0.153459 228:-0.139486 229:-0.40342 230:-0.658556 231:-0.487998 232:-0.16129 233:-0.084958 234:-0.937204 235:0.287259 236:-0.456869 237:0.629698 238:-0.839032 239:-0.871146 240:0.684069 241:-0.251542 242:0.005957 243:-0.921929 244:0.14722 245:-0.591002 246:0.923106 247:-0.823985 248:-0.885234 249:0.356107 250:-0.182927 251:0.007701 252:-0.922921 253:-0.254321 254:-0.351232 255:-0.023278 256:-0.816341 257:-0.948234 258:-0.205173 259:-0.914894 260:-0.01184 261:-0.98034 262:0.037952 263:0.074573 264:0.768735 265:-0.644031 266:-0.821212 267:-0.405113 268:-0.218509 269:-0.037975 270:-0.96322 271:-0.098485 272:-0.105197 273:-0.275252 274:-0.624104 275:-0.754035 276:-0.228786 277:0.285714 278:-0.030591 279:-0.917179 280:-0.013806 281:-0.447854 282:-0.059803 283:-0.719627 284:-0.792657 285:-0.061714 286:0.034483 287:-0.043278 288:-0.875144 289:-0.161022 290:-0.368475 291:-0.685916 292:-0.781087 293:-0.836369 294:-0.504299 295:0.072034 296:0.091773 297:-0.905362 298:-0.477253 299:0.322378 300:-0.104153 301:-0.645154 302:-0.746398 303:-0.890328 304:0.931035 305:-0.214521 306:-0.947455 307:0.599046 308:0.348389 309:0.648216 310:-0.713743 311:-0.88093 312:0.584396 313:-0.101667 314:-0.034331 315:-0.97584 316:0.460694 317:-0.685696 318:-0.569573 319:-0.874693 320:-0.957488 321:0.774109 322:1.0 323:0.22816 324:-0.948189 325:0.768281 326:0.775866 327:0.782926 328:-0.820782 329:-0.755442 330:0.990871 331:0.355827 332:0.463421 333:-0.851975 334:-0.124823 335:-0.455748 336:0.02972 337:-0.737149 338:-0.775196 339:-0.396612 340:0.272727 341:-0.605833 342:-0.637234 343:0.398685 344:-0.34263 345:-0.996915 346:-0.674796 347:-0.698675 348:-0.812502 349:0.533546 350:0.364379 351:-0.850728 
1.7869947011399399 1:0.055649 2:0.065733 3:0.075695 4:-0.244362 5:-0.108131 6:-0.036677 7:0.310017 8:-4.69E-4 9:-0.628049 10:-0.817378 11:0.868241 12:-0.901834 13:-0.920582 14:-0.730987 15:-0.834 16:-0.204044 17:-0.329113 18:-0.544153 19:0.03732 20:-0.110121 21:-0.23849 22:-0.368848 23:-0.72468 24:-0.056867 25:0.18209 26:0.274108 27:-0.661917 28:-0.521187 29:0.049105 30:-0.852113 31:-0.630035 32:-0.990608 33:-0.547706 34:-0.495935 35:0.256349 36:-0.870873 37:-0.007234 38:-0.188775 39:0.124454 40:-0.050355 41:0.273585 42:-0.937338 43:0.062027 44:-0.681916 45:0.110705 46:-0.394108 47:-0.299164 48:0.786094 49:-0.076669 50:-0.24474 51:0.336126 52:-0.454545 53:0.251961 54:-0.775691 55:0.024448 56:-0.399281 57:-0.026838 58:-0.411364 59:0.090604 60:-0.380878 61:-0.018868 62:-0.16195 63:0.310857 64:-0.330633 65:-0.463512 66:-0.50647 67:-0.256112 68:0.193539 69:-0.023345 70:-0.546392 71:-0.282324 72:0.235207 73:0.084099 74:-0.446939 75:-0.716908 76:-0.161344 77:0.129139 78:0.005868 79:-0.013699 80:-0.191854 81:-0.291616 82:0.292076 83:0.313724 84:-0.486821 85:-0.223987 86:-0.22526 87:0.491845 88:0.45082 89:0.295265 90:-0.624458 91:0.640824 92:-0.040956 93:0.869292 94:-0.010416 95:0.062656 96:0.328136 97:0.040724 98:0.034158 99:-0.336723 100:-0.180859 101:0.021565 102:-0.946433 103:-0.217035 104:-0.601454 105:-0.03262 106:-0.436364 107:-0.222477 108:-0.858775 109:0.564865 110:-0.205902 111:-0.681079 112:0.201177 113:0.234207 114:-0.454196 115:0.557333 116:-0.201554 117:-0.5437 118:0.086059 119:-0.678156 120:0.319475 121:-0.651279 122:-0.502377 123:-0.117353 124:0.743017 125:0.252528 126:-0.713996 127:-0.277976 128:0.7778 129:0.393155 130:-0.301864 131:-0.726081 132:-0.687751 133:0.406593 134:-0.29954 135:-0.972109 136:-0.174418 137:-0.020128 138:-0.083977 139:0.357371 140:0.078398 141:-0.941839 142:0.130137 143:-0.908567 144:-0.014362 145:-0.508009 146:-0.537455 147:0.169097 148:0.355635 149:0.048536 150:0.339985 151:0.194805 152:0.005511 153:-0.7082 154:0.783411 155:-0.622052 156:0.705326 157:0.433794 158:0.381216 159:1.0 160:0.14703 161:1.0 162:0.7531 163:0.762859 164:0.033189 165:-0.118686 166:-0.45625 167:-0.721188 168:0.355992 169:-0.675862 170:-0.121818 171:-0.875144 172:0.32371 173:-0.011372 174:0.308152 175:-0.089428 176:-0.471199 177:0.430977 178:-0.638095 179:0.416097 180:-0.869242 181:-0.84746 182:-0.225657 183:0.023005 184:0.006497 185:0.07646 186:0.404432 187:0.208333 188:-0.376229 189:0.079038 190:0.262004 191:-0.183869 192:0.742773 193:-0.19323 194:-0.104233 195:0.97576 196:-0.278481 197:1.0 198:0.071084 199:0.039314 200:-0.507205 201:0.968379 202:-0.186816 203:-0.626487 204:-0.564909 205:-0.266667 206:-0.124502 207:-0.874309 208:-0.010084 209:0.025635 210:0.233435 211:0.808582 212:0.84722 213:0.15414 214:0.27027 215:0.446508 216:0.647036 217:-0.557112 218:0.026261 219:0.33076 220:0.007497 221:-0.25135 222:-0.827052 223:0.676789 224:-0.246166 225:-0.68198 226:-0.181837 227:-0.56463 228:-0.179125 229:-0.694813 230:-0.739577 231:-0.488915 232:0.612903 233:-0.094519 234:-0.871295 235:0.019387 236:0.372566 237:0.553413 238:-0.513795 239:-0.645446 240:0.67694 241:0.404027 242:-0.034055 243:-0.88616 244:1.0 245:0.174667 246:0.922151 247:0.207188 248:0.237805 249:0.706098 250:1.0 251:0.725528 252:0.291936 253:0.407001 254:0.13397 255:-0.10171 256:0.182558 257:0.085056 258:0.070267 259:0.191489 260:0.715641 261:0.405797 262:-1.0 263:-0.034645 264:0.839567 265:0.397333 266:0.282042 267:-1.0 268:-0.321337 269:-1.0 270:0.837854 271:-0.335653 272:-0.004053 273:-0.314688 274:-0.625819 275:-0.78997 276:-0.230114 277:0.380952 278:-0.067387 279:-0.943335 280:-0.262994 281:-0.150168 282:0.043534 283:-0.523523 284:-0.762368 285:-0.060963 286:0.161638 287:-0.054365 288:-0.938863 289:-0.233465 290:0.369534 291:-0.924433 292:-0.299565 293:-0.044066 294:-0.531647 295:-0.088983 296:-0.217816 297:-0.343092 298:-1.0 299:-0.460923 300:0.45578 301:-0.515349 302:-0.495989 303:-0.973276 304:0.344828 305:-1.0 306:-0.193216 307:0.122599 308:0.801606 309:0.811161 310:-0.533161 311:-0.623634 312:0.580134 313:-0.253333 314:-0.063179 315:-0.882757 316:-0.781258 317:0.237685 318:-1.0 319:0.848221 320:0.791169 321:-0.694189 322:-0.611111 323:-1.0 324:1.0 325:0.89346 326:0.896679 327:0.899674 328:-0.852166 329:-0.735298 330:0.98782 331:-0.246106 332:0.03976 333:-0.535304 334:-0.183342 335:-0.544831 336:0.025933 337:-0.749194 338:-0.750273 339:-0.384511 340:-0.272727 341:-0.102484 342:-0.56274 343:0.228727 344:-0.430546 345:-0.996997 346:-0.778648 347:-0.802225 348:-0.819518 349:-0.182109 350:0.173279 351:-0.921843 
2.1136329653766484 1:0.083611 2:0.09112 3:0.098634 4:-0.023172 5:0.160273 6:0.261899 7:0.553156 8:0.203744 9:-0.456086 10:-0.647493 11:0.728171 12:-0.781016 13:-0.775167 14:-0.498465 15:-0.748493 16:0.461768 17:0.03049 18:-0.503895 19:-0.203044 20:-0.1148 21:-0.52667 22:-0.182796 23:-0.284165 24:-0.187876 25:-0.259701 26:-0.059547 27:-0.24321 28:-0.659032 29:0.502204 30:-0.832121 31:-0.074036 32:0.200034 33:-0.2401 34:0.073171 35:0.551971 36:0.216143 37:-0.046467 38:-0.596391 39:0.106276 40:-0.270863 41:-0.081219 42:1.0 43:0.104387 44:1.0 45:0.543377 46:0.05099 47:-0.089153 48:0.782156 49:0.395231 50:0.472752 51:-0.160731 52:0.157025 53:-0.308027 54:-0.083199 55:0.620979 56:-0.109308 57:-0.337227 58:0.356202 59:0.271671 60:1.0 61:0.018868 62:0.948854 63:0.476158 64:-0.103924 65:0.436789 66:-0.446899 67:0.134905 68:-0.442423 69:-0.241895 70:-0.484536 71:-0.42218 72:-0.732194 73:-0.474555 74:0.6343 75:-0.644422 76:0.199404 77:0.280685 78:0.14512 79:0.205479 80:-0.014927 81:-0.492491 82:-0.07495 83:0.253931 84:-0.37865 85:-0.259038 86:-0.133945 87:1.0 88:0.672131 89:1.0 90:0.013233 91:0.250602 92:-0.466196 93:0.904671 94:0.189145 95:-0.176464 96:-0.291119 97:0.674208 98:-0.438169 99:-0.575266 100:-0.129095 101:0.222912 102:-0.201685 103:0.175546 104:-0.646376 105:-0.417876 106:0.309091 107:-0.640063 108:-0.909315 109:-0.26721 110:-0.442853 111:-0.677601 112:0.334928 113:0.263671 114:-0.441956 115:-0.189333 116:-0.180822 117:-0.569874 118:0.00246 119:-0.74447 120:0.333402 121:-0.694167 122:-0.702441 123:-0.104877 124:0.150838 125:0.323103 126:-0.853141 127:-0.096632 128:0.391969 129:0.249241 130:-0.308348 131:-0.717313 132:-0.718858 133:0.362637 134:-0.453649 135:-0.936285 136:0.276633 137:1.0 138:-0.237024 139:0.096487 140:-0.298959 141:-0.382253 142:0.479452 143:-0.124297 144:-0.856427 145:0.230638 146:-0.493577 147:0.163434 148:-0.392888 149:-0.780683 150:0.449918 151:0.090909 152:0.177847 153:-0.947174 154:-0.08906 155:-0.638166 156:0.702331 157:-0.42975 158:-0.742391 159:0.061012 160:-0.370983 161:0.050332 162:-0.89732 163:-0.690308 164:-0.148973 165:-0.134919 166:-0.591482 167:-0.802215 168:0.36701 169:0.531034 170:-0.032186 171:-0.941968 172:-0.325468 173:-0.011899 174:0.303965 175:-0.164799 176:-0.480468 177:0.362134 178:-0.028571 179:0.256395 180:-0.879796 181:0.319275 182:0.076018 183:0.200053 184:-0.336745 185:-0.628162 186:0.703307 187:-0.3 188:0.411036 189:-0.891597 190:0.241173 191:0.08412 192:0.73184 193:-0.546383 194:-0.818657 195:0.710401 196:-0.139241 197:0.216081 198:-0.978012 199:0.063678 200:0.134977 201:0.989714 202:-0.183137 203:-0.613466 204:-0.593086 205:0.533333 206:-0.224817 207:-0.891733 208:-0.549809 209:-0.152274 210:0.501621 211:-0.493685 212:-0.782897 213:-0.8339 214:0.013514 215:-0.450118 216:-0.891415 217:0.070241 218:-0.340273 219:0.27144 220:-0.152504 221:-0.374743 222:-0.806852 223:0.067048 224:-0.276774 225:-0.714465 226:-0.241869 227:-0.234207 228:-0.396037 229:-0.72749 230:-0.818197 231:-0.494746 232:0.303226 233:-0.211194 234:-0.918096 235:0.395797 236:0.165241 237:0.179937 238:-0.717852 239:-0.839201 240:0.687761 241:0.880805 242:0.154921 243:-0.951092 244:0.23377 245:0.504303 246:0.927489 247:-0.425635 248:-0.752795 249:0.352677 250:-0.207317 251:-0.032533 252:-0.959671 253:-0.2086 254:0.058734 255:0.073028 256:-0.674071 257:-0.899367 258:-0.206986 259:-0.319149 260:-0.098118 261:-0.991655 262:0.133678 263:-0.281147 264:0.772016 265:-0.734777 266:-0.831853 267:-0.400875 268:0.151671 269:0.055269 270:-0.906888 271:-0.123069 272:-0.238478 273:-0.28719 274:-0.731783 275:-0.867651 276:-0.229443 277:-0.380952 278:-0.065965 279:-0.965447 280:-0.074282 281:0.0941 282:-0.037838 283:-0.583863 284:-0.815547 285:-0.063448 286:-0.37931 287:-0.082726 288:-0.944174 289:-0.264168 290:-0.503832 291:-0.724728 292:-0.750471 293:-0.850433 294:-0.509665 295:-0.023305 296:-0.079683 297:-0.951722 298:-0.596823 299:0.225834 300:0.465007 301:-0.707006 302:-0.922118 303:-0.898797 304:-0.517241 305:-0.344194 306:-0.996087 307:0.246593 308:-0.200512 309:0.699168 310:-0.659692 311:-0.735748 312:0.586491 313:-0.52 314:0.034441 315:-0.914857 316:0.369491 317:-0.213397 318:-0.560634 319:-0.721909 320:-0.855435 321:0.778142 322:0.111111 323:0.386605 324:-0.943489 325:0.857719 326:0.861764 327:0.865519 328:-0.792496 329:-0.636808 330:0.971198 331:0.286887 332:-0.11311 333:-0.416806 334:0.041174 335:-0.625848 336:0.023282 337:-0.652864 338:-0.621263 339:-0.387763 340:0.636364 341:-0.280354 342:-0.368226 343:-0.068413 344:-0.457428 345:-0.997361 346:-0.702499 347:-0.752388 348:-0.816342 349:-0.214058 350:0.281017 351:-0.839656 
3.4591090164496494 1:0.487619 2:0.492863 3:0.498111 4:-0.134363 5:0.030543 6:0.10616 7:0.276858 8:0.129542 9:-0.532075 10:-0.653203 11:0.732571 12:-0.786247 13:-0.745235 14:-0.341882 15:-0.902957 16:0.529546 17:-0.520631 18:-0.365496 19:-0.128103 20:0.309732 21:-0.246517 22:-0.07155 23:-0.685223 24:-0.103655 25:-0.808955 26:0.116143 27:-0.839675 28:-0.604251 29:0.063861 30:-0.786974 31:-0.70834 32:-0.445991 33:-0.67659 34:0.105691 35:-0.095663 36:8.61E-4 37:-0.496753 38:0.523066 39:0.09454 40:0.225952 41:0.08723 42:0.687587 43:-0.621785 44:0.484289 45:-0.146301 46:-0.176101 47:-0.244231 48:0.775569 49:0.145893 50:0.239098 51:-0.036894 52:0.278926 53:-0.262473 54:-0.219417 55:0.414947 56:-0.729547 57:-0.545663 58:-0.708678 59:-0.443138 60:-0.117658 61:-0.207547 62:0.350884 63:-0.245107 64:0.738975 65:-0.49147 66:-0.354234 67:-0.808339 68:-0.631075 69:0.099748 70:-0.430412 71:-0.194715 72:-0.4095 73:-0.047641 74:-0.493621 75:-0.684982 76:-0.709884 77:-0.298336 78:-0.173011 79:-0.441781 80:-0.721383 81:-0.059413 82:0.245079 83:0.343251 84:-0.262671 85:-0.29689 86:-0.510394 87:0.343607 88:0.163934 89:0.100904 90:-0.811733 91:0.390754 92:0.773319 93:0.890615 94:0.589409 95:-0.198372 96:-0.210222 97:0.348416 98:-0.318361 99:-0.786096 100:0.044456 101:-0.102016 102:-0.189329 103:-0.163043 104:-0.387734 105:-0.098894 106:-0.181818 107:-0.317804 108:-0.714062 109:-0.230339 110:-0.459441 111:-0.680282 112:0.244686 113:0.289541 114:-0.085298 115:-0.302667 116:0.426112 117:-0.020278 118:-0.214538 119:-0.244756 120:-0.15369 121:-0.331462 122:-0.423257 123:0.046935 124:0.147346 125:0.620848 126:-0.768049 127:-1.0 128:0.637146 129:0.467774 130:-0.266547 131:-0.632161 132:-0.655927 133:0.019231 134:-0.152605 135:-0.921046 136:-0.208163 137:0.283981 138:-0.148882 139:-0.383502 140:-0.578243 141:-0.376421 142:0.246575 143:-0.123569 144:-0.868502 145:0.067663 146:-0.096395 147:0.22944 148:-0.282754 149:-0.72339 150:0.487374 151:0.131493 152:0.309643 153:-0.943628 154:0.540374 155:0.219901 156:0.711375 157:-0.158529 158:-0.693016 159:0.009341 160:-0.152872 161:-0.038295 162:-0.947836 163:-0.109808 164:-0.170881 165:-0.122608 166:-0.696827 167:-0.793958 168:0.334611 169:0.117241 170:-0.186904 171:-0.854924 172:0.167065 173:-0.376192 174:0.331011 175:-0.636821 176:-0.802828 177:0.360608 178:0.580952 179:0.337187 180:-0.926583 181:0.243912 182:-1.0 183:1.0 184:-0.72979 185:-0.786253 186:0.708208 187:0.470833 188:0.383205 189:-0.833359 190:-0.335905 191:0.053821 192:0.775098 193:-0.550952 194:-0.631599 195:0.692761 196:0.391614 197:0.120705 198:-0.875686 199:-0.549998 200:-0.068965 201:0.971484 202:-0.354262 203:-0.69914 204:-0.585507 205:-0.241667 206:-0.176652 207:-0.916978 208:0.087813 209:-0.117162 210:0.511323 211:-0.471377 212:-0.817489 213:-0.830794 214:0.081081 215:-0.430658 216:-0.949875 217:-0.750477 218:-0.608138 219:0.25377 220:-0.082508 221:-0.381101 222:-0.831504 223:0.128022 224:-0.306897 225:-0.713205 226:-0.147943 227:-0.15052 228:-0.184229 229:-0.446326 230:-0.609426 231:-0.493316 232:0.251613 233:-0.129719 234:-0.889665 235:0.389171 236:-0.092698 237:0.527226 238:-0.65184 239:-0.771797 240:0.687523 241:0.404027 242:0.130835 243:-0.930963 244:0.22853 245:-0.253 246:0.923494 247:-0.705909 248:-0.843437 249:0.353376 250:-0.329268 251:-0.042942 252:-0.946546 253:-0.179825 254:0.181091 255:-0.297133 256:-0.656743 257:-0.850305 258:-0.212509 259:0.659574 260:-0.224363 261:-0.947962 262:0.015836 263:0.136295 264:0.778734 265:-0.608164 266:-0.795951 267:-0.403292 268:0.03856 269:-0.008258 270:-0.955243 271:-0.197528 272:-0.314964 273:-0.35767 274:-0.76319 275:-0.833918 276:-0.229134 277:-0.714286 278:-0.057645 279:-0.934426 280:-0.171791 281:-0.29032 282:0.060969 283:-0.779947 284:-0.849027 285:-0.066797 286:-0.310345 287:-0.163805 288:-0.907549 289:-0.039448 290:-0.71345 291:-0.718639 292:-0.73253 293:-0.781298 294:-0.508838 295:-0.177966 296:-0.057266 297:-0.920112 298:-0.314754 299:0.004001 300:0.446022 301:-0.661664 302:-0.780832 303:-0.898033 304:0.056034 305:-0.322335 306:-0.921179 307:0.245373 308:0.385583 309:0.57513 310:-0.584255 311:-0.687422 312:0.588445 313:-0.693333 314:0.071502 315:-0.906765 316:0.451822 317:-0.145567 318:-0.565024 319:-0.674872 320:-0.829289 321:0.773446 322:-0.240741 323:0.245659 324:-0.947284 325:0.780705 326:0.7873 327:0.793424 328:-0.762968 329:-0.540463 330:0.966799 331:-0.323181 332:0.029439 333:-0.505329 334:0.083091 335:-0.309373 336:0.089667 337:-0.624824 338:-0.703746 339:-0.38119 340:-0.204545 341:-0.151634 342:-0.718759 343:0.28529 344:-0.449965 345:-0.996859 346:-0.681174 347:-0.777756 348:-0.815296 349:-0.329074 350:0.300214 351:-0.921663 
3.03727030479509 1:-0.096777 2:-0.081534 3:-0.066555 4:-0.72276 5:-0.693494 6:-0.231352 7:0.087035 8:-0.039462 9:-0.576153 10:-0.824849 11:0.87216 12:-0.903062 13:-0.897827 14:-0.657622 15:-0.79824 16:0.24135 17:-0.104466 18:-0.443475 19:0.435817 20:-1.0 21:-0.240309 22:-0.388636 23:-0.364522 24:-0.078054 25:-0.18209 26:0.221839 27:-0.046239 28:-0.187589 29:0.292907 30:-0.799033 31:0.302888 32:-0.132159 33:-0.284709 34:0.247967 35:0.297575 36:-0.611245 37:-0.127066 38:-0.245808 39:0.109825 40:-0.270113 41:-0.2557 42:0.1234 43:0.273828 44:0.18618 45:-0.437235 46:-0.510921 47:0.329676 48:0.770071 49:0.066547 50:-0.353713 51:0.281686 52:-0.190083 53:0.170971 54:-0.902865 55:-0.092267 56:-0.05129 57:-0.257684 58:-0.032461 59:-0.196416 60:-0.411831 61:-0.165094 62:-0.190719 63:-0.623167 64:0.337451 65:-0.402294 66:-0.182262 67:-0.338123 68:-0.094561 69:0.054322 70:-0.28866 71:-0.186407 72:-0.125203 73:1.0 74:-0.157648 75:-0.630981 76:0.016369 77:-0.070036 78:0.219908 79:-0.496575 80:0.075614 81:-0.53366 82:0.417529 83:-0.655452 84:-0.316754 85:-0.622697 86:-0.110619 87:0.408435 88:0.47541 89:0.244239 90:-0.229622 91:0.106219 92:0.075319 93:0.890784 94:-0.242904 95:-0.305515 96:0.709418 97:0.221719 98:0.455711 99:-0.464869 100:-0.057943 101:-0.606174 102:-0.361645 103:-0.550843 104:-0.406074 105:-0.144928 106:-0.2 107:-0.400491 108:-0.278343 109:0.21028 110:-0.680796 111:-0.698929 112:-0.754104 113:-0.722458 114:-0.451384 115:0.450667 116:-0.271368 117:-0.631138 118:0.205009 119:-0.566418 120:0.35704 121:-0.788811 122:-0.880251 123:-0.121417 124:-0.072626 125:0.227479 126:-0.975237 127:0.013086 128:-0.197203 129:0.559938 130:-0.385314 131:-0.609138 132:-0.692889 133:0.318681 134:-0.337966 135:-0.834985 136:0.199816 137:0.774529 138:-0.183084 139:0.111571 140:-0.54395 141:-0.426729 142:-0.705479 143:-0.206012 144:-0.92683 145:0.083489 146:-0.043618 147:0.13557 148:-0.286062 149:-0.733809 150:0.432853 151:-0.168831 152:0.113089 153:-0.962922 154:0.369694 155:-0.473763 156:0.717917 157:-0.61185 158:-0.753642 159:0.045978 160:-0.059396 161:-0.030281 162:-0.86104 163:-0.145482 164:-0.396918 165:-0.080271 166:-0.647728 167:-0.754724 168:0.324824 169:0.531034 170:-0.246817 171:-0.833519 172:-0.009877 173:-0.328091 174:0.297435 175:-0.634693 176:-0.710261 177:0.314269 178:0.238095 179:0.078217 180:-0.871973 181:0.47715 182:0.15293 183:0.184066 184:-0.277738 185:-0.588113 186:0.756707 187:-0.1 188:0.644488 189:-0.910602 190:0.006838 191:-0.368098 192:0.717544 193:-0.877985 194:-0.911831 195:0.715846 196:0.417722 197:0.275373 198:-0.90463 199:-0.024875 200:0.134087 201:0.949855 202:-0.356234 203:-0.751795 204:-0.590036 205:0.066667 206:-0.197937 207:-0.951719 208:-0.209922 209:-0.86691 210:0.514682 211:-0.676812 212:-0.729653 213:-0.835394 214:0.418919 215:-0.480194 216:-0.673398 217:-0.235309 218:-0.65065 219:0.239297 220:-0.772067 221:-0.773763 222:-0.730838 223:0.128022 224:-0.114922 225:-0.746261 226:-0.214189 227:-0.850116 228:-0.015863 229:-0.851732 230:-0.907064 231:-0.488416 232:0.096774 233:-0.082143 234:-0.941424 235:0.20671 236:-0.338622 237:0.568187 238:-0.700464 239:-0.766842 240:0.687308 241:-0.072751 242:0.136343 243:-0.870866 244:0.191187 245:-0.30342 246:0.923407 247:-0.546451 248:-0.766259 249:0.354891 250:0.207317 251:-0.0171 252:-0.930453 253:-0.158771 254:0.01006 255:-0.068034 256:-0.678202 257:-0.849499 258:-0.206868 259:-0.106383 260:-0.095009 261:-0.953849 262:0.035187 263:-0.564716 264:0.777557 265:-0.897548 266:-0.8817 267:-0.400757 268:0.069409 269:0.13534 270:-0.836143 271:-0.156247 272:-0.229491 273:-0.296908 274:-0.774991 275:-0.871952 276:-0.227584 277:0.077381 278:0.024901 279:-0.959879 280:-0.206135 281:-0.63022 282:0.039649 283:-0.822334 284:-0.857893 285:-0.062998 286:0.068966 287:-0.062414 288:-0.872967 289:-0.147451 290:-0.125604 291:-0.718274 292:-0.605166 293:-0.685146 294:-0.505966 295:0.122881 296:-0.015133 297:-0.88528 298:-0.422249 299:-0.378676 300:0.430864 301:-0.881587 302:-0.937494 303:-0.900508 304:-0.310345 305:-0.472011 306:-0.955071 307:0.44425 308:0.479743 309:0.604016 310:-0.592366 311:-0.760154 312:0.58508 313:-0.04 314:0.007527 315:-0.949401 316:0.37383 317:-0.32561 318:-0.569155 319:-0.790893 320:-0.914839 321:0.775793 322:0.0 323:0.322264 324:-0.963243 325:0.942789 326:0.944857 327:0.946785 328:-0.982848 329:-0.920295 330:0.999345 331:0.658727 332:0.349957 333:-0.365653 334:-0.030774 335:-0.940631 336:0.023622 337:-0.961486 338:-0.946918 339:-0.389141 340:0.227273 341:-0.174773 342:-0.782699 343:0.098453 344:-0.922061 345:-0.996706 346:-0.963099 347:-0.928399 348:-0.818196 349:0.15016 350:0.278968 351:-0.869125 
0.20568946065650362 1:0.463081 2:0.466349 3:0.469687 4:0.057742 5:0.192817 6:0.247933 7:0.168464 8:0.06865 9:-0.565227 10:-0.320768 11:0.40591 12:-0.43126 13:-0.27702 14:0.552701 15:0.067385 16:-0.141393 17:0.581863 18:0.167196 19:-0.255266 20:-0.45399 21:-0.250675 22:-0.716825 23:-0.65474 24:-0.172322 25:-0.020895 26:-0.054984 27:-0.516862 28:-0.657355 29:0.968351 30:-0.826484 31:-0.166939 32:-0.388967 33:-0.367779 34:-0.50813 35:0.400772 36:-0.21666 37:-0.519846 38:0.508821 39:0.216619 40:-0.460814 41:-0.569784 42:0.120681 43:-0.791225 44:0.219303 45:-0.795958 46:-0.218441 47:-0.299371 48:0.78004 49:-0.13259 50:0.16849 51:0.544371 52:0.650826 53:0.618346 54:-0.151368 55:0.388276 56:-0.588081 57:-0.247595 58:-0.433034 59:-0.813975 60:-0.230323 61:0.132075 62:0.066097 63:-0.8339 64:-0.452887 65:-0.386799 66:-0.127586 67:-0.862061 68:-0.790791 69:0.129533 70:-0.118557 71:-0.130585 72:-0.448964 73:0.147434 74:-0.937285 75:-0.675963 76:-0.906376 77:-0.880362 78:0.039621 79:-0.410959 80:-0.268838 81:-0.551824 82:0.942149 83:-0.541867 84:-0.312223 85:-0.572049 86:0.2196 87:0.193613 88:0.45082 89:-0.183716 90:0.416345 91:0.764269 92:0.634266 93:0.869898 94:0.275428 95:-0.315382 96:0.233247 97:0.330317 98:-0.062326 99:-0.87042 100:0.214311 101:-0.114322 102:-0.157409 103:-0.24909 104:-0.594429 105:-0.303171 106:0.490909 107:-0.615899 108:-0.807444 109:0.129575 110:0.46451 111:-0.70362 112:0.484313 113:0.45418 114:-0.521389 115:0.28 116:-0.275934 117:-0.655769 118:0.039028 119:0.46711 120:0.352065 121:0.59662 122:0.739746 123:-0.401631 124:-0.117319 125:0.101936 126:-0.645375 127:-0.469219 128:-0.821531 129:0.377777 130:-1.0 131:-1.0 132:-0.678192 133:0.274725 134:-0.225798 135:-0.973907 136:0.400471 137:0.083674 138:-0.156667 139:-0.135523 140:-0.481815 141:-0.200826 142:0.09589 143:0.318701 144:-0.782389 145:0.127095 146:-0.782425 147:0.173195 148:-0.575661 149:-0.886534 150:0.433906 151:-1.0 152:0.087434 153:-0.957366 154:-0.024923 155:0.005043 156:0.721907 157:-0.387489 158:-0.539105 159:0.072995 160:0.096397 161:0.08786 162:-0.810466 163:-0.553326 164:-0.742432 165:-0.128338 166:-0.867471 167:-0.940303 168:0.311967 169:0.310345 170:-0.400239 171:-0.865259 172:-0.06594 173:-0.655809 174:0.31364 175:-0.76734 176:-0.818356 177:0.324573 178:0.009524 179:0.125399 180:-0.895222 181:-0.59445 182:-0.478263 183:0.049436 184:-0.747701 185:-0.84652 186:0.717806 187:-0.183333 188:0.481576 189:-0.900022 190:-0.09313 191:-0.479279 192:0.732101 193:-0.738625 194:-0.748861 195:0.687958 196:0.202532 197:0.040236 198:-0.760019 199:-0.161882 200:-0.682857 201:0.969344 202:-0.592101 203:-0.768659 204:-0.572981 205:0.283333 206:-0.032038 207:-0.84992 208:-0.645201 209:0.044773 210:0.484308 211:-0.403288 212:-0.832934 213:-0.820255 214:-0.189189 215:-0.375727 216:-0.976162 217:-0.186735 218:0.163291 219:0.315071 220:0.069596 221:-0.285924 222:-0.823181 223:0.402406 224:-0.211351 225:-0.783091 226:-0.108999 227:0.332181 228:-0.199002 229:0.185622 230:-0.191356 231:-0.547443 232:0.466935 233:-0.223755 234:-0.812441 235:0.395945 236:-0.918901 237:0.524878 238:-1.0 239:-0.963395 240:0.685425 241:0.523222 242:0.08917 243:-0.933684 244:0.296713 245:-0.10097 246:0.92939 247:-0.556326 248:-0.752553 249:0.351965 250:-0.47561 251:-0.047204 252:-0.926648 253:-0.215885 254:-0.570588 255:-0.281792 256:-0.86642 257:-0.975615 258:-0.209301 259:-0.151596 260:-0.202135 261:-0.97257 262:0.019947 263:-0.301804 264:0.770903 265:-0.633238 266:-0.736166 267:-0.40826 268:0.161954 269:-0.089202 270:-0.900014 271:-0.113498 272:-0.583627 273:-0.264089 274:-0.776537 275:-0.792016 276:-0.226357 277:0.285714 278:0.092916 279:-0.804534 280:-0.002118 281:-0.333565 282:0.055987 283:-0.745201 284:-0.865858 285:-0.064873 286:-0.021552 287:-0.111452 288:-0.939167 289:-0.183511 290:-0.172595 291:-0.783029 292:-0.782509 293:-0.805676 294:-0.509897 295:-0.313559 296:-0.088632 297:-0.909805 298:-0.430719 299:-0.410293 300:0.442912 301:-0.810157 302:-0.874682 303:-0.891008 304:0.586207 305:-0.19144 306:-0.952303 307:0.260835 308:-0.114266 309:0.614206 310:-0.672659 311:-0.81305 312:0.587911 313:-0.093333 314:0.072757 315:-0.940712 316:0.522593 317:0.304499 318:-0.564973 319:-0.584396 320:-0.799737 321:0.774404 322:-0.240741 323:0.27467 324:-0.973502 325:0.717514 326:0.724104 327:0.730145 328:-0.586354 329:-0.264171 330:0.827702 331:0.317691 332:-0.295164 333:-0.214974 334:1.93E-4 335:-0.1667 336:0.035267 337:-0.14384 338:-0.239706 339:-0.384266 340:0.448864 341:-0.30741 342:-0.528674 343:0.068464 344:0.16214 345:-0.99629 346:-0.078875 347:-0.314625 348:-0.701256 349:-0.220447 350:0.524719 351:-0.761451 
3.1526618915974027 1:0.118163 2:0.128757 3:0.139208 4:-0.354743 5:-0.039951 6:-0.067017 7:-0.006087 8:0.093591 9:-0.342405 10:-0.429801 11:0.515166 12:-0.565153 13:-0.347762 14:0.268404 15:-0.432586 16:-0.305995 17:0.181602 18:-0.408017 19:0.290447 20:0.291736 21:-1.0 22:0.224864 23:0.037952 24:-0.049979 25:-0.58209 26:0.175645 27:-0.348012 28:-0.340741 29:-1.0 30:-0.764548 31:-0.566757 32:-0.817355 33:-0.850562 34:-0.601626 35:-0.556068 36:-0.816122 37:-0.011867 38:-0.618167 39:0.113203 40:0.138828 41:0.678693 42:-0.132137 43:0.019667 44:-0.046833 45:0.422421 46:-0.066189 47:-0.106552 48:0.782752 49:0.323267 50:0.319412 51:-0.12648 52:0.082645 53:-0.299947 54:-0.255912 55:-0.126078 56:-0.455716 57:-0.512539 58:0.067662 59:0.222122 60:-0.436756 61:-0.294811 62:-0.212026 63:-0.507024 64:-0.383136 65:-0.651256 66:-0.316151 67:-0.284804 68:-0.318674 69:-0.158709 70:-0.298969 71:-0.487223 72:-0.383717 73:0.183513 74:-0.734063 75:-0.711395 76:-0.19738 77:0.319252 78:0.156926 79:0.068493 80:0.013279 81:0.109169 82:0.435865 83:-0.521524 84:-0.273138 85:-0.540833 86:-0.15355 87:0.1428 88:0.311475 89:-0.269504 90:-0.205088 91:-0.095264 92:-0.020366 93:0.895194 94:-0.333614 95:-0.833128 96:0.144457 97:0.022624 98:-0.117793 99:-0.934007 100:0.033765 101:-0.23098 102:-0.261803 103:0.304076 104:0.477548 105:-0.689179 106:-0.045455 107:-0.850813 108:-0.086821 109:0.668852 110:-0.106193 111:-0.69425 112:-0.26089 113:-0.309231 114:-0.371766 115:0.322667 116:0.141713 117:-0.671302 118:0.536843 119:0.199571 120:0.343935 121:0.175383 122:0.089519 123:-0.285101 124:-0.564246 125:0.092669 126:-0.7499 127:-0.519275 128:-0.308805 129:0.538372 130:-0.358222 131:-0.708803 132:-0.674717 133:0.362637 134:-0.233376 135:-0.921724 136:0.136987 137:0.010458 138:-0.161305 139:-0.18645 140:-0.640194 141:-0.457794 142:0.506849 143:-0.333919 144:-0.897035 145:-0.425818 146:-0.00355 147:0.263231 148:-0.240034 149:-0.499125 150:0.468549 151:-0.194805 152:0.236347 153:-0.888501 154:0.145767 155:-0.273365 156:0.67382 157:-0.288264 158:-0.600668 159:0.066405 160:0.127556 161:0.073342 162:-0.872404 163:0.075021 164:-0.177604 165:-0.118711 166:-0.49473 167:-0.746434 168:0.376331 169:0.631034 170:-0.031318 171:-0.83447 172:-0.348142 173:-0.004301 174:0.209085 175:-0.432003 176:-0.479791 177:0.323148 178:-0.485714 179:0.140684 180:-0.771603 181:0.411879 182:-0.595601 183:0.106354 184:-0.623465 185:-0.724638 186:0.778582 187:0.133333 188:0.974273 189:-0.721379 190:-0.364759 191:-0.432978 192:0.740814 193:-0.689143 194:-0.735303 195:0.718078 196:0.417722 197:0.27078 198:-0.882979 199:-0.320987 200:-0.500889 201:0.966662 202:-0.590885 203:-0.843824 204:-0.574277 205:0.133333 206:-0.042419 207:-0.888175 208:-0.148687 209:-0.154453 210:0.574791 211:-0.253681 212:-0.563807 213:-0.729656 214:0.162162 215:-0.039837 216:-0.745138 217:-0.391469 218:-0.263002 219:0.203424 220:-0.479265 221:-0.664689 222:-0.749176 223:0.067048 224:-0.192225 225:-0.878481 226:-0.255608 227:0.519739 228:-0.0048 229:-0.269533 230:-0.618093 231:-0.500973 232:0.458065 233:-0.158205 234:-0.940451 235:0.297862 236:-0.251591 237:0.540028 238:-0.628413 239:-0.765264 240:0.68288 241:0.404027 242:0.028612 243:-0.936887 244:0.170458 245:0.106777 246:0.952397 247:-0.583757 248:-0.742841 249:0.358664 250:-0.158537 251:0.024342 252:-0.93794 253:-0.305536 254:0.158485 255:-0.064534 256:-0.59993 257:-0.751794 258:-0.203274 259:0.276596 260:-0.031597 261:-0.907017 262:-0.096725 263:0.054195 264:0.710111 265:-0.660208 266:-0.872649 267:-0.404309 268:-0.100257 269:-0.024505 270:-0.964187 271:-0.283806 272:-0.003492 273:-0.349548 274:-0.670753 275:-0.839852 276:-0.230956 277:-0.142857 278:-0.105408 279:-0.961958 280:-0.211847 281:-0.209702 282:0.042589 283:-0.593709 284:-0.809508 285:-0.067218 286:-0.137931 287:-0.136499 288:-0.941264 289:-0.227275 290:-0.596422 291:-0.714045 292:-0.751513 293:-0.709989 294:-0.512939 295:-0.338983 296:-0.172746 297:-0.780355 298:-0.377762 299:-0.305173 300:0.48898 301:-0.80481 302:-0.906305 303:-0.898128 304:-0.37931 305:-0.36127 306:-0.933781 307:0.443048 308:-0.406389 309:0.677059 310:-0.722176 311:-0.799952 312:0.585674 313:-0.893333 314:0.006192 315:-0.907611 316:0.245221 317:-0.408679 318:-0.565607 319:-0.664499 320:-0.790407 321:0.782853 322:0.037037 323:0.482019 324:-0.856698 325:0.786386 326:0.791528 327:0.796247 328:-0.659553 329:-0.296794 330:0.877728 331:-0.044392 332:-0.473678 333:0.003322 334:-0.206277 335:-0.464093 336:0.029217 337:-0.27728 338:-0.235748 339:-0.417074 340:0.363636 341:-0.457356 342:-0.20594 343:0.361325 344:-0.256494 345:-0.997075 346:-0.182131 347:-0.177899 348:-0.687037 349:-0.079872 350:0.673521 351:-0.508488 
2.880124989268114 1:0.823751 2:0.816653 3:0.809744 4:0.561217 5:0.149994 6:-0.039525 7:0.533853 8:-0.458667 9:-1.0 10:-0.328867 11:0.478397 12:-0.577753 13:-0.691333 14:-0.419055 15:-0.786281 16:-0.434287 17:-0.144566 18:-0.677705 19:1.0 20:-0.875868 21:-0.239995 22:-0.14052 23:-0.53672 24:-0.245792 25:-0.441791 26:-0.180019 27:-0.547938 28:-0.02348 29:-0.601475 30:-0.781004 31:-0.053369 32:-0.248756 33:-0.172114 34:-0.00813 35:0.642279 36:0.049397 37:0.144693 38:-0.727859 39:0.107789 40:-0.738262 41:-0.709825 42:-0.365231 43:-0.13767 44:-0.375954 45:-0.261365 46:-0.107867 47:-0.118381 48:0.772883 49:0.327298 50:-0.13776 51:0.367309 52:-0.227273 53:0.286845 54:-0.799444 55:-0.265642 56:-0.042378 57:-0.317486 58:0.028735 59:0.237041 60:-0.490088 61:-0.075472 62:-0.268796 63:-0.256091 64:0.257611 65:-0.793608 66:-0.255008 67:-0.672194 68:-0.356236 69:0.565662 70:-0.463918 71:0.81483 72:0.501914 73:-0.609282 74:0.348312 75:-0.668209 76:-0.199695 77:-0.18178 78:0.582407 79:-0.424658 80:0.606731 81:-0.270033 82:-0.408686 83:0.007518 84:0.498617 85:-0.579825 86:-0.132824 87:0.092103 88:0.95082 89:-0.385666 90:-0.138607 91:0.602475 92:-0.688498 93:0.901893 94:-0.810858 95:-0.902211 96:0.346432 97:0.312217 98:0.231847 99:-0.579121 100:-0.564946 101:0.580137 102:-0.187408 103:0.628748 104:-0.100278 105:0.149591 106:-0.345455 107:-0.156332 108:-0.905245 109:0.314794 110:0.908278 111:-0.61114 112:0.82106 113:0.585235 114:-0.359762 115:-0.36 116:-0.122007 117:-0.787493 118:0.118337 119:0.205002 120:0.324271 121:-0.39184 122:-0.68483 123:-0.175905 124:0.01676 125:0.095959 126:-1.0 127:-0.237881 128:-0.060565 129:0.513955 130:-0.244839 131:-0.562275 132:-0.684993 133:0.230769 134:-0.282892 135:-0.841097 136:0.560189 137:-0.160463 138:-0.160347 139:0.113115 140:-0.412937 141:-0.392162 142:-0.287671 143:-0.142122 144:-0.846748 145:-0.083876 146:-0.200917 147:0.255515 148:-0.461152 149:-0.692747 150:0.432899 151:-0.220779 152:0.096647 153:-0.922973 154:0.254209 155:-0.512927 156:0.703995 157:-0.306755 158:-0.711485 159:0.099335 160:0.271665 161:0.155822 162:-0.927937 163:0.340413 164:0.375326 165:-0.150217 166:-0.441021 167:-0.803954 168:0.390773 169:0.227586 170:2.9E-4 171:-0.909944 172:0.615163 173:-0.730075 174:0.331651 175:-0.897046 176:-0.842178 177:0.335126 178:0.238095 179:0.208198 180:-0.835189 181:0.447654 182:0.063107 183:0.128213 184:-0.44914 185:-0.659951 186:0.700338 187:0.55 188:0.379045 189:-0.908583 190:-0.228559 191:-0.579215 192:0.739006 193:-0.658553 194:-0.621099 195:0.706362 196:0.367089 197:0.189408 198:-0.795381 199:-0.011436 200:-0.47805 201:0.957046 202:-0.772598 203:-0.91474 204:-0.613754 206:-0.381937 207:-0.949021 208:-0.688613 209:-0.11449 210:0.576948 211:-0.291666 212:-0.657665 213:-0.851558 214:0.351351 215:-0.511703 216:-0.828683 217:-1.0 218:1.0 219:0.52496 220:0.338729 221:-0.244513 222:-0.869194 223:0.128022 224:-0.19272 225:-0.860689 226:-0.273033 227:0.24168 228:-0.94139 229:-0.534053 230:-0.823242 231:-0.486759 232:-0.058065 233:-0.069391 234:-0.993283 235:0.243981 236:-0.199636 237:0.540263 238:-0.633646 239:-0.788268 240:0.684386 241:-0.136073 242:0.059838 243:-0.959833 244:-0.047331 245:-0.157052 246:0.928272 247:-0.462277 248:-0.645024 249:0.367376 250:-0.304878 251:0.083608 252:-0.862672 253:-0.136787 254:-0.587698 255:-0.292735 256:-0.8327 257:-0.980734 258:-0.205714 259:-0.234043 260:-0.028784 261:-0.971455 262:0.005996 263:0.08914 264:0.71057 265:-0.836723 266:-0.957654 267:-0.404078 268:-0.25964 269:-0.021282 270:-1.0 271:-0.077736 272:-0.07071 273:-0.354235 274:-0.687606 275:-0.846693 276:-0.226834 277:-0.809524 278:0.036508 279:-0.966812 280:-0.331393 281:-0.852829 282:0.123558 283:-0.992566 284:-0.994412 285:-0.064798 286:0.793103 287:-0.14407 288:-0.920698 289:-0.175912 290:0.115104 291:-0.711835 292:-0.631917 293:-0.713137 294:-0.505608 295:-0.033898 296:-0.003327 297:-0.901035 298:-0.604814 299:-0.275295 300:0.446764 301:-0.731106 302:-0.763788 303:-0.889735 304:0.103448 305:-0.186972 306:-0.871194 307:0.244591 308:-0.239661 309:0.632334 310:-0.803051 311:-0.904237 312:0.585882 313:-0.226667 314:0.001646 315:-0.97635 316:0.541773 317:-0.453957 318:-0.560584 319:-0.68763 320:-0.850879 321:0.774869 322:0.407407 323:0.282625 324:-0.947598 325:0.597737 326:0.608246 327:0.617982 328:-0.554048 329:-0.211434 330:0.907272 331:0.042199 332:0.368362 333:-0.724061 334:0.011688 335:-0.242934 336:0.030118 337:-0.406623 338:-0.506874 339:-0.387888 340:0.454545 341:-0.311358 342:-0.746579 343:0.86151 344:-0.268448 345:-0.996901 346:-0.528014 347:-0.640847 348:-0.799388 349:-0.539936 350:0.444279 351:-0.857599 
2.954877821292602 1:-0.267507 2:-0.250905 3:-0.234588 4:-0.6999 5:-0.231872 6:-0.193143 7:0.225918 8:0.267487 9:0.410221 10:-0.747998 11:0.818801 12:-0.865431 13:-0.984982 14:-0.723437 15:-0.845287 16:-0.515592 17:-0.459418 18:-0.133813 19:0.127792 20:-0.055759 21:-0.268295 22:-0.682637 23:-0.823751 24:-0.066895 25:-0.146269 26:0.33987 27:-0.703237 28:-0.60208 29:0.175393 30:-0.84169 31:-0.456992 32:-0.502642 33:-0.614821 34:0.235772 35:0.028923 36:-0.463711 37:-1.0 38:0.128327 39:0.102178 40:-0.355142 41:-0.623552 42:-0.018554 43:0.376702 44:0.060644 45:-0.695577 46:-0.271143 47:-0.001584 48:0.786246 49:0.426849 50:0.460714 51:0.11009 52:-0.140496 53:0.002048 54:-0.381415 55:0.256548 56:-0.318706 57:-0.258932 58:0.32097 59:0.364749 60:-0.577119 61:-0.179245 62:-0.315408 63:-0.403516 64:0.067165 65:0.514537 66:-0.234095 67:0.348746 68:-0.383876 69:0.584707 70:-0.273196 71:0.360153 72:-0.724312 73:0.488315 74:0.251007 75:-0.693398 76:0.191221 77:0.067008 78:-0.017386 79:-0.068493 80:-0.175277 81:-0.461273 82:-0.366795 83:-0.356627 84:-0.320679 85:-0.630529 86:-0.695092 87:0.482592 88:-0.278689 89:0.400723 90:-0.616033 91:0.088021 92:-0.172905 93:0.903596 94:0.041025 95:-0.134003 96:0.839445 97:0.438914 98:0.442353 99:-0.304152 100:0.210792 101:0.290362 102:-0.181073 103:0.494173 104:-0.036752 105:-0.288743 106:0.104545 107:-0.471514 108:-0.751056 109:-0.477313 110:-0.552173 111:-0.687414 112:-0.300744 113:-0.295356 114:-0.599782 115:-0.595333 116:-0.926139 117:-0.063239 118:0.007224 119:-0.89075 120:-0.266825 121:-0.83746 122:-0.821219 123:-0.099197 124:-0.117319 125:0.416925 126:-0.851454 127:-0.621779 128:-0.611059 129:0.597289 130:-0.766185 131:-0.908894 132:-0.68168 133:0.46772 134:-0.299198 135:-0.945914 136:-0.988823 137:0.128907 138:0.147017 139:-0.210944 140:-0.53546 141:-0.330736 142:-0.452055 143:0.006028 144:-0.774051 145:-0.456286 146:-0.258151 147:0.144027 148:-0.408705 149:-0.735406 150:0.438761 151:-0.532468 152:0.12853 153:-0.946799 154:0.685905 155:-0.102392 156:0.24551 157:-0.254353 158:-0.671463 159:0.100952 160:-0.620253 161:0.15538 162:-0.926701 163:-0.266122 164:-0.05543 165:-0.129127 166:-0.481054 167:-0.71513 168:0.361392 169:0.117241 170:-0.095321 171:-0.876654 172:-0.664778 173:-0.07623 174:0.291327 175:0.128775 176:-0.114041 177:0.242827 178:-0.82381 179:0.009724 180:-0.735286 181:-0.115139 182:0.647997 183:-1.0 184:-0.349377 185:-0.721795 186:0.735094 187:0.033333 188:0.562432 189:-0.979222 190:-0.327632 191:0.252734 192:0.715354 193:-0.55688 194:-0.70806 195:0.700577 196:-0.392405 197:0.162385 198:-0.93868 199:-0.382775 200:-0.497895 201:0.966496 202:-0.489447 203:-0.693003 204:-0.611115 205:-0.023958 206:-0.309388 207:-0.831706 208:-0.173237 209:1.0 210:0.450863 211:0.059387 212:-0.59358 213:-0.778764 214:0.405405 215:-0.303565 216:-0.992569 217:-0.030865 218:-0.410229 219:0.270395 220:-0.541638 221:-0.719488 222:-0.728381 223:0.219483 224:-0.034269 225:-0.904842 226:-0.090702 227:-0.789675 228:-0.184049 229:-0.833415 230:-0.878944 231:-0.487824 232:0.458065 233:-0.065231 234:-0.89662 235:0.43453 236:-0.704704 237:0.547259 238:-0.877352 239:-0.915693 240:0.684617 241:0.225236 242:0.026374 243:-0.945007 244:0.414091 245:-0.324877 246:0.931837 247:-0.724152 248:-0.855295 249:0.35011 250:-0.109756 251:-0.099758 252:-0.913968 253:-0.208982 254:-0.071383 255:-0.262212 256:-0.743307 257:-0.943037 258:-0.208275 259:-1.0 260:-0.134089 261:-0.989102 262:-0.146651 263:-0.08777 264:0.777522 265:-0.706196 266:-0.876713 267:-0.404511 268:0.562982 269:-0.029732 270:-0.960669 271:-0.421244 272:0.611862 273:-0.409759 274:-0.588718 275:-0.794095 276:-0.2273 277:-0.047619 278:0.006242 279:-0.98706 280:-0.03558 281:-0.258959 282:0.051563 283:-0.5177 284:-0.704406 285:-0.06129 286:-0.172414 287:-0.058683 288:-0.883865 289:-0.186514 290:0.293199 291:-0.690459 292:-0.554133 293:-0.754663 294:-0.504708 295:-0.313559 296:-0.00644 297:-0.944675 298:-0.43569 299:-0.585494 300:0.443499 301:-0.825282 302:-0.929355 303:-0.901712 304:0.49569 305:-0.460757 306:-0.911547 307:0.349957 308:-0.257522 309:0.631153 310:-0.659436 311:-0.791951 312:0.585778 313:-0.44 314:0.016239 315:-0.942973 316:0.343788 317:0.429843 318:-0.56154 319:-0.407593 320:-0.709627 321:0.776922 322:0.0 323:0.304508 324:-0.967797 325:0.961953 326:0.963316 327:0.964588 328:-0.982563 329:-0.893474 330:0.999729 331:-1.0 332:0.708339 333:-0.4912 334:0.102705 335:-0.796683 336:0.039658 337:-0.945984 338:-0.922008 339:-0.38955 340:0.545455 341:-0.309689 342:-0.786332 343:-0.204299 344:-0.886644 345:-0.996839 346:-0.924153 347:-0.875161 348:-0.81989 349:0.380192 350:5.59E-4 351:-0.746093 
4.951958379917141 1:-0.327977 2:-0.310258 3:-0.292866 4:-0.801261 5:-0.70519 6:-0.272524 7:-1.0 8:-0.403908 9:-0.693961 10:-0.760455 11:0.817078 12:-0.855122 13:-0.790201 14:-0.628406 15:-0.849259 16:-0.338459 17:-0.355073 18:-0.567913 19:-0.10199 20:-0.04702 21:-0.386533 22:-0.432341 23:-0.482852 24:-0.138163 25:-0.880597 26:0.060649 27:-0.408308 28:-0.597256 29:-0.429761 30:-0.770082 31:-0.22029 32:-0.160399 33:-0.831449 34:0.113821 35:-0.402561 36:-0.218347 37:0.54417 38:-0.242458 39:0.131726 40:-0.576833 41:-0.53681 42:-0.432675 43:-0.30711 44:-0.411993 45:-0.247099 46:-0.14912 47:-0.251394 48:0.787558 49:-0.202542 50:-0.134978 51:0.613693 52:0.818182 53:0.773352 54:-0.408956 55:0.340475 56:-0.346614 57:-0.346904 58:0.019425 59:-0.035036 60:-0.363527 61:-0.320755 62:-0.138972 63:-0.421239 64:-0.458407 65:0.212891 66:-0.471662 67:-0.148931 68:0.220054 69:0.459487 70:0.030928 71:0.368435 72:0.06749 73:-0.155457 74:0.12288 75:-0.686957 76:-0.290997 77:-0.403846 78:0.133987 79:0.09589 80:-0.016372 81:-0.751113 82:0.290106 83:-0.527418 84:-0.289211 85:0.105443 86:0.614098 87:0.669813 88:0.311475 89:0.405301 90:0.279756 91:-0.093175 92:0.547623 93:0.884951 94:0.075513 95:-0.372092 96:0.106892 97:0.927602 98:-0.151148 99:-0.890381 100:0.243534 101:-0.648487 102:-0.162984 103:-0.481823 104:-0.680303 105:0.162945 106:0.0 107:0.176848 108:-0.508946 109:0.089901 110:-0.624303 111:-0.655667 112:-0.791693 113:-0.828412 114:-0.437763 115:-0.104 116:-0.015767 117:-0.926477 118:0.037816 119:-0.694213 120:0.307621 121:-0.846714 122:-0.876111 123:-0.127743 124:-0.139665 125:0.167962 126:-0.926825 127:0.014872 128:-0.143496 129:0.581428 130:-0.45232 131:-0.666962 132:-0.675815 133:0.296703 134:-0.235175 135:-0.853363 136:1.0 137:0.199781 138:-0.1627 139:-0.156935 140:-0.508183 141:-0.296948 142:0.260274 143:0.085028 144:-0.857317 145:0.767078 146:-0.00142 147:1.0 148:-0.638976 149:-0.92357 150:0.447818 151:-0.142857 152:0.173963 153:-0.993269 154:0.092072 155:-0.338469 156:0.703383 157:-0.220871 158:-0.668095 159:0.087769 160:-0.170399 161:0.123385 162:-0.90113 163:-0.26352 164:-0.095279 165:-0.079035 166:-0.681005 167:-0.867075 168:0.285325 169:-0.258621 170:-0.494553 171:-0.881487 172:0.055359 173:0.130654 174:0.225013 175:-0.447583 176:-0.607612 177:0.374654 178:0.390476 179:0.350402 180:-0.888112 181:0.590882 182:-0.361662 183:0.067402 184:-0.583142 185:-0.696591 186:0.717223 187:-0.166667 188:0.475974 189:-0.884919 190:0.22756 191:0.486411 192:0.757444 193:-0.243556 194:-0.629648 195:0.663166 196:0.435127 197:0.064771 198:-0.932717 199:-0.155482 200:0.1391 201:0.955857 202:-0.464132 203:-0.774957 204:-0.641074 205:0.066667 206:-0.481939 207:-0.917711 208:-0.350736 209:-0.525634 210:0.562753 211:-0.684577 212:-0.853996 213:-0.873067 214:0.72973 215:-0.831143 216:-0.79372 217:-0.321405 218:-0.428282 219:0.27823 220:-0.782112 221:-0.93454 222:-0.730524 223:0.631059 224:-0.11193 225:-0.980275 226:-0.278852 227:-0.765195 228:-0.176 229:-0.991687 230:-0.972665 231:-0.489504 232:0.366129 233:-0.140363 234:-0.935434 235:0.270604 236:-0.368048 237:0.541544 238:-0.735066 239:-0.822503 240:0.686134 241:0.485974 242:0.10651 243:-0.936982 244:0.201675 245:0.224209 246:0.920782 247:-0.485167 248:-0.745509 249:0.351327 250:-0.079268 251:-0.046959 252:-0.94756 253:-0.248633 254:-0.441924 255:-0.063478 256:-0.869326 257:-0.947842 258:-0.207586 259:0.404255 260:-0.112785 261:-0.981618 262:0.16354 263:0.286158 264:0.034224 265:-0.614908 266:-0.7294 267:-0.405014 268:0.974293 269:-0.034707 270:-0.905333 271:-0.041828 272:-0.239824 273:-0.393214 274:-0.772234 275:-0.898876 276:-0.22633 277:0.285714 278:0.091921 279:-0.9612 280:-0.020057 281:-0.392768 282:0.051341 283:-0.700312 284:-0.845378 285:-0.065351 286:0.172414 287:-0.117789 288:-0.934672 289:-0.059772 290:-0.304518 291:-0.720591 292:-0.69216 293:-0.811499 294:-0.512076 295:-0.069253 296:-0.131745 297:-0.923166 298:-0.30816 299:0.612672 300:0.425859 301:-0.543538 302:-0.789592 303:-0.903953 304:-0.172414 305:-0.364738 306:-0.976668 307:0.303552 308:-0.734411 309:0.627977 310:-0.778685 311:-0.807168 312:0.587616 313:-0.496667 314:0.083848 315:-0.886077 316:0.239443 317:-0.623803 318:-0.561277 319:-0.850437 320:-0.964121 321:0.77456 322:-0.018519 323:0.262263 324:-0.964725 325:0.992705 326:0.992939 327:0.993161 328:-0.984132 329:-0.991882 330:0.999741 331:0.605617 332:0.710247 333:-0.84476 334:-0.013689 335:-0.987854 336:0.005122 337:-0.964305 338:-0.948015 339:-0.389248 340:0.170455 341:-0.204826 342:-0.802256 343:0.03593 344:-0.843282 345:-0.997037 346:-0.945256 347:-0.914073 348:-0.817982 349:0.124601 350:0.309376 351:-0.860947 
2.324157180190688 1:-0.34967 2:-0.330814 3:-0.312305 4:-1.0 5:-1.0 6:-0.286258 7:0.090453 8:-0.606697 9:-0.825693 10:-1.0 11:1.0 12:-1.0 13:-0.79691 14:-0.565767 15:-0.805426 16:0.664531 17:-0.17915 18:-0.521199 19:0.398114 20:-0.942393 21:-0.247876 22:-0.475263 23:-0.39159 24:-0.234889 25:-0.767164 26:-0.22443 27:-0.202624 28:-0.178791 29:-0.972992 30:-0.782462 31:-0.461436 32:-0.265827 33:-0.839322 34:0.203252 35:-0.487612 36:0.036409 37:-0.272174 38:0.054947 39:0.087421 40:0.058046 41:0.575597 42:-0.971532 43:-0.077156 44:-0.658192 45:0.837623 46:-0.324485 47:0.122614 48:0.78846 49:0.483852 50:0.064617 51:-0.056816 52:-0.206612 53:-0.162249 54:-0.644929 55:0.315007 56:-0.730712 57:-0.189824 58:-1.0 59:-0.862111 60:-0.380478 61:0.150943 62:-0.173967 63:-0.797689 64:0.570491 65:0.111418 66:-0.171401 67:-0.404335 68:-0.574585 69:0.254279 70:-0.072165 71:0.125781 72:-0.809907 73:-0.14789 74:-0.054785 75:-0.691055 76:-0.203013 77:-0.382683 78:0.352014 79:-0.089041 80:0.28647 81:-0.59593 82:-0.674008 83:0.430727 84:-0.14498 85:-0.279085 86:-0.216364 87:0.23001 88:0.754098 89:-0.058572 90:-0.544096 91:-0.047219 92:-0.199611 93:0.828981 94:-0.366744 95:-0.385484 96:0.078526 97:0.746606 98:-0.191826 99:-0.535978 100:0.354431 101:-0.314392 102:-0.162267 103:0.5385 104:0.604025 105:0.002209 106:-0.463636 107:-0.252105 108:-0.336007 109:-0.038931 110:-0.901255 111:-0.679324 112:-1.0 113:-1.0 114:-0.442575 115:-0.338667 116:-0.001928 117:-0.903503 118:-0.10753 119:-0.035989 120:0.457679 121:-0.487493 122:-0.618244 123:-0.122534 124:-0.296089 125:0.232366 126:-0.952837 127:-0.576998 128:-0.782679 129:0.529166 130:-0.690861 131:-0.810188 132:-0.672646 133:0.32967 134:-0.175942 135:-0.892323 136:-0.150361 137:-0.387312 138:-0.166164 139:-0.391375 140:-0.470836 141:-0.289346 142:-0.287671 143:0.180249 144:-0.608759 145:0.158386 146:-0.177123 147:0.261674 148:-0.239439 149:-0.629424 150:0.459207 151:-0.792208 152:0.204936 153:-0.945013 154:0.293302 155:0.348016 156:-1.0 157:-0.018622 158:-0.607806 159:0.066795 160:-0.433301 161:0.08233 162:-0.953735 163:0.198041 164:-0.569209 165:-0.158558 166:-0.795884 167:-0.874474 168:0.345929 169:0.091379 170:-0.081709 171:-0.864285 172:-0.015661 173:-0.235151 174:0.310438 175:-0.367127 176:-0.64082 177:0.363028 178:-0.142857 179:0.287742 180:-0.911772 181:-0.221401 182:0.241313 183:0.366255 184:-0.399325 185:-0.67547 186:0.695009 187:-0.483333 188:0.359626 189:-0.924212 190:-0.599999 191:0.230944 192:0.730249 193:-0.382808 194:-0.725382 195:0.685309 196:0.316456 197:0.11524 198:-0.957203 199:0.019501 200:-0.592003 201:0.969743 202:-0.845957 203:-0.915779 204:-0.620285 205:0.233333 206:-0.496301 207:-0.909086 208:-0.324724 209:0.020512 210:0.396842 211:-0.174176 212:-0.553627 213:-0.832464 214:0.189189 215:-0.430566 216:-0.841329 217:-0.236897 218:-0.885289 219:0.326382 220:-1.0 221:-1.0 222:-0.726839 223:0.158509 224:-0.039779 225:-0.943889 226:-0.13944 227:0.053516 228:-0.345747 229:-0.610877 230:-0.868806 231:-0.490974 232:0.406452 233:-0.121472 234:-0.997877 235:0.246513 236:-0.369403 237:0.648861 238:-0.870369 239:-0.929897 240:0.684515 241:0.463625 242:0.021634 243:-0.97222 244:0.160653 245:-0.03102 246:0.920856 247:-0.583071 248:-0.673385 249:0.350762 250:-0.256098 251:-0.063026 252:-0.864286 253:-0.258435 254:-0.130225 255:-0.197162 256:-0.702713 257:-0.881068 258:-0.204724 259:0.446809 260:-0.036073 261:-0.965901 262:-0.025614 263:0.453503 264:0.805761 265:-0.554765 266:-0.696041 267:-0.405531 268:-0.023136 269:-0.038647 270:-0.917796 271:-0.191094 272:-0.576266 273:-0.452448 274:-0.819962 275:-0.877439 276:-0.22872 277:0.52381 278:-0.041929 279:-0.934545 280:-0.372633 281:-0.153086 282:-0.008741 283:-0.772654 284:-0.92879 285:-0.063736 286:0.5 287:-0.085162 288:-0.957221 289:-0.268794 290:0.241584 291:-0.725007 292:-0.63709 293:-0.743233 294:-0.513785 295:0.127119 296:-0.151608 297:-0.940077 298:-0.267465 299:-0.284038 300:0.436459 301:-0.665861 302:-0.848272 303:-0.887363 304:0.75 305:-0.167897 306:-0.97461 307:0.355815 308:-1.0 309:0.633813 310:-0.895065 311:-0.914068 312:0.58649 313:-0.2 314:0.030441 315:-0.914643 316:0.489334 317:-0.10022 318:-0.564521 319:-0.589305 320:-0.801557 321:0.773402 322:-0.111111 323:0.255816 324:-0.945307 325:0.982752 326:0.983397 327:0.983998 328:-1.0 329:-0.985065 330:0.999984 331:1.0 332:0.977978 333:-0.704904 334:-0.011875 335:-0.727937 336:0.025138 337:-0.947658 338:-0.935045 339:-0.389251 340:0.204545 341:-0.229072 342:-0.851489 343:0.149193 344:-0.754898 345:-0.995932 346:-0.924142 347:-0.931229 348:-0.819014 349:-0.15655 350:0.134333 351:-0.918996 
