svm_type c_svc
kernel_type rbf
gamma 0.001953125
nr_class 2
total_sv 37
rho 0.26642167151210944
label 1 -1
nr_sv 20 17
SV
6.622833004084524 1:-0.309167 2:-0.308832 3:-0.308408 4:-0.180917 5:0.016538 6:-0.521732 7:0.328011 8:-0.18987 9:-0.628049 10:-0.616281 11:0.710113 12:-0.793938 13:-0.870476 14:-0.729948 15:-0.823823 16:-0.184299 17:-0.199172 18:-0.532018 19:0.03732 20:0.081614 21:0.370247 22:-0.220192 23:-0.4926 24:0.814508 25:0.18209 26:0.647878 27:-0.6576 28:-0.300086 29:0.065974 30:-0.675899 31:-0.561093 32:-0.986956 33:0.092648 34:-0.597061 35:0.478903 36:-0.959073 37:-0.007234 38:-0.188775 39:0.572886 40:0.020579 41:0.184303 42:-0.965312 43:0.007143 44:-1.0 45:0.032031 46:-0.576914 47:-0.210382 48:-0.817885 49:-0.147155 50:-0.504381 51:0.413085 52:-0.454545 53:0.394555 54:-0.707875 55:-0.272648 56:-0.617001 57:0.25494 58:-0.411364 59:0.023264 60:-0.538079 61:-0.226869 62:-0.380937 63:0.756648 64:-0.330633 65:-0.483823 66:-0.835755 67:0.007415 68:0.341457 69:-0.403141 70:-0.234783 71:-0.209098 72:0.497408 73:-0.025467 74:-0.44304 75:-1.0 76:-0.03506 77:0.248452 78:-0.324523 79:-0.013699 80:-0.384762 81:-0.107607 82:0.195533 83:0.316233 84:-0.392702 85:0.312268 86:-0.14701 87:0.120685 88:0.192771 89:0.089849 90:-0.469702 91:0.600919 92:-0.120528 93:-0.528574 94:0.080101 95:0.115625 96:0.328136 97:0.0 98:0.034158 99:-0.382336 100:-0.180859 101:-0.08446 102:-0.999679 103:-0.552486 104:-0.714966 105:0.066801 106:-0.403846 107:-0.321016 108:-0.858775 109:0.564865 110:-0.231457 111:-0.681079 112:0.319206 113:0.363385 114:-0.624453 115:0.618497 116:-0.201554 117:-0.5437 118:0.145488 119:-0.643378 120:0.618485 121:-0.712274 122:-0.59806 123:-0.117353 124:0.716049 125:-0.233607 126:-0.611488 127:-0.277976 128:0.792281 129:0.567924 130:-0.301864 131:-0.726081 132:-0.963468 133:0.737705 134:-0.777348 135:-0.994391 136:-0.181019 137:-0.020128 138:0.290908 139:0.390921 140:0.066217 141:-1.0 142:-0.02008 143:-0.908567 144:-0.014362 145:-0.508009 146:-0.354405 147:-0.143953 148:0.355635 149:0.048536 150:0.339985 151:0.415385 152:0.005511 153:-0.711808 154:0.787525 155:-0.848531 156:0.705326 157:0.398978 158:0.348739 159:1.0 160:0.14703 161:1.0 162:1.0 163:0.760708 164:-0.109726 165:-0.150579 166:-0.471819 167:-0.652837 168:-0.154357 169:-1.0 170:-0.378371 171:-0.890458 172:0.544584 173:0.117512 174:0.378596 175:0.09209 176:-0.548171 177:0.01663 178:-0.761468 179:0.362597 180:-0.803439 181:-1.0 182:-0.225657 183:0.023005 184:-0.038481 185:0.051809 186:0.404432 187:0.068627 188:-0.400929 189:0.079038 190:0.5239 191:-0.371891 192:0.507676 193:-0.213374 194:-0.104233 195:1.0 196:-0.763158 197:1.0 198:0.071084 199:0.027714 200:-0.686601 201:0.968379 202:0.526954 203:0.240572 204:-0.424573 205:-0.145631 206:-0.336227 207:-0.686284 208:-0.010084 209:-0.034336 210:-1.0 211:1.0 212:1.0 213:1.0 214:0.305556 215:0.395469 216:0.868085 217:-0.557112 218:0.026261 219:0.07738 220:0.007497 221:-0.25135 222:-0.912727 223:0.671642 224:-0.765296 225:-0.626203 226:-0.181837 227:-0.583188 228:-0.179125 229:-0.701887 230:-0.763682 231:-0.488915 232:0.879699 233:-0.094519 234:-0.873284 235:0.391921 236:0.372566 237:-0.089151 238:-0.513795 239:-0.645446 240:0.985402 241:0.493007 242:0.586609 243:-0.895695 244:1.0 245:0.432681 246:0.961332 247:0.207188 248:0.237805 249:0.706098 250:1.0 251:0.725528 252:0.286946 253:0.407001 254:0.387987 255:-0.10171 256:0.182558 257:0.078466 258:0.070267 259:0.191489 260:0.715641 261:0.405797 262:-1.0 263:-0.094587 264:1.0 265:0.381813 266:0.266512 267:-1.0 268:-0.73064 269:-1.0 270:0.837854 271:-0.763312 272:0.226341 273:-0.314688 274:-0.681031 275:-0.844063 276:-0.981662 277:0.33758 278:-0.867716 279:-0.94201 280:-0.414959 281:0.074686 282:-0.84319 283:-0.514503 284:-0.751612 285:-0.663258 286:0.161638 287:-0.208244 288:-0.966927 289:-0.233465 290:0.369534 291:-0.924433 292:-0.338604 293:-0.100033 294:-0.611114 295:0.569343 296:-0.290753 297:-0.365466 298:-1.0 299:-0.414286 300:0.054255 301:-0.517916 302:-0.495989 303:-1.0 304:0.300493 305:-1.0 306:-0.133838 307:-0.598962 308:0.833153 309:1.0 310:0.248962 311:-0.004117 312:-0.884261 313:-0.305556 314:-0.918018 315:-0.750997 316:-1.0 317:0.53341 318:-1.0 319:1.0 320:1.0 321:-1.0 322:-1.0 323:-1.0 324:1.0 325:0.630194 326:0.64151 327:0.65292 328:-0.707445 329:-0.742157 330:0.987837 331:-0.246106 332:0.050193 333:-0.573259 334:-0.732409 335:-0.150644 336:-0.414213 337:-0.768133 338:-0.778436 339:-0.234981 340:-0.440559 341:0.044187 342:-0.456366 343:0.32014 344:-0.093314 345:0.476111 346:-0.809171 347:-0.850291 348:-0.819518 349:-0.221122 350:-0.552062 351:-0.879733 
5.954400385580512 1:-0.261508 2:-0.264582 3:-0.26752 4:0.058845 5:0.32246 6:-0.083453 7:0.574489 8:0.053004 9:-0.456086 10:-0.259323 11:0.401942 12:-0.540325 13:-0.633318 14:-0.496528 15:-0.720958 16:0.49803 17:0.230081 18:-0.457419 19:-0.203044 20:0.075926 21:-0.148299 22:0.00968 23:0.319245 24:0.562458 25:-0.259701 26:0.216342 27:-0.080326 28:-0.533564 29:0.526358 30:-0.525181 31:0.36928 32:0.666645 33:0.835762 34:0.088794 35:0.878063 36:0.179189 37:-0.046467 38:-0.596391 39:0.488644 40:-0.216401 41:-0.219989 42:1.0 43:0.057143 44:1.0 45:0.52453 46:0.063009 47:0.048686 48:-0.851352 49:0.498511 50:0.783754 51:-0.112391 52:0.157025 53:-0.229214 54:0.193979 55:0.505551 56:-0.28191 57:-0.263328 58:0.356202 59:0.217738 60:1.0 61:-0.145754 62:1.0 63:1.0 64:-0.103924 65:0.787608 66:-0.717721 67:0.539923 68:-0.373321 69:-0.881004 70:-0.130435 71:-0.363225 72:-0.717884 73:-0.65095 74:0.732019 75:-0.915562 76:0.380009 77:0.435868 78:-0.120281 79:0.205479 80:-0.1792 81:-0.453514 82:-0.258663 83:0.242401 84:-0.264693 85:0.252995 86:-0.022225 87:1.0 88:0.518072 89:1.0 90:0.430772 91:0.167342 92:-0.578274 93:-0.114834 94:0.349385 95:-0.160857 96:-0.291119 97:0.660377 98:-0.438169 99:-0.629018 100:-0.129095 101:0.138705 102:0.057778 103:-0.051698 104:-0.778874 105:-0.559177 106:0.384615 107:-0.772261 108:-0.909315 109:-0.26721 110:-0.493349 111:-0.677601 112:0.4661 113:0.395933 114:-0.61078 115:-0.190751 116:-0.180822 117:-0.569874 118:0.038519 119:-0.738534 120:0.656932 121:-0.771122 122:-0.810866 123:-0.104877 124:0.061728 125:-0.117131 126:-0.800504 127:-0.096632 128:0.359901 129:0.405957 130:-0.308348 131:-0.717313 132:-0.999657 133:0.672131 134:-0.988119 135:-0.958163 136:0.272567 137:1.0 138:0.075226 139:0.123186 140:-0.316129 141:-0.423653 142:0.389558 143:-0.124297 144:-0.856427 145:0.230638 146:-0.293161 147:-0.151749 148:-0.392888 149:-0.780683 150:0.449918 151:0.292308 152:0.177847 153:-0.951286 154:-0.38578 155:-0.866895 156:0.702331 157:-0.517666 158:-0.833842 159:-0.276107 160:-0.370983 161:-0.248832 162:-0.883284 163:-0.705638 164:-0.318815 165:-0.277694 166:-0.645514 167:-0.762768 168:-0.134608 169:0.440329 170:-0.268242 171:-0.957827 172:-0.469804 173:0.116891 174:0.374184 175:0.001024 176:-0.557925 177:-0.102343 178:0.021407 179:0.134413 180:-0.819305 181:0.26307 182:0.076018 183:0.200053 184:-0.397262 185:-0.67162 186:0.703307 187:-0.529412 188:0.400466 189:-0.891597 190:0.491899 191:-0.061339 192:0.410623 193:-0.57249 194:-0.818657 195:0.731385 196:-0.473684 197:0.216081 198:-0.978012 199:0.053842 200:0.032017 201:0.989714 202:0.535478 203:0.294012 204:-0.584156 205:0.786408 206:-0.480745 207:-0.732343 208:-0.549809 209:-0.223196 210:-0.199458 211:-0.440097 212:-0.76494 213:-0.814819 214:0.041667 215:-0.58384 216:-0.88475 217:0.070241 218:-0.340273 219:-0.204444 220:-0.152504 221:-0.374743 222:-0.89158 223:-0.522388 224:-0.816465 225:-0.664385 226:-0.241869 227:-0.100769 228:-0.396037 229:-0.7347 230:-0.843391 231:-0.494746 232:0.518797 233:-0.211194 234:-0.920134 235:0.90589 236:0.165241 237:-1.0 238:-0.717852 239:-0.839201 240:0.998214 241:1.0 242:0.897011 243:-0.960955 244:0.23377 245:0.834721 246:0.966778 247:-0.425635 248:-0.752795 249:0.352677 250:-0.207317 251:-0.032533 252:-0.97348 253:-0.2086 254:0.293658 255:0.073028 256:-0.674071 257:-0.913048 258:-0.206986 259:-0.319149 260:-0.098118 261:-0.991655 262:0.133678 263:-0.515636 264:0.832243 265:-0.779451 266:-0.871478 267:-0.400875 268:-0.111111 269:0.055269 270:-0.906888 271:-0.400349 272:-0.068123 273:-0.28719 274:-0.825069 275:-0.93757 276:-0.979333 277:-0.477707 278:-0.864623 279:-0.969669 280:-0.154875 281:0.383584 282:-1.0 283:-0.57696 284:-0.808538 285:-0.667154 286:-0.37931 287:-0.242451 288:-0.972693 289:-0.264168 290:-0.503832 291:-0.724728 292:-0.803056 293:-0.949625 294:-0.58799 295:0.682482 296:-0.144348 297:-0.984235 298:-0.596823 299:0.331884 300:0.236876 301:-0.709897 302:-0.922118 303:-0.924512 304:-0.684729 305:-0.344194 306:-1.0 307:-0.24005 308:-0.186512 309:0.876331 310:-0.187707 311:-0.37591 312:-0.655389 313:-0.583333 314:-0.622572 315:-0.819172 316:0.424025 317:-0.025451 318:0.71881 319:-0.699072 320:-0.83858 321:0.742995 322:0.036545 323:0.386605 324:-0.969539 325:0.497014 326:0.511479 327:0.526115 328:-0.589362 329:-0.643184 330:0.971214 331:0.286887 332:-0.104565 333:-0.446655 334:-0.403719 335:-0.301823 336:-0.425047 337:-0.664299 338:-0.64735 339:-0.239023 340:0.678322 341:-0.16275 342:-0.214532 343:8.94E-4 344:-0.142902 345:0.297426 346:-0.731716 347:-0.799125 348:-0.816342 349:-0.254125 350:-0.309628 351:-0.741958 
15.292822714022263 1:0.427091 2:0.435644 3:0.444528 4:-0.061682 5:0.174596 6:-0.312062 7:0.294396 8:-0.035246 9:-0.532075 10:-0.27132 11:0.411624 12:-0.551306 13:-0.584502 14:-0.339341 15:-0.906777 16:0.567489 17:-0.427784 18:-0.200958 19:-0.128103 20:0.591929 21:0.355803 22:0.147128 23:-0.419883 24:0.724491 25:-0.808955 26:0.443572 27:-0.902675 28:-0.440778 29:0.080967 30:-0.184833 31:-0.692123 32:-0.230574 33:-0.218709 34:0.127985 35:0.003603 36:-0.046241 37:-0.496753 38:0.523066 39:0.434258 40:0.317524 41:-0.028044 42:0.683076 43:-0.8 44:0.386758 45:-0.260513 46:-0.263483 47:-0.142618 48:-0.907328 49:0.157361 50:0.364269 51:0.018579 52:0.278926 53:-0.178472 54:0.016578 55:0.236774 56:-0.998654 57:-0.611361 58:-0.708678 59:-0.550002 60:-0.244893 61:-0.632446 62:0.256611 63:-0.061825 64:0.738975 65:-0.523305 66:-0.534116 67:-0.744639 68:-0.585354 69:-0.133997 70:-0.03913 71:-0.11255 72:-0.312502 73:-0.172966 74:-0.493773 75:-0.962809 76:-0.666199 77:-0.280208 78:-0.586885 79:-0.441781 80:-1.0 81:0.292247 82:0.137374 83:0.352694 84:-0.127442 85:0.188986 86:-0.536653 87:-0.135827 88:-0.228916 89:-0.161165 90:-0.734151 91:0.323065 92:0.755991 93:-0.279207 94:0.889493 95:-0.186188 96:-0.210222 97:0.320755 98:-0.318361 99:-0.847042 100:0.044456 101:-0.221432 102:0.075323 103:-0.483612 104:-0.41092 105:-0.040883 106:-0.134615 107:-0.424027 108:-0.714062 109:-0.230339 110:-0.511682 111:-0.680282 112:0.36699 113:0.424511 114:-0.212365 115:-0.313584 116:0.426112 117:-0.020278 118:-0.23914 119:-0.021478 120:-0.68769 121:-0.273446 122:-0.513901 123:0.046935 124:0.05787 125:0.374258 126:-0.684915 127:-1.0 128:0.634658 129:0.651904 130:-0.266547 131:-0.632161 132:-0.926446 133:0.159836 134:-0.576388 135:-0.942752 136:-0.214953 137:0.283981 138:0.199441 139:-0.369408 140:-0.599104 141:-0.417647 142:0.116466 143:-0.123569 144:-0.868502 145:0.067663 146:0.261203 147:-0.060875 148:-0.282754 149:-0.72339 150:0.487374 151:0.340385 152:0.309643 153:-0.947733 154:0.460686 155:0.11098 156:0.711375 157:-0.229767 158:-0.781875 159:-0.346329 160:-0.152872 161:-0.365379 162:-0.940926 163:-0.119873 164:-0.343962 165:-0.181289 166:-0.780821 167:-0.751566 168:-0.192681 169:-0.053498 170:-0.458342 171:-0.870073 172:0.299815 173:-0.312349 174:0.402686 175:-0.569293 176:-0.89715 177:-0.10498 178:0.804281 179:0.24985 180:-0.889637 181:0.181484 182:-1.0 183:1.0 184:-0.8081 185:-0.833931 186:0.708208 187:0.377451 188:0.372135 189:-0.833359 190:-0.394628 191:-0.096451 192:0.79462 193:-0.577135 194:-0.631599 195:0.713529 196:0.629934 197:0.120705 198:-0.875686 199:-0.604273 200:-0.1962 201:0.971484 202:0.139052 203:-0.057625 204:-0.54123 205:-0.116505 206:-0.411356 207:-0.799079 208:0.087813 209:-0.185923 210:-0.170498 211:-0.415428 212:-0.802394 213:-0.809112 214:0.111111 215:-0.562585 216:-0.951356 217:-0.750477 218:-0.608138 219:-0.288391 220:-0.082508 221:-0.381101 222:-0.917387 223:-0.402985 224:-0.866823 225:-0.662905 226:-0.147943 227:0.021416 228:-0.184229 229:-0.452363 230:-0.631727 231:-0.493316 232:0.458647 233:-0.129719 234:-0.891673 235:0.896843 236:-0.092698 237:-0.153018 238:-0.65184 239:-0.771797 240:0.997931 241:0.493007 242:0.857448 243:-0.940725 244:0.22853 245:-0.088923 246:0.962701 247:-0.705909 248:-0.843437 249:0.353376 250:-0.329268 251:-0.042942 252:-0.960263 253:-0.179825 254:0.447067 255:-0.297133 256:-0.656743 257:-0.863633 258:-0.212509 259:0.659574 260:-0.224363 261:-0.947962 262:0.015836 263:0.197394 264:0.848928 265:-0.649578 266:-0.834799 267:-0.403292 268:-0.259259 269:-0.008258 270:-0.955243 271:-0.527479 272:-0.164199 273:-0.35767 274:-0.867763 275:-0.896964 276:-0.978259 277:-0.834395 278:-0.846525 279:-0.930867 280:-0.289261 281:-0.102548 282:-0.809591 283:-0.779923 284:-0.844375 285:-0.672404 286:-0.310345 287:-0.340241 288:-0.932934 289:-0.039448 290:-0.71345 291:-0.718639 292:-0.784575 293:-0.876785 294:-0.587121 295:0.416058 296:-0.120588 297:-0.952098 298:-0.314754 299:0.090859 300:-0.138872 301:-0.664479 302:-0.780832 303:-0.923738 304:-0.029557 305:-0.322335 306:-0.919187 307:-0.24358 308:0.409845 309:0.73936 310:0.072631 311:-0.215652 312:-0.585036 313:-0.763889 314:-0.510409 315:-0.801986 316:0.525908 317:0.058586 318:0.70164 319:-0.648172 320:-0.809386 321:0.737435 322:-0.468439 323:0.245659 324:-0.973385 325:0.210044 326:0.234165 327:0.258458 328:-0.530929 329:-0.546367 330:0.966815 331:-0.323181 332:0.039744 333:-0.541234 334:-0.342352 335:0.288727 336:-0.153748 337:-0.634074 338:-0.731161 339:-0.230854 340:-0.356643 341:-0.012995 342:-0.65034 343:0.380911 344:-0.129136 345:0.544053 346:-0.710025 347:-0.82517 348:-0.815296 349:-0.372937 350:-0.26643 351:-0.879431 
16.0 1:-0.568965 2:-0.565514 3:-0.561961 4:-0.699482 5:-0.65065 6:-0.807495 7:0.101966 8:-0.236244 9:-0.576153 10:-0.631978 11:0.718736 12:-0.796514 13:-0.833366 14:-0.6563 15:-0.780804 16:0.272144 17:0.068986 18:-0.345456 19:0.435817 20:-1.0 21:0.366972 22:-0.244641 23:0.17115 24:0.773747 25:-0.18209 26:0.580274 27:0.191239 28:0.264953 29:0.313695 30:-0.275738 31:1.0 32:0.205284 33:0.727995 34:0.299449 35:0.534568 36:-0.687204 37:-0.127066 38:-0.245808 39:0.505094 40:-0.215595 41:-0.418806 42:0.110743 43:0.257143 44:0.03227 45:-0.591675 46:-0.744857 47:0.56535 48:-0.954057 49:0.048798 50:-0.700024 51:0.355509 52:-0.190083 53:0.30434 54:-0.873498 55:-0.424907 56:-0.214864 57:-0.130512 58:-0.032461 59:-0.285011 60:-0.572555 61:-0.541191 62:-0.416703 63:-0.618393 64:0.337451 65:-0.397369 66:-0.193371 67:-0.104273 68:0.017653 69:-0.23332 70:0.2 71:-0.103395 72:0.044646 73:1.0 74:-0.128648 75:-0.899905 76:0.169413 77:0.002132 78:-0.010589 79:-0.496575 80:-0.074004 81:-0.524408 82:0.350781 83:-0.880502 84:-0.191444 85:-0.361967 86:0.009652 87:-0.023648 88:0.228916 89:0.023949 90:0.087839 91:0.006917 92:0.004635 93:-0.277236 94:-0.233614 95:-0.310072 96:0.709418 97:0.188679 98:0.455711 99:-0.514854 100:-0.057943 101:-0.780222 102:-0.169347 103:-0.9783 104:-0.437011 105:-0.11568 106:-0.153846 107:-0.513379 108:-0.278343 109:0.21028 110:-0.756336 111:-0.698929 112:-0.729942 113:-0.69341 114:-0.621312 115:0.50289 116:-0.271368 117:-0.631138 118:0.29769 119:-0.483041 120:0.722184 121:-0.900985 122:-1.0 123:-0.121417 124:-0.185185 125:-0.274946 126:-0.966362 127:0.013086 128:-0.300351 129:0.755629 130:-0.385314 131:-0.609138 132:-0.969446 133:0.606557 134:-0.829902 135:-0.855718 136:0.195319 137:0.774529 138:0.151242 139:0.138666 140:-0.564357 141:-0.469462 142:-1.0 143:-0.206012 144:-0.92683 145:0.083489 146:0.334866 147:-0.190111 148:-0.286062 149:-0.733809 150:0.432853 151:-0.015385 152:0.113089 153:-0.967067 154:0.231155 155:-0.679536 156:0.717917 157:-0.710963 158:-0.845683 159:-0.296538 160:-0.059396 161:-0.35484 162:-0.841884 163:-0.15587 164:-0.603412 165:0.150247 166:-0.717757 167:-0.698336 168:-0.210223 169:0.440329 170:-0.531957 171:-0.848494 172:0.02333 173:-0.255672 174:0.367302 175:-0.566722 176:-0.79974 177:-0.18506 178:0.363914 179:-0.12017 180:-0.807546 181:0.433979 182:0.15293 183:0.184066 184:-0.335583 185:-0.630501 186:0.756707 187:-0.294118 188:0.638107 189:-0.910602 190:0.131905 191:-0.585379 192:0.283722 193:-0.909689 194:-0.911831 195:0.736898 196:0.684211 197:0.275373 198:-0.90463 199:-0.041124 200:0.031022 201:0.949855 202:0.134484 203:-0.273741 204:-0.566883 205:0.242718 206:-0.44202 207:-0.890916 208:-0.209922 209:-0.981817 210:-0.16047 211:-0.642606 212:-0.707293 213:-0.817562 214:0.458333 215:-0.61669 216:-0.636352 217:-0.235309 218:-0.65065 219:-0.357153 220:-0.772067 221:-0.773763 222:-0.812001 223:-0.402985 224:-0.545888 225:-0.701758 226:-0.214189 227:-1.0 228:-0.015863 229:-0.859461 230:-0.93349 231:-0.488416 232:0.278195 233:-0.082143 234:-0.943488 235:0.647702 236:-0.338622 237:-0.053121 238:-0.700464 239:-0.766842 240:0.997677 241:-0.013987 242:0.866494 243:-0.880324 244:0.191187 245:-0.150418 246:0.962613 247:-0.546451 248:-0.766259 249:0.354891 250:0.207317 251:-0.0171 252:-0.944056 253:-0.158771 254:0.232631 255:-0.068034 256:-0.678202 257:-0.862821 258:-0.206868 259:-0.106383 260:-0.095009 261:-0.953849 262:0.035187 263:-1.0 264:0.846003 265:-0.946414 266:-0.922403 267:-0.400757 268:-0.218855 269:0.13534 270:-0.836143 271:-0.456997 272:-0.056834 273:-0.296908 274:-0.883804 275:-0.942747 276:-0.972874 277:0.012739 278:-0.666974 279:-0.962704 280:-0.336595 281:-0.532381 282:-0.850675 283:-0.823796 284:-0.853865 285:-0.666449 286:0.068966 287:-0.217952 288:-0.895393 289:-0.147451 290:-0.125604 291:-0.718274 292:-0.653386 293:-0.775478 294:-0.5841 295:0.934307 296:-0.075931 297:-0.916685 298:-0.422249 299:-0.324923 300:-0.438856 301:-0.884774 302:-0.937494 303:-0.926247 304:-0.448276 305:-0.472011 306:-0.955752 307:0.33209 308:0.505654 309:0.771258 310:0.04464 311:-0.456846 312:-0.706172 313:-0.083333 314:-0.704026 315:-0.892537 316:0.429395 317:-0.164476 318:0.685476 319:-0.773721 320:-0.90491 321:0.740214 322:-0.122924 323:0.322264 324:-0.989558 325:0.814004 326:0.820936 327:0.827825 328:-0.966058 329:-0.928061 330:0.999361 331:0.658727 332:0.364221 333:-0.392003 334:-0.50905 335:-0.889216 336:-0.423657 337:-0.996961 338:-0.978244 339:-0.240736 340:0.174825 341:-0.039916 342:-0.729835 343:0.180174 344:-1.0 345:0.61919 346:-0.996787 347:-0.97983 348:-0.818196 349:0.122112 350:-0.314239 351:-0.791359 
2.6283725205657245 1:0.385269 2:0.38943 3:0.393864 4:0.146553 5:0.359553 6:-0.103955 7:0.184514 8:-0.107666 9:-0.565227 10:0.427181 11:-0.307072 12:0.193855 13:0.179114 14:0.558697 15:0.260543 16:-0.120093 17:0.888247 18:0.786149 19:-0.255266 20:-0.336346 21:0.348321 22:-0.650129 23:-0.363706 24:0.592382 25:-0.020895 26:0.222243 27:-0.457612 28:-0.530724 29:1.0 30:-0.482691 31:0.213822 32:-0.151378 33:0.527314 34:-0.611757 35:0.673909 36:-0.274018 37:-0.519846 38:0.508821 39:1.0 40:-0.420539 41:-0.776698 42:0.107984 43:-1.0 44:0.071658 45:-1.0 46:-0.324356 47:-0.210638 48:-0.869338 49:-0.223666 50:0.237504 51:0.633324 52:0.650826 53:0.80267 54:0.105201 55:0.20198 56:-0.835177 57:-0.113666 58:-0.433034 59:-0.948299 60:-0.370385 61:0.097592 62:-0.097432 63:-0.928629 64:-0.452887 65:-0.375487 66:-0.085038 67:-0.817801 68:-0.764863 69:-0.068871 70:0.486957 71:-0.041877 72:-0.362078 73:0.045445 74:-0.975934 75:-0.952304 76:-0.892278 77:-1.0 78:-0.275017 79:-0.410959 80:-0.474207 81:-0.555686 82:1.0 83:-0.740247 84:-0.186083 85:-0.276318 86:0.460906 87:-0.395378 88:0.192771 89:-0.528745 90:1.0 91:0.738078 92:0.606309 93:-0.521486 94:0.465813 95:-0.321481 96:0.233247 97:0.301887 98:-0.062326 99:-0.934244 100:0.214311 101:-0.235072 102:0.120645 103:-0.593376 104:-0.704973 105:-0.3728 106:0.576923 107:-0.746151 108:-0.807444 109:0.129575 110:0.509522 111:-0.70362 112:0.630163 113:0.606381 114:-0.699513 115:0.317919 116:-0.275934 117:-0.655769 118:0.08531 119:1.0 120:0.708451 121:1.0 122:0.723171 123:-0.401631 124:-0.234568 125:-0.482139 126:-0.518273 127:-0.469219 128:-1.0 129:0.550617 130:-1.0 131:-1.0 132:-0.952348 133:0.540984 134:-0.676494 135:-0.99621 136:0.397101 137:0.083674 138:0.18847 139:-0.114917 140:-0.501401 141:-0.236792 142:-0.060241 143:0.318701 144:-0.782389 145:0.127095 146:-0.696321 147:-0.13831 148:-0.575661 149:-0.886534 150:0.433906 151:-1.0 152:0.087434 153:-0.961499 154:-0.299528 155:-0.133878 156:0.721907 157:-0.472806 158:-0.619886 159:-0.259821 160:0.096397 161:-0.199482 162:-0.784175 163:-0.567413 164:-1.0 165:-0.226162 166:-1.0 167:-0.950116 168:-0.23327 169:0.176955 170:-0.720466 171:-0.880492 172:-0.064273 173:-0.641817 174:0.38438 175:-0.726992 176:-0.913491 177:-0.167254 178:0.070336 179:-0.052756 180:-0.842494 181:-0.726099 182:-0.478263 183:0.049436 184:-0.826822 185:-0.895805 186:0.717806 187:-0.392157 188:0.472271 189:-0.900022 190:-0.02167 191:-0.714217 192:0.412943 193:-0.767977 194:-0.748861 195:0.708667 196:0.236842 197:0.040236 198:-0.760019 199:-0.188051 200:-0.88316 201:0.969344 202:-0.411922 203:-0.342955 204:-0.470292 205:0.495146 206:-0.20302 207:-0.621812 208:-0.645201 209:-0.01402 210:-0.251138 211:-0.340132 212:-0.819116 213:-0.789754 214:-0.166667 215:-0.502589 216:-0.981306 217:-0.186735 218:0.163291 219:0.002841 220:0.069596 221:-0.285924 222:-0.908675 223:0.134328 224:-0.707093 225:-0.745048 226:-0.108999 227:0.726163 228:-0.199002 229:0.182223 230:-0.207865 231:-0.547443 232:0.709586 233:-0.223755 234:-0.814367 235:0.906092 236:-0.918901 237:-0.158744 238:-1.0 239:-0.963395 240:0.995448 241:0.619755 242:0.789011 243:-0.943459 244:0.296713 245:0.096501 246:0.968717 247:-0.556326 248:-0.752553 249:0.351965 250:-0.47561 251:-0.047204 252:-0.940225 253:-0.215885 254:-0.495375 255:-0.281792 256:-0.86642 257:-0.989846 258:-0.209301 259:-0.151596 260:-0.202135 261:-0.97257 262:0.019947 263:-0.55092 264:0.82948 265:-0.675298 266:-0.773721 267:-0.40826 268:-0.097643 269:-0.089202 270:-0.900014 271:-0.384007 272:-0.50167 273:-0.264089 274:-0.885906 275:-0.846525 276:-0.968616 277:0.235669 278:-0.519031 279:-0.768394 280:-0.055418 281:-0.157235 282:-0.819192 283:-0.743958 284:-0.862392 285:-0.669388 286:-0.021552 287:-0.277097 288:-0.967257 289:-0.183511 290:-0.172595 291:-0.783029 292:-0.836056 293:-0.902469 294:-0.588235 295:0.182482 296:-0.153833 297:-0.941619 298:-0.430719 299:-0.359276 300:-0.200422 301:-0.813223 302:-0.874682 303:-0.916618 304:0.576355 305:-0.19144 306:-0.952766 307:-0.198825 308:-0.098756 309:0.78251 310:-0.232458 311:-0.632261 312:-0.604274 313:-0.138889 314:-0.506609 315:-0.874082 316:0.613485 317:0.616187 318:0.701836 319:-0.550265 320:-0.776389 321:0.73857 322:-0.468439 323:0.27467 324:-0.999954 325:-0.025421 326:-0.001189 327:0.023526 328:-0.181419 329:-0.26872 330:0.827717 331:0.317691 332:-0.288868 333:-0.231015 334:-0.463714 335:0.554957 336:-0.376065 337:-0.115624 338:-0.259653 339:-0.234677 340:0.447552 341:-0.194228 342:-0.414013 343:0.147954 344:1.0 345:0.824118 346:-0.09739 347:-0.349686 348:-0.701256 349:-0.260726 350:0.238753 351:-0.610859 
13.158248140287116 1:-0.202617 2:-0.198983 3:-0.195199 4:-0.300566 5:0.094248 6:-0.566268 7:0.007565 8:-0.078003 9:-0.342405 10:0.198084 11:-0.066694 12:-0.087203 13:0.06374 14:0.273302 15:-0.340922 16:-0.288779 17:0.410461 18:-0.279751 19:0.290447 20:0.570056 21:-1.0 22:0.513357 23:0.912888 24:0.827759 25:-0.58209 26:0.520529 27:-0.224818 28:0.005548 29:-1.0 30:-0.015765 31:-0.455207 32:-0.746337 33:-0.638988 34:-0.724433 35:-0.618054 36:-0.901741 37:-0.011867 38:-0.618167 39:0.520747 40:0.223893 41:0.645915 42:-0.148484 43:-0.042857 44:-0.24481 45:0.386849 46:-0.105461 47:0.027223 48:-0.846285 49:0.400049 50:0.508459 51:-0.076166 52:0.082645 53:-0.220214 54:-0.030951 55:-0.469015 56:-0.682217 57:-0.556053 58:0.067662 59:0.164521 60:-0.600318 61:-0.820025 62:-0.443192 63:-0.447411 64:-0.383136 65:-0.748961 66:-0.458657 67:-0.03166 68:-0.234236 69:-0.699118 70:0.182609 71:-0.434904 72:-0.280112 73:0.08584 74:-0.755079 75:-0.993578 76:-0.076523 77:0.483565 78:-0.102966 79:0.068493 80:-0.146428 81:0.582546 82:0.373472 83:-0.715128 84:-0.139829 85:-0.223531 86:-0.049015 87:-0.483304 88:-0.012048 89:-0.639539 90:0.122483 91:-0.216951 92:-0.098364 93:-0.225663 94:-0.356016 95:-0.920124 96:0.144457 97:-0.018868 98:-0.117793 99:-1.0 100:0.033765 101:-0.364371 102:-0.027583 103:0.112259 104:0.820068 105:-1.0 106:0.009615 107:-1.0 108:-0.086821 109:0.668852 110:-0.121252 111:-0.69425 112:-0.188264 113:-0.236932 114:-0.532372 115:0.364162 116:0.141713 117:-0.671302 118:0.722289 119:0.6161 120:0.686008 121:0.42201 122:0.031532 123:-0.285101 124:-0.728395 125:-0.497434 126:-0.660261 127:-0.519275 128:-0.425416 129:0.731359 130:-0.358222 131:-0.708803 132:-0.948306 133:0.672131 134:-0.686858 135:-0.943438 136:0.132137 137:0.010458 138:0.181934 139:-0.167181 140:-0.661874 141:-0.501457 142:0.421687 143:-0.333919 144:-0.897035 145:-0.425818 146:0.390792 147:-0.014353 148:-0.240034 149:-0.499125 150:0.468549 151:-0.046154 152:0.236347 153:-0.892489 154:-0.069984 155:-0.451158 156:0.67382 157:-0.36748 158:-0.68468 159:-0.268778 160:0.127556 161:-0.218573 162:-0.854851 163:0.066632 164:-0.351678 165:-0.150773 166:-0.521243 167:-0.687089 168:-0.1179 169:0.559671 170:-0.267175 171:-0.849452 172:-0.505234 173:0.125843 174:0.274195 175:-0.321823 176:-0.557212 177:-0.169718 178:-0.565749 179:-0.030917 180:-0.656665 181:0.36332 182:-0.595601 183:0.106354 184:-0.696962 185:-0.770671 186:0.778582 187:-0.019608 188:0.973811 189:-0.721379 190:-0.438955 191:-0.660563 192:0.490284 193:-0.717659 194:-0.735303 195:0.739157 196:0.684211 197:0.27078 198:-0.882979 199:-0.358678 200:-0.679533 201:0.966662 202:-0.409106 203:-0.651462 204:-0.477632 205:0.320388 206:-0.217975 207:-0.722937 208:-0.148687 209:-0.225509 210:0.018955 211:-0.174691 212:-0.52773 213:-0.623344 214:0.194444 215:-0.135724 216:-0.718089 217:-0.391469 218:-0.263002 219:-0.527578 220:-0.479265 221:-0.664689 222:-0.831199 223:-0.522388 224:-0.67512 225:-0.857168 226:-0.255608 227:1.0 228:-0.0048 229:-0.274832 230:-0.640514 231:-0.500973 232:0.699248 233:-0.158205 234:-0.942513 235:0.772165 236:-0.251591 237:-0.121797 238:-0.628413 239:-0.765264 240:0.992434 241:0.493007 242:0.689542 243:-0.946679 244:0.170458 245:0.34988 246:0.992194 247:-0.583757 248:-0.742841 249:0.358664 250:-0.158537 251:0.024342 252:-0.951596 253:-0.305536 254:0.418724 255:-0.064534 256:-0.59993 257:-0.764412 258:-0.203274 259:0.276596 260:-0.031597 261:-0.907017 262:-0.096725 263:0.057159 264:0.678507 265:-0.702963 266:-0.913156 267:-0.404309 268:-0.441077 269:-0.024505 270:-0.964187 271:-0.674788 272:0.227046 273:-0.349548 274:-0.742111 275:-0.904108 276:-0.984586 277:-0.22293 278:-0.950419 279:-0.965305 280:-0.344467 281:-6.0E-4 282:-0.84501 283:-0.587152 284:-0.802073 285:-0.673065 286:-0.137931 287:-0.307307 288:-0.969533 289:-0.227275 290:-0.596422 291:-0.714045 292:-0.804128 293:-0.801652 294:-0.591434 295:0.138686 296:-0.242984 297:-0.810013 298:-0.377762 299:-0.245062 300:0.711319 301:-0.807867 302:-0.906305 303:-0.923834 304:-0.527094 305:-0.36127 306:-0.932782 307:0.328609 308:-0.395994 309:0.851916 310:-0.403345 311:-0.588824 312:-0.684797 313:-0.972222 314:-0.708066 315:-0.803784 316:0.270244 317:-0.267392 318:0.699357 319:-0.636947 320:-0.76597 321:0.748572 322:-0.069767 323:0.482019 324:-0.881585 325:0.23121 326:0.249907 327:0.268939 328:-0.326276 329:-0.301503 330:0.877743 331:-0.044392 332:-0.469588 333:0.002215 334:-0.765986 335:1.5E-5 336:-0.40079 337:-0.259458 338:-0.255631 339:-0.275456 340:0.342657 341:-0.368678 342:-0.012766 343:0.462603 344:0.227756 345:0.438202 346:-0.202418 347:-0.209314 348:-0.687037 349:-0.115512 350:0.573587 351:-0.186802 
9.716981265025733 1:1.0 2:1.0 3:1.0 4:0.6923 5:0.310744 6:-0.525913 7:0.554921 8:-0.73481 9:-1.0 10:0.410163 11:-0.147591 12:-0.113651 13:-0.496593 14:-0.416812 15:-0.766417 16:-0.420254 17:0.021119 18:-0.779496 19:1.0 20:-0.849122 21:0.367539 22:0.061914 23:-0.1462 24:0.451033 25:-0.441791 26:0.060529 27:-0.500457 28:0.542916 29:-0.595067 30:-0.139825 31:0.403863 32:0.043351 33:1.0 34:-0.009185 35:1.0 36:0.004582 37:0.144693 38:-0.727859 39:0.495655 40:-0.718711 41:-0.936272 42:-0.384944 43:-0.228571 44:-0.636175 45:-0.391487 46:-0.165382 47:0.01263 48:-0.930154 49:0.405563 50:-0.312316 51:0.446064 52:-0.227273 53:0.433412 54:-0.738809 55:-0.651082 56:-0.204566 57:-0.230366 58:0.028735 59:0.180544 60:-0.659721 61:-0.348542 62:-0.513768 63:-0.077995 64:0.257611 65:-0.949994 66:-0.337509 67:-0.559229 68:-0.276453 69:0.884732 70:-0.095652 71:1.0 72:0.832458 73:-0.801794 74:0.421215 75:-0.94327 76:-0.079186 77:-0.136062 78:0.521091 79:-0.424658 80:0.543078 81:-0.070441 82:-0.671662 83:-0.061869 84:0.773468 85:-0.289468 86:-0.020692 87:-0.571032 88:0.927711 89:-0.789561 90:0.216361 91:0.558308 92:-0.817569 93:-0.147315 94:-1.0 95:-1.0 96:0.346432 97:0.283019 98:0.231847 99:-0.633005 100:-0.564946 101:0.53464 102:0.07805 103:0.52642 104:-0.001972 105:0.362865 106:-0.307692 107:-0.249539 108:-0.905245 109:0.314794 110:1.0 111:-0.61114 112:1.0 113:0.751154 114:-0.518963 115:-0.375723 116:-0.122007 117:-0.787493 118:0.18679 119:0.623893 120:0.631727 121:-0.356291 122:-0.792133 123:-0.175905 124:-0.08642 125:-0.492003 126:-1.0 127:-0.237881 128:-0.147228 129:0.703878 130:-0.244839 131:-0.562275 132:-0.96026 133:0.47541 134:-0.754579 135:-0.861899 136:0.557717 137:-0.160463 138:0.183283 139:0.14025 140:-0.431613 141:-0.433859 142:-0.51004 143:-0.142122 144:-0.846748 145:-0.083876 146:0.115318 147:-0.024975 148:-0.461152 149:-0.692747 150:0.432899 151:-0.076923 152:0.096647 153:-0.927034 154:0.075851 155:-0.724169 156:0.703995 157:-0.387108 158:-0.801314 159:-0.224024 160:0.271665 161:-0.110111 162:-0.91822 163:0.334431 164:0.282986 165:-0.397489 166:-0.452258 167:-0.765128 168:-0.092012 169:0.078189 170:-0.228339 171:-0.925542 172:1.0 173:-0.729323 174:0.403361 175:-0.883709 176:-0.938559 177:-0.149017 178:0.363914 179:0.065548 180:-0.752251 181:0.402049 182:0.063107 183:0.128213 184:-0.514745 185:-0.704257 186:0.700338 187:0.470588 188:0.3679 189:-0.908583 190:-0.22972 191:-0.830026 192:0.474239 193:-0.686553 194:-0.621099 195:0.727297 196:0.578947 197:0.189408 198:-0.795381 199:-0.026711 200:-0.653975 201:0.957046 202:-0.830058 203:-0.942526 204:-0.701205 205:0.165049 206:-0.707098 207:-0.883782 208:-0.688613 209:-0.183086 210:0.025395 211:-0.216697 212:-0.629351 213:-0.847251 214:0.388889 215:-0.651104 216:-0.813276 217:-1.0 218:1.0 219:1.0 220:0.338729 221:-0.244513 222:-0.956845 223:-0.402985 224:-0.675947 225:-0.836256 226:-0.273033 227:0.59403 228:-0.94139 229:-0.540456 230:-0.848506 231:-0.486759 232:0.097744 233:-0.069391 234:-0.995401 235:0.698593 236:-0.199636 237:-0.121223 238:-0.633646 239:-0.788268 240:0.994217 241:-0.081322 242:0.740831 243:-0.969741 244:-0.047331 245:0.0281 246:0.967577 247:-0.462277 248:-0.645024 249:0.367376 250:-0.304878 251:0.083608 252:-0.875797 253:-0.136787 254:-0.516827 255:-0.292735 256:-0.8327 257:-0.995001 258:-0.205714 259:-0.234043 260:-0.028784 261:-0.971455 262:0.005996 263:0.11685 264:0.679649 265:-0.884023 266:-1.0 267:-0.404078 268:-0.649832 269:-0.021282 270:-1.0 271:-0.322947 272:0.142613 273:-0.354235 274:-0.765019 275:-0.912343 276:-0.97027 277:-0.936306 278:-0.641728 279:-0.971376 280:-0.509226 281:-0.813889 282:-0.688977 283:-1.0 284:-1.0 285:-0.66927 286:0.793103 287:-0.316438 288:-0.947208 289:-0.175912 290:0.115104 291:-0.711835 292:-0.68094 293:-0.80497 294:-0.583724 295:0.664234 296:-0.063418 297:-0.932703 298:-0.604814 299:-0.212599 300:-0.124173 301:-0.734038 302:-0.763788 303:-0.915328 304:0.024631 305:-0.186972 306:-0.865263 307:-0.245844 308:-0.226347 309:0.802529 310:-0.682453 311:-0.934658 312:-0.677304 313:-0.277778 314:-0.721825 315:-0.949771 316:0.63722 317:-0.323489 318:0.719008 319:-0.661978 320:-0.833493 321:0.73912 322:0.461794 323:0.282625 324:-0.973703 325:-0.471736 326:-0.432666 327:-0.392892 328:-0.117488 329:-0.215724 330:0.907287 331:0.042199 332:0.382853 333:-0.77493 334:-0.446885 335:0.412704 336:-0.397109 337:-0.398877 338:-0.53112 339:-0.23918 340:0.454545 341:-0.198822 342:-0.684929 343:1.0 344:0.205704 345:0.523525 346:-0.554236 347:-0.684609 348:-0.799388 349:-0.590759 350:0.057745 351:-0.772037 
6.492207141215274 1:-0.859959 2:-0.860721 3:-0.861472 4:-0.674703 5:-0.124501 6:-0.751408 7:0.242757 8:0.128814 9:0.410221 10:-0.470502 11:0.601339 12:-0.717523 13:-0.975506 14:-0.722369 15:-0.837401 16:-0.503575 17:-0.354715 18:0.228362 19:0.127792 20:0.147689 21:0.316616 22:-0.607888 23:-0.675184 24:0.795215 25:-0.146269 26:0.732931 27:-0.714568 28:-0.437101 29:0.194292 30:-0.59732 31:-0.271534 32:-0.309253 33:-0.069487 34:0.284752 35:0.171824 36:-0.532716 37:-1.0 38:0.128327 39:0.469653 40:-0.306975 41:-0.837965 42:-0.033261 43:0.378571 44:-0.117007 45:-0.885739 46:-0.400125 47:0.15671 48:-0.81659 49:0.541772 50:0.762142 51:0.174029 52:-0.140496 53:0.116177 54:-0.194398 55:0.030136 56:-0.523889 57:-0.132596 58:0.32097 59:0.317709 60:-0.75666 61:-0.57161 62:-0.571715 63:-0.29503 64:0.067165 65:0.897406 66:-0.296074 67:0.831144 68:-0.307518 69:0.926375 70:0.226087 71:0.498932 72:-0.707981 73:0.427104 74:0.315466 75:-0.972613 76:0.370594 77:0.171614 78:-0.358629 79:-0.068493 80:-0.365503 81:-0.399758 82:-0.619822 83:-0.511513 84:-0.196089 85:-0.375211 86:-0.789048 87:0.104673 88:-0.879518 89:0.226045 90:-0.457806 91:-0.013304 92:-0.262563 93:-0.127404 94:0.149514 95:-0.111761 96:0.839445 97:0.415094 98:0.442353 99:-0.348653 100:0.210792 101:0.213465 102:0.087045 103:0.354753 104:0.088402 105:-0.349356 106:0.168269 107:-0.590127 108:-0.751056 109:-0.477313 110:-0.614174 111:-0.687414 112:-0.232034 113:-0.221605 114:-0.787084 115:-0.63078 116:-0.926139 117:-0.063239 118:0.044615 119:-0.948436 120:-1.0 121:-0.967738 122:-0.937209 123:-0.099197 124:-0.234568 125:0.037709 126:-0.798213 127:-0.621779 128:-0.764136 129:0.797666 130:-0.766185 131:-0.908894 132:-0.956406 133:0.828893 134:-0.77688 135:-0.9679 136:-1.0 137:0.128907 138:0.616437 139:-0.192318 140:-0.555755 141:-0.370594 142:-0.702811 143:0.006028 144:-0.774051 145:-0.456286 146:0.035434 147:-0.178468 148:-0.408705 149:-0.735406 150:0.438761 151:-0.446154 152:0.12853 153:-0.950911 154:0.656397 155:-0.256313 156:0.24551 157:-0.331483 158:-0.759191 159:-0.221827 160:-0.620253 161:-0.110692 162:-0.916809 163:-0.277604 164:-0.211444 165:-0.232337 166:-0.503678 167:-0.644617 168:-0.144676 169:-0.053498 170:-0.345814 171:-0.89198 172:-1.0 173:0.041091 174:0.360865 175:0.355732 176:-0.172327 177:-0.308525 178:-1.0 179:-0.218034 180:-0.602073 181:-0.207213 182:0.647997 183:-1.0 184:-0.410465 185:-0.767752 186:0.735094 187:-0.137255 188:0.554578 189:-0.979222 190:-0.381919 191:0.134053 192:0.264286 193:-0.583163 194:-0.70806 195:0.721441 196:-1.0 197:0.162385 198:-0.93868 199:-0.424941 200:-0.676183 201:0.966496 202:-0.174116 203:-0.032437 204:-0.686259 205:0.137136 206:-0.602581 207:-0.573663 208:-0.173237 209:1.0 210:-0.350972 211:0.171512 212:-0.559966 213:-0.713544 214:0.444444 215:-0.423772 216:-1.0 217:-0.030865 218:-0.410229 219:-0.209407 220:-0.541638 221:-0.719488 222:-0.809429 223:-0.223881 224:-0.411057 225:-0.888152 226:-0.090702 227:-0.911756 228:-0.184049 229:-0.841067 230:-0.904979 231:-0.487824 232:0.699248 233:-0.065231 234:-0.898636 235:0.958779 236:-0.704704 237:-0.10416 238:-0.877352 239:-0.915693 240:0.994491 241:0.302884 242:0.685866 243:-0.95484 244:0.414091 245:-0.176587 246:0.971215 247:-0.724152 248:-0.855295 249:0.35011 250:-0.109756 251:-0.099758 252:-0.927455 253:-0.208982 254:0.130519 255:-0.262212 256:-0.743307 257:-0.957033 258:-0.208275 259:-1.0 260:-0.134089 261:-0.989102 262:-0.146651 263:-0.185329 264:0.845916 265:-0.750135 266:-0.917307 267:-0.404511 268:0.427609 269:-0.029732 270:-0.960669 271:-0.909447 272:1.0 273:-0.409759 274:-0.630599 275:-0.849028 276:-0.971889 277:-0.121019 278:-0.70756 279:-0.996702 280:-0.101535 281:-0.06289 282:-0.827717 283:-0.508476 284:-0.689568 285:-0.66377 286:-0.172414 287:-0.213452 288:-0.907223 289:-0.186514 290:0.293199 291:-0.690459 292:-0.60082 293:-0.848721 294:-0.582777 295:0.182482 296:-0.066718 297:-0.97707 298:-0.43569 299:-0.549634 300:-0.188798 301:-0.828373 302:-0.929355 303:-0.927466 304:0.472906 305:-0.460757 306:-0.908796 307:0.059149 308:-0.244521 309:0.801224 310:-0.186825 311:-0.562292 312:-0.681055 313:-0.5 314:-0.677661 315:-0.878885 316:0.392218 317:0.77148 318:0.715266 319:-0.358944 320:-0.675772 321:0.74155 322:-0.122924 323:0.304508 324:-0.994173 325:0.885412 326:0.889679 327:0.89392 328:-0.965493 329:-0.901109 330:0.999745 331:-1.0 332:0.72703 333:-0.526138 334:-0.313638 335:-0.620606 336:-0.358121 337:-0.980252 338:-0.952934 339:-0.241245 340:0.566434 341:-0.196879 342:-0.734352 343:-0.145102 344:-0.934667 345:0.554216 346:-0.957174 347:-0.925172 348:-0.81989 349:0.359736 350:-0.940718 351:-0.585113 
9.025342726792092 1:-0.963025 2:-0.964173 3:-0.96535 4:-0.784574 5:-0.66398 6:-0.86793 7:-1.0 8:-0.669684 9:-0.693961 10:-0.496676 11:0.59755 12:-0.695883 13:-0.657837 14:-0.626971 15:-0.842179 16:-0.322049 17:-0.23016 18:-0.576046 19:-0.10199 20:0.15831 21:0.10386 22:-0.29864 23:-0.046926 24:0.658102 25:-0.880597 26:0.371798 27:-0.307948 28:-0.428929 29:-0.420592 30:-0.057486 31:0.124548 32:0.166064 33:-0.592816 34:0.137783 35:-0.410783 36:-0.275784 37:0.54417 38:-0.242458 39:0.606586 40:-0.545224 41:-0.739125 42:-0.453362 43:-0.428571 44:-0.679029 45:-0.375248 46:-0.224692 47:-0.151454 48:-0.805438 49:-0.319377 50:-0.307322 51:0.706639 52:0.818182 53:0.975331 54:-0.230265 55:0.139622 56:-0.556139 57:-0.279486 58:0.019425 59:-0.11168 60:-0.518753 61:-0.875792 62:-0.352372 63:-0.321121 64:-0.458407 65:0.471412 66:-0.766788 67:0.153379 68:0.371258 69:0.65258 70:0.73913 71:0.508059 72:0.286715 73:-0.29368 74:0.176221 75:-0.96511 76:-0.184236 77:-0.410692 78:-0.13661 79:0.09589 80:-0.180878 81:-0.898863 82:0.193095 83:-0.722406 84:-0.15885 85:0.869345 86:1.0 87:0.428642 88:-0.012048 89:0.231957 90:0.807125 91:-0.21463 92:0.513042 93:-0.345446 94:0.196052 95:-0.387052 96:0.106892 97:0.924528 98:-0.151148 99:-0.954886 100:0.243534 101:-0.82712 102:0.112729 103:-0.890257 104:-0.827141 105:0.384562 106:0.057692 107:0.110497 108:-0.508946 109:0.089901 110:-0.693897 111:-0.655667 112:-0.771224 113:-0.810452 114:-0.606096 115:-0.098266 116:-0.015767 117:-0.926477 118:0.083759 119:-0.666418 120:0.585763 121:-0.980436 122:-0.995597 123:-0.127743 124:-0.259259 125:-0.373173 126:-0.900598 127:0.014872 128:-0.240164 129:0.779816 130:-0.45232 131:-0.666962 132:-0.949583 133:0.573771 134:-0.689317 135:-0.874304 136:1.0 137:0.199781 138:0.179968 139:-0.136891 140:-0.528118 141:-0.335793 142:0.13253 143:0.085028 144:-0.857317 145:0.767078 146:0.393765 147:1.0 148:-0.638976 149:-0.92357 150:0.447818 151:0.015385 152:0.173963 153:-0.997479 154:-0.142193 155:-0.525352 156:0.703383 157:-0.295942 158:-0.755646 159:-0.239743 160:-0.170399 161:-0.152767 162:-0.887631 163:-0.274978 164:-0.257184 165:0.159923 166:-0.7605 167:-0.850766 168:-0.281024 169:-0.502058 170:-0.836349 171:-0.896852 172:0.125266 173:0.284859 174:0.29098 175:-0.340647 176:-0.691721 177:-0.080706 178:0.559633 179:0.268732 180:-0.831806 181:0.557102 182:-0.361662 183:0.067402 184:-0.654814 185:-0.741875 186:0.717223 187:-0.372549 188:0.466569 189:-0.884919 190:0.470987 191:0.404843 192:0.63791 193:-0.26455 194:-0.629648 195:0.683571 196:0.720395 197:0.064771 198:-0.932717 199:-0.181188 200:0.036631 201:0.955857 202:-0.115472 203:-0.368806 204:-0.855935 205:0.242718 206:-0.851165 207:-0.801016 208:-0.350736 209:-0.619536 210:-0.016979 211:-0.651193 212:-0.841921 213:-0.886759 214:0.777778 215:-1.0 216:-0.773442 217:-0.321405 218:-0.428282 219:-0.172185 220:-0.782112 221:-0.93454 222:-0.811672 223:0.58209 224:-0.540887 225:-0.976816 226:-0.278852 227:-0.876015 228:-0.176 229:-1.0 230:-1.0 231:-0.489504 232:0.592105 233:-0.140363 234:-0.937491 235:0.734945 236:-0.368048 237:-0.118099 238:-0.735066 239:-0.822503 240:0.996287 241:0.580146 242:0.817493 243:-0.946774 244:0.201675 245:0.493105 246:0.959935 247:-0.485167 248:-0.745509 249:0.351327 250:-0.079268 251:-0.046959 252:-0.961284 253:-0.248633 254:-0.334058 255:-0.063478 256:-0.869326 257:-0.961872 258:-0.207586 259:0.404255 260:-0.112785 261:-0.981618 262:0.16354 263:0.453374 264:-1.0 265:-0.656496 266:-0.766808 267:-0.405014 268:0.96633 269:-0.034707 270:-0.905333 271:-0.261639 272:-0.069814 273:-0.393214 274:-0.880055 275:-0.975156 276:-0.968521 277:0.235669 278:-0.521195 279:-0.964356 280:-0.080142 281:-0.232103 282:-0.828144 283:-0.697494 284:-0.840469 285:-0.670138 286:0.172414 287:-0.284741 288:-0.962377 289:-0.059772 290:-0.304518 291:-0.720591 292:-0.742993 293:-0.908604 294:-0.590527 295:0.60333 296:-0.199528 297:-0.955203 298:-0.30816 299:0.752189 300:-0.537921 301:-0.546152 302:-0.789592 303:-0.929738 304:-0.29064 305:-0.364738 306:-0.979051 307:-0.075175 308:-0.72976 309:0.797717 310:-0.598361 311:-0.612754 312:-0.614882 313:-0.559028 314:-0.473043 315:-0.758049 316:0.263094 317:-0.533916 318:0.716296 319:-0.838155 320:-0.959938 321:0.738754 322:-0.149502 323:0.262263 324:-0.99106 325:1.0 326:1.0 327:1.0 328:-0.968599 329:-1.0 330:0.999757 331:0.605617 332:0.728961 333:-0.903887 334:-0.484037 335:-0.977336 336:-0.499263 337:-1.0 338:-0.97936 339:-0.240869 340:0.104895 341:-0.074879 342:-0.75415 343:0.113 344:-0.854679 345:0.456654 346:-0.978638 347:-0.965121 348:-0.817982 349:0.09571 350:-0.245816 351:-0.77765 
5.9755149953150815 1:-1.0 2:-1.0 3:-1.0 4:-1.0 5:-1.0 6:-0.88809 7:0.105431 8:-0.910863 9:-0.825693 10:-1.0 11:1.0 12:-1.0 13:-0.668779 14:-0.56409 15:-0.789448 16:0.705822 17:-0.020163 18:-0.489483 19:0.398114 20:-0.929981 21:0.353357 22:-0.351672 23:0.121267 24:0.472008 25:-0.767164 26:0.003089 27:-0.024371 28:0.279855 29:-0.972558 30:-0.150821 31:-0.27897 32:0.019642 33:-0.611836 34:0.24556 35:-0.525621 36:-0.009018 37:-0.272174 38:0.054947 39:0.401269 40:0.137077 41:0.52844 42:-1.0 43:-0.157143 44:-0.971789 45:0.859463 46:-0.476816 47:0.30992 48:-0.797773 49:0.619764 50:0.051017 51:-0.002491 52:-0.206612 53:-0.066833 54:-0.53758 55:0.106399 56:-1.0 57:-0.017204 58:-1.0 59:-1.0 60:-0.537633 61:0.13815 62:-0.395878 63:-0.87532 64:0.570491 65:0.32811 66:-0.171851 67:-0.194444 68:-0.521863 69:0.203889 70:0.565217 71:0.240646 72:-0.81551 73:-0.285208 74:-0.016859 75:-0.969883 76:-0.083004 77:-0.384519 78:0.183171 79:-0.089041 80:0.17098 81:-0.631637 82:-1.0 83:0.460708 84:0.011833 85:0.219095 86:-0.134852 87:-0.332397 88:0.638554 89:-0.367124 90:-0.356225 91:-0.163568 92:-0.291311 93:-1.0 94:-0.400721 95:-0.402536 96:0.078526 97:0.735849 98:-0.191826 99:-0.588389 100:0.354431 101:-0.456822 102:0.113746 103:0.411297 104:1.0 105:0.123392 106:-0.432692 107:-0.353032 108:-0.336007 109:-0.038931 110:-1.0 111:-0.679324 112:-1.0 113:-1.0 114:-0.611472 115:-0.352601 116:-0.001928 117:-0.903503 118:-0.102218 119:0.278088 120:1.0 121:-0.487539 122:-0.721307 123:-0.122534 124:-0.432099 125:-0.266881 126:-0.935934 127:-0.576998 128:-0.956461 129:0.720997 130:-0.690861 131:-0.810188 132:-0.945897 133:0.622951 134:-0.608306 135:-0.913704 136:-0.156826 137:-0.387312 138:0.175087 139:-0.377489 140:-0.490277 141:-0.327964 142:-0.51004 143:0.180249 144:-0.608759 145:0.158386 146:0.148528 147:-0.016495 148:-0.239439 149:-0.629424 150:0.459207 151:-0.753846 152:0.204936 153:-0.949121 154:0.128423 155:0.256983 156:-1.0 157:-0.081257 158:-0.692193 159:-0.268248 160:-0.433301 161:-0.206755 162:-0.947658 163:0.190769 164:-0.801171 165:-0.462808 166:-0.908052 167:-0.860804 168:-0.172394 169:-0.084362 170:-0.32909 171:-0.87951 172:0.014291 173:-0.146162 174:0.381006 175:-0.243438 176:-0.726666 177:-0.100797 178:-0.125382 179:0.179202 180:-0.867372 181:-0.322249 182:0.241313 183:0.366255 184:-0.462675 185:-0.72019 186:0.695009 187:-0.745098 188:0.348133 189:-0.924212 190:-0.800339 191:0.108803 192:0.396502 193:-0.406153 194:-0.725382 195:0.705985 196:0.473684 197:0.11524 198:-0.957203 199:0.006466 200:-0.781492 201:0.969743 202:-1.0 203:-0.946788 204:-0.738197 205:0.436893 206:-0.871855 207:-0.778217 208:-0.324724 209:-0.039775 210:-0.512227 211:-0.086772 212:-0.516708 213:-0.812179 214:0.222222 215:-0.562484 216:-0.827684 217:-0.236897 218:-0.885289 219:0.056577 220:-1.0 221:-1.0 222:-0.807815 223:-0.343284 224:-0.420268 225:-0.934048 226:-0.13944 227:0.31931 228:-0.345747 229:-0.6176 230:-0.894701 231:-0.490974 232:0.639098 233:-0.121472 234:-1.0 235:0.70205 236:-0.369403 237:0.143629 238:-0.870369 239:-0.929897 240:0.99437 241:0.556381 242:0.678079 243:-0.982191 244:0.160653 245:0.181816 246:0.96001 247:-0.583071 248:-0.673385 249:0.350762 250:-0.256098 251:-0.063026 252:-0.877423 253:-0.258435 254:0.056744 255:-0.197162 256:-0.702713 257:-0.894617 258:-0.204724 259:0.446809 260:-0.036073 261:-0.965901 262:-0.025614 263:0.739216 264:0.916046 265:-0.594804 266:-0.732728 267:-0.405531 268:-0.340067 269:-0.038647 270:-0.917796 271:-0.516493 272:-0.492424 273:-0.452448 274:-0.944933 275:-0.949352 276:-0.97682 277:0.490446 278:-0.81234 279:-0.931015 280:-0.566063 281:0.070996 282:-0.943928 283:-0.772374 284:-0.929756 285:-0.667605 286:0.5 287:-0.245388 288:-0.986856 289:-0.268794 290:0.241584 291:-0.725007 292:-0.686269 293:-0.836679 294:-0.592325 295:0.941606 296:-0.220581 297:-0.972395 298:-0.267465 299:-0.222098 300:-0.328118 301:-0.668683 302:-0.848272 303:-0.912923 304:0.763547 305:-0.167897 306:-0.976831 307:0.076106 308:-1.0 309:0.804161 310:-1.0 311:-0.967259 312:-0.655412 313:-0.25 314:-0.634677 315:-0.818718 316:0.572328 317:0.114768 318:0.703604 319:-0.555579 320:-0.778421 321:0.737383 322:-0.282392 323:0.255816 324:-0.971381 325:0.962913 326:0.964464 327:0.965984 328:-1.0 329:-0.993149 330:1.0 331:1.0 332:1.0 333:-0.754462 334:-0.481381 335:-0.492324 336:-0.417459 337:-0.982057 338:-0.966181 339:-0.240873 340:0.146853 341:-0.103088 342:-0.81536 343:0.234689 344:-0.691638 345:1.0 346:-0.957162 347:-0.982735 348:-0.819014 349:-0.194719 350:-0.639698 351:-0.874961 
2.3730311835223503 1:0.15486 2:0.137939 3:0.12092 4:0.889393 5:1.0 6:0.516273 7:0.409205 8:-0.422962 9:-0.763803 10:1.0 11:-1.0 12:1.0 13:1.0 14:1.0 15:0.918386 16:-0.010944 17:0.512864 18:-0.627012 19:-0.589768 20:1.0 21:0.138342 22:-0.204332 23:0.126922 24:0.726635 25:-0.629851 26:0.488408 27:-0.240855 28:-0.647539 29:0.283631 30:-0.697564 31:0.562701 32:0.622868 33:-0.152024 34:0.096142 35:0.005266 36:-0.061371 37:-0.154144 38:-0.324847 39:0.568615 40:0.37169 41:0.422514 42:-0.53491 43:-0.128571 44:-0.526804 45:0.037798 46:0.887547 47:-0.460359 48:-0.856833 49:-0.31465 50:-0.215966 51:0.454439 52:-0.07438 53:0.476909 54:-0.345224 55:-0.133712 56:-0.799145 57:0.698385 58:-0.098018 59:-0.040608 60:-0.227472 61:0.381496 62:0.017772 63:0.069896 64:-0.35573 65:0.651709 66:-0.563841 67:0.466219 68:0.314815 69:0.607854 70:0.717391 71:0.416086 72:-0.238919 73:-0.218951 74:-0.752912 75:-0.925973 76:-1.0 77:-0.320537 78:-0.046157 79:0.178082 80:0.09153 81:0.801653 82:0.208301 83:-1.0 84:-0.210559 85:-0.183383 86:-0.246621 87:-0.305337 88:0.036145 89:-0.384728 90:-0.080696 91:0.965301 92:0.734109 93:-0.521258 94:0.873175 95:-0.235298 96:0.24235 97:0.481132 98:-0.070363 99:-0.818914 100:-0.495892 101:0.418927 102:0.046922 103:0.240163 104:0.011578 105:-0.117772 106:-0.514423 107:-0.47439 108:-0.802218 109:1.0 110:-0.637347 111:-0.683371 112:0.383015 113:0.370413 114:-0.187057 115:-0.144509 116:0.449475 117:-0.281027 118:0.976837 119:0.321288 120:0.667922 121:0.972174 122:0.793617 123:-0.083141 124:-0.160494 125:-0.219402 126:-0.455949 127:-0.849788 128:-0.239609 129:0.760221 130:-0.532316 131:-0.748776 132:-0.953938 133:-0.213115 134:-0.72522 135:-0.974011 136:0.078207 137:-0.324167 138:0.143668 139:-0.197697 140:-0.592733 141:-0.432924 142:-0.253012 143:-0.159862 144:-0.887992 145:-0.179107 146:0.759403 147:-0.073546 148:-0.220364 149:-0.701249 150:0.435496 151:-0.261538 152:0.126428 153:-0.977578 154:-0.088157 155:-0.571419 156:0.707747 157:-0.627933 158:-0.898854 159:-0.330393 160:-0.370983 161:-0.452193 162:-0.906137 163:-0.802154 164:-0.348469 165:-0.208692 166:-0.522632 167:-0.594938 168:-0.081662 169:0.209877 170:-0.166189 171:-0.753249 172:-0.210811 173:-0.315909 174:0.391217 175:0.146528 176:-0.401949 177:-0.065518 178:-0.394495 179:0.186682 180:-0.77308 181:-0.320509 182:-0.759126 183:0.146348 184:-1.0 185:-0.904922 186:0.720892 187:-0.27451 188:0.524606 189:-0.870049 190:0.259598 191:-0.113349 192:0.836655 193:-0.708003 194:-0.840108 195:0.709076 196:0.473684 197:0.063195 198:-0.907256 199:-0.020032 200:-0.410643 201:0.964335 202:0.416252 203:0.252533 204:-0.349498 205:0.514563 206:-0.246467 207:-0.663502 208:-0.207682 209:-0.0363 210:-0.007256 211:-0.060168 212:-0.624291 213:-0.844396 214:0.6875 215:-0.623072 216:-0.909111 217:-0.292253 218:-0.38551 219:-0.03799 220:-0.129913 221:-0.35066 222:-0.756789 223:-0.410448 224:-0.133267 225:-0.688167 226:-0.431955 227:0.934618 228:-0.074558 229:-0.035396 230:-0.385885 231:-0.531605 232:0.323308 233:-0.234458 234:-0.830141 235:0.744555 236:0.042003 237:0.573349 238:-0.784108 239:-0.906042 240:0.997013 241:0.23951 242:0.871951 243:-1.0 244:0.351695 245:-9.88E-4 246:0.962154 247:-0.643555 248:-0.80543 249:0.359293 250:-0.036585 251:0.03985 252:-0.945312 253:-0.097895 254:0.185695 255:0.02734 256:-0.683008 257:-0.885454 258:-0.209178 259:0.191489 260:-0.152232 261:-0.977115 262:-0.044666 263:-0.729116 264:0.846705 265:-0.842632 266:-0.904928 267:-0.403012 268:-0.397306 269:0.011233 270:-0.923038 271:-0.625873 272:0.081706 273:-0.368662 274:-0.840879 275:-0.937511 276:-0.965892 277:0.490446 278:-0.476908 279:-0.944665 280:-0.195962 281:0.567868 282:-0.844661 283:-0.392087 284:-0.648665 285:-0.673261 286:0.172414 287:-0.286084 288:-0.954812 289:-0.178376 290:-0.385046 291:-0.733295 292:-0.950965 293:-1.0 294:-0.588489 295:0.883212 296:-0.181608 297:-0.976117 298:-0.408459 299:0.041706 300:-0.978728 301:-0.73714 302:-0.897748 303:-0.918422 304:0.339901 305:-0.241965 306:-0.991506 307:-0.082357 308:0.206102 309:0.772017 310:0.013461 311:-0.317528 312:-0.805154 313:-1.0 314:-0.874104 315:-0.778597 316:0.635696 317:0.855172 318:0.71018 319:-0.3842 320:-0.622448 321:0.735203 322:0.063123 323:0.247499 324:-0.969831 325:-1.0 326:-1.0 327:-1.0 328:1.0 329:1.0 330:-1.0 331:0.05683 332:-0.378134 333:0.051779 334:-0.949502 335:0.614581 336:0.519457 337:1.0 338:1.0 339:-1.0 340:-0.370629 341:-0.501572 342:0.403449 343:0.152766 344:0.347026 345:0.432071 346:1.0 347:1.0 348:1.0 349:-0.244224 350:0.98521 351:0.308699 
11.955994683408086 1:-0.074504 2:-0.08419 3:-0.093697 4:0.496584 5:0.194717 6:0.632691 7:0.188682 8:-0.029957 9:-0.661637 10:0.068165 11:0.038294 12:-0.174236 13:0.087111 14:-0.111935 15:-0.335749 16:0.172333 17:0.399034 18:-0.652542 19:-1.0 20:0.657323 21:0.386379 22:1.0 23:0.791131 24:-0.260744 25:0.161194 26:-0.3583 27:-0.268494 28:-0.732296 29:0.974256 30:-0.607002 31:-0.04323 32:-0.102277 33:0.212153 34:-0.303123 35:0.449988 36:-0.342482 37:0.149891 38:-0.439052 39:0.457612 40:-0.71271 41:-0.387974 42:-0.029315 43:-0.15 44:-0.068722 45:0.367278 46:-0.348563 47:-0.653019 48:-0.831725 49:-0.17014 50:-0.175604 51:0.29838 52:-0.487603 53:0.189771 54:-0.61767 55:-0.281775 56:-0.39342 57:0.076444 58:0.02416 59:-0.067256 60:-0.458987 61:1.0 62:-0.283752 63:-0.316226 64:-0.41891 65:0.205486 66:-0.597281 67:-0.427931 68:-0.981412 69:0.436303 70:0.46087 71:0.486547 72:-0.89107 73:-0.720747 74:0.409896 75:-0.948292 76:0.246288 77:1.43E-4 78:0.020686 79:-0.123288 80:-0.054951 81:-0.840096 82:0.817938 83:-0.114639 84:-0.302416 85:0.051862 86:0.063966 87:0.071091 88:0.26506 89:0.08203 90:-0.15042 91:0.848185 92:0.168538 93:-0.320605 94:-0.267961 95:-0.844075 96:0.534086 97:0.132076 98:0.286156 99:-0.926856 100:-0.130096 101:-0.511181 102:0.111136 103:-0.064149 104:-0.438778 105:-0.037675 106:0.076923 107:-0.427392 108:-0.739337 109:-0.842107 110:-0.831511 111:-0.686803 112:-0.332901 113:-0.206501 114:-0.767371 115:-0.32948 116:-1.0 117:0.215109 118:-0.851473 119:0.365062 120:0.496982 121:0.16146 122:-0.189951 123:-0.358067 124:-0.459877 125:-0.73743 126:-0.618962 127:0.085878 128:-0.096206 129:0.705233 130:-0.505169 131:-0.756705 132:-0.949566 133:0.409836 134:-0.685082 135:-0.958472 136:0.392142 137:-0.181461 138:0.160769 139:-0.353754 140:-0.704447 141:-0.422637 142:0.068273 143:-0.139472 144:-0.910585 145:-0.072364 146:-1.0 147:-0.092944 148:-1.0 149:-1.0 150:0.43741 151:0.661538 152:0.023922 153:-0.908084 154:-0.279108 155:-0.026034 156:0.695595 157:-0.501245 158:-0.874615 159:-0.251931 160:-0.433301 161:-0.177354 162:-0.994381 163:0.237226 164:-0.540366 165:-0.358022 166:-0.707576 167:-0.764673 168:-0.169788 169:1.0 170:-0.37564 171:-0.938512 172:0.014908 173:-0.811017 174:0.323503 175:-0.920271 176:-0.985253 177:-0.157604 178:-0.394495 179:-5.67E-4 180:-0.772993 181:0.337719 182:0.482733 183:0.210404 184:-0.314521 185:-0.612225 186:0.665507 187:0.058824 188:0.250797 189:-0.891294 190:-0.348755 191:-0.037099 192:0.406624 193:-0.525976 194:-0.819699 195:0.722114 196:0.368421 197:0.170866 198:-0.971785 199:-0.628553 200:0.012843 201:-0.217382 202:-0.047251 203:-0.835043 204:-0.636162 205:0.475728 206:-0.525108 207:-1.0 208:-0.330354 209:-0.627709 210:-0.26931 211:-0.481885 212:-0.671593 213:-0.664206 214:-0.055556 215:0.001218 216:-0.586681 217:-0.200737 218:-0.570513 219:-0.258074 220:-0.69553 221:-0.826483 222:-0.798209 223:-0.462687 224:-0.136237 225:-0.821163 226:-0.011927 227:0.453295 228:-0.112499 229:-0.310861 230:-0.418915 231:-0.494634 232:0.578947 233:-0.125951 234:-0.810344 235:0.996893 236:-0.821221 237:-0.112239 238:-0.90286 239:-0.972647 240:0.994813 241:0.112761 242:0.707991 243:-0.979093 244:0.220162 245:0.235024 246:0.992967 247:-0.720805 248:-0.909414 249:0.352971 250:-0.597561 251:-0.051109 252:-0.975491 253:-0.325206 254:-0.880338 255:-0.064716 256:-1.0 257:-0.976258 258:-0.206332 259:-0.106383 260:0.016015 261:-0.868385 262:0.203873 263:0.207609 264:0.774705 265:-0.743929 266:-0.916578 267:-0.407035 268:-0.003367 269:-0.082089 270:-0.958227 271:-0.457762 272:-0.186258 273:-0.345267 274:-0.855458 275:-0.905104 276:-0.976477 277:-0.426752 278:-0.787937 279:-0.934 280:-0.246967 281:-1.0 282:-0.840868 283:-0.942187 284:-0.998397 285:-0.667885 286:0.103448 287:-0.251792 288:-0.977683 289:-0.181902 290:1.0 291:-0.712616 292:-0.511912 293:-0.734803 294:-0.590805 295:0.445255 296:-0.167756 297:-0.979943 298:-0.39076 299:-0.184499 300:-0.527893 301:-0.747417 302:-0.864377 303:-0.914363 304:-0.054187 305:-0.165152 306:-0.939835 307:0.201938 308:0.76095 309:0.85162 310:-0.035555 311:-0.746498 312:-0.684147 313:-0.472222 314:-0.673115 315:-1.0 316:0.485001 317:-0.485293 318:0.738255 319:-0.745098 320:-0.806919 321:0.738142 322:0.568106 323:0.250039 324:-0.892217 325:0.002568 326:0.02164 327:0.041481 328:-0.050025 329:-0.298876 330:0.808599 331:0.187416 332:9.64E-4 333:-0.634737 334:0.027853 335:-0.327333 336:-0.399523 337:-0.540378 338:-0.543146 339:-0.144031 340:-0.146853 341:1.0 342:1.0 343:0.181691 344:-0.314087 345:0.619735 346:-0.536178 347:-0.437577 348:-0.80416 349:-0.80198 350:-0.094941 351:-0.176107 
1.738358153208347 1:-0.172209 2:-0.174154 3:-0.175967 4:0.062862 5:0.020229 6:-0.181345 7:0.606503 8:-0.068052 9:-0.62725 10:-0.310941 11:0.395434 12:-0.493165 13:-0.237559 14:-0.164058 15:-0.545895 16:-0.118342 17:0.360638 18:-0.345486 19:-0.589383 20:0.059974 21:0.36 22:0.894875 23:1.0 24:-1.0 25:-0.61194 26:-1.0 27:0.600385 28:-0.79767 29:0.581526 30:-0.484131 31:-0.325477 32:-0.129852 33:-0.374344 34:-0.969381 35:-0.223602 36:-0.408363 37:-0.357853 38:0.523884 39:0.475154 40:-0.178648 41:-0.645348 42:0.003124 43:0.185714 44:-0.088572 45:-0.883533 46:-0.5215 47:0.041911 48:-1.0 49:-0.234975 50:-0.466489 51:0.331027 52:-0.454545 53:0.241967 54:-0.67848 55:-1.0 56:0.032893 57:-0.120061 58:0.96785 59:0.911064 60:0.10505 61:-0.064639 62:0.010244 63:0.271784 64:-0.465698 65:-0.390984 66:-0.483171 67:0.454809 68:0.127755 69:-0.641621 70:0.156522 71:-0.258438 72:-0.44173 73:-0.706905 74:0.352279 75:-0.76233 76:0.003839 77:0.033377 78:0.159677 79:-0.082192 80:0.120893 81:-0.485583 82:0.059025 83:0.758017 84:-0.330132 85:0.625639 86:-0.497749 87:-0.258094 88:0.036145 89:-0.267256 90:-0.899567 91:-0.404496 92:-0.511016 93:-0.341816 94:-0.90258 95:-0.625155 96:-0.113041 97:0.811321 98:-0.519065 99:-0.119317 100:-0.119414 101:0.028989 102:0.086321 103:-0.113302 104:-0.10117 105:1.36E-4 106:0.10637 107:-0.400718 108:-0.691405 109:-0.522805 110:0.004223 111:-0.70383 112:0.830907 113:1.0 114:-1.0 115:-0.260116 116:-0.5035 117:-0.385097 118:0.726961 119:0.184089 120:0.798416 121:0.689231 122:0.908106 123:1.0 124:0.502315 125:1.0 126:0.549104 127:1.0 128:1.0 129:1.0 130:0.93027 131:0.518937 132:1.0 133:-1.0 134:1.0 135:1.0 136:0.612334 137:0.20617 138:0.163417 139:1.0 140:1.0 141:1.0 142:-0.413655 143:1.0 144:1.0 145:0.168563 146:-0.172284 147:-0.129699 148:-0.410444 149:-0.780378 150:0.43305 151:0.169231 152:0.102848 153:-0.964155 154:-1.0 155:-0.402754 156:0.700313 157:0.25998 158:-0.051431 159:-1.0 160:-1.0 161:-1.0 162:0.171276 163:0.056016 164:1.0 165:-0.182571 166:1.0 167:1.0 168:0.845901 169:-0.053498 170:-0.044556 171:0.05166 172:0.01053 173:0.246919 174:0.350536 175:0.322932 176:-0.126266 177:-0.017428 178:-0.003058 179:0.233869 180:-0.59478 181:0.051379 182:-0.405941 183:0.117366 184:-0.375437 185:-0.52749 186:0.686944 187:-0.058824 188:0.327287 189:-0.843016 190:-1.0 191:0.207121 192:0.202437 193:1.0 194:1.0 195:-1.0 196:0.184211 197:-1.0 198:1.0 199:-0.575374 200:-0.381004 201:0.979749 202:-0.228355 203:0.062496 204:-0.92713 205:0.262136 206:-1.0 207:-0.371934 208:-0.48493 209:0.258453 210:-0.10146 211:-0.045362 212:-0.625753 213:-0.716351 214:0.305556 215:-0.383711 216:-0.930221 217:1.0 218:0.179732 219:-0.175365 220:1.0 221:1.0 222:1.0 223:1.0 224:1.0 225:1.0 226:0.136447 227:0.420805 228:-0.203767 229:0.484305 230:0.610847 231:-0.162282 232:0.398496 233:0.374005 234:-0.079889 235:-0.760531 236:1.0 237:-0.022981 238:0.166992 239:0.073007 240:0.628353 241:-1.0 242:-0.423085 243:0.099472 244:-1.0 245:0.50735 246:0.965047 247:1.0 248:1.0 249:-1.0 250:0.012195 251:-1.0 252:0.877513 253:-0.10454 254:-0.338724 255:-0.068483 256:-0.665007 257:-0.756939 258:-0.199647 259:-0.212766 260:0.072945 261:-0.754644 262:0.809862 263:0.858697 264:0.855361 265:0.036642 266:-0.040464 267:-0.165295 268:-0.434343 269:0.680362 270:0.206204 271:1.0 272:0.974272 273:-1.0 274:1.0 275:1.0 276:1.0 277:0.006369 278:1.0 279:1.0 280:-1.0 281:0.874626 282:-0.848128 283:0.167755 284:0.061861 285:-1.0 286:-0.068966 287:-1.0 288:0.007747 289:-0.374941 290:-0.328979 291:-0.715746 292:-0.586961 293:-0.554339 294:-0.596177 295:0.894161 296:-0.247652 297:-0.720267 298:1.0 299:0.48962 300:-0.062156 301:1.0 302:1.0 303:1.0 304:-0.546798 305:1.0 306:1.0 307:1.0 308:-0.342208 309:0.792002 310:0.169055 311:0.249133 312:0.14947 313:1.0 314:0.518654 315:0.004124 316:0.200894 317:0.581236 318:0.703342 319:-0.321097 320:-0.578413 321:0.719734 322:0.222591 323:0.133749 324:-0.916233 325:0.315736 326:0.33175 327:0.348122 328:-0.343812 329:-0.332747 330:0.893515 331:-0.012074 332:-0.370229 333:-0.034074 334:-0.102346 335:1.0 336:-0.387143 337:-0.335913 338:-0.510656 339:-0.151366 340:-0.244755 341:0.30544 342:-0.409278 343:-0.585707 344:0.671201 345:0.779063 346:-0.35879 347:-0.406691 348:-0.758235 349:-1.0 350:0.31224 351:-0.371409 
0.18081332240835207 1:-0.482309 2:-0.48519 3:-0.487905 4:-0.120227 5:0.296006 6:-0.016204 7:0.560551 8:0.571996 9:0.326249 10:-0.488672 11:0.570738 12:-0.654503 13:-0.503595 14:-0.337812 15:-0.641816 16:1.0 17:0.377567 18:-0.206273 19:0.151993 20:0.009742 21:-0.008008 22:-0.422722 23:-0.465566 24:0.773561 25:-0.319403 26:0.623231 27:-0.599886 28:-0.689834 29:-0.028557 30:-0.135676 31:-0.030175 32:-0.183338 33:-0.672344 34:-0.507655 35:-0.529644 36:-0.57021 37:0.005935 38:0.362343 39:0.586823 40:-0.077203 41:-0.401098 42:0.191887 43:0.185714 44:0.087775 45:-0.639091 46:1.0 47:-1.0 48:-0.825709 49:-0.130357 50:-0.050477 51:0.627515 52:-0.082645 53:0.767605 54:-0.09381 55:1.0 56:0.131501 57:-0.081549 58:0.155945 59:0.050071 60:-0.720888 61:-0.318124 62:-0.562622 63:-0.527431 64:-0.176666 65:-0.018829 66:-0.469838 67:0.05735 68:-0.534405 69:0.286099 70:-0.33913 71:0.278834 72:-0.735373 73:-0.329503 74:-0.398064 75:-0.891871 76:-0.073744 77:-0.131722 78:-0.381077 79:-0.205479 80:-0.452438 81:-0.201576 82:0.194267 83:0.116322 84:-0.29691 85:0.554617 86:0.127597 87:-0.529437 88:0.012048 89:-0.501854 90:-0.550107 91:0.567946 92:-0.581035 93:-0.22651 94:-0.458111 95:0.028781 96:0.38765 97:0.04717 98:0.167813 99:0.069314 100:0.089544 101:-0.35792 102:0.079124 103:-0.070717 104:-0.033274 105:-0.765867 106:-0.427885 107:-0.914886 108:-0.409338 109:-0.079246 110:-0.542245 111:-0.727877 112:0.196179 113:0.654434 114:-0.495552 115:0.098266 116:0.050308 117:0.281534 118:-0.226839 119:-0.195118 120:0.664718 121:-0.351129 122:-0.562877 123:-0.008543 124:-0.432099 125:0.220482 126:-0.759252 127:-0.578619 128:-0.516179 129:0.712762 130:-0.705032 131:-0.849409 132:-0.936013 133:0.147541 134:-0.449823 135:-0.93724 136:0.039749 137:0.949279 138:0.177092 139:0.431425 140:-0.415483 141:-0.534093 142:0.13253 143:-0.263163 144:-0.950873 145:0.234132 146:0.329307 147:-0.035366 148:-0.375582 149:-0.834152 150:0.462811 151:-0.061538 152:0.231638 153:-0.984821 154:0.514694 155:-0.466007 156:0.697263 157:-0.521541 158:-0.747033 159:-0.268014 160:1.0 161:-0.225092 162:-0.891092 163:-0.654214 164:0.317764 165:-0.387231 166:-0.397126 167:-0.672274 168:-0.284869 169:-0.053498 170:-0.687013 171:-0.916573 172:-0.824008 173:-0.761105 174:0.378147 175:-0.481686 176:-0.882635 177:-0.204586 178:0.033639 179:-0.184523 180:-0.86427 181:0.302361 182:-0.086688 183:0.111615 184:-0.544801 185:-0.75322 186:0.700499 187:-0.27451 188:0.363333 189:-0.922212 190:-0.202264 191:-0.204959 192:0.48641 193:-0.516356 194:-0.706646 195:0.693362 196:0.052632 197:0.033994 198:-0.871049 199:-0.306916 200:-0.843042 201:0.967962 202:-0.347672 203:-0.239265 204:-0.782886 205:0.475728 206:-0.789901 207:-0.470692 208:-0.237847 209:0.035105 210:1.0 211:-0.345567 212:-0.809153 213:-0.856946 214:1.0 215:-0.705938 216:-0.964403 217:-0.306041 218:-0.394985 219:-0.384176 220:-0.211229 221:-0.397209 222:-0.911548 223:0.19403 224:-1.0 225:-0.490427 226:-0.152885 227:-0.009217 228:-0.937384 229:-0.51761 230:-0.632189 231:-0.494124 232:0.729323 233:-0.145566 234:-0.879253 235:0.860122 236:-0.443775 237:-0.077815 238:-0.84395 239:-0.90217 240:0.993879 241:0.23951 242:0.651801 243:-0.959895 244:0.371599 245:1.0 246:0.964241 247:-0.391027 248:-0.754558 249:0.355809 250:-0.654726 251:-0.009962 252:-0.982651 253:-0.145487 254:-1.0 255:-0.016167 256:-0.852646 257:-0.953112 258:-0.207426 259:0.62766 260:-0.104937 261:-0.93607 262:-0.129034 263:-0.395 264:0.835628 265:-0.844177 266:-0.965222 267:-0.405098 268:-0.811448 269:-0.052017 270:-0.969705 271:-0.886867 272:-0.195559 273:-0.347462 274:-0.82999 275:-0.958554 276:-0.977831 277:0.184713 278:-0.824064 279:-0.987222 280:-0.233004 281:0.100421 282:1.0 283:-0.743137 284:-0.884918 285:-0.666068 286:0.034483 287:-0.218829 288:-0.966893 289:-0.121132 290:0.230206 291:-0.726556 292:-0.689628 293:-0.814395 294:-0.589128 295:0.948905 296:-0.161992 297:-0.96731 298:-0.337894 299:-0.39576 300:-0.241407 301:-0.690901 302:-0.742331 303:-0.916956 304:0.418719 305:-0.222776 306:-0.867558 307:-0.328129 308:-0.266573 309:0.680323 310:-0.501246 311:-0.767603 312:-0.708119 313:-0.694444 314:-0.797846 315:-0.896478 316:0.312972 317:0.18224 318:0.693569 319:-0.643157 320:-0.817963 321:0.740495 322:-0.495017 323:0.312422 324:-0.961497 325:0.726766 326:0.734428 327:0.742182 328:-0.704969 329:-0.621808 330:0.978459 331:0.415302 332:-0.598385 333:0.386079 334:-0.448786 335:0.101358 336:-0.569548 337:-0.697389 338:-0.655873 339:-0.233637 340:0.342657 341:-0.008429 342:-0.034795 343:0.195145 344:-0.140876 345:0.576205 346:-0.695807 347:-0.719085 348:-0.806333 349:-0.379538 350:0.183542 351:-0.472789 
11.63382264405577 1:0.14046 2:0.139629 3:0.138899 4:0.222748 5:0.169401 6:-0.271777 7:0.314532 8:-0.351875 9:-0.822486 10:0.006061 11:0.144779 12:-0.307473 13:-0.245542 14:0.258574 15:-0.713862 16:0.268204 17:0.070265 18:0.004984 19:0.003224 20:0.24498 21:0.408087 22:-0.488564 23:-0.240306 24:0.685417 25:-1.0 26:0.443583 27:-0.369985 28:-0.444762 29:0.156178 30:-0.669986 31:0.123633 32:0.085763 33:-0.977149 34:0.176975 35:-0.797409 36:-0.089857 37:-0.57681 38:0.041291 39:0.456665 40:0.126765 41:-0.514078 42:-0.579208 43:-0.091071 44:-0.615556 45:-0.74765 46:0.788114 47:-0.453535 48:-0.83507 49:0.491141 50:0.543121 51:0.410212 52:-0.198347 53:0.388576 54:-0.187736 55:-0.427486 56:-0.38281 57:-0.270639 58:-0.134411 59:-4.88E-4 60:-0.560798 61:-0.226869 62:-0.406248 63:-0.086844 64:-0.026094 65:0.906294 66:-0.792173 67:0.426094 68:0.058092 69:1.0 70:0.347826 71:0.639286 72:-0.313192 73:-1.0 74:-0.667454 75:-0.952431 76:-0.603155 77:-0.428944 78:0.074565 79:0.041096 80:0.202249 81:-0.230479 82:-0.523736 83:-0.511105 84:-0.181056 85:-0.524024 86:-0.822946 87:-0.017538 88:0.421687 89:0.061204 90:-0.513047 91:-0.771734 92:-0.11023 93:0.357586 94:0.600839 95:0.101701 96:-0.661659 97:0.735849 98:-0.634307 99:-0.371382 100:-0.792832 101:-0.091088 102:0.103755 103:-0.017839 104:-0.426657 105:0.07468 106:1.0 107:-0.355347 108:-0.852998 109:0.273356 110:0.132211 111:-1.0 112:0.248542 113:-0.117052 114:-0.60408 115:-0.075144 116:-0.166088 117:-0.895192 118:0.604532 119:-0.611176 120:0.636962 121:-0.729623 122:-0.815833 123:-0.143065 124:-0.209877 125:-0.449424 126:-0.78098 127:-0.001651 128:-0.445362 129:0.746473 130:-0.627534 131:-0.787689 132:-0.959109 133:0.409836 134:-0.791453 135:-0.927822 136:0.228983 137:0.278062 138:0.149571 139:-0.150185 140:-0.505392 141:-0.256025 142:-0.124498 143:0.288992 144:-0.706368 145:-0.0815 146:-0.422335 147:-0.139422 148:-0.188966 149:-0.703845 150:0.480257 151:0.107692 152:0.266636 153:-0.970479 154:-0.013496 155:0.302482 156:0.744579 157:-0.164694 158:-0.672975 159:-0.092627 160:-0.164557 161:0.108434 162:-0.85752 163:-0.654807 164:-0.256016 165:-0.741926 166:-0.679759 167:-0.618648 168:-0.182542 169:0.654321 170:-0.428545 171:-0.722979 172:-0.366864 173:-0.180845 174:-1.0 175:-0.376872 176:-0.557024 177:-0.120711 178:0.168196 179:0.139291 180:-0.706666 181:-0.032348 182:-0.215671 183:0.193953 184:-0.666598 185:-0.782736 186:0.704285 187:-1.0 188:0.365796 189:-0.894092 190:0.0477 191:-0.053522 192:0.365815 193:-0.57106 194:-0.786983 195:0.697722 196:-0.263158 197:0.038253 198:-0.930655 199:-0.026177 200:-0.633947 201:0.968828 202:0.16441 203:0.152305 204:-0.944246 205:-0.236044 206:-0.890922 207:-0.632401 208:-0.140807 209:-0.497244 210:-0.278565 211:-0.190372 212:-0.420544 213:-0.863373 214:0.618056 215:-0.684314 216:-0.634855 217:-0.312663 218:-0.294044 219:0.079727 220:-0.441283 221:-0.619214 222:-0.840538 223:0.014925 224:-0.746067 225:-0.758928 226:-0.196576 227:-0.556277 228:1.0 229:-0.824477 230:-0.891239 231:-0.488698 232:0.18797 233:-0.090976 234:-0.951375 235:0.83338 236:-0.432642 237:-0.087334 238:-0.825012 239:-0.873759 240:0.995024 241:0.619755 242:0.748722 243:-0.955189 244:0.279944 245:-0.245804 246:0.96295 247:-0.618351 248:-0.79279 249:0.35886 250:0.329268 251:0.030724 252:-0.944715 253:0.015465 254:-0.567647 255:-0.014987 256:-0.713978 257:-0.915225 258:-0.205548 259:0.255319 260:-0.055808 261:-0.964689 262:0.035215 263:-0.764365 264:0.838095 265:-0.542072 266:-0.777846 267:-0.403914 268:0.080808 269:-0.018153 270:-0.955723 271:-0.507994 272:-0.715467 273:-0.324956 274:-0.853277 275:-0.84817 276:-0.970215 277:-0.070064 278:-0.596056 279:-0.857493 280:0.083118 281:0.219491 282:-0.872475 283:-0.616312 284:-0.794029 285:-0.668563 286:0.103448 287:-0.258447 288:-0.956519 289:0.043592 290:-0.075432 291:-0.722879 292:-0.74215 293:-0.863808 294:-0.585853 295:0.883212 296:-0.094058 297:-0.959568 298:-0.233148 299:-0.158133 300:-0.870922 301:-0.802787 302:-0.908722 303:-0.919746 304:0.812808 305:-0.265892 306:-0.970312 307:-0.128925 308:0.145346 309:-0.426299 310:-0.43942 311:-0.754508 312:-0.721529 313:-0.916667 314:-0.822913 315:-0.917257 316:0.551193 317:-0.357762 318:0.704533 319:-0.65295 320:-0.79993 321:0.738682 322:1.0 323:0.272867 324:-0.943795 325:0.094188 326:0.117355 327:0.140997 328:-0.29663 329:-0.487044 330:0.928398 331:0.305271 332:0.188031 333:-0.750965 334:-0.481559 335:0.319261 336:1.0 337:-0.483683 338:-0.532656 339:-0.223352 340:0.08042 341:-0.036758 342:-0.411416 343:0.137672 344:0.085959 345:0.881414 346:-0.567154 347:-0.706898 348:-0.807065 349:-0.135314 350:-0.126432 351:-0.812274 
8.862089012460617 1:-0.483143 2:-0.480631 3:-0.478032 4:-0.507402 5:-0.45186 6:-0.742949 7:0.797096 8:-0.255938 9:-0.705062 10:-0.054139 11:0.235063 12:-0.412757 13:-0.595908 14:-0.606883 15:-0.752413 16:0.527214 17:0.096204 18:-0.802296 19:0.047001 20:0.111709 21:0.379861 22:0.072014 23:0.089216 24:0.891317 25:-0.444776 26:0.688267 27:-0.508317 28:-0.360651 29:0.341151 30:-0.402543 31:-0.557237 32:-0.272513 33:-0.077807 34:0.657073 35:0.21343 36:-0.025226 37:-0.102283 38:0.046947 39:0.554937 40:-0.11611 41:-0.238702 42:0.222927 43:-0.521429 44:0.128006 45:-0.359324 46:0.262161 47:0.165818 48:-0.832127 49:0.268472 50:-0.251217 51:0.608748 52:0.033058 53:0.657658 54:-0.608806 55:0.213123 56:-0.216273 57:-0.356238 58:0.007345 59:-0.110471 60:-0.027281 61:-1.0 62:0.219861 63:-0.047044 64:-0.070351 65:-0.092366 66:0.500423 67:-0.254895 68:-0.247022 69:0.600117 70:0.182609 71:0.584048 72:-0.187999 73:-0.752468 74:0.188314 75:-0.965119 76:-0.077792 77:-0.190835 78:0.227623 79:-0.349315 80:0.218412 81:-0.448268 82:-0.728017 83:0.364702 84:-0.198966 85:0.809682 86:-0.205226 87:-0.323483 88:-0.120482 89:-0.307442 90:-0.965332 91:-1.0 92:0.119315 93:-0.28078 94:-0.254812 95:-0.454201 96:0.0642 97:1.0 98:-0.201274 99:-0.697718 100:-0.219589 101:0.459622 102:0.176014 103:0.548353 104:-0.037998 105:-0.220956 106:-0.153846 107:-0.516044 108:-0.857973 109:-0.003443 110:-0.737392 111:-0.689503 112:-0.566271 113:-0.435555 114:-0.55665 115:0.17341 116:0.376045 117:-0.061069 118:-0.197617 119:-0.386773 120:0.967423 121:-0.709692 122:-0.741859 123:-0.126224 124:-0.283951 125:-0.305412 126:-0.77495 127:-0.545382 128:-0.271125 129:0.746923 130:-0.388776 131:-0.743209 132:-0.958818 133:0.311475 134:-0.757271 135:-0.971841 136:0.659046 137:-0.954908 138:0.175427 139:-1.0 140:-0.804361 141:-0.451372 142:-0.088353 143:-0.476741 144:-0.606805 145:0.459162 146:0.146784 147:-0.205379 148:-0.253993 149:-0.636177 150:0.44561 151:0.230769 152:0.159304 153:-0.934277 154:0.193694 155:-0.514046 156:0.698923 157:-0.145269 158:-0.676861 159:-0.30522 160:-0.557936 161:-0.273925 162:-0.891283 163:0.586452 164:-0.545716 165:-0.240806 166:-0.645318 167:-0.635724 168:-0.285866 169:0.423868 170:-0.787637 171:-0.7241 172:0.072526 173:-0.412871 174:0.38139 175:-0.434288 176:-0.632665 177:-0.098469 178:-0.223242 179:0.234351 180:-0.659783 181:-0.242579 182:0.212402 183:0.405772 184:-0.597049 185:-0.716642 186:0.711117 187:-0.470588 188:0.425106 189:-0.933807 190:-0.365862 191:-0.138598 192:0.441928 193:-0.341771 194:-0.566152 195:0.7751 196:0.184211 197:0.371618 198:-0.864545 199:-0.767266 200:-0.29864 201:0.972883 202:-0.423567 203:-0.736061 204:-0.603762 205:0.572816 206:-0.459465 207:-0.861177 208:-0.431029 209:-0.34058 210:-0.035611 211:-0.070036 212:-0.444482 213:-0.901881 214:0.583333 215:-0.734994 216:-0.749082 217:-0.264315 218:-0.712523 219:-0.057071 220:-0.758099 221:-0.780027 222:-0.80988 223:-0.164179 224:-0.463354 225:-0.796124 226:-0.057744 227:-0.314091 228:-0.200481 229:-0.722512 230:-0.832332 231:-0.488027 232:0.097744 233:-0.077868 234:-0.939004 235:0.816875 236:0.007798 237:-0.114831 238:-0.629606 239:-0.780819 240:0.991821 241:0.85518 242:0.671142 243:-0.964242 244:0.22617 245:-1.0 246:0.963134 247:-1.0 248:-0.940791 249:0.356412 250:0.085366 251:0.045202 252:-0.880442 253:-0.252499 254:-0.030632 255:-0.002443 256:-0.587433 257:-0.823282 258:-0.204506 259:0.340426 260:-0.057018 261:-0.934389 262:0.090237 263:-0.040033 264:0.836196 265:-0.676263 266:-0.894749 267:-0.40831 268:-0.138047 269:-0.090249 270:-0.950545 271:-0.354876 272:-0.337517 273:-0.372897 274:-0.822695 275:-0.800493 276:-0.980389 277:0.082803 278:-0.892775 279:-0.7881 280:-0.437125 281:-0.609673 282:-0.832306 283:-0.804756 284:-0.875235 285:-0.666914 286:1.0 287:-0.230017 288:-0.940175 289:-0.302583 290:-0.445904 291:-0.716642 292:-0.776687 293:-0.874665 294:-0.590274 295:-0.19708 296:-0.201975 297:-0.953438 298:-0.361348 299:0.100756 300:-0.300375 301:-0.616122 302:-0.742332 303:-0.922332 304:0.182266 305:-0.297268 306:-0.912002 307:0.145599 308:-0.166017 309:0.790857 310:-0.465528 311:-0.70565 312:-0.562298 313:-0.361111 314:-0.334972 315:-0.871778 316:0.505466 317:0.161569 318:0.717636 319:-0.584118 320:-0.78802 321:0.734535 322:-0.069767 323:0.203335 324:-0.957012 325:0.64152 326:0.653088 327:0.664709 328:-0.760428 329:-0.778281 330:0.993786 331:0.604851 332:0.275095 333:-0.687684 334:-0.473814 335:-0.100539 336:-0.331001 337:-0.798415 338:-0.825701 339:-0.243668 340:0.199301 341:-0.331312 342:-0.718058 343:0.195088 344:-0.496397 345:0.54755 346:-0.774676 347:-0.85866 348:-0.815868 349:-0.669967 350:-0.232122 351:-0.821802 
0.7150722535109456 1:-0.751711 2:-0.75759 3:-0.763415 4:-0.167263 5:0.020584 6:-0.220353 7:0.498302 8:0.349163 9:-0.099713 10:-0.430628 11:0.550374 12:-0.664051 13:-0.730998 14:-0.810894 15:-0.807426 16:-0.686852 17:-0.092319 18:-0.899175 19:0.091063 20:-0.343659 21:0.441496 22:-0.37817 23:-0.087285 24:0.596874 25:-0.128358 26:0.250904 27:-0.489678 28:-0.606453 29:0.373938 30:-0.483751 31:-0.524986 32:-0.37834 33:-0.244872 34:0.216167 35:-0.046273 36:-0.396168 37:-0.262239 38:-0.36505 39:0.519676 40:-0.300008 41:-0.288239 42:-0.036291 43:0.257143 44:-0.12109 45:-0.255203 46:0.478674 47:-0.765316 48:-0.816665 49:0.34904 50:0.274349 51:-0.497488 52:-0.016529 53:-0.782378 54:0.421421 55:0.883207 56:0.260068 57:1.0 58:0.369058 59:0.610137 60:-0.791517 61:0.041825 62:-0.59518 63:0.287898 64:0.240772 65:-0.053147 66:-0.303056 67:0.110266 68:0.616851 69:0.123551 70:0.304348 71:0.164645 72:0.429355 73:0.869911 74:0.407887 75:-0.970834 76:1.0 77:0.883636 78:-1.0 79:0.561644 80:-0.640813 81:-0.348403 82:0.198718 83:0.873644 84:-0.052477 85:0.992343 86:0.280542 87:-0.051075 88:-0.253012 89:-0.114662 90:-0.617584 91:-0.128246 92:0.002909 93:-0.209484 94:0.242767 95:0.160329 96:0.473302 97:0.731132 98:0.131282 99:-0.436319 100:0.403669 101:0.616388 102:-0.068974 103:0.538338 104:0.405731 105:0.033881 106:-0.038462 107:-0.400559 108:-0.801798 109:-0.011749 110:-0.387316 111:-0.677381 112:0.124694 113:0.257606 114:-0.726587 115:0.479769 116:-0.433569 117:-0.255552 118:-0.035051 119:0.270512 120:0.729579 121:-0.340093 122:-0.657799 123:-0.174494 124:-0.185185 125:-0.479874 126:-0.91841 127:-0.477713 128:-0.926103 129:0.73975 130:-0.758211 131:-0.885706 132:-0.962998 133:0.47541 134:-0.895926 135:-0.956873 136:0.049739 137:-0.054325 138:0.183123 139:-0.0588 140:-0.609148 141:-0.601608 142:0.710843 143:-0.530455 144:-0.857712 145:0.112049 146:0.133389 147:-0.169989 148:-0.463717 149:-0.786081 150:0.446077 151:1.0 152:0.161336 153:-0.977524 154:-0.370727 155:-0.106667 156:0.622498 157:-0.086429 158:-0.670614 159:-0.13123 160:-0.246349 161:0.01758 162:-0.834816 163:-0.688168 164:-0.582507 165:-0.3161 166:-0.867713 167:-0.833142 168:-0.143674 169:0.967078 170:-0.191221 171:-0.786404 172:0.086901 173:-0.45494 174:0.367715 175:-0.564281 176:-0.742559 177:-0.171409 178:0.070336 179:-0.056984 180:-0.762811 181:0.868685 182:0.557315 183:0.148291 184:-0.294412 185:-0.703913 186:0.681145 187:0.294118 188:0.321002 189:-0.954143 190:-0.449516 191:0.346893 192:0.412675 193:-0.214168 194:-0.605306 195:0.741021 196:-0.789474 197:0.243834 198:-0.964157 199:-0.05558 200:-0.033509 201:0.968959 202:0.11466 203:-0.271806 204:-1.0 205:0.469053 206:-0.97388 207:-0.801973 208:-0.104475 209:0.161311 210:-0.041756 211:0.195674 212:-0.481598 213:-0.836932 214:0.041667 215:-0.590283 216:-0.911131 217:-0.399239 218:-0.334494 219:-0.251606 220:-0.274548 221:-0.413191 222:-0.859737 223:0.19403 224:-0.745311 225:-0.619949 226:-0.499798 227:0.153313 228:-0.158108 229:-0.531614 230:-0.822724 231:-0.487224 232:-0.383459 233:-0.074811 234:-0.982985 235:0.655916 236:-0.547979 237:-0.116637 238:-0.888454 239:-0.914931 240:0.99468 241:0.493007 242:0.699735 243:-0.968818 244:0.275112 245:0.528314 246:0.952933 247:-0.563386 248:-0.690462 249:0.357819 250:-0.353659 251:0.013384 252:-0.935286 253:-0.416514 254:-0.561615 255:-0.049091 256:-0.772619 257:-0.917667 258:-0.207861 259:0.617021 260:-0.12228 261:-0.950991 262:-0.011282 263:0.801495 264:0.884777 265:-0.607078 266:-0.875288 267:-0.399969 268:0.158249 269:0.034516 270:-0.974833 271:-0.4985 272:-0.459075 273:-0.337713 274:-0.935584 275:-0.951974 276:-0.971901 277:-0.121019 278:-0.604104 279:-0.887444 280:-0.407964 281:-0.449471 282:-0.849551 283:-0.804395 284:-0.774867 285:-0.668464 286:0.275862 287:-0.263375 288:-0.856984 289:-0.15674 290:0.52836 291:-0.693016 292:-0.684874 293:-0.862977 294:-0.586309 295:0.29927 296:-0.109844 297:-0.993852 298:-0.623195 299:0.424423 300:-0.965025 301:-0.5933 302:-0.792734 303:-0.909152 304:0.300493 305:-0.145415 306:-0.955356 307:-0.108456 308:0.249837 309:0.784705 310:-0.174565 311:-0.555218 312:-0.706467 313:-0.805556 314:-0.730466 315:-0.907298 316:0.418523 317:0.279615 318:0.706419 319:-0.482945 320:-0.765249 321:0.726971 322:0.036545 323:0.132738 324:-0.978046 325:0.681942 326:0.689535 327:0.697296 328:-0.592233 329:-0.484072 330:0.956509 331:0.555079 332:-0.652972 333:0.380023 334:-0.47669 335:-0.062615 336:0.151258 337:-0.652075 338:-0.579936 339:-0.225661 340:0.174825 341:0.115404 342:0.219963 343:0.253723 344:-0.256185 345:0.027415 346:-0.678019 347:-0.627841 348:-0.801865 349:-0.485149 350:0.337458 351:-0.192751 
7.6945857293081446 1:-0.344464 2:-0.342216 3:-0.339851 4:-0.340085 5:-0.006778 6:-0.599402 7:0.735551 8:-0.086938 9:-0.411853 10:-0.444351 11:0.563941 12:-0.676052 13:-0.7659 14:-0.695286 15:-0.796981 16:-0.77674 17:-0.038899 18:-0.753475 19:0.282498 20:-0.570071 21:1.0 22:-0.843936 23:-0.899321 24:0.56927 25:-0.21194 26:0.131489 27:-0.844848 28:-0.408643 29:0.173809 30:-0.423463 31:-0.498931 32:-0.312687 33:-0.013565 34:-0.145132 35:0.297294 36:-0.309612 37:-0.274477 38:-0.050174 39:0.707881 40:-0.391027 41:-0.307532 42:0.071677 43:0.585714 44:0.020111 45:-0.227286 46:0.719819 47:-0.344441 48:-0.813862 49:0.116457 50:-0.373208 51:0.308656 52:0.016529 53:0.238126 54:-0.787035 55:-0.064393 56:-0.117465 57:-0.416615 58:0.257793 59:0.286629 60:-0.741237 61:0.381496 62:-0.567089 63:-0.262614 64:-0.228846 65:-0.287247 66:-0.604787 67:0.104573 68:-0.159882 69:0.720457 70:0.391304 71:0.565951 72:-0.426097 73:-0.900295 74:-0.206517 75:-0.855113 76:-0.578026 77:-0.528626 78:-0.225564 79:0.013699 80:-0.319767 81:-0.493249 82:-0.123112 83:-0.204185 84:-0.154996 85:0.517747 86:-0.196685 87:-0.622448 88:0.542169 89:-0.589776 90:-0.333304 91:0.039294 92:-0.337806 93:0.478202 94:-0.410881 95:-0.846363 96:0.005511 97:0.132076 98:-0.27516 99:-0.804554 100:-0.336733 101:-0.288502 102:0.099275 103:-0.296686 104:-0.474485 105:-0.070378 106:-0.211538 107:-0.449861 108:-0.809023 109:-0.02389 110:-0.766533 111:-0.6746 112:-0.364666 113:-0.160889 114:-0.755242 115:0.248555 116:-0.990711 117:0.487449 118:0.032892 119:-0.060215 120:0.606509 121:-0.796478 122:-0.971295 123:-0.103892 124:0.160494 125:-0.100308 126:-0.979548 127:-0.609777 128:-0.879027 129:0.703133 130:-0.784761 131:-0.902322 132:-0.958052 133:-0.262295 134:-0.813051 135:-0.922883 136:0.441023 137:-0.733276 138:0.191006 139:-0.720505 140:-0.845487 141:-0.425356 142:1.0 143:-0.182708 144:-0.859979 145:-0.04829 146:-0.666913 147:0.001364 148:-0.49768 149:-0.828007 150:0.448988 151:-0.107692 152:0.176716 153:-0.950183 154:0.520676 155:-0.386995 156:0.704492 157:-0.603681 158:-0.9834 159:-0.309595 160:-0.059396 161:-0.371544 162:-0.96732 163:0.407422 164:0.252761 165:-0.303284 166:-0.338134 167:-0.70512 168:-0.222241 169:0.27572 170:-0.541506 171:-0.977347 172:-0.378512 173:-0.216372 174:0.389752 175:-0.277696 176:-0.711068 177:-0.230943 178:-0.125382 179:-0.219154 180:-0.852412 181:-0.347922 182:0.268705 183:0.17199 184:-0.599052 185:-0.886121 186:0.695977 187:-1.0 188:0.321379 189:-0.969552 190:-0.289329 191:0.597526 192:-1.0 193:-0.078137 194:-0.456672 195:0.74224 196:-0.315789 197:0.241605 198:-0.915844 199:-0.369896 200:-0.805041 201:0.969928 202:-0.861841 203:-0.909796 204:-0.62101 205:0.203883 206:-0.472133 207:-0.769053 208:-0.344177 209:-0.58435 210:-0.116414 211:-0.542867 212:-0.728144 213:-0.694912 214:0.125 215:-0.063799 216:-0.663316 217:-0.145435 218:-0.506525 219:-0.178662 220:-0.505977 221:-0.512297 222:-0.803515 223:-0.731343 224:-0.328317 225:-0.582014 226:-0.359186 227:-0.632293 228:-0.166438 229:-0.798728 230:-0.891245 231:-0.48642 232:0.398496 233:-0.033729 234:-0.939068 235:0.688534 236:-0.587339 237:-0.120712 238:-0.921216 239:-0.94053 240:0.993704 241:0.493007 242:0.552616 243:-0.939117 244:0.297906 245:-0.404984 246:0.963645 247:-0.908491 248:-1.0 249:0.353989 250:-0.353659 251:-0.053258 252:-0.969447 253:-0.215001 254:-0.48126 255:-0.116106 256:-0.762709 257:-0.896869 258:-0.209426 259:-0.111702 260:-0.174435 261:-0.927704 262:0.051216 263:0.127989 264:0.805754 265:-0.809512 266:-0.946004 267:-0.403469 268:-0.003367 269:-0.004618 270:-0.97209 271:-0.490911 272:0.387081 273:-0.392799 274:-0.75828 275:-0.919452 276:-0.977304 277:0.235669 278:-0.799662 279:-0.980338 280:-0.265596 281:0.120546 282:-0.883969 283:-0.547425 284:-0.680365 285:-0.66541 286:0.034483 287:-0.225767 288:-0.929772 289:-4.36E-4 290:-0.308222 291:-0.71142 292:-0.795342 293:-0.93343 294:-0.587653 295:0.649635 296:-0.134719 297:-0.993864 298:-0.215599 299:0.514526 300:-0.133581 301:-0.420023 302:-0.720947 303:-0.926875 304:0.418719 305:-0.316041 306:-0.96971 307:0.260687 308:-0.401998 309:0.779943 310:-0.902419 311:-0.931226 312:-0.637626 313:-0.972222 314:-0.520986 315:-0.915109 316:0.433937 317:-0.349969 318:0.70567 319:-0.750663 320:-0.859425 321:0.740169 322:0.993355 323:0.317033 324:-0.952045 325:0.608063 326:0.620638 327:0.633253 328:-0.740874 329:-0.699708 330:0.987523 331:0.206019 332:-0.205552 333:-0.122429 334:-0.443313 335:-0.706427 336:-0.424186 337:-0.823403 338:-0.801766 339:-0.229319 340:0.538462 341:0.497551 342:0.103736 343:0.096342 344:-0.461571 345:0.300293 346:-0.828473 347:-0.79129 348:-0.810349 349:-0.30033 350:0.501345 351:-0.3404 
2.18029696936052 1:-0.609946 2:-0.620119 3:-0.63067 4:0.158542 5:0.870198 6:-1.0 7:0.396376 8:-1.0 9:-0.303077 10:0.099608 11:-0.125738 12:0.147678 13:0.504992 14:0.633173 15:1.0 16:0.35386 17:1.0 18:0.576377 19:0.395762 20:0.283325 21:0.365782 22:0.919684 23:0.924878 24:0.460771 25:-0.367164 26:0.18069 27:-0.390385 28:0.028638 29:-0.088505 30:0.079627 31:0.42815 32:0.155364 33:-0.800806 34:0.103491 35:-0.535172 36:-0.135584 37:-0.16331 38:0.443599 39:0.857802 40:-0.404989 41:-0.644594 42:-0.191116 43:-0.407143 44:-0.305679 45:-0.804948 46:0.754201 47:-0.292651 48:-0.832534 49:0.477919 50:0.191599 51:0.383692 52:0.066116 53:0.356866 54:-0.760771 55:0.82576 56:0.503754 57:0.646456 58:0.74612 59:1.0 60:-0.242861 61:-0.91635 62:-0.168336 63:0.298591 64:0.148663 65:-0.722939 66:-0.751276 67:-0.435239 68:-0.575124 69:-0.493896 70:0.330435 71:-0.413599 72:-0.333276 73:-0.065658 74:0.209262 75:-0.973493 76:0.119041 77:-0.118342 78:0.14142 79:-0.041096 80:0.074966 81:-0.671405 82:0.579211 83:-0.020937 84:-0.159807 85:0.048934 86:-0.663136 87:0.040702 88:0.39759 89:0.047119 90:-0.702152 91:0.445576 92:-0.346425 93:0.035965 94:-0.003156 95:0.173334 96:0.422368 97:0.245283 98:0.125797 99:-0.359667 100:-0.2885 101:0.072635 102:0.073022 103:-0.068838 104:-0.118525 105:-0.190228 106:-0.153846 107:-0.52935 108:-0.666493 109:0.871741 110:-0.150266 111:-0.700214 112:0.926741 113:0.852151 114:1.0 115:0.595376 116:1.0 117:1.0 118:-1.0 119:-0.346731 120:0.690447 121:0.962915 122:0.648033 123:-1.0 124:0.358025 125:-1.0 126:-0.309914 127:-0.388734 128:0.77328 129:0.7707 130:0.038627 131:-0.250691 132:-0.952217 133:0.442623 134:-0.715995 135:-0.759038 136:-0.571979 137:-0.366427 138:0.181492 139:-0.29379 140:-0.502458 141:-0.349483 142:-0.140562 143:0.085018 144:-0.717852 145:-0.552488 146:0.701473 147:-0.251305 148:-0.106019 149:-0.636967 150:0.389891 151:-0.323077 152:0.007568 153:-0.936662 154:0.088098 155:0.327584 156:0.693409 157:0.062968 158:-0.695118 159:-0.272061 160:-0.768257 161:-0.208305 162:-0.969938 163:0.067535 164:0.845123 165:-0.410197 166:0.620032 167:0.424087 168:-1.0 169:-0.004115 170:-1.0 171:-0.314122 172:0.096534 173:0.038873 174:0.45494 175:0.604527 176:0.538306 177:-1.0 178:0.119266 179:-1.0 180:0.779126 181:1.0 182:0.073834 183:0.154254 184:0.260078 185:0.123083 186:1.0 187:-0.058824 188:1.0 189:-0.357068 190:-0.908981 191:-0.141467 192:0.8385 193:-0.484338 194:-0.612163 195:0.697121 196:0.263158 197:0.060912 198:-0.864193 199:0.603454 200:-1.0 201:0.977562 202:0.481681 203:1.0 204:1.0 205:-0.504854 206:1.0 207:1.0 208:1.0 209:0.10308 210:-0.32016 211:0.126925 212:-0.322211 213:-0.384692 214:0.777778 215:0.059881 216:-0.644563 217:0.077999 218:-0.497122 219:-0.299298 220:0.593821 221:0.608515 222:-0.229826 223:-0.440298 224:0.379418 225:0.124613 226:0.065711 227:0.449879 228:-0.23221 229:0.186282 230:-0.109076 231:-0.488311 232:0.31203 233:-0.089242 234:-0.766382 235:0.189561 236:0.380898 237:-0.070951 238:-0.208816 239:-0.219191 240:0.881243 241:0.873252 242:-0.089729 243:-0.225243 244:0.287163 245:-0.004126 246:0.962861 247:-0.565154 248:-0.708044 249:0.349785 250:-0.304878 251:-0.070928 252:-0.89988 253:0.170252 254:0.671488 255:-0.057127 256:-0.3277 257:-0.458597 258:-0.163051 259:0.446809 260:0.272823 261:-0.476161 262:0.011145 263:0.839136 264:0.879839 265:-0.545864 266:-0.740726 267:-0.403581 268:-0.488215 269:-0.014446 270:-0.90999 271:0.702802 272:0.410393 273:-0.325509 274:0.505001 275:0.247501 276:0.03961 277:0.797771 278:0.90971 279:0.583716 280:1.0 281:-0.103791 282:-0.704962 283:0.541826 284:0.42125 285:0.295864 286:-1.0 287:1.0 288:0.969329 289:-1.0 290:0.321004 291:-0.718867 292:0.230398 293:0.321347 294:-1.0 295:0.328467 296:-1.0 297:0.476405 298:-0.525351 299:-0.022849 300:-0.141795 301:-0.652324 302:-0.847332 303:-0.924699 304:0.37931 305:-0.333279 306:-0.966482 307:0.595759 308:-0.990431 309:0.790121 310:0.529116 311:1.0 312:1.0 313:0.180556 314:1.0 315:1.0 316:0.071719 317:0.590139 318:0.681244 319:-0.468238 320:-0.693174 321:0.737385 322:-0.920266 323:0.262879 324:-0.952807 325:-0.352589 326:-0.345787 327:-0.338645 328:0.510049 329:0.669385 330:-0.089461 331:0.089312 332:-0.612113 333:0.313589 334:1.0 335:0.859283 336:-0.050718 337:0.528334 338:0.228561 339:1.0 340:1.0 341:0.742149 342:0.124061 343:-1.0 344:-0.127653 345:0.523057 346:0.175801 347:0.377931 348:-1.0 349:-0.636964 350:-1.0 351:0.017294 
2.136721346338065 1:-0.671888 2:-0.672813 3:-0.673614 4:-0.430316 5:0.12469 6:-0.352101 7:0.491666 8:1.0 9:1.0 10:-0.223756 11:0.383674 12:-0.534908 13:-0.735913 14:-0.470031 15:-0.767876 16:-0.466803 17:0.094625 18:-0.07243 19:0.395655 20:-0.020297 21:0.176359 22:-0.115297 23:-0.523363 24:0.713253 25:-0.104478 26:0.454286 27:-0.806018 28:-0.519488 29:0.733595 30:-0.373989 31:-0.778936 32:-0.178836 33:0.051351 34:-0.107165 35:0.498032 36:0.405404 37:-0.174145 38:-0.0046 39:0.47931 40:-0.157615 41:-0.230675 42:-0.499632 43:-0.542857 44:-0.615263 45:-0.409001 46:-0.620637 47:-0.545336 48:-0.827343 49:0.194075 50:0.230354 51:-0.217219 52:0.219008 53:-0.499892 54:0.230832 55:-0.43611 56:-0.702633 57:-0.210475 58:-0.360789 59:-0.682088 60:-0.517745 61:0.503169 62:-0.347761 63:-0.667471 64:0.119033 65:-0.623954 66:-0.353791 67:-0.362678 68:-0.146436 69:-0.194287 70:0.304348 71:-0.110791 72:-0.104549 73:-0.450998 74:0.329588 75:-0.984407 76:0.154528 77:0.848186 78:-0.218207 79:-0.424658 80:-0.263224 81:1.0 82:0.179032 83:0.028124 84:-0.160269 85:0.687407 86:0.742245 87:-1.0 88:-0.301205 89:-0.849728 90:0.304378 91:0.453509 92:0.738644 93:-0.061453 94:0.850739 95:0.359421 96:0.789331 97:0.132076 98:0.235318 99:-0.698601 100:0.18398 101:0.325639 102:0.084186 103:0.508468 104:0.162192 105:0.132923 106:0.302885 107:-0.353893 108:-0.855726 109:0.200384 110:-0.608882 111:-0.677742 112:-0.073988 113:0.457192 114:-0.697203 115:-0.306358 116:-0.444343 117:0.899389 118:0.118811 119:-0.368188 120:0.619374 121:-0.790623 122:-0.832201 123:-0.138166 124:-0.45679 125:-0.429535 126:-0.819019 127:-0.257218 128:0.29297 129:-1.0 130:-0.428395 131:-0.761289 132:-0.920396 133:0.360656 134:-0.470034 135:-0.952343 136:0.664261 137:-0.688178 138:0.206159 139:-0.650438 140:-0.668426 141:-0.381749 142:0.405622 143:0.046777 144:-0.675128 145:0.747788 146:-0.19303 147:-0.356411 148:-0.515916 149:-0.799386 150:0.435791 151:0.661538 152:0.105576 153:-0.965627 154:-0.242481 155:-0.38711 156:0.716741 157:-0.571028 158:-0.76411 159:-0.2853 160:-0.121714 161:-0.283975 162:-0.823959 163:-0.505828 164:-0.930397 165:-0.191973 166:-0.792274 167:-0.78197 168:-0.166482 169:0.078189 170:-0.338583 171:-0.86155 172:-0.332652 173:-0.301699 174:0.392884 175:-0.546252 176:-0.80772 177:-0.179236 178:0.95107 179:-0.090157 180:-0.86364 181:-0.090544 182:0.071185 183:0.32199 184:-0.231265 185:-0.48064 186:0.739613 187:-0.294118 188:0.549617 189:-0.830937 190:0.101015 191:0.318245 192:0.411143 193:-0.002127 194:-0.313789 195:0.707679 196:0.157895 197:0.164352 198:-0.846866 199:-0.118439 200:0.089996 201:0.971489 202:1.0 203:0.636091 204:-0.308436 205:-0.378641 206:-0.313439 207:-0.657912 208:-0.701209 209:0.209459 210:-0.792009 211:0.181964 212:-0.474233 213:-1.0 214:0.277778 215:-0.809859 216:-0.866608 217:-0.167904 218:-0.47658 219:-0.443745 220:-0.291367 221:-0.379313 222:-0.86637 223:0.074627 224:-0.809585 225:-0.461102 226:-0.353368 227:-0.309177 228:0.098051 229:-0.803615 230:-0.949866 231:-0.490517 232:0.639098 233:-0.13742 234:-0.975615 235:0.753654 236:-0.113111 237:-0.072158 238:-0.698853 239:-0.845073 240:0.994906 241:0.461319 242:0.756694 243:-0.978479 244:0.1423 245:-0.576178 246:0.961464 247:-0.857231 248:-0.950741 249:0.356154 250:-0.012195 251:0.011797 252:-0.938399 253:-0.279318 254:-0.083026 255:0.071078 256:-0.723384 257:-0.896831 258:-0.210392 259:0.234043 260:-0.193607 261:-0.95776 262:0.038043 263:-0.656471 264:0.84284 265:-0.834385 266:-0.903329 267:-0.402332 268:-0.973064 269:0.030151 270:-0.92412 271:-0.333956 272:-0.659677 273:-0.410338 274:-0.933939 275:-0.946345 276:-0.972142 277:-0.038217 278:-0.615252 279:-0.906164 280:-0.177971 281:-0.06223 282:-0.825114 283:-0.714225 284:-0.851607 285:-0.668497 286:-0.189655 287:-0.260368 288:-0.956219 289:0.009822 290:0.727385 291:-0.700903 292:-0.572384 293:-0.81955 294:-0.589704 295:0.525547 296:-0.160419 297:-0.986734 298:-0.081319 299:0.527329 300:0.134814 301:-0.435696 302:-0.690954 303:-0.910173 304:0.871921 305:-0.195448 306:-0.953402 307:0.294244 308:1.0 309:0.817161 310:0.329179 311:-0.007378 312:-0.561663 313:-0.638889 314:-0.508462 315:-0.829552 316:0.445463 317:0.926525 318:0.716882 319:-0.400323 320:-0.709024 321:0.738522 322:-0.760797 323:0.277804 324:-0.981297 325:0.807651 326:0.811815 327:0.816091 328:-0.672056 329:-0.587573 330:0.966393 331:0.090042 332:-1.0 333:1.0 334:-0.441085 335:-0.401084 336:-0.424171 337:-0.593587 338:-0.530975 339:-0.243946 340:-0.08042 341:-0.255796 342:0.291759 343:0.137589 344:-0.566893 345:0.534737 346:-0.544914 347:-0.525574 348:-0.777408 349:-0.168317 350:0.592237 351:-0.094335 
-4.560980961849201 1:-0.275235 2:-0.275448 3:-0.275514 4:-0.114238 5:0.154111 6:-0.270484 7:0.322598 8:0.132239 9:-0.25118 10:-0.290832 11:0.408335 12:-0.525708 13:-0.484002 14:-0.080098 15:-0.624154 16:0.061433 17:0.40777 18:0.518549 19:-0.088099 20:0.256632 21:0.361793 22:0.045596 23:0.561861 24:0.690428 25:-0.104478 26:0.404547 27:0.02957 28:-0.345726 29:-0.023377 30:-0.542543 31:-0.358874 32:-0.288779 33:-0.638507 34:-0.077771 35:-0.584906 36:-0.369353 37:0.086129 38:-0.383013 39:0.510017 40:-0.381526 41:-0.886779 42:-0.090799 43:-0.114286 44:-0.181189 45:-0.912266 46:0.510522 47:0.308355 48:-0.787632 49:0.490087 50:0.095083 51:0.704343 52:0.066116 53:0.737973 54:-0.519671 55:0.054792 56:0.242212 57:-0.357971 58:0.345646 59:0.063825 60:-0.410611 61:0.979721 62:-0.256966 63:-0.869198 64:-0.081461 65:-0.74485 66:-0.066771 67:-0.535254 68:0.268187 69:0.078574 70:0.911141 71:0.1433 72:1.0 73:0.394154 74:-0.013694 75:-0.993364 76:-0.007332 77:0.255859 78:1.0 79:0.10274 80:1.0 81:0.855975 82:0.468212 83:-0.29486 84:-0.169158 85:-0.373388 86:-0.573266 87:-0.676151 88:0.084337 89:-0.990329 90:-0.414796 91:0.470855 92:0.133161 93:0.335892 94:0.247377 95:0.601479 96:-1.0 97:0.471698 98:-1.0 99:0.308888 100:-0.030595 101:-0.234558 102:0.17258 103:0.204068 104:-0.368257 105:0.16334 106:0.355769 107:-0.31795 108:-0.782378 109:0.670377 110:-0.056566 111:-0.67619 112:0.134564 113:0.210566 114:-0.33706 115:-0.190751 116:0.421908 117:-0.076017 118:0.597355 119:-0.574147 120:0.711891 121:-0.659338 122:-0.60814 123:-0.04467 124:0.308642 125:0.296869 126:-0.579796 127:-0.537644 128:0.341986 129:0.786983 130:1.0 131:1.0 132:-0.192051 133:0.377049 134:-0.099419 135:0.339406 136:0.013231 137:-0.125479 138:0.484523 139:0.242524 140:0.421723 141:-0.14361 142:0.228916 143:0.326717 144:0.319051 145:0.999267 146:-0.06879 147:-0.135425 148:0.324813 149:0.183984 150:1.0 151:0.446154 152:1.0 153:0.293431 154:0.062238 155:-0.012553 156:0.667643 157:-0.215593 158:-0.619355 159:-0.161027 160:-0.043817 161:-0.00376 162:-0.839137 163:1.0 164:0.141321 165:-0.325698 166:0.020367 167:0.110769 168:1.0 169:-0.053498 170:1.0 171:1.0 172:0.859 173:-0.886058 174:0.381198 175:1.0 176:1.0 177:1.0 178:1.0 179:1.0 180:1.0 181:0.357665 182:-0.186048 183:0.116677 184:-0.147262 185:-0.039135 186:0.627772 187:0.019608 188:0.177395 189:-0.445428 190:-0.350913 191:-0.673907 192:0.311567 193:-0.855382 194:-0.822792 195:0.726532 196:0.180921 197:0.17136 198:-0.883968 199:-1.0 200:-0.157806 201:0.972109 202:0.747046 203:0.479823 204:-0.376864 205:-0.067961 206:-0.326939 207:-0.577248 208:0.353977 209:-0.480716 210:-0.242234 211:0.287656 212:0.179712 213:0.522021 214:0.5 215:1.0 216:1.0 217:-0.004442 218:0.147047 219:-0.562442 220:-0.156334 221:-0.388576 222:-0.775154 223:0.044776 224:-0.213405 225:-0.810194 226:0.027145 227:-0.233618 228:0.042368 229:-0.547752 230:-0.693766 231:-0.477273 232:1.0 233:0.03604 234:-0.856102 235:-1.0 236:-0.184262 237:-0.139788 238:1.0 239:1.0 240:-1.0 241:0.635598 242:-1.0 243:1.0 244:0.896541 245:0.043834 246:0.932569 247:0.398167 248:0.592413 249:1.0 250:0.04878 251:1.0 252:1.0 253:-0.129495 254:0.162585 255:-0.109099 256:-0.133292 257:-0.010111 258:-0.116754 259:-0.021277 260:0.387753 261:0.065091 262:-0.279757 263:0.461829 264:0.844997 265:-0.447261 266:-0.519276 267:-0.427225 268:0.050505 269:-0.215523 270:-0.72342 271:-0.293628 272:-0.342552 273:-0.373463 274:-0.37337 275:-0.234276 276:-0.866678 277:0.082803 278:0.077985 279:0.012806 280:0.872181 281:-0.269303 282:-0.886485 283:1.0 284:1.0 285:1.0 286:0.056034 287:0.980625 288:1.0 289:0.460721 290:-0.415778 291:-0.715998 292:-0.006428 293:0.100484 294:-0.268713 295:0.153285 296:0.893833 297:0.797609 298:-0.402813 299:-0.36668 300:-0.35494 301:-0.8123 302:-0.852188 303:-0.918932 304:0.339901 305:-0.246606 306:-0.913785 307:-0.256899 308:0.002084 309:0.769737 310:-0.045349 311:-0.115201 312:-0.441778 313:-0.25 314:-0.23589 315:-0.612145 316:1.0 317:0.314258 318:0.706137 319:0.137695 320:0.359208 321:1.0 322:-0.860465 323:1.0 324:0.158145 325:0.487266 326:0.498284 327:0.509564 328:-0.404589 329:-0.250595 330:0.883881 331:0.133905 332:-0.856705 333:0.765518 334:-0.966587 335:0.07329 336:-0.338328 337:-0.643797 338:-0.772526 339:-0.280247 340:0.454545 341:-1.0 342:-0.243162 343:0.381036 344:0.101792 345:0.340938 346:-0.724323 347:-0.691719 348:-0.818011 349:0.09571 350:-0.416024 351:-0.59704 
