svm_type c_svc
kernel_type rbf
gamma 0.015625
nr_class 2
total_sv 96
rho 0.41333871599987687
label 1 -1
nr_sv 50 46
SV
1.6195948060735972 1:0.093179 2:0.085417 3:0.075742 4:0.333628 5:0.621774 6:-0.191881 7:-0.402435 8:-0.020523 9:-0.765826 10:-0.278312 11:-0.479038 12:0.059114 13:-0.47668 14:-0.361767 15:0.289596 16:0.118363 17:0.31377 18:-0.582651 19:0.239622 20:-0.583126 21:0.195478 22:-0.338591 23:-0.018274 24:-0.071978 25:0.219355 26:0.396689 27:0.122754 28:0.147746 29:-0.595404 30:-0.638193 31:-0.2615 32:-0.028793 33:0.016273 34:-0.081429 35:0.312773 36:-0.335721 37:-0.288625 38:-0.486972 39:0.615061 40:-0.294355 41:-0.263452 42:-0.403875 43:0.307692 44:-0.518205 45:-0.84324 46:-0.343205 47:0.027818 48:0.042138 49:0.130646 50:-0.102086 51:0.187754 52:0.160976 53:-0.04536 54:-0.705985 55:-0.03133 56:-0.304579 57:0.686291 58:0.499909 59:0.336434 60:0.172249 61:-0.458791 62:-0.029665 63:-0.750416 64:0.31962 65:-0.593774 66:0.69117 67:-0.675568 68:-0.424684 69:0.122576 70:0.231164 71:0.350074 72:-0.528188 73:-0.734851 74:-0.151106 75:-0.622355 76:-0.414421 77:-0.561577 78:-0.239256 79:0.22449 80:-0.514335 81:-0.538339 82:0.11281 83:-0.295193 84:0.694371 85:-0.298036 86:-0.195005 87:0.374484 88:0.199712 89:0.448171 90:-0.450251 91:0.136917 92:-0.176179 93:0.923021 94:-0.50646 95:-0.305762 96:-0.312132 97:-0.418803 98:0.003192 99:-0.321857 100:0.208884 101:-0.243096 102:-0.214673 103:-0.203754 104:-0.172684 105:-0.597943 106:0.391304 107:0.35444 108:-0.763881 109:0.568423 110:0.012888 111:0.619276 112:0.064699 113:-0.488968 114:-0.724443 115:-0.046729 116:-0.160172 117:-0.969443 118:0.398133 119:-0.275454 120:-0.86646 121:-0.232659 122:-0.528668 123:0.569372 124:-0.231579 125:0.041737 126:-0.804143 127:-0.361472 128:-0.093818 129:0.066144 130:0.674939 131:0.216601 132:0.778418 133:-0.2 134:0.605393 135:-0.678706 136:-0.113009 137:0.442606 138:-0.775969 139:0.091591 140:-0.349103 141:0.709543 142:-0.440901 143:0.378375 144:-0.856255 145:-0.024364 146:-0.090936 147:0.327819 148:-0.102183 149:-0.291896 150:0.017286 151:0.348315 152:-0.255342 153:-0.802529 154:-0.071219 155:0.385259 156:0.460041 157:0.326645 158:-0.376058 159:-0.779395 160:-0.178571 161:-0.776383 162:-0.900711 163:-0.107233 164:0.276112 165:-0.274382 166:0.207351 167:-0.378926 168:0.658165 169:0.189873 170:0.27942 171:-0.945179 172:0.620788 173:-0.719057 174:-0.387666 175:-0.649288 176:-0.784747 177:-0.44261 178:0.390374 179:-0.521326 180:-0.867415 181:0.343607 182:-0.944086 183:-0.668244 184:-0.658924 185:-0.670643 186:0.584939 187:-0.398496 188:0.060988 189:-0.371571 190:-0.071576 191:-0.063523 192:0.076829 193:-0.113438 194:-0.192224 195:0.496876 196:0.00682 197:0.32986 198:-0.631984 199:0.077829 200:-0.276432 201:-0.372075 202:0.289372 203:0.733832 204:-1.0 205:-0.320513 206:-0.881643 207:0.082905 208:-1.0 209:0.369774 210:-0.964313 211:0.128132 212:0.058313 213:-0.142187 214:-0.153846 215:-0.22283 216:-0.667425 217:0.280617 218:-0.214542 219:-0.929211 220:-0.455411 221:-0.640955 222:-0.805264 223:-0.193782 224:-0.136473 225:-0.878135 226:-0.595788 227:-0.138044 228:0.637623 229:-0.519465 230:-0.797282 231:-0.966427 232:0.222015 233:-0.375935 234:-0.936377 235:0.540899 236:0.356905 237:0.133718 238:0.046129 239:-0.18096 240:0.97394 241:-0.151515 242:0.663538 243:-0.635743 244:-0.17508 245:-0.053622 246:-0.428057 247:-0.458825 248:-0.655569 249:0.30509 250:0.157895 251:-0.122013 252:-0.81692 253:-0.489348 254:0.318015 255:0.514873 256:-0.258303 257:-0.551566 258:-0.317955 259:0.414248 260:-0.351701 261:-0.942059 262:-0.049517 263:-0.242466 264:-0.558791 265:-0.404373 266:-0.665264 267:-0.68451 268:0.113043 269:-0.484859 270:-0.868331 271:-0.716814 272:-0.06348 273:0.614143 274:0.053732 275:-0.118707 276:-0.061377 277:0.68527 278:-0.519813 279:-0.203938 280:0.021673 281:-0.433294 282:0.011842 283:-0.778278 284:-0.928842 285:-0.554597 286:-0.17757 287:-0.062721 288:-0.959813 289:-0.323736 290:-0.898123 291:0.56864 292:-0.737581 293:-0.815082 294:-0.430113 295:0.671233 296:0.161931 297:-0.893728 298:-0.712589 299:0.194421 300:1.0 301:0.195985 302:0.234629 303:-0.480023 304:0.42268 305:-0.415552 306:-0.113687 307:-0.639707 308:-0.127664 309:-0.486809 310:0.739642 311:0.847636 312:-0.218318 313:-0.762376 314:-0.597514 315:0.217934 316:0.817333 317:-0.213175 318:-0.98767 319:-0.171062 320:-0.457817 321:0.650402 322:0.253012 323:0.069341 324:-0.834587 325:0.424142 326:0.408191 327:0.391131 328:0.229019 329:0.830783 330:-0.361761 331:-0.869928 332:-0.15631 333:-0.68284 334:0.35069 335:-0.500439 336:0.620607 337:-0.216346 338:-0.484759 339:-0.119366 340:0.314063 341:0.138455 342:-0.804637 343:0.4341 344:-0.187522 345:-0.418399 346:-0.359832 347:-0.473568 348:-3.09E-4 349:0.714286 350:0.14373 351:-0.7107 
3.918566530532967 1:0.32529 2:0.289784 3:0.252542 4:0.682304 5:0.458956 6:-0.626142 7:0.113652 8:-0.148008 9:-0.860391 10:0.47955 11:-0.825179 12:0.053236 13:-0.549858 14:-0.573151 15:0.295798 16:-0.39823 17:0.383439 18:-0.709429 19:0.061097 20:-0.818543 21:0.163875 22:-0.599908 23:-0.580747 24:-0.422024 25:-0.019355 26:-0.669779 27:-0.323034 28:-0.551285 29:-0.220394 30:-0.643457 31:9.79E-4 32:0.108023 33:0.041731 34:-0.036799 35:0.230684 36:-0.573857 37:0.394416 38:-0.422896 39:0.620614 40:-0.306626 41:-0.419238 42:-0.318609 43:-0.467033 44:-0.344037 45:-0.859913 46:0.510065 47:-0.566927 48:0.083681 49:-0.443405 50:-0.248755 51:-0.059871 52:-0.463415 53:-0.732093 54:0.291707 55:-0.452466 56:-0.087411 57:0.637274 58:-0.319085 59:-0.273502 60:0.269948 61:-0.545788 62:-0.205397 63:-0.361735 64:0.074584 65:-0.058342 66:0.650745 67:-0.150669 68:-0.396816 69:0.291737 70:0.518435 71:0.472355 72:-0.878326 73:0.209218 74:-0.356217 75:-0.544874 76:-0.394572 77:-0.35993 78:-0.180852 79:-0.06576 80:-0.33811 81:-0.299413 82:-0.157938 83:-0.247887 84:0.694757 85:0.399896 86:0.615573 87:-0.012825 88:0.31846 89:-0.248137 90:-0.378684 91:-0.209516 92:-0.617971 93:0.91151 94:-0.502744 95:-0.664907 96:-0.229281 97:-0.433048 98:0.390662 99:-0.867649 100:0.087754 101:-0.625624 102:0.05857 103:-0.490874 104:-0.452122 105:-0.649457 106:0.561594 107:0.23026 108:-0.791619 109:-0.436769 110:0.508447 111:0.11193 112:0.625401 113:-0.153266 114:-0.890632 115:-0.420561 116:-0.445171 117:-0.928098 118:0.535187 119:-0.585115 120:-0.896291 121:-0.394328 122:-0.616624 123:0.64017 124:0.094737 125:0.451018 126:-0.752453 127:0.237378 128:-0.50834 129:0.502997 130:-0.305835 131:-0.353721 132:0.592216 133:-0.243243 134:0.749641 135:-0.590039 136:-0.244839 137:-0.276513 138:-0.611137 139:-0.34567 140:-0.687299 141:0.650675 142:-0.606004 143:0.227763 144:-0.898968 145:0.207475 146:-0.39179 147:0.279537 148:-0.269881 149:-0.28939 150:0.4236 151:0.348315 152:0.489309 153:-0.459676 154:1.0 155:-0.286717 156:0.411875 157:-0.275668 158:-0.716085 159:-0.562128 160:0.544643 161:-0.447865 162:-0.971515 163:0.185125 164:0.11262 165:-0.298148 166:-0.22954 167:-0.65803 168:0.725744 169:0.797468 170:0.454882 171:-0.968947 172:-0.634305 173:-0.215264 174:-0.328453 175:-0.113693 176:-0.561609 177:-0.471604 178:0.15508 179:-0.540022 180:-0.881353 181:-0.816745 182:-0.294993 183:-0.142179 184:-0.576969 185:-0.719279 186:0.588269 187:-0.097744 188:0.057335 189:-0.884994 190:-0.254939 191:-0.097103 192:0.02625 193:0.29512 194:0.326767 195:-0.08732 196:-0.438314 197:-0.242714 198:-0.510801 199:-0.308212 200:-0.367612 201:-0.38574 202:-0.342875 203:-0.552354 204:-0.078702 205:-0.589744 206:-0.050093 207:-0.909153 208:0.451558 209:-0.264734 210:-0.939068 211:-0.24596 212:-0.526628 213:0.25223 214:-0.138462 215:0.125319 216:-0.94629 217:-0.410841 218:0.269529 219:-0.924692 220:-0.264967 221:-0.627097 222:-0.805027 223:0.427979 224:-0.170911 225:-0.948221 226:-0.825501 227:-0.142133 228:0.652812 229:-0.605198 230:-0.759195 231:-0.964841 232:0.044776 233:-0.375383 234:-0.846016 235:0.612813 236:-0.254296 237:0.273767 238:-0.692162 239:-0.866313 240:0.864644 241:0.238095 242:0.20243 243:-0.92705 244:0.13016 245:-0.429762 246:-0.012365 247:-0.863641 248:-0.966602 249:0.296023 250:-0.093259 251:-0.224952 252:-0.968551 253:-0.015033 254:-0.462068 255:0.498571 256:-0.380493 257:-0.479192 258:-0.348496 259:0.361478 260:-0.562299 261:-0.848757 262:-0.103544 263:-0.607938 264:-0.590999 265:-0.681161 266:-0.799837 267:-0.67916 268:0.252174 269:-0.358266 270:-0.902425 271:-0.037613 272:-0.226434 273:0.604494 274:-0.547353 275:-0.83147 276:0.092466 277:0.107045 278:0.108718 279:-0.963649 280:-0.064143 281:-0.093441 282:0.003698 283:-0.594869 284:-0.860042 285:-0.549258 286:-0.869159 287:-0.0371 288:-0.941778 289:-0.557299 290:-0.311027 291:0.745831 292:-0.744825 293:-0.881674 294:-0.435595 295:0.39726 296:-0.008299 297:-1.0 298:0.045698 299:-0.443842 300:-0.040531 301:-0.230751 302:-0.46486 303:-0.103878 304:0.387629 305:0.210051 306:-0.905026 307:0.141866 308:-0.485486 309:-0.510139 310:-0.35255 311:-0.614905 312:0.446756 313:0.188119 314:0.14312 315:-0.924529 316:0.141054 317:0.099988 318:-0.987853 319:-0.308783 320:-0.605425 321:0.636866 322:0.13253 323:0.023781 324:-0.917313 325:0.324533 326:0.301416 327:0.276964 328:0.358555 329:0.412298 330:-0.418445 331:0.010889 332:-0.135439 333:-0.867148 334:-0.406285 335:-0.292641 336:0.61449 337:0.139207 338:-0.154715 339:-0.373193 340:-0.662878 341:-0.463783 342:-0.706093 343:0.353487 344:-0.077854 345:-0.424154 346:-0.195438 347:-0.387873 348:-0.061161 349:0.809524 350:-0.364932 351:-0.765473 
0.36819437717217524 1:0.373173 2:0.398375 3:0.426171 4:-0.348844 5:-0.284499 6:0.112221 7:0.483826 8:0.342949 9:-0.764791 10:0.175519 11:-0.385108 12:0.076537 13:0.134572 14:0.234887 15:0.595749 16:-0.438053 17:0.404339 18:-0.496485 19:0.547914 20:-0.145563 21:0.170641 22:-0.108163 23:-0.028537 24:-0.221343 25:0.122581 26:-0.060931 27:-0.523061 28:-0.529731 29:-0.031858 30:-0.46203 31:-0.036163 32:-0.268583 33:-0.130928 34:-0.098595 35:-0.15035 36:-0.889511 37:-0.03295 38:-0.599852 39:0.542953 40:-0.490769 41:-0.439788 42:-0.176542 43:-0.384615 44:0.069369 45:-0.694995 46:0.519649 47:0.095551 48:0.136274 49:0.142891 50:0.546709 51:-0.276311 52:-0.465854 53:-0.697764 54:-0.116479 55:0.812934 56:0.354922 57:0.717903 58:0.032932 59:0.003357 60:0.170148 61:-0.196886 62:-0.183367 63:-0.461355 64:-0.309723 65:-0.868571 66:0.663839 67:-0.714975 68:-0.636459 69:0.004046 70:-0.056108 71:0.037362 72:-0.745228 73:-0.573284 74:-0.403006 75:-0.584052 76:-0.323583 77:-0.31348 78:-0.023091 79:0.55102 80:0.068986 81:-0.495687 82:-0.307409 83:-0.143036 84:0.496972 85:-0.590724 86:-0.555 87:0.367238 88:0.078805 89:0.650874 90:-0.409601 91:-0.117985 92:-0.500309 93:0.921568 94:-0.224633 95:0.062522 96:-0.084494 97:-0.498576 98:0.599676 99:-0.074262 100:0.37033 101:-0.140688 102:0.151717 103:-0.219971 104:-0.04545 105:-0.652274 106:0.275362 107:0.241712 108:-0.698913 109:0.262282 110:-0.232808 111:0.603958 112:-0.270501 113:-0.512048 114:-0.760249 115:-0.172897 116:-0.212494 117:-0.828022 118:-0.634902 119:-0.346047 120:-0.920759 121:0.258813 122:-0.167183 123:0.78759 124:0.010526 125:0.589115 126:-0.660193 127:0.262486 128:-0.089241 129:-0.174179 130:-0.098913 131:-0.365516 132:0.572435 133:0.275676 134:0.539992 135:-0.845818 136:0.53467 137:-0.484729 138:-0.625584 139:-0.041234 140:-0.448629 141:0.642001 142:-0.440901 143:0.190574 144:-0.804742 145:-0.127614 146:-0.64825 147:0.326999 148:-0.525564 149:-0.35897 150:0.277205 151:0.235955 152:0.377622 153:-0.410977 154:-0.515756 155:0.479917 156:0.410662 157:0.49567 158:-0.287156 159:-0.605987 160:-0.5 161:-0.48713 162:-0.971029 163:0.004739 164:0.433478 165:-0.306786 166:0.38172 167:-0.13193 168:0.484435 169:0.341772 170:0.020397 171:-0.837675 172:-0.433767 173:-0.577909 174:-0.425249 175:-0.677664 176:-0.894725 177:-0.453572 178:0.069519 179:-0.635412 180:-0.955039 181:-0.003494 182:-0.575218 183:-0.595575 184:-0.45182 185:-0.552297 186:0.503313 187:-0.909774 188:-0.511256 189:-0.511176 190:-0.284738 191:-0.778846 192:0.010486 193:-0.666948 194:-0.559706 195:0.189981 196:-0.057657 197:-0.138433 198:-0.405011 199:0.040903 200:-0.057564 201:-0.401507 202:-0.174333 203:-0.308745 204:-0.137984 205:-0.25641 206:-0.193826 207:-0.873452 208:0.053454 209:-0.25189 210:-0.940651 211:-0.391351 212:-0.586003 213:0.216757 214:-0.046154 215:0.037172 216:-0.979447 217:0.424372 218:-0.155939 219:-0.929589 220:-0.49069 221:-0.759848 222:-0.806806 223:0.137824 224:-0.148486 225:-0.961472 226:-0.200565 227:0.122397 228:0.629264 229:-0.250247 230:-0.408165 231:-0.9399 232:-0.059701 233:-0.154395 234:-0.733103 235:-0.206077 236:-0.074293 237:0.285574 238:-0.522503 239:-0.794023 240:0.873607 241:-0.419913 242:0.400676 243:-0.932464 244:-0.325846 245:-0.008264 246:-0.538453 247:-0.432524 248:-0.76451 249:0.29921 250:-0.403509 251:-0.188422 252:-0.954053 253:-0.194729 254:-0.29391 255:0.502864 256:-0.567679 257:-0.717008 258:-0.337315 259:0.245383 260:-0.483862 261:-0.952872 262:-0.113048 263:0.842492 264:-0.759634 265:-0.424078 266:-0.77403 267:-0.682112 268:-0.026087 269:-0.453351 270:-1.0 271:-0.752327 272:0.040998 273:0.612473 274:-0.0708 275:-0.395054 276:0.136018 277:0.165599 278:0.291125 279:-0.699755 280:-0.068709 281:-0.341684 282:0.009811 283:-0.704229 284:-0.897133 285:-0.557896 286:-0.663551 287:-0.210601 288:-0.983595 289:-0.347343 290:-0.406869 291:0.518688 292:-0.671561 293:-0.674381 294:-0.437141 295:-0.09589 296:-0.022027 297:-0.83928 298:0.047676 299:-0.675849 300:-0.095334 301:-0.753288 302:-0.687217 303:-0.094828 304:0.274227 305:0.12827 306:-0.799681 307:0.420036 308:0.082736 309:-0.534779 310:-0.226092 311:-0.525219 312:0.43332 313:-0.405941 314:0.054208 315:-0.946588 316:0.004578 317:-0.255968 318:-0.987118 319:-0.480586 320:-0.670944 321:0.629026 322:0.253012 323:-0.038839 324:-0.852917 325:0.81732 326:0.840747 327:0.866751 328:-0.779432 329:-0.528325 330:0.016941 331:0.595465 332:-0.030208 333:-0.61389 334:0.049771 335:-0.191174 336:0.60694 337:-0.382355 338:-0.575524 339:-0.174231 340:-0.455018 341:0.004402 342:-0.902902 343:0.275449 344:0.052508 345:-0.409985 346:-0.294371 347:-0.414366 348:0.00769 349:0.285714 350:0.132712 351:-0.663211 
1.6705138281794814 1:0.28649 2:0.315482 3:0.344748 4:-0.448578 5:-0.152953 6:-0.088865 7:0.165217 8:-0.116887 9:-0.602251 10:0.649959 11:-0.675475 12:0.070475 13:-0.468053 14:-0.571712 15:0.106936 16:-0.279867 17:-0.211906 18:-0.78229 19:-0.130502 20:-0.115464 21:1.0 22:0.343968 23:0.643006 24:-0.539629 25:-0.406452 26:-0.349212 27:-0.406421 28:-0.358508 29:-0.604479 30:-0.635409 31:-0.457356 32:-0.305885 33:-0.096498 34:-0.126059 35:-0.10627 36:-0.48276 37:-0.647417 38:-0.285625 39:0.53674 40:0.0217 41:0.172047 42:-0.715261 43:-0.696429 44:-0.765772 45:-0.626384 46:0.234425 47:-0.222362 48:0.163712 49:-0.238385 50:-0.373654 51:-0.065029 52:0.121951 53:-0.568604 54:-0.586266 55:0.141788 56:-0.655404 57:0.687166 58:-0.23947 59:-0.310705 60:0.380313 61:-0.399267 62:0.057479 63:-0.560569 64:-0.226636 65:-0.260152 66:0.671272 67:-0.220155 68:-0.416807 69:0.053528 70:-0.117666 71:0.233116 72:-0.903546 73:0.3329 74:-0.076613 75:-0.300305 76:-0.446447 77:-0.717057 78:-0.127654 79:-0.179138 80:-0.217694 81:-0.901946 82:0.177106 83:-0.491796 84:0.743299 85:-0.287683 86:-0.27774 87:0.52754 88:0.242533 89:1.0 90:-0.364498 91:-0.138252 92:-0.64886 93:0.91516 94:-0.412467 95:-0.23763 96:-0.341634 97:-0.008547 98:-0.111102 99:-0.507329 100:0.526731 101:-0.612721 102:-1.0 103:-0.684235 104:-0.638734 105:-0.618406 106:0.884058 107:0.406479 108:-0.799922 109:-0.717409 110:0.149957 111:0.267952 112:0.030223 113:-0.526185 114:-0.906869 115:0.28972 116:-0.701753 117:-0.95504 118:0.381395 119:-0.399648 120:-0.889609 121:-0.464501 122:-0.769774 123:0.600987 124:-0.326316 125:0.146358 126:-0.941326 127:-0.851614 128:0.411554 129:0.258345 130:0.606745 131:0.046937 132:0.699219 133:0.810811 134:0.542046 135:-0.847518 136:-0.470154 137:-0.365261 138:-0.625734 139:-0.435622 140:-0.715446 141:0.692841 142:-0.155722 143:0.587474 144:-0.750286 145:0.087569 146:0.164591 147:0.295207 148:0.313426 149:-0.163863 150:0.152856 151:0.505618 152:-0.067342 153:-0.914261 154:0.358945 155:0.021983 156:0.407335 157:0.064571 158:-0.495479 159:-0.634901 160:0.883929 161:-0.61308 162:-0.923176 163:0.185316 164:0.165401 165:-0.257971 166:0.006628 167:-0.445571 168:0.644529 169:-0.357595 170:0.211546 171:-0.926975 172:0.022603 173:0.802717 174:-0.309239 175:0.329654 176:-0.484891 177:-0.44715 178:0.240642 179:-0.420772 180:-1.0 181:0.51516 182:-0.279407 183:-0.601167 184:-0.390756 185:-0.603839 186:0.535779 187:0.172932 188:-0.277885 189:-0.831407 190:0.447849 191:0.631246 192:0.124081 193:-0.087198 194:-0.236173 195:0.357976 196:0.041537 197:0.142525 198:-0.648672 199:0.622514 200:0.120818 201:-0.230918 202:-0.083847 203:-0.2742 204:0.140169 205:-0.179487 206:0.265748 207:-0.827679 208:0.733161 209:-0.21633 210:-0.936421 211:-0.53085 212:-0.558615 213:0.196684 214:-0.461538 215:-0.081103 216:-0.795928 217:0.05047 218:-0.392232 219:-0.929807 220:-0.457185 221:-0.665795 222:-0.813185 223:-0.658031 224:-0.239573 225:-0.882595 226:-0.686698 227:-0.531654 228:0.63845 229:-0.798469 230:-0.920975 231:-0.961342 232:-0.074627 233:-0.315196 234:-0.939145 235:0.527672 236:0.60965 237:-0.011205 238:-0.155742 239:-0.606732 240:0.886417 241:-0.575758 242:0.407268 243:-0.954337 244:-0.196371 245:-0.480193 246:-0.5314 247:-0.623449 248:-0.75529 249:0.301059 250:-0.093259 251:-0.121101 252:-0.833153 253:-0.242789 254:-0.061011 255:0.503166 256:-0.239678 257:-0.523511 258:-0.323862 259:-0.308707 260:-0.390017 261:-0.932022 262:0.040578 263:-0.038519 264:-0.59133 265:-0.460465 266:-0.765207 267:-0.673182 268:0.356522 269:-0.30886 270:-0.953139 271:0.241433 272:0.285595 273:0.630158 274:-0.032407 275:-0.5121 276:0.098222 277:-0.15645 278:0.102601 279:-0.934803 280:-0.047454 281:1.0 282:0.038244 283:-0.250753 284:-0.708833 285:-0.563786 286:-0.457944 287:-0.257778 288:-0.99291 289:-0.53232 290:-0.370098 291:0.452526 292:-0.552947 293:-0.737177 294:-0.431983 295:0.150685 296:0.087769 297:-0.919527 298:0.161863 299:0.124309 300:-0.073063 301:-0.210972 302:-0.490298 303:-0.144748 304:0.246392 305:0.052183 306:-0.903048 307:0.180243 308:-0.44794 309:-0.540525 310:-0.347156 311:-0.639518 312:0.453561 313:-0.128713 314:0.202848 315:-0.946853 316:0.03408 317:-0.245938 318:-0.98727 319:-0.535331 320:-0.680477 321:0.620867 322:0.349398 323:-0.12367 324:-0.804773 325:0.307201 326:0.333743 327:0.359993 328:-0.594324 329:-0.22625 330:-0.002485 331:0.378282 332:-0.036212 333:-0.567815 334:-0.769597 335:-0.286568 336:0.60663 337:-0.168723 338:-0.392157 339:-0.334147 340:0.002273 341:-0.586726 342:-0.577533 343:0.378784 344:-0.247176 345:-0.418145 346:-0.327647 347:-0.342514 348:0.008649 349:0.428571 350:0.181556 351:-0.252053 
1.0357878669894462 1:-0.027126 2:-0.018424 3:-0.013061 4:0.06867 5:-0.13299 6:-0.256047 7:0.182783 8:-0.139807 9:-0.790075 10:0.022887 11:-0.43921 12:0.059803 13:-0.273072 14:0.080918 15:0.637914 16:-0.543418 17:0.851592 18:0.449988 19:0.709131 20:0.277128 21:0.156992 22:0.465233 23:0.124245 24:-0.647783 25:-0.329032 26:-0.384224 27:-0.975191 28:0.249574 29:-0.168363 30:-0.256286 31:-0.093565 32:-0.225223 33:-0.214803 34:-0.716554 35:-0.376528 36:-0.79945 37:-0.044751 38:-0.576395 39:0.47575 40:-0.640576 41:-0.341243 42:-0.293893 43:0.17342 44:-0.31943 45:-0.394293 46:0.128723 47:-0.80286 48:0.08869 49:-0.638664 50:-0.918566 51:0.057316 52:-0.131707 53:-0.240217 54:-0.770574 55:0.351118 56:-0.428636 57:0.695414 58:-0.078215 59:0.233722 60:0.276598 61:0.245421 62:-0.080029 63:-0.23056 64:-0.186394 65:-0.416221 66:0.669522 67:-0.409344 68:-0.564493 69:0.234431 70:0.231164 71:0.488586 72:-0.885651 73:-0.819738 74:0.102922 75:-0.620443 76:-0.583888 77:-0.314529 78:-0.066437 79:0.768708 80:-0.042771 81:0.241472 82:-0.174776 83:-0.447594 84:0.663813 85:-0.323538 86:-0.223694 87:0.217299 88:0.412738 89:-0.148847 90:-0.411045 91:0.018985 92:-0.400785 93:0.91997 94:-0.02218 95:0.141323 96:-0.217381 97:-0.508547 98:0.173618 99:-0.612643 100:-0.240516 101:0.158004 102:-0.627844 103:0.076515 104:-0.068139 105:-0.386996 106:0.423913 107:0.580452 108:-0.800313 109:0.217933 110:0.225351 111:0.35352 112:0.273854 113:-0.325587 114:-0.938203 115:-0.364486 116:-0.63004 117:-0.888258 118:-0.109057 119:-0.589961 120:-0.892706 121:-0.226619 122:-0.350847 123:0.521462 124:-0.515789 125:-0.187116 126:-0.422315 127:-0.156464 128:0.114144 129:0.238502 130:0.737252 131:0.193954 132:0.339986 133:0.156757 134:0.169485 135:-0.783668 136:0.127015 137:-0.285117 138:-0.622218 139:-0.047639 140:-0.521572 141:0.614163 142:-0.666041 143:0.092453 144:-0.88114 145:-0.091173 146:-0.438554 147:0.250907 148:-0.445441 149:-0.463577 150:-0.003396 151:-0.258427 152:-0.451643 153:-0.630569 154:-0.390466 155:-0.810835 156:0.373902 157:-0.765982 158:-0.817898 159:-0.547389 160:-0.401786 161:-0.248973 162:-0.81143 163:-0.522487 164:-0.145405 165:-0.288402 166:-0.334004 167:-0.512556 168:0.655028 169:0.731013 170:0.139184 171:-0.817045 172:0.670056 173:-0.084943 174:-0.363345 175:-0.199061 176:-0.600126 177:-0.407004 178:0.13369 179:-0.299498 180:-0.888671 181:0.015589 182:-0.793596 183:-0.578156 184:-0.60145 185:-0.571517 186:0.68707 187:-0.097744 188:1.0 189:0.647476 190:-0.62124 191:-0.016509 192:-0.03751 193:-0.40721 194:-0.365269 195:0.334891 196:0.015499 197:0.231178 198:-0.535742 199:-0.211416 200:0.243267 201:-0.212897 202:-0.105642 203:-0.371798 204:-0.088566 205:0.141026 206:-0.103033 207:-0.88773 208:-0.449621 209:0.068364 210:-0.942372 211:0.095012 212:-0.119714 213:0.226654 214:-0.296154 215:0.090705 216:-0.850929 217:0.42457 218:0.806277 219:-0.934822 220:-0.006517 221:-0.44609 222:-0.791493 223:0.386528 224:-0.142889 225:-0.931886 226:-0.494225 227:-0.568397 228:0.640953 229:-0.478392 230:-0.578627 231:-0.978602 232:-0.470149 233:-0.52515 234:-0.677627 235:0.044614 236:0.714291 237:0.061312 238:-0.030699 239:-0.33922 240:0.89061 241:0.099567 242:0.398152 243:-0.82159 244:-0.26754 245:0.310621 246:-0.49885 247:-0.357036 248:-0.610443 249:0.306708 250:0.054478 251:-0.135993 252:-0.821793 253:-0.126379 254:-0.095284 255:0.507831 256:-0.330704 257:-0.452227 258:-0.347847 259:0.234829 260:-0.545492 261:-0.879938 262:0.007431 263:-0.578288 264:-0.565034 265:-0.820345 266:-0.837589 267:-0.679062 268:0.391304 269:-0.257415 270:-0.788592 271:-0.184464 272:-0.072651 273:-0.095573 274:-0.275077 275:-0.638354 276:0.092825 277:0.297347 278:0.088242 279:-0.884314 280:-0.029026 281:0.104727 282:0.05283 283:-0.64693 284:-0.827683 285:-0.557368 286:0.028037 287:-0.198988 288:-0.958731 289:-0.333519 290:-0.785619 291:0.543709 292:-0.765865 293:-0.655736 294:-0.427414 295:0.123288 296:0.268502 297:-0.582778 298:-0.057426 299:-0.083293 300:0.066198 301:-0.454392 302:-0.64617 303:-0.065074 304:-0.02268 305:0.43705 306:-0.955099 307:0.088089 308:0.105236 309:-0.533839 310:-0.245988 311:-0.55976 312:0.437872 313:-0.128713 314:0.080838 315:-0.961075 316:0.137416 317:0.170525 318:-0.985845 319:0.00384 320:-0.355868 321:0.605934 322:0.156626 323:-0.03938 324:-0.807801 325:0.0526 326:0.062899 327:0.071479 328:-0.127769 329:-0.157683 330:-0.094452 331:0.089499 332:-0.044338 333:-0.851708 334:-0.015561 335:0.169274 336:0.613297 337:0.239894 338:-0.211488 339:-0.320984 340:0.128288 341:-0.342197 342:-0.924262 343:0.522128 344:0.519357 345:-0.42394 346:0.234884 347:-0.215409 348:0.14372 349:-0.0 350:0.15522 351:-0.935016 
0.6322888782443284 1:0.555691 2:0.576791 3:0.601032 4:-0.351459 5:-0.30328 6:-0.047555 7:-0.506087 8:0.010829 9:-0.789713 10:0.030092 11:-0.284867 12:0.055473 13:-0.096598 14:-0.056965 15:0.83154 16:-0.380531 17:0.858072 18:0.185496 19:0.265953 20:-0.608314 21:0.184118 22:-0.416 23:-0.504918 24:-0.284151 25:0.354839 26:-0.08722 27:-0.761122 28:0.380837 29:-0.608009 30:-0.620966 31:-0.568831 32:-0.539495 33:-0.048149 34:0.189786 35:0.214841 36:-0.515278 37:-0.16192 38:-0.603305 39:0.591681 40:-0.156366 41:-0.12121 42:-0.625191 43:0.208791 44:-0.80819 45:-0.644247 46:-0.063922 47:-0.352744 48:0.168358 49:-0.132433 50:-0.389601 51:-0.064784 52:0.278049 53:-0.505803 54:-0.801402 55:0.381885 56:-0.478015 57:0.690511 58:-0.04619 59:0.177371 60:0.6444 61:-0.414606 62:0.46771 63:-0.224955 64:-0.16633 65:-0.620854 66:0.663824 67:-0.290795 68:-0.074 69:-0.055377 70:-0.379288 71:0.0942 72:-0.542653 73:-0.166644 74:-0.421413 75:-0.635594 76:-0.56145 77:-0.492442 78:-0.171215 79:-0.029478 80:-0.44732 81:-0.290868 82:0.176799 83:-0.534787 84:0.777393 85:-0.467258 86:-0.333422 87:0.126063 88:0.211227 89:-0.713573 90:-0.189258 91:-0.507954 92:-0.277035 93:0.916923 94:0.245153 95:0.185442 96:-0.516345 97:-0.74359 98:-0.24936 99:-0.801664 100:0.420722 101:-0.00171 102:0.147586 103:-0.193308 104:-0.2607 105:-0.665726 106:0.400966 107:0.215989 108:-0.78261 109:0.360323 110:-0.414626 111:0.385299 112:-0.274787 113:-0.610556 114:-0.745184 115:-0.186916 116:-0.126212 117:-0.885592 118:0.734121 119:-0.182461 120:-0.906224 121:0.184688 122:0.15175 123:0.329611 124:-0.20921 125:-0.34932 126:0.073741 127:-0.413906 128:0.070153 129:0.309626 130:0.470099 131:0.163995 132:0.648971 133:0.318919 134:0.517211 135:-0.689577 136:-0.096822 137:0.173277 138:-0.602626 139:-0.087413 140:-0.417558 141:0.664815 142:-0.403377 143:0.275177 144:-0.819822 145:-0.012449 146:0.520185 147:0.357942 148:0.838047 149:1.0 150:0.325079 151:0.325843 152:0.001396 153:-0.347211 154:0.153308 155:0.669741 156:0.597938 157:1.0 158:0.416414 159:0.268215 160:0.071429 161:0.114147 162:-0.610532 163:-0.161327 164:0.238916 165:-0.290682 166:0.073953 167:0.102101 168:0.671342 169:0.088608 170:0.291988 171:-0.615163 172:-0.652267 173:-0.660622 174:-0.299881 175:-0.484515 176:-0.644538 177:-0.429484 178:-0.069519 179:-0.396512 180:-0.840921 181:-0.505232 182:-0.538545 183:-0.612352 184:-0.436393 185:-0.301676 186:0.730838 187:0.293233 188:0.859515 189:0.841604 190:0.025882 191:-0.348173 192:-0.202884 193:-0.450207 194:-0.554138 195:0.106731 196:0.299442 197:-0.299752 198:-0.62806 199:0.063337 200:0.596195 201:-0.292 202:0.404973 203:0.24061 204:-0.408304 205:-0.589744 206:-0.34736 207:-0.758481 208:-0.410691 209:0.531689 210:-0.936653 211:0.098281 212:-0.085997 213:0.062702 214:-0.030769 215:-0.057054 216:-0.851206 217:-0.298763 218:-0.213197 219:-0.930054 220:-0.352355 221:-0.474199 222:-0.848933 223:0.038342 224:-0.56433 225:-0.636129 226:0.439286 227:0.043597 228:0.871777 229:0.173504 230:0.123555 231:-0.48938 232:-0.597015 233:0.856534 234:0.741358 235:-1.0 236:0.50511 237:0.168517 238:-0.100074 239:-0.531304 240:0.821578 241:-0.437229 242:0.09095 243:-0.899754 244:0.572635 245:-0.168753 246:-0.522832 247:-0.030942 248:-0.117722 249:0.553542 250:1.0 251:0.649249 252:0.371729 253:-1.0 254:0.744815 255:0.500468 256:1.0 257:0.969931 258:-1.0 259:0.266491 260:-1.0 261:-0.381258 262:-1.0 263:1.0 264:-0.602376 265:0.471015 266:0.09616 267:-1.0 268:0.488587 269:-1.0 270:-0.438525 271:0.495117 272:0.456901 273:0.707216 274:0.246057 275:-0.089283 276:0.312876 277:-0.595608 278:0.679869 279:-0.205708 280:-0.088574 281:-0.128822 282:0.044115 283:-0.600105 284:-0.79825 285:-0.554427 286:-0.158878 287:-0.14098 288:-0.915347 289:-0.065456 290:-0.1476 291:0.225517 292:-0.212652 293:-0.045087 294:-0.29656 295:0.013699 296:0.799988 297:0.240205 298:0.314846 299:-0.528598 300:0.069545 301:-0.61772 302:-0.72128 303:-0.071467 304:0.043299 305:0.460312 306:-0.92937 307:-0.42331 308:-0.076742 309:-0.551625 310:0.484857 311:0.547442 312:-0.017582 313:-0.762376 314:-0.607769 315:0.221259 316:-0.711227 317:-0.005604 318:-0.986558 319:0.435085 320:0.526296 321:-0.396232 322:1.0 323:-1.0 324:1.0 325:0.616192 326:0.638353 327:0.661994 328:-0.616571 329:-0.180617 330:0.009647 331:0.252387 332:0.008955 333:-0.457849 334:0.450495 335:-0.320369 336:0.619582 337:-0.202948 338:-0.29064 339:-0.050992 340:0.064631 341:0.366924 342:-0.190016 343:-0.277668 344:-0.17379 345:-0.419808 346:-0.129762 347:-0.162578 348:-0.192645 349:-0.089286 350:-1.0 351:-0.277722 
1.2360032948576134 1:0.574864 2:0.593494 3:0.615584 4:-0.291513 5:-0.156006 6:-0.013587 7:-0.413565 8:0.08334 9:-0.672721 10:0.690594 11:-0.581487 12:0.066794 13:-0.016984 14:-0.053922 15:0.355842 16:-0.486726 17:0.245496 18:-0.783325 19:-0.411898 20:0.124137 21:0.069866 22:-0.047698 23:-0.131684 24:-0.181475 25:0.445161 26:-0.027647 27:-0.776786 28:-0.061749 29:-0.470319 30:-0.558242 31:-0.336913 32:-0.638576 33:-0.056426 34:-0.095161 35:0.073363 36:-0.861137 37:0.512916 38:0.224064 39:0.264149 40:0.424356 41:0.52247 42:-0.205308 43:-0.373626 44:-0.219861 45:-0.861654 46:-0.635614 47:-0.124996 48:0.06099 49:-0.781689 50:-0.808772 51:-0.003693 52:0.02439 53:-0.877648 54:0.230005 55:0.025817 56:-0.722895 57:0.678094 58:-0.649272 59:-0.434087 60:0.505063 61:-0.1337 62:0.477765 63:0.163303 64:-0.289448 65:0.042379 66:0.602777 67:-0.216975 68:-0.487235 69:0.408112 70:0.226034 71:0.620486 72:-0.882664 73:-0.182386 74:-0.121461 75:-0.555574 76:0.073721 77:-0.157059 78:-0.39513 79:0.099773 80:-0.395914 81:-0.706699 82:0.510029 83:-0.123716 84:0.540679 85:-0.277134 86:-0.211329 87:0.506154 88:0.098956 89:0.907136 90:-0.230592 91:-0.724118 92:-0.445743 93:0.936802 94:-0.38406 95:-0.452844 96:-0.305982 97:-0.088319 98:0.023906 99:-0.871471 100:-0.392979 101:-0.363526 102:0.147032 103:-0.673065 104:-0.750975 105:-0.615025 106:0.376812 107:0.423413 108:-0.837073 109:-0.394489 110:-0.658721 111:0.384531 112:-0.371048 113:-0.543104 114:-0.741085 115:-0.655374 116:-0.049207 117:-0.632276 118:-1.0 119:-0.243967 120:-0.917131 121:-0.288337 122:-0.494148 123:0.599444 124:0.410526 125:0.179366 126:-0.673991 127:0.403236 128:0.163234 129:0.067721 130:0.163881 131:-0.212859 132:0.312476 133:0.275676 134:-0.089684 135:-0.749148 136:0.27655 137:-0.972827 138:-0.623882 139:-0.774978 140:-0.976481 141:0.647831 142:0.114447 143:0.196923 144:-0.90404 145:0.734586 146:0.485428 147:0.15206 148:0.533178 149:0.140128 150:0.308943 151:0.460674 152:0.026255 153:-0.764572 154:-0.042157 155:-0.615085 156:0.311396 157:-0.446966 158:-0.677182 159:-0.530983 160:-0.107143 161:-0.242943 162:-0.8244 163:0.005508 164:-0.558826 165:-0.280618 166:-0.452379 167:-0.691228 168:0.714576 169:-0.265823 170:0.429976 171:-0.934598 172:-0.150096 173:-0.676176 174:-0.346237 175:-0.259714 176:-0.669156 177:-0.406429 178:0.71123 179:-0.288571 180:-0.872081 181:0.732027 182:0.205094 183:-0.587685 184:-0.074378 185:-0.335982 186:0.406001 187:-0.729323 188:-0.523753 189:-0.727151 190:-0.10637 191:0.303742 192:0.021901 193:-0.166809 194:-0.345064 195:0.446777 196:-0.3354 197:0.293747 198:-0.829483 199:-0.013234 200:-0.060943 201:-0.362525 202:-0.142151 203:-0.379478 204:0.07128 205:-0.217949 206:0.191061 207:-0.84267 208:0.160545 209:-0.714705 210:-0.942781 211:-0.730891 212:-0.814382 213:0.247281 214:-0.292308 215:0.160133 216:-0.897667 217:0.044824 218:-0.7522 219:-0.929624 220:-0.758907 221:-0.798083 222:-0.808496 223:0.187565 224:-0.076442 225:-0.743112 226:-0.499004 227:-0.54312 228:0.643168 229:-0.750548 230:-0.759527 231:-0.961501 232:-0.074627 233:-0.316374 234:-0.730182 235:0.481006 236:0.00692 237:-0.386545 238:-0.44185 239:-0.723343 240:0.860893 241:-0.246753 242:0.221966 243:-0.942366 244:-0.169625 245:-0.7947 246:-0.570662 247:-0.960526 248:-0.971195 249:0.296176 250:0.039705 251:-0.211275 252:-0.888813 253:-0.759174 254:0.475442 255:0.473437 256:-0.102805 257:-0.386775 258:-0.35937 259:0.097625 260:-0.559865 261:-0.897152 262:0.11345 263:-0.690692 264:-0.60184 265:-0.693379 266:-0.809593 267:-0.680821 268:0.321739 269:-0.425076 270:-0.897042 271:0.040127 272:-0.376918 273:0.732931 274:-0.586279 275:-0.758391 276:0.077195 277:-1.0 278:-0.150149 279:-0.831097 280:-0.056346 281:-0.399087 282:0.114327 283:-0.731671 284:-0.843947 285:-0.563047 286:-0.607477 287:-0.392383 288:-0.851632 289:-0.489374 290:-0.030473 291:0.572492 292:-0.504685 293:-0.712632 294:-0.433622 295:-0.232877 296:0.065032 297:-0.987365 298:-0.116762 299:-0.100407 300:0.219543 301:-0.304356 302:-0.628621 303:-0.096357 304:0.23299 305:0.233565 306:-1.0 307:-0.051735 308:-0.188439 309:-0.546482 310:-0.321329 311:-0.620615 312:0.444451 313:-0.643564 314:0.123412 315:-0.967054 316:0.214119 317:-0.518805 318:-0.98649 319:-0.771389 320:-0.945514 321:0.641055 322:0.060241 323:0.083687 324:-0.916445 325:0.612464 326:0.625708 327:0.639948 328:-0.38014 329:-5.17E-4 330:-0.098314 331:-0.45113 332:-0.197836 333:-0.448424 334:-0.413601 335:-0.78782 336:0.612479 337:-0.328825 338:-0.384358 339:-0.259097 340:-0.08087 341:-0.423166 342:-0.210779 343:0.047342 344:-0.642864 345:-0.42086 346:-0.462116 347:-0.546027 348:-0.047896 349:0.142857 350:-0.313144 351:-0.610546 
0.831206981424275 1:0.319038 2:0.351699 3:0.385574 4:-0.550937 5:-0.708063 6:-0.011101 7:0.43513 8:0.082017 9:-0.866556 10:0.379427 11:-0.855745 12:0.211649 13:-0.505334 14:-0.487998 15:0.242699 16:-0.318584 17:0.183403 18:-0.36357 19:-0.050851 20:-0.424994 21:0.187022 22:-0.22703 23:-0.215227 24:-0.372869 25:-0.185484 26:-0.296452 27:-0.637682 28:0.889941 29:0.221921 30:-0.604432 31:-0.438922 32:-0.452751 33:-0.036597 34:0.662697 35:0.205016 36:-0.632646 37:0.643612 38:-0.568866 39:0.518631 40:-0.467338 41:-0.140028 42:-0.114975 43:0.010989 44:0.236523 45:-0.180397 46:-0.385156 47:-0.590353 48:0.038106 49:-0.383651 50:-0.413376 51:-0.056199 52:-0.42439 53:-0.655578 54:-0.396214 55:0.156787 56:-0.653233 57:0.690068 58:-0.403146 59:-0.198532 60:0.530011 61:-0.120879 62:0.418673 63:-0.311703 64:-0.328654 65:-0.579813 66:0.666163 67:-0.586024 68:-0.579591 69:-0.019381 70:-0.171529 71:0.043624 72:-0.704379 73:-0.103252 74:-0.478991 75:-0.57035 76:-0.274711 77:-0.421932 78:-0.049123 79:-0.102041 80:0.006797 81:-0.618014 82:0.257854 83:-0.348066 84:0.757403 85:-0.290076 86:-0.397428 87:0.18004 88:0.130623 89:-0.267899 90:-0.632513 91:-0.561284 92:-0.720856 93:0.915609 94:-0.58148 95:-0.616218 96:-0.287495 97:0.014245 98:0.143062 99:-0.797829 100:-0.595686 101:-0.429027 102:0.060778 103:-0.723399 104:-0.819966 105:-0.619204 106:0.823672 107:0.417685 108:-0.810882 109:0.106296 110:-0.244404 111:0.142317 112:-0.318328 113:-0.602635 114:-0.809985 115:0.140187 116:-0.512392 117:-0.840026 118:0.427618 119:-0.518728 120:-0.889699 121:-0.537836 122:-0.724346 123:0.594066 124:0.242105 125:0.044534 126:-0.822858 127:-0.399111 128:-0.235504 129:0.258308 130:0.189299 131:-0.203517 132:0.838132 133:0.167568 134:1.0 135:-0.603515 136:-0.018081 137:-0.228642 138:-0.628125 139:-0.176648 140:-0.460882 141:0.731619 142:-0.020638 143:0.593499 144:-0.69339 145:-0.384251 146:-0.256351 147:0.31863 148:-0.02027 149:0.210436 150:-0.505356 151:0.213483 152:-0.920911 153:0.094836 154:0.379308 155:-0.341794 156:0.293824 157:-0.024454 158:-0.435564 159:-0.610687 160:-0.580357 161:-0.576751 162:-0.872579 163:-0.102011 164:-0.381286 165:-0.280869 166:-0.67269 167:-0.793162 168:0.699082 169:-0.063291 170:0.318867 171:-0.974681 172:-0.0099 173:-0.665295 174:-0.358969 175:-0.619192 176:-0.822149 177:-0.416866 178:0.454545 179:-0.292938 180:-0.924517 181:0.739204 182:0.052414 183:-0.582409 184:-0.371391 185:-0.513189 186:0.575718 187:-0.007519 188:-0.067136 189:-0.885595 190:-0.183466 191:-0.382788 192:0.032282 193:-0.314721 194:-0.354029 195:-0.043756 196:0.259764 197:-0.515513 198:-0.538723 199:0.453008 200:0.25242 201:-0.294319 202:-0.275275 203:-0.625866 204:-0.065267 205:-0.092949 206:-0.030455 207:-1.0 208:0.151499 209:-0.628835 210:-0.935406 211:-0.680003 212:-0.686455 213:0.238439 214:-0.023077 215:0.087609 216:-0.765446 217:0.309104 218:-0.374829 219:-0.931063 220:-0.498486 221:-0.723451 222:-0.809534 223:-0.094301 224:-0.187866 225:-0.873824 226:-0.514057 227:-0.686707 228:0.631326 229:-0.916485 230:-0.965471 231:-0.963734 232:0.373134 233:-0.607546 234:-0.773183 235:0.110489 236:0.074253 237:0.094079 238:-0.352315 239:-0.745592 240:0.869012 241:-0.523809 242:0.31815 243:-0.977088 244:-0.555493 245:-0.007047 246:-0.445262 247:-0.511497 248:-0.78668 249:0.298679 250:0.128347 251:-0.185894 252:-0.919466 253:-0.336897 254:-0.480361 255:0.491191 256:-0.152219 257:-0.123857 258:-0.382862 259:0.424802 260:-0.683369 261:-0.647571 262:-0.146745 263:0.189722 264:-0.582872 265:-0.459794 266:-0.744541 267:-0.669549 268:-0.2 269:-0.249773 270:-0.917605 271:0.027947 272:-0.508793 273:0.249789 274:-0.651107 275:-0.822495 276:0.086246 277:-0.273559 278:-0.006116 279:-0.855734 280:-0.037629 281:-0.429068 282:-0.003657 283:-0.79949 284:-0.911764 285:-0.555765 286:-0.420561 287:-0.102794 288:-0.946641 289:-0.256104 290:-0.523389 291:0.546 292:-0.636588 293:-0.747987 294:-0.428659 295:0.003425 296:0.15996 297:-0.921743 298:0.305175 299:-0.599613 300:0.042207 301:-0.429842 302:-0.485406 303:-0.105252 304:0.109278 305:0.15581 306:-0.825546 307:0.168772 308:-0.402348 309:-0.472915 310:-0.370918 311:-0.703142 312:0.43699 313:-0.841584 314:0.051815 315:-0.968851 316:0.046528 317:-0.778408 318:-0.986554 319:-0.763381 320:-0.902795 321:0.629949 322:-0.036145 323:-0.148084 324:-0.75486 325:0.239317 326:0.261324 327:0.283056 328:-0.433451 329:-0.467681 330:0.027917 331:-0.099045 332:0.116996 333:-0.884376 334:-0.202599 335:-0.228164 336:0.603773 337:-0.188935 338:-0.441894 339:-0.310404 340:0.428386 341:-0.525899 342:-0.770668 343:0.777113 344:-0.257979 345:-0.42221 346:-0.271839 347:-0.419389 348:-0.006228 349:0.428571 350:0.007748 351:-0.810845 
1.1162662628810607 1:0.45401 2:0.47841 3:0.504914 4:-0.393207 5:-0.048928 6:-0.0343 7:-0.026783 8:0.033057 9:-0.500725 10:0.066206 11:-0.553662 12:0.053933 13:-0.638701 14:-0.402574 15:0.294024 16:-0.393805 17:0.460275 18:0.055517 19:0.447298 20:0.056751 21:0.193001 22:-0.002534 23:0.406855 24:-0.873426 25:-0.043548 26:-0.848097 27:-0.087782 28:0.518243 29:-0.298605 30:-0.615661 31:-0.49507 32:-0.20067 33:-0.141031 34:-0.798949 35:-0.373639 36:-0.242152 37:-0.250837 38:-0.423783 39:0.622972 40:-0.445293 41:-0.703368 42:-0.313764 43:-0.912088 44:-0.356706 45:-0.972503 46:-0.189711 47:0.062061 48:0.101815 49:0.311305 50:0.074585 51:-0.069513 52:-0.131707 53:-0.368187 54:-0.917895 55:0.365972 56:-0.646141 57:0.668647 58:-0.596499 59:-0.436322 60:0.559594 61:-0.413919 62:0.651074 63:-0.1153 64:-0.550485 65:-0.246327 66:0.660972 67:-0.507883 68:-0.601266 69:0.300236 70:-1.0 71:0.647294 72:-0.683485 73:0.364519 74:-0.469068 75:-0.600226 76:-0.05181 77:-0.212702 78:0.12892 79:0.210034 80:0.24763 81:-0.705515 82:0.488706 83:-0.676824 84:0.729936 85:-0.600241 86:-0.603665 87:0.306279 88:0.09032 89:0.242703 90:-0.752275 91:-0.102723 92:-0.657759 93:0.92229 94:-0.193003 95:-0.040186 96:-0.172001 97:-0.12963 98:0.347994 99:-0.608919 100:-0.421281 101:-0.271615 102:0.038491 103:-0.377453 104:-0.407831 105:-0.60816 106:0.21256 107:0.362089 108:-0.827276 109:-0.201426 110:-0.309326 111:0.360123 112:-0.210778 113:-0.500701 114:-0.767162 115:-0.242991 116:-0.258863 117:-0.805648 118:-0.159539 119:-0.539182 120:-0.902801 121:-0.386131 122:-0.641539 123:0.616768 124:-0.147368 125:0.280375 126:-0.853964 127:0.303733 128:0.076587 129:-0.129549 130:0.626336 131:0.079617 132:0.987608 133:-0.005405 134:0.851051 135:-0.738677 136:-0.134068 137:-0.318429 138:-0.660174 139:-0.305205 140:-0.5456 141:0.655172 142:-0.771107 143:0.253871 144:-0.77607 145:0.07341 146:-0.710966 147:0.315241 148:-0.657508 149:-0.678287 150:0.210903 151:-0.449087 152:0.248505 153:-0.800253 154:-0.065044 155:-0.064177 156:0.387946 157:0.104295 158:-0.42418 159:-0.513047 160:-0.5 161:-0.327309 162:-0.924309 163:0.755223 164:-0.160269 165:-0.20274 166:-0.510184 167:-0.649969 168:0.725416 169:0.468354 170:0.508072 171:-0.894272 172:0.150935 173:-0.436093 174:-0.376659 175:-0.216938 176:-0.455255 177:-0.497002 178:0.208556 179:-0.673492 180:-0.726245 181:-0.647742 182:-0.378988 183:-0.593965 184:-0.512998 185:-0.584043 186:0.524075 187:0.112782 188:-0.43562 189:-0.644601 190:0.282404 191:-0.177966 192:0.044419 193:-0.590768 194:-0.706173 195:0.083651 196:0.061376 197:-0.473534 198:-0.794287 199:-0.440302 200:-0.256125 201:-0.378247 202:-0.131772 203:-0.307554 204:-0.496484 205:0.205128 206:-0.828656 207:-0.696408 208:0.139961 209:-0.42573 210:-0.942225 211:-0.405044 212:-0.526889 213:0.316405 214:-0.138462 215:0.321301 216:-0.803259 217:-0.073715 218:-0.434556 219:-0.930446 220:-0.552011 221:-0.711406 222:-0.811233 223:-0.900259 224:-0.212897 225:-0.881317 226:-0.573771 227:-0.359831 228:0.640142 229:-0.524734 230:-0.641853 231:-0.968069 232:0.358209 233:-0.403188 234:-0.791442 235:0.367722 236:0.264939 237:0.099294 238:-0.017448 239:-0.401079 240:0.873194 241:0.471861 242:0.328235 243:-0.839206 244:0.077121 245:-0.227193 246:-0.48988 247:-0.595492 248:-0.763227 249:0.304371 250:-0.028624 251:-0.072776 252:-0.812762 253:-0.018088 254:-0.753123 255:0.503928 256:-0.787212 257:-0.890191 258:-0.328715 259:0.730871 260:-0.278651 261:-0.916972 262:-0.052999 263:-0.397292 264:-0.601952 265:-0.568401 266:-0.691747 267:-0.671039 268:0.6 269:-0.189472 270:-0.822638 271:-0.328307 272:-0.036156 273:0.556453 274:-0.383287 275:-0.729755 276:0.096271 277:0.282708 278:0.12985 279:-0.957181 280:-0.060581 281:-0.215421 282:0.021979 283:-0.531624 284:-0.743629 285:-0.56972 286:-0.373832 287:-0.406498 288:-0.875556 289:-0.487234 290:-0.520579 291:0.650923 292:-0.652572 293:-0.702945 294:-0.42854 295:0.068493 296:0.168246 297:-0.894927 298:-0.101328 299:-0.442213 300:-0.154648 301:-0.742907 302:-0.839317 303:-0.085369 304:-0.286598 305:0.305994 306:-0.998305 307:0.17546 308:-0.421559 309:-0.547259 310:-0.39865 311:-0.574946 312:0.440574 313:0.188119 314:0.081579 315:-0.872691 316:-0.067269 317:-0.323099 318:-0.986434 319:-0.49092 320:-0.633806 321:0.645616 322:0.512048 323:0.084704 324:-0.791865 325:0.552056 326:0.565878 327:0.57993 328:-0.379231 329:0.370726 330:-0.143892 331:-0.047733 332:-0.311938 333:-0.093975 334:0.167661 335:0.015577 336:0.615164 337:-0.100271 338:-0.397632 339:-0.308955 340:0.241312 341:-0.459735 342:-0.839406 343:0.046111 344:0.157425 345:-0.420791 346:-0.137318 347:-0.322376 348:-0.099956 349:0.047619 350:-0.546798 351:-0.784333 
0.9724473684908159 1:0.425433 2:0.446568 3:0.469697 4:-0.298298 5:-0.603942 6:-0.066624 7:0.105043 8:-0.015733 9:-0.873118 10:0.414487 11:-0.889072 12:0.052005 13:-0.508582 14:-0.379375 15:0.340416 16:-0.336283 17:0.494287 18:-0.227274 19:-0.023087 20:-0.333667 21:0.172693 22:-0.184351 23:-0.32814 24:-0.640056 25:-0.148387 26:-0.737702 27:-0.654278 28:0.012823 29:-0.738798 30:-0.660955 31:-0.385763 32:-0.555369 33:0.02903 34:-0.538032 35:0.47742 36:-0.613607 37:-0.217469 38:-0.323914 39:0.580099 40:-0.091356 41:-0.187705 42:-0.40944 43:0.324176 44:-0.445547 45:-0.93916 46:-0.469267 47:-0.487688 48:0.080093 49:-0.421463 50:-0.658238 51:0.010302 52:-0.541463 53:-0.424975 54:-0.7044 55:-0.150112 56:-0.22032 57:0.679612 58:-0.335709 59:-0.149904 60:0.559552 61:-0.494506 62:0.457322 63:-0.190975 64:-0.113068 65:-0.171504 66:0.915727 67:-0.229115 68:-0.391765 69:-0.004598 70:-0.148445 71:0.167819 72:-0.925207 73:-0.541679 74:0.125433 75:-0.485035 76:0.061993 77:-0.380202 78:-0.436844 79:-0.013605 80:-0.4513 81:-0.860604 82:0.650936 83:-0.469231 84:0.727096 85:-0.400834 86:-0.161422 87:0.343009 88:-0.163008 89:0.37292 90:-0.32644 91:-0.640824 92:-0.132058 93:0.893582 94:0.2287 95:0.230843 96:-0.270724 97:-0.031339 98:0.049989 99:-0.769617 100:-0.311196 101:-0.21761 102:0.024304 103:-0.516748 104:-0.486302 105:-0.613432 106:0.136473 107:0.376872 108:-0.803457 109:0.105611 110:-0.722404 111:0.355724 112:-0.300286 113:-0.53837 114:-0.74776 115:-0.757009 116:-0.130389 117:-0.775477 118:-0.095714 119:-0.494109 120:-0.888247 121:-0.586423 122:-0.751048 123:0.627177 124:-0.368421 125:0.426213 126:-0.853633 127:-0.108695 128:-0.154932 129:0.645021 130:0.057454 131:-0.252684 132:0.535366 133:-0.091892 134:0.394579 135:-0.784216 136:0.36495 137:-0.633251 138:-0.640015 139:-0.417326 140:-0.684684 141:0.659636 142:-0.380863 143:0.302778 144:-0.791088 145:-0.337744 146:-0.770494 147:0.554829 148:-0.255107 149:-0.013234 150:0.425584 151:0.47191 152:0.478643 153:-0.017636 154:-0.136678 155:-0.129504 156:0.356235 157:-0.085397 158:-0.392729 159:-0.453905 160:0.285714 161:-0.099869 162:-0.815134 163:-0.296978 164:-0.302363 165:-0.27776 166:-0.315499 167:-0.504488 168:0.713625 169:0.556962 170:0.412972 171:-0.907537 172:-0.243495 173:-0.528239 174:-0.352717 175:-0.160847 176:-0.630624 177:-0.463688 178:-0.106952 179:-0.521429 180:-0.864789 181:-0.19274 182:-0.261069 183:-0.630548 184:-0.344645 185:-0.398017 186:0.529241 187:-0.18797 188:-0.288502 189:-0.340918 190:-0.919017 191:0.030863 192:-0.040842 193:-0.474734 194:-0.540703 195:0.370904 196:0.101054 197:0.363227 198:-0.659729 199:0.854868 200:0.862565 201:-0.440218 202:0.363637 203:0.082448 204:0.127194 205:-0.217949 206:0.036855 207:-0.863215 208:-0.018181 209:-0.725943 210:-0.935547 211:-0.66952 212:-0.705448 213:0.20115 214:-0.1 215:-0.164196 216:-0.763146 217:-0.160797 218:-0.46942 219:-0.931007 220:-0.751232 221:-0.872387 222:-0.813239 223:0.411399 224:-0.298917 225:-0.946716 226:-0.39584 227:-0.722723 228:0.63899 229:-0.801271 230:-0.885437 231:-0.957352 232:-0.044776 233:-0.099895 234:-0.837928 235:0.284385 236:-0.023258 237:-0.345733 238:-0.491395 239:-0.771207 240:0.863286 241:-0.679654 242:0.240921 243:-0.948302 244:-0.104446 245:-0.415726 246:-0.637453 247:-0.763368 248:-0.894605 249:0.288932 250:-0.048938 251:-0.48701 252:-0.835437 253:-0.047267 254:-0.398778 255:0.504565 256:-0.552685 257:-0.621684 258:-0.350612 259:0.224274 260:-0.651765 261:-0.856841 262:0.24728 263:-0.66185 264:-0.601474 265:-0.660666 266:-0.798006 267:-0.672216 268:0.565217 269:-0.109132 270:-0.828043 271:-0.158297 272:-0.413568 273:0.683162 274:-0.44601 275:-0.606999 276:0.07938 277:-0.068618 278:-0.054658 279:-0.780925 280:0.010852 281:-0.305084 282:-0.012192 283:-0.741105 284:-0.877625 285:-0.555872 286:-0.607477 287:-0.134484 288:-0.938376 289:-0.267422 290:-0.768504 291:0.532518 292:-0.803368 293:-0.849192 294:-0.435863 295:0.636986 296:-0.045472 297:-0.924405 298:-0.13755 299:-0.62757 300:0.023204 301:-0.536068 302:-0.609347 303:-0.09643 304:-0.451546 305:0.192455 306:-0.886079 307:0.16546 308:0.199742 309:-0.550372 310:-0.067338 311:-0.388506 312:0.440506 313:-0.366337 314:0.110481 315:-0.925502 316:0.141377 317:-0.630332 318:-0.986713 319:-0.657227 320:-0.84212 321:0.642384 322:0.063253 323:0.082154 324:-0.892591 325:0.349641 326:0.36779 327:0.385859 328:-0.391682 329:-0.424248 330:-0.052796 331:0.274463 332:-0.089472 333:-0.827717 334:-0.392204 335:-0.507073 336:0.613968 337:-0.268118 338:-0.307641 339:-0.251822 340:0.251705 341:-0.358997 342:-0.253581 343:0.424404 344:-0.504103 345:-0.420817 346:-0.474928 347:-0.46984 348:0.008054 349:0.035714 350:0.444142 351:-0.176804 
1.7775297875339162 1:0.121088 2:0.147265 3:0.172728 4:-0.298482 5:-0.213988 6:-0.040119 7:-1.0 8:0.03367 9:-0.67179 10:-0.031571 11:-0.986729 12:0.055716 13:-0.429499 14:-0.313645 15:0.008387 16:-0.415929 17:-0.437713 18:-0.332075 19:0.409261 20:-0.756785 21:-0.015624 22:-0.388289 23:-0.25007 24:-0.086997 25:-0.380645 26:0.435631 27:-0.247375 28:0.424406 29:-0.415683 30:-0.61962 31:-0.702121 32:-0.744388 33:-0.085562 34:-0.869327 35:-0.050571 36:-0.507636 37:-0.0031 38:-1.0 39:0.547641 40:-1.0 41:-1.0 42:-0.303315 43:0.766484 44:-0.569954 45:-0.623249 46:-0.194319 47:-0.360059 48:0.106892 49:-0.010733 50:-0.252223 51:0.006478 52:-0.02439 53:-0.32349 54:-0.75787 55:0.12425 56:-0.510624 57:0.702533 58:-0.343871 59:-0.524165 60:0.329107 61:-0.245421 62:-0.081634 63:-0.735841 64:-0.102263 65:-0.800761 66:0.66872 67:-0.737144 68:-0.766568 69:0.224564 70:-0.015069 71:0.648077 72:-0.771136 73:-0.078133 74:-0.187269 75:-0.56058 76:-0.294563 77:-0.557011 78:-0.013186 79:-0.129252 80:0.085775 81:-0.904272 82:0.017213 83:-0.494036 84:0.842699 85:-0.642382 86:-0.537797 87:0.277873 88:0.389709 89:0.038011 90:-0.505964 91:-0.319047 92:-0.646179 93:0.963506 94:-0.341621 95:-0.16198 96:-0.205014 97:-0.213675 98:0.355693 99:-0.392359 100:-0.364896 101:-0.249813 102:0.050118 103:-0.149039 104:-0.325046 105:-0.605106 106:0.227053 107:0.332498 108:-0.8139 109:-0.153623 110:0.184363 111:-1.0 112:0.079075 113:-0.423634 114:-0.802598 115:-0.203271 116:-0.38017 117:-0.888004 118:0.119491 119:-0.395096 120:-0.887737 121:-0.07427 122:-0.263299 123:0.643415 124:-0.144737 125:0.363297 126:-0.618497 127:-0.202169 128:0.118648 129:0.115067 130:0.33727 131:-0.175451 132:0.504359 133:0.243243 134:0.321207 135:-0.885829 136:-0.199024 137:-0.525525 138:-0.627634 139:-0.310109 140:-0.568432 141:0.638801 142:-0.274625 143:0.153223 144:-0.819084 145:0.170335 146:-0.786559 147:0.332486 148:-0.820833 149:-0.644592 150:0.060309 151:0.011236 152:-0.530248 153:-0.420541 154:0.355777 155:0.695335 156:0.750194 157:0.256029 158:-0.391925 159:-0.501089 160:0.366071 161:-0.328341 162:-0.965397 163:0.164573 164:0.571859 165:-0.236211 166:0.093408 167:-0.451454 168:0.689778 169:0.518987 170:0.337782 171:-0.960607 172:0.260053 173:-0.853765 174:-0.358144 175:-0.822027 176:-0.916374 177:-0.423198 178:0.064171 179:-0.327967 180:-0.905235 181:0.129903 182:-0.51414 183:-0.609374 184:-0.402653 185:-0.505073 186:0.587203 187:-0.007519 188:-0.002834 189:-0.62958 190:0.317971 191:-0.42443 192:0.033604 193:-0.728992 194:-0.73062 195:0.203548 196:-0.295722 197:-0.093308 198:-0.842627 199:-0.996635 200:-0.20268 201:-0.395344 202:-0.360451 203:-0.40301 204:-0.117164 205:0.078726 206:-0.160563 207:-0.775947 208:-0.210044 209:-0.309804 210:-1.0 211:-0.258389 212:-0.352702 213:0.290864 214:-0.254808 215:0.201507 216:-0.793373 217:0.494715 218:0.328093 219:-0.922069 220:-0.241843 221:-0.611251 222:-0.815751 223:0.038342 224:-0.245656 225:-0.931593 226:-0.670783 227:-0.237763 228:0.640606 229:-0.348388 230:-0.429073 231:-0.926904 232:0.268657 233:0.002993 234:-0.581903 235:0.318368 236:0.048874 237:0.151362 238:-0.130963 239:-0.468903 240:0.857638 241:-0.077922 242:0.256013 243:-0.898345 244:-0.271047 245:-0.081351 246:-0.561236 247:-0.520717 248:-0.737568 249:0.285486 250:-0.209603 251:-0.361555 252:-0.860585 253:-0.4705 254:-0.755728 255:0.47572 256:-0.658417 257:-0.56316 258:-0.339077 259:0.002639 260:-0.523981 261:-0.772612 262:-0.383028 263:0.088575 264:-0.596789 265:-0.371032 266:-0.634341 267:-0.674962 268:0.182609 269:-0.364513 270:-0.912929 271:-0.25049 272:0.410472 273:0.646169 274:0.044599 275:-0.539508 276:0.108313 277:-0.361391 278:0.136838 279:-0.971613 280:-0.132047 281:-0.689934 282:0.0127 283:-0.825294 284:-0.902064 285:-0.560346 286:-0.046729 287:-0.341109 288:-0.891641 289:-0.686489 290:-0.365614 291:0.600734 292:-0.579345 293:-0.644023 294:-0.425495 295:0.205479 296:0.193861 297:-0.828281 298:0.357947 299:-0.314837 300:0.095239 301:-0.577723 302:-0.789835 303:-0.085465 304:-0.187629 305:0.294029 306:-0.97545 307:0.322887 308:-0.695774 309:-0.539435 310:-0.528932 311:-0.632646 312:0.443123 313:-0.049505 314:0.094726 315:-0.879395 316:0.224881 317:-0.128444 318:-0.986637 319:-0.184215 320:-0.386707 321:0.657913 322:-0.084337 323:0.095288 324:-0.762147 325:0.107724 326:0.130937 327:0.152626 328:-0.423795 329:-0.292228 330:-0.04349 331:-0.15901 332:-0.083029 333:-0.641195 334:-0.283915 335:0.094023 336:0.625116 337:0.141414 338:-0.290378 339:-0.213949 340:-0.060084 341:-0.190458 342:-0.915072 343:0.543315 344:0.312623 345:-0.422545 346:0.154742 347:-0.110865 348:0.066057 349:0.446429 350:0.023153 351:-0.764839 
2.1618254482245867 1:0.14416 2:0.191148 3:0.237659 4:-0.9336 5:-1.0 6:0.003656 7:0.565913 8:0.210358 9:-0.701336 10:-0.065198 11:-0.771657 12:0.051551 13:-0.590154 14:-0.614242 15:0.102307 16:0.035398 17:-0.352812 18:-0.556814 19:0.098793 20:-0.726534 21:0.165482 22:-0.618013 23:-0.613898 24:-0.293429 25:0.03871 26:-0.037661 27:-0.576536 28:-0.02827 29:-0.986784 30:-0.626986 31:-0.862237 32:-0.618219 33:-0.035079 34:-0.242785 35:0.779459 36:0.93199 37:0.095647 38:-0.59761 39:0.487475 40:-0.272432 41:-0.03154 42:-0.395194 43:-0.010989 44:-0.490191 45:-0.544944 46:-0.405512 47:-0.271019 48:0.075468 49:-0.356425 50:-0.188915 51:0.201139 52:0.639024 53:0.26762 54:-0.003086 55:-0.111042 56:-0.611553 57:0.699473 58:-0.419358 59:-0.199778 60:0.228848 61:-0.399267 62:-0.385928 63:-0.064146 64:-0.542736 65:-0.566407 66:0.660396 67:-0.462333 68:-0.638075 69:-0.013908 70:-0.035588 71:0.100525 72:-0.913283 73:0.034051 74:-0.952035 75:-0.584807 76:-0.764427 77:-0.699553 78:-0.040333 79:-0.219955 80:0.112283 81:-0.410942 82:0.396358 83:-0.709663 84:0.730561 85:-0.632992 86:-0.460042 87:0.245154 88:-0.030587 89:-0.202399 90:-0.485264 91:-0.477073 92:-0.796041 93:0.916491 94:-0.466501 95:-0.353637 96:-0.240442 97:-0.259259 98:0.311738 99:-0.423633 100:-0.367864 101:-0.894801 102:0.063142 103:-0.761287 104:-0.72709 105:-0.690226 106:0.236715 107:-0.148886 108:-0.614556 109:0.070384 110:-0.686293 111:0.385455 112:-0.736745 113:-0.795809 114:-0.789297 115:0.252337 116:-0.546684 117:-0.761529 118:0.058962 119:-0.541604 120:-0.899081 121:-0.355101 122:-0.534509 123:0.640714 124:-0.021053 125:0.436427 126:-0.697297 127:-0.272476 128:0.002869 129:0.036465 130:-0.155625 131:-0.352347 132:0.511999 133:0.059459 134:0.337414 135:-0.882439 136:-0.005776 137:-0.638013 138:-0.620656 139:-0.533592 140:-0.705899 141:0.675404 142:-0.515947 143:0.510276 144:-0.729931 145:0.451349 146:-0.099003 147:1.0 148:-0.184568 149:-0.239535 150:0.104289 151:0.106742 152:-0.131572 153:-0.762078 154:-0.246881 155:0.112476 156:0.444511 157:-0.078445 158:-0.469644 159:-0.555012 160:0.330357 161:-0.41909 162:-0.909793 163:-0.328804 164:-0.126266 165:-0.286229 166:-0.392001 167:-0.578535 168:0.761797 169:-0.417721 170:0.67051 171:-0.825271 172:-0.731535 173:-0.584273 174:-0.318117 175:-0.3657 176:-0.581994 177:-0.460503 178:0.540107 179:-0.559463 180:-0.872364 181:-0.431901 182:-0.791267 183:-0.591146 184:-0.735916 185:-0.700401 186:0.572472 187:-0.308271 188:-0.07744 189:-0.511869 190:-0.227193 191:-0.851948 192:0.031332 193:-0.827352 194:-0.859126 195:0.2316 196:-0.057657 197:0.058707 198:-0.790756 199:0.126228 200:-0.169116 201:-0.360872 202:-0.124946 203:-0.115042 204:0.135443 205:-0.717949 206:0.292434 207:-0.634259 208:0.511603 209:-0.900118 210:-0.941374 211:-0.76491 212:-0.828893 213:0.258046 214:-0.676923 215:0.275306 216:-0.777992 217:0.121772 218:-0.437234 219:-0.927611 220:-0.750851 221:-0.842494 222:-0.812209 223:-0.326425 224:-0.251752 225:-0.909599 226:-0.554999 227:-0.260467 228:0.6382 229:-0.386465 230:-0.593204 231:-0.949464 232:0.313433 233:-0.180033 234:-0.854264 235:0.251398 236:0.761942 237:0.021899 238:-0.28387 239:-0.703793 240:0.867001 241:0.480519 242:0.301056 243:-1.0 244:-0.057448 245:-0.411028 246:-0.522107 247:-0.695151 248:-0.803121 249:0.290937 250:-0.167128 251:-0.358686 252:-0.818599 253:-2.3E-5 254:0.102826 255:0.554273 256:-0.533864 257:-0.714885 258:-0.344711 259:0.266491 260:-0.570348 261:-0.973802 262:0.033726 263:-0.386336 264:-0.598621 265:-0.661807 266:-0.831362 267:-0.68149 268:0.634783 269:-0.45199 270:-0.946844 271:-0.081239 272:-0.572501 273:0.659177 274:-0.289544 275:-0.522757 276:0.107563 277:-0.507777 278:0.205053 279:-0.779643 280:-0.09847 281:-0.337922 282:0.026841 283:-0.63037 284:-0.80029 285:-0.552221 286:-0.495327 287:-0.080206 288:-0.882068 289:-0.493748 290:-0.534236 291:0.522605 292:-0.791703 293:-0.859786 294:-0.43654 295:0.013699 296:-0.065562 297:-0.927751 298:0.007814 299:-0.856933 300:0.04656 301:-0.833377 302:-0.865294 303:-0.0862 304:0.550515 305:0.295397 306:-0.956326 307:0.022436 308:-0.600153 309:-0.525637 310:-0.417063 311:-0.52344 312:0.436759 313:-0.206296 314:0.037744 315:-0.804911 316:-0.005602 317:-0.684284 318:-0.986387 319:-0.806506 320:-0.920381 321:0.638071 322:0.228916 323:0.017596 324:-0.828074 325:0.178385 326:0.209338 327:0.239795 328:-0.645884 329:-0.562198 330:0.092292 331:0.575627 332:0.425967 333:-0.61289 334:-0.0903 335:0.188811 336:0.617281 337:-0.01766 338:-0.20477 339:-0.205385 340:-0.340695 341:-0.174236 342:-0.762378 343:0.394859 344:0.435089 345:-0.419585 346:0.066234 347:-0.189957 348:-0.009244 349:0.47619 350:-0.155823 351:-0.841443 
0.6350172642667365 1:0.606407 2:0.587525 3:0.571727 4:0.434527 5:0.667938 6:-0.196879 7:0.379826 8:-0.007859 9:-0.819563 10:0.26949 11:-0.689883 12:0.064951 13:-0.156975 14:0.080085 15:0.529326 16:-0.451327 17:0.534532 18:-0.106941 19:0.252898 20:-0.812727 21:0.161804 22:-0.535125 23:-0.298631 24:-0.150699 25:-0.303226 26:0.494291 27:0.006407 28:0.287724 29:-0.569964 30:-0.608301 31:-0.458138 32:-0.456636 33:-0.023311 34:0.121124 35:0.287817 36:-0.468651 37:0.215676 38:0.022391 39:0.156872 40:0.127016 41:0.456103 42:-0.687939 43:0.087912 44:-0.660682 45:-0.662775 46:-0.290671 47:-0.280352 48:0.032261 49:0.362142 50:0.5759 51:0.370842 52:0.219512 53:0.085211 54:-0.216815 55:-0.076201 56:-0.544708 57:0.685834 58:-0.330413 59:-0.225435 60:0.465976 61:-0.282051 62:0.239013 63:-0.413201 64:-0.250163 65:0.097163 66:0.627954 67:0.245446 68:0.430342 69:0.185958 70:0.636422 71:0.329389 72:-0.782685 73:0.176859 74:-0.39235 75:-0.500296 76:-0.352205 77:-0.355125 78:0.005581 79:0.006803 80:0.143991 81:-0.563795 82:-0.246329 83:-0.416772 84:0.716234 85:-0.776797 86:-0.618238 87:0.290814 88:0.490464 89:0.135027 90:-0.540217 91:-0.390759 92:-0.621333 93:0.916003 94:-0.183712 95:-0.183907 96:-0.185023 97:-0.116809 98:0.310273 99:-0.690505 100:0.194702 101:-0.479278 102:0.100828 103:-0.232266 104:-0.281774 105:-0.477369 106:0.507246 107:0.622388 108:-0.662717 109:0.371952 110:0.766978 111:0.383936 112:0.823534 113:0.050593 114:-0.862958 115:-0.551402 116:-0.389764 117:-0.952212 118:-0.073011 119:-0.168257 120:-0.82519 121:0.075534 122:-0.210966 123:0.745724 124:0.810526 125:0.604247 126:-0.625843 127:-0.210291 128:-0.526568 129:0.330687 130:-0.284458 131:-0.396896 132:0.450068 133:0.289189 134:0.03726 135:-0.653717 136:-0.377329 137:0.132972 138:-0.679821 139:-0.259219 140:-0.69207 141:0.664411 142:-0.095685 143:0.30048 144:-0.949667 145:0.134204 146:-0.305526 147:0.291251 148:0.378655 149:0.366971 150:0.649381 151:0.146067 152:0.306753 153:-0.364257 154:0.630979 155:0.244711 156:0.358987 157:0.468611 158:-0.401559 159:-0.494675 160:0.214286 161:-0.34702 162:-0.983559 163:0.040986 164:-0.095271 165:-0.436139 166:-0.06455 167:-0.409685 168:0.530344 169:0.556962 170:-0.148483 171:-0.711678 172:-0.394255 173:0.383283 174:-0.173264 175:0.238814 176:-0.434848 177:-0.52429 178:-0.144385 179:-0.594499 180:-0.928323 181:-0.860466 182:-0.125478 183:-0.596585 184:-0.294584 185:-0.532701 186:0.609971 187:-0.067669 188:0.073826 189:-0.906652 190:-0.304273 191:-0.825503 192:0.020424 193:-0.771729 194:-0.771713 195:0.134452 196:-0.394916 197:-0.461183 198:-0.509623 199:0.002504 200:-0.292718 201:-0.392254 202:-0.37735 203:-0.606036 204:-0.008783 205:-0.74359 206:0.174378 207:-0.872566 208:0.263008 209:-0.329355 210:-0.943666 211:-0.242612 212:-0.259221 213:-0.041378 214:-0.353846 215:-0.426872 216:-0.499707 217:0.242387 218:0.628558 219:-0.93706 220:0.03958 221:-0.420403 222:-0.790362 223:0.519171 224:-0.14638 225:-0.867369 226:0.016997 227:-0.1516 228:0.633932 229:0.035364 230:0.173102 231:-0.699444 232:-0.253731 233:0.556899 234:0.369184 235:-0.172177 236:-0.054428 237:0.085348 238:-0.597431 239:-0.830476 240:0.861225 241:-0.038961 242:0.163638 243:-0.951865 244:-0.073454 245:-0.05271 246:-0.631186 247:-0.673366 248:-0.903034 249:0.293817 250:-0.108033 251:-0.275335 252:-0.988591 253:0.075333 254:-0.284823 255:0.546176 256:-0.158171 257:-0.329508 258:-0.324017 259:0.16095 260:-0.401271 261:-0.823643 262:-0.228324 263:0.533665 264:-0.573691 265:-0.368901 266:-0.688153 267:-0.693107 268:-1.0 269:-0.583302 270:-0.941267 271:0.115087 272:-0.343581 273:0.644018 274:-0.335106 275:-0.611641 276:0.086898 277:-0.215005 278:0.040142 279:-0.85361 280:-0.114563 281:0.559257 282:0.055217 283:-0.342393 284:-0.659935 285:-0.549763 286:0.140187 287:-0.142203 288:-0.912441 289:-0.56162 290:0.229267 291:-1.0 292:-0.353681 293:-0.545119 294:-0.424668 295:0.178082 296:0.137406 297:-0.932486 298:-0.181548 299:-0.523941 300:0.028229 301:-0.526072 302:-0.446843 303:-0.132022 304:0.195876 305:-0.119962 306:-0.484263 307:0.219828 308:-0.840504 309:-0.540715 310:-0.686326 311:-0.805695 312:0.449338 313:0.188119 314:0.232815 315:-0.920021 316:0.317573 317:-0.399795 318:-0.986147 319:-0.485921 320:-0.605779 321:0.614151 322:-0.13253 323:-0.151108 324:-0.649489 325:0.769452 326:0.755823 327:0.743183 328:0.117864 329:0.619632 330:-0.357051 331:0.129475 332:-0.214402 333:-0.684758 334:0.167227 335:0.086446 336:0.611983 337:0.45116 338:0.182147 339:-0.041352 340:1.0 341:-0.011322 342:-0.70646 343:0.580774 344:0.132527 345:-0.426142 346:0.286715 347:0.274927 348:0.307612 349:0.142857 350:0.449479 351:-0.055717 
0.4652478320095273 1:0.548662 2:0.559959 3:0.572374 4:-0.153344 5:0.197084 6:-0.295803 7:-0.104696 8:-0.308581 9:-0.512303 10:0.020597 11:-0.611495 12:0.061584 13:-0.344346 14:-0.183348 15:0.195868 16:-0.619469 17:0.055934 18:-0.488575 19:0.219441 20:-0.584578 21:0.283509 22:-0.576387 23:-0.333248 24:-0.378446 25:-0.172177 26:-0.441966 27:-0.232653 28:0.613887 29:0.219742 30:-0.581506 31:0.409334 32:0.095858 33:-0.186183 34:0.121124 35:-0.161187 36:-0.857553 37:-0.003638 38:-0.739658 39:0.587729 40:-0.660611 41:-0.648947 42:-0.155253 43:-0.313187 44:0.354753 45:-0.506693 46:-0.236961 47:0.16261 48:0.077376 49:0.768924 50:0.631217 51:-0.479295 52:-0.2 53:-0.549082 54:-0.610231 55:0.350366 56:-0.187705 57:0.683447 58:0.162518 59:0.044188 60:0.271505 61:-0.48718 62:-0.017952 63:-0.614726 64:-0.585751 65:-0.470006 66:0.675832 67:-0.456447 68:-0.377883 69:0.021098 70:-0.222026 71:0.159402 72:-0.765137 73:-2.5E-4 74:-0.634103 75:-0.590138 76:-0.233001 77:-0.248599 78:0.002349 79:-0.092971 80:0.104405 81:-0.49782 82:-0.044654 83:-0.9341 84:0.728803 85:-0.935615 86:-0.719425 87:0.276994 88:0.527888 89:-0.095249 90:-0.369721 91:-0.518202 92:-0.743549 93:0.956309 94:-0.82087 95:-0.772342 96:-0.31239 97:-0.236467 98:0.0085 99:-0.697905 100:0.153809 101:-0.434949 102:-0.553233 103:-0.54099 104:-0.668012 105:-0.608086 106:0.454106 107:0.407279 108:-0.88741 109:-0.270988 110:-0.285647 111:0.181139 112:0.065856 113:-0.2479 114:-0.91772 115:-0.046729 116:-0.707817 117:-0.704908 118:-0.941007 119:-0.397627 120:-0.902158 121:-0.456896 122:-0.669013 123:0.552527 124:-1.0 125:-0.268005 126:-0.671129 127:-0.198784 128:-0.294202 129:0.272435 130:-0.436226 131:-0.713385 132:0.529932 133:0.189189 134:0.466265 135:-1.0 136:0.035823 137:-0.261145 138:-0.624808 139:-0.208774 140:-0.489895 141:0.630193 142:-0.666041 143:0.123326 144:-0.757364 145:0.171575 146:-0.598207 147:0.321836 148:-0.485193 149:-0.326766 150:0.303536 151:0.224719 152:0.418815 153:-0.347002 154:-0.722578 155:0.488515 156:0.292653 157:-0.029128 158:-0.597997 159:-0.470623 161:-0.180096 162:-0.948342 163:-0.019881 164:0.487966 165:-0.836632 166:0.216717 167:-0.338015 168:0.773251 169:0.088608 170:0.509392 171:-0.945041 172:-0.198912 173:-0.115276 174:-0.405026 175:-0.168718 176:-0.53885 177:-0.338569 178:-0.187166 179:-0.03789 180:-0.800291 181:0.286077 182:0.028596 183:-0.645177 184:-0.221156 185:-0.572523 186:0.566579 187:1.0 188:-0.105536 189:-0.928346 190:-0.240765 191:-0.664939 192:0.234671 193:-1.0 194:-1.0 195:0.208382 196:-0.49411 197:-0.118434 198:-0.89619 199:0.419825 200:-0.482683 201:-0.046096 202:-0.647941 203:-0.746321 204:-0.065086 205:-0.051282 206:0.15715 207:-0.896974 208:-0.272545 209:-0.464943 210:-0.93846 211:-0.58771 212:-0.692349 213:0.280129 214:-0.2 215:0.302908 216:-0.844969 217:-0.208328 218:-0.283942 219:-0.929696 220:-0.306794 221:-0.557061 222:-0.786417 223:0.535751 224:-0.014729 225:-0.837705 226:-0.542197 227:-0.359571 228:0.626567 229:-0.67147 230:-0.736609 231:-0.961305 232:-0.552239 233:-0.302978 234:-0.79392 235:0.140234 236:-0.503581 237:0.097684 238:-0.718696 239:-0.864213 240:0.869887 241:0.238095 242:0.381427 243:-0.894146 244:-0.085276 245:-0.240328 246:-0.550276 247:-0.7084 248:-0.905916 249:0.297003 250:-0.344414 251:-0.193681 252:-0.968679 253:-0.009143 254:-0.338637 255:0.507861 256:-0.3977 257:-0.434907 258:-0.35947 259:0.325858 260:-0.658965 261:-0.808647 262:-0.131398 263:-0.378166 264:-0.614436 265:-0.630674 266:-0.802923 267:-0.689896 268:0.582609 269:-0.721299 270:-0.84304 271:-0.202751 272:-0.125375 273:0.643907 274:-0.29534 275:-0.691874 276:0.074533 277:-0.332113 278:-0.056405 279:-0.935193 280:-0.047899 281:0.151605 282:-0.105937 283:-0.612944 284:-0.804945 285:-0.563332 286:-0.420561 287:-0.331362 288:-0.921665 289:-0.219511 290:-0.187402 291:0.880198 292:-0.517112 293:-0.75424 294:-0.429909 295:0.424658 296:0.112795 297:-0.981307 298:0.136121 299:-0.732041 300:0.378732 301:-0.848734 302:-0.886056 303:-0.080495 304:-0.451546 305:0.455061 306:-0.949173 307:0.32616 308:-0.647918 309:-0.538575 310:-0.649434 311:-0.835213 312:0.446697 313:-0.326733 314:0.15768 315:-0.976729 316:-0.140325 317:-0.36702 318:-0.983442 319:-0.684451 320:-0.858985 321:0.64919 322:0.174699 323:0.189372 324:-0.87745 325:0.651721 326:0.666687 327:0.682111 328:-0.459406 329:-0.032015 330:-0.21328 331:0.951074 332:-0.627775 333:-0.067721 334:0.103209 335:-0.552122 336:0.61211 337:0.083499 338:0.052171 339:-0.443932 340:0.306268 341:-0.629818 342:-0.209548 343:0.152241 344:-0.39674 345:-0.420477 346:0.033791 347:-0.059106 348:0.274138 349:0.333333 350:0.809798 351:0.137162 
4.374729535353594 1:0.061226 2:0.076889 3:0.090619 4:-0.072491 5:-0.290683 6:-0.179345 7:-0.493913 8:-0.112298 9:-0.8208 10:0.107376 11:-0.19597 12:0.038614 13:-0.10748 14:-0.286514 15:0.366078 16:-0.247788 17:0.286829 18:-1.0 19:0.305832 20:-0.657221 21:0.215077 22:-0.270831 23:-0.244344 24:-0.049325 25:0.080645 26:0.352976 27:-0.605379 28:0.385389 29:-0.266277 30:-0.607839 31:-0.254787 32:-0.27282 33:-0.059729 34:-0.160391 35:0.043637 36:-0.674282 37:0.02086 38:-0.743669 39:0.516284 40:-0.779308 41:-0.807724 42:-0.280933 43:0.098901 44:-0.255179 45:-0.752181 46:-0.232688 47:-0.197559 48:0.153659 49:-0.352417 50:-0.675781 51:0.07702 52:-0.409756 53:-0.166421 54:-1.0 55:-0.408506 56:0.055753 57:0.675388 58:0.440395 59:0.072195 60:0.106814 61:-1.0 62:-0.092884 63:-0.895259 64:-0.52494 65:-0.427123 66:0.665161 67:-0.315301 68:-0.362876 69:-0.184505 70:0.70311 71:-0.078367 72:-0.754119 73:-0.127077 74:-0.547543 75:-0.538008 76:-0.477521 77:-0.622342 78:-0.088197 79:0.061224 80:-0.106195 81:-0.688526 82:0.189345 83:-0.734668 84:0.681406 85:-0.833472 86:-0.641951 87:0.266571 88:0.170925 89:-0.16366 90:-0.372845 91:-0.752566 92:-0.564191 93:0.916866 94:-0.097821 95:-0.238727 96:-0.481592 97:-0.173789 98:-0.354987 99:-0.881754 100:0.052629 101:-0.439958 102:0.028377 103:-0.546847 104:-0.787275 105:-0.585303 106:0.458937 107:0.511238 108:-0.888481 109:-0.018171 110:0.333713 111:0.272017 112:0.193257 113:-0.271737 114:-0.788885 115:-0.196262 116:-0.336848 117:-0.865614 118:0.142647 119:-0.498805 120:-0.885875 121:-0.39545 122:-0.616196 123:0.666079 124:-0.221053 125:0.640586 126:-0.71597 127:-0.144524 128:-0.636399 129:0.224368 130:-0.275676 131:-0.470295 132:0.520295 133:0.383784 134:0.378996 135:-0.80746 136:0.148316 137:-0.316132 138:-0.628273 139:-0.126016 140:-0.552508 141:0.657772 142:-0.763602 143:0.251281 144:-0.883403 145:0.078082 146:-0.931763 147:0.307236 148:-0.876611 149:-0.822006 150:0.131832 151:0.422753 152:-0.085022 153:-0.816544 154:0.235535 155:-0.498527 156:0.328186 157:-0.506869 158:-0.705095 159:-0.556228 160:-0.5 161:-0.415173 162:-0.865196 163:0.109049 164:-0.239488 165:-0.307833 166:-0.473155 167:-0.684757 168:0.675264 169:0.346519 170:0.192311 171:-0.89674 172:0.31175 173:0.14359 174:-0.322165 175:-0.206592 176:-0.647516 177:-0.477549 178:0.347594 179:-0.58874 180:-0.925154 181:0.009857 182:-0.693271 183:-0.593147 184:-0.633613 185:-0.64146 186:0.502794 187:0.142857 188:-0.805287 189:-0.143154 190:0.293334 191:-0.644922 192:-0.013736 193:-0.81054 194:-0.649526 195:0.279499 196:-0.037818 197:0.332573 198:-0.336263 199:-0.008287 200:-0.298012 201:-0.384256 202:-0.182172 203:-0.153797 204:-0.234304 205:-0.230769 206:-0.385635 207:-0.680702 208:6.5E-4 209:-0.90269 210:-0.940722 211:-0.652423 212:-0.605498 213:0.246756 214:0.194231 215:0.142001 216:-0.723294 217:0.341542 218:0.162543 219:-0.926412 220:-0.408837 221:-0.694828 222:-0.810105 223:-0.367876 224:-0.201936 225:-0.951139 226:-0.369818 227:-0.47098 228:0.63826 229:-0.650267 230:-0.660136 231:-0.94388 232:-0.432836 233:0.146683 234:-0.453287 235:0.353293 236:-0.285224 237:0.220896 238:-0.688293 239:-0.868379 240:0.867554 241:0.203463 242:0.29717 243:-0.966868 244:-0.306492 245:0.024339 246:-0.455334 247:-0.531738 248:-0.781322 249:0.29792 250:-0.451524 251:-0.19397 252:-0.956436 253:-0.296304 254:-0.647299 255:0.495044 256:-0.697249 257:-0.695406 258:-0.341587 259:0.414248 260:-0.583387 261:-0.868729 262:-0.143191 263:-0.525811 264:-0.655305 265:-0.749584 266:-0.849906 267:-0.681941 268:0.6 269:-0.484953 270:-0.876206 271:0.049623 272:-0.482035 273:0.625134 274:-0.557158 275:-0.707024 276:0.08789 277:-0.127173 278:0.037428 279:-0.822759 280:0.002214 281:-0.368604 282:0.023534 283:-0.657768 284:-0.814972 285:-0.559069 286:0.162967 287:-0.242327 288:-0.931869 289:-0.514492 290:-0.533462 291:0.544052 292:-0.728759 293:-0.753206 294:-0.430545 295:0.589041 296:0.145755 297:-0.83927 298:-0.11036 299:-0.79003 300:0.006401 301:-0.760216 302:-0.751267 303:-0.084314 304:-0.352577 305:0.328184 306:-0.85269 307:-0.026199 308:-0.608184 309:-0.546001 310:-0.663876 311:-0.771025 312:0.449069 313:-0.762376 314:0.217724 315:-0.892113 316:0.238479 317:-0.501272 318:-0.994752 319:-0.719467 320:-0.897756 321:0.632491 322:0.39759 323:-0.073832 324:-0.877977 325:0.233835 326:0.243064 327:0.250326 328:-0.180146 329:0.072141 330:-0.26785 331:-0.309442 332:-0.34597 333:-0.596552 334:-0.421264 335:-0.224794 336:0.600879 337:-0.069914 338:-0.113617 339:-0.13907 340:-0.018513 341:-0.00157 342:-0.311569 343:0.34972 344:-0.41351 345:-0.421703 346:-0.29168 347:-0.474607 348:-0.0152 349:0.52381 350:-0.044702 351:-0.695047 
1.0739307278469417 1:0.296903 2:0.2855 3:0.272606 4:0.330714 5:0.102172 6:-0.469689 7:-0.277739 8:-0.195767 9:-0.819656 10:-0.085286 11:-0.143552 12:0.047803 13:-0.093548 14:0.038399 15:0.950762 16:-0.584071 17:1.0 18:0.599247 19:0.398005 20:-0.583783 21:0.167917 22:-0.328334 23:-0.203606 24:-0.065549 25:-0.264516 26:0.396795 27:-0.234283 28:0.702974 29:-0.250808 30:-0.6386 31:-0.146353 32:-0.408434 33:-0.136802 34:0.443836 35:-0.190335 36:-0.915826 37:0.018635 38:-0.639341 39:0.514941 40:-0.473814 41:-0.5171 42:-0.415718 43:0.230769 44:-0.673959 45:-0.723053 46:-0.099143 47:-0.853554 48:0.11683 49:-0.370882 50:-0.423411 51:0.01446 52:-0.697561 53:-0.389297 54:-0.398668 55:0.418795 56:-0.674278 57:0.690391 58:-0.535006 59:-0.558237 60:0.322223 61:-0.501832 62:-0.204155 63:-0.498281 64:-0.272383 65:-0.732031 66:0.645014 67:-0.410847 68:-0.490087 69:-0.469279 70:0.131132 71:-0.56878 72:-0.398135 73:-0.646108 74:-0.397718 75:-0.07541 76:-0.864976 77:-1.0 78:-0.057712 79:-0.482993 80:0.002698 81:-0.78057 82:0.120276 83:-0.34233 84:0.720137 85:-0.285437 86:-0.220222 87:0.299557 88:0.124865 89:0.169218 90:-0.730527 91:-0.596144 92:-0.675146 93:0.922463 94:-0.195498 95:-0.031802 96:-0.352445 97:-0.435897 98:-0.100324 99:-0.541621 100:-0.275128 101:-0.482928 102:-0.089442 103:-0.531027 104:-0.726722 105:-0.66195 106:0.415459 107:0.172548 108:-0.858024 109:0.011204 110:0.386967 111:0.336175 112:0.66879 113:-0.079452 114:-0.681559 115:-0.570093 116:-0.204862 117:-0.870153 118:-0.054478 119:-0.132473 120:-0.902482 121:0.179905 122:-0.028799 123:0.955775 124:-0.378947 125:1.0 126:-0.226126 127:0.421408 128:-0.195044 129:0.216831 130:-0.112315 131:-0.461079 132:0.493838 133:-0.156757 134:0.274227 135:-0.858593 136:0.362887 137:-0.151454 138:-0.627253 139:-0.16609 140:-0.708634 141:0.706301 142:-0.140713 143:0.471754 144:-0.951703 145:-0.363823 146:-0.28779 147:0.318896 148:-0.171774 149:-0.15402 150:0.311495 151:0.606742 152:0.214813 153:-0.560229 154:0.319611 155:-0.217657 156:0.105568 157:-0.269369 158:-0.591741 159:-0.596176 160:-0.535714 161:-0.603486 162:-0.90539 163:0.263337 164:-0.485391 165:1.0 166:-0.468862 167:-0.581987 168:0.713764 169:-0.153481 170:0.426902 171:-0.824265 172:-0.28314 173:-0.652299 174:-0.914569 175:-0.138043 176:-0.308079 177:-0.377583 178:0.647059 179:-0.198034 180:-0.641078 181:-0.132227 182:-0.492096 183:-0.583668 184:-0.699871 185:-0.847918 186:0.565885 187:-0.24812 188:-0.163423 189:-1.0 190:0.09019 191:-0.263329 192:0.023324 193:-0.208834 194:-0.297116 195:0.356054 196:-0.218847 197:0.180503 198:-0.608068 199:0.133007 200:0.311554 201:-0.414125 202:0.17138 203:-5.6E-5 204:0.260099 205:-0.538462 206:0.2356 207:-0.807132 208:0.171473 209:-0.185472 210:-0.910356 211:-0.539015 212:-0.743292 213:0.248246 214:0.169231 215:0.135982 216:-0.977473 217:-0.464922 218:0.247684 219:1.0 220:-0.19359 221:-0.603706 222:-0.793226 223:0.005181 224:-0.109762 225:-0.928492 226:-0.707312 227:-0.394451 228:0.635428 229:-0.411076 230:-0.423773 231:-0.988622 232:0.641791 233:-0.583459 234:-0.53088 235:-0.12563 236:-0.153324 237:0.15096 238:-0.358761 239:-0.612584 240:0.873733 241:0.307359 242:0.362819 243:-0.922024 244:-0.312545 245:-0.207116 246:-0.509114 247:-0.607948 248:-0.799675 249:0.298468 250:-0.048938 251:-0.175307 252:-0.921703 253:-0.012816 254:-0.389652 255:0.443868 256:-0.330569 257:-0.416909 258:-0.291519 259:-0.197889 260:-0.144842 261:-0.778575 262:-0.08625 263:0.161757 264:-0.502768 265:-0.567079 266:-0.781738 267:-0.679098 268:0.147826 269:-0.388966 270:-0.95725 271:-0.242403 272:-0.294143 273:0.672366 274:-0.442013 275:-0.767412 276:0.090158 277:-0.097896 278:0.070535 279:-0.953865 280:0.026201 281:-0.279709 282:-0.013338 283:-0.530203 284:-0.720007 285:-0.542857 286:-0.401869 287:0.029429 288:-0.796258 289:-0.402818 290:-0.310283 291:0.176043 292:-0.726749 293:-0.830946 294:-0.433733 295:0.479452 296:0.052244 297:-0.958306 298:0.054269 299:-0.386546 300:-0.013987 301:-0.312502 302:-0.322273 303:-0.105789 304:0.439175 305:0.185502 306:-0.803522 307:0.362504 308:-0.485121 309:-0.539844 310:-0.056541 311:-0.428861 312:0.42692 313:-0.384901 314:0.052275 315:-0.900982 316:-0.054323 317:-0.341613 318:-0.98836 319:-0.699547 320:-0.857923 321:0.639673 322:-0.584337 323:0.048225 324:-0.889836 325:0.649054 326:0.657925 327:0.667871 328:-0.292932 329:-0.184252 330:-0.163346 331:-0.014916 332:-0.267839 333:-0.706837 334:-0.11363 335:-0.47056 336:0.612654 337:-0.137133 338:-0.392027 339:-0.339598 340:0.085417 341:-0.575207 342:-0.623175 343:0.039258 344:-0.383375 345:-0.421596 346:-0.159608 347:-0.282808 348:-0.016519 349:-1.0 350:-0.118188 351:-0.601606 
1.9157527360990705 1:0.122289 2:0.132262 3:0.139246 4:-0.001104 5:0.273509 6:-0.290985 7:0.561217 8:-0.206381 9:-0.534067 10:-0.539985 11:-0.106931 12:-0.141194 13:-0.323895 14:-0.242976 15:0.014421 16:-0.128319 17:-0.305858 18:-0.46367 19:0.263513 20:-0.276314 21:0.121278 22:-0.183998 23:0.197083 24:-0.408835 25:-0.174194 26:-0.34935 27:-0.29524 28:0.580847 29:0.238153 30:-0.458496 31:0.306147 32:0.156285 33:-0.125313 34:-0.338912 35:-0.0981 36:-0.804359 37:-0.023638 38:-0.693939 39:0.599863 40:-0.815792 41:-0.82171 42:-0.302877 43:-0.494506 44:-0.422557 45:-0.72445 46:-0.088689 47:-0.35782 48:-0.017952 49:-0.284788 50:-0.243392 51:0.291448 52:-0.268293 53:0.470078 54:-0.056176 55:0.60303 56:-0.516099 57:0.670648 58:-0.29153 59:-0.06781 60:0.748967 61:-0.106227 62:0.843174 63:0.236694 64:-0.563642 65:-0.488175 66:0.646766 67:-0.299972 68:-0.325248 69:-0.279115 70:0.785188 71:-0.18752 72:-0.630333 73:-0.325816 74:-0.4356 75:-0.641449 76:-0.276323 77:-0.071865 78:0.402133 79:-0.256236 80:0.953121 81:0.527235 82:-0.108347 83:-0.431376 84:0.733549 85:-0.299035 86:-0.24852 87:0.206164 88:0.228499 89:-0.177467 90:-0.447467 91:-0.669734 92:-0.554862 93:0.938297 94:0.14953 95:0.339219 96:-1.0 97:0.005698 98:-0.963684 99:0.119678 100:-0.327592 101:-0.397262 102:0.16601 103:-0.581962 104:-0.621479 105:-0.643425 106:0.642512 107:0.249707 108:-0.877505 109:-0.102305 110:0.006355 111:0.497205 112:0.008036 113:-0.426278 114:-0.869527 115:-0.383178 116:-0.600568 117:-0.782382 118:0.185973 119:-0.299895 120:-0.863065 121:-0.411301 122:-0.683351 123:0.573134 124:-0.494737 125:-0.050124 126:-0.891241 127:-0.973942 128:-0.147198 129:0.305179 130:0.192248 131:-0.322944 132:0.348761 133:-0.286487 134:0.00275 135:-0.849251 136:-0.381657 137:0.956893 138:-0.626277 139:0.684701 140:-0.257792 141:0.574388 142:-0.223265 143:0.13248 144:-0.983851 145:0.431052 146:-0.636159 147:0.278708 148:-0.770481 149:-0.717178 150:0.117714 151:-0.168539 152:-0.162434 153:-0.799985 154:-0.67333 155:-0.374658 156:0.505322 157:0.104828 158:-0.441949 159:-0.555051 161:-0.42161 162:-0.922565 163:-0.314322 164:0.346853 165:-0.360012 166:0.018467 167:-0.313379 168:0.751408 169:0.113924 170:0.496027 171:-0.871343 172:0.232024 173:-0.208893 174:-0.304873 175:-0.436252 176:-0.794791 177:-0.4593 178:0.28877 179:-0.57556 180:-0.971525 181:0.155206 182:-0.12644 183:-0.561454 184:-0.243352 185:-0.290286 186:0.607285 187:-0.338346 188:0.046196 189:-0.370829 190:-0.722109 191:-0.649443 192:0.005212 193:-0.641582 194:-0.646212 195:0.106139 196:0.398636 197:-0.445833 198:-0.469874 199:-0.031449 200:-0.341588 201:-0.355419 202:-0.02486 203:-0.036059 204:-0.240028 205:0.051282 206:-0.326923 207:-0.537429 208:0.228662 209:-0.674277 210:-0.940881 211:-0.684074 212:-0.753875 213:0.237082 214:-0.476923 215:0.077658 216:-0.882362 217:0.608073 218:-0.365944 219:-0.928842 220:-0.401078 221:-0.60755 222:-0.786764 223:-0.658031 224:0.050374 225:-0.777976 226:-0.727656 227:-0.45465 228:0.643363 229:-0.751324 230:-0.798879 231:-0.957948 232:0.253731 233:-0.169333 234:-0.806508 235:0.825637 236:0.200141 237:0.534439 238:-0.385935 239:-0.688459 240:0.869694 241:-0.662338 242:0.32627 243:-0.946545 244:-0.00229 245:0.967719 246:-0.627294 247:-0.242669 248:-0.672401 249:0.300083 250:-0.314866 251:-0.196628 252:-0.994826 253:-0.202928 254:-0.679286 255:0.500959 256:-0.711279 257:-0.85024 258:-0.342655 259:0.076517 260:-0.611932 261:-0.95613 262:-0.011818 263:-0.007545 264:-0.533483 265:-0.559903 266:-0.7628 267:-0.687845 268:0.286956 269:-0.599304 270:-0.903854 271:-0.104239 272:-0.002804 273:0.660791 274:-0.135084 275:-0.625484 276:0.052108 277:-0.390668 278:-0.146206 279:-0.904482 280:-0.066615 281:-0.557398 282:-0.012713 283:-0.720646 284:-0.838132 285:-0.555614 286:0.214953 287:-0.13301 288:-0.892538 289:-0.316136 290:-0.425852 291:0.55231 292:-0.525165 293:-0.719135 294:-0.446725 295:0.013699 296:-0.109831 297:-0.904222 298:0.064556 299:-0.713327 300:-0.003092 301:-0.681872 302:-0.692954 303:-0.07785 304:0.637113 305:0.410534 306:-0.857057 307:0.10124 308:-0.58827 309:-0.543425 310:-0.415511 311:-0.550641 312:0.458585 313:-0.247525 314:0.27152 315:-0.849029 316:0.197846 317:-0.366472 318:-0.986371 319:-0.660382 320:-0.803117 321:0.638628 322:-0.445783 323:0.031661 324:-0.884492 325:0.660792 326:0.637065 327:0.610285 328:0.263425 329:0.799727 330:-0.858242 331:-0.378282 332:-0.497974 333:-0.373805 334:-0.072648 335:0.055637 336:0.578805 337:0.406676 338:0.141988 339:0.068922 340:0.168561 341:0.120713 342:-0.535135 343:1.0 344:0.233453 345:1.0 346:0.174792 347:0.06862 348:0.202304 349:-0.047619 350:0.355074 351:-0.419248 
2.1012260239790725 1:0.014365 2:0.021786 3:0.030421 4:0.160617 5:0.27157 6:0.301387 7:0.204174 8:0.346212 9:-0.722711 10:-0.144433 11:-0.360773 12:0.051217 13:-0.109653 14:0.174866 15:0.164698 16:-0.568584 17:0.032261 18:-0.516964 19:0.026611 20:-0.568825 21:0.154492 22:-0.34453 23:-0.050179 24:-0.279877 25:-0.16129 26:-0.097488 27:-0.300761 28:0.051793 29:-0.593469 30:-0.644263 31:-0.012626 32:0.168099 33:0.264366 34:0.066195 35:0.731366 36:-0.249148 37:0.01392 38:-0.811258 39:0.563431 40:-0.900844 41:-0.802893 42:-0.294941 43:-0.406593 44:-0.391847 45:-0.514907 46:-0.247668 47:0.180439 48:0.060047 49:0.022067 50:-0.003982 51:0.648957 52:0.009756 53:0.77587 54:-0.188903 55:-0.312539 56:0.035255 57:0.693525 58:0.245745 59:-0.003715 60:0.281851 61:-0.095238 62:0.00989 63:-0.899498 64:-0.092171 65:-0.396084 66:0.715812 67:-0.650981 68:-0.887797 69:0.055872 70:-0.127926 71:0.189167 72:-0.979193 73:0.215099 74:-0.308433 75:-0.622769 76:-0.432808 77:-0.592678 78:-0.005806 79:0.22449 80:0.14057 81:-0.835068 82:-0.291845 83:-0.28884 84:0.711662 85:-0.503599 86:-0.418973 87:0.226527 88:-0.243613 89:-0.221185 90:-0.500857 91:-0.318774 92:-0.750502 93:0.919372 94:-0.566533 95:-0.528306 96:-0.282648 97:-0.373219 98:0.164203 99:-0.613363 100:0.130724 101:-0.915302 102:0.079257 103:-0.816804 104:-0.824223 105:-0.645387 106:0.381643 107:0.210947 108:-0.708196 109:0.347853 110:0.636773 111:-0.644637 112:0.305722 113:-0.311012 114:-0.69696 115:-0.271028 116:-0.159409 117:-0.962318 118:0.168996 119:0.078443 120:-0.88583 121:0.194256 122:-0.268263 123:0.619646 124:-0.165132 125:0.27265 126:-0.794399 127:0.379804 128:0.080747 129:0.376117 130:0.329407 131:-0.041855 132:0.171413 133:0.416216 134:-0.226574 135:-0.646046 136:0.410524 137:0.084071 138:-0.635004 139:0.200199 140:-0.279727 141:0.710373 142:-0.598499 143:0.351786 144:-0.793364 145:0.18942 146:-0.455016 147:0.244034 148:-0.794508 149:-0.864826 150:0.156288 151:0.662921 152:0.057543 153:-0.930554 154:0.070764 155:-0.424278 156:0.375006 157:-0.012868 158:-0.37693 159:-0.295739 160:0.071429 161:0.294971 162:-0.559026 163:-0.04829 164:-0.116226 165:-0.275956 166:0.311165 167:-0.275128 168:0.629246 169:0.670886 170:0.240878 171:-0.872222 172:-0.183165 173:-0.257559 174:-0.384653 175:-0.474849 176:-0.757848 177:-0.441758 178:0.438503 179:-0.475833 180:-0.932291 181:-0.668426 182:-0.354881 183:-0.602984 184:-0.592459 185:-0.737179 186:0.662455 187:0.24812 188:0.745111 189:-0.424276 190:-0.515155 191:-0.009742 192:0.009127 193:-0.296327 194:-0.307551 195:0.082863 196:-0.176689 197:-0.271961 198:-0.543995 199:0.75246 200:-0.220861 201:-0.418697 202:-0.436912 203:-0.74465 204:-0.056663 205:-0.692308 206:0.052921 207:-0.942171 208:-0.225409 209:-0.582517 210:-0.947847 211:-0.729581 212:-0.744919 213:0.212237 214:0.015385 215:-0.139852 216:-0.804828 217:0.245341 218:-0.037576 219:-0.929503 220:-0.411111 221:-0.742646 222:-0.809768 223:-0.06114 224:-0.198048 225:-0.964105 226:-0.396119 227:0.245489 228:0.615905 229:-0.284453 230:-0.534712 231:-0.943082 232:0.104478 233:-0.163481 234:-0.820921 235:-0.004775 236:-0.133762 237:0.159614 238:-0.421053 239:-0.639611 240:0.855767 241:-0.168831 242:0.168916 243:-0.876625 244:-0.23365 245:0.426936 246:-1.0 247:-0.30552 248:-0.676019 249:0.282744 250:-0.226223 251:-0.309475 252:-0.934989 253:-0.119332 254:-0.449186 255:0.50261 256:-0.646535 257:-0.74112 258:-0.335838 259:0.034301 260:-0.466703 261:-0.933277 262:-0.09281 263:-0.416614 264:-0.5492 265:-0.625656 266:-0.705918 267:-0.680177 268:0.182609 269:-0.408701 270:-0.816571 271:-0.249675 272:0.348238 273:0.824539 274:-0.163563 275:-0.666563 276:0.078783 277:-0.010064 278:-7.12E-4 279:-0.966148 280:-0.086798 281:-0.213374 282:-0.01146 283:-0.683442 284:-0.885908 285:-0.557406 286:0.102804 287:-0.197093 288:-0.979588 289:-0.465702 290:-0.785193 291:0.556828 292:-0.736233 293:-0.848682 294:-0.431022 295:-0.287671 296:0.13377 297:-0.920609 298:0.064422 299:-0.198201 300:0.041994 301:-0.396218 302:-0.608405 303:-0.084958 304:-0.05567 305:0.291704 306:-0.956631 307:0.22451 308:-0.357288 309:-0.544083 310:-0.513916 311:-0.734444 312:0.447759 313:0.306931 314:0.163799 315:-0.965422 316:0.158199 317:-0.425752 318:-0.98685 319:-0.713516 320:-0.850956 321:0.637258 322:-0.421687 323:0.008668 324:-0.876549 325:0.659091 326:0.66517 327:0.672864 328:-0.221368 329:0.038062 330:-0.081862 331:-0.558473 332:-0.063667 333:-0.738859 334:-0.019776 335:-0.181233 336:0.61694 337:-0.189107 338:-0.432091 339:-0.210692 340:0.501137 341:-0.189459 342:-0.906523 343:0.228425 344:0.228695 345:-0.425283 346:-0.237225 347:-0.456782 348:0.052154 349:-0.540179 350:0.364573 351:-0.823199 
1.903992846469896 1:0.168444 2:0.201627 3:0.235627 4:-0.464411 5:-0.665501 6:0.112533 7:0.293217 8:0.417461 9:-0.767732 10:0.072893 11:-0.758161 12:0.065477 13:-0.234014 14:-0.245821 15:0.090772 16:-0.097345 17:-0.107636 18:-0.583182 19:0.638724 20:-0.048229 21:0.182376 22:-0.592765 23:-0.611223 24:-0.227484 25:-0.625806 26:0.261621 27:-0.364532 28:-0.333798 29:-0.913392 30:-0.632652 31:-0.651781 32:-0.495091 33:-0.005968 34:-0.318313 35:0.646963 36:0.292532 37:0.568214 38:-0.513095 39:0.968856 40:-0.552898 41:-0.246047 42:-0.225231 43:-0.626374 44:-0.055626 45:-0.370084 46:0.208292 47:-0.841591 48:0.105516 49:-0.47112 50:-0.388692 51:0.145772 52:-0.37561 53:0.16293 54:-0.08318 55:0.692983 56:-0.055255 57:0.691397 58:-0.214965 59:0.219214 60:-0.084041 61:-0.076923 62:-0.819925 63:0.887092 64:-0.42421 65:-0.284071 66:0.650459 67:-0.389068 68:-0.346646 69:0.488858 70:0.282462 71:0.849619 72:-0.542809 73:0.830522 74:0.363017 75:-0.565389 76:9.7E-4 77:-0.174011 78:-0.415269 79:-0.401361 80:-0.469152 81:-0.522904 82:0.748425 83:-0.082733 84:0.758219 85:-0.565186 86:-0.453551 87:0.257842 88:0.532566 89:-0.073179 90:-0.44118 91:-0.570143 92:-0.867509 93:0.921569 94:-0.626386 95:-0.430722 96:-0.333785 97:-0.538462 98:-0.130831 99:-0.379735 100:-0.388977 101:-0.310564 102:0.025634 103:-0.737501 104:-0.742427 105:-0.562546 106:0.140097 107:0.857613 108:-0.532102 109:0.299768 110:-0.592692 111:0.40675 112:-0.552748 113:-0.773673 114:-0.766577 115:-0.64486 116:-0.179542 117:-0.850176 118:-0.63297 119:-0.191925 120:-0.913173 121:-0.284179 122:-0.46454 123:0.594188 124:-0.136842 125:0.151095 126:-0.76729 127:0.131277 128:-0.377856 129:0.256432 130:-0.093569 131:-0.407061 132:0.584937 133:0.059459 134:0.579522 135:-0.771735 136:0.393047 137:-0.673942 138:-0.542142 139:-0.461226 140:-0.654907 141:0.693908 142:-0.275797 143:0.623422 144:-0.679546 145:-0.715904 146:-0.736442 147:0.264948 148:-0.252884 149:-0.013419 150:0.356208 151:0.505618 152:0.343956 153:-0.142727 154:-0.083667 155:-0.222509 156:0.341572 157:-0.228352 158:-0.49353 159:-0.422076 160:0.607143 161:0.141854 162:-0.713332 163:-0.169911 164:-0.964703 165:-0.275593 166:-0.137074 167:-0.2725 168:0.715986 169:0.037975 170:0.410609 171:-0.609232 172:5.05E-4 173:-0.12261 174:-0.342029 175:0.298793 176:-0.122756 177:-0.379893 178:0.240642 179:-0.285622 180:-0.727827 181:-0.303174 182:-0.382108 183:-0.604216 184:-0.207144 185:-0.317894 186:0.710946 187:0.038005 188:0.395244 189:-0.376805 190:0.036149 191:-0.323859 192:0.066201 193:-0.293464 194:0.237284 195:0.3987 196:0.041537 197:0.292335 198:0.654655 199:0.877878 200:-0.607829 201:-1.0 202:-0.303981 203:-0.082119 204:-0.162105 205:-1.0 206:-0.274684 207:-0.397777 208:0.104519 209:-0.526016 210:-0.94014 211:-0.467811 212:-0.468246 213:0.208311 214:-0.307692 215:-0.008318 216:-0.736572 217:0.060574 218:-0.462947 219:-0.926987 220:-0.749384 221:-0.883467 222:-0.815349 223:-0.127461 224:-0.393664 225:-0.92899 226:-0.371286 227:-0.087485 228:0.636115 229:-0.558913 230:-0.731995 231:-0.954812 232:0.477612 233:-0.183558 234:-0.87068 235:-0.08421 236:-0.480985 237:0.156467 238:-0.35808 239:-0.648415 240:0.869688 241:0.337662 242:0.32469 243:-0.917256 244:-0.058883 245:-0.787096 246:-0.528907 247:-0.696891 248:-0.72789 249:0.289202 250:-0.551247 251:-0.406933 252:-0.606879 253:-0.370029 254:-0.490935 255:0.504031 256:-0.102869 257:-0.157256 258:-0.414076 259:0.403694 260:-0.79635 261:-0.691346 262:-0.093476 263:-0.463067 264:-0.593667 265:-0.605321 266:-0.763755 267:-0.681285 268:0.217391 269:-0.443277 270:-0.89577 271:-0.305065 272:-0.299528 273:1.0 274:-0.238348 275:-0.405415 276:0.091487 277:0.077768 278:0.076852 279:-0.652134 280:0.525467 281:-0.215325 282:0.015441 283:-0.182602 284:-0.345863 285:-0.535643 286:0.649533 287:-0.084219 288:-0.636365 289:-0.084347 290:0.053682 291:0.527888 292:-0.213561 293:-0.227953 294:-0.356253 295:0.287671 296:0.482604 297:-0.428435 298:-0.93776 299:-0.566291 300:0.089641 301:0.336413 302:0.616902 303:-1.0 304:-0.121649 305:-1.0 306:1.0 307:0.292279 308:-0.706999 309:-0.542767 310:-0.429526 311:-0.607277 312:0.45623 313:-0.405941 314:0.25114 315:-0.84524 316:0.835397 317:-0.346292 318:-0.987745 319:-0.093782 320:-0.010854 321:1.0 322:-0.325301 323:1.0 324:0.90372 325:0.423414 326:0.425526 327:0.429184 328:-0.044491 329:-0.003199 330:0.103865 331:-0.415274 332:0.229014 333:-0.857517 334:0.281331 335:-0.01912 336:0.606138 337:0.142449 338:0.188349 339:-0.117389 340:0.168561 341:-0.025717 342:-0.216405 343:0.172984 344:0.040973 345:-0.414702 346:0.057853 347:0.22031 348:-0.264673 349:0.130952 350:-0.973085 351:0.524147 
1.6244842109917246 1:0.466399 2:0.507748 3:0.550993 4:-0.989802 5:-0.884513 6:-0.050813 7:-0.111304 8:-0.48377 9:-0.183071 10:-0.152573 11:-0.448675 12:0.046681 13:-0.624899 14:-0.679121 15:0.251028 16:-0.535398 17:0.255502 18:-0.667877 19:0.754364 20:0.344799 21:0.176842 22:-0.321865 23:0.049948 24:-0.166532 25:-0.477419 26:0.156072 27:-0.159553 28:0.866747 29:0.396763 30:-0.607623 31:-0.86832 32:-1.0 33:-0.094274 34:-1.0 35:-0.202013 36:-0.657826 37:0.41857 38:-0.649781 39:0.58858 40:-0.386896 41:-0.276312 42:-0.137651 43:-0.032967 44:0.096128 45:-0.630225 46:0.06485 47:-0.510746 48:-0.286972 49:-0.397374 50:-0.520289 51:0.140088 52:-0.190244 53:0.080801 54:-0.638306 55:1.0 56:0.531996 57:0.695613 58:-0.142937 59:0.074936 60:0.045167 61:-0.811355 62:-0.495877 63:0.04523 64:-0.120169 65:-0.407135 66:0.692362 67:-0.550917 68:-0.765062 69:0.03727 70:0.046489 71:0.168579 72:-0.959539 73:0.34516 74:-0.571123 75:-0.172555 76:-0.542846 77:-0.614396 78:-0.052136 79:0.768708 80:0.012811 81:-0.679083 82:0.730333 83:-0.18523 84:0.716133 85:-0.648944 86:-0.299126 87:0.314669 88:0.199712 89:0.319635 90:-0.045704 91:-0.53101 92:-0.045841 93:0.931852 94:0.167272 95:0.12598 96:-0.580258 97:0.196581 98:-0.366506 99:-0.696584 100:-0.430451 101:-0.129483 102:0.162586 103:-0.079406 104:-0.256551 105:-0.68696 106:0.345411 107:0.191844 108:-0.839049 109:-0.136258 110:-0.899695 111:0.3884 112:-0.649832 113:-0.684807 114:-0.78201 115:-0.140187 116:-0.373912 117:-0.520259 118:0.522395 119:-0.626465 120:-0.885751 121:-0.710353 122:-0.743049 123:0.611154 124:0.063158 125:0.206351 126:-0.717087 127:0.021276 128:0.430081 129:0.358445 130:0.450406 131:-0.08818 132:0.346449 133:-0.027027 134:0.104501 135:-0.874846 136:-0.137838 137:-0.501054 138:-0.614705 139:-0.550604 140:-0.868543 141:0.6325 142:-0.260788 143:0.027517 144:-0.937712 145:0.476868 146:-0.363726 147:0.327909 148:-0.594361 149:-0.589571 150:0.029734 151:0.280899 152:-0.459694 153:-0.709744 154:-0.269327 155:-0.054014 156:0.236993 157:-0.322509 158:-0.738935 159:-0.61141 161:-0.703606 162:-0.935462 163:0.105997 164:-0.116524 165:-0.297702 166:-0.195271 167:-0.506414 168:0.621356 169:0.240506 170:0.065092 171:-0.809819 172:-0.18892 173:0.394794 174:-0.131791 175:-0.174775 176:-0.67755 177:-0.44566 178:0.219251 179:-0.453883 180:-0.967036 181:-0.686311 182:-0.570205 183:-0.608404 184:-0.720159 185:-0.868094 186:0.569844 187:-0.270677 188:-0.114215 189:-0.934034 190:0.09764 191:-0.460821 192:0.041901 193:-0.628279 194:-0.732025 195:0.263204 196:-0.176689 197:0.136515 198:-0.798852 199:-0.234856 200:-0.052135 201:-0.38408 202:-0.179071 203:-0.376114 204:0.10061 205:0.397436 206:0.275383 207:-0.80831 208:0.002219 209:-0.189118 210:-0.948206 211:-0.405806 212:-0.439974 213:0.163931 214:-0.2 215:-0.117882 216:-0.741806 217:0.247669 218:-0.739316 219:-0.92768 220:-0.680719 221:-0.699868 222:-0.808976 223:-0.036269 224:-0.137386 225:-0.654616 226:-0.614486 227:-0.626186 228:0.585111 229:-0.747428 230:-0.82876 231:-0.966462 232:-0.604478 233:-0.517461 234:-0.764219 235:0.634636 236:0.395659 237:0.185809 238:-0.209079 239:-0.629202 240:0.873234 241:-0.246753 242:0.340707 243:-0.951382 244:-0.363606 245:-0.147396 246:-0.542213 247:-0.730518 248:-0.912237 249:0.301083 250:0.268698 251:-0.061298 252:-0.959112 253:-0.066487 254:-0.345511 255:0.488191 256:-0.512949 257:-0.655156 258:-0.326037 259:0.076517 260:-0.351566 261:-0.913177 262:-0.061139 263:-0.076323 264:-0.558299 265:-0.620355 266:-0.774611 267:-0.680222 268:0.495652 269:-0.410806 270:-0.923692 271:0.014077 272:-0.377633 273:0.564612 274:-0.607286 275:-0.856055 276:0.087406 277:-0.390668 278:0.024307 279:-0.941576 280:-0.019634 281:0.250899 282:0.001523 283:-0.499197 284:-0.826497 285:-0.553539 286:-0.719626 287:-0.150916 288:-0.985378 289:-0.358706 290:-0.605836 291:0.597541 292:-0.823268 293:-0.857928 294:-0.435774 295:0.123288 296:-0.053915 297:-0.918838 298:0.219979 299:-0.525387 300:-0.058586 301:-0.701966 302:-0.770282 303:-0.080842 304:0.241237 305:0.373263 306:-0.944565 307:0.125979 308:-0.315181 309:-0.533078 310:-0.434214 311:-0.646591 312:0.450099 313:-0.60396 314:0.183518 315:-0.952959 316:0.032441 317:-0.496529 318:-0.987065 319:-0.548954 320:-0.684738 321:0.629314 322:-0.421687 323:-0.053542 324:-0.786823 325:0.484505 326:0.513941 327:0.543748 328:-0.798915 329:-0.605115 330:-0.038686 331:-8.95E-4 332:-0.52626 333:-0.146469 334:-0.283062 335:-0.796274 336:0.61047 337:-0.38061 338:-0.381991 339:-0.254632 340:-0.28873 341:-0.434567 342:-0.232686 343:0.62189 344:-0.582742 345:-0.422486 346:-0.366916 347:-0.379224 348:0.023912 349:0.077381 350:0.383548 351:-0.153487 
1.4448570998148422 1:0.329844 2:0.357507 3:0.38726 4:-0.394297 5:-0.196693 6:0.116663 7:0.407304 8:0.379113 9:-0.562246 10:-0.105829 11:-0.618575 12:0.060543 13:-0.968776 14:-0.94007 15:0.221943 16:-0.070796 17:0.206338 18:-0.5156 19:0.594915 20:0.030124 21:0.17221 22:0.24451 23:0.291146 24:-0.786201 25:-0.909677 26:-0.558126 27:-0.572575 28:0.236127 29:-0.770954 30:-0.623776 31:-0.722523 32:-0.759842 33:-0.071796 34:-0.153524 35:0.096042 36:-0.64044 37:0.285341 38:-0.356802 39:0.592783 40:0.094561 41:0.154492 42:-1.0 43:0.076923 44:-1.0 45:-0.475101 46:-0.190147 47:-0.630564 48:0.123279 49:-0.647695 50:-0.654274 51:0.042612 52:-0.034146 53:-0.343923 54:-0.296938 55:0.810425 56:-0.238881 57:0.710252 58:-0.774047 59:-0.903007 60:0.377468 61:-0.384615 62:-0.132621 63:-0.681248 64:-0.175058 65:-0.438857 66:0.658623 67:-0.277951 68:-0.481427 69:0.169765 70:0.00545 71:0.368803 72:-0.858075 73:0.88788 74:0.249921 75:-0.869309 76:0.440008 77:0.199025 78:0.741263 79:0.265306 80:0.518803 81:-0.47375 82:0.640014 83:-0.200981 84:0.738978 85:-0.286387 86:-0.230366 87:0.258295 88:0.101835 89:0.01929 90:-0.639091 91:-0.442393 92:-0.455805 93:0.879185 94:-0.415219 95:-0.595906 96:-0.349934 97:-0.430199 98:-0.143745 99:-0.936548 100:-0.580768 101:-0.171359 102:-0.127048 103:-0.641877 104:-0.62373 105:-0.612469 106:0.466184 107:0.425021 108:-0.754132 109:0.232581 110:-0.591629 111:1.0 112:-0.455453 113:-0.635771 114:-0.752736 115:-0.028037 116:-0.08869 117:-0.750001 118:-0.106987 119:-0.784399 120:-0.906599 121:-0.876845 122:-0.891212 123:0.622177 124:-0.073684 125:0.562908 126:-0.68865 127:-0.939707 128:0.044835 129:0.405409 130:0.322773 131:-0.002433 132:0.508833 133:0.145946 134:0.328432 135:-0.802723 136:-0.240324 137:-0.445705 138:-0.618867 139:-0.453217 140:-0.764003 141:0.652533 142:-0.110694 143:0.248807 144:-0.911499 145:-0.81993 146:-0.769822 147:0.298385 148:-0.189643 149:-0.210155 150:-0.4013 151:0.280899 152:-1.0 153:-0.050877 154:-0.083253 155:-0.850014 156:0.363864 157:-0.595444 158:-0.774021 159:-0.55005 160:-0.928571 161:-0.34883 162:-0.875839 163:0.032685 164:-0.975036 165:-0.29556 166:-0.991479 167:-1.0 168:0.710809 169:0.544304 170:0.498153 171:-0.921874 172:0.337552 173:-0.670525 174:-0.333908 175:-0.630541 176:-0.73033 177:-0.437006 178:-0.144385 179:-0.467079 180:-0.800746 181:0.520713 182:-0.12129 183:-0.59017 184:0.334707 185:0.222417 186:0.687591 187:-0.080827 188:0.062589 189:-0.122168 190:-0.442016 191:-0.139419 192:0.016268 193:-0.307685 194:-0.23818 195:-0.03154 196:0.120893 197:-0.486692 198:-0.43454 199:0.669649 200:0.318641 201:1.0 202:-0.264823 203:-0.427684 204:0.099763 205:-0.089744 206:0.359039 207:-0.821119 208:0.260843 209:-0.919813 210:-0.940929 211:-0.775068 212:-0.882322 213:0.28182 214:-0.288462 215:0.528787 216:-0.715091 217:-0.091134 218:-0.420633 219:-0.90836 220:-0.547626 221:-0.66267 222:-0.810349 223:-0.06114 224:-0.196843 225:-0.786576 226:-0.354716 227:-0.777173 228:0.638346 229:-0.860166 230:-0.915223 231:-0.962411 232:0.343284 233:-0.407409 234:-0.838882 235:0.2411 236:0.222162 237:-0.801678 238:-0.128987 239:-0.367783 240:0.88224 241:0.577922 242:0.379855 243:-0.827204 244:-0.067154 245:-0.541516 246:-0.49285 247:-0.734513 248:-0.847702 249:0.295253 250:-0.462604 251:-0.247 252:-0.863945 253:-0.345414 254:-0.474216 255:0.500422 256:-0.347625 257:-0.39517 258:-0.332276 259:0.139842 260:-0.433867 261:-0.791485 262:-0.097002 263:-0.607334 264:-0.524789 265:-0.751978 266:-0.900166 267:-0.681242 268:-0.06087 269:-0.444633 270:-0.955289 271:-0.467047 272:-0.574697 273:0.613907 274:-0.789861 275:-0.934753 276:0.088461 277:-0.215005 278:0.027027 279:-0.956523 280:-0.386622 281:-0.375924 282:0.192078 283:-0.82703 284:-0.903237 285:-0.558361 286:0.626168 287:-0.231056 288:-0.934851 289:-0.454908 290:0.021259 291:0.855994 292:-0.225429 293:-0.368789 294:-0.386506 295:0.335616 296:0.328511 297:-0.728373 298:-0.128878 299:-0.889439 300:-0.016937 301:-0.573311 302:-0.605738 303:-0.094638 304:-0.063917 305:0.200209 306:-0.8813 307:0.110239 308:-0.567876 309:-0.53188 310:-0.511263 311:-0.569356 312:0.445821 313:0.128713 314:0.135687 315:-0.867093 316:0.062435 317:-0.499113 318:-0.987465 319:-0.780904 320:-0.91779 321:0.632706 322:0.012048 323:-0.100909 324:-0.867476 325:0.516338 326:0.540004 327:0.564647 328:-0.609041 329:-0.128714 330:0.024874 331:0.041766 332:0.082959 333:-0.356885 334:0.098093 335:-0.502256 336:0.609958 337:-0.354244 338:-0.42344 339:-0.162865 340:-0.164014 341:0.048703 342:-0.474083 343:0.169741 344:-0.32547 345:-0.419913 346:-0.260602 347:-0.341588 348:-0.043392 349:-0.0 350:-0.26 351:-0.595167 
