svm_type c_svc
kernel_type rbf
gamma 0.125
nr_class 2
total_sv 102
rho -0.018640034675257343
label 1 -1
nr_sv 53 49
SV
0.9808729755385801 1:-0.306755 2:-0.279236 3:-0.252208 4:-0.543653 5:-0.59458 6:-0.229592 7:-0.425686 8:-0.141825 9:-0.787022 10:-0.749587 11:0.787404 12:-0.818305 13:-0.683746 14:-0.623003 15:-1.0 16:0.42922 17:-1.0 18:-0.828714 19:-0.156424 20:-0.086295 21:-0.030683 22:-0.094918 23:-0.232274 24:-0.471899 25:-0.186813 26:-0.379804 27:-0.060092 28:-0.946793 29:0.763007 30:-0.627366 31:0.095824 32:-0.06337 33:-0.342749 34:0.037037 35:0.026143 36:-0.524425 37:-0.386981 38:-0.17028 39:0.478844 40:-0.413401 41:-0.525217 42:-0.138936 43:-0.15625 44:0.22102 45:-0.704923 46:-0.013618 47:-0.011057 48:-0.933842 49:0.310984 50:-0.316523 51:0.513527 52:0.856502 53:0.354524 54:-0.554971 55:-0.14357 56:0.068259 57:-0.453562 58:0.012089 59:-0.152483 60:-0.220182 61:0.175258 62:-0.017149 63:-0.612277 64:-0.219173 65:-0.013022 66:-0.671998 67:0.12488 68:0.25491 69:0.40708 70:-0.333333 71:0.29842 72:-0.161996 73:0.2705 74:0.056449 75:-0.677017 76:0.107384 77:0.068977 78:-0.5353 79:0.087719 80:-0.281768 81:-0.402899 82:0.128711 83:0.152095 84:0.2382 85:-0.455444 86:-0.605683 87:0.233396 88:-0.225754 89:-0.303216 90:-0.86245 91:-0.107766 92:-0.558889 93:-0.949052 94:-0.050487 95:-0.054729 96:-0.411685 97:0.537037 98:-0.397909 99:-0.233961 100:-0.208677 101:-0.353651 102:0.927206 103:-0.536049 104:-0.794356 105:-0.268404 106:-0.046154 107:-0.559381 108:-0.973638 109:-0.513393 110:-0.249131 111:0.444433 112:-0.584507 113:-0.781917 114:-0.52412 115:0.472868 116:-0.227102 117:-0.95448 118:-0.026725 119:-0.432694 120:1.0 121:-0.529201 122:-0.818745 123:0.362738 124:0.019608 125:0.641687 126:-0.953663 127:-0.042973 128:0.130957 129:0.167344 130:-0.037517 131:-0.090161 132:-0.405309 134:0.275362 135:-0.23773 136:0.696876 137:0.39566 138:0.192216 139:1.0 140:1.0 141:1.0 142:0.349138 143:0.909043 144:0.301116 145:-0.082826 146:0.257313 147:-0.581195 148:-0.059207 149:0.041874 150:-0.635979 151:-0.152318 152:-0.237164 153:0.021205 154:0.7407 155:-0.489439 156:-0.273517 157:-0.268496 158:-0.798951 159:0.653213 160:0.07461 161:0.404554 162:-0.923236 163:0.52805 164:0.333418 165:0.27036 166:0.131139 167:0.415724 168:0.415408 169:-0.081967 170:0.427593 171:-0.232316 172:0.140134 173:0.655781 174:0.686223 175:1.0 176:1.0 177:-0.210578 178:-0.047619 179:-0.271707 180:0.320859 181:-0.033446 182:0.662767 183:-0.773654 184:-0.235458 185:-0.427926 186:-0.265028 187:0.085714 188:0.112215 189:-0.715181 190:0.216212 191:-0.578239 192:-0.878002 193:-0.504966 194:-0.70428 195:0.443314 196:-0.569231 197:0.094803 198:-0.877587 199:0.073712 200:0.479654 201:-0.690826 202:0.013371 203:-0.232354 204:-0.546575 205:-0.084746 206:-0.31365 207:-0.67341 208:0.681771 209:-0.266668 210:0.226009 211:-0.610086 212:-0.579224 213:0.278014 214:0.527778 215:0.1289 216:-0.717594 217:-0.277341 218:-0.390748 219:0.889846 220:-0.720758 221:-0.866355 222:-0.56371 223:0.674074 224:-0.242003 225:-0.919116 226:0.38029 227:-0.428616 228:-0.898236 229:-0.616948 230:-0.633535 231:0.644752 232:0.424084 233:0.403292 234:-0.550427 235:-0.579564 236:-0.102686 237:-0.00396 238:-0.053486 239:-0.126368 240:-0.58315 241:-0.044776 242:-0.932951 243:0.747235 244:-1.0 245:0.170602 246:0.176106 247:1.0 248:0.998954 249:-1.0 250:0.331665 251:-1.0 252:0.921009 253:-0.762127 254:0.306162 255:-0.726947 256:0.09042 257:0.03231 258:-1.0 259:-0.170213 260:-1.0 261:0.719622 262:-0.337259 263:0.020746 264:0.199668 265:-0.766863 266:-0.888645 267:-0.133977 268:-0.538462 269:-0.021397 270:-0.978398 271:0.953475 272:-0.011283 273:-0.482866 274:0.430699 275:0.377116 276:0.385698 277:0.527607 278:0.954218 279:0.878611 280:1.0 281:0.54276 282:-0.460612 283:1.0 284:0.882146 285:1.0 286:0.390893 287:0.97765 288:0.902108 289:-0.522245 290:0.173391 291:0.961889 292:-0.327067 293:-0.321641 294:-0.743873 295:-0.269231 296:-0.797029 297:0.178773 298:-0.126587 299:-0.540089 300:-0.712782 301:-0.767453 302:-0.812724 303:-0.349683 304:-0.183303 305:-0.00388 306:-0.905836 307:-0.648089 308:0.11562 309:-0.783235 310:-0.010694 311:0.099195 312:-0.686184 313:-0.063212 314:-0.712282 315:0.009636 316:-0.276415 317:-0.152737 318:-0.852179 319:-0.681368 320:-0.842693 321:-0.234965 322:-0.310105 323:-0.011245 324:-0.913064 325:0.86766 326:0.871216 327:0.874615 328:-0.842707 329:-0.747936 330:0.99478 331:0.003063 332:0.689989 333:-0.934883 334:-0.210384 335:-0.733666 336:0.769655 337:-0.797045 338:-0.882981 339:-0.867491 340:-0.365 341:0.354273 342:-0.942731 343:0.27731 344:-0.774371 345:-0.032135 346:-0.796685 347:-0.870212 348:-0.154393 349:1.0 350:-0.011317 351:-0.91455 
0.9249723245859075 1:-0.625012 2:-0.589266 3:-0.554258 4:-0.941559 5:-0.917719 6:-0.311522 7:0.103613 8:0.121736 9:-0.263061 10:-0.633412 11:0.698568 12:-0.748307 13:-0.794279 14:-0.384724 15:-0.894184 16:-0.216038 17:-0.541728 18:-0.573857 19:0.071002 20:-0.232879 21:-0.071458 22:-0.278979 23:-0.18169 24:-0.057024 25:0.531136 26:0.221708 27:-0.117468 28:-0.59476 29:0.116903 30:-0.614076 31:-0.434837 32:-0.494974 33:-0.497851 34:-0.0194 35:-0.188898 36:-0.566503 37:0.7285 38:-0.617723 39:0.513149 40:0.022433 41:-0.408246 42:-0.456051 43:0.64209 44:-0.42211 45:-0.676993 46:0.612428 47:-0.649373 48:0.022786 49:-0.131855 50:-0.334447 51:-0.111378 52:0.255605 53:-0.31622 54:-0.481988 55:-0.315349 56:-0.371122 57:-0.44294 58:-0.471882 59:-0.800933 60:-0.593051 61:-0.216495 62:-0.647317 63:-0.601803 64:-0.054228 65:-0.041934 66:-0.637153 67:0.472673 68:0.498926 69:-0.477663 70:-0.626984 71:-0.610615 72:0.033484 73:-0.381837 74:-0.365927 75:-0.722696 76:0.574214 77:0.453836 78:-0.935478 79:-0.473684 80:-0.511318 81:-0.131602 82:-0.5524 83:-0.089194 84:0.261264 85:-0.260837 86:0.129202 87:0.266112 88:0.075431 89:-0.227633 90:-0.298713 91:0.153326 92:-0.52766 93:-0.94782 94:0.018251 95:-0.456486 96:0.145265 97:-0.481482 98:0.181005 99:-0.649712 100:-0.18491 101:-0.450064 102:0.928838 103:0.037509 104:0.017752 105:0.010873 106:0.117949 107:-0.081668 108:-0.601316 109:-0.134853 110:-0.810675 111:0.492738 112:-0.817485 113:-0.818982 114:-0.51945 115:0.069767 116:-0.102962 117:-0.840275 118:-0.017959 119:-0.686794 120:-0.596016 121:-0.810657 122:-0.90885 123:0.348795 124:-0.019608 125:0.627997 126:-0.901056 127:-0.216917 128:-0.294446 129:0.164521 130:-0.602578 131:-0.757515 132:-0.536162 133:0.013889 134:-0.137879 135:-0.834939 136:-0.023985 137:0.087568 138:0.826172 139:-0.669911 140:-0.857849 141:0.146679 142:-0.413793 143:0.144038 144:-0.957296 145:-0.256986 146:-0.308266 147:-0.565201 148:-0.723748 149:-0.846124 150:-0.591373 151:-0.086093 152:-0.195107 153:-0.917642 154:-0.259713 155:-0.768166 156:-0.272369 157:-0.439481 158:-0.755509 159:0.618845 160:0.456333 161:0.310873 162:-0.896027 163:0.046835 164:-0.558444 165:0.253777 166:-0.863441 167:-0.893314 168:0.314605 169:0.114754 170:0.093171 171:-0.954434 172:0.291744 173:0.80748 174:0.824914 175:0.031462 176:-0.570138 177:0.390859 178:-0.535714 179:0.216571 180:-0.928081 181:-0.108899 182:0.122115 183:0.312029 184:-0.465858 185:-0.740006 186:-0.365608 187:-0.048214 188:-0.262739 189:-0.861074 190:-0.18157 191:-0.28707 192:-0.885356 193:-0.427253 194:-0.692103 195:0.449492 196:-0.076923 197:0.161719 198:-0.889048 199:-0.02798 200:-0.213275 201:-0.625727 202:-0.401974 203:-0.734082 204:-0.479283 205:-0.050847 206:-0.236338 207:-0.898435 208:-0.272973 209:0.190226 210:0.216514 211:-0.329321 212:-0.578831 213:0.235969 214:0.392361 215:-0.153177 216:-0.912181 217:-0.500895 218:-0.616243 219:0.886603 220:-0.82395 221:-0.818082 222:-0.558286 223:0.540741 224:-0.089723 225:-0.778402 226:0.139398 227:-0.693496 228:-0.891796 229:-0.835008 230:-0.871446 231:0.628139 232:-0.204189 233:0.032201 234:-0.872541 235:0.046421 236:-0.17997 237:-0.067882 238:-0.77537 239:-0.846221 240:-0.393897 241:-0.462687 242:0.06878 243:-0.916475 244:0.420744 245:0.140083 246:0.193451 247:-0.814869 248:-0.924724 249:0.742454 250:-0.058824 251:0.048033 252:-0.980175 253:-0.032574 254:-0.649358 255:-0.777824 256:-0.837358 257:-0.89525 258:-0.66004 259:0.021277 260:-0.117597 261:-0.887931 262:-0.163356 263:-0.280911 264:0.200106 265:-0.749119 266:-0.855263 267:-0.134657 268:-0.215385 269:-0.047271 270:-0.93688 271:0.027436 272:-0.443676 273:-0.479594 274:-0.927846 275:-0.901181 276:-0.0535 277:-0.055215 278:-0.036675 279:-0.845045 280:-0.226691 281:0.680042 282:-0.44815 283:-0.503084 284:-0.748696 285:-0.586732 286:0.17327 287:-0.051307 288:-0.95833 289:-0.019582 290:0.332387 291:0.94305 292:-0.704174 293:-0.795295 294:-0.659261 295:-0.384615 296:-0.14124 297:-0.901341 298:-0.097964 299:-0.025595 300:-0.712984 301:-0.716221 302:-0.787928 303:-0.349664 304:-0.626134 305:4.18E-4 306:-0.932431 307:-0.23748 308:-0.460301 309:-0.610323 310:-0.730087 311:-0.771648 312:-0.515609 313:-0.262176 314:-0.02465 315:-0.882993 316:0.250898 317:0.127997 318:-0.849875 319:-0.566015 320:-0.754991 321:-0.236884 322:-0.425087 323:-0.022692 324:-0.893442 325:0.954254 326:0.955418 327:0.956532 328:-0.908021 329:-0.811675 330:0.99312 331:-0.271449 332:-0.069054 333:-0.370674 334:-0.358258 335:-0.883043 336:0.874516 337:-0.848191 338:-0.824423 339:-0.869157 340:-0.0 341:0.264422 342:-0.647043 343:0.407164 344:-0.837926 345:-0.034832 346:-0.838921 347:-0.827101 348:-0.151773 349:-0.323944 350:0.408378 351:-0.522169 
1.0215771520274748 1:-0.698671 2:-0.662933 3:-0.627918 4:-0.824951 5:-0.893142 6:-0.286774 7:-0.100827 8:0.061362 9:-0.416951 10:-0.748647 11:0.787329 12:-0.818275 13:-0.707224 14:-0.652582 15:-0.942503 16:-0.043301 17:-0.767656 18:-0.92402 19:0.093285 20:-0.699683 21:0.374404 22:-0.849503 23:-0.852481 24:-0.155099 25:0.340659 26:-0.046998 27:-0.843763 28:-0.482615 29:0.322297 30:-0.636271 31:-0.534713 32:-0.646206 33:-0.199818 34:0.100529 35:0.519012 36:-0.347293 37:-0.273823 38:-0.276721 39:0.498911 40:0.139904 41:0.120717 42:0.079419 43:-0.015625 44:0.360955 45:-0.311201 46:-0.169254 47:-0.575518 48:0.035793 49:-0.069502 50:-0.545482 51:-0.303717 52:0.390135 53:-0.543086 54:-0.671146 55:-0.269629 56:-0.202777 57:-0.562445 58:0.099025 59:0.790423 60:-0.718827 61:-0.092783 62:-0.520672 63:0.709753 64:-0.33066 65:-0.281163 66:-0.641401 67:-0.194673 68:-0.494467 69:-0.100219 70:0.619048 71:-0.539227 72:-0.581657 73:-0.265697 74:-0.826501 75:-0.710621 76:-0.390227 77:-0.257277 78:-0.424674 79:-0.157895 80:-0.247489 81:-0.403505 82:-0.254658 83:-0.746446 84:0.251269 85:-0.346809 86:0.272681 87:0.525952 88:-0.327586 89:0.211595 90:0.17264 91:0.38292 92:-0.074324 93:-0.945551 94:0.193166 95:0.222427 96:0.604776 97:0.009259 98:0.547953 99:-0.002336 100:-0.543898 101:0.157254 102:0.933847 103:0.437647 104:0.546135 105:-0.21917 106:0.086859 107:-0.391712 108:-0.62321 109:-0.084197 110:-0.654875 111:0.633515 112:-0.791227 113:-0.767614 114:-0.531159 115:0.131783 116:-0.460803 117:-0.768611 118:0.039717 119:-0.38147 120:-0.595972 121:-0.606927 122:-0.828143 123:0.379885 124:0.176471 125:0.751397 126:-0.927428 127:0.03985 128:-0.59009 129:0.1628 130:-0.728378 131:-0.883447 132:-0.529598 133:0.173611 134:-0.093172 135:-0.903407 136:0.312783 137:0.012371 138:0.260249 139:-0.725645 140:-0.855278 141:0.149075 142:-0.739224 143:0.156783 144:-0.967109 145:-0.303406 146:-0.551802 147:-0.56537 148:-0.693459 149:-0.836549 150:-0.583422 151:-0.271523 152:-0.104034 153:-0.904023 154:-0.421468 155:-0.616498 156:-0.243866 157:-0.761587 158:-0.942656 159:0.583443 160:-0.56391 161:0.102211 162:-0.947335 163:0.131923 164:-0.513025 165:0.248441 166:-0.630992 167:-0.665826 168:0.308826 169:-0.508197 170:0.036676 171:-0.850598 172:0.122163 173:-0.65161 174:0.589147 175:-0.612351 176:-0.784064 177:0.336013 178:-0.261905 179:0.008388 180:-0.814158 181:-0.007811 182:-0.852963 183:0.372496 184:-0.720794 185:-0.88604 186:-0.341041 187:0.257143 188:-0.230493 189:-0.885884 190:-0.276752 191:-0.140501 192:-0.903721 193:-0.446063 194:-0.709264 195:0.466664 196:-0.592308 197:0.261749 198:-0.947665 199:-0.018135 200:-0.416533 201:-0.480493 202:-0.228527 203:-0.327052 204:-0.433327 205:0.169492 206:-0.043322 207:-0.641726 208:0.110434 209:-0.147953 210:0.220159 211:-0.509744 212:-0.646577 213:0.289628 214:0.159722 215:0.160003 216:-0.819016 217:-0.382039 218:-0.586602 219:0.913259 220:-0.821692 221:-0.845679 222:-0.562258 223:-0.007407 224:-0.274927 225:-0.74029 226:0.252646 227:-0.52366 228:-0.902326 229:-0.803437 230:-0.889971 231:0.628269 232:0.434555 233:0.045476 234:-0.926507 235:-0.050285 236:-0.487269 237:-0.028616 238:-0.866796 239:-0.90268 240:-0.394947 241:-0.104478 242:-0.052048 243:-0.946108 244:0.275974 245:0.112628 246:0.292484 247:-0.821857 248:-0.920446 249:0.743885 250:0.406758 251:0.137443 252:-0.977229 253:0.073144 254:-0.297013 255:-0.7792 256:-0.809171 257:-0.924034 258:-0.657827 259:0.815603 260:0.027398 261:-0.971058 262:-0.090328 263:-0.827918 264:0.194986 265:-0.913584 266:-0.894845 267:-0.134116 268:0.246154 269:0.013431 270:-0.906879 271:0.039179 272:0.188055 273:-0.485502 274:-0.745496 275:-0.77646 276:-0.052048 277:0.306748 278:0.039849 279:-0.787681 280:-0.090537 281:-0.211077 282:-0.443969 283:-0.723322 284:-0.821505 285:-0.591807 286:0.078652 287:-0.195748 288:-0.89103 289:-0.008459 290:-0.402805 291:0.936195 292:-0.890441 293:-0.934386 294:-0.65659 295:-0.211538 296:0.025267 297:-0.897519 298:0.018059 299:0.376554 300:-0.530353 301:-0.684791 302:-0.82662 303:-0.348915 304:0.012704 305:0.024371 306:-0.973987 307:-0.086065 308:-0.313166 309:-0.680849 310:-0.559103 311:-0.597649 312:-0.523621 313:-0.502591 314:-0.187129 315:-0.79157 316:0.148241 317:-0.045594 318:-0.858096 319:-0.582739 320:-0.799399 321:-0.224738 322:-0.264808 323:0.162446 324:-0.900082 325:0.947709 326:0.949009 327:0.950248 328:-0.891857 329:-0.735738 330:0.9906 331:0.231488 332:-0.083576 333:-0.311993 334:-0.368819 335:-0.936181 336:0.776534 337:-0.819669 338:-0.770038 339:-0.866467 340:0.450508 341:0.496512 342:-0.406688 343:0.380273 344:-0.843401 345:-0.00813 346:-0.793915 347:-0.714694 348:-0.15243 349:-0.478873 350:0.187384 351:-0.312109 
0.978732519591937 1:-0.605872 2:-0.570344 3:-0.535549 4:-0.946833 5:-0.944311 6:-0.326809 7:0.488463 8:-0.109311 9:-0.439768 10:-0.73627 11:0.780474 12:-0.814033 13:-0.788672 14:-0.672307 15:-0.84109 16:-0.182554 17:-0.20981 18:-0.770631 19:-0.457556 20:0.17442 21:-0.026705 22:-0.35176 23:-0.243109 24:0.023929 25:0.076923 26:0.379187 27:-0.120265 28:-0.380667 29:-0.301904 30:-0.619548 31:-0.236931 32:-0.385255 33:-0.612787 34:-0.520282 35:-0.360088 36:-0.59715 37:-0.107526 38:-0.844082 39:0.504138 40:0.112509 41:-0.019981 42:-0.449006 43:0.03125 44:-0.392564 45:-0.546958 46:-0.262784 47:0.210191 48:-0.031367 49:0.674449 50:0.312883 51:0.645613 52:0.067265 53:0.380342 54:-0.334725 55:-0.272707 56:-0.39509 57:-0.436747 58:-1.0 59:-1.0 60:-0.265669 61:-0.917526 62:-0.050577 63:-0.804296 64:-0.031445 65:-0.064863 66:-0.661046 67:-0.017328 68:-0.514542 69:0.228736 70:-0.142857 71:0.071848 72:-0.809392 73:0.122227 74:0.193905 75:-0.821115 76:-0.045064 77:-0.249318 78:-0.301998 79:-0.421053 80:-0.024146 81:-0.822227 82:0.425954 83:0.031649 84:0.250531 85:-0.208435 86:-0.24117 87:0.035709 88:-0.762931 89:-0.569638 90:-0.670437 91:0.937169 92:0.584863 93:-0.938961 94:0.48464 95:0.43029 96:-0.423367 97:0.094907 98:-0.267347 99:-0.273037 100:0.692717 101:-0.369595 102:0.927113 103:-0.239461 104:-0.565314 105:-0.179073 106:-0.189744 107:-0.356975 108:-0.882935 109:-0.046886 110:-0.887794 111:0.485886 112:-0.983537 113:-0.951101 114:-0.522492 115:0.244186 116:-0.202839 117:-0.880227 118:-0.099998 119:-0.588882 120:-0.594181 121:-0.809951 122:-0.9243 123:0.338034 124:-0.72549 125:0.523265 126:-0.963592 127:-0.226124 128:0.042279 129:0.161785 130:-0.586959 131:-0.856716 132:-0.525474 133:0.194444 134:-0.017962 135:-0.96405 136:0.083144 137:0.173971 138:0.254252 139:-0.508156 140:-0.705887 141:0.163733 142:0.172414 143:0.329961 144:-0.922039 145:-0.103842 146:-0.045081 147:-0.55767 148:-0.748447 149:-0.921931 150:-0.592692 151:1.0 152:-0.218415 153:-0.965514 154:0.327375 155:-0.787962 156:-0.136989 157:-0.798676 158:-0.976813 159:0.625718 160:-0.656449 161:0.46454 162:-0.912648 163:0.167641 164:-0.72999 165:0.210354 166:-1.0 167:-1.0 168:0.318405 169:-0.47541 170:0.260857 171:-0.945237 172:0.253406 173:-0.936043 174:0.77376 175:-0.526516 176:-0.783489 177:0.340939 178:-0.333333 179:0.067087 180:-0.850763 181:-0.171538 182:-0.401659 183:0.398587 184:-0.599912 185:-0.703118 186:-0.325596 187:0.457143 188:-0.069087 189:-0.81189 190:0.251788 191:-0.420575 192:-0.880569 193:-0.624426 194:-0.813159 195:0.462461 196:-0.015385 197:0.209967 198:-0.979139 199:-0.085714 200:-0.200775 201:-0.647287 202:-0.182574 203:-0.598179 204:-0.412463 205:-0.423729 206:0.018975 207:-0.85018 208:-0.22335 209:-0.672063 210:0.227359 211:-1.0 212:-0.925406 213:0.255704 214:0.583333 215:0.027663 216:-0.909509 217:-0.410522 218:-0.874604 219:0.901464 220:-0.959215 221:-0.959949 222:-0.560366 223:0.066667 224:-0.321605 225:-0.784458 226:0.149304 227:-0.593322 228:-0.899442 229:-0.911834 230:-0.912799 231:0.628861 232:-0.036649 233:0.072339 234:-0.906997 235:-0.021236 236:-0.590796 237:-0.043363 238:-0.814227 239:-0.88254 240:-0.394458 241:-0.014925 242:0.023934 243:-0.939003 244:0.297178 245:-0.095581 246:0.189839 247:-0.776901 248:-0.902075 249:0.742831 250:0.321652 251:0.076166 252:-0.968026 253:-0.203001 254:-0.217187 255:-0.691255 256:-0.905558 257:-0.976365 258:-0.659119 259:0.588652 260:-0.057265 261:-0.992426 262:-0.062012 263:-0.477402 264:0.170516 265:-0.866402 266:-0.874943 267:-0.135143 268:-0.169231 269:-0.059581 270:-0.906496 271:-0.02474 272:-0.614534 273:-0.482028 274:-0.937739 275:-0.940379 276:-0.053614 277:0.018405 278:-0.05863 279:-0.889135 280:-0.184873 281:-0.66527 282:-0.445223 283:-0.731556 284:-0.8582 285:-0.587367 286:0.154347 287:-0.009584 288:-0.928086 289:-0.083987 290:-0.369145 291:0.963444 292:-0.841376 293:-0.889404 294:-0.655216 295:0.153846 296:0.097361 297:-0.807434 298:-0.16163 299:-0.369488 300:-0.678015 301:-0.850982 302:-0.925576 303:-0.35 304:-0.277677 305:-0.034912 306:-0.971001 307:-0.209613 308:-0.323607 309:-0.676196 310:-0.61745 311:-0.741118 312:-0.516973 313:-0.535751 314:-0.078773 315:-0.89858 316:0.214629 317:-0.699186 318:-0.855336 319:-1.0 320:-0.986972 321:-0.233134 322:-0.365854 323:-0.010622 324:-0.894028 325:0.958012 326:0.959168 327:0.960274 328:-0.93672 329:-0.859467 330:0.997631 331:-0.929239 332:0.30663 333:-0.65961 334:-0.347088 335:-0.80844 336:1.0 337:-0.896297 338:-0.903749 339:-0.869433 340:0.36 341:0.273626 342:-0.814192 343:0.414862 344:-0.781907 345:-0.038308 346:-0.889971 347:-0.89904 348:-0.153176 349:-0.802817 350:0.360514 351:-0.687977 
0.8947888102131826 1:0.084293 2:0.103833 3:0.12315 4:-0.336605 5:-0.115102 6:0.023491 7:-0.070788 8:0.132063 9:-0.499624 10:-0.556565 11:0.631345 12:-0.68776 13:-0.724335 14:-0.482093 15:-0.806706 16:0.189517 17:-0.106276 18:-0.623878 19:0.376386 20:-0.322925 21:-0.106935 22:0.049308 23:-0.046478 24:-0.201816 25:-0.054945 26:0.023287 27:-0.533625 28:-0.596041 29:0.260678 30:-0.466201 31:-0.394697 32:-0.015863 33:-0.227609 34:-0.134039 35:0.357859 36:0.631811 37:-0.340244 38:0.572863 39:0.439978 40:0.428235 41:-0.107296 42:-0.383439 43:0.25 44:-0.26926 45:-0.818296 46:-0.035375 47:-0.29945 48:0.127133 49:0.319067 50:0.022154 51:0.202356 52:0.067265 53:0.051428 54:-0.378539 55:0.223564 56:0.191859 57:-0.45728 58:0.157718 59:-0.262594 60:-0.21863 61:-0.319588 62:-0.022848 63:-0.835203 64:-0.018979 65:-0.084304 66:-0.716077 67:0.262462 68:-0.092182 69:-0.309572 70:-0.492063 71:-0.560884 72:-0.512564 73:0.430965 74:-0.152599 75:-0.822647 76:0.029235 77:-0.098595 78:-0.263908 79:-0.359649 80:0.023535 81:-0.572744 82:0.072879 83:0.052963 84:0.296519 85:0.152111 86:-0.137606 87:0.346485 88:-0.344828 89:-0.121197 90:-0.696606 91:0.192505 92:0.509443 93:-0.944783 94:0.512368 95:0.035209 96:0.036061 97:0.259259 98:0.042834 99:-0.829671 100:-0.018639 101:0.206794 102:0.891265 103:-0.069698 104:-0.10375 105:-0.215772 106:0.917949 107:-0.410638 108:-0.804846 109:0.328548 110:-0.135383 111:0.473426 112:-0.189682 113:-0.505341 114:-0.548508 115:0.139535 116:-0.338646 117:-0.876499 118:0.195367 119:-0.667018 120:-0.592346 121:-0.703299 122:-0.759874 123:0.342657 124:0.294118 125:0.562953 126:-0.85421 127:0.103545 128:0.316525 129:0.173593 130:-0.484135 131:-0.758366 132:-0.526922 133:0.111111 134:-0.028754 135:-0.923068 136:0.353365 137:0.09703 138:0.156353 139:-0.704158 140:-0.884928 141:0.161463 142:0.172414 143:0.336083 144:-1.0 145:-0.139544 146:0.115633 147:-0.580036 148:-0.638354 149:-0.865794 150:-0.564733 151:-0.112583 152:0.065024 153:-0.951498 154:-2.96E-4 155:-0.445831 156:-0.224476 157:-0.716325 158:-0.925024 159:0.61153 160:-0.77675 161:0.320395 162:-0.955016 163:0.403179 164:-0.502367 165:0.254952 166:-0.787426 167:-0.873184 168:0.311354 169:0.391393 170:0.027937 171:-0.947153 172:0.350781 173:-0.097307 174:0.787722 175:-0.408544 176:-0.725883 177:0.351542 178:0.02381 179:0.140023 180:-0.879166 181:-0.025686 182:-0.306665 183:-0.876833 184:-0.545265 185:-0.758363 186:-0.351287 187:0.2 188:-0.223123 189:-0.874567 190:-0.446823 191:-0.656604 192:-0.88333 193:-0.40923 194:-0.578176 195:0.447876 196:-0.015385 197:0.157328 198:-0.85545 199:-0.226277 200:-0.278287 201:-0.694709 202:-0.278457 203:-0.723822 204:-0.408428 205:-0.005297 206:0.048248 207:-0.946254 208:-0.101968 209:-0.201867 210:0.251383 211:-0.684351 212:-0.694181 213:0.245889 214:0.458333 215:-0.132108 216:-0.874977 217:-0.486561 218:0.020347 219:0.874988 220:-0.454893 221:-0.680162 222:-0.575877 223:-0.022222 224:-0.271871 225:-0.836869 226:0.085749 227:-0.438109 228:-0.880977 229:-0.795463 230:-0.906596 231:0.627594 232:-0.026178 233:0.015332 234:-0.943248 235:0.00761 236:0.295288 237:0.131461 238:-0.716742 239:-0.821826 240:-0.393944 241:-0.492537 242:0.044608 243:-0.933456 244:0.507508 245:-0.349626 246:0.193133 247:-0.86567 248:-0.941679 249:0.744842 250:0.401752 251:0.23108 252:-0.935004 253:0.008176 254:-0.162446 255:-0.687204 256:-0.771819 257:-0.870356 258:-0.656969 259:0.475177 260:0.055634 261:-0.908239 262:-0.176764 263:-0.224608 264:0.182185 265:-0.844588 266:-0.913504 267:-0.135648 268:-0.430769 269:-0.085563 270:-0.97173 271:0.06483 272:-0.215368 273:-0.482598 274:-0.821697 275:-0.882099 276:-0.053141 277:0.116564 278:-0.013369 279:-0.925487 280:-0.013359 281:-0.136963 282:-0.443276 283:-0.72619 284:-0.872798 285:-0.590171 286:0.078652 287:-0.128971 288:-0.958992 289:-0.037892 290:-0.337949 291:0.957156 292:-0.787321 293:-0.890906 294:-0.658546 295:-0.115385 296:-0.133513 297:-0.908184 298:-0.093865 299:-0.374582 300:-0.717328 301:-0.689043 302:-0.801044 303:-0.351388 304:-0.045372 305:-0.050496 306:-0.933537 307:-0.131539 308:-0.057803 309:-0.65219 310:-0.470505 311:-0.676513 312:-0.512401 313:-0.369948 314:-0.034427 315:-0.900542 316:0.195256 317:-0.197627 318:-0.865971 319:-0.662953 320:-0.823908 321:-0.234705 322:-0.031359 323:-0.002616 324:-0.897586 325:0.79822 326:0.802926 327:0.80742 328:-0.711088 329:-0.580372 330:0.958479 331:-0.357548 332:0.432526 333:-0.819408 334:-0.509861 335:-0.646358 336:0.716456 337:-0.52567 338:-0.619833 339:-0.855494 340:-0.265625 341:0.345354 342:-0.835832 343:0.416293 344:-0.177344 345:-0.046844 346:-0.499908 347:-0.630972 348:-0.135173 349:-0.126761 350:0.265707 351:-0.847256 
0.9600730195349251 1:-0.371938 2:-0.342244 3:-0.313093 4:-0.650953 5:-0.39793 6:-0.180401 7:-0.544188 8:0.249122 9:-0.234993 10:-0.832699 11:0.852083 12:-0.869067 13:-0.648393 14:-0.364574 15:-0.995172 16:0.032427 17:-0.931792 18:-0.683632 19:-0.227991 20:0.147505 21:0.085618 22:0.239986 23:0.116707 24:-0.820326 25:0.74359 26:-0.58943 27:0.381801 28:-0.526461 29:-0.237963 30:-0.629365 31:-0.762525 32:-0.684832 33:-0.607468 34:-0.167548 35:-0.605924 36:-0.479431 37:0.31705 38:0.325485 39:0.536746 40:0.35212 41:0.342918 42:-1.0 43:-0.171875 44:-1.0 45:0.130229 46:0.478764 47:-0.629926 48:0.062865 49:0.536896 50:0.305717 51:0.172536 52:0.363229 53:0.013043 54:-0.237763 55:0.268038 56:0.275966 57:-0.395886 58:0.623208 59:1.0 60:-0.229961 61:-0.27835 62:-0.04674 63:0.21275 64:0.316128 65:0.028175 66:-0.655447 67:0.065631 68:-0.288898 69:0.725743 70:-0.125 71:0.766886 72:-0.4343 73:-0.585384 74:-0.678496 75:-0.700252 76:-0.747 77:-0.500016 78:-0.509943 79:-0.116228 80:-0.561953 81:-0.163394 82:-0.299378 83:-0.309189 84:0.222012 85:-0.368952 86:-0.415947 87:0.49227 88:0.037716 89:0.161043 90:-0.582433 91:0.212171 92:-0.272314 93:-0.949092 94:-0.054675 95:-0.126567 96:0.488568 97:0.296296 98:0.560118 99:-0.159391 100:-0.455774 101:-0.540069 102:0.924512 103:-0.333818 104:-0.596782 105:-0.071886 106:-0.476923 107:-0.158055 108:-0.876981 109:-0.404761 110:-0.61212 111:0.925213 112:-0.599698 113:-0.637591 114:-0.53002 115:0.054264 116:-0.317708 117:-0.786255 118:0.182754 119:-0.729352 120:-0.592659 121:-0.56175 122:-0.648904 123:0.38278 124:-0.019608 125:0.74097 126:-0.819034 127:0.189515 128:0.330554 129:-1.0 130:-0.448473 131:-0.76026 132:-0.552779 133:0.347222 134:-0.203663 135:-0.865313 136:0.33686 137:-0.530782 138:0.2379 139:-0.822751 140:-0.862072 141:0.152179 142:0.034483 143:0.177386 144:-0.937377 145:-0.154978 146:-0.364033 147:-0.566934 148:-0.587997 149:-0.581459 150:-0.553339 151:-0.377483 152:0.135033 153:-0.614443 154:-0.098732 155:-0.429249 156:-0.508856 157:-0.432747 158:-0.78112 159:0.582858 160:-0.193754 161:0.15047 162:-0.93117 163:0.24686 164:-0.058625 165:0.279612 166:-0.587048 167:-0.650542 168:0.320119 169:-0.540984 170:0.196224 171:-0.911714 172:-0.004106 173:0.49572 174:0.763833 175:-0.112933 176:-0.671629 177:0.340463 178:-0.464286 179:0.085389 180:-0.982449 181:-0.278066 182:-0.281351 183:0.984645 184:-0.841256 185:-0.930631 186:-0.321881 187:-0.028571 188:-0.024458 189:-0.941977 190:-0.215035 191:-0.564695 192:-0.836452 193:-0.466887 194:-0.682789 195:0.493307 196:-0.630769 197:0.431737 198:-0.893735 199:-6.86E-4 200:0.173758 201:-0.66376 202:0.085845 203:-0.449502 204:-0.35626 205:0.79661 206:0.107449 207:-0.825786 208:0.240202 209:-0.203537 210:0.236909 211:-0.584903 212:-0.811 213:0.243073 214:0.0 215:-0.144209 216:-0.953427 217:-0.333492 218:-0.569409 219:0.820508 220:-0.769564 221:-0.801102 222:-0.56829 223:0.244444 224:-0.448832 225:-0.584498 226:0.249149 227:-0.584546 228:-0.898581 229:-0.769161 230:-0.836661 231:0.627418 232:0.193717 233:0.015809 234:-0.844667 235:0.025469 236:0.017199 237:0.11625 238:-0.767748 239:-0.888531 240:-0.394631 241:0.134328 242:0.00253 243:-0.986507 244:0.292617 245:-0.496385 246:0.184997 247:-0.902401 248:-0.964702 249:0.74286 250:0.221527 251:0.054415 252:-0.95868 253:-0.045646 254:-0.955783 255:-0.778989 256:-0.840033 257:-0.896526 258:-0.657926 259:0.578014 260:0.034724 261:-0.904509 262:-0.035205 263:-0.306251 264:0.202947 265:-0.765402 266:-0.832615 267:-0.135637 268:0.353846 269:-0.080598 270:-0.937894 271:0.117416 272:0.366731 273:-0.488435 274:-0.791293 275:-0.900643 276:-0.053679 277:0.754601 278:-0.063649 279:-0.971646 280:-0.276523 281:0.753984 282:-0.438912 283:-0.480282 284:-0.763829 285:-0.591742 286:-0.129509 287:-0.12736 288:-0.975703 289:-0.017496 290:-0.48666 291:0.957073 292:-0.938655 293:-0.995028 294:-0.657372 295:0.317308 296:-0.043277 297:-0.952962 298:-0.043454 299:-0.152249 300:-0.676033 301:-0.744851 302:-0.790732 303:-0.351604 304:-0.480944 305:-0.077391 306:-0.900565 307:-0.295847 308:0.170799 309:-0.671588 310:-0.49503 311:-0.675779 312:-0.523548 313:-0.502591 314:-0.169987 315:-0.911894 316:0.226562 317:-0.491277 318:-0.856561 319:-0.807643 320:-0.867996 321:-0.236357 322:-0.644599 323:-0.094523 324:-0.833764 325:0.905715 326:0.908247 327:0.910667 328:-0.874299 329:-0.785397 330:0.991723 331:-0.05934 332:0.275682 333:-0.70639 334:-0.25184 335:-0.903036 336:0.720333 337:-0.843558 338:-0.827051 339:-0.871118 340:-0.315 341:0.019441 342:-0.67039 343:0.366032 344:-0.836342 345:-0.023768 346:-0.884762 347:-0.859712 348:-0.153352 349:0.211268 350:0.289378 351:-0.560178 
0.9815855739122189 1:-0.259981 2:-0.235168 3:-0.210716 4:-0.387582 5:-0.24761 6:0.041419 7:-0.834659 8:0.263888 9:-0.441469 10:-0.60296 11:0.65916 12:-0.699449 13:-0.617237 14:-0.274922 15:-0.656147 16:-0.081948 17:0.296439 18:-0.18465 19:-0.686528 20:-0.563082 21:-0.194654 22:0.010635 23:-0.292294 24:-1.0 25:-0.457875 26:-1.0 27:0.865109 28:-0.695245 29:0.354962 30:-0.652487 31:-0.466733 32:-0.532009 33:-0.47075 34:-0.848325 35:-0.132756 36:-0.581997 37:-0.175946 38:0.310911 39:0.512193 40:-0.206409 41:-0.524054 42:-0.200514 43:-0.21875 44:0.021397 45:-0.805457 46:0.027069 47:-0.827133 48:-0.003419 49:-0.506321 50:-0.543402 51:0.406174 52:0.300448 53:0.46804 54:-0.097036 55:-0.269705 56:0.176276 57:-0.441481 58:1.0 59:0.584434 60:-0.190698 61:-0.27835 62:-0.034634 63:-0.381814 64:-0.334326 65:-0.193098 66:-0.637465 67:0.196377 68:0.033658 69:0.216084 70:0.52381 71:0.043169 72:-0.26001 73:-0.751787 74:-0.431062 75:-0.725579 76:-0.108487 77:0.058364 78:0.026506 79:-0.052632 80:0.413952 81:-0.073288 82:0.05862 83:0.948434 84:1.0 85:0.060715 86:-0.290273 87:0.23833 88:-0.103448 89:-0.244496 90:-0.807415 91:-0.026727 92:-0.216878 93:-0.953024 94:0.004275 95:0.344699 96:-0.722954 97:0.144676 98:-0.694197 99:0.300129 100:-0.001243 101:-0.695168 102:0.928821 103:0.102237 104:-0.025088 105:-0.531403 106:-0.312821 107:-0.832158 108:-0.645429 109:-1.0 110:-0.189025 111:0.485408 112:0.43757 113:0.4224 114:-1.0 115:-0.03876 116:-1.0 117:0.179773 118:-0.109504 119:-0.52818 120:-0.593955 121:0.704185 122:1.0 123:0.325043 124:0.235294 125:0.543216 126:0.066126 127:0.981298 128:0.48275 129:0.150204 130:0.727775 131:0.446906 132:1.0 133:-0.5625 134:1.0 135:1.0 136:0.637137 137:0.100933 138:0.224928 139:-0.26149 140:-0.392638 141:0.26565 142:-0.310345 143:0.794205 144:-0.41029 145:0.813602 146:-0.161872 147:-0.588212 148:-0.087981 149:-0.199268 150:-0.293743 151:0.02649 152:0.694624 153:0.224638 154:-0.131952 155:-0.423017 156:-0.317371 157:-0.162218 158:-0.256885 159:0.369197 160:-0.499132 161:-0.448168 162:-0.083804 163:-0.875615 164:-0.248215 165:0.257828 166:1.0 167:0.962721 168:-1.0 169:-0.995902 170:-1.0 171:1.0 172:-0.07544 173:-0.695018 174:0.777938 175:0.210609 176:0.161463 177:-0.168618 178:-0.142857 179:-0.868934 180:0.743871 181:0.570984 182:-4.56E-4 183:0.408334 184:0.204242 185:-0.036465 186:0.300567 187:-0.214286 188:0.744924 189:0.377411 190:-0.692931 191:-0.436337 192:-0.882571 193:1.0 194:1.0 195:-0.702362 196:-0.353846 197:-0.525651 198:0.423595 199:-0.262903 200:-0.248003 201:-0.65929 202:-0.382395 203:-0.59413 204:-0.496144 205:-0.830508 206:-0.302699 207:-0.81356 208:-0.654426 209:-0.344968 210:0.219001 211:0.022455 212:0.351323 213:-0.070081 214:0.138889 215:-0.875616 216:0.371236 217:-0.854028 218:-0.029282 219:-1.0 220:0.385661 221:0.339722 222:-1.0 223:0.4 224:-0.811013 225:0.410973 226:-1.0 227:-0.238573 228:-0.897002 229:1.0 230:1.0 231:-1.0 232:1.0 233:-1.0 234:1.0 235:-1.0 236:0.418112 237:-0.024394 238:0.46086 239:0.24785 240:-1.0 241:1.0 242:-1.0 243:0.876695 244:-0.226569 245:0.229247 246:0.177038 247:-0.276229 248:-0.301855 249:0.64467 250:0.581977 251:-0.585646 252:-0.010585 253:0.380103 254:-0.129431 255:-0.839036 256:-0.114178 257:-0.108436 258:-0.470171 259:0.078014 260:0.80732 261:0.539859 262:0.499104 263:0.210633 264:1.0 265:-0.45093 266:-0.535877 267:-0.096961 268:-0.969231 269:0.406948 270:-0.38611 271:-0.688622 272:0.480016 273:-0.48431 274:1.0 275:1.0 276:-1.0 277:0.084739 278:-1.0 279:0.866566 280:-0.623651 281:-0.035854 282:-0.45295 283:0.243645 284:0.354167 285:-1.0 286:0.362507 287:-1.0 288:0.687311 289:0.404192 290:-0.118998 291:0.958953 292:0.049194 293:0.127379 294:-0.390599 295:-0.096154 296:0.752663 297:0.50529 298:1.0 299:-0.032962 300:-0.670199 301:1.0 302:1.0 303:1.0 304:-0.059891 305:1.0 306:0.895342 307:0.053164 308:-0.545872 309:-0.677017 310:-0.582035 311:-0.576352 312:-0.49867 313:0.376166 314:0.228396 315:-0.553627 316:-0.613995 317:-0.21146 318:-0.858155 319:0.533543 320:0.52137 321:-0.865154 322:-0.198606 323:-0.872639 324:0.801987 325:0.82411 326:0.826768 327:0.829273 328:-0.602911 329:-0.323826 330:0.836968 331:-0.081282 332:0.033431 333:-0.511936 334:-0.159854 335:-0.629734 336:0.676693 337:-0.332025 338:-0.327979 339:-0.832424 340:0.28 341:0.364232 342:-0.688133 343:0.503828 344:-0.454213 345:-0.032777 346:-0.264617 347:-0.301523 348:-0.073483 349:-0.43662 350:0.443827 351:-0.551536 
0.8993408063267537 1:-0.619589 2:-0.589392 3:-0.559626 4:-0.429703 5:0.227385 6:0.322549 7:0.18405 8:1.0 9:1.0 10:-0.77517 11:0.805527 12:-0.828819 13:-0.684933 14:-0.363249 15:-0.816545 16:-0.39691 17:-0.20268 18:-0.693221 19:-0.130248 20:-0.347965 21:-0.13107 22:-0.641671 23:-0.570149 24:-0.306644 25:-0.538462 26:-0.40026 27:-0.075826 28:-0.553744 29:0.278524 30:-0.645058 31:-0.531922 32:-0.514404 33:-0.417975 34:0.029982 35:-0.008339 36:-0.362112 37:0.059969 38:0.085056 39:0.572262 40:0.175659 41:0.196252 42:-0.026399 43:0.0625 44:0.19871 45:-0.169561 46:0.246104 47:-0.220461 48:0.031128 49:0.862099 50:0.209608 51:0.087615 52:0.139013 53:-0.058849 54:-0.608974 55:0.208382 56:-0.077981 57:-0.454696 58:0.137727 59:-0.116543 60:-0.282975 61:0.175258 62:-0.084063 63:-0.693072 64:0.630123 65:-0.42872 66:-0.643762 67:0.191422 68:-0.18474 69:-0.12199 70:-0.404762 71:-0.373174 72:-0.432828 73:-0.049285 74:-0.391494 75:-0.701725 76:-0.108749 77:-0.05436 78:-0.334974 79:0.052632 80:-0.070325 81:-0.457013 82:-0.674715 83:0.03168 84:0.497957 85:-0.402809 86:-0.333645 87:0.117432 88:0.137931 89:-0.505879 90:-0.464214 91:-0.260359 92:-0.169121 93:-0.948515 94:0.406553 95:0.519581 96:-0.134713 97:-0.185185 98:-0.075273 99:-0.014833 100:-0.131969 101:-0.212598 102:0.932292 103:0.230091 104:-0.199075 105:-0.590783 106:-0.189744 107:-0.864796 108:-0.729416 109:-0.21372 110:-0.232879 111:0.522385 112:-0.18287 113:-0.279494 114:-0.512361 115:0.178295 116:-0.151889 117:-0.716139 118:0.170556 119:-0.421693 120:-0.591632 121:-0.510543 122:-0.649069 123:0.377097 124:-0.176471 125:0.694299 126:-0.844816 127:0.080179 128:-0.049169 129:0.161978 130:-0.653541 131:-0.911059 132:-0.52596 133:-0.222222 134:-0.024713 135:-0.983593 136:-0.305716 137:-0.355896 138:0.231937 139:-0.668893 140:-0.764718 141:0.176685 142:-0.474138 143:0.521538 144:-0.82925 145:-0.49404 146:0.253028 147:-0.565689 148:-0.435095 149:-0.783335 150:-0.584936 151:-0.201987 152:-0.109861 153:-0.97865 154:-0.045019 155:-0.471374 156:-0.290779 157:-0.296809 158:-0.628661 159:0.609036 160:-0.314054 161:0.256018 162:-0.920916 163:-0.093619 164:-0.194358 165:0.264768 166:-0.718827 167:-0.739284 168:0.310234 169:-0.754098 170:0.03034 171:-0.898083 172:0.670308 173:-0.27882 174:0.782439 175:-0.497985 176:-0.804582 177:0.342669 178:-0.428571 179:0.082465 180:-0.901188 181:0.344405 182:-0.551698 183:0.364447 184:-0.562885 185:-0.767947 186:-0.323022 187:-0.2 188:-0.051707 189:-0.898067 190:-0.115579 191:-0.748885 192:-0.881686 193:-0.730933 194:-0.816705 195:0.46509 196:0.307692 197:0.217883 198:-0.902152 199:-0.028858 200:0.035268 201:-0.651213 202:-0.162602 203:-0.473001 204:-0.433641 205:-0.525424 206:-0.047022 207:-0.8771 208:0.39458 209:0.088652 210:0.204434 211:-0.591809 212:-0.726407 213:0.264608 214:1.0 215:0.018393 216:-0.9157 217:-0.342549 218:-0.192235 219:0.883519 220:-0.445324 221:-0.627748 222:-0.587261 223:0.644444 224:-0.387615 225:-0.680106 226:0.084691 227:-0.484749 228:-0.899959 229:-0.735712 230:-0.825511 231:0.627196 232:-0.057592 233:0.01721 234:-0.886307 235:-0.00662 236:-0.025601 237:0.050141 238:-0.814359 239:-0.899189 240:-0.394818 241:0.044776 242:-0.018901 243:-0.983711 244:0.39569 245:-0.304745 246:0.193429 247:-0.795826 248:-0.884008 249:0.743258 250:0.561952 251:0.097267 252:-0.923201 253:0.020862 254:0.049935 255:-1.0 256:-0.72885 257:-0.911104 258:-0.657249 259:0.007092 260:0.024762 261:-0.983042 262:-0.178762 263:0.041865 264:0.199209 265:-0.620825 266:-0.740747 267:-0.137733 268:-0.353846 269:-0.11986 270:-0.916295 271:0.059343 272:-0.197093 273:-0.482461 274:-0.813788 275:-0.879129 276:-0.052999 277:0.337423 278:-0.002457 279:-0.915112 280:-0.169275 281:-0.385289 282:-0.444727 283:-0.721923 284:-0.830357 285:-0.587224 286:0.248965 287:-0.007717 288:-0.921847 289:-0.011365 290:-0.045476 291:0.941483 292:-0.779083 293:-0.825256 294:-0.658323 295:-0.153846 296:-0.119745 297:-0.883366 298:0.00652 299:-0.42971 300:-0.686178 301:-0.815003 302:-0.836532 303:-0.350507 304:-0.335753 305:-0.05453 306:-0.927097 307:0.050249 308:0.014284 309:-0.677243 310:-0.572239 311:-0.80204 312:-0.524345 313:-0.635233 314:-0.202916 315:-0.967597 316:0.374657 317:-0.153164 318:-0.860661 319:-0.626817 320:-0.856211 321:-0.230895 322:-0.365854 323:0.070985 324:-0.948363 325:0.93101 326:0.93243 327:0.933783 328:-0.819783 329:-0.658569 330:0.976793 331:-0.162319 332:0.064481 333:-0.54019 334:-0.333386 335:-0.811166 336:0.705659 337:-0.673684 338:-0.641905 339:-0.868433 340:-0.46 341:0.214564 342:-0.681481 343:0.347501 344:-0.59362 345:-0.362626 346:-0.640489 347:-0.63168 348:-0.139534 349:-0.211268 350:0.459874 351:-0.495493 
0.9657760221203511 1:-0.271675 2:-0.250242 3:-0.229014 4:-0.169063 5:-0.124711 6:0.287091 7:-0.090966 8:0.223061 9:-0.523616 10:-0.680536 11:0.710248 12:-0.734361 13:-0.421015 14:0.069322 15:-0.815749 16:-0.149697 17:-0.380189 18:-0.629319 19:0.012789 20:-0.562186 21:-0.053434 22:-0.250812 23:-0.369256 24:-0.177797 25:0.091575 26:0.017455 27:-0.629966 28:-0.694714 29:0.014969 30:-0.624164 31:-0.397228 32:-0.328185 33:-0.59517 34:-0.220459 35:-0.380884 36:-0.121791 37:-0.194427 38:-0.076745 39:0.456502 40:0.232787 41:-0.156524 42:-0.788268 43:0.234375 44:-0.813119 45:-0.552693 46:0.633823 47:-0.590693 48:0.017734 49:0.047139 50:0.541254 51:-0.193239 52:0.248599 53:-0.381536 54:0.442827 55:-0.070894 56:-0.12961 57:-0.466538 58:-0.294232 59:-0.391071 60:-0.180048 61:-0.072165 62:0.062333 63:-0.606272 64:0.49574 65:-0.08815 66:-0.655441 67:0.455061 68:-0.042266 69:0.597123 70:-0.492063 71:0.3957 72:-0.67698 73:-1.0 74:-0.141404 75:-0.770392 76:-0.147078 77:-0.244174 78:-0.152781 79:-0.017544 80:0.179147 81:-0.500101 82:-0.86759 83:-0.112497 84:0.229686 85:-0.689143 86:-0.633552 87:0.289739 88:0.017241 89:-0.204165 90:-0.673993 91:-0.530261 92:0.064558 93:-0.949935 94:0.178449 95:0.168328 96:-0.026246 97:0.148148 98:0.006576 99:-0.253493 100:-0.358666 101:0.037025 102:0.944785 103:-0.11831 104:-0.419562 105:-0.200016 106:0.046154 107:-0.388301 108:-0.878408 109:0.056939 110:0.098362 111:0.404991 112:-0.12707 113:-0.463359 114:-0.518914 115:0.147287 116:-0.187452 117:-0.891569 118:-0.013953 119:-0.258746 120:-0.592795 121:-0.324536 122:-0.794673 123:0.317284 124:-0.137255 125:0.490733 126:-0.999266 127:-0.088689 128:0.145572 129:0.160058 130:-0.469256 131:-0.763765 132:-0.527053 133:0.081597 134:-0.02919 135:-0.928598 136:0.280247 137:-0.0847 138:0.217126 139:-0.553056 140:-0.71484 141:0.150886 142:0.034483 143:0.217767 144:-0.898101 145:-0.25206 146:0.793021 147:-0.665734 148:-0.430315 149:-0.759723 150:-0.575354 151:-0.271523 152:-0.057719 153:-0.968993 154:-0.318028 155:-0.775062 156:-0.269993 157:-0.53013 158:-0.765276 159:0.545274 160:-0.258531 161:-0.057827 162:-0.825716 163:-0.1932 164:-0.366145 165:0.385039 166:-0.766234 167:-0.847366 168:0.317328 169:-0.213115 170:0.169411 171:-0.93503 172:-0.289287 173:-0.051853 174:0.766327 175:-0.48572 176:-0.841095 177:0.347263 178:-0.357143 179:0.116665 180:-0.96592 181:-0.396098 182:-0.186717 183:0.545415 184:-0.566903 185:-0.784116 186:-0.342779 187:1.0 188:-0.178503 189:-0.893997 190:0.10842 191:-0.251418 192:-0.864195 193:-0.587005 194:-0.843562 195:0.472367 196:-0.384615 197:0.301218 198:-0.973378 199:0.228497 200:0.486147 201:-0.661712 202:-0.055884 203:-0.651722 204:-0.445265 205:-0.508475 206:-0.080291 207:-0.992737 208:-0.153458 209:-0.427003 210:0.225084 211:-0.467225 212:-0.552006 213:0.258578 214:0.111111 215:-0.041623 216:-0.871879 217:-0.367187 218:-0.111088 219:0.877964 220:-0.537949 221:-0.758475 222:-0.574285 223:0.244444 224:-0.310353 225:-0.849776 226:0.257473 227:-0.343656 228:-0.946504 229:-0.76975 230:-0.848123 231:0.627946 232:0.183246 233:0.037194 234:-0.894006 235:0.009444 236:-0.303684 237:-0.047533 238:-0.734971 239:-0.842377 240:-0.395452 241:-0.283582 242:-0.054779 243:-0.950313 244:0.380908 245:-0.257732 246:0.186216 247:-0.779997 248:-0.830781 249:0.745589 250:0.381727 251:0.21418 252:-0.888202 253:0.040051 254:-0.226402 255:-0.774193 256:-0.737478 257:-0.880158 258:-0.657378 259:0.276596 260:0.022613 261:-0.958643 262:-0.070669 263:-0.823472 264:0.200783 265:-0.832495 266:-0.817298 267:-0.134669 268:0.538462 269:-0.0387 270:-0.832125 271:0.050265 272:-0.340443 273:-0.480169 274:-0.805217 275:-0.87437 276:-0.053281 277:0.460123 278:-0.029649 279:-0.904135 280:-0.014001 281:-0.4414 282:-0.445437 283:-0.723051 284:-0.810453 285:-0.58507 286:0.400355 287:0.081305 288:-0.855742 289:0.004053 290:-0.137267 291:0.956353 292:-0.746605 293:-0.804321 294:-0.658673 295:-0.192308 296:-0.129299 297:-0.84692 298:-0.100617 299:-0.346619 300:-0.686912 301:-0.828321 302:-0.89541 303:-0.349345 304:0.157895 305:0.010106 306:-0.971089 307:-0.252874 308:-0.057833 309:-0.680095 310:-0.561582 311:-0.740842 312:-0.514741 313:-0.005181 314:-0.047804 315:-0.93085 316:0.073521 317:-0.06027 318:-0.848872 319:-0.55502 320:-0.758513 321:-0.234819 322:-0.1777 323:0.008821 324:-0.899531 325:0.811262 326:0.814422 327:0.81743 328:-0.609173 329:-0.402576 330:0.886598 331:-0.432727 332:0.288682 333:-0.761881 334:-0.397451 335:-0.712016 336:0.670821 337:-0.503183 338:-0.488691 339:-0.855186 340:0.09 341:0.330417 342:-0.653874 343:0.359091 344:-0.578436 345:-0.065679 346:-0.516616 347:-0.584386 348:-0.140915 349:-0.014085 350:0.196176 351:-0.735278 
0.9746189225457547 1:-0.574738 2:-0.541129 3:-0.508182 4:-0.77122 5:-0.793939 6:-0.2695 7:1.0 8:0.063464 9:-0.517844 10:-0.581649 11:0.652655 12:-0.707051 13:-0.726864 14:-0.513967 15:-0.858295 16:-0.191629 17:-0.361189 18:-0.8404 19:-0.182238 20:0.028996 21:-0.065982 22:-0.16286 23:-0.278087 24:0.025459 25:0.131868 26:0.338965 27:-0.543026 28:-0.236432 29:-0.25802 30:-0.632288 31:-0.779616 32:-0.565263 33:-0.428139 34:-0.273369 35:-0.00195 36:-0.199932 37:0.022105 38:-0.564804 39:0.499582 40:-0.221531 41:-0.204457 42:-0.127361 43:0.40625 44:0.170958 45:-0.349064 46:0.238807 47:-0.035759 48:-0.058404 49:0.645179 50:0.364437 51:0.367895 52:-0.022422 53:0.165263 54:-0.418118 55:0.547665 56:0.035219 57:-0.465402 58:0.462001 59:0.20197 60:0.57441 61:-0.329897 62:0.5428 63:-0.296234 64:0.110449 65:0.1248 66:-0.662701 67:0.34453 68:-0.03466 69:0.710097 70:-0.190476 71:0.558909 72:-0.604578 73:-0.271515 74:0.089283 75:-0.292534 76:0.091171 77:0.178113 78:-0.036946 79:0.017544 80:0.281051 81:-0.288622 82:-0.763475 83:1.0 84:0.038954 85:0.247758 86:-0.289697 87:0.35875 88:-0.844828 89:-0.112332 90:-0.860851 91:-0.545922 92:-0.197206 93:-0.945996 94:-0.112689 95:-0.22018 96:-0.390603 97:0.305556 98:-0.3966 99:-0.313964 100:0.077576 101:-0.006233 102:0.927507 103:0.808266 104:0.44229 105:0.41607 106:0.341667 107:0.171766 108:-0.552605 109:0.096308 110:-0.440806 111:0.542202 112:-0.655388 113:-0.732585 114:-0.510076 115:0.426357 116:0.02199 117:-0.843087 118:0.003679 119:-0.492906 120:-0.592029 121:-0.567481 122:-0.714749 123:0.395106 124:0.607843 125:0.800803 126:-0.798407 127:-0.395414 128:-0.634711 129:0.11422 130:-0.881988 131:-0.955597 132:-0.524856 133:0.666667 134:0.003153 135:-0.938615 136:0.281009 137:-0.307276 138:-0.109284 139:-0.778064 140:-0.790258 141:0.14908 142:0.37931 143:0.136561 144:-0.883093 145:-0.026443 146:-0.249239 147:-0.576038 148:-0.705444 149:-0.878619 150:-0.589234 151:0.205298 152:-0.167087 153:-0.943485 154:0.193392 155:-0.042331 156:-0.349861 157:-0.189513 158:-0.766168 159:0.602814 160:-0.832273 161:0.230891 162:-0.961431 163:0.556303 164:-0.438563 165:0.110456 166:-0.645364 167:-0.693179 168:0.325282 169:-0.229508 170:0.284279 171:-0.860878 172:0.018497 173:0.245687 174:0.779161 175:-0.311241 176:-0.681097 177:0.361669 178:-0.333333 179:0.181958 180:-0.940704 181:0.046253 182:-0.407335 183:0.424291 184:-0.49045 185:-0.658546 186:-0.296179 187:-0.4 188:0.087687 189:-0.776836 190:-0.273726 191:-0.011266 192:-0.856414 193:-0.304178 194:-0.550764 195:0.488365 196:0.6 197:0.366419 198:-0.902514 199:-0.085457 200:-0.41855 201:-0.687763 202:-0.468443 203:-0.784652 204:-0.415774 205:-0.694915 206:0.057809 207:-0.914808 208:0.125773 209:0.146332 210:0.206574 211:-0.193345 212:-0.550753 213:0.225805 214:-0.222222 215:-0.174591 216:-0.884629 217:-0.117221 218:-0.671485 219:0.894629 220:-0.869985 221:-0.908533 222:-0.558966 223:0.362963 224:-0.134773 225:-0.884899 226:0.270702 227:-0.611947 228:-0.899693 229:-0.734905 230:-0.820293 231:0.626991 232:-0.057592 233:0.010386 234:-0.868179 235:0.019854 236:-0.802245 237:1.0 238:-0.940958 239:-0.952383 240:-0.394364 241:0.246269 242:0.107781 243:-0.912265 244:0.226492 245:-0.504936 246:0.184555 247:-0.920205 248:-0.946609 249:0.74237 250:0.521902 251:-0.012181 252:-0.905564 253:-0.143704 254:0.177566 255:-0.739264 256:-0.757425 257:-0.882336 258:-0.657562 259:0.191489 260:0.021593 261:-0.9371 262:-0.033073 263:0.750851 264:0.175319 265:-0.54853 266:-0.778257 267:-0.136673 268:0.2 269:-0.091805 270:-0.976129 271:-0.016297 272:0.13072 273:-0.474913 274:-0.756924 275:-0.845009 276:-0.052484 277:0.361963 278:0.016795 279:-0.889204 280:-0.306832 281:-0.074302 282:-0.445538 283:-0.67219 284:-0.828774 285:-0.590017 286:0.097575 287:-0.115305 288:-0.97396 289:-0.056582 290:0.216791 291:0.963514 292:-0.766215 293:-0.83223 294:-0.656891 295:0.538462 296:-0.048406 297:-0.892852 298:-0.001414 299:0.27274 300:-0.684568 301:-0.677646 302:-0.732087 303:-0.356379 304:0.012704 305:-0.191697 306:-0.834727 307:-0.130254 308:-0.344753 309:-0.679921 310:-0.732068 311:-0.852069 312:-0.519572 313:-0.859067 314:-0.144023 315:-0.969776 316:0.238714 317:-0.086327 318:-0.890553 319:-0.473989 320:-0.66303 321:-0.2361 322:-0.219512 323:0.001463 324:-0.866895 325:0.928305 326:0.930106 327:0.931824 328:-0.869693 329:-0.730747 330:0.990851 331:-0.206077 332:0.256399 333:-0.672166 334:-0.389623 335:-0.905175 336:0.701652 337:-0.808704 338:-0.81782 339:-0.867091 340:-0.28 341:0.409791 342:-0.722956 343:0.310581 344:-0.759798 345:-0.029625 346:-0.773859 347:-0.805122 348:-0.15241 349:0.323944 350:0.154406 351:-0.779652 
0.9676089915205338 1:-0.406277 2:-0.386568 3:-0.36691 4:0.017201 5:0.050912 6:0.689049 7:-0.118502 8:0.298629 9:-0.506276 10:-0.529133 11:0.547177 12:-0.527271 13:-0.221036 14:0.524282 15:-0.085098 16:-0.22918 17:0.489875 18:0.272736 19:-0.373088 20:0.310702 21:0.010975 22:-0.54743 23:-0.452157 24:0.069359 25:0.516484 26:0.544973 27:-0.131151 28:-0.745676 29:0.989377 30:-0.674474 31:-0.077316 32:-0.137945 33:-0.010589 34:-0.320106 35:0.508642 36:-0.198227 37:-0.763084 38:0.188658 39:0.484626 40:0.596425 41:0.295113 42:-0.822854 43:0.578125 44:-0.680509 45:-0.34652 46:0.36225 47:-0.934106 48:0.291189 49:-0.507959 50:-0.132343 51:-0.476074 52:0.160314 53:-1.0 54:0.689273 55:0.60366 56:0.25311 57:-0.432958 58:0.404386 59:0.273814 60:-0.780054 61:-0.030928 62:-0.46181 63:-0.462676 64:-0.376826 65:-0.42325 66:-0.650695 67:-0.016787 68:0.155304 69:0.43339 70:0.539683 71:0.388008 72:0.14638 73:-0.371903 74:0.696454 75:-0.638101 76:0.891402 77:0.913972 78:0.121048 79:-0.114035 80:0.263386 81:-0.094611 82:-0.925782 83:0.408912 84:0.251621 85:0.591491 86:0.331367 87:0.149566 88:0.275862 89:-0.284827 90:-0.581157 91:-0.229398 92:-0.407038 93:-0.94829 94:0.348155 95:0.267925 96:0.167001 97:0.148148 98:0.149738 99:-0.47503 100:-0.106692 101:-0.324018 102:0.929202 103:-0.069486 104:-0.088956 105:0.26835 106:-0.558974 107:0.334365 108:-0.476321 109:-0.193153 110:-0.497204 111:0.501537 112:-0.066694 113:-0.358137 114:-0.507006 115:0.550388 116:-0.141673 117:-0.787897 118:0.177425 119:-0.093852 120:-0.596283 121:0.012218 122:-0.15502 123:0.251873 124:-0.333333 125:0.434987 126:-0.725187 127:-0.024131 128:-0.876484 129:0.164068 130:-0.75331 131:-0.804521 132:-0.530558 133:0.194444 134:-0.120874 135:-0.79201 136:0.365678 137:-0.017197 138:0.192535 139:-0.435624 140:-0.685129 141:0.138818 142:-0.112069 143:0.147733 144:-0.890778 145:-0.297705 146:1.0 147:-0.586203 148:-0.179438 149:-0.425573 150:-0.629345 151:-0.337748 152:-0.249435 153:-0.727313 154:-0.364934 155:-0.720093 156:-0.542632 157:-0.69701 158:-0.870646 159:0.596207 160:-0.628687 161:0.206948 162:-0.908151 163:0.243594 164:-0.652547 165:0.277144 166:-0.719722 167:-0.736902 168:0.318058 169:0.311475 170:0.180281 171:-0.847262 172:0.122752 173:-0.480141 174:0.778608 175:-0.582886 176:-0.763395 177:0.349545 178:-0.309524 179:0.142707 180:-0.847842 181:-0.410198 182:0.030647 183:0.348383 184:-0.334679 185:-0.691632 186:-0.368491 187:0.028571 188:-0.218064 189:-0.898518 190:-0.04013 191:0.832872 192:-0.813222 193:0.066799 194:-0.590456 195:0.458521 196:-0.446154 197:0.257246 198:-0.962806 199:0.034013 200:-0.392542 201:-0.660846 202:-0.10607 203:-0.654874 204:-0.477595 205:-0.419492 206:-0.169661 207:-0.945548 208:-0.234118 209:-0.307653 210:0.217468 211:-0.542423 212:-0.474567 213:0.27054 214:-0.552083 215:0.047851 216:-0.727598 217:-1.0 218:-0.465833 219:0.893731 220:-0.499159 221:-0.66768 222:-0.567735 223:0.881481 224:-0.198685 225:-0.80725 226:-0.15571 227:-0.228711 228:-0.895965 229:-0.562067 230:-0.762615 231:0.615455 232:-0.267016 233:-0.148493 234:-0.869815 235:-0.028923 236:-0.666962 237:0.518553 238:-0.855716 239:-0.858026 240:-0.393338 241:-0.164179 242:0.216941 243:-0.766966 244:0.517229 245:0.144244 246:0.182883 247:-0.708965 248:-0.819543 249:0.745226 250:0.161452 251:0.165213 252:-0.943076 253:0.046487 254:0.368977 255:-0.80269 256:-0.564317 257:-0.710945 258:-0.661195 259:0.560284 260:-0.083144 261:-0.874287 262:-0.103032 263:-0.43018 264:0.216486 265:-0.812106 266:-0.861817 267:-0.137447 268:-0.476923 269:-0.160805 270:-0.885073 271:-0.010815 272:-0.175474 273:-0.484215 274:-0.842405 275:-0.889563 276:-0.054679 277:-0.226994 278:-0.173461 279:-0.879235 280:-0.166516 281:-0.252989 282:-0.429154 283:-0.791977 284:-0.874071 285:-0.588915 286:0.343584 287:-0.070016 288:-0.945739 289:0.050852 290:0.105256 291:0.949629 292:-0.736823 293:-0.884868 294:-0.659975 295:0.153846 296:-0.18071 297:-0.921358 298:-0.083299 299:0.585985 300:-0.685153 301:-0.481997 302:-0.764341 303:-0.348844 304:-0.176044 305:0.019229 306:-0.992345 307:-0.295503 308:0.247213 309:-0.671645 310:-0.552679 311:-0.818667 312:-0.517653 313:-0.734715 314:-0.093983 315:-0.99589 316:0.059219 317:-0.135673 318:-0.852991 319:-0.620225 320:-0.699171 321:-0.239628 322:0.191638 323:-0.08325 324:-0.776342 325:0.788408 326:0.790861 327:0.793156 328:-0.508595 329:-0.175062 330:0.759188 331:-0.118196 332:0.178446 333:-0.66301 334:-0.332242 335:-0.745027 336:0.692524 337:-0.306184 338:-0.343611 339:-0.824346 340:-0.12 341:0.383781 342:-0.712185 343:0.60388 344:-0.732389 345:-0.042731 346:-0.339976 347:-0.383731 348:-0.102473 349:0.323944 350:0.370903 351:-0.594084 
0.8572011884713546 1:-0.39395 2:-0.364399 3:-0.335383 4:-0.613593 5:-0.448087 6:-0.167295 7:-0.256073 8:0.206829 9:-0.389383 10:-0.562045 11:0.637863 12:-0.695599 13:-0.746406 14:-0.494579 15:-0.8552 16:0.098768 17:-0.332075 18:-0.717703 19:0.136758 20:-0.700055 21:-0.075419 22:-0.600547 23:-0.722749 24:-0.177402 25:0.369963 26:-0.048048 27:-0.789897 28:-0.401188 29:-0.006661 30:-0.631908 31:-0.536791 32:-0.639338 33:-0.427527 34:-0.467372 35:-0.030838 36:-0.567724 37:-0.359536 38:-0.167776 39:0.521547 40:-0.13636 41:-0.376398 42:-0.471702 43:-0.476562 44:-0.490763 45:-0.740272 46:0.476599 47:-0.487735 48:0.137929 49:0.252104 50:0.439627 51:-0.369845 52:0.112108 53:-0.520655 54:0.11828 55:0.26707 56:-0.219311 57:-0.458166 58:0.082288 59:-0.047929 60:-0.47917 61:0.314433 62:-0.284037 63:-0.492979 64:-0.221295 65:-0.268218 66:-0.645262 67:0.218787 68:-0.245267 69:0.101954 70:-0.365079 71:-0.094296 72:-0.808238 73:-0.451082 74:-0.3157 75:-0.723949 76:-0.08056 77:-0.361552 78:-0.43626 79:-0.719298 80:-0.20093 81:-0.779766 82:0.076883 83:0.527285 84:0.185151 85:0.310335 86:0.040686 87:-0.006047 88:-0.413793 89:-0.462197 90:-0.616587 91:0.311847 92:-0.351957 93:-0.947634 94:-0.148988 95:-0.622671 96:-0.634649 97:0.333333 98:-0.693307 99:-0.458296 100:-0.422062 101:-0.159927 102:0.936137 103:-0.433273 104:-0.601076 105:-0.213522 106:-0.148718 107:-0.430525 108:-0.843203 109:-0.334411 110:-0.410591 111:0.289628 112:-0.573865 113:-0.642182 114:-0.533091 115:0.319767 116:-0.351915 117:-0.806344 118:-0.204392 119:-0.441382 120:-0.592377 121:-0.603101 122:-0.793129 123:0.345892 124:-0.372549 125:0.576232 126:-0.93616 127:-0.15604 128:-0.059557 129:0.166446 130:-0.659546 131:-0.864094 132:-0.523018 133:0.055556 134:0.01573 135:-0.967262 136:0.234465 137:-0.38787 138:0.255713 139:-0.682531 140:-0.726959 141:0.152671 142:0.034483 143:0.217566 144:-0.887142 145:-0.132058 146:-0.300445 147:-0.564566 148:-0.715024 149:-0.898109 150:-0.590537 151:0.218543 152:-0.183447 153:-0.955559 154:0.220349 155:-0.441577 156:-0.162852 157:-0.576614 158:-0.750538 159:0.612996 160:-0.1845 161:0.30388 162:-0.888133 163:0.393927 164:-0.053699 165:0.252626 166:-0.626506 167:-0.802836 168:0.312645 169:-0.377049 170:0.09352 171:-0.954215 172:0.648079 173:-0.181195 174:0.880118 175:-0.550655 176:-0.855898 177:0.352612 178:-0.285714 179:0.16575 180:-0.957464 181:-0.037803 182:0.219701 183:0.468395 184:-0.428892 185:-0.777903 186:-0.320724 187:0.428571 188:-0.043404 189:-0.971808 190:-0.479781 191:-0.075512 192:-0.881227 193:-0.182377 194:-0.575517 195:0.495698 196:0.323077 197:0.375735 198:-0.916477 199:-0.07707 200:-0.378869 201:-0.65341 202:-0.524376 203:-0.642672 204:-0.427753 205:-0.152542 206:0.006047 207:-0.870298 208:0.286536 209:-0.330328 210:0.257718 211:-0.781094 212:-0.840629 213:0.252903 214:0.166667 215:-0.060115 216:-0.937855 217:-0.133049 218:-0.419006 219:0.899277 220:-0.689354 221:-0.813686 222:-0.563232 223:0.777778 224:-0.209034 225:-0.811769 226:0.299095 227:-0.183394 228:-0.86917 229:-0.772602 230:-0.855556 231:0.630403 232:-0.036649 233:0.138279 234:-0.915154 235:-0.030737 236:-0.474 237:-0.23086 238:-0.841459 239:-0.869884 240:-0.394334 241:-0.328358 242:0.047561 243:-0.89986 244:0.352701 245:-0.329846 246:0.183245 247:-0.842491 248:-0.924263 249:0.743236 250:0.181477 251:0.095819 252:-0.950404 253:-0.072071 254:-0.200418 255:-0.730445 256:-0.836965 257:-0.912308 258:-0.658404 259:0.531915 260:-8.48E-4 261:-0.954179 262:0.012767 263:-0.188303 264:0.167993 265:-0.792632 266:-0.82193 267:-0.138538 268:-0.169231 269:-0.196909 270:-0.883144 271:0.171801 272:0.258562 273:-0.478284 274:-0.725769 275:-0.853432 276:-0.053777 277:0.631902 278:-0.067694 279:-0.944789 280:-0.072824 281:-0.276842 282:-0.446325 283:-0.777634 284:-0.939834 285:-0.590489 286:0.400355 287:-0.158473 288:-0.998343 289:-0.132304 290:0.565935 291:0.586919 292:-0.723781 293:-0.890391 294:-0.65735 296:-0.073425 297:-0.966398 298:-0.183781 299:-0.017464 300:-0.716991 301:-0.528566 302:-0.650784 303:-0.346906 304:0.07078 305:0.051631 306:-0.90174 307:-0.108296 308:-0.399884 309:-0.669002 310:-0.731181 311:-0.854087 312:-0.516754 313:-0.635233 314:-0.058849 315:-0.954749 316:0.200207 317:-0.412952 318:-0.85289 319:-0.869403 320:-0.905561 321:-0.231473 322:-0.059233 323:0.09332 324:-0.875766 325:0.901019 326:0.903549 327:0.905966 328:-0.846571 329:-0.775882 330:0.990111 331:-0.058487 332:0.418798 333:-0.824695 334:-0.349016 335:-0.764038 336:0.763069 337:-0.786073 338:-0.794882 339:-0.866298 340:0.043125 341:0.418912 342:-0.737863 343:0.305857 344:-0.623931 345:-0.045212 346:-0.744343 347:-0.80785 348:-0.150959 349:-0.521127 350:0.212279 351:-0.776047 
0.9813159599901711 1:-0.491044 2:-0.467096 3:-0.443327 4:-0.145715 5:0.06659 6:0.631693 7:-0.324771 8:0.571498 9:-0.075461 10:-0.567366 11:0.623788 12:-0.66695 13:-0.498181 14:-0.006302 15:-0.76398 16:-0.149384 17:-0.215262 18:-0.566672 19:-0.228384 20:-0.462023 21:-0.133474 22:-0.45248 23:-0.507256 24:-0.439191 25:-0.007326 26:-0.565477 27:-0.154939 28:-0.630492 29:0.708993 30:-0.644952 31:-0.310185 32:-0.386908 33:-0.340319 34:-1.0 35:0.107764 36:-0.278479 37:-0.478312 38:0.896736 39:0.44834 40:0.517423 41:0.145234 42:0.534994 43:0.171875 44:0.678215 45:-0.195485 46:-0.053398 47:-0.629475 48:0.024094 49:0.253677 50:0.044836 51:-0.162937 52:-0.524664 53:-0.311931 54:-0.630841 55:0.86289 56:0.30297 57:-0.456958 58:0.203603 59:-0.060236 60:-0.567457 61:-0.484536 62:-0.342363 63:-0.502485 64:0.495336 65:-0.039264 66:-0.650337 67:0.226872 68:-0.273522 69:0.574288 70:-0.238095 71:0.467419 72:-0.784832 73:0.186205 74:-0.444473 75:-0.736399 76:-0.152301 77:-0.260092 78:0.410202 79:-0.157895 80:0.962699 81:0.085559 82:-0.362857 83:-0.317634 84:0.246397 85:-0.153736 86:-0.359384 87:0.218645 88:-0.293103 89:-0.289223 90:-0.690566 91:0.040685 92:-0.288132 93:-0.949222 94:-0.053471 95:-0.440799 96:-0.31454 97:-0.277778 98:-0.295521 99:-0.43302 100:-1.0 101:-0.243955 102:0.92709 103:-0.316643 104:0.107184 105:-0.479341 106:0.138462 107:-0.913321 108:-0.265114 109:-0.078444 110:-0.373063 111:0.547341 112:-0.152785 113:-0.254011 114:-0.512529 115:0.410853 116:-0.155962 117:-0.671985 118:-0.184067 119:-0.495523 120:-0.593858 121:-0.187238 122:-0.521982 123:0.42521 124:-0.058824 125:0.710497 126:-0.855972 127:0.447534 128:-0.441848 129:0.161581 130:-0.626345 131:-0.867611 132:-0.528209 133:0.694444 134:-0.05146 135:-0.951326 136:0.70639 137:0.435699 138:1.0 139:-0.360133 140:-0.494371 141:0.202311 142:0.034483 143:0.540994 144:-0.778341 145:-0.109299 146:-0.175554 147:-0.567371 148:-0.600548 149:-0.797487 150:-0.591062 151:-0.642384 152:-0.165237 153:-0.937774 154:0.053014 155:-0.496148 156:-0.273754 157:-0.592046 158:-0.959533 159:0.614389 160:-0.1845 161:0.314608 162:-0.993443 163:0.339672 164:0.016056 165:-1.0 166:-0.418887 167:-0.687177 168:0.320148 169:0.180328 170:0.179144 171:-0.966407 172:0.584021 173:0.637723 174:-1.0 175:0.200534 176:-0.051342 177:0.600577 178:-0.357143 179:0.590422 180:-0.258986 181:-0.336189 182:0.361715 183:0.212868 184:0.182283 185:0.054563 186:-0.182631 187:-0.085714 188:0.130011 189:-0.339096 190:0.182939 191:-0.656939 192:-0.881593 193:-0.318259 194:-0.411034 195:0.507064 196:0.292308 197:0.456171 198:-0.735213 199:0.040792 200:-0.14849 201:-0.658184 202:0.984209 203:1.0 204:-0.982478 205:-0.483051 206:-0.479718 207:0.297157 208:0.512069 209:0.019061 210:0.228187 211:-0.150611 212:0.036432 213:0.470859 214:0.291667 215:0.625537 216:0.149518 217:-0.273047 218:-0.280763 219:0.885421 220:-0.570021 221:-0.745392 222:-0.560371 223:-0.148148 224:-0.113681 225:-0.814728 226:0.318625 227:-0.425665 228:-0.911299 229:-0.698082 230:-0.827839 231:0.630864 232:0.21466 233:0.133192 234:-0.910955 235:-0.019029 236:-0.116074 237:-0.06766 238:-0.780529 239:-0.894723 240:-0.394369 241:0.223881 242:0.027208 243:-0.974714 244:0.085007 245:0.171598 246:0.187765 247:-0.451719 248:-0.556406 249:0.716636 250:-1.0 251:-0.223479 252:-0.651927 253:0.046553 254:-0.521891 255:-0.678917 256:-0.853546 257:-0.884627 258:-0.661882 259:0.446809 260:-0.271651 261:-0.784292 262:0.072094 263:-0.227857 264:0.164187 265:-0.779134 266:-0.904187 267:-0.135561 268:-0.307692 269:-0.078369 270:-0.974763 271:-0.068599 272:0.742761 273:-0.479624 274:-0.578566 275:-0.822494 276:-0.053728 277:0.165644 278:-0.061756 279:-0.960216 280:-0.150538 281:0.204642 282:-0.440495 283:-0.305989 284:-0.378993 285:-0.554418 286:0.17327 287:0.194393 288:-0.570422 289:-0.692445 290:0.407447 291:0.960559 292:0.124012 293:0.061064 294:-1.0 295:-0.269231 296:-1.0 297:0.544254 298:-0.53888 299:-0.455972 300:-0.703556 301:-0.338443 302:-0.210551 303:-0.419672 304:0.353902 305:-0.606299 306:0.149305 307:1.0 308:-0.053798 309:-0.679976 310:1.0 311:1.0 312:1.0 313:-0.46114 314:1.0 315:0.973121 316:0.618453 317:-0.095014 318:-0.851916 319:-0.012611 320:0.023222 321:-0.047274 322:-1.0 323:0.721537 324:0.304534 325:0.860587 326:0.862639 327:0.864573 328:-0.646886 329:-0.369643 330:0.873085 331:-0.237482 332:-0.015447 333:-0.493361 334:-0.38455 335:-0.904428 336:0.706928 337:-0.617292 338:-0.49072 339:-0.871106 340:-0.47 341:0.149356 342:-0.364592 343:0.444532 344:-0.880887 345:-0.036573 346:-0.691582 347:-0.65996 348:-0.151101 349:-0.598669 350:0.128594 351:-0.560363 
0.9759937856377175 1:0.47276 2:0.478849 3:0.485165 4:0.122298 5:0.18001 6:0.426014 7:-0.036134 8:-0.024578 9:-0.786179 10:-0.29161 11:0.35579 12:-0.402584 13:-0.098482 14:0.470098 15:-0.486535 16:0.255858 17:-0.137717 18:-0.72419 19:-0.076735 20:-0.002492 21:-0.088617 22:0.130549 23:-0.38902 24:-0.329408 25:0.150183 26:-0.111991 27:-0.737729 28:-0.220061 29:-0.679284 30:-0.619369 31:-0.054063 32:0.006373 33:-0.750976 34:-0.781305 35:-0.495782 36:-0.24706 37:0.024457 38:0.153375 39:0.507201 40:0.230761 41:-0.216313 42:-0.615254 43:0.078125 44:-0.588323 45:-0.71775 46:-0.432948 47:-0.240334 48:-0.149923 49:-0.33773 50:-0.260001 51:0.147023 52:0.497758 53:0.026626 54:-0.24947 55:-0.253322 56:-0.368074 57:-0.452069 58:-0.25335 59:-0.33714 60:-0.339262 61:-0.360825 62:-0.168326 63:-0.470474 64:0.055457 65:0.163673 66:-0.478282 67:0.883758 68:0.955078 69:0.443672 70:-0.224206 71:0.173068 72:-0.206717 73:-0.973166 74:-0.314056 75:-0.711127 76:-0.400477 77:-0.503423 78:-0.196801 79:-0.807018 80:0.144874 81:-0.688376 82:-0.537794 83:-0.076576 84:0.240269 85:-0.650262 86:-0.618625 87:0.297617 88:-0.586207 89:-0.184078 90:-0.705315 91:-0.131672 92:-0.202772 93:-0.947083 94:0.068924 95:-0.202838 96:-0.514039 97:0.62963 98:-0.457085 99:-0.435115 100:0.130316 101:-0.208474 102:0.91728 103:-0.293448 104:-0.56105 105:-0.075923 106:-0.066667 107:-0.17069 108:-0.919117 109:0.524767 110:-0.237112 111:0.484966 112:0.032595 113:-0.15865 114:-0.56028 115:0.333333 116:-0.32834 117:-0.701614 118:0.38282 119:-0.143009 120:-0.594204 121:0.10325 122:-0.132362 123:0.106388 124:0.137255 125:0.290586 126:-0.664701 127:-0.647064 128:0.599918 129:0.163093 130:-0.245032 131:-0.767771 132:-0.531661 133:-0.479167 134:-0.041767 135:-0.996542 136:0.272383 137:-0.229668 138:0.227111 139:-0.378404 140:-0.599563 141:0.145658 142:0.103448 143:0.204938 144:-0.890607 145:0.004057 146:0.310611 147:-0.578375 148:-0.362854 149:-0.664277 150:-0.571642 151:0.430464 152:-0.045955 153:-0.908315 154:-0.330289 155:-0.631715 156:-0.228366 157:-0.632282 158:-0.881008 159:0.593503 160:-0.480625 161:0.190698 162:-0.957726 163:-0.19391 164:-0.266937 165:0.227285 166:-0.804143 167:-0.729758 168:0.314408 169:0.008197 170:0.098412 171:-0.819839 172:0.66613 173:0.900129 174:0.802601 175:0.076565 176:-0.451771 177:0.27286 178:-0.321429 179:-0.068908 180:-0.844565 181:-0.013161 182:-0.622699 183:0.365733 184:-0.664724 185:-0.838724 186:-0.317594 187:-0.014286 188:-0.003118 189:-0.920818 190:-0.4334 191:-0.706378 192:-0.880325 193:-0.810677 194:-0.862742 195:0.47837 196:0.784615 197:0.409236 198:-0.933795 199:-0.283724 200:-0.051861 201:-0.669906 202:-0.19667 203:-0.520808 204:-0.361379 205:-0.762712 206:0.181772 207:-0.811301 208:0.043329 209:-0.105027 210:0.233899 211:-0.695086 212:-0.874198 213:0.247008 214:0.0 215:-0.122465 216:-0.979964 217:-0.615933 218:0.12509 219:0.881522 220:-0.316143 221:-0.529943 222:-0.582137 223:-0.525926 224:-0.252177 225:-0.773378 226:0.226207 227:-0.244915 228:-0.919827 229:-0.501983 230:-0.667477 231:0.632023 232:0.235602 233:0.118232 234:-0.814945 235:-1.56E-4 236:0.571576 237:-0.006558 238:-0.638383 239:-0.838185 240:-0.393149 241:0.373134 242:0.060918 243:-0.988981 244:0.206498 245:-0.123132 246:0.184937 247:-0.710521 248:-0.795637 249:0.745614 250:0.141427 251:0.179248 252:-0.905894 253:-0.091659 254:-0.422425 255:-0.775666 256:-0.695773 257:-0.874698 258:-0.657048 259:0.191489 260:0.02114 261:-0.950033 262:-0.082829 263:-0.153804 264:0.219792 265:-0.775081 266:-0.879368 267:-0.136215 268:-0.2 269:-0.102332 270:-0.955249 271:0.199224 272:-0.262655 273:-0.482824 274:-0.864068 275:-0.924045 276:-0.052195 277:-0.128834 278:0.117058 279:-0.904824 280:-0.096094 281:0.785354 282:-0.445627 283:-0.425845 284:-0.714358 285:-0.591419 286:0.343584 287:-0.117255 288:-0.976768 289:-0.075613 290:-0.310601 291:0.956603 292:-0.876646 293:-0.966777 294:-0.657266 295:-0.067308 296:-0.048659 297:-0.958482 298:0.005601 299:-0.358525 300:-0.720334 301:-0.873525 302:-0.944174 303:-0.347488 304:-0.335753 305:0.153625 306:-0.961882 307:-0.19247 308:0.015327 309:-0.683234 310:-0.604098 311:-0.809523 312:-0.514408 313:-0.668394 314:-0.032889 315:-0.960255 316:-0.027686 317:-0.423481 318:-0.857191 319:-0.672554 320:-0.875664 321:-0.229931 322:-0.087108 323:0.096623 324:-0.941236 325:0.606592 326:0.613139 327:0.61937 328:-0.411458 329:-0.336574 330:0.769222 331:-0.379302 332:0.499146 333:-0.903805 334:-0.714397 335:-0.596514 336:0.675231 337:-0.359248 338:-0.423885 339:-0.847953 340:-0.28 341:0.297829 342:-0.731263 343:0.504929 344:-0.473729 345:-0.033425 346:-0.325656 347:-0.37644 348:-0.12195 349:0.774648 350:0.208617 351:-0.714006 
1.0083156739769632 1:0.253633 2:0.264023 3:0.27449 4:0.050709 5:-0.10296 6:0.278312 7:0.10283 8:-0.061412 9:-0.837532 10:0.053427 11:0.007685 12:-0.039273 13:0.228669 14:0.184773 15:0.246974 16:0.068101 17:0.083217 18:-0.781271 19:0.247303 20:-0.375678 21:-0.046609 22:-0.732579 23:-0.70945 24:-0.075102 25:0.216117 26:0.219615 27:-0.683187 28:-0.18979 29:-0.248225 30:-0.635507 31:-0.357847 32:-0.274738 33:-0.080027 34:-0.439153 35:0.619376 36:-0.048713 37:-0.347532 38:0.977978 39:0.455193 40:0.858761 41:0.03516 42:-0.901483 43:-0.703125 44:-0.650991 45:-0.703175 46:0.238446 47:-0.297113 48:-0.064306 49:0.903953 50:0.864309 51:0.897633 52:-0.008969 53:0.503617 54:0.408141 55:-0.119965 56:-0.02977 57:-0.471527 58:-0.280594 59:-0.564009 60:0.055783 61:-0.731959 62:0.403218 63:-0.72837 64:0.270661 65:-0.339365 66:-0.635629 67:0.297473 68:0.011814 69:-0.055932 70:-0.384921 71:-0.260786 72:-0.50756 73:0.471271 74:0.044865 75:-0.728728 76:0.292343 77:0.131847 78:0.457514 79:-0.201754 80:0.722783 81:-0.020534 82:-0.975089 83:0.376341 84:0.095686 85:-0.056058 86:-0.092304 87:0.453972 88:-0.448276 89:0.027556 90:-0.451724 91:-1.0 92:0.854836 93:-0.955374 94:-0.251981 95:-0.561514 96:0.452415 97:-0.412037 98:0.63011 99:-0.504288 100:-0.04599 101:-0.127469 102:0.937795 103:-0.002429 104:-0.250774 105:-0.103075 106:-0.823077 107:-0.241668 108:-0.837658 109:-0.749219 110:0.836693 111:0.511673 112:0.530732 113:-0.310365 114:-0.520065 115:0.449612 116:-0.200188 117:-1.0 118:-0.377459 119:0.650644 120:-0.591642 121:0.892861 122:-0.120607 123:0.458063 124:-0.215686 125:0.593563 126:-0.939752 127:0.337624 128:-0.313431 129:0.157346 130:-0.752072 131:-0.884619 132:-0.5199 133:0.305556 134:0.092982 135:-0.876626 136:0.094931 137:-0.043838 138:0.175108 139:-0.585321 140:-0.759522 141:0.162805 142:-0.068966 143:0.332485 144:-0.926734 145:-0.218214 146:-0.027009 147:-0.559528 148:-0.42462 149:-0.662995 150:-0.559751 151:-0.072848 152:0.025411 153:-0.864219 154:-0.073494 155:0.057696 156:-0.44771 157:0.027076 158:-0.399149 159:0.671866 160:0.185656 161:0.380518 162:-0.785436 163:0.59405 164:-0.795656 165:0.257117 166:-0.942174 167:-0.930849 168:0.318642 169:0.278689 170:0.245941 171:-0.937974 172:0.122399 173:-0.480727 174:0.768332 175:-0.546385 176:-0.711658 177:0.348031 178:-0.785714 179:0.125905 180:-0.815999 181:0.028039 182:-0.430358 183:0.511636 184:-0.377396 185:-0.58811 186:-0.305044 187:-0.142857 188:0.01702 189:-0.778129 190:0.108823 191:-0.533462 192:-0.880502 193:-0.520696 194:-0.695229 195:0.470926 196:-0.3 197:0.288376 198:-0.904677 199:0.05772 200:-0.428184 201:-0.620097 202:-0.857555 203:-0.896238 204:-0.449458 205:0.033898 206:-0.154646 207:-0.950179 208:-0.011897 209:-0.039857 210:0.226858 211:-0.783159 212:-0.869403 213:0.251896 214:-0.166667 215:-0.072068 216:-0.993047 217:-0.114127 218:0.671922 219:0.896685 220:0.039308 221:-0.523348 222:-0.572067 223:0.007407 224:-0.119548 225:-0.939414 226:0.135363 227:0.869371 228:-0.901807 229:0.085193 230:-0.419551 231:0.592204 232:-0.131545 233:-0.028613 234:-0.920525 235:-0.047605 236:-0.628731 237:0.418051 238:-0.925621 239:-0.959571 240:-0.394504 241:-0.029851 242:0.048028 243:-0.983536 244:0.333841 245:0.013832 246:0.215837 247:-0.755285 248:-0.84392 249:0.743869 250:0.35169 251:0.123977 252:-0.919861 253:-0.002225 254:0.451562 255:-0.691001 256:-0.707643 257:-0.902834 258:-0.660238 259:0.787234 260:-0.085924 261:-0.971438 262:-0.070204 263:0.483888 264:0.206991 265:-0.572141 266:-0.665435 267:-0.137614 268:-0.111538 269:-0.110331 270:-0.863009 271:-0.026392 272:0.003368 273:-0.485773 274:-0.866127 275:-0.926769 276:-0.053439 277:0.263804 278:-0.036654 279:-0.950183 280:-0.159423 281:-0.43569 282:-0.446233 283:-0.777234 284:-0.861835 285:-0.590235 286:0.360142 287:-0.14436 288:-0.91579 289:-0.020529 290:-0.149548 291:0.955009 292:-0.706651 293:-0.819927 294:-0.661949 295:-0.115385 296:-0.236975 297:-0.870156 298:-0.120844 299:-0.115029 300:-0.678591 301:-0.785354 302:-0.895013 303:-0.349434 304:-0.466425 305:0.006454 306:-0.973699 307:-0.14638 308:-0.628317 309:-0.678132 310:-0.825912 311:-0.927973 312:-0.518326 313:0.226943 314:-0.108492 315:-0.966764 316:0.181957 317:-0.537364 318:-0.863909 319:-0.866262 320:-0.950823 321:-0.232276 322:0.303136 323:0.055137 324:-0.935003 325:0.605287 326:0.611481 327:0.617375 328:-0.389469 329:-0.262673 330:0.767622 331:-0.264891 332:0.540051 333:-0.911327 334:-0.016684 335:-0.092518 336:0.740313 337:0.057796 338:-0.251188 339:-0.831876 340:-0.62 341:0.231452 342:-0.957924 343:0.267887 344:0.12268 345:-0.075155 346:0.04983 347:-0.256187 348:-0.026494 349:-0.345511 350:0.265123 351:-0.873273 
0.920807134181085 1:-0.340901 2:-0.313481 3:-0.286459 4:-0.494098 5:-0.100944 6:0.158175 7:-0.604179 8:0.863523 9:0.587187 10:-0.697314 11:0.745934 12:-0.781995 13:-0.751181 14:-0.379666 15:-0.779704 16:-0.431958 17:0.083493 18:-0.414183 19:-0.085507 20:-0.261756 21:-0.124998 22:-0.487367 23:-0.751143 24:-0.113373 25:-0.860806 26:0.117557 27:-0.899261 28:-1.0 29:1.0 30:-0.63567 31:-0.744852 32:-0.693998 33:-0.308402 34:0.622575 35:0.383669 36:-0.598764 37:-0.38062 38:-0.248439 39:0.498907 40:-0.052925 41:-0.376917 42:-0.504778 43:-0.109375 44:-0.522613 45:-0.793284 46:0.270179 47:-0.574141 48:0.037111 49:0.531819 50:0.324213 51:0.009495 52:0.165919 53:-0.125978 54:-0.417955 55:-0.40857 56:-2.04E-4 57:-0.475719 58:0.021666 59:-0.257547 60:0.226011 61:-1.0 62:0.462448 63:-0.582189 64:0.0874 65:0.056978 66:-0.568447 67:0.129092 68:-0.31152 69:0.593252 70:-0.365079 71:0.542135 72:-0.384006 73:0.356301 74:0.085558 75:-0.726517 76:-0.06269 77:-0.041971 78:-0.404754 79:-0.280702 80:-0.157153 81:-0.535426 82:-0.340526 83:-0.570914 84:0.259679 85:0.67089 86:0.484889 87:0.022985 88:-0.689655 89:-0.369125 90:-0.511688 91:0.435825 92:4.9E-4 93:-0.952173 94:0.247853 95:0.697885 96:-0.81102 97:0.111111 98:-0.638145 99:0.40815 100:-0.326566 101:-0.291425 102:0.920422 103:-0.280254 104:-0.024112 105:0.114121 106:-0.123077 107:0.169317 108:-0.487701 109:0.11033 110:-0.473724 111:0.508186 112:-0.341352 113:-0.330616 114:-0.547927 115:0.302326 116:-0.391582 117:-0.57026 118:-0.026072 119:-0.636818 120:-0.587846 121:-0.705178 122:-0.712789 123:0.387235 124:-0.215686 125:0.869809 126:-0.670297 127:-0.269522 128:-0.153661 129:0.15887 130:-0.722117 131:-0.902187 132:-0.522221 133:-0.361111 134:0.039016 135:-0.940516 136:-0.009159 137:-0.784498 138:0.240808 139:-0.974053 140:-1.0 141:0.154239 142:-0.099138 143:0.178485 144:-0.976436 145:-0.388919 146:-0.321272 147:-0.567278 148:-0.613334 149:-0.780828 150:-0.586045 151:-0.549669 152:-0.125147 153:-0.891664 154:0.193547 155:0.295152 156:-0.072401 157:-0.245332 158:-0.796523 159:0.582682 160:-0.295547 161:0.166238 162:-0.989322 163:0.012606 164:-0.025984 165:0.277538 166:-0.42336 167:-0.712144 168:0.327057 169:0.04918 170:0.238404 171:-0.975079 172:0.413002 173:-0.249651 174:0.822348 175:-0.593399 176:-0.817745 177:0.326652 178:-0.410714 179:-0.077519 180:-0.834177 181:-0.068268 182:-0.438983 183:0.360441 184:-0.728302 185:-0.876959 186:-0.314787 187:-0.4 188:0.0383 189:-0.923021 190:0.15248 191:-0.539808 192:-0.734279 193:-0.460152 194:-0.70835 195:0.474339 196:0.138462 197:0.30955 198:-0.906488 199:0.132893 200:-0.291597 201:-0.625773 202:-0.142604 203:-0.414068 204:-0.480508 205:0.127119 206:-0.183591 207:-0.766621 208:-0.102441 209:-0.123105 210:0.213889 211:-0.702377 212:-0.867856 213:0.236414 214:-0.055556 215:-0.227093 216:-0.947366 217:-0.443219 218:-0.490423 219:0.933736 220:-0.57996 221:-0.660463 222:-0.578205 223:0.437037 224:-0.413285 225:-0.535643 226:0.100453 227:-0.549258 228:-0.898326 229:-0.881648 230:-0.94378 231:0.627955 232:0.407068 233:0.004374 234:-0.934185 235:0.002215 236:-0.394308 237:-0.24505 238:-0.894343 239:-0.932765 240:-0.394856 241:-0.402985 242:-0.04564 243:-0.956963 244:0.440976 245:-1.0 246:0.187083 247:-1.0 248:-0.990038 249:0.74316 250:0.226533 251:0.075092 252:-0.899046 253:0.001589 254:-0.579799 255:-0.880563 256:-0.810682 257:-0.87703 258:-0.657245 259:0.092199 260:0.063318 261:-0.890938 262:-0.2042 263:0.311721 264:0.159462 265:-0.670242 266:-0.820514 267:-0.133945 268:-0.173558 269:-0.035266 270:-0.944255 271:0.066993 272:0.435235 273:-0.483102 274:-0.653389 275:-0.854809 276:-0.054543 277:-0.01227 278:-0.096021 279:-0.964112 280:-0.110188 281:0.014367 282:-0.453406 283:-0.753746 284:-0.870072 285:-0.589616 286:0.248965 287:-0.10804 288:-0.960909 289:-0.054523 290:-0.461876 291:0.957302 292:-0.867008 293:-0.880597 294:-0.657907 295:0.153846 296:-0.107648 297:-0.860997 298:-0.04447 299:-0.253963 300:-0.71 301:-0.730553 302:-0.86035 303:-0.347155 304:-0.07441 305:0.091443 306:-0.962955 307:-0.168037 308:-0.164185 309:-0.681869 310:-0.627432 311:-0.798907 312:-0.514792 313:-0.048705 314:-0.034368 315:-0.956265 316:0.387474 317:-0.358329 318:-0.872914 319:-0.801217 320:-0.935374 321:-0.232581 322:-0.059233 323:0.040832 324:-0.947558 325:0.895735 326:0.898271 327:0.900694 328:-0.821945 329:-0.682954 330:0.974546 331:-0.007215 332:-0.049175 333:-0.444379 334:-0.395307 335:-0.828983 336:0.690472 337:-0.750275 338:-0.708074 339:-0.870172 340:0.32 341:0.158185 342:-0.549151 343:0.372525 344:-0.717208 345:-0.010227 346:-0.751626 347:-0.721057 348:-0.148859 349:0.15493 350:0.375307 351:-0.439919 
1.0000788329699835 1:0.0522 2:0.068589 3:0.084943 4:-0.120181 5:0.014864 6:0.440062 7:0.25024 8:0.307965 9:-0.429098 10:-0.621339 11:0.680374 12:-0.725667 13:-0.666013 14:-0.490267 15:-0.820384 16:0.91989 17:-0.238447 18:-0.788573 19:0.116846 20:-0.173995 21:-0.039991 22:-0.111372 23:0.015825 24:0.111464 25:0.545788 26:0.453255 27:0.037687 28:-0.50143 29:0.414699 30:-0.638884 31:-0.113329 32:-0.524972 33:-0.269119 34:-0.802469 35:0.165111 36:-0.712654 37:-0.171385 38:-0.075656 39:0.481277 40:-0.111104 41:-0.355481 42:-0.330961 43:-0.34375 44:-0.230773 45:-0.687042 46:-0.484272 47:-0.193004 48:-0.003461 49:-0.171283 50:0.256921 51:-0.250809 52:0.170404 53:-0.506986 54:0.428224 55:-0.077265 56:0.357088 57:-0.50102 58:0.016758 59:-0.115587 60:-0.428287 61:0.216495 62:-0.242367 63:-0.63276 64:-0.235273 65:-0.335957 66:-0.645579 67:0.01073 68:-0.230966 69:0.221432 70:0.174603 71:0.058934 72:-0.526791 73:-0.229323 74:0.349365 75:-0.672331 76:0.212156 77:-0.140761 78:-0.292939 79:-0.0 80:-0.007999 81:-0.644854 82:0.060743 83:-0.499847 84:0.271315 85:-1.0 86:-1.0 87:0.33896 88:-0.465517 89:-0.04731 90:-0.917771 91:-0.264979 92:-0.229624 93:-0.950236 94:-0.363266 95:-0.542064 96:-0.104133 97:-0.407407 98:-0.090902 99:-0.592332 100:-0.348566 101:-0.710587 102:0.931457 103:-0.49226 104:-0.514332 105:-0.072662 106:-0.164103 107:-0.136603 108:-0.725052 109:0.092296 110:-0.680267 111:0.501436 112:-0.234939 113:-0.348676 114:-0.559609 115:0.209302 116:-0.416748 117:-0.655753 118:-0.011001 119:-0.742005 120:-0.593383 121:-0.65798 122:-0.79205 123:0.366897 124:-0.098039 125:0.705906 126:-0.86513 127:0.404357 128:-0.176863 129:0.162073 130:-0.589619 131:-0.847 132:-0.524262 134:-0.004976 135:-0.950955 136:0.375021 137:-0.32294 138:0.241886 139:-0.709516 140:-0.865685 141:0.162184 142:0.034483 143:0.347222 144:-0.967584 145:-0.130571 146:-0.310566 147:-0.569355 148:-0.767523 149:-0.908836 150:-0.583346 151:0.245033 152:-0.104292 153:-0.946386 154:-0.444656 155:-0.812586 156:-0.26841 157:-0.645582 158:-0.648488 159:0.594466 160:-0.295547 161:0.19634 162:-0.778528 163:0.384173 164:-0.592087 165:0.221152 166:-0.899767 167:-0.899875 168:0.317115 169:-0.147541 170:0.175558 171:-0.946238 172:0.229965 173:-0.539254 174:0.783183 175:-0.49686 176:-0.681004 177:0.339616 178:-0.190476 179:0.05952 180:-0.832605 181:0.054856 182:0.047342 183:0.454723 184:-0.311532 185:-0.78876 186:-0.336383 187:-0.057143 188:-0.100451 189:-0.984324 190:-0.28155 191:-0.564275 192:-0.89311 193:-0.822549 194:-0.860164 195:0.468825 196:-0.630769 197:0.258044 198:-0.935935 199:-0.019449 200:-0.36418 201:-0.591201 202:-0.644762 203:-0.796712 204:-0.446716 205:-0.271186 206:-0.104946 207:-0.928473 208:0.153369 209:-0.664031 210:0.233264 211:-0.768041 212:-0.796689 213:0.246332 214:-0.576389 215:-0.137071 216:-0.903261 217:-0.239928 218:-0.297865 219:0.879576 220:-0.690993 221:-0.802878 222:-0.556116 223:0.303704 224:-0.027309 225:-0.865506 226:0.292998 227:-0.417712 228:-0.856265 229:-0.839379 230:-0.824901 231:0.628706 232:-0.267016 233:0.064562 234:-0.835205 235:-0.030217 236:0.053232 237:-0.642323 238:-0.836743 239:-0.921824 240:-0.394754 241:-0.641791 242:-0.013369 243:-0.99007 244:0.443174 245:-0.473488 246:0.185326 247:-0.825637 248:-0.888709 249:0.743213 250:0.361702 251:0.094429 252:-0.934791 253:-0.038571 254:-0.441815 255:-0.792375 256:-0.867038 257:-0.966264 258:-0.659065 259:0.588652 260:-0.049128 261:-0.965013 262:-0.087703 263:-0.60967 264:0.197319 265:-0.847929 266:-0.876158 267:-0.135496 268:-0.123077 269:-0.078167 270:-0.941254 271:0.049719 272:-0.271404 273:-0.483416 274:-0.929708 275:-0.97031 276:-0.053514 277:-0.521472 278:-0.039177 279:-0.973709 280:-0.139064 281:-0.343632 282:-0.45135 283:-0.755096 284:-0.822327 285:-0.590819 286:0.097575 287:-0.166661 288:-0.894789 289:0.009709 290:0.174293 291:0.957875 292:-0.717447 293:-0.851173 294:-0.655674 296:-0.011256 297:-0.946243 298:-0.094853 299:-0.901852 300:-0.707526 301:-0.936762 302:-0.948199 303:-0.349489 304:-0.07441 305:-0.009352 306:-0.952179 307:-0.249107 308:-0.293066 309:-0.689878 310:-0.745618 311:-0.802883 312:-0.515509 313:-0.021762 314:-0.016066 315:-0.896572 316:0.017419 317:-0.55672 318:-0.857888 319:-0.804379 320:-0.908422 321:-0.23357 322:-0.700348 323:0.005862 324:-0.932806 325:0.74352 326:0.748776 327:0.75378 328:-0.607066 329:-0.350595 330:0.888965 331:-0.049864 332:0.311815 333:-0.731777 334:-0.433815 335:-0.640204 336:0.716027 337:-0.556552 338:-0.483035 339:-0.844348 340:0.0050 341:0.53162 342:-0.405689 343:0.409572 344:-0.557983 345:-0.035544 346:-0.575392 347:-0.483576 348:-0.133944 349:-0.211268 350:0.431051 351:-0.319684 
0.9846370548285626 1:0.481434 2:0.488912 3:0.496545 4:0.049303 5:-0.013826 6:0.278836 7:-0.731215 8:-0.059734 9:-0.80022 10:-0.266559 11:0.38505 12:-0.476707 13:-0.540694 14:-0.446016 15:-0.825068 16:-0.15533 17:-0.346181 18:-0.956384 19:-0.442618 20:0.281787 21:-0.094449 22:0.1502 23:-0.075877 24:-0.334193 25:-0.6337 26:-0.112468 27:-0.392648 28:-0.530042 29:0.12624 30:-0.636545 31:-0.37515 32:-0.419223 33:-0.289405 34:1.0 35:0.225471 36:-0.594599 37:-0.270596 38:-0.531175 39:0.421032 40:-0.306237 41:-0.149911 42:-0.424424 43:1.0 44:-0.445915 45:-0.361139 46:0.17766 47:-0.825018 48:0.050459 49:0.058916 50:-0.112293 51:0.234027 52:0.497758 53:0.106218 54:-0.259472 55:0.624048 56:-0.611591 57:-0.569457 58:-0.142463 59:0.22804 60:-0.144135 61:0.092784 62:0.088046 63:0.102814 64:0.340664 65:-0.135336 66:-0.639025 67:0.027886 68:-0.13993 69:0.424157 70:-0.333333 71:0.355909 72:-0.576666 73:1.0 74:-0.106436 75:-0.702218 76:-0.337566 77:-0.454881 78:-0.35154 79:-0.508772 80:-0.115684 81:-0.613617 82:1.0 83:-0.539393 84:0.255789 85:-0.487717 86:-0.089066 87:0.136532 88:-0.37931 89:-0.498938 90:-0.097078 91:0.085537 92:-0.568215 93:-0.936032 94:-0.662181 95:-0.274362 96:-0.004875 97:0.208333 98:0.075277 99:0.187078 100:-0.451615 101:0.092216 102:0.935675 103:0.364407 104:0.984448 105:1.0 106:-0.271795 107:1.0 108:1.0 109:-0.403244 110:0.727271 111:1.0 112:0.294767 113:-0.330634 114:-0.520019 115:-0.054264 116:-0.198554 117:-0.975066 118:0.146684 119:-0.091021 120:-0.577166 121:-0.277505 122:-0.644404 123:0.391686 124:0.803922 125:0.666919 126:-0.935756 127:-0.251298 128:0.807668 129:0.164949 130:-0.214295 131:-0.659665 132:-0.51662 133:-0.652778 134:0.014673 135:-0.954852 136:0.242566 137:0.165963 138:0.326592 139:-0.489905 140:-0.720293 141:0.144474 142:-0.224138 143:0.175231 144:-0.941563 145:0.011742 146:-0.370855 147:-0.562369 148:-0.882406 149:-0.894322 150:-0.584827 151:-0.178808 152:-0.134346 153:-0.909171 154:0.193049 155:-0.56916 156:-0.288482 157:-0.757212 158:-0.958375 159:0.602092 160:-0.554656 161:0.253489 162:-0.975615 163:0.046307 164:-0.355775 165:0.245465 166:-0.813706 167:-0.839418 168:0.317708 169:-0.459016 170:0.183314 171:-0.924235 172:0.122697 173:-0.275842 174:0.84733 175:-0.539079 176:-0.865706 177:0.326763 178:-0.547619 179:-0.052821 180:-0.923136 181:-0.28103 182:-0.234078 183:0.468241 184:-0.805925 185:-0.959243 186:-0.320579 187:-0.314286 188:-0.010934 189:-1.0 190:-0.067384 191:-0.867991 192:-0.90277 193:-0.716822 194:-0.723445 195:0.439953 196:-0.592308 197:-0.080789 198:-0.705281 199:-0.06286 200:-0.805127 201:-0.661089 202:-0.860569 203:-0.781954 204:-0.448013 205:-0.898305 206:-0.139214 207:-0.823909 208:-0.141524 209:0.213192 210:-0.292622 211:-0.341244 212:-0.295888 213:0.315615 214:0.069444 215:0.207466 216:-0.593086 217:-0.710027 218:0.79296 219:0.87184 220:-0.20801 221:-0.591621 222:-0.583206 223:0.096296 224:-0.214585 225:-0.910114 226:0.054105 227:-0.307675 228:-0.712101 229:-0.759455 230:-0.86888 231:0.62686 232:0.371728 233:-0.002961 234:-0.91912 235:-0.019857 236:0.708025 237:0.290699 238:-0.663071 239:-0.84677 240:-0.394795 241:-0.044776 242:-0.005972 243:-0.989844 244:0.295146 245:-0.294802 246:0.188459 247:-0.772173 248:-0.874237 249:0.74501 250:0.221527 251:0.181383 252:-0.939289 253:-0.008486 254:-0.511413 255:-0.781215 256:-0.862079 257:-0.931334 258:-0.660078 259:0.64539 260:-0.133725 261:-0.913017 262:-0.134016 263:-0.816403 264:0.219749 265:-0.889644 266:-0.887187 267:-0.134316 268:-0.246154 269:-0.007972 270:-0.919664 271:0.107288 272:-0.1556 273:-0.481828 274:-0.898054 275:-0.959852 276:-0.053326 277:-0.104295 278:-0.013832 279:-0.966942 280:-0.071235 281:-0.595869 282:-0.447506 283:-0.791124 284:-0.865599 285:-0.5893 286:0.381431 287:-0.093081 288:-0.909138 289:-0.154135 290:-0.470021 291:0.959259 292:-0.932747 293:-0.988526 294:-0.657674 295:-1.0 296:-0.088185 297:-0.96075 298:-0.127192 299:-0.829313 300:-0.690925 301:-0.87954 302:-0.861275 303:-0.349325 304:-0.626134 305:0.010732 306:-0.884183 307:-0.127151 308:-1.0 309:-0.676455 310:-0.878964 311:-0.941564 312:-0.519653 313:0.027979 314:-0.191737 315:-0.908446 316:0.23188 317:-0.324291 318:-0.858017 319:-0.433712 320:-0.66401 321:-0.230939 322:-0.219512 323:0.056882 324:-0.829814 325:0.683763 326:0.689545 327:0.695063 328:-0.509646 329:-0.368195 330:0.860585 331:-0.118478 332:0.50534 333:-0.885331 334:-0.263554 335:-0.496014 336:0.662518 337:-0.337199 338:-0.39696 339:-0.866721 340:-0.345 341:0.190356 342:-0.824228 343:0.4361 344:-0.351259 345:-0.043958 346:-0.350887 347:-0.381749 348:-0.097139 349:-0.084507 350:0.430571 351:-0.587388 
0.9564702929838264 1:-0.341395 2:-0.316331 3:-0.291565 4:-0.330615 5:-0.165185 6:0.289735 7:0.252329 8:0.585755 9:-0.019685 10:-0.454765 11:0.493381 12:-0.484482 13:-0.331515 14:0.502638 15:0.04771 16:-0.215412 17:1.0 18:1.0 19:0.188929 20:0.022807 21:-0.081499 22:-0.070355 23:-0.386023 24:-0.049905 25:0.018315 26:0.21742 27:-0.585726 28:-0.321446 29:0.02002 30:-0.63505 31:-0.466662 32:-0.367534 33:-0.260818 34:-0.280423 35:0.33007 36:-0.306976 37:0.259754 38:-0.557535 39:0.482745 40:-0.344552 41:-0.693015 42:-0.553736 43:0.46875 44:-0.750929 45:-0.753344 46:-0.409012 47:-0.235236 48:0.009998 49:-0.152064 50:-0.487481 51:-0.062349 52:0.300448 53:-0.255864 54:-0.484609 55:-0.915602 56:0.536073 57:-0.436233 58:0.553036 59:0.183177 60:-0.911811 61:0.463918 62:-0.50593 63:-0.47116 64:-0.226142 65:0.114267 66:-0.639016 67:0.107425 68:-0.367438 69:0.139696 70:-0.325397 71:-0.056276 72:-0.837778 73:-0.030275 74:0.119495 75:-0.727824 76:0.848559 77:0.48837 78:0.299544 79:-0.537144 80:0.387535 81:-0.30672 82:-0.047828 83:-0.252178 84:0.255447 85:-0.03176 86:0.070265 87:0.322487 88:-0.465517 89:-0.144028 90:-0.550942 91:0.534215 92:-0.613828 93:-0.944997 94:-0.35227 95:0.062868 96:0.237113 97:-0.50463 98:0.392297 99:0.886806 100:0.309506 101:-0.702621 102:0.932424 103:-0.426738 104:-0.091982 105:-0.013801 106:-0.134936 107:-0.028076 108:-0.505934 109:-0.036608 110:-0.253367 111:0.485142 112:0.026756 113:-0.219586 114:-0.531536 115:0.24031 116:-0.233857 117:-0.723643 118:0.048643 119:-0.461979 120:-0.592625 121:-0.015281 122:0.015671 123:0.260781 124:-0.176471 125:0.441284 126:-0.369547 127:-0.534983 128:0.450263 129:0.1622 130:-0.46363 131:-0.810357 132:-0.521592 133:-0.111111 134:0.009937 135:-0.991107 136:-0.180922 137:0.092711 138:0.204621 139:-0.603256 140:-0.783828 141:0.15774 142:-0.482759 143:0.281989 144:-0.955589 145:-0.301238 146:-0.301223 147:-0.570313 148:-0.707978 149:-0.829194 150:-0.589193 151:-0.165563 152:-0.16713 153:-0.887234 154:-0.004916 155:-0.677551 156:-0.380256 157:-0.715126 158:-0.921187 159:0.60229 160:-0.480625 161:0.251734 162:-0.920556 163:0.210598 164:-0.374986 165:0.19176 166:-0.664712 167:-0.692529 168:0.30749 169:-0.327869 170:0.00356 171:-0.855031 172:-0.204283 173:-0.349964 174:0.797819 175:-0.462044 176:-0.733792 177:0.338977 178:-0.214286 179:0.058456 180:-0.868326 181:-0.314185 182:0.372305 183:0.036147 184:-0.282739 185:-0.697 186:-0.311581 187:-0.107143 188:-0.018491 189:-0.943676 190:-0.463496 191:-0.129504 192:-0.880667 193:-0.441907 194:-0.699467 195:0.485092 196:-0.015385 197:0.373888 198:-0.926515 199:-0.120001 200:-0.335593 201:-0.645984 202:-0.77868 203:-0.873791 204:-0.450425 205:-0.423729 206:-0.149892 207:-0.935214 208:0.063706 209:-0.215917 210:0.212569 211:-0.771616 212:-0.811231 213:0.262929 214:-0.402778 215:0.056265 216:-0.893795 217:-0.68823 218:0.078378 219:0.898669 220:-0.289996 221:-0.468027 222:-0.617468 223:0.718519 224:-0.481518 225:-0.517349 226:-0.09974 227:-0.397397 228:-0.905372 229:-0.489465 230:-0.517188 231:0.60261 232:0.068063 233:-0.263082 234:-0.480782 235:0.105196 236:-0.033878 237:-0.233679 238:-0.745237 239:-0.869039 240:-0.394785 241:-0.343284 242:-0.009106 243:-0.974123 244:0.376537 245:-0.205855 246:0.185916 247:-0.799049 248:-0.860321 249:0.744068 250:0.221527 251:0.14253 252:-0.922435 253:0.066953 254:-0.624401 255:-0.759161 256:-0.828397 257:-0.879217 258:-0.65767 259:0.078014 260:0.046606 261:-0.854311 262:0.148997 263:0.037432 264:0.186043 265:-0.7631 266:-0.897282 267:-0.13398 268:-0.107692 269:-0.022239 270:-0.973967 271:0.091366 272:-0.0987 273:-0.484869 274:-0.75341 275:-0.787576 276:-0.056238 277:0.092025 278:-0.229982 279:-0.787511 280:-0.220824 281:-0.465228 282:-0.444773 283:-0.735765 284:-0.823716 285:-0.58698 286:0.248965 287:0.009214 288:-0.909075 289:0.045821 290:-0.034866 291:0.959596 292:-0.683943 293:-0.799746 294:-0.657439 295:0.019231 296:-0.078309 297:-0.903047 298:-0.127829 299:0.028036 300:-0.686263 301:-0.766922 302:-0.871091 303:-0.350176 304:-0.451906 305:-0.025341 306:-0.984523 307:-0.368949 308:-0.589242 309:-0.695662 310:-0.865475 311:-0.918072 312:-0.51909 313:0.177202 314:-0.153449 315:-0.93157 316:0.154677 317:-0.619818 318:-0.846201 319:-0.777684 320:-0.859221 321:-0.230493 322:-0.114983 323:0.106788 324:-0.857944 325:0.862854 326:0.864826 327:0.86667 328:-0.647829 329:-0.212607 330:0.836578 331:-0.086327 332:-0.304926 333:-0.083853 334:-0.369928 335:-0.801312 336:0.716283 337:-0.383503 338:-0.213439 339:-0.874563 340:0.2 341:0.144785 342:-0.344361 343:0.445715 344:-0.704682 345:-0.030127 346:-0.319914 347:-0.195147 348:-0.063778 349:-0.352113 350:0.616579 351:-0.053609 
0.9545550976725351 1:-0.388813 2:-0.361396 3:-0.334422 4:-0.453083 5:-0.100292 6:-0.045639 7:0.036657 8:0.211533 9:-0.315197 10:-0.580309 11:0.647901 12:-0.700743 13:-0.653853 14:-0.429867 15:-0.919914 16:-0.817172 17:-0.642083 18:-0.804656 19:-0.390413 20:0.098062 21:-0.122629 22:-0.221944 23:-0.146613 24:-0.050603 25:0.750916 26:0.227832 27:-0.392254 28:-0.573888 29:-0.261453 30:-0.629082 31:-0.239698 32:-0.488651 33:-0.644318 34:-0.587302 35:-0.413156 36:-0.648416 37:0.824258 38:-0.092291 39:0.493426 40:0.567942 41:0.235739 42:-0.786615 43:-0.136719 44:-0.656354 45:-0.454824 46:0.020535 47:0.071876 48:0.009994 49:0.772043 50:0.295499 51:0.745753 52:0.34417 53:0.431987 54:-0.273502 55:-0.412123 56:-0.147528 57:-0.503828 58:-0.41077 59:-0.276774 60:-0.104438 61:0.298969 62:0.20685 63:-0.390758 64:-0.252314 65:-0.215236 66:-0.647368 67:0.384205 68:0.462955 69:-0.100691 70:0.047619 71:-0.28389 72:0.079715 73:0.207425 74:0.186163 75:-0.737422 76:0.249875 77:-0.199882 78:0.391603 79:-0.41886 80:0.679989 81:-0.57044 82:-0.309303 83:-0.424536 84:0.259117 85:-0.306047 86:-0.268277 87:0.29952 88:-0.267241 89:-0.175467 90:-0.702544 91:0.032284 92:-0.486151 93:-0.947418 94:-0.049056 95:-0.00725 96:0.187268 97:0.194444 98:0.237708 99:-0.056159 100:0.19296 101:-0.668241 102:0.937261 103:-0.746335 104:-0.381592 105:-0.229155 106:-0.097436 107:-0.500053 108:-0.440827 109:-0.073421 110:-0.106557 111:0.503408 112:-0.185322 113:-0.445577 114:-0.526234 115:0.255814 116:-0.222902 117:-0.877983 118:-0.175136 119:-0.50639 120:-0.594633 121:-0.261837 122:-0.529048 123:0.322666 124:-0.137255 125:0.510281 126:-0.861385 127:-0.055396 128:0.279861 129:0.160402 130:-0.605115 131:-0.833924 132:-0.515443 133:-0.222222 134:0.095507 135:-0.92779 136:0.318437 137:0.348899 138:0.194943 139:-0.54686 140:-0.810942 141:0.153536 142:-0.034483 143:0.242761 144:-0.97662 145:-0.206543 146:-0.23837 147:-0.571826 148:-0.42002 149:-0.750193 150:-0.577228 151:0.562914 152:-0.068592 153:-0.9488 154:0.282409 155:1.0 156:-0.137952 157:0.193692 158:-0.505278 159:0.609161 160:-0.258531 161:0.235435 162:-0.965063 163:0.4518 164:-0.909606 165:0.254166 166:-0.931564 167:-0.89005 168:0.319429 169:0.442623 170:0.273886 171:-0.863867 172:0.78103 173:0.094919 174:0.798237 175:-0.213191 176:-0.475159 177:0.338826 178:-1.0 179:0.075586 180:-0.735087 181:-0.057701 182:0.149709 183:0.361737 184:-0.399622 185:-0.652534 186:-0.315937 187:-0.242857 188:-0.024431 189:-0.902719 190:-0.03186 191:-9.08E-4 192:-0.928978 193:-0.514212 194:-0.798771 195:0.476181 196:-0.076923 197:0.325946 198:-0.982841 199:0.097969 200:-0.425149 201:-0.642148 202:-0.367669 203:-0.675344 204:-0.450691 205:-0.762712 206:-0.108171 207:-0.907696 208:-0.287973 209:-0.469647 210:0.179948 211:-0.941771 212:-0.923124 213:0.254002 214:-0.208333 215:-0.023453 216:-0.935865 217:-0.094246 218:0.101886 219:0.885342 220:-0.290896 221:-0.64911 222:-0.571439 223:-0.259259 224:-0.167224 225:-0.900438 226:0.415084 227:0.129381 228:-0.895604 229:-0.457568 230:-0.632961 231:0.636699 232:0.109948 233:0.1666 234:-0.843073 235:0.008131 236:-0.108427 237:-0.040817 238:-0.793983 239:-0.863358 240:-0.395133 241:0.253731 242:-0.048483 243:-0.942425 244:0.419084 245:0.208807 246:0.195954 247:-0.75425 248:-0.865925 249:0.744853 250:-0.098874 251:0.166738 252:-0.972585 253:-0.102556 254:-0.05565 255:-0.790926 256:-0.658153 257:-0.844156 258:-0.6609 259:0.531915 260:-0.095038 261:-0.940444 262:-0.195468 263:0.531375 264:0.918587 265:-0.452447 266:-0.739759 267:-0.139043 268:-0.661538 269:-0.11584 270:-0.951445 271:0.10251 272:-0.456006 273:-0.57528 274:-0.937554 275:-0.919262 276:-0.053448 277:0.263804 278:-0.024432 279:-0.857222 280:-0.083718 281:-0.423306 282:-0.456986 283:-0.659688 284:-0.811749 285:-0.590337 286:0.192194 287:-0.123625 288:-0.92315 289:0.005428 290:-0.107072 291:0.958405 292:-0.770296 293:-0.907811 294:-0.656218 295:-0.153846 296:-0.014439 297:-0.957764 298:0.023207 299:-0.149293 300:-1.0 301:-0.762359 302:-0.885283 303:-0.349293 304:0.303085 305:0.013187 306:-0.974843 307:-0.039393 308:0.047659 309:-0.704813 310:-0.649474 311:-0.825443 312:-0.516827 313:-0.170984 314:-0.072621 315:-0.969857 316:0.219532 317:-0.728672 318:-0.857653 319:-0.907227 320:-0.942978 321:-0.234082 322:-0.28223 323:-0.044269 324:-0.869028 325:0.907664 326:0.910235 327:0.912686 328:-0.89426 329:-0.824229 330:0.994453 331:0.05095 332:0.318519 333:-0.710209 334:-0.382637 335:-0.888855 336:0.676091 337:-0.788565 338:-0.820665 339:-0.87119 340:-0.09125 341:0.080196 342:-0.828433 343:0.359516 344:-0.698136 345:-0.037154 346:-0.735071 347:-0.805715 348:-0.150394 349:0.380282 350:0.230773 351:-0.796691 
0.9814710983680954 1:-0.207199 2:-0.186232 3:-0.165439 4:-0.188964 5:0.266306 6:0.358086 7:0.10788 8:0.345811 9:-0.160647 10:-0.425896 11:0.480307 12:-0.500001 13:-0.331017 14:0.658293 15:-0.323848 16:-0.080696 17:0.391515 18:0.406206 19:0.102047 20:-0.267333 21:-0.049622 22:-0.357247 23:-0.524696 24:0.027054 25:-0.769231 26:0.386493 27:-0.494374 28:-0.748876 29:0.336376 30:-0.631544 31:-0.455765 32:-0.411755 33:-0.619177 34:-0.502645 35:-0.454906 36:-0.378525 37:0.139682 38:-0.004607 39:0.352833 40:-0.444322 41:-0.699434 42:-0.283517 43:-0.0625 44:-0.131369 45:-0.864107 46:-0.185721 47:-0.548947 48:-0.252168 49:-0.452441 50:-0.337618 51:-0.240977 52:0.55157 53:-0.587182 54:-0.104869 55:0.361821 56:-0.392811 57:-0.449846 58:-0.490461 59:-0.72182 60:-0.456455 61:0.134021 62:-0.409981 63:-0.699333 64:0.230335 65:-0.513526 66:-0.66928 67:-0.187048 68:-0.348441 69:0.453023 70:-0.238095 71:0.50849 72:-0.419133 73:0.154927 74:0.221931 75:-0.691153 76:-0.170771 77:-0.395082 78:-0.144472 79:-0.343202 80:0.194305 81:-0.85827 82:-0.320013 83:-0.56711 84:0.255908 85:0.13296 86:0.056922 87:-0.004519 88:-1.0 89:-0.507586 90:-0.552372 91:-0.952212 92:1.0 93:-0.951464 94:0.232714 95:0.16462 96:0.142783 97:-0.981482 98:0.145978 99:-0.590254 100:0.171357 101:-0.287268 102:0.919807 103:-0.087049 104:-0.187875 105:-0.302544 106:-0.682051 107:-0.546843 108:-0.761999 109:-0.35575 110:-0.405059 111:0.502598 112:-0.345837 113:-0.509794 114:-0.562433 115:0.217054 116:-0.502069 117:-0.75303 118:0.116897 119:-0.461958 120:-0.59333 121:-0.048941 122:-0.163754 123:-0.119285 124:-0.137255 125:-0.117187 126:-0.39738 127:-0.089616 128:-0.376302 129:0.162516 130:-0.433509 131:-0.442128 132:-0.509719 133:-0.020833 134:0.084947 135:-0.467742 136:0.322471 137:-0.217349 138:0.256248 139:-0.601412 140:-0.752575 141:0.168484 142:0.376616 143:0.394402 144:-0.918051 145:-0.621621 146:-0.891575 147:-0.563919 148:-0.896108 149:-0.924011 150:-0.582254 151:-0.0 152:-0.085739 153:-0.899007 154:-0.649192 155:-0.753848 156:-0.283759 157:1.0 158:0.829083 159:-1.0 160:-0.110468 161:-1.0 162:1.0 163:0.405653 164:-0.923142 165:0.266417 166:-0.689197 167:-0.537188 168:0.348422 169:0.016393 170:0.707828 171:-0.193265 172:0.647186 173:-0.436904 174:0.780562 175:-0.605941 176:-0.802492 177:0.353234 178:-1.0 179:0.18234 180:-0.843168 181:0.053195 182:-0.443666 183:0.307447 184:-0.600312 185:-0.77583 186:-0.318854 187:-0.057143 188:-0.021554 189:-0.903935 190:-1.0 191:-0.228643 192:-0.880338 193:0.789692 194:0.574742 195:-1.0 196:-0.553846 197:-1.0 198:1.0 199:-0.644415 200:0.798927 201:-0.734752 202:0.548994 203:-0.220176 204:-0.724398 205:-0.627119 206:-0.406457 207:-0.715292 208:-0.111769 209:-0.855626 210:0.226346 211:-0.621006 212:-0.766945 213:0.253152 214:0.222222 215:-0.067211 216:-0.925357 217:-0.653096 218:-0.404744 219:0.886347 220:-0.551654 221:-0.739561 222:-0.581497 223:0.626852 224:-0.430868 225:-0.695913 226:0.216339 227:-0.26425 228:-0.889859 229:-0.482603 230:-0.553558 231:0.626741 232:0.204188 233:0.048943 234:-0.766954 235:0.341589 236:-0.654997 237:-0.016042 238:-0.379428 239:-0.354872 240:-0.333705 241:-0.186567 242:0.808587 243:0.496212 244:0.555316 245:-0.125659 246:0.183331 247:-0.701469 248:-0.685303 249:0.746114 250:0.168961 251:0.192369 252:-0.770654 253:0.110062 254:-1.0 255:-0.7721 256:-0.939049 257:-0.967672 258:-0.659163 259:0.503546 260:-0.068032 261:-0.931813 262:-0.840879 263:-0.087036 264:0.183783 265:0.922973 266:1.0 267:-1.0 268:0.538462 269:-0.963583 270:0.788838 271:0.312363 272:-0.455319 273:-0.484271 274:-0.546899 275:-0.477031 276:-0.024503 277:-0.006135 278:0.702395 279:0.396571 280:-0.360619 281:-0.366954 282:-0.445429 283:-0.762083 284:-0.875251 285:-0.589972 286:0.551745 287:-0.126764 288:-0.955399 289:-0.218315 290:-0.242815 291:0.868903 292:-0.706186 293:-0.733458 294:-0.664762 295:0.692308 296:-0.335821 297:-0.664868 298:0.919089 299:-0.383877 300:-0.704614 301:0.366963 302:0.347318 303:0.103071 304:0.644283 305:0.851665 306:0.445339 307:0.356027 308:0.397745 309:-0.674793 310:-0.363409 311:-0.578639 312:-0.50722 313:1.0 314:-0.008595 315:-0.910954 316:0.514022 317:-0.113431 318:-0.878697 319:-0.554734 320:-0.615634 321:-0.217878 322:0.080139 323:0.249421 324:-0.640275 325:0.809039 326:0.812415 327:0.81562 328:-0.621602 329:-0.399088 330:0.876422 331:-0.261144 332:0.164625 333:-0.639629 334:-0.294764 335:-0.763919 336:0.689517 337:-0.655708 338:-0.647468 339:-0.87695 340:0.09 341:-0.004784 342:-0.573323 343:0.407851 344:-0.707778 345:-0.048645 346:-0.715404 347:-0.703031 348:-0.146541 349:-0.014085 350:0.402219 351:-0.446293 
