svm_type c_svc
kernel_type rbf
gamma 8.0
nr_class 2
total_sv 50
rho 0.9911858974358975
label 1 -1
nr_sv 11 39
SV
0.03125 1:-0.478141 2:-0.480327 3:-0.482335 4:-0.01244 5:0.09029 6:0.303048 7:-0.147462 8:0.486646 9:-0.240919 10:-0.837371 11:0.854107 12:-0.87071 13:-0.830301 14:-0.921604 15:-0.879339 16:0.169765 17:-0.060272 18:-0.84257 19:0.092957 20:0.307291 21:0.667354 22:0.019189 23:0.211865 24:0.646066 25:-0.142857 26:0.470965 27:-0.306379 28:-0.321286 29:-0.015333 30:0.293048 31:-0.579763 32:-0.447545 33:0.027457 34:0.72187 35:-0.078346 36:-0.36903 37:0.573508 38:-0.342175 39:-0.301461 40:0.12975 41:0.571073 42:0.269213 43:-0.195489 44:0.194876 45:0.005004 46:0.078814 47:-0.28654 48:-0.818706 49:-0.504001 50:-0.426536 51:0.52655 52:-0.685309 53:0.3623 54:-0.283782 55:0.242932 56:-0.322923 57:-0.695833 58:-0.80012 59:-0.887436 60:-0.396801 61:0.044025 62:-0.228219 63:-0.63142 64:-0.206538 65:0.127204 66:-1.0 67:0.520346 68:0.336153 69:-0.134681 70:0.132075 71:0.016836 72:-0.215725 73:-0.158488 74:-0.213064 75:0.309432 76:-0.872152 77:-1.0 78:-0.624361 79:-0.311828 80:-0.956495 81:-0.645906 82:0.728445 83:0.022733 84:-0.480535 85:-0.61393 86:-0.750444 87:0.069259 88:-0.010526 89:-0.269765 90:-0.772977 91:0.185165 92:0.108547 93:-0.119716 94:0.206883 95:0.464695 96:-0.010317 97:-0.944584 98:-0.004335 99:0.002855 100:0.576579 101:-0.13308 102:-0.019092 103:0.459535 104:0.84839 105:-1.0 106:0.5 107:-1.0 108:0.43231 109:-1.0 110:-0.587723 111:0.442325 112:-0.456918 113:-0.514419 114:-0.782308 115:0.3 116:-0.727229 117:-0.18388 118:-0.445391 119:-0.466914 120:-0.057885 121:-0.502791 122:-0.019795 123:0.089429 124:0.939904 125:-0.52731 126:0.497445 127:-0.499037 128:-0.171918 129:0.889129 130:-0.460139 131:-0.803354 132:-0.855739 133:0.548387 134:-0.593675 135:-0.944399 136:-1.0 137:-0.195838 138:-0.012595 139:-0.531481 140:-0.830628 141:-0.706114 142:1.0 143:-0.369394 144:-0.901066 145:-1.0 146:-0.53567 147:-0.506689 148:0.894526 149:1.0 150:-1.0 151:0.466667 152:-1.0 153:1.0 154:-0.728139 155:-0.193341 156:-0.061003 157:-0.143198 158:-0.310268 159:-0.480434 160:0.708333 161:-0.571578 162:-0.264268 163:-0.601896 164:-0.318614 165:0.027376 166:-0.728685 167:-0.660687 168:0.668678 169:-0.621622 170:-0.261294 171:-0.416879 172:-0.571569 173:0.684406 174:-0.43684 175:0.393559 176:-0.306526 177:0.186205 178:0.532402 179:-0.297397 180:-0.718823 181:0.765924 182:-0.519228 183:0.958013 184:-0.700645 185:-0.792221 186:0.658532 187:-0.688073 188:0.130236 189:-0.848906 190:0.961416 191:-0.259021 192:0.822196 193:0.101613 194:0.285299 195:1.0 196:-0.083333 197:1.0 198:1.0 199:0.213573 200:-0.544207 201:-0.657266 202:-0.056656 203:-0.180025 204:0.013669 205:-0.479675 206:-0.065193 207:-0.518879 208:-0.391902 209:0.411116 210:0.329595 211:0.615423 212:-0.185096 213:-0.277725 214:-0.235294 215:-0.01884 216:-0.711488 217:-0.669642 218:-0.629799 219:0.165689 220:-0.537487 221:-0.530309 222:-0.793775 223:-0.857143 224:-0.853503 225:-0.026051 226:-0.190549 227:-0.498234 228:-0.727956 229:-0.411785 230:-0.054493 231:0.011385 232:-0.513514 233:-0.665634 234:0.050752 235:0.800341 236:-0.150136 237:0.587174 238:-0.608696 239:-0.77745 240:0.977436 241:-0.684211 242:0.56502 243:-0.947542 244:0.827039 245:-0.172307 246:0.714534 247:-0.80702 248:-0.910244 249:0.927643 250:-0.033708 251:0.485915 252:-0.958957 253:-0.676523 254:0.261723 255:0.908054 256:0.810958 257:1.0 258:-1.0 259:-0.521094 260:-1.0 261:0.046739 262:0.113298 263:0.33515 264:0.300503 265:-0.487003 266:-0.448465 267:0.521015 268:-0.493333 269:0.082789 270:-0.760459 271:-0.107901 272:-0.503202 273:0.898087 274:-0.862676 275:-0.99031 276:-0.098651 277:-0.2 278:-0.087794 279:-0.97648 280:-0.283106 281:0.798826 282:-0.12031 283:-0.206568 284:-0.409142 285:-0.576651 286:-0.571831 287:-0.356511 288:-0.803778 289:0.494568 290:-0.57803 291:0.053476 292:-0.858526 293:-0.951894 294:0.936856 295:-0.045455 296:0.762804 297:-0.935009 298:0.16087 299:-0.213791 300:0.348583 301:0.27859 302:0.628221 303:-0.195825 304:-0.657143 305:0.954772 306:1.0 307:0.006848 308:-0.04996 309:0.061364 310:0.221145 311:-0.037009 312:-0.589386 313:0.140794 314:-0.383841 315:-0.659659 316:1.0 317:0.702931 318:0.579148 319:0.226319 320:0.064957 321:1.0 322:0.023293 323:1.0 324:-0.352 325:0.619441 326:0.618945 327:0.618393 328:-0.479302 329:-0.484532 330:0.96322 331:-0.419195 332:-0.295467 333:-0.124094 334:0.029805 335:-0.654091 336:-0.979092 337:-0.685369 338:-0.658399 339:-0.335134 340:-0.568345 341:0.676884 342:0.009224 343:0.130333 344:-0.7624 345:0.980765 346:-0.679023 347:-0.541269 348:-0.759685 349:-0.16791 350:0.513575 351:-0.030576 
0.03125 1:-0.52204 2:-0.521558 3:-0.520944 4:-0.290077 5:-0.004089 6:-0.082665 7:-0.14755 8:0.383042 9:-0.246602 10:-0.783751 11:0.820803 12:-0.854206 13:-1.0 14:-0.718865 15:-0.990682 16:0.825832 17:-1.0 18:0.862851 19:-0.129726 20:0.351145 21:1.0 22:-0.133935 23:-0.006119 24:0.288412 25:0.081633 26:0.002066 27:-0.317243 28:-0.033247 29:-0.108503 30:0.454704 31:-0.557301 32:-0.396549 33:0.082966 34:0.047894 35:0.021432 36:-0.4687 37:0.21849 38:-0.096008 39:-0.230885 40:-0.459834 41:-0.279989 42:0.593207 43:-0.06015 44:0.820014 45:0.017302 46:-0.488752 47:0.168902 48:-0.825778 49:-0.347235 50:-0.137272 51:0.544101 52:-0.407905 53:0.375585 54:0.325262 55:-0.259603 56:-0.093536 57:-0.449719 58:-0.049812 59:-0.314804 60:0.122446 61:-0.207547 62:0.421248 63:-0.325231 64:-0.145742 65:0.166737 66:-0.48596 67:0.389773 68:0.376825 69:-0.171218 70:0.056604 71:-0.023722 72:-0.244398 73:-0.074438 74:0.135698 75:1.0 76:-0.715155 77:-0.48343 78:0.580433 79:-0.201613 80:1.0 81:0.011414 82:0.413167 83:-0.532948 84:-0.675383 85:-0.500195 86:-0.433716 87:0.280782 88:-0.421053 89:0.137441 90:-0.315928 91:-0.230451 92:0.227223 93:-0.753945 94:-0.251106 95:-0.441431 96:0.129232 97:-0.289673 98:0.280815 99:-0.885341 100:-0.392206 101:0.334438 102:-0.018287 103:0.797014 104:0.188957 105:-0.70083 106:-0.35 107:-0.594598 108:-0.541253 109:-0.232116 110:-0.795618 111:0.763072 112:-0.234826 113:0.13872 114:-0.763951 115:-0.422222 116:-0.394127 117:0.566122 118:0.204968 119:-1.0 120:-0.108048 121:-1.0 122:-0.940351 123:0.198218 124:0.538462 125:-0.635463 126:0.119333 127:-0.747991 128:0.168171 129:0.885464 130:-0.47326 131:-0.810681 132:-0.872377 133:0.903226 134:-0.743828 135:-0.954053 136:0.610955 137:0.157528 138:-0.072518 139:-0.273675 140:-0.770017 141:-0.670378 142:-0.419355 143:-0.264416 144:-0.970963 145:0.400748 146:-0.155011 147:0.10641 148:-0.104109 149:-0.750862 150:0.526722 151:0.422222 152:0.239613 153:-0.921546 154:0.384831 155:-0.665004 156:-0.243935 157:-0.714294 158:-0.863282 159:-0.209228 160:-0.416667 161:-3.21E-4 162:-0.822509 163:0.823791 164:0.288339 165:-1.0 166:-0.295882 167:-0.425093 168:1.0 169:0.081081 170:1.0 171:-0.198887 172:0.61859 173:0.698608 174:-1.0 175:0.189662 176:-0.595556 177:0.695412 178:0.024142 179:0.399079 180:-0.883509 181:-0.481185 182:-0.361018 183:0.841076 184:-0.921974 185:-0.91598 186:0.672236 187:0.623853 188:0.146487 189:-0.903269 190:-0.199338 191:-0.262255 192:0.734448 193:-0.653287 194:-0.797016 195:0.472724 196:-0.75 197:0.001705 198:-0.90049 199:-0.552784 200:-0.421532 201:-0.858331 202:-0.113783 203:-0.315949 204:0.279476 205:0.02439 206:0.260302 207:-0.275684 208:-0.163699 209:0.685031 210:0.509643 211:0.383027 212:-0.277005 213:-0.608694 214:-0.411765 215:-0.249521 216:-0.845208 217:-1.0 218:-0.763984 219:0.201916 220:-0.556094 221:-0.608606 222:-0.749863 223:0.27381 224:-0.311193 225:-0.486369 226:0.51502 227:-1.0 228:-0.649681 229:-0.943466 230:-0.767908 231:0.244591 232:0.189189 233:0.208848 234:-0.046529 235:0.893258 236:-0.167038 237:0.599525 238:-0.57505 239:-0.774432 240:0.991266 241:-0.052632 242:0.833348 243:-0.954417 244:0.42002 245:0.440711 246:0.227636 247:-0.544163 248:-0.757864 249:0.930801 250:-0.078652 251:0.546205 252:-0.970272 253:-0.142198 254:0.245343 255:0.662896 256:-0.440548 257:-0.812318 258:-0.58602 259:-0.27832 260:-0.577461 261:-0.992796 262:0.24566 263:-0.705603 264:-0.692726 265:-0.857824 266:-0.860074 267:0.528318 268:-0.44 269:0.136053 270:-0.909314 271:-0.122494 272:0.166299 273:0.943662 274:-0.62277 275:-0.714947 276:-0.100467 277:-0.44 278:-0.084512 279:-0.884171 280:0.037137 281:-0.036047 282:-0.112981 283:-0.41496 284:-0.740556 285:-0.536597 286:-0.126761 287:-0.141233 288:-0.971123 289:0.760032 290:-0.358262 291:-0.197784 292:-0.899755 293:-0.886143 294:0.919177 295:0.636364 296:0.47614 297:-0.892077 298:-0.346592 299:-0.626445 300:0.333286 301:-0.87265 302:-0.838032 303:-0.835849 304:-0.2 305:-0.065089 306:-0.901293 307:-0.208639 308:-0.003835 309:-1.0 310:-0.143047 311:-0.385396 312:-0.698258 313:0.256318 314:-0.452272 315:-0.816891 316:0.559056 317:1.0 318:-1.0 319:-0.297941 320:-0.604945 321:0.759554 322:-0.696802 323:0.464738 324:-0.967132 325:0.570431 326:0.568748 327:0.566966 328:-0.37917 329:-0.292078 330:0.934609 331:-0.674489 332:-0.456627 333:0.232535 334:-1.0 335:-0.528503 336:-0.993072 337:-0.106518 338:-0.091568 339:-0.881141 340:0.352518 341:-1.0 342:1.0 343:-0.702091 344:-0.677868 345:0.987979 346:-0.310448 347:-0.158966 348:-0.974395 349:0.761194 350:-1.0 351:1.0 
0.03125 1:-0.905372 2:-0.906196 3:-0.907043 4:-0.602275 5:-0.259048 6:-0.46627 7:-0.461136 8:-0.472824 9:-0.467493 10:-0.76252 11:0.769075 12:-0.77931 13:-0.523795 14:-0.294005 15:-0.859774 16:-0.319472 17:-0.060455 18:-0.191014 19:0.159382 20:-0.020171 21:0.46548 22:-0.358361 23:-0.150222 24:0.437718 25:0.632653 26:0.26317 27:-0.651267 28:0.298761 29:-0.254413 30:0.19632 31:-0.255503 32:-0.275623 33:0.189422 34:0.3618 35:0.146234 36:-0.574137 37:0.254022 38:-0.608173 39:-0.279352 40:-0.504865 41:-0.447082 42:0.107428 43:0.172932 44:0.001009 45:-0.438865 46:-1.0 47:1.0 48:-0.787224 49:-0.086951 50:-0.05757 51:0.651627 52:-0.169277 53:0.516395 54:-0.247855 55:0.253901 56:0.522796 57:-0.358605 58:0.785162 59:0.578929 60:0.156435 61:0.396226 62:0.20915 63:0.059583 64:0.147543 65:0.806084 66:-0.485766 67:1.0 68:0.864948 69:1.0 70:0.433962 71:0.810384 72:-0.0581 73:-0.082164 74:-0.3542 75:0.305706 76:-0.908286 77:-0.719916 78:0.227707 79:0.569892 80:0.570336 81:-0.509447 82:-0.703421 83:-0.291866 84:-0.810415 85:-0.279168 86:0.299294 87:-0.040896 88:0.168421 89:-0.294324 90:1.0 91:-0.394418 92:-0.235193 93:-0.165369 94:0.427744 95:0.643159 96:0.336013 97:-0.007557 98:0.478789 99:0.329117 100:-0.578167 101:-0.330148 102:0.020188 103:-0.200452 104:-0.007408 105:-0.13917 106:-0.45 107:-0.163799 108:-0.511367 109:0.08672 110:-0.670485 111:0.634521 112:-0.239585 113:0.055726 114:-0.638959 115:-0.244444 116:0.077579 117:-0.002261 118:0.41306 119:-0.35163 120:-0.06083 121:-0.335155 122:-0.462879 123:0.251815 124:0.461538 125:0.268995 126:-0.856558 127:0.25684 128:-0.483909 129:0.882144 130:-0.702132 131:-0.920983 132:-0.860671 133:-0.354839 134:-0.560288 135:-0.916653 136:-0.705618 137:-0.684352 138:-0.016488 139:-0.773909 140:-0.905648 141:-0.69389 142:0.612903 143:-0.314494 144:-0.783816 145:-0.516394 146:-0.303011 147:-0.407524 148:-0.105913 149:-0.448662 150:0.339497 151:0.022222 152:-0.148277 153:-0.640526 154:-0.177642 155:0.033229 156:-0.346219 157:-0.448044 158:-0.804784 159:-0.138747 160:-0.016927 161:0.229625 162:-0.896055 163:-1.0 164:0.264901 165:0.127075 166:-0.246544 167:-0.527833 168:0.660668 169:-1.0 170:-0.021033 171:-0.641269 172:-0.856443 173:0.095454 174:-0.709737 175:0.695748 176:-0.192098 177:0.218563 178:0.349428 179:-0.177977 180:-0.720375 181:-0.401031 182:-0.370942 183:0.838851 184:-0.754709 185:-0.756577 186:0.730798 187:0.633028 188:0.460989 189:-0.834289 190:-0.184202 191:-0.218466 192:0.789281 193:-0.490826 194:-0.59352 195:0.440271 196:-0.111111 197:-0.181423 198:-0.822253 199:0.403455 200:-0.253661 201:-0.63538 202:0.673713 203:1.0 204:0.566923 205:0.04065 206:0.110485 207:1.0 208:-0.285764 209:-0.367031 210:0.323825 211:-0.701009 212:-0.796644 213:-0.531921 214:-0.867647 215:0.011846 216:-0.812245 217:0.947987 218:-0.464283 219:0.226111 220:-0.113614 221:-0.221978 222:-0.645173 223:0.196429 224:0.235005 225:-0.237081 226:-0.337286 227:-0.107928 228:-0.778243 229:-0.38285 230:-0.57811 231:0.248628 232:0.567568 233:-0.072292 234:-0.901257 235:0.574999 236:-0.557006 237:0.824038 238:-0.816392 239:-0.878888 240:0.986369 241:-0.122807 242:0.720138 243:-0.943438 244:0.306982 245:-0.893207 246:0.111452 247:-0.974048 248:-0.98191 249:0.927096 250:-0.168539 251:0.418309 252:-0.951655 253:-0.663472 254:0.053357 255:0.379808 256:-0.488422 257:-0.634934 258:-0.617087 259:0.1 260:-0.735923 261:-0.872652 262:0.164746 263:0.663715 264:0.437068 265:-0.652133 266:-0.903246 267:0.529871 268:-0.173333 269:0.159532 270:-1.0 271:-0.226416 272:0.259797 273:0.966208 274:-0.598891 275:-0.737534 276:-0.103539 277:-0.32 278:-0.133768 279:-0.867398 280:-0.512993 281:1.0 282:-1.0 283:-0.0733 284:-0.303823 285:-0.551584 286:0.070422 287:-0.222786 288:-0.874005 289:0.476855 290:-0.546712 291:-0.01877 292:-0.813552 293:-0.894653 294:0.906597 295:0.227273 296:0.325718 297:-0.893731 298:-0.022502 299:-0.318107 300:0.365069 301:-0.725255 302:-0.764976 303:-0.834148 304:0.257143 305:-0.043458 306:-0.901563 307:0.332548 308:0.211636 309:0.416092 310:0.687976 311:0.968164 312:-0.378874 313:0.602888 314:-0.324452 315:-0.181411 316:0.294078 317:-0.370491 318:0.683385 319:-0.748878 320:-0.848362 321:0.754203 322:0.617055 323:0.506826 324:-0.923628 325:0.301155 326:0.268973 327:0.234015 328:0.626086 329:0.701636 330:-0.276426 331:-0.549276 332:-1.0 333:0.955651 334:0.378017 335:-0.42198 336:-0.273291 337:0.333226 338:0.384075 339:0.303207 340:0.928058 341:0.488702 342:-0.204684 343:1.0 344:-0.634048 345:0.986166 346:0.587677 347:0.639112 348:0.514065 349:-0.671642 350:1.0 351:0.080746 
0.03125 1:-0.609534 2:-0.60885 3:-0.608081 4:-0.406869 5:-0.062702 6:-0.230204 7:-0.280516 8:0.227103 9:-0.217244 10:-0.812865 11:0.821321 12:-0.835068 13:-0.608967 14:-0.634265 15:-0.994475 16:0.320939 17:-0.507989 18:-0.54579 19:0.324234 20:-0.629197 21:0.643306 22:-0.266242 23:0.328201 24:0.324927 25:-0.030612 26:0.052671 27:0.287062 28:-0.359227 29:-0.13726 30:0.139966 31:0.131351 32:0.238735 33:0.507647 34:0.066359 35:0.426859 36:-0.298197 37:0.05997 38:0.342957 39:-0.454866 40:0.062794 41:-0.369246 42:0.341539 43:-0.233083 44:0.284401 45:-0.875049 46:-0.329915 47:0.687601 48:-0.9883 49:0.43427 50:0.222687 51:0.690534 52:0.129008 53:0.455077 54:-0.476702 55:0.127469 56:-0.302687 57:-0.474027 58:-0.437315 59:-0.672443 60:-0.111245 61:0.396226 62:0.245545 63:-0.671852 64:0.120306 65:0.616857 66:-0.467491 67:0.396158 68:-0.200503 69:0.154062 70:0.04717 71:0.339405 72:-0.516934 73:0.303507 74:-0.56999 75:0.430106 76:0.406105 77:0.766318 78:1.0 79:-0.591398 80:0.628754 81:-0.032641 82:0.342156 83:0.382084 84:-0.609254 85:0.201692 86:0.120917 87:-1.0 88:0.031579 89:-1.0 90:0.420926 91:-0.225284 92:0.077544 93:1.0 94:0.288074 95:0.847116 96:0.43753 97:-0.027708 98:0.673485 99:0.926443 100:-0.815459 101:-0.80539 102:-0.005508 103:-0.08841 104:-0.109871 105:-0.582355 106:0.725 107:-0.801058 108:-0.097994 109:-0.462347 110:-0.753218 111:0.571053 112:-0.625561 113:-0.581474 114:-0.668576 115:-0.943056 116:0.061379 117:-0.666328 118:-0.042986 119:-0.354156 120:-0.214388 121:-0.541404 122:-0.485166 123:0.211803 124:-0.173077 125:0.117382 126:-0.588688 127:-0.705538 128:-0.412213 129:0.899117 130:-0.481511 131:-0.692684 132:-0.838106 133:-0.258064 134:-0.419988 135:-0.793799 136:-0.613448 137:-0.420753 138:0.007941 139:-0.167157 140:-0.777374 141:-0.742324 142:0.032258 143:-0.444782 144:-0.909063 145:-0.059817 146:-0.027147 147:-0.391178 148:-0.242922 149:-0.760031 150:0.713203 151:0.355556 152:0.653985 153:-0.926771 154:0.531651 155:0.231877 156:-0.303477 157:0.217026 158:-0.485148 159:-0.266783 160:-0.083333 161:-0.058601 162:-0.892897 163:0.322805 164:-0.59357 165:0.057302 166:-0.727524 167:-0.866863 168:0.728823 169:0.513514 170:0.115803 171:-0.942958 172:0.3088 173:-0.075734 174:-0.68672 175:-0.143427 176:-0.506888 177:0.327038 178:-0.626429 179:-0.268833 180:-0.735584 181:0.539819 182:-0.316637 183:0.857482 184:0.004945 185:-0.423193 186:0.666269 187:0.623853 188:0.24544 189:-0.754815 190:0.543297 191:-0.060402 192:0.967558 193:-0.288625 194:-0.549345 195:0.50284 196:0.055556 197:0.093278 198:-0.797183 199:-0.235178 200:-0.35318 201:-0.6251 202:0.216763 203:0.016147 204:0.620344 205:0.300813 206:0.370559 207:0.166769 208:-0.325445 209:-0.175588 210:0.336604 211:-0.674704 212:-0.827019 213:-0.497862 214:-0.147059 215:0.134395 216:-0.888039 217:-0.843355 218:-0.4656 219:0.15639 220:-0.542862 221:-0.710645 222:-0.759983 223:0.571429 224:-0.433174 225:-0.73376 226:-0.076832 227:-0.386596 228:-0.759269 229:-0.43462 230:-0.446649 231:0.285737 232:-0.027027 233:0.036174 234:-0.783943 235:0.751528 236:-0.558998 237:0.589442 238:-0.653924 239:-0.673982 240:0.982951 241:-0.403509 242:0.660196 243:-0.787861 244:0.620683 245:0.085626 246:0.048568 247:-0.610864 248:-0.794322 249:0.935724 250:0.280899 251:0.607711 252:-0.969495 253:-0.270122 254:-1.0 255:0.62869 256:-0.671536 257:-0.606415 258:-0.624006 259:-0.45 260:-0.835171 261:-0.727038 262:0.183289 263:1.0 264:0.06379 265:-0.390006 266:-0.723846 267:0.524091 268:-0.08 269:0.115201 270:-0.971461 271:-0.118695 272:-0.158714 273:0.971012 274:-0.821566 275:-0.92358 276:-0.095573 277:-0.58 278:0.040227 279:-0.96349 280:-0.024228 281:-0.415387 282:-0.138506 283:-0.536366 284:-0.622318 285:-0.551139 286:0.509859 287:-0.282106 288:-0.828738 289:0.601001 290:0.012403 291:-0.02434 292:-0.522763 293:-0.810755 294:0.86493 295:-0.134233 296:0.159398 297:-0.870388 298:-0.561199 299:-0.168417 300:0.346711 301:-0.679897 302:-0.714224 303:-0.835965 304:-0.257143 305:-0.079081 306:-0.904025 307:-0.567914 308:-0.400725 309:0.375773 310:0.240121 311:-0.292788 312:-0.898228 313:-0.610108 314:-0.876312 315:-0.932227 316:0.385021 317:-0.377422 318:0.68408 319:-0.787455 320:-0.932642 321:0.748593 322:0.263324 323:0.342874 324:-0.980202 325:0.751579 326:0.7527 327:0.753797 328:-0.726957 329:-0.679682 330:0.991538 331:-0.879104 332:-0.442016 333:0.188257 334:-0.155932 335:-0.777672 336:-0.947834 337:-0.800803 338:-0.749477 339:-0.364033 340:0.582734 341:-0.270518 342:-0.266236 343:0.476953 344:-0.748723 345:0.973096 346:-0.786705 347:-0.769876 348:-0.759231 349:-0.014925 350:0.958991 351:-0.089291 
0.03125 1:-0.727583 2:-0.724 3:-0.720328 4:-1.0 5:-1.0 6:-0.433399 7:-0.013791 8:-0.013803 9:-0.683174 10:-0.893662 11:0.903368 12:-0.913733 13:-0.855358 14:-0.767673 15:-0.918476 16:1.0 17:-0.292607 18:-0.521672 19:0.298067 20:-0.433258 21:0.667224 22:-0.617585 23:-0.024164 24:0.40486 25:0.377551 26:0.242891 27:0.026553 28:-0.407918 29:0.13843 30:-0.012662 31:-0.162476 32:-0.554261 33:0.214508 34:-0.136757 35:0.162612 36:-0.925679 37:-0.054499 38:0.288064 39:-0.492098 40:-0.092761 41:-0.206064 42:0.097205 43:-0.323308 44:5.66E-4 45:-0.797905 46:-0.043177 47:0.20876 48:-0.832453 49:-0.371015 50:-0.388298 51:0.547376 52:-0.598807 53:0.386221 54:-0.210756 55:-0.161522 56:0.895457 57:0.485399 58:0.440555 59:0.044111 60:-0.713122 61:0.597484 62:-0.431194 63:-0.559723 64:-0.212668 65:-0.670939 66:-0.486442 67:-0.846291 68:-1.0 69:-0.271132 70:0.075472 71:-0.515093 72:-0.297757 73:0.455497 74:-0.244331 75:0.922884 76:-0.475666 77:-0.006903 78:-0.239029 79:-0.247312 80:-0.251864 81:-0.413593 82:0.200939 83:-1.0 84:-0.679812 85:-1.0 86:-1.0 87:0.283896 88:0.110526 89:0.113339 90:-0.798316 91:-0.139661 92:-0.631018 93:0.06676 94:-1.0 95:-1.0 96:0.175489 97:0.123426 98:0.695169 99:-0.397007 100:0.252397 101:-0.948279 102:-0.011925 103:-0.540985 104:-0.155516 105:-0.043011 106:-0.1875 107:0.023748 108:-0.17952 109:-0.388449 110:-1.0 111:0.607152 112:-1.0 113:-0.979737 114:-0.685727 115:-0.377778 116:-0.205948 117:-0.915852 118:0.356133 119:-0.492925 120:-0.009451 121:-0.637361 122:-0.662686 123:0.186934 124:0.384615 125:-0.098309 126:-0.761775 127:-0.353501 128:-0.175471 129:0.879554 130:-0.636342 131:-0.81513 132:-0.858852 133:0.774194 134:-0.562832 135:-0.859319 136:0.113686 137:0.171328 138:-1.0 139:-0.402862 140:-0.838371 141:-0.817098 142:-0.612903 143:-0.720317 144:-0.882593 145:0.692339 146:0.195368 147:-0.203187 148:0.030349 149:-0.487825 150:0.710704 151:-0.733333 152:0.596883 153:-0.884845 154:1.0 155:-0.890681 156:-0.255797 157:-0.800893 158:-0.80926 159:-0.19174 160:0.333333 161:0.078138 162:-0.796787 163:-0.084567 164:-0.273893 165:0.071373 166:-0.027795 167:-0.255201 168:0.881379 169:0.131757 170:0.508082 171:-0.491192 172:-0.507471 173:-0.653857 174:-0.810907 175:-1.0 176:-1.0 177:0.451833 178:0.024142 179:-0.124637 180:-0.785408 181:-0.163752 182:-0.754487 183:0.826734 184:-0.766547 185:-0.952932 186:0.721996 187:0.412844 188:0.420947 189:-0.938428 190:-0.446671 191:-0.474393 192:0.672205 193:-0.862957 194:-0.882272 195:0.474579 196:-0.444444 197:0.048641 198:-0.911873 199:-0.4479 200:-1.0 201:-0.632692 202:-1.0 203:-1.0 204:-0.183283 205:0.04065 206:-0.291371 207:-0.585189 208:-0.246816 209:-0.48183 210:0.378509 211:-0.645916 212:-0.766291 213:-0.501227 214:-0.338235 215:0.10297 216:-0.695443 217:-0.37447 218:-0.681281 219:0.278384 220:-0.89244 221:-0.963358 222:-0.739949 223:0.619048 224:-0.325851 225:-0.890109 226:-5.77E-4 227:-0.480856 228:-0.939682 229:-0.690622 230:-0.902962 231:0.25061 232:0.108108 233:0.031049 234:-0.912111 235:0.839594 236:0.059157 237:0.649754 238:-0.652056 239:-0.795779 240:0.986027 241:-0.140351 242:0.732852 243:-0.973687 244:0.560701 245:0.368084 246:0.1746 247:-0.651726 248:-0.886076 249:0.929884 250:0.123596 251:0.536457 252:-1.0 253:-0.317811 254:-0.039102 255:0.693341 256:-0.429368 257:-0.537622 258:-0.658522 259:0.25 260:-0.919338 261:-0.768528 262:0.17661 263:-0.988042 264:0.071645 265:-0.872106 266:-0.839353 267:0.531698 268:-0.6 269:0.219911 270:-0.857256 271:-0.280112 272:-0.183295 273:0.949498 274:-0.538196 275:-0.67723 276:-0.088244 277:-0.5 278:0.107078 279:-0.830057 280:-0.272243 281:-0.663917 282:-0.131441 283:-0.843962 284:-0.918056 285:-0.541389 286:0.08169 287:-0.151959 288:-0.927103 289:0.460271 290:-0.493801 291:0.031815 292:-0.849632 293:-0.922648 294:0.91936 295:0.75 296:0.493293 297:-0.933184 298:-0.256468 299:-0.497828 300:0.329173 301:-0.962148 302:-1.0 303:-0.834708 304:-0.771429 305:0.009158 306:-1.0 307:-0.324203 308:-0.891984 309:0.379571 310:-1.0 311:-1.0 312:-0.811566 313:-0.148014 314:-0.810884 315:-0.920088 316:0.369781 317:-0.690543 318:0.689519 319:-0.828069 320:-0.786923 321:0.753683 322:-0.191473 323:0.527562 324:-0.807159 325:0.845705 326:0.847045 327:0.848368 328:-0.907619 329:-0.874331 330:0.999624 331:0.277971 332:0.478607 333:-0.566643 334:-0.247481 335:-0.59743 336:-0.922119 337:-0.902972 338:-0.947086 339:-0.359865 340:-1.0 341:-0.064361 342:-1.0 343:0.325281 344:-0.760946 345:0.986928 346:-0.901998 347:-0.921552 348:-0.768218 349:-0.432836 350:0.308932 351:-0.961908 
0.03125 1:1.0 2:1.0 3:1.0 4:0.827601 5:0.461275 6:-1.0 7:0.065598 8:-0.560181 9:-0.964801 10:-0.081869 11:0.216725 12:-0.339196 13:-0.754602 14:-0.852882 15:-0.875826 16:0.110568 17:-0.062843 18:-0.884664 19:0.046841 20:-0.170765 21:0.588837 22:0.109081 23:0.381489 24:-0.213385 25:0.272959 26:-0.569703 27:-0.171969 28:-0.685266 29:-0.105213 30:0.117335 31:-0.320851 32:-0.080476 33:-0.535161 34:0.290248 35:-0.924446 36:0.295387 37:0.322641 38:-0.717252 39:-0.290203 40:0.076516 41:-0.030272 42:-0.091776 43:-0.12782 44:-0.207773 45:-0.384204 46:0.944109 47:-0.914264 48:-0.819001 49:0.154762 50:0.056782 51:0.676401 52:-0.360179 53:0.495006 54:0.303074 55:-0.414047 56:0.168621 57:-0.43187 58:0.024496 59:-0.415288 60:-0.622456 61:0.924528 62:-0.430097 63:-0.805774 64:0.03052 65:-0.333987 66:-0.494473 67:-0.237118 68:-0.477958 69:0.171372 70:-0.084906 71:0.631116 72:-0.281645 73:0.194741 74:0.40673 75:0.385742 76:0.009729 77:0.326161 78:0.158377 79:-0.258064 80:0.12215 81:-0.596037 82:-0.197759 83:0.132341 84:-0.645323 85:0.145078 86:-0.244679 87:0.085599 88:-0.336842 89:-0.02717 90:-0.621541 91:1.0 92:0.60625 93:-0.285639 94:0.603471 95:0.689377 96:-0.65631 97:-0.239295 98:-0.76923 99:-0.053147 100:0.135981 101:-0.533299 102:-0.015529 103:-0.251636 104:-0.379855 105:-0.201301 106:0.55 107:-0.266719 108:-0.605594 109:-0.101548 110:-0.389483 111:0.668082 112:-0.042298 113:0.081553 114:-0.613117 115:-1.0 116:0.086567 117:-0.400996 118:0.105743 119:-0.716357 120:1.0 121:-0.805583 122:-0.870977 123:0.184533 124:0.519231 125:-0.35917 126:-0.686751 127:-0.792713 128:0.051315 129:0.899843 130:-0.510227 131:-0.80704 132:-0.878719 133:0.774194 134:-0.809603 135:-0.958085 136:-0.122052 137:0.147283 138:0.189364 139:-0.539367 140:-0.94659 141:-0.773566 142:-0.064516 143:-0.630377 144:-0.95426 145:-0.223188 146:-0.207206 147:-0.428948 148:-0.399209 149:-0.809993 150:0.598683 151:-0.555556 152:0.373021 153:-0.896829 154:-0.357064 155:-0.639783 156:-0.228015 157:-0.665759 158:-0.736685 159:-0.341799 160:0.333333 161:-0.53084 162:-0.534589 163:-0.257025 164:-0.272548 165:0.12102 166:-0.799213 167:-0.802981 168:0.695848 169:0.527027 170:-0.136107 171:-0.729174 172:-0.105559 173:0.043169 174:-0.198468 175:-0.27716 176:-0.864033 177:0.427004 178:0.024142 179:-0.065439 180:-0.983521 181:-0.14704 182:-0.618489 183:0.824328 184:-0.339936 185:-0.549551 186:0.709281 187:0.33945 188:0.336345 189:-0.822454 190:0.265568 191:-0.270788 192:0.732844 193:-0.517187 194:-0.764169 195:0.467829 196:-0.833333 197:-0.034584 198:-0.860547 199:0.625519 200:-0.478012 201:-0.622624 202:0.155403 203:0.142474 204:0.712275 205:0.04065 206:0.49345 207:0.117558 208:-0.260231 209:-0.236766 210:0.353241 211:-0.338155 212:-0.647646 213:-0.681844 214:-0.397059 215:-0.43747 216:-0.849358 217:-0.010745 218:-0.277981 219:0.005859 220:-0.426034 221:-0.634736 222:-0.744394 223:0.571429 224:-0.202162 225:-0.821574 226:-0.391716 227:-0.7863 228:-0.753923 229:-0.832529 230:-0.931157 231:0.195761 232:-0.351351 233:-0.335245 234:-0.835148 235:0.633706 236:-0.599064 237:0.608559 238:-0.580233 239:-0.785178 240:0.99698 241:-0.122807 242:0.938386 243:-0.95751 244:0.669148 245:-0.608331 246:0.092934 247:-0.807561 248:-0.895172 249:0.931857 250:-0.52809 251:0.579136 252:-0.967344 253:-0.328442 254:-0.346834 255:0.568459 256:-0.728023 257:-0.907602 258:-0.598147 259:0.35 260:-0.64807 261:-0.950108 262:0.064046 263:-0.468618 264:0.147468 265:-0.79125 266:-0.857928 267:0.531199 268:-0.026667 269:0.19243 270:-0.937244 271:-0.167083 272:-0.379551 273:0.956449 274:-0.820938 275:-0.93705 276:-0.098638 277:0.28 278:-0.077132 279:-0.953705 280:-0.279531 281:0.41556 282:-0.100892 283:-0.562249 284:-0.864487 285:-0.545916 286:-0.752113 287:-0.227725 288:-1.0 289:0.363896 290:-0.259509 291:-0.059754 292:-0.643774 293:-0.713058 294:0.89865 295:-0.261364 296:0.341025 297:-0.795156 298:-0.354162 299:-0.175504 300:0.390252 301:-0.73895 302:-0.797881 303:-0.834275 304:-0.371429 305:-0.043618 306:-0.930455 307:0.017695 308:-0.26466 309:0.445904 310:0.006705 311:-0.102705 312:-0.613124 313:-0.898917 314:-0.324574 315:-0.647496 316:0.46471 317:-0.223751 318:0.654669 319:-0.625828 320:-0.785513 321:0.75104 322:-0.191473 323:0.412382 324:-0.912607 325:-1.0 326:-1.0 327:-1.0 328:0.211599 329:-0.012857 330:0.97282 331:-0.493031 332:0.90837 333:-0.912541 334:-0.282208 335:-0.070894 336:-0.954351 337:-0.251682 338:-0.503694 339:-0.34104 340:0.330935 341:0.101252 342:-0.886554 343:0.273196 344:-0.084537 345:0.979145 346:-0.287508 347:-0.473722 348:-0.711724 349:-0.253731 350:0.501683 351:-0.824841 
0.03125 1:-0.588395 2:-0.586894 3:-0.58528 4:-0.470161 5:-0.334404 6:-0.213533 7:-0.633416 8:0.395769 9:-0.249751 10:-0.949023 11:0.941451 12:-0.938229 13:-0.725451 14:-0.764071 15:-0.901783 16:-0.145303 17:-0.186901 18:-0.802394 19:0.275141 20:-0.777076 21:0.707864 22:-0.252333 23:0.948946 24:0.276394 25:0.096939 26:-0.028787 27:1.0 28:0.520258 29:-0.982847 30:0.138235 31:-0.552141 32:-0.180737 33:-0.370942 34:0.435661 35:-0.79536 36:0.043565 37:-0.176883 38:-1.0 39:-0.291001 40:-1.0 41:-0.984949 42:0.177581 43:-0.578947 44:0.163508 45:-0.689924 46:-0.251064 47:0.572638 48:-0.833357 49:-0.226764 50:-0.341411 51:0.619862 52:0.236391 53:0.496884 54:-0.617896 55:-0.342693 56:-0.06083 57:-0.459716 58:0.487782 59:0.233241 60:0.042362 61:0.798742 62:0.186635 63:-0.212667 64:0.003329 65:0.383433 66:-0.480886 67:0.12193 68:-0.427009 69:-0.388989 70:-0.358491 71:-0.341619 72:-0.633034 73:-0.147635 74:-0.077577 75:0.388433 76:0.032845 77:0.496786 78:0.410928 79:0.354839 80:0.339125 81:0.46232 82:0.255815 83:0.468445 84:-0.714902 85:-0.128031 86:-0.394715 87:0.043034 88:0.526316 89:-0.133052 90:-0.80878 91:-0.436867 92:-0.55479 93:-0.194368 94:0.757271 95:0.875264 96:-0.939715 97:-0.581864 98:-1.0 99:0.336991 100:-0.585684 101:0.158826 102:-0.017007 103:0.034009 104:0.185974 105:0.064849 106:0.5 107:0.111105 108:-0.61426 109:-0.203371 110:-0.807089 111:0.640124 112:-0.467084 113:-0.271749 114:-0.64005 115:-0.444444 116:0.194137 117:-0.214035 118:0.371429 119:-0.279816 120:-0.075159 121:-0.550578 122:-0.746435 123:0.199435 124:0.961538 125:0.040527 126:-0.966757 127:0.021044 128:-0.321122 129:0.892186 130:-0.608534 131:-0.86636 132:-0.856661 133:-0.129032 134:-0.546151 135:-0.940876 136:-0.14849 137:-0.222938 138:-0.020297 139:-0.423393 140:-0.735559 141:-0.720912 142:0.322581 143:-0.414222 144:-0.835224 145:-0.098331 146:-0.541631 147:-0.459315 148:-0.627583 149:-0.742011 150:0.632376 151:-0.088889 152:0.478249 153:-0.809353 154:0.024483 155:-0.058839 156:-0.316921 157:-0.409873 158:-0.879338 159:-0.210232 160:0.416667 161:0.011331 162:-0.946989 163:0.366075 164:-0.301642 165:-0.011609 166:-0.357564 167:-0.568234 168:0.572195 169:0.135135 170:-0.361276 171:-0.488973 172:0.154295 173:-0.116881 174:-0.66934 175:-0.211386 176:-0.800036 177:0.325698 178:-0.463786 179:-0.300645 180:-0.916277 181:-0.257004 182:-0.271374 183:0.830129 184:-0.422703 185:-0.630377 186:0.753046 187:-0.541284 188:0.473858 189:-0.86202 190:0.313098 191:-0.038565 192:0.88684 193:-0.637766 194:-0.78215 195:0.471094 196:-0.513889 197:-0.011372 198:-0.937541 199:-0.863909 200:-0.116331 201:-0.687364 202:0.617007 203:-0.008736 204:-0.92984 205:0.203252 206:-0.686494 207:-0.722463 208:-0.318906 209:-0.200826 210:0.394172 211:-0.289786 212:-0.526915 213:-0.717017 214:-0.470588 215:-0.496662 216:-0.653507 217:-0.254879 218:-0.456558 219:0.587781 220:-0.555721 221:-0.680226 222:-0.753223 223:0.208333 224:-0.355926 225:-0.691447 226:0.155192 227:-0.456264 228:-0.759012 229:-0.537366 230:-0.701176 231:0.268254 232:0.405405 233:0.029752 234:-0.862646 235:0.736192 236:0.049659 237:0.555495 238:-0.656537 239:-0.795516 240:0.98767 241:0.263158 242:0.771451 243:-0.961564 244:0.470895 245:-0.007618 246:0.192771 247:-0.736558 248:-0.83265 249:0.930682 250:-0.213483 251:0.550027 252:-0.936889 253:-0.49987 254:-0.117387 255:0.625968 256:-0.585394 257:-0.771634 258:-0.598746 259:-0.634375 260:-0.644509 261:-0.924067 262:0.182193 263:-0.34827 264:0.1212 265:-0.711326 266:-0.830121 267:0.538464 268:-0.706667 269:0.289364 270:-0.892679 271:-0.320178 272:-0.091947 273:0.942664 274:-0.592117 275:-0.669479 276:-0.092243 277:-0.28 278:0.061687 279:-0.821504 280:-0.302115 281:0.407103 282:-0.143155 283:-0.451604 284:-0.713449 285:-0.541312 286:-0.121127 287:-0.177656 288:-0.954986 289:0.725903 290:-0.270282 291:-0.260392 292:-0.718914 293:-0.742141 294:0.93124 295:0.227273 296:0.649805 297:-0.771734 298:-0.190922 299:-0.48772 300:0.339983 301:-0.870928 302:-0.879127 303:-0.838276 304:0.428571 305:-0.148673 306:-0.935577 307:-0.197831 308:0.589293 309:0.415718 310:0.371804 311:-0.139063 312:-0.987104 313:0.487365 314:-0.974611 315:-0.956118 316:0.475738 317:-0.150868 318:0.693027 319:-0.654104 320:-0.761699 321:0.749116 322:-0.191473 323:0.375813 324:-0.917559 325:0.677698 326:0.678847 327:0.679946 328:-0.649984 329:-0.631108 330:0.987309 331:-0.503247 332:-0.205349 333:-0.143136 334:-0.257201 335:-0.714714 336:-0.952358 337:-0.656986 338:-0.674238 339:-0.35338 340:0.330935 341:0.172125 342:-0.658535 343:0.266796 344:-0.675715 345:0.987327 346:-0.649379 347:-0.616166 348:-0.762426 349:-0.201493 350:0.377956 351:-0.594334 
0.03125 1:-0.140381 2:-0.139598 3:-0.138632 4:0.032221 5:0.145007 6:-0.024026 7:-0.411892 8:0.066583 9:-0.621589 10:-0.53709 11:0.574765 12:-0.61544 13:-0.444134 14:-0.26716 15:-0.899059 16:-0.028865 17:-0.175966 18:-0.461628 19:0.358797 20:-0.022917 21:0.631703 22:-0.181804 23:-0.3232 24:0.242986 25:0.081633 26:-0.073155 27:-0.996627 28:-0.727697 29:0.638505 30:0.045768 31:-1.0 32:-0.302183 33:0.0179 34:1.0 35:-0.092395 36:0.336214 37:0.503122 38:0.336642 39:-0.182496 40:0.365902 41:0.349663 42:0.251017 43:-0.353383 44:0.156475 45:-0.555094 46:-0.127411 47:0.444026 48:-0.832686 49:0.569362 50:0.355182 51:0.542321 52:-0.503356 53:0.278944 54:-0.45209 55:0.143789 56:-0.033306 57:-0.505817 58:0.140233 59:-0.5197 60:-0.381086 61:0.320755 62:-0.160964 63:-0.891586 64:-0.334636 65:-0.122906 66:-0.491891 67:-0.361076 68:-0.182312 69:-0.190947 70:-0.471698 71:-0.106062 72:-0.151381 73:-0.158228 74:0.189398 75:0.56948 76:-0.552144 77:-0.424164 78:0.116193 79:-1.0 80:0.22475 81:-0.682169 82:0.116073 83:0.082601 84:-0.804829 85:0.296603 86:-0.007749 87:-0.81471 88:0.11579 89:-0.758509 90:-0.046992 91:0.120723 92:0.662596 93:0.159115 94:0.480402 95:-0.121498 96:0.088207 97:0.143577 98:0.138238 99:-0.990602 100:0.15549 101:-0.478623 102:-0.073925 103:-0.19071 104:-0.343905 105:0.02769 106:0.15 107:0.096694 108:-0.53712 109:-0.341981 110:0.181787 111:0.574366 112:0.222871 113:0.009788 114:-0.766519 115:-0.044444 116:-0.221535 117:-0.841129 118:0.04366 119:-0.390709 120:0.0169 121:-0.4848 122:-0.517415 123:0.187429 124:-0.692308 125:7.93E-4 126:-0.69737 127:-0.837852 128:-0.400959 129:0.88845 130:-0.549446 131:-0.728087 132:-0.868447 133:0.258065 134:-0.703281 135:-0.884158 136:-0.037365 137:-0.510018 138:-0.043382 139:-0.832068 140:-0.950772 141:-0.715445 142:0.032258 143:-0.44212 144:-0.872028 145:0.223286 146:-0.32376 147:-0.540333 148:0.020718 149:-0.428545 150:0.540464 151:0.755556 152:0.286493 153:-0.811773 154:0.554809 155:-0.229945 156:-0.062456 157:-0.56188 158:-0.785231 159:-0.174533 160:-0.666667 161:0.130339 162:-0.81183 163:-0.204673 164:-0.385027 165:0.004177 166:-0.436508 167:-0.693245 168:0.92281 169:0.189189 170:0.893361 171:-0.552546 172:0.07176 173:-0.443679 174:-0.345641 175:-0.561753 176:-0.73605 177:0.344816 178:-0.301144 179:-0.442853 180:-0.625455 181:0.548185 182:-0.084354 183:0.821253 184:-0.350413 185:-0.73545 186:0.640809 187:0.174312 188:0.144362 189:-0.907359 190:-0.441537 191:0.700977 192:0.678279 193:-0.281198 194:-0.64547 195:0.470242 196:-0.166667 197:-0.025182 198:-0.940497 199:0.603739 200:-0.461795 201:-0.595601 202:-0.378065 203:-0.343148 204:-0.189078 205:0.235772 206:-0.291838 207:-0.607734 208:-0.390307 209:-0.319411 210:0.484568 211:-0.408183 212:-0.532061 213:-0.501827 214:-0.180147 215:-0.010009 216:-0.607542 217:-0.406821 218:-0.338968 219:0.171608 220:-0.199522 221:-0.562868 222:-0.804548 223:0.238095 224:-0.464642 225:-0.841625 226:-0.583986 227:-0.486905 228:-0.753642 229:-0.535111 230:-0.654595 231:0.23055 232:1.0 233:-0.101096 234:-0.875734 235:0.653846 236:-0.474524 237:0.603844 238:-0.72404 239:-0.820942 240:0.982831 241:-0.122807 242:0.62479 243:-0.912406 244:0.654723 245:-0.689972 246:1.0 247:-0.985435 248:-0.921286 249:0.9329 250:-0.348315 251:0.663225 252:-0.922482 253:-0.373493 254:-0.015089 255:0.676463 256:-0.537826 257:-0.70592 258:-0.571098 259:-0.6 260:-0.484655 261:-0.916698 262:0.299259 263:-0.525237 264:0.099616 265:-0.81225 266:-0.917992 267:0.527015 268:-0.386667 269:0.110832 270:-0.952371 271:-0.009521 272:-0.419223 273:0.955308 274:-0.746192 275:-0.788753 276:-0.099838 277:-0.415 278:-0.098236 279:-0.873131 280:0.058125 281:-0.700867 282:-0.130639 283:-0.744794 284:-0.76649 285:-0.542902 286:-0.042254 287:-0.194684 288:-0.853021 289:0.827284 290:-0.1531 291:-0.051114 292:-0.6389 293:-0.843702 294:0.929465 295:0.196023 296:0.623406 297:-0.956137 298:-0.195514 299:-0.080507 300:0.335538 301:-0.666499 302:-0.831352 303:-0.826268 304:0.714286 305:0.067508 306:-0.951033 307:-0.275255 308:-0.072308 309:0.584951 310:-0.255373 311:-0.388372 312:-0.840178 313:-0.148014 314:-0.837688 315:-0.880858 316:0.233885 317:-0.120094 318:0.690855 319:-0.594724 320:-0.676558 321:0.739354 322:-0.242006 323:0.223161 324:-0.858691 325:0.46187 326:0.463235 327:0.464548 328:-0.490392 329:-0.557178 330:0.976633 331:-0.688232 332:0.132219 333:-0.537425 334:-0.251772 335:-0.458396 336:-0.933066 337:-0.450969 338:-0.608687 339:-0.332629 340:-0.683453 341:0.230871 342:-0.859385 343:0.267456 344:-0.085198 345:0.995164 346:-0.461096 347:-0.579679 348:-0.742217 349:0.119403 350:0.480778 351:-0.810888 
0.03125 1:-0.597517 2:-0.595965 3:-0.594279 4:-0.482818 5:0.030615 6:-0.085834 7:-0.338099 8:0.863578 9:0.866887 10:-0.934013 11:0.935251 12:-0.937671 13:-0.837373 14:-0.513193 15:-0.890339 16:-0.670254 17:-0.122658 18:-0.104404 19:0.034905 20:0.707216 21:0.641767 22:-0.107051 23:0.267369 24:0.974947 25:-0.438776 26:1.0 27:0.146693 28:0.013556 29:0.274561 30:0.30428 31:0.072661 32:-0.044726 33:1.0 34:0.112522 35:1.0 36:0.288396 37:-0.097679 38:-0.65776 39:-0.300962 40:-0.207041 41:0.330982 42:0.341381 43:0.045113 44:0.334858 45:0.377164 46:-0.172026 47:0.228369 48:-0.8324 49:-0.450427 50:-0.306042 51:0.538928 52:-1.0 53:0.381628 54:0.073401 55:-0.331673 56:-0.380392 57:-0.553942 58:-0.988385 59:-0.906574 60:-0.334423 61:0.27044 62:-0.088541 63:-0.368919 64:-0.263806 65:-0.029367 66:-0.488095 67:-0.262215 68:-0.753329 69:-0.018932 70:0.40566 71:0.257613 72:-0.619995 73:-0.065588 74:0.013881 75:0.452845 76:-0.287369 77:-0.148635 78:-0.717893 79:-0.11828 80:-0.772044 81:-0.320303 82:0.316808 83:-0.388443 84:-0.638571 85:-0.46149 86:-0.219257 87:0.031396 88:0.042105 89:-0.267074 90:0.025783 91:-0.075441 92:0.36473 93:-0.218613 94:0.157734 95:-0.161326 96:0.414015 97:-0.139798 98:0.694239 99:-0.688671 100:-0.448014 101:-1.0 102:-0.010199 103:-0.359363 104:-0.072607 105:-0.570701 106:-0.3 107:-0.935756 108:0.533323 109:0.56928 110:-0.822558 111:0.638271 112:-0.419932 113:-0.37401 114:-0.561929 115:-0.244444 116:0.617024 117:0.042156 118:0.377315 119:-0.601153 120:-0.097694 121:-0.729424 122:-0.789801 123:0.222489 124:-0.0 125:0.202652 126:-0.745663 127:-0.504171 128:-0.440948 129:0.874658 130:-0.44874 131:-0.592561 132:-0.891548 133:0.08871 134:-0.910855 135:-0.794636 136:-0.030354 137:-0.39475 138:1.0 139:-0.23652 140:-0.675216 141:-0.544926 142:-0.145161 143:0.056492 144:-0.76602 145:-0.511508 146:0.076105 147:-0.278776 148:0.243718 149:-0.457831 150:1.0 151:0.466667 152:1.0 153:-0.736983 154:-1.0 155:-1.0 156:-0.233459 157:-0.716937 158:-0.826345 159:-0.277293 160:0.208333 161:-0.293231 162:-0.830217 163:-0.113171 164:-0.346355 165:-0.071916 166:-0.981378 167:-0.959169 168:0.793767 169:0.135135 170:0.724795 171:-0.777668 172:-0.207653 173:-1.0 174:-0.614289 175:-0.817573 176:-0.838049 177:0.381192 178:0.512071 179:-0.478307 180:-0.593433 181:-0.64405 182:0.018982 183:0.898983 184:-0.398409 185:-0.824755 186:0.711144 187:-0.266055 188:0.344135 189:-0.942169 190:0.680795 191:0.194717 192:0.450046 193:-0.399503 194:-0.680047 195:0.47336 196:0.361111 197:-0.009506 198:-0.910605 199:-0.329894 200:0.044911 201:-0.599908 202:0.460257 203:0.08369 204:0.33044 205:0.512195 206:0.046273 207:-0.459585 208:-0.133635 209:-0.058966 210:0.296946 211:-0.605807 212:-0.64694 213:-0.623739 214:0.117647 215:-0.346928 216:-0.671985 217:0.175552 218:-0.69627 219:0.976649 220:-0.672165 221:-0.767201 222:-0.723188 223:-0.333333 224:0.137942 225:-0.737338 226:0.73256 227:-0.610162 228:-0.756048 229:-0.654071 230:-0.808723 231:0.233089 232:-0.891892 233:-0.071587 234:-0.892273 235:0.850175 236:-0.443209 237:0.605065 238:-0.481903 239:-0.666408 240:0.990672 241:-0.473684 242:0.807199 243:-0.933089 244:0.523323 245:-0.405291 246:0.125062 247:-0.608251 248:-0.648298 249:0.93445 250:0.370787 251:0.591814 252:-0.864179 253:-0.568241 254:-0.059886 255:0.628637 256:-0.313168 257:-0.526761 258:-0.601052 259:0.3 260:-0.643588 261:-0.889208 262:0.077312 263:-0.74174 264:0.118911 265:-0.787395 266:-0.81674 267:0.517312 268:-0.546667 269:-0.068215 270:-0.816262 271:-0.315266 272:-0.900817 273:0.948599 274:-1.0 275:-0.979995 276:-0.095443 277:-0.62 278:0.133447 279:-0.845995 280:-0.139284 281:-0.659892 282:-0.14148 283:-0.889852 284:-0.987639 285:-0.541385 286:-0.15493 287:-0.144295 288:-0.969089 289:0.358426 290:0.066726 291:0.088176 292:-0.653485 293:-0.865072 294:0.924952 295:0.545455 296:0.582231 297:-0.958427 298:-0.478567 299:0.065024 300:1.0 301:-0.754785 302:-0.857008 303:-0.836751 304:-0.2 305:-0.092878 306:-0.98331 307:0.184692 308:0.316201 309:0.429546 310:0.389768 311:0.223469 312:-0.76325 313:-0.205776 314:-0.675182 315:-0.741961 316:0.397563 317:-0.430594 318:0.680655 319:-0.742473 320:-0.909571 321:0.749699 322:0.819187 323:0.382233 324:-0.985157 325:0.748729 326:0.749994 327:0.751243 328:-0.739877 329:-0.632503 330:0.992649 331:-0.860299 332:-0.398247 333:0.393998 334:-0.471941 335:-0.578611 336:-0.931475 337:-0.803118 338:-0.83283 339:-0.361984 340:-0.568345 341:-0.13646 342:-0.83713 343:0.254954 344:-0.781959 345:0.984397 346:-0.847066 347:-0.857434 348:-0.766745 349:-0.671642 350:0.470596 351:-0.786917 
0.03125 1:0.09188 2:0.094853 3:0.098073 4:0.056396 5:0.267956 6:0.007283 7:-0.196605 8:0.078469 9:-0.639043 10:-0.505645 11:0.575643 12:-0.639861 13:-0.811465 14:-1.0 15:-0.888902 16:-0.1409 17:-0.118144 18:-0.846325 19:-0.15191 20:0.661839 21:0.552273 22:0.634125 23:0.590813 24:0.253197 25:-0.071429 26:0.016298 27:-0.730084 28:0.121738 29:-0.211683 30:-0.979655 31:-0.591479 32:-0.301074 33:0.357601 34:-0.08367 35:0.535233 36:-0.029778 37:0.088735 38:0.319481 39:-0.312842 40:1.0 41:0.75995 42:0.343795 43:-0.669173 44:0.180301 45:-0.330097 46:-0.436722 47:0.475395 48:-0.8414 49:-0.395248 50:-0.265572 51:0.634787 52:-0.309471 53:0.575114 54:-0.09222 55:0.254665 56:-0.028274 57:-0.45198 58:-0.210226 59:-0.632148 60:-0.774488 61:0.245283 62:-0.686416 63:-0.405074 64:-0.496235 65:-0.45592 66:-0.488984 67:0.16636 68:-0.290028 69:-0.490606 70:1.0 71:-0.465978 72:-0.477887 73:-0.012567 74:0.446313 75:0.375526 76:0.295811 77:0.226196 78:0.709192 79:0.569892 80:0.474183 81:-0.429889 82:-0.370257 83:0.186941 84:-0.603856 85:-0.546057 86:-0.579376 87:0.413493 88:-0.936842 89:0.370403 90:-0.675867 91:-0.664123 92:1.0 93:-1.0 94:0.601813 95:0.50078 96:0.042942 97:-0.037783 98:0.077971 99:-0.448422 100:-0.307095 101:-0.617436 102:0.00882 103:-0.972793 104:-0.693429 105:0.129678 106:-0.625 107:0.618644 108:9.57E-4 109:-0.766984 110:-0.492215 111:0.43192 112:-0.511063 113:-0.521838 114:-0.654744 115:0.0 116:0.120983 117:-0.63896 118:0.139304 119:-0.346882 120:-0.036834 121:-0.63464 122:-0.79851 123:0.225656 124:-0.091346 125:0.214895 126:-0.947407 127:-0.249582 128:-0.215329 129:0.899472 130:-0.31046 131:-0.675653 132:-0.857652 133:-0.032258 134:-0.643689 135:-0.896505 136:-0.172636 137:-0.971793 138:0.005161 139:-0.645421 140:-0.631821 141:-0.571558 142:-0.258065 143:0.232391 144:-0.373278 145:0.073492 146:0.403413 147:-0.588584 148:0.758924 149:-0.054289 150:0.488354 151:0.5 152:0.302857 153:-0.77027 154:0.440437 155:-0.248528 156:-0.368625 157:-0.586247 158:-0.878094 159:-0.261766 160:0.375 161:-0.184374 162:-0.873055 163:-0.017607 164:-0.042537 165:-0.014826 166:-0.60681 167:-0.886769 168:0.7754 169:0.783784 170:0.370747 171:-1.0 172:0.032424 173:-0.775618 174:-0.695551 175:-0.598114 176:-0.829253 177:0.394345 178:0.349428 179:-0.268629 180:-0.797408 181:0.526293 182:0.04834 183:0.824269 184:0.239698 185:-0.37064 186:0.571096 187:0.302752 188:0.116588 189:-0.824534 190:0.096168 191:-1.0 192:0.786738 193:-0.950869 194:-0.870347 195:0.468658 196:0.222222 197:-0.024998 198:-0.838614 199:0.228312 200:-0.026341 201:-0.703639 202:0.351953 203:0.121335 204:0.780485 205:0.691057 206:0.399608 207:0.220905 208:0.088757 209:-0.371802 210:0.348475 211:-0.674927 212:-0.793956 213:-0.646799 214:-0.5 215:-0.452794 216:-0.865527 217:-0.560734 218:-0.672653 219:0.128041 220:-0.667437 221:-0.811063 222:-0.754241 223:0.020833 224:-0.486897 225:-0.780809 226:-0.330542 227:-0.505386 228:-0.761766 229:-0.621084 230:-0.796873 231:0.277254 232:-0.351351 233:0.114519 234:-0.890705 235:0.850283 236:-0.294841 237:0.604747 238:-0.570551 239:-0.780653 240:0.990937 241:0.153509 242:0.826508 243:-0.975459 244:0.515148 245:-0.564801 246:0.093471 247:-0.771506 248:-0.79129 249:0.926989 250:-0.168539 251:0.478822 252:-0.862744 253:-0.002513 254:0.775581 255:0.652941 256:0.228373 257:-0.410472 258:-0.703399 259:0.1 260:-0.81476 261:-0.919385 262:0.259119 263:0.328103 264:0.139794 265:-0.71622 266:-0.893394 267:0.530814 268:-0.346667 269:0.176695 270:-0.992575 271:-0.149357 272:-0.503619 273:0.950509 274:-0.725885 275:-0.890959 276:-0.099031 277:0.08 278:-0.071461 279:-0.955294 280:-0.299962 281:-0.787907 282:-0.127549 283:-0.78054 284:-0.853576 285:-0.540589 286:-0.301409 287:-0.140946 288:-0.930403 289:0.481297 290:0.853709 291:-0.503596 292:-0.262042 293:-0.698145 294:0.86128 295:0.164773 296:0.311195 297:-0.928483 298:-0.350581 299:-0.849217 300:0.355035 301:-1.0 302:-0.97617 303:-0.835917 304:0.085714 305:-0.048908 306:-0.966812 307:-0.130758 308:0.225297 309:0.094869 310:0.369827 311:0.400434 312:-0.774267 313:-0.3213 314:-0.68873 315:-0.508135 316:0.395986 317:-0.254553 318:0.678802 319:-0.781414 320:-0.923077 321:0.751204 322:0.111725 323:0.426748 324:-0.985602 325:0.392784 326:0.396265 327:0.39969 328:-0.589743 329:-0.684817 330:0.99265 331:-0.764857 332:0.530755 333:-0.816396 334:-0.066546 335:-0.725809 336:-0.947919 337:-0.815269 338:-0.846889 339:-0.360045 340:0.410072 341:-0.008731 342:-0.86223 343:0.305388 344:-0.708404 345:0.988586 346:-0.851137 347:-0.881256 348:-0.767699 349:0.044776 350:0.336953 351:-0.912263 
0.03125 1:0.643769 2:0.65309 3:0.662805 4:0.021616 5:0.126756 6:-0.122366 7:-0.33012 8:-0.031199 9:-0.693492 10:-0.392648 11:0.452962 12:-0.513202 13:-0.450449 14:-0.364349 15:-0.85037 16:0.424902 17:-0.05193 18:-0.628161 19:0.459309 20:-0.551291 21:0.776239 22:0.250799 23:1.0 24:1.0 25:-0.178571 26:0.759193 27:0.643645 28:0.109073 29:-0.206563 30:0.091623 31:0.358529 32:0.26578 33:0.160408 34:-0.085978 35:0.031445 36:-0.500011 37:0.091481 38:-0.356176 39:-0.252477 40:0.25962 41:0.196485 42:0.299348 43:-0.639098 44:0.212601 45:-0.422367 46:0.587598 47:-0.365532 48:-0.867773 49:0.154142 50:0.192533 51:0.536348 52:-0.061894 53:0.302771 54:-0.0 55:-0.422969 56:-1.0 57:-0.435402 58:-0.469407 59:-0.24294 60:-0.891277 61:-0.559748 62:-1.0 63:0.831401 64:-0.472596 65:-0.181753 66:-0.490832 67:-0.079588 68:-0.111344 69:-0.060833 70:0.382596 71:0.145577 72:-0.246824 73:0.384048 74:0.144521 75:0.28736 76:-0.814414 77:-0.478694 78:-0.005087 79:0.204301 80:0.120428 81:-0.739456 82:0.676849 83:0.495839 84:-0.501674 85:0.001196 86:-0.462391 87:0.141084 88:0.2081 89:0.005231 90:-1.0 91:0.200765 92:-0.057957 93:-0.154584 94:0.309972 95:0.788443 96:-0.464912 97:0.062972 98:-0.672307 99:0.681879 100:-0.218356 101:0.06996 102:0.08339 103:0.152676 104:0.039929 105:-0.513187 106:0.1125 107:-0.609951 108:-0.201412 109:-0.062314 110:-0.196914 111:0.702797 112:-0.121073 113:-0.187953 114:-0.715969 115:-0.644444 116:-0.187287 117:-0.731937 118:0.280253 119:-0.627198 120:-0.08197 121:-0.703744 122:-0.762033 123:0.209095 124:0.307692 125:0.061413 126:-0.66107 127:-0.090215 128:-0.046156 129:0.901114 130:-0.303347 131:-0.51462 132:-0.86235 133:0.258065 134:-0.674844 135:-0.857815 136:-0.28055 137:0.116023 138:-0.087891 139:-0.051504 140:-0.59333 141:-0.73629 142:-0.548387 143:-0.419079 144:-0.823017 145:0.189382 146:0.340474 147:-0.492688 148:0.635196 149:-0.118263 150:0.738534 151:-0.377778 152:0.559526 153:-0.893781 154:0.122046 155:0.514252 156:0.088914 157:-0.465045 158:-0.79321 159:-0.313483 160:0.208333 161:-0.315065 162:-0.867457 163:0.083575 164:-0.625098 165:0.05991 166:-0.52929 167:-0.472978 168:0.766634 169:0.486487 170:0.313645 171:-0.358985 172:-0.377625 173:-0.073491 174:-0.664212 175:-0.418919 176:-0.900239 177:0.489126 178:-0.087675 179:0.105093 180:-0.950706 181:-0.266631 182:-0.096961 183:0.820473 184:-0.489221 185:-0.706847 186:0.692843 187:0.266055 188:0.287711 189:-0.84142 190:0.137494 191:0.108051 192:0.724766 193:-0.655684 194:-0.900247 195:0.460354 196:-0.166667 197:-0.092124 198:-0.972063 199:0.180309 200:-0.693224 201:-0.57993 202:-0.257592 203:-0.083279 204:0.223941 205:1.0 206:0.285985 207:0.336605 208:-0.56346 209:0.239896 210:0.449095 211:0.079724 212:-0.233802 213:-0.614444 214:-0.224265 215:-0.263352 216:-0.590576 217:-0.185242 218:-0.133554 219:-0.235476 220:-0.523868 221:-0.768926 222:-0.737133 223:0.916667 224:-0.139669 225:-0.953635 226:0.027181 227:-0.796993 228:-0.706273 229:-0.844489 230:-0.706786 231:0.239147 232:0.483108 233:0.046642 234:-0.482086 235:0.75607 236:-0.557191 237:0.608951 238:-0.605879 239:-0.587361 240:0.973341 241:-0.157895 242:0.485733 243:-0.705811 244:0.734897 245:-0.338678 246:0.138644 247:-0.659627 248:-0.770974 249:0.921632 250:0.005618 251:0.421147 252:-0.880366 253:-0.277827 254:0.762962 255:0.536656 256:-0.090627 257:-0.618135 258:-0.566563 259:0.7 260:-0.540987 261:-0.977309 262:0.133604 263:0.258601 264:0.209504 265:-0.632896 266:-0.829084 267:0.531675 268:-0.493333 269:0.180041 270:-0.971486 271:-0.266284 272:-0.223979 273:0.968951 274:-0.696019 275:-0.795554 276:-0.094222 277:-0.32 278:0.048685 279:-0.870704 280:-0.155304 281:-0.44521 282:-0.115279 283:-0.746853 284:-0.895953 285:-0.538945 286:-0.166197 287:-0.111956 288:-0.945612 289:0.5214 290:0.651062 291:0.780327 292:-0.557606 293:-0.739191 294:0.894885 295:0.727273 296:0.354822 297:-0.869911 298:-0.265765 299:-0.77219 300:0.423928 301:-0.917098 302:-0.838759 303:-0.83554 304:0.257143 305:-0.046547 306:-0.868989 307:-0.472301 308:-0.537589 309:0.397442 310:-0.246046 311:-0.314585 312:-0.71875 313:-0.841155 314:-0.468734 315:-0.703122 316:0.462211 317:0.047601 318:0.679924 319:-0.338522 320:-0.547382 321:0.755327 322:0.313857 323:0.438853 324:-0.926172 325:-0.079206 326:-0.075663 327:-0.072287 328:-0.289902 329:-0.375322 330:0.946938 331:-0.624973 332:0.175784 333:-0.552372 334:-0.344251 335:-0.028183 336:-0.947573 337:-0.416098 338:-0.539492 339:-0.322179 340:-0.079137 341:0.266973 342:-0.78105 343:0.215843 344:-0.271248 345:0.995051 346:-0.467865 347:-0.557695 348:-0.738998 349:-0.544776 350:0.525303 351:-0.647974 
-0.0087890625 1:-0.520988 2:-0.519969 3:-0.518826 4:-0.341489 5:-0.128333 6:-0.1165 7:1.0 8:0.404103 9:-0.276725 10:-1.0 11:1.0 12:-1.0 13:-0.998394 14:-0.879488 15:-0.917797 16:-0.212757 17:-0.340315 18:-0.487632 19:0.005085 20:-0.090089 21:0.6861 22:-0.22111 23:-0.023286 24:0.605502 25:-0.306122 26:0.512058 27:-0.583355 28:-0.200158 29:0.172362 30:-0.084313 31:-0.159357 32:-0.334065 33:0.314535 34:0.59146 35:0.294344 36:-0.640138 37:0.267713 38:-0.401331 39:-0.260888 40:-0.168719 41:0.029212 42:-0.56816 43:-0.383459 44:-0.898518 45:0.384752 46:-0.252661 47:-0.179416 48:-0.792819 49:-0.235152 50:-0.520793 51:0.478181 52:0.260254 53:0.236643 54:-0.862397 55:-0.401667 56:-0.131 57:-0.479091 58:-0.684302 59:-0.59778 60:-0.475543 61:0.849057 62:-0.370467 63:-0.069998 64:-0.494066 65:-0.097588 66:-0.49036 67:-0.057044 68:0.420724 69:-0.399051 70:-0.132075 71:-0.422547 72:0.590059 73:0.376639 74:-0.397994 75:0.394168 76:-0.049405 77:0.587767 78:-0.875827 79:-0.419355 80:-0.826789 81:0.710215 82:0.391467 83:0.421267 84:-0.969194 85:-0.379685 86:-0.686679 87:0.286828 88:0.052632 89:0.151643 90:-0.951823 91:0.528508 92:-0.182432 93:-0.207803 94:0.206327 95:0.355389 96:0.087362 97:0.02267 98:0.151442 99:0.023521 100:0.104321 101:-0.736649 102:-0.004715 103:-0.579827 104:-0.441323 105:-0.026625 106:0.484375 107:0.06374 108:-0.523686 109:-0.44564 110:-0.613788 111:0.654277 112:-0.138486 113:-0.112978 114:-0.750153 115:-0.266667 116:-0.295453 117:-0.435317 118:0.020603 119:-0.753059 120:-0.065443 121:-0.634313 122:-0.190441 123:0.074171 124:0.115385 125:-1.0 126:1.0 127:-0.597139 128:0.156753 129:0.876109 130:-0.299785 131:-0.69146 132:-0.876123 133:0.709677 134:-0.762309 135:-0.940018 136:-0.452501 137:-0.159219 138:0.090499 139:-0.113517 140:-0.678459 141:-0.864842 142:0.225806 143:-0.711327 144:-0.836838 145:-0.128103 146:-0.090754 147:-0.661143 148:0.929772 149:0.27631 150:0.623301 151:-0.333333 152:0.434484 153:-0.637706 154:0.669685 155:-0.080179 156:-0.151725 157:1.0 158:1.0 159:1.0 160:-0.651042 161:1.0 162:1.0 163:0.742745 164:-0.372093 165:0.052341 166:-0.490913 167:-0.702018 168:0.778755 169:-0.527027 170:0.358184 171:-0.820996 172:1.0 173:-0.084396 174:-0.569439 175:0.109555 176:-0.461257 177:0.726749 178:-0.057179 179:0.481642 180:-0.764462 181:-1.0 182:0.094019 183:0.819714 184:1.0 185:1.0 186:-1.0 187:0.412844 188:-1.0 189:1.0 190:0.63119 191:0.058676 192:0.9428 193:-0.07089 194:0.014773 195:0.839535 196:-0.194444 197:0.903259 198:0.717895 199:0.192915 200:0.240782 201:-0.547533 202:0.667617 203:0.156563 204:0.03478 205:0.430894 206:-0.164908 207:-0.503023 208:-0.057219 209:-0.070656 210:0.361227 211:1.0 212:1.0 213:0.412396 214:-0.117647 215:0.241524 216:1.0 217:-0.77015 218:-0.133153 219:0.11604 220:-0.046611 221:-0.191352 222:-0.927015 223:0.238095 224:-0.791338 225:-0.140285 226:-0.636085 227:-0.684932 228:-0.763471 229:-0.334583 230:0.423319 231:-0.187799 232:-0.155405 233:-1.0 234:1.0 235:0.364083 236:0.053555 237:0.589392 238:-0.302773 239:-0.435538 240:0.963943 241:-0.359649 242:0.574831 243:-0.825944 244:1.0 245:0.152824 246:0.185388 247:-0.364653 248:-0.442584 249:1.0 250:-1.0 251:1.0 252:-0.648295 253:1.0 254:0.494349 255:0.650271 256:1.0 257:0.782828 258:1.0 259:0.83125 260:0.630204 261:0.3952 262:-1.0 263:0.289749 264:0.347071 265:1.0 266:1.0 267:-1.0 268:-0.231667 269:-1.0 270:1.0 271:-0.411307 272:-0.261844 273:0.950737 274:-0.660934 275:-0.8437 276:-0.099101 277:0.28 278:-0.063401 279:-0.937275 280:-0.17488 281:0.163335 282:-0.085334 283:-0.466758 284:-0.68378 285:-0.536771 286:0.509859 287:-0.136041 288:-0.936643 289:-0.42334 290:0.803661 291:6.65E-4 292:1.0 293:1.0 294:-1.0 295:0.113636 296:-1.0 297:1.0 298:-1.0 299:-0.688191 300:0.34556 301:-0.328233 302:-0.251877 303:-1.0 304:0.771429 305:-1.0 306:0.42821 307:-0.516333 308:0.348068 309:0.610588 310:0.435382 311:0.131143 312:-0.88371 313:-0.826715 314:-0.82842 315:-0.872595 316:-1.0 317:0.120868 318:0.700093 319:1.0 320:1.0 321:-1.0 322:0.686538 323:-1.0 324:1.0 325:0.694667 326:0.695353 327:0.696 328:-0.625609 329:-0.618009 330:0.984508 331:-0.37028 332:-0.249722 333:-0.141034 334:-0.245559 335:-0.712528 336:-0.94557 337:-0.701345 338:-0.708821 339:-0.350545 340:-0.136691 341:0.301866 342:-0.547681 343:0.172839 344:-0.554769 345:0.999259 346:-0.751831 347:-0.701399 348:-0.764188 349:-0.134328 350:0.464863 351:-0.515213 
-0.0087890625 1:-0.204104 2:-0.207093 3:-0.209924 4:0.257357 5:0.216953 6:0.246624 7:-0.435286 8:0.112306 9:-0.724591 10:-0.71226 11:0.737748 12:-0.761532 13:-0.691749 14:-0.47223 15:-0.79271 16:0.493151 17:0.268138 18:0.093378 19:-0.25775 20:0.24399 21:0.518856 22:0.118962 23:0.500211 24:0.044204 25:-0.233418 26:-0.264187 27:-0.535916 28:-0.388684 29:0.200335 30:0.036089 31:0.609706 32:1.0 33:0.680502 34:0.029429 35:0.41933 36:0.050138 37:0.17159 38:-0.083234 39:-0.381967 40:0.116453 41:-0.238872 42:1.0 43:-0.172932 44:1.0 45:0.019015 46:0.199294 47:-0.068009 48:-0.996764 49:-0.007912 50:0.375016 51:0.31594 52:-0.385533 53:-0.023509 54:0.658099 55:0.710667 56:0.225874 57:-0.505699 58:0.429865 59:0.001758 60:1.0 61:0.849057 62:1.0 63:0.859147 64:0.203532 65:0.313987 66:-0.594428 67:0.246395 68:-0.323051 69:-0.486215 70:0.207547 71:-0.427806 72:-0.530276 73:-0.677335 74:0.664636 75:0.396143 76:-0.113772 77:0.390359 78:-0.079149 79:-0.075269 80:-0.081046 81:0.166161 82:-0.691476 83:0.538041 84:-0.978545 85:-0.113823 86:-0.437601 87:1.0 88:0.306579 89:1.0 90:-0.036977 91:0.22663 92:0.224455 93:-0.172576 94:0.337788 95:0.505358 96:-0.012365 97:-0.279597 98:-7.07E-4 99:-0.328535 100:0.70171 101:-0.345341 102:2.99E-4 103:-0.734944 104:-0.799151 105:-0.250521 106:-0.6 107:-0.454007 108:-0.722749 109:-0.175702 110:-0.113775 111:0.71479 112:0.375484 113:0.041924 114:-0.73212 115:-0.622222 116:-0.150855 117:-0.839447 118:0.193467 119:-0.509225 120:-0.129738 121:-0.624655 122:-0.731523 123:0.240202 124:-0.076923 125:0.325915 126:-0.729003 127:-0.267933 128:0.265457 129:0.886954 130:-0.173552 131:-0.598085 132:-0.89769 133:0.322581 134:-0.860658 135:-0.958008 136:-0.413862 137:0.439936 138:-0.240489 139:0.01146 140:-0.529648 141:-0.626335 142:-0.387097 143:-0.201605 144:-0.888105 145:-0.085787 146:-0.368063 147:-0.607139 148:0.132284 149:-0.346443 150:0.527332 151:-0.555556 152:0.279032 153:-0.744177 154:0.154523 155:-0.84921 156:-0.289199 157:-0.423264 158:-0.688983 159:-0.255088 160:-0.020833 161:-0.123241 162:-0.731506 163:-0.05497 164:-0.304965 165:0.302251 166:-0.631763 167:-0.762174 168:0.807682 169:0.945946 170:0.547073 171:-0.80638 172:-0.950403 173:0.133017 174:0.294845 175:0.012653 176:-0.521139 177:0.583172 178:-0.412961 179:0.262338 180:-0.768499 181:-0.704418 182:-0.363763 183:0.842641 184:-0.557786 185:-0.6882 186:0.689653 187:0.098624 188:0.274423 189:-0.799213 190:0.31209 191:-0.081683 192:0.799877 193:-0.62808 194:-0.784908 195:0.464977 196:0.166667 197:-0.05551 198:-0.92292 199:-0.368113 200:-0.283356 201:-0.64884 202:0.038007 203:-0.122345 204:0.029771 205:0.170732 206:-0.071016 207:-0.5035 208:-0.63933 209:-0.416639 210:0.354497 211:-0.470821 212:-0.734587 213:-0.586917 214:-0.198529 215:-0.221896 216:-0.863709 217:-0.156245 218:-0.193757 219:0.003627 220:-0.102991 221:-0.438908 222:-0.848399 223:-0.119048 224:-0.569753 225:-0.706685 226:0.143678 227:-0.37035 228:-0.703747 229:-0.643619 230:-0.791343 231:0.14118 232:0.567568 233:-0.502268 234:-0.84121 235:0.728596 236:0.709289 237:-0.185 238:-0.336638 239:-0.599323 240:1.0 241:-0.298246 242:0.873889 243:-0.953571 244:0.508698 245:0.335533 246:0.18865 247:-0.492757 248:-0.711168 249:0.928173 250:-0.146067 251:0.521732 252:-0.942813 253:-0.187602 254:-0.001557 255:0.620567 256:-0.29403 257:-0.73245 258:-0.586908 259:0.05 260:-0.589627 261:-0.954931 262:0.206945 263:-0.374802 264:0.207207 265:-0.650659 266:-0.779916 267:0.532213 268:-0.28 269:0.188507 270:-0.911025 271:-0.129992 272:-0.38898 273:0.947276 274:-0.803968 275:-0.895256 276:-0.100342 277:-0.52 278:-0.134516 279:-0.895574 280:-0.193441 281:0.264125 282:-0.113414 283:-0.532445 284:-0.723745 285:-0.541071 286:-0.301409 287:-0.172274 288:-0.949806 289:0.508906 290:-0.286158 291:-0.085481 292:-0.808117 293:-0.928807 294:0.929452 295:0.045455 296:0.640492 297:-0.928022 298:-0.191916 299:-0.329396 300:0.387325 301:-0.823586 302:-0.903478 303:-0.841223 304:-0.485714 305:-0.219159 306:-0.937604 307:-0.001069 308:-0.397172 309:0.370333 310:-0.058043 311:-0.309607 312:-0.840196 313:-0.263538 314:-0.811082 315:-0.747946 316:0.274944 317:-0.204224 318:0.692589 319:-0.673261 320:-0.788992 321:0.750249 322:-0.06514 323:0.397884 324:-0.921893 325:0.422354 326:0.423778 327:0.425154 328:-0.46618 329:-0.588631 330:0.979183 331:-0.718353 332:0.315482 333:-0.731282 334:-0.256498 335:-0.094309 336:-0.978359 337:-0.54924 338:-0.614941 339:-0.356817 340:-0.798561 341:0.071975 342:-0.760138 343:0.29805 344:-0.152746 345:0.753743 346:-0.627789 347:-0.671743 348:-0.765838 349:-0.119403 350:0.268141 351:-0.830081 
-0.0087890625 1:0.098301 2:0.100482 3:0.10293 4:0.121774 5:0.248512 6:0.123886 7:-0.316347 8:0.131833 9:-0.59719 10:-0.605286 11:0.651424 12:-0.697499 13:-0.666864 14:-0.469884 15:-1.0 16:-0.917808 17:-0.573161 18:-0.04874 19:0.291721 20:0.179537 21:0.648508 22:-0.043728 23:0.006025 24:0.462018 25:0.44898 26:0.245317 27:-0.744115 28:-0.48987 29:0.570833 30:-0.029351 31:-0.077798 32:0.071745 33:0.150909 34:-0.538373 35:0.067273 36:-0.053118 37:-0.399819 38:-0.252281 39:-0.293072 40:0.226649 41:-0.104862 42:0.30649 43:1.0 44:0.223563 45:-0.677712 46:0.103317 47:-0.552218 48:-0.828821 49:-0.012697 50:0.323704 51:0.050532 52:0.451156 53:-0.437123 54:0.86775 55:0.108985 56:-0.399981 57:-0.303534 58:-0.788532 59:-0.842795 60:-0.149516 61:0.31761 62:0.294849 63:-0.4081 64:0.141872 65:-0.525201 66:-0.487375 67:-0.095098 68:-0.327097 69:-0.695389 70:-0.433962 71:-0.952493 72:0.180008 73:-0.012578 74:-0.107054 75:0.161536 76:-0.165674 77:0.361526 78:-0.459891 79:-0.462366 80:-0.46165 81:0.049532 82:0.632605 83:0.462689 84:-0.249807 85:-0.372486 86:-0.571575 87:0.453113 88:0.157895 89:0.40043 90:-0.952975 91:0.654414 92:0.974001 93:-0.098513 94:0.824158 95:0.491855 96:-0.43339 97:-0.098237 98:-0.423559 99:-0.556186 100:-0.071048 101:-0.064508 102:0.07995 103:-0.248833 104:-0.447417 105:-0.31306 106:-0.525 107:-0.448672 108:-0.581407 109:-0.103131 110:-0.345337 111:0.790689 112:0.360415 113:0.165771 114:-0.351499 115:-0.188889 116:0.32879 117:-0.545907 118:0.037176 119:-0.423589 120:0.103024 121:-0.437576 122:-0.330097 123:0.409871 124:0.192308 125:1.0 126:-0.360448 127:-1.0 128:0.328663 129:0.904637 130:-0.33112 131:-0.664741 132:-0.866677 133:0.064516 134:-0.700899 135:-0.934156 136:-0.194986 137:-0.619082 138:0.011648 139:-0.58165 140:-0.753356 141:-0.695907 142:-0.645161 143:-0.329574 144:-0.758578 145:-0.082477 146:0.396217 147:-0.362059 148:0.205426 149:-0.493889 150:0.895075 151:-0.288889 152:0.857413 153:-0.83818 154:0.149763 155:-0.272821 156:-0.32071 157:-0.264107 158:-0.701862 159:-0.181392 160:-0.0 161:0.08858 162:-0.867635 163:0.121025 164:-0.204283 165:0.050688 166:-0.625891 167:-0.84001 168:0.757957 169:0.162162 170:0.28508 171:-0.95087 172:0.9826 173:-0.40213 174:-0.71923 175:-0.364035 176:-0.806172 177:0.529672 178:0.064803 179:0.221353 180:-0.942878 181:0.746102 182:-0.237887 183:0.790056 184:-0.084533 185:-0.523925 186:0.593975 187:0.119266 188:0.089417 189:-0.796848 190:0.094813 191:-0.34749 192:0.805538 193:-0.640981 194:-0.802818 195:0.462946 196:-0.166667 197:-0.071113 198:-0.881803 199:0.144679 200:0.897816 201:-0.517742 202:1.0 203:0.209252 204:0.140024 205:0.105691 206:-0.151638 207:-0.838159 208:-0.213361 209:-0.258751 210:0.357975 211:-0.389971 212:-0.644894 213:-0.62163 214:0.0 215:-0.307869 216:-0.861547 217:-0.438383 218:-0.046224 219:0.203915 220:0.064832 221:-0.369524 222:-0.866823 223:-0.583333 224:-0.490289 225:-0.706677 226:-0.331847 227:-0.514897 228:-0.74855 229:-0.340308 230:-0.342992 231:0.205889 232:-0.317568 233:-0.170332 234:-0.718575 235:0.880053 236:-0.243355 237:0.658728 238:-0.52891 239:-0.647208 240:0.988328 241:-0.052632 242:0.778305 243:-0.878484 244:0.789033 245:-0.536925 246:0.16042 247:-0.816232 248:-0.881146 249:0.927468 250:0.011236 251:0.480267 252:-0.944065 253:-0.752918 254:0.533913 255:0.600904 256:-0.245583 257:-0.591931 258:-0.665056 259:-0.096875 260:-0.864105 261:-0.899688 262:0.243908 263:-0.132939 264:0.141012 265:-0.677333 266:-0.771494 267:0.530328 268:-0.44 269:0.166739 270:-0.928317 271:-0.215918 272:-0.267077 273:0.957103 274:-0.699195 275:-0.860673 276:-0.098108 277:-0.04 278:-0.044799 279:-0.968747 280:-0.199981 281:-0.259061 282:-0.128808 283:-0.655857 284:-0.814981 285:-0.546725 286:0.149296 287:-0.252645 288:-0.945236 289:0.678954 290:0.087145 291:-0.022899 292:-0.492827 293:-0.813371 294:0.929118 295:0.409091 296:0.61188 297:-0.958194 298:-0.401479 299:-0.327125 300:0.33656 301:-0.78334 302:-0.849361 303:-0.837691 304:-0.314286 305:-0.115655 306:-0.956748 307:-0.866298 308:0.606423 309:0.31854 310:0.778767 311:0.288859 312:-0.564006 313:-0.046931 314:-0.520874 315:-0.810027 316:0.111485 317:-0.19611 318:0.688359 319:-0.684037 320:-0.744083 321:0.754068 322:0.566522 323:0.481065 324:-0.903315 325:0.287691 326:0.289148 327:0.290525 328:-0.383041 329:-0.478539 330:0.967019 331:-0.44533 332:0.256288 333:-0.670709 334:-0.282427 335:-0.23167 336:-0.952479 337:-0.475721 338:-0.611628 339:-0.345947 340:0.007194 341:0.148673 342:-0.849306 343:0.324174 344:-0.351062 345:0.982254 346:-0.593159 347:-0.696591 348:-0.760726 349:0.0 350:0.36201 351:-0.869022 
-0.0087890625 1:-0.43364 2:-0.428407 3:-0.423011 4:-0.740765 5:-0.70593 6:-0.399168 7:-0.140113 8:0.001014 9:-0.591127 10:-0.761535 11:0.786174 12:-0.810979 13:-0.755345 14:-0.880262 15:-0.885305 16:-0.306262 17:-0.108262 18:-0.917972 19:0.118536 20:-0.369407 21:0.507294 22:-0.122698 23:-0.004603 24:0.160619 25:-0.295918 26:-0.185349 27:-0.48231 28:0.746355 29:0.023768 30:-0.089723 31:0.709188 32:0.305684 33:0.694414 34:-0.044432 35:0.398426 36:-0.413881 37:0.535319 38:-0.112765 39:-0.674485 40:-0.02378 41:0.37371 42:0.468181 43:-0.18797 44:0.452899 45:-0.034527 46:0.178005 47:-0.667613 48:-0.827936 49:-0.336808 50:-0.331424 51:0.327169 52:-0.023117 53:-0.062631 54:-0.409725 55:0.354801 56:0.089771 57:-0.520673 58:-0.585895 59:-0.772065 60:-0.36996 61:0.798742 62:-0.164064 63:-0.833467 64:0.535697 65:-0.428983 66:-0.487329 67:-0.516854 68:-0.836423 69:-0.026645 70:0.301887 71:0.313336 72:-0.380157 73:0.997336 74:-0.769585 75:0.469665 76:-0.718451 77:0.087376 78:0.011618 79:-0.376344 80:0.122405 81:0.663687 82:0.205358 83:-0.174164 84:-0.559964 85:-0.272255 86:-0.527127 87:0.531535 88:-0.010526 89:0.487711 90:-0.729521 91:-0.42514 92:-0.144747 93:-0.16823 94:0.02829 95:-0.262906 96:-0.026187 97:0.105793 98:-0.043696 99:-0.702646 100:0.502761 101:-0.149356 102:-0.01879 103:-0.367722 104:-0.235168 105:-0.389245 106:-0.075 107:-0.61629 108:-0.277766 109:-0.283549 110:-0.663215 111:0.256778 112:-0.817664 113:-0.749346 114:-0.687554 115:-0.044444 116:-0.179016 117:-0.649488 118:0.370588 119:-0.446388 120:-0.148431 121:-0.678091 122:-0.910593 123:0.224632 124:-0.076923 125:0.214783 126:-0.937599 127:0.108871 128:-0.339759 129:0.867016 130:-0.440907 131:-0.796705 132:-0.8682 133:0.233871 134:-0.70671 135:-0.918927 136:0.032803 137:0.465321 138:-0.037572 139:0.086427 140:-0.723853 141:-0.823319 142:-0.419355 143:-0.562374 144:-0.970989 145:-0.152424 146:0.49277 147:-0.32593 148:0.163888 149:-0.595038 150:0.615263 151:0.122222 152:0.424477 153:-0.9556 154:0.150317 155:-0.186307 156:-0.23936 157:-0.491213 158:-0.742571 159:-0.373701 160:-0.181641 161:-0.521522 162:-0.764459 163:-0.340456 164:-0.765266 165:-0.152082 166:-0.943582 167:-0.852565 168:0.713394 169:0.378378 170:-0.090185 171:-0.55224 172:-1.0 173:-0.250877 174:-0.561286 175:-0.845901 176:-0.824701 177:0.469036 178:-0.951715 179:0.022706 180:-0.739958 181:-0.149786 182:-0.864723 183:0.832215 184:-0.726385 185:-0.613569 186:0.665365 187:0.266055 188:0.155081 189:-0.662537 190:0.019259 191:-0.102833 192:0.723363 193:-0.54829 194:-0.60044 195:0.463457 196:0.375 197:-0.060978 198:-0.823303 199:0.019276 200:-0.179991 201:-0.714373 202:-0.281089 203:-0.544656 204:-0.147464 205:0.252033 206:-0.230319 207:-0.805199 208:-0.093812 209:-0.151134 210:0.352633 211:-0.302919 212:-0.652834 213:-0.596726 214:-0.191176 215:-0.245648 216:-0.9182 217:-0.245288 218:-0.77565 219:0.163591 220:-0.76374 221:-0.807562 222:-0.744953 223:-0.273809 224:-0.383688 225:-0.681859 226:-0.047978 227:-0.569738 228:-0.713227 229:-0.755546 230:-0.9254 231:0.229667 232:-0.891892 233:-0.066848 234:-0.84232 235:0.789259 236:-0.447183 237:0.473452 238:-0.571148 239:-0.666671 240:0.993998 241:-0.22807 242:0.88056 243:-0.912793 244:0.209365 245:-0.426285 246:0.167575 247:-0.716349 248:-0.860758 249:0.932544 250:-0.134831 251:0.58008 252:-0.944976 253:-0.165961 254:0.374738 255:0.643788 256:-0.181328 257:-0.620637 258:-0.585198 259:0.2625 260:-0.588824 261:-0.961005 262:0.100576 263:-0.757206 264:0.156015 265:-0.724982 266:-0.852169 267:0.536389 268:-0.3 269:0.263455 270:-0.913591 271:-0.279986 272:-0.546752 273:0.958472 274:-0.868958 275:-0.908329 276:-0.096573 277:0.07 278:0.007524 279:-0.914638 280:-0.393246 281:-0.871706 282:-0.117388 283:-0.909431 284:-0.986148 285:-0.547666 286:-0.594366 287:-0.38457 288:-0.924513 289:0.055662 290:-0.935004 291:-0.071188 292:-0.959052 293:-0.937178 294:0.927427 295:-0.227273 296:0.625276 297:-0.819705 298:-0.308905 299:-0.450555 300:0.06451 301:-0.731005 302:-0.779725 303:-0.838357 304:-0.085714 305:-0.123205 306:-0.896684 307:0.078823 308:0.129117 309:-0.081777 310:0.029121 311:-0.315185 312:-0.895 313:-0.494585 314:-0.914474 315:-0.800663 316:0.594721 317:-0.010796 318:0.543486 319:-0.568017 320:-0.832255 321:0.751515 322:-0.469404 323:0.417379 324:-0.981638 325:0.693961 326:0.696862 327:0.699726 328:-0.896568 329:-0.904864 330:0.99933 331:-0.807181 332:0.221484 333:-0.555624 334:-0.233311 335:-0.892271 336:-0.951582 337:-0.914679 338:-0.93553 339:-0.359335 340:0.52518 341:0.055238 342:-0.936748 343:0.219449 344:-0.812228 345:0.989962 346:-0.928177 347:-0.929491 348:-0.767738 349:0.19403 350:0.557406 351:-0.777846 
-0.0087890625 1:-0.41712 2:-0.416012 3:-0.414672 4:-0.236502 5:0.391998 6:0.24358 7:0.109138 8:0.899023 9:1.0 10:-0.644541 11:0.6548 12:-0.664885 13:-0.422799 14:-0.283177 15:-0.584718 16:0.197162 17:0.58441 18:0.08502 19:0.384285 20:-0.844324 21:0.691148 22:-0.657628 23:0.324478 24:0.149706 25:0.653061 26:-0.436236 27:0.944234 28:-0.985589 29:1.0 30:-0.136161 31:-0.293167 32:0.097993 33:0.214245 34:-0.030583 35:0.189873 36:0.214435 37:-0.12143 38:0.148488 39:-0.093713 40:-0.32341 41:-0.421262 42:0.424149 43:0.142857 44:0.486409 45:-0.496763 46:-0.188853 47:0.206972 48:-0.814731 49:0.188044 50:0.314397 51:0.576541 52:-0.324385 53:0.353725 54:-0.247803 55:-0.245848 56:-0.131384 57:-0.876516 58:-0.543683 59:-0.906001 60:-0.425448 61:-0.207547 62:-0.257817 63:-0.791188 64:0.15912 65:-0.961106 66:-0.488347 67:-0.1898 68:0.217768 69:-0.518709 70:0.254717 71:-0.710405 72:0.582523 73:1.0 74:-0.047096 75:0.526909 76:-0.286512 77:0.408256 78:-0.210727 79:-0.559308 80:-0.212014 81:0.309683 82:0.05307 83:-0.17533 84:1.0 85:-0.97259 86:-0.944893 87:0.01045 88:0.589474 89:-0.654662 90:-0.417195 91:0.237696 92:-0.402408 93:-0.173481 94:0.314573 95:0.238175 96:0.555474 97:-0.24937 98:0.836351 99:-0.191525 100:0.349393 101:-0.581831 102:-0.012997 103:-0.629708 104:-0.444318 105:0.030705 106:-0.7 107:0.199557 108:-0.280408 109:-0.135911 110:-0.579352 111:0.629742 112:-0.072628 113:0.377974 114:-0.805379 115:0.044444 116:-0.417974 117:0.406502 118:0.247212 119:-0.296306 120:-0.215286 121:-0.419955 122:-0.389861 123:0.23781 124:-0.120192 125:0.238127 126:-0.556264 127:-0.623497 128:-0.701007 129:0.898914 130:-0.681974 131:-0.673506 132:-0.883126 133:-0.033266 134:-0.926086 135:-0.673617 136:-0.340716 137:-0.34035 138:0.035146 139:-0.480635 140:-0.810635 141:-0.572205 142:0.112903 143:0.109169 144:-0.751164 145:-0.299849 146:-0.654247 147:-0.530166 148:-0.281412 149:-0.576735 150:0.604799 151:-0.266667 152:0.395003 153:-0.79198 154:-0.095146 155:-0.162881 156:-0.41272 157:-0.481436 158:-0.544743 159:-0.176706 160:0.552083 161:0.115556 162:-0.689246 163:0.269479 164:-0.922642 165:0.154783 166:-1.0 167:-0.913861 168:0.746728 169:0.20946 170:0.232572 171:-0.772181 172:0.097613 173:-0.604649 174:-0.683439 175:-0.79835 176:-0.944613 177:0.468052 178:1.0 179:0.020253 180:-0.839636 181:0.446394 182:-0.059512 183:0.822995 184:-0.054053 185:-0.427601 186:0.830792 187:0.077982 188:0.571813 189:-0.843782 190:0.197831 191:-0.868592 192:0.879366 193:-1.0 194:-0.94696 195:0.471302 196:0.055556 197:0.026169 198:-0.861461 199:-0.533447 200:-0.483817 201:-0.64156 202:0.298104 203:0.254289 204:0.062522 205:0.300813 206:-0.096568 207:-0.235105 208:-0.188646 209:-0.601039 210:0.36238 211:-0.612275 212:-0.76749 213:-0.620377 214:0.176471 215:-0.336382 216:-0.842445 217:-0.223538 218:-0.263561 219:0.03745 220:-0.148493 221:-0.304368 222:-0.844924 223:-0.261905 224:-0.602284 225:-0.282575 226:0.384696 227:-0.488132 228:-0.750468 229:-0.472725 230:-0.454766 231:0.104609 232:0.189189 233:-0.476587 234:-0.577783 235:0.689009 236:-0.740555 237:0.602589 238:-0.635736 239:-0.634133 240:0.992093 241:-0.0 242:0.868273 243:-0.708365 244:0.821837 245:-0.385019 246:0.162734 247:-0.630097 248:-0.738222 249:0.933787 250:0.078652 251:0.586674 252:-0.906105 253:-0.330574 254:0.030724 255:0.652194 256:-0.601857 257:-0.88546 258:-0.601972 259:-0.10625 260:-0.666067 261:-0.980145 262:0.144272 263:-0.464381 264:0.123263 265:-0.760674 266:-0.745195 267:0.51765 268:-0.466667 269:-0.045024 270:-0.794951 271:-0.098084 272:-0.628892 273:0.949038 274:-0.927628 275:-1.0 276:-0.096837 277:0.2 278:9.59E-4 279:-0.949597 280:0.09782 281:-0.578159 282:-0.104089 283:-0.840933 284:-0.865721 285:-0.53953 286:0.239437 287:-0.097614 288:-0.895706 289:0.794276 290:0.342895 291:0.216161 292:-0.416888 293:-0.678645 294:0.964868 295:-0.022727 296:0.813472 297:-0.847095 298:-0.344188 299:-1.0 300:0.30872 301:-0.995647 302:-0.973356 303:-0.838173 304:0.803571 305:-0.196499 306:-0.946679 307:-0.212312 308:-0.009619 309:0.170395 310:0.244387 311:-0.05116 312:-0.977955 313:-0.898917 314:-1.0 315:-0.771914 316:0.269387 317:-0.395229 318:0.680855 319:-0.705223 320:-0.871127 321:0.750616 322:0.528622 323:0.406226 324:-0.970147 325:0.547142 326:0.545865 327:0.544443 328:-0.39025 329:-0.221311 330:0.920547 331:-0.46329 332:-0.857658 333:0.893845 334:-0.275004 335:-0.722537 336:1.0 337:-0.36409 338:-0.33569 339:-0.42381 340:-0.194245 341:-0.270093 342:-0.285692 343:0.357738 344:-0.655695 345:-0.147115 346:-0.361161 347:-0.233956 348:-0.72281 349:0.343284 350:0.520316 351:-0.241081 
-0.0087890625 1:-0.021348 2:-0.019307 3:-0.017021 4:0.036452 5:0.201955 6:0.105285 7:-0.192534 8:0.199738 9:-0.505903 10:0.074334 11:-0.075023 12:0.089077 13:0.37421 14:0.300018 15:0.137812 16:-0.255382 17:0.579581 18:-0.156089 19:-0.019751 20:-0.009753 21:0.644283 22:-0.081617 23:0.278193 24:0.880436 25:-1.0 26:0.843089 27:0.147967 28:0.514531 29:-0.435948 30:0.034091 31:0.528384 32:0.059051 33:-0.272594 34:-0.358338 35:-0.340118 36:-0.828051 37:0.350756 38:0.357443 39:-0.286417 40:0.469994 41:-0.238839 42:0.603411 43:-0.067669 44:0.456213 45:-0.896335 46:-0.257267 47:-0.05069 48:-0.830865 49:-0.739414 50:-0.437111 51:0.338965 52:-0.646532 53:-0.133307 54:0.048727 55:0.143118 56:-0.116837 57:-0.452832 58:-0.046181 59:-0.146677 60:-0.388246 61:1.0 62:-0.173659 63:-0.259641 64:-0.665558 65:0.46074 66:-0.534274 67:0.079782 68:-0.476289 69:-0.265464 70:0.169811 71:-0.173789 72:-0.537606 73:-0.412643 74:-0.767417 75:0.432917 76:-0.905277 77:-0.031459 78:-0.175801 79:-0.333333 80:-0.164432 81:0.556325 82:1.0 83:-0.327645 84:-0.793425 85:-0.238102 86:0.014591 87:0.389537 88:0.073684 89:0.29105 90:0.049019 91:0.488678 92:0.261872 93:-0.167657 94:0.693335 95:-0.214544 96:0.122015 97:0.425693 98:0.167812 99:-1.0 100:0.01782 101:0.474163 102:0.073465 103:0.602567 104:0.973022 105:-0.246582 106:0.3875 107:-0.24571 108:-0.207276 109:-0.426518 110:-0.280469 111:0.933197 112:-0.055759 113:-0.264642 114:-0.588221 115:-0.388889 116:0.155815 117:-0.799768 118:0.165818 119:0.150561 120:-0.009624 121:0.582863 122:0.819338 123:-0.576736 124:-0.442308 125:-0.323612 126:-0.431843 127:0.040418 128:-0.275616 129:0.869991 130:-0.791023 131:-0.807408 132:-0.883026 133:0.0 134:-1.0 135:-0.792418 136:0.19819 137:-0.044294 138:0.079912 139:-0.121832 140:-0.552771 141:-0.521201 142:0.483871 143:0.058204 144:-0.783537 145:1.0 146:0.365043 147:-0.825092 148:0.233401 149:-0.372254 150:0.735425 151:-0.555556 152:0.60613 153:-0.843984 154:-0.135057 155:-0.322889 156:-0.093748 157:-0.767914 158:-0.934489 159:-0.180027 160:-0.036458 161:0.130659 162:-0.95824 163:-0.360263 164:-0.612427 165:-0.098849 166:-0.601847 167:-0.68022 168:0.870614 169:0.716216 170:0.84439 171:-0.44005 172:-0.176971 173:-0.635374 174:-0.686048 175:-0.197118 176:-0.616634 177:0.339544 178:-0.402795 179:-0.261383 180:-0.771598 181:-0.101947 182:-0.78983 183:0.82799 184:-0.748256 185:-0.792466 186:0.73694 187:0.06422 188:0.488589 189:-0.795096 190:0.235569 191:-0.690288 192:0.775684 193:-0.555832 194:-0.687191 195:0.443071 196:0.081597 197:-0.18583 198:-0.785532 199:-0.109017 200:-0.1427 201:-0.53519 202:-0.144562 203:-0.01875 204:-0.13045 205:0.853659 206:-0.216897 207:0.015258 208:-0.305288 209:0.511832 210:0.388269 211:0.282899 212:-0.490107 213:-0.389796 214:-0.117647 215:-0.035341 216:-0.957435 217:-0.21758 218:0.321619 219:-1.0 220:-0.256464 221:-0.662842 222:-0.757937 223:-0.190476 224:-0.25222 225:-0.998202 226:-0.165112 227:0.206143 228:-0.720068 229:0.642539 230:0.766313 231:-0.458587 232:0.189189 233:-0.41786 234:-0.644827 235:0.743783 236:-0.14186 237:0.791854 238:-0.751475 239:-0.7916 240:0.986349 241:0.438596 242:0.729926 243:-0.924071 244:0.236892 245:-0.356607 246:0.174942 247:-0.636659 248:-0.733698 249:0.925961 250:0.550562 251:0.485208 252:-0.912081 253:-0.65421 254:0.291126 255:1.0 256:-0.208723 257:-0.400354 258:-0.576941 259:-0.1 260:-0.560383 261:-0.822409 262:0.249783 263:0.138953 264:0.245429 265:-0.724999 266:-0.918409 267:0.528158 268:-0.066667 269:0.136635 270:-0.995003 271:-0.18822 272:-0.31794 273:0.982067 274:-0.692725 275:-0.724963 276:-0.096523 277:-0.36 278:-0.006717 279:-0.834449 280:-0.255627 281:0.21689 282:-0.13415 283:-0.50643 284:-0.778805 285:-0.545397 286:0.284507 287:-0.216985 288:-0.966718 289:0.863818 290:-0.238722 291:0.338801 292:-0.70983 293:-0.812506 294:0.895697 295:0.045455 296:0.268684 297:-0.839917 298:-0.262854 299:-0.162458 300:0.332733 301:-0.783515 302:-0.832229 303:-0.833751 304:-1.0 305:-0.022839 306:-0.963524 307:0.183283 308:-0.354929 309:0.348247 310:0.147857 311:-0.188504 312:-0.700076 313:-0.841155 314:-0.545487 315:-0.826187 316:0.786349 317:0.088083 318:0.680971 319:-0.412029 320:-0.720351 321:0.756479 322:0.800237 323:0.457789 324:-0.981295 325:0.081258 326:0.076953 327:0.072379 328:-0.034272 329:-0.207998 330:0.839252 331:-0.59235 332:-0.084315 333:-0.384158 334:-0.228073 335:-0.045793 336:-0.949867 337:0.086957 338:-0.237021 339:-0.330356 340:-0.151079 341:0.076951 342:-0.810098 343:0.180383 344:-0.137877 345:0.985106 346:0.164101 347:-0.157703 348:-0.488154 349:0.11194 350:0.608832 351:-0.6745 
-0.0087890625 1:-0.063165 2:-0.062154 3:-0.060886 4:0.083542 5:0.44648 6:0.285193 7:-0.580129 8:0.325158 9:-0.292321 10:-0.395352 11:0.417392 12:-0.442138 13:-0.141061 14:-0.097829 15:-0.56444 16:-0.447652 17:0.324185 18:-0.249413 19:-0.135859 20:0.650787 21:0.422165 22:0.007694 23:0.233493 24:0.572474 25:1.0 26:0.380147 27:-0.57113 28:-0.403775 29:0.027643 30:-1.0 31:-0.03559 32:-0.255111 33:-0.336327 34:0.48644 35:-0.526759 36:-0.676008 37:0.10488 38:-0.748909 39:-0.205004 40:-0.212354 41:0.411141 42:-5.2E-4 43:-1.0 44:-0.139737 45:0.310602 46:0.314147 47:-0.159505 48:-0.626905 49:1.7E-4 50:-0.07814 51:0.141967 52:-0.055928 53:-0.290236 54:0.081789 55:-0.460139 56:0.267276 57:-0.511387 58:-0.364221 59:-0.565182 60:-0.467851 61:-0.58805 62:-0.303285 63:-0.545343 64:-0.230113 65:-0.067475 66:-0.491348 67:-0.252456 68:-0.828257 69:-0.280847 70:-0.056604 71:-0.27554 72:-0.718129 73:0.329861 74:-0.911109 75:0.253616 76:-0.852055 77:-0.295599 78:0.234805 79:0.505376 80:0.546487 81:0.37568 82:0.373146 83:-0.097332 84:-0.601727 85:-0.450982 86:-0.715503 87:0.005227 88:-0.726316 89:-0.304661 90:-0.722996 91:-0.121472 92:-0.220046 93:-0.211661 94:-0.039862 95:-0.406704 96:0.104682 97:-0.178841 98:0.20118 99:-0.92727 100:0.339692 101:-0.509002 102:-0.309002 103:-0.42534 104:-0.278122 105:-0.520079 106:-0.275 107:-0.884682 108:0.05013 109:-0.156937 110:-0.054159 111:0.921691 112:0.147223 113:0.153217 114:-0.85825 115:0.0 116:-0.403363 117:-0.327672 118:0.433103 119:-0.255379 120:-0.036169 121:-0.205985 122:-0.132438 123:0.200063 124:0.038462 125:0.111438 126:-0.522262 127:-0.481661 128:-0.285702 129:0.89694 130:-0.518497 131:-0.757314 132:-0.864502 133:0.145161 134:-0.664274 135:-0.918568 136:-0.193692 137:-0.084366 138:0.029038 139:-0.258778 140:-0.749876 141:-0.741067 142:-0.16129 143:-0.453779 144:-0.900446 145:-0.329584 146:-0.269315 147:-0.464567 148:-0.056321 149:-0.331179 150:0.604385 151:0.155556 152:0.4015 153:-0.786981 154:0.704406 155:-0.150708 156:-0.544724 157:-0.383828 158:-0.54282 159:-0.266069 160:0.395833 161:-0.147013 162:-0.640561 163:0.240964 164:-0.453986 165:0.515713 166:-0.869655 167:-1.0 168:0.783692 169:0.243243 170:0.534962 171:-0.948524 172:-0.071566 173:0.034746 174:-0.973601 175:-0.628361 176:-0.956933 177:0.585747 178:0.186785 179:0.53121 180:-0.840447 181:0.02323 182:-0.768892 183:0.817364 184:-0.915786 185:-0.709295 186:0.812751 187:0.779817 188:1.0 189:-0.326431 190:0.342236 191:-0.777576 192:0.655459 193:-0.790151 194:-0.892397 195:0.459477 196:-0.388889 197:-0.124125 198:-0.922605 199:0.68612 200:-0.424368 201:-0.661773 202:0.185539 203:-0.191485 204:0.04558 205:-0.414634 206:-0.088348 207:-0.686582 208:0.106847 209:-0.269968 210:0.424382 211:-0.609884 212:-0.750981 213:-0.477082 214:-0.441176 215:0.166628 216:-0.753541 217:-0.421683 218:-0.049243 219:0.551897 220:-0.147356 221:-0.308545 222:-0.779206 223:0.047619 224:-0.316388 225:-0.544922 226:-0.268704 227:-0.292796 228:-0.728544 229:-0.389093 230:-0.394932 231:0.093482 232:0.081081 233:-0.442076 234:-0.671132 235:0.772617 236:-0.256982 237:1.0 238:-0.538389 239:-0.666279 240:0.980512 241:-0.22807 242:0.655163 243:-0.884951 244:0.965729 245:0.102054 246:0.113191 247:-0.572499 248:-0.794209 249:0.9359 250:0.370787 251:0.602767 252:-0.971644 253:-0.290226 254:-0.130107 255:0.653005 256:-0.539002 257:-0.730114 258:-0.566693 259:0.425 260:-0.459196 261:-0.88894 262:0.121768 263:-0.1932 264:0.313075 265:-0.70761 266:-0.86719 267:0.525366 268:-0.013333 269:0.09622 270:-0.939545 271:-0.265639 272:-0.76928 273:0.952018 274:-0.885298 275:-0.986574 276:-0.099901 277:-0.68 278:-0.157051 279:-0.925647 280:-0.376742 281:-0.558147 282:-0.134478 283:-0.828365 284:-0.907602 285:-0.541491 286:-0.166197 287:-0.156982 288:-0.955053 289:0.397491 290:-1.0 291:-0.024811 292:-1.0 293:-0.814036 294:0.901925 295:-0.204545 296:0.035824 297:-0.469925 298:-0.211539 299:-0.752812 300:0.247555 301:-0.896916 302:-0.896559 303:-0.839268 304:0.214286 305:-0.195139 306:-0.908711 307:-0.211943 308:-0.126203 309:0.441231 310:0.035115 311:-0.210216 312:-0.817126 313:-0.176895 314:-0.754609 315:-0.717979 316:0.123686 317:-0.4466 318:0.675887 319:-0.853783 320:-0.856873 321:0.748607 322:0.174891 323:0.32454 324:-0.888438 325:0.398811 326:0.399759 327:0.400604 328:-0.424811 329:-0.365682 330:0.951659 331:-0.575858 332:-0.315192 333:0.026356 334:-0.263245 335:-0.445078 336:-0.950282 337:-0.518683 338:-0.545396 339:-0.382315 340:0.122302 341:-0.180274 342:-0.551443 343:0.317591 344:-0.494029 345:0.990182 346:-0.588876 347:-0.503094 348:-0.739491 349:0.044776 350:0.79134 351:-0.046375 
-0.0087890625 1:-0.258368 2:-0.25895 3:-0.259354 4:0.043345 5:0.205833 6:0.154708 7:-0.563988 8:0.243806 9:-0.517095 10:-0.652835 11:0.689459 12:-0.726009 13:-0.670489 14:-0.611334 15:-0.893513 16:-0.383562 17:-0.152956 18:-0.656838 19:0.528776 20:-0.691691 21:0.544488 22:-1.0 23:-1.0 24:0.338326 25:-0.571429 26:0.06576 27:-0.723921 28:0.277319 29:-0.397308 30:0.286562 31:-0.175681 32:0.146482 33:-0.061323 34:0.024812 35:-0.204178 36:0.14957 37:0.708402 38:-0.268862 39:-0.363628 40:-0.208504 41:-0.014393 42:0.193931 43:-0.293233 44:0.130591 45:-0.23532 46:0.638819 47:0.005993 48:-0.827783 49:0.450694 50:0.142242 51:0.307919 52:0.21346 53:0.025673 54:-0.427631 55:-0.221203 56:-0.437839 57:-0.510109 58:0.522114 59:0.139057 60:-0.666513 61:0.748428 62:-0.379001 63:-0.106547 64:-1.0 65:0.112606 66:1.0 67:0.140572 68:-0.453858 69:0.041577 70:0.358491 71:0.263615 72:-0.476953 73:-0.342625 74:-0.2449 75:0.424958 76:-0.187675 77:-0.057763 78:0.217122 79:0.268817 80:0.228844 81:-0.650658 82:0.54557 83:-0.241686 84:-0.772315 85:-0.185034 86:-0.249112 87:0.687653 88:-0.083553 89:0.660735 90:-0.364045 91:0.458263 92:-1.0 93:-0.184441 94:-0.557691 95:-0.38962 96:0.273458 97:-0.763224 98:0.768285 99:0.214021 100:0.449431 101:0.233895 102:0.0058 103:0.335476 104:-0.226455 105:0.154427 106:-0.2 107:0.161535 108:-0.736242 109:-0.114101 110:-0.239557 111:0.685586 112:0.381935 113:0.087118 114:-0.612389 115:-0.155556 116:-0.003833 117:-0.748101 118:0.118143 119:-0.283983 120:-1.0 121:-0.488361 122:-0.489767 123:0.210914 124:-0.307692 125:0.118594 126:-0.731289 127:-0.40973 128:-1.0 129:0.896533 130:-1.0 131:-1.0 132:-0.875695 133:0.16129 134:-0.961456 135:-0.826391 136:-0.521306 137:-0.22719 138:1.58E-4 139:-0.01725 140:-0.654584 141:-0.427274 142:0.16129 143:0.199663 144:-0.804584 145:-0.009284 146:-0.387113 147:-0.510259 148:0.395057 149:-0.347086 150:0.421768 151:0.244444 152:0.171905 153:-0.815698 154:0.442452 155:1.0 156:-1.0 157:-0.133807 158:-0.675844 159:-0.347609 160:-0.0 161:-0.27744 162:-0.886964 163:0.43893 164:0.405003 165:-0.200046 166:-0.382195 167:-0.732167 168:0.625848 169:0.45946 170:-0.196548 171:-0.869328 172:0.15775 173:-0.257462 174:-0.6772 175:-0.284623 176:-0.893311 177:0.444497 178:-0.057179 179:-0.020229 180:-0.963886 181:-0.528161 182:0.536699 183:0.735915 184:-0.145741 185:-0.633665 186:0.709598 187:0.119266 188:0.33092 189:-0.936047 190:-0.319539 191:-0.557086 192:0.811224 193:-0.730091 194:-0.848466 195:0.474541 196:-0.100694 197:0.024914 198:-0.909076 199:-0.293471 200:-0.921749 201:-0.638024 202:-0.757589 203:-0.745522 204:-0.225654 205:-0.089431 206:-0.406036 207:-0.417905 208:-0.040103 209:-0.160631 210:0.388951 211:-0.193087 212:-0.274055 213:-0.753857 214:-0.823529 215:-0.529135 216:-0.360951 217:-0.644338 218:-0.132222 219:0.151325 220:0.058569 221:-0.423298 222:-0.839535 223:-0.333333 224:-0.418666 225:-0.817397 226:-0.371366 227:-0.335982 228:-0.749727 229:-0.480461 230:-0.608121 231:0.225247 232:0.621622 233:-0.122708 234:-0.914072 235:0.720965 236:-1.0 237:0.910405 238:-1.0 239:-1.0 240:0.985688 241:0.087719 242:0.563997 243:-0.94563 244:0.410256 245:0.081546 246:0.064547 247:-0.643323 248:-0.754139 249:0.935911 250:0.191011 251:0.61683 252:-0.926054 253:0.099592 254:0.634553 255:0.537329 256:-0.284108 257:-0.700121 258:-0.563251 259:0.6 260:-0.502486 261:-0.955818 262:0.197842 263:-0.013944 264:0.117406 265:-0.684543 266:-0.881949 267:0.52236 268:-0.066667 269:0.058316 270:-0.971076 271:-0.08388 272:-0.011301 273:0.981881 274:-0.696092 275:-0.901272 276:-0.097851 277:-0.32 278:-0.038389 279:-0.971148 280:-0.045379 281:-0.084103 282:-0.117279 283:-0.642561 284:-0.893955 285:-0.545639 286:-0.48169 287:-0.233911 288:-0.983041 289:0.040569 290:0.0864 291:-0.12466 292:-0.648538 293:-0.850888 294:0.934438 295:0.75 296:0.670293 297:-0.892422 298:-0.340233 299:-0.264648 300:0.284721 301:-0.824853 302:-0.823464 303:-0.834826 304:-0.085714 305:-0.040755 306:-0.93485 307:-0.528308 308:-0.639895 309:0.343758 310:-0.535223 311:-0.688977 312:-0.776155 313:0.193141 314:-0.589394 315:-0.885926 316:0.252296 317:-0.195848 318:0.673768 319:-0.536014 320:-0.547498 321:0.749154 322:-0.722069 323:0.384174 324:-0.793783 325:0.516533 326:0.515741 327:0.514867 328:-0.394521 329:-0.417016 330:0.953265 331:-0.592063 332:-0.110471 333:-0.289687 334:-0.263502 335:-0.600875 336:-0.967084 337:-0.378478 338:-0.527561 339:-0.375293 340:-0.107914 341:-0.039156 342:-0.789735 343:0.360465 344:-0.543934 345:0.983062 346:-0.412249 347:-0.520836 348:-0.730653 349:-0.074627 350:0.526793 351:-0.695694 
-0.0087890625 1:0.481523 2:0.476994 3:0.472596 4:0.782723 5:0.289054 6:0.076308 7:-0.014188 8:-0.210377 9:-0.974141 10:-0.190537 11:0.286902 12:-0.379674 13:-0.483273 14:-0.621877 15:-0.874902 16:0.024951 17:-0.110347 18:-0.862351 19:1.0 20:-0.724853 21:0.67444 22:0.144947 23:0.242437 24:0.062748 25:-0.127551 26:-0.23479 27:-0.381161 28:1.0 29:-0.205603 30:0.01861 31:0.826005 32:0.786021 33:0.999922 34:0.352568 35:0.574234 36:-0.084801 37:0.896911 38:-0.602435 39:-0.291218 40:-0.668058 41:-0.164989 42:-0.016362 43:-0.278195 44:-0.252502 45:-0.075009 46:0.191098 47:0.089262 48:-0.808389 49:0.014658 50:-0.187947 51:0.346762 52:0.296048 53:0.026961 54:-0.355864 55:-0.572714 56:-0.151547 57:-0.457667 58:-0.052984 59:0.010107 60:-0.597841 61:0.130503 62:-0.418647 63:-0.029167 64:0.268323 65:-1.0 66:-0.490344 67:-0.259595 68:0.031605 69:0.345099 70:-0.09434 71:1.0 72:1.0 73:-0.543094 74:0.007727 75:0.296216 76:-0.505155 77:-0.45843 78:0.670474 79:-0.935484 80:0.932376 81:0.113237 82:-0.775354 83:0.594313 84:-0.478133 85:-0.376366 86:-0.423775 87:0.307084 88:0.305263 89:0.182135 90:-0.518789 91:0.253367 92:-0.804389 93:-0.242989 94:-0.486697 95:-0.066554 96:0.193768 97:0.143577 98:0.505621 99:0.263998 100:-0.90597 101:0.239348 102:0.004631 103:0.414558 104:-0.132956 105:0.018789 106:-0.65 107:0.008826 108:-1.0 109:0.229089 110:0.192614 111:0.746811 112:0.465338 113:0.388771 114:-0.642933 115:-0.022222 116:-0.046931 117:-0.655339 118:0.179994 119:-0.125781 120:-0.125455 121:-0.480012 122:-0.773938 123:0.155547 124:0.153846 125:-0.15532 126:-1.0 127:-0.565209 128:-0.160664 129:0.894462 130:-0.208299 131:-0.491736 132:-0.853543 133:0.0 134:-0.637696 135:-0.844163 136:1.0 137:0.10434 138:0.105942 139:0.137717 140:-0.44433 141:-0.758315 142:-0.483871 143:-0.441283 144:-0.743829 145:-0.081493 146:-0.180416 147:-0.523525 148:-0.498505 149:-0.834381 150:0.637992 151:0.266667 152:0.489286 153:-0.962046 154:-0.67968 155:-0.432933 156:-0.014899 157:-0.389323 158:-0.627629 159:-0.129172 160:0.458333 161:0.24499 162:-0.641452 163:-0.265735 164:-0.191101 165:-0.224268 166:-0.659424 167:-0.777261 168:0.88025 169:0.513514 170:0.964082 171:-0.53033 172:0.38723 173:-0.529465 174:-0.647074 175:-0.975475 176:-0.97903 177:0.436335 178:-0.219822 179:-0.232878 180:-0.72371 181:0.361209 182:-0.142522 183:0.744864 184:-0.436674 185:-0.609173 186:0.694896 187:0.137615 188:0.295273 189:-0.822775 190:0.282252 191:-0.312641 192:0.703682 193:-0.62876 194:-0.680079 195:0.463179 196:-0.333333 197:-0.068399 198:-0.831176 199:-0.097335 200:-0.408505 201:-0.619991 202:-0.378913 203:-0.451187 204:-0.360629 205:0.04065 206:-0.571482 207:-0.650411 208:-0.966315 209:-0.041795 210:0.388739 211:-0.020704 212:-0.498494 213:-0.644232 214:-0.823529 215:-0.310084 216:-0.824681 217:-0.323971 218:0.819896 219:0.549323 220:0.199783 221:-0.230462 222:-0.902105 223:0.333333 224:-0.484413 225:-0.709951 226:0.317123 227:-0.350629 228:-0.762613 229:-0.462469 230:-0.659059 231:0.194382 232:0.837838 233:-0.211817 234:-0.924538 235:0.625705 236:0.364882 237:0.629905 238:-0.371339 239:-0.651561 240:0.985249 241:-1.0 242:0.742698 243:-0.956789 244:0.270694 245:-0.280142 246:0.276059 247:-0.50598 248:-0.618446 249:0.945168 250:0.146067 251:0.678116 252:-0.843107 253:-0.68696 254:-0.06505 255:0.663717 256:-0.797939 257:-0.956912 258:-0.580769 259:0.575 260:-0.486418 261:-0.985927 262:0.151386 263:0.180992 264:-0.542107 265:-0.835087 266:-0.986083 267:0.529747 268:-0.546667 269:0.16805 270:-0.993229 271:-0.075725 272:-0.028778 273:0.794009 274:-0.760379 275:-0.91955 276:-0.094726 277:-0.44 278:0.05229 279:-0.965963 280:-0.280996 281:-1.0 282:-0.123954 283:-1.0 284:-0.981782 285:-0.542675 286:-0.842254 287:-0.191307 288:-0.937437 289:1.0 290:0.327162 291:0.391316 292:-0.603816 293:-0.770447 294:0.958808 295:0.636364 296:0.867268 297:-0.861166 298:-0.426722 299:-0.595642 300:0.347638 301:-0.808689 302:-0.805998 303:-0.832775 304:-0.885714 305:0.009764 306:-0.878048 307:-0.069628 308:-0.340072 309:0.293847 310:-0.274953 311:-0.591087 312:-0.885166 313:-0.783393 314:-0.983202 315:-0.939488 316:0.663316 317:-0.098832 318:0.674731 319:-0.608693 320:-0.785648 321:0.749818 322:-0.49467 323:0.391153 324:-0.957107 325:-0.239663 326:-0.241672 327:-0.243831 328:0.009832 329:-0.093528 330:0.897282 331:-0.553834 332:0.390354 333:-0.691111 334:-0.358816 335:-0.235379 336:-0.93575 337:-0.410413 338:-0.53754 339:-0.341216 340:-0.798561 341:0.149588 342:-0.826976 343:0.445249 344:-0.270174 345:0.973634 346:-0.553369 347:-0.639091 348:-0.747615 349:-0.402985 350:0.550604 351:-0.67131 
-0.0087890625 1:-0.851388 2:-0.850609 3:-0.849786 4:-0.737113 5:-0.326359 6:-0.351302 7:-0.596736 8:0.365993 9:0.322432 10:-0.772898 11:0.809236 12:-0.841827 13:-0.970801 14:-0.599101 15:-0.941356 16:-0.266145 17:-0.524215 18:0.223013 19:0.338408 20:-0.30804 21:0.66653 22:-0.603114 23:-0.704303 24:0.487131 25:0.040816 26:0.447251 27:-0.765234 28:-0.236443 29:-0.362735 30:0.031278 31:-0.223974 32:-0.479068 33:-0.010494 34:0.117138 35:-0.137293 36:-0.93258 37:-1.0 38:0.349988 39:-1.0 40:-0.305565 41:-0.527894 42:0.113388 43:-0.338346 44:0.016649 45:-0.897528 46:-0.347009 47:0.162659 48:-0.835209 49:-0.05979 50:0.200688 51:0.238846 52:-0.598807 53:-0.156216 54:0.260043 55:0.062111 56:-8.59E-4 57:1.0 58:0.442104 59:-0.039023 60:-0.441509 61:0.345912 62:-0.205451 63:-0.464867 64:0.054842 65:0.546744 66:-0.473877 67:0.471101 68:-0.090071 69:-0.015998 70:-0.207547 71:0.141465 72:-0.683566 73:0.661476 74:-0.103784 75:0.398188 76:0.063457 77:0.471866 78:-0.874003 79:-0.11828 80:-0.777213 81:-0.221048 82:-0.808584 83:0.076169 84:-0.708364 85:-0.82339 86:-0.667244 87:0.233858 88:-1.0 89:0.007372 90:-0.230545 91:0.056441 92:-0.020601 93:-0.21265 94:0.212095 95:0.323332 96:0.491629 97:-0.86398 98:0.793255 99:-0.2013 100:1.0 101:0.146225 102:-0.037504 103:0.172446 104:-0.098573 105:0.198131 106:0.225 107:0.24819 108:-0.669829 109:-0.936658 110:-0.538525 111:0.689612 112:-0.416615 113:-0.350146 114:-0.783998 115:0.211111 116:-0.673776 117:-0.200752 118:-0.146488 119:-0.874093 120:-0.083187 121:-0.819532 122:-0.817472 123:0.246095 124:0.615385 125:0.603923 126:-0.458166 127:-0.680968 128:-0.430352 129:0.862871 130:-0.787016 131:-0.977299 132:-0.874413 133:0.129032 134:-0.809823 135:-0.944762 136:-0.768967 137:-0.607508 138:-0.048856 139:-0.378428 140:-0.684092 141:-0.686776 142:-0.5 143:-0.304137 144:-0.774833 145:0.149247 146:0.404872 147:-0.381505 148:0.064403 149:-0.524225 150:0.459231 151:0.866667 152:0.149447 153:-0.846552 154:0.707898 155:0.163118 156:1.0 157:-0.263071 158:-0.707026 159:-0.18588 160:0.083333 161:0.077349 162:-0.883822 163:0.157573 164:-0.156301 165:0.051441 166:-0.521821 167:-0.745085 168:0.75141 169:0.351351 170:0.246192 171:-0.9243 172:-0.38859 173:-0.036539 174:-0.892487 175:0.369238 176:-0.123253 177:0.205652 178:-1.0 179:-0.281416 180:-0.559793 181:0.190621 182:1.0 183:0.864784 184:-0.075564 185:-0.689595 186:0.748224 187:0.522936 188:0.408414 189:-0.980792 190:-0.028971 191:-0.278413 192:0.783006 193:-0.649865 194:-0.796911 195:0.449395 196:-0.055556 197:-0.173536 198:-0.91144 199:-1.0 200:-0.31946 201:-0.727805 202:-0.097728 203:0.037086 204:-0.265247 205:-0.07622 206:-0.374813 207:0.08757 208:-0.397648 209:0.51887 210:0.383284 211:0.342133 212:-0.558767 213:-0.350785 214:-1.0 215:-0.012417 216:-0.993546 217:0.225069 218:-0.351414 219:0.081515 220:-0.573114 221:-0.744765 222:-0.736772 223:-1.0 224:-0.136076 225:-0.868146 226:-0.121863 227:-0.763676 228:-0.754089 229:-0.766525 230:-0.767934 231:0.222801 232:-0.459459 233:-0.110993 234:-0.693203 235:0.701965 236:-0.729455 237:0.724342 238:-0.788773 239:-0.801016 240:0.988029 241:-0.45614 242:0.792443 243:-0.882104 244:0.747511 245:-0.497977 246:0.163746 247:-0.837562 248:-0.914556 249:0.919827 250:0.134831 251:0.288331 252:-0.894124 253:-0.114489 254:0.132784 255:0.642479 256:-0.397742 257:-0.677415 258:-0.603266 259:0.325 260:-0.65723 261:-0.950001 262:0.257367 263:0.017985 264:-0.071465 265:-0.720279 266:-0.920592 267:0.527977 268:-0.486667 269:0.133997 270:-0.976158 271:-0.480312 272:0.612016 273:0.948377 274:-0.593807 275:-0.82108 276:-0.098166 277:-1.0 278:-0.03968 279:-0.98846 280:-0.105787 281:-0.487858 282:-0.126717 283:-0.486778 284:-0.671659 285:-0.536425 286:0.757746 287:-0.12986 288:-0.883384 289:0.40189 290:-0.366504 291:-0.014148 292:-0.329514 293:-0.757669 294:0.950853 295:0.136364 296:0.711439 297:-0.943376 298:-0.061484 299:-0.779905 300:0.35759 301:-0.877103 302:-0.851842 303:-0.840928 304:-0.085714 305:-0.24424 306:-0.846725 307:0.102873 308:-0.35689 309:0.334719 310:0.069644 311:-0.227025 312:-0.815069 313:-0.610108 314:-0.749538 315:-0.76815 316:0.054205 317:0.349282 318:0.680811 319:-0.276101 320:-0.585736 321:0.757715 322:0.061192 323:0.449218 324:-0.963788 325:0.911844 326:0.912644 327:0.913429 328:-0.947757 329:-0.923169 330:0.99989 331:-0.175147 332:0.672335 333:-0.619993 334:-0.137029 335:-0.828735 336:-0.944555 337:-0.935552 338:-0.929222 339:-0.358688 340:0.755396 341:0.299295 342:-0.668689 343:-0.009167 344:-0.85047 345:0.997924 346:-0.879259 347:-0.840158 348:-0.772967 349:0.014925 350:-0.725381 351:0.399219 
