svm_type c_svc
kernel_type rbf
gamma 8.0
nr_class 2
total_sv 108
rho -0.9768145161290323
label 1 -1
nr_sv 62 46
SV
0.0224609375 1:-0.226401 2:-0.231283 3:-0.236078 4:-0.020102 5:0.102317 6:-0.060578 7:0.286586 8:0.337694 9:-0.547936 10:-0.527404 11:0.564977 12:-0.609537 13:-0.39932 14:-0.168368 15:-0.686841 16:0.450342 17:0.588542 18:0.470875 19:-0.435532 20:-0.003755 21:-0.414389 22:0.177607 23:0.541331 24:-0.638319 25:0.207569 26:-1.0 27:-0.092795 28:-0.725075 29:0.272334 30:-0.225942 31:0.025847 32:-0.096895 33:-0.077981 34:0.046154 35:-0.186834 36:-0.456876 37:0.074304 38:0.21207 39:-0.103025 40:-0.438693 41:-0.851131 42:-0.065061 43:-0.326316 44:0.157352 45:-0.824048 46:-0.469951 47:0.225381 48:-0.663871 49:-0.516425 50:-0.525411 51:0.353569 52:-1.0 53:0.270116 54:-0.613344 55:-0.250829 56:0.087543 57:-0.590858 58:1.0 59:1.0 60:0.489917 61:-0.411765 62:0.11988 63:-0.462693 64:-0.189376 65:-0.405013 66:0.667557 67:0.230317 68:0.574226 69:-0.299727 70:-0.454545 71:-0.193169 72:-0.235948 73:-0.248777 74:0.026331 75:-0.423648 76:0.125789 77:0.033474 78:0.317221 79:0.413793 80:0.313423 81:-0.384034 82:0.302617 83:0.689376 84:-0.622214 85:0.450889 86:-0.119769 87:-0.254234 88:-0.035714 89:-0.408478 90:-0.90064 91:-0.553084 92:-0.274578 93:0.342739 94:-0.595702 95:-0.001295 96:0.068392 97:0.514019 98:-0.307237 99:0.519815 100:-0.241181 101:-0.001217 102:-0.678984 103:-0.130988 104:-0.280177 105:-0.182135 106:-0.160305 107:-0.44139 108:-0.860077 109:-0.515701 110:-0.292527 111:-0.532514 112:0.440024 113:1.0 114:-1.0 115:0.268908 116:-0.386392 117:-0.039512 118:0.486312 119:-0.246293 120:-0.453593 121:0.388052 122:0.580079 123:1.0 124:-0.1875 125:1.0 126:1.0 127:1.0 128:0.14766 129:-0.010175 130:0.733468 131:0.501077 132:1.0 133:-0.391304 134:1.0 135:1.0 136:-0.054065 137:0.255147 138:-0.797166 139:1.0 140:1.0 141:1.0 142:0.417143 143:1.0 144:1.0 145:-0.024859 146:-0.487945 147:0.425169 148:-0.723544 149:-0.85873 150:0.484709 151:0.253731 152:0.024023 153:-0.88241 154:-0.969164 155:-0.367 156:0.749914 157:0.161856 158:0.053911 159:-1.0 160:-0.677083 161:-1.0 162:0.745185 163:-0.104715 164:1.0 165:0.157559 166:1.0 167:1.0 168:1.0 169:-0.138921 170:0.077504 171:-0.138243 172:0.329713 173:0.278606 174:0.96303 175:0.188072 176:0.034373 177:0.072938 178:0.402299 179:0.511314 180:-0.488172 181:0.701112 182:-0.258819 183:0.063172 184:-0.351478 185:-0.477093 186:0.731956 187:0.55414 188:0.330736 189:-0.775752 190:-0.851462 191:0.709439 192:0.047209 193:1.0 194:1.0 195:-1.0 196:-0.47651 197:-1.0 198:1.0 199:-0.630626 200:-0.34506 201:0.785857 202:-0.10956 203:0.383261 204:-0.941341 205:-0.148148 206:-0.981518 207:0.367246 208:-0.156343 209:0.18147 210:0.158139 211:-0.271759 212:-0.634446 213:-0.710642 214:-0.5 215:0.132452 216:-0.877067 217:1.0 218:0.259742 219:-0.068465 220:1.0 221:1.0 222:1.0 223:0.945205 224:1.0 225:0.763088 226:0.230337 227:0.047011 228:0.00639 229:0.4159 230:0.643961 231:-0.147749 232:-0.16129 233:0.554012 234:0.417962 235:-0.610273 236:0.698835 237:0.195089 238:0.138363 239:0.106719 240:0.641435 241:-0.569231 242:-0.724892 243:0.401373 244:-1.0 245:0.884155 246:-0.888547 247:1.0 248:1.0 249:-1.0 250:0.0 251:-1.0 252:0.798605 253:-0.097253 254:-0.166086 255:0.015886 256:-0.715442 257:-0.707275 258:-0.178999 259:-0.392857 260:0.457104 261:-0.066038 262:0.820628 263:-0.022854 264:0.360267 265:0.023428 266:0.019222 267:-0.18832 268:0.045455 269:0.891116 270:0.688654 271:1.0 272:1.0 273:0.264607 274:1.0 275:1.0 276:1.0 277:0.498008 278:0.7949 279:0.938949 280:-1.0 281:1.0 282:1.0 283:0.179363 284:0.132644 285:-1.0 286:0.560662 287:-1.0 288:0.287115 289:-0.414223 290:-0.306093 291:0.542486 292:-0.506832 293:-0.412502 294:-0.602748 295:0.16129 296:-0.408464 297:-0.357332 298:1.0 299:1.0 300:-0.501321 301:1.0 302:1.0 303:1.0 304:-0.333333 305:1.0 306:1.0 307:1.0 308:-0.585479 309:-0.438011 310:0.316703 311:0.093247 312:0.054683 313:1.0 314:1.0 315:0.718769 316:0.334899 317:0.37047 318:-0.159147 319:-0.420168 320:-0.551348 321:0.728025 322:0.072464 323:0.121252 324:-0.76273 325:0.570074 326:0.578083 327:0.58611 328:-0.672278 329:-0.620151 330:0.988639 331:0.050972 332:-0.255102 333:-0.363271 334:-0.118452 335:-0.420829 336:-0.973259 337:-0.644182 338:-0.651904 339:0.157592 340:-0.116981 341:0.221194 342:-0.62337 343:-0.403674 344:0.195362 345:0.384169 346:-0.625983 347:-0.552635 348:-0.91106 349:-1.0 350:0.113353 351:-0.495356 
0.0224609375 1:-0.290285 2:-0.297565 3:-0.304707 4:0.170348 5:0.030989 6:0.227139 7:0.202359 8:0.445025 9:-0.577323 10:-0.101027 11:0.095807 12:-0.120218 13:0.178858 14:0.171938 15:-0.677343 16:0.202483 17:0.110279 18:-0.538918 19:-0.232567 20:-0.396686 21:-0.314115 22:0.529532 23:0.779292 24:-1.0 25:-0.376147 26:-0.873744 27:-0.30772 28:-0.53151 29:0.334881 30:-0.024466 31:-0.273933 32:-0.264291 33:0.235516 34:-0.292308 35:0.166006 36:-0.337743 37:-0.218586 38:-0.127398 39:-0.043508 40:-0.130431 41:-0.172353 42:-0.013127 43:0.145263 44:0.178121 45:-0.282588 46:-0.129702 47:0.037269 48:-0.620257 49:0.187366 50:0.025283 51:0.09453 52:0.107692 53:-0.155097 54:-0.616614 55:-0.442296 56:-0.342339 57:-0.586048 58:-0.450831 59:-0.111969 60:-0.361992 61:-0.45098 62:-0.655613 63:0.170133 64:-0.03618 65:-0.463229 66:0.726145 67:-0.071482 68:-0.142033 69:-0.498651 70:-0.121212 71:-0.593212 72:-0.407689 73:-0.069768 74:0.110068 75:-0.444917 76:0.098467 77:0.181535 78:-0.247654 79:0.051724 80:-0.303639 81:-0.322146 82:-0.34388 83:-0.068575 84:-0.564703 85:-0.092228 86:-0.247077 87:-0.0249 88:0.396205 89:-0.28925 90:-0.747056 91:-0.125558 92:-0.338655 93:0.404841 94:-0.865351 95:-0.936402 96:0.188164 97:0.588785 98:-0.068794 99:-0.636445 100:0.444458 101:0.09024 102:-0.647059 103:-0.044988 104:-0.056782 105:0.210404 106:-0.160305 107:0.106746 108:-0.73201 109:0.148992 110:-0.308546 111:-0.538652 112:0.188217 113:0.265383 114:-0.721142 115:-0.294118 116:-0.145435 117:-0.504297 118:0.301217 119:1.0 120:-0.00902 121:0.23541 122:-0.023879 123:-0.616617 124:-0.35 125:-0.62654 126:-0.887514 127:-0.311054 128:0.184041 129:-0.06335 130:-0.342857 131:-0.607363 132:-0.935918 133:-0.101449 134:-0.351823 135:-0.895728 136:0.531813 137:-0.321266 138:-0.796503 139:-0.599431 140:-0.740935 141:-0.500364 142:-0.371429 143:-0.035409 144:-0.83798 145:0.171585 146:-0.835347 147:0.452345 148:-0.687702 149:-0.893591 150:0.485109 151:0.552239 152:0.030372 153:-0.952448 154:-0.168053 155:-0.015161 156:0.737011 157:-0.515893 158:-0.806219 159:-0.275971 160:-0.635417 161:-0.109359 162:-0.952909 163:-0.028759 164:-0.342129 165:0.137132 166:-0.479797 167:-0.549249 168:-0.20374 169:-0.285878 170:-0.097475 171:-0.718002 172:-0.676927 173:-0.189766 174:0.93411 175:-0.52275 176:-0.657804 177:-0.090512 178:0.218391 179:-0.100159 180:-0.717295 181:-0.772785 182:0.051359 183:0.389029 184:-0.397572 185:-0.51113 186:0.714529 187:0.248408 188:0.116619 189:-0.656059 190:-0.103438 191:-0.386803 192:0.038724 193:-0.48813 194:-0.583347 195:0.746668 196:-0.181208 197:0.181602 198:-0.709547 199:-0.177348 200:-0.329779 201:0.791271 202:-0.455253 203:-0.620645 204:-0.633469 205:0.037037 206:-0.330218 207:-0.844879 208:0.16569 209:-0.276686 210:0.162776 211:-0.354022 212:-0.518142 213:-0.792417 214:-0.090909 215:-0.237323 216:-0.677349 217:-0.218111 218:0.129294 219:0.02139 220:-0.273954 221:-0.469852 222:-0.934069 223:-0.054794 224:-0.378388 225:-0.512998 226:-0.243476 227:0.422477 228:0.03203 229:-0.322817 230:-0.476329 231:-0.49217 232:-0.193548 233:-0.113225 234:-0.838144 235:0.537559 236:0.511998 237:0.318322 238:-0.67805 239:-0.814537 240:0.991315 241:-0.015385 242:0.263793 243:-0.992006 244:0.140315 245:-0.422916 246:-0.885218 247:-0.818122 248:-0.850978 249:0.353685 250:0.05 251:-0.111539 252:-0.842674 253:-0.189208 254:-0.924359 255:0.062622 256:-1.0 257:-1.0 258:-0.18696 259:0.571429 260:-0.104645 261:-0.935666 262:-0.005065 263:0.447288 264:0.409341 265:-0.700567 266:-0.792452 267:-0.418542 268:0.818182 269:0.028705 270:-0.924007 271:-0.661909 272:-0.175529 273:0.133113 274:-0.701509 275:-0.740724 276:-0.967611 277:0.211155 278:-0.592025 279:-0.663452 280:-0.570294 281:-0.160118 282:0.144732 283:-0.727805 284:-0.807816 285:-0.667362 286:-0.235294 287:-0.148335 288:-0.904037 289:-0.278293 290:-0.043208 291:0.531239 292:-0.666191 293:-0.654766 294:-0.583203 295:0.032258 296:0.252289 297:-0.447535 298:-0.306268 299:-0.019363 300:-0.508587 301:-0.701065 302:-0.733844 303:-0.940069 304:-0.0 305:-0.640741 306:-0.457937 307:-0.223548 308:-0.439776 309:-0.437041 310:-0.507466 311:-0.566849 312:-0.753927 313:-0.515152 314:-0.463651 315:-0.580026 316:0.25926 317:-0.337346 318:-0.135208 319:-0.727102 320:-0.764369 321:0.737022 322:0.217391 323:0.056822 324:-0.712306 325:0.271213 326:0.27858 327:0.286092 328:-0.311264 329:-0.287363 330:0.914464 331:0.144392 332:-0.381654 333:-0.300806 334:-0.459938 335:-0.149686 336:-0.971515 337:-0.384042 338:-0.460266 339:0.22885 340:0.139623 341:0.257951 342:-0.560022 343:0.320099 344:-0.29591 345:1.0 346:-0.40897 347:-0.38188 348:-0.842114 349:-0.243243 350:0.891745 351:-0.18245 
0.0234375 1:-0.644141 2:-0.643954 3:-0.64376 4:-0.75423 5:-0.702836 6:-0.462679 7:-0.275149 8:-0.638305 9:-0.634445 10:-0.237904 11:0.304389 12:-0.38929 13:-0.55878 14:-0.574124 15:-0.803879 16:-0.194349 17:-0.166513 18:-0.735143 19:0.352538 20:-0.531354 21:-0.335293 22:-0.16042 23:-0.015983 24:0.607321 25:0.252294 26:0.069143 27:-0.671628 28:-0.37362 29:-0.293349 30:-0.025733 31:-0.555058 32:-0.599854 33:0.109658 34:0.738462 35:-0.020588 36:-0.580792 37:0.175311 38:0.738057 39:0.028185 40:0.161133 41:-0.251653 42:0.24755 43:-0.191579 44:0.340837 45:-0.645641 46:-0.283623 47:-0.378986 48:-0.513834 49:-0.766105 50:-0.930805 51:0.178393 52:0.2 53:-0.352677 54:-0.645375 55:-0.480432 56:-0.032208 57:-0.61445 58:-0.072625 59:0.025834 60:0.176646 61:-0.529412 62:0.177574 63:-0.563205 64:-0.881933 65:-0.265249 66:0.711629 67:-0.335982 68:-0.576011 69:-0.173287 70:-0.011364 71:-0.169972 72:-0.866289 73:-0.884402 74:0.039818 75:-0.431184 76:-0.450094 77:-0.589654 78:0.187156 79:-1.0 80:0.440927 81:-0.47355 82:-0.006212 83:-0.106122 84:-0.556349 85:-0.180382 86:-0.323713 87:-0.065272 88:-0.214286 89:-0.372886 90:-0.769052 91:-0.512825 92:-0.448534 93:0.286565 94:-0.477554 95:-0.460572 96:0.11106 97:-0.383178 98:-0.194539 99:-0.624834 100:0.106625 101:-0.60015 102:-0.720873 103:-0.123675 104:0.015412 105:-0.09933 106:0.267176 107:-0.315241 108:-0.448001 109:0.202203 110:-0.841549 111:-0.497546 112:-0.852955 113:-0.826972 114:-0.657994 115:-0.369748 116:0.002355 117:-0.433639 118:0.323292 119:-0.514712 120:-0.464277 121:-0.773202 122:-0.818505 123:-0.472664 124:-0.05 125:-0.358614 126:-0.853017 127:-0.232579 128:-0.112497 129:0.02604 130:-0.602827 131:-0.773812 132:-0.94058 133:-0.014493 134:-0.189744 135:-0.837485 136:-0.158847 137:0.686102 138:-0.800748 139:-0.06048 140:-0.553941 141:-0.500622 142:0.04 143:-0.04978 144:-0.919408 145:-0.609246 146:0.094892 147:0.032349 148:-0.399698 149:-0.639991 150:0.478279 151:0.343284 152:-0.04242 153:-0.871038 154:0.187114 155:-0.480303 156:0.749008 157:-0.741397 158:-0.886971 159:-0.279987 160:-0.625 161:-0.227896 162:-0.852162 163:0.234033 164:-0.543635 165:0.145181 166:-0.574094 167:-0.687975 168:-0.214415 169:0.044776 170:-0.087658 171:-0.77024 172:0.429632 173:-0.478577 174:0.941012 175:-0.575524 176:-0.700352 177:-0.035162 178:0.310345 179:0.517702 180:-0.83118 181:0.421997 182:-0.565909 183:0.387183 184:-0.7212 185:-0.826245 186:0.731664 187:0.248408 188:0.168713 189:-0.873076 190:0.364735 191:-0.44437 192:0.02862 193:-0.788736 194:-0.858914 195:0.747125 196:-0.610738 197:0.216916 198:-0.740965 199:0.48315 200:-0.52283 201:0.763839 202:-0.279951 203:-0.294874 204:-0.696895 205:0.407407 206:-0.505949 207:-0.572578 208:-0.12264 209:-0.368923 210:0.172366 211:-0.559279 212:-0.684332 213:-0.834633 214:-0.113636 215:-0.637085 216:-0.629706 217:-0.266601 218:-0.392992 219:0.111113 220:-0.803448 221:-0.878527 222:-0.859671 223:-0.013699 224:0.146942 225:-0.914737 226:-0.257927 227:-0.687362 228:0.069365 229:-0.8534 230:-0.838623 231:-0.485957 232:0.032258 233:0.081207 234:-0.703641 235:0.70109 236:-0.412001 237:-0.68837 238:-0.8132 239:-0.880409 240:0.993088 241:0.094231 242:0.315087 243:-0.934127 244:-0.071092 245:0.52684 246:-0.866014 247:-0.523338 248:-0.62499 249:0.356784 250:0.55 251:0.019011 252:-0.912197 253:-0.42991 254:0.152891 255:0.117768 256:-0.655322 257:-0.740212 258:-0.184688 259:-0.142857 260:-0.007156 261:-0.792045 262:-0.055833 263:-0.674783 264:0.357872 265:-0.95007 266:-0.949562 267:-0.418471 268:0.545455 269:0.092753 270:-0.889847 271:-0.208964 272:-0.410712 273:0.34604 274:-0.856102 275:-0.908272 276:-0.965647 277:-0.23506 278:-0.705846 279:-0.869123 280:0.014195 281:-0.487839 282:0.150442 283:-0.746064 284:-0.850599 285:-0.665226 286:-0.220588 287:-0.022825 288:-0.91892 289:-0.058522 290:-0.718956 291:0.553201 292:-0.803348 293:-0.825982 294:-0.590513 295:0.193548 296:-0.235154 297:-0.753438 298:-0.132347 299:-0.69022 300:-0.504004 301:-0.898822 302:-0.900133 303:-0.930344 304:0.533333 305:-0.273228 306:-0.686299 307:0.406049 308:-0.164295 309:-0.419459 310:-0.414749 311:-0.579977 312:-0.725273 313:-0.151515 314:-0.265486 315:-0.615861 316:0.454454 317:-0.29908 318:-0.219182 319:-0.764895 320:-0.774444 321:0.739613 322:0.275362 323:0.168439 324:-0.635532 325:0.904671 326:0.907111 327:0.909526 328:-0.990846 329:-0.982554 330:0.999722 331:-0.494042 332:0.768075 333:-0.713587 334:-0.523558 335:-0.776918 336:-0.973837 337:-0.962728 338:-0.977969 339:0.136145 340:0.516981 341:-0.098433 342:-1.0 343:0.377233 344:-0.676019 345:0.112436 346:-0.940653 347:-0.960912 348:-0.906857 349:-0.459459 350:0.286238 351:-0.981397 
0.0234375 1:-0.517085 2:-0.518105 3:-0.519102 4:-0.511066 5:-0.474062 6:-0.370106 7:-0.080936 8:0.190632 9:-0.626446 10:-0.616478 11:0.667864 12:-0.724972 13:-0.607482 14:-0.62661 15:-0.803936 16:-1.0 17:-0.182885 18:-0.813665 19:0.20122 20:-0.497714 21:-0.371985 22:-0.548619 23:-0.496582 24:0.330767 25:0.082569 26:-0.416841 27:-0.679616 28:-0.402715 29:-0.073786 30:-0.012148 31:0.454909 32:0.096208 33:-0.273869 34:-0.261538 35:-0.235581 36:-0.702584 37:0.420412 38:0.381273 39:0.012679 40:0.09695 41:-0.321879 42:0.027234 43:0.28 44:0.179953 45:-0.750462 46:0.222504 47:-0.234425 48:-0.512589 49:-0.14262 50:0.247518 51:0.356447 52:0.169231 53:0.217467 54:-0.116566 55:0.452012 56:-0.390748 57:-0.588473 58:-0.388693 59:0.132044 60:-0.344044 61:-0.921569 62:-0.576607 63:0.558769 64:-0.075144 65:-0.328269 66:0.712088 67:0.244861 68:-0.002205 69:-0.095608 70:0.090909 71:0.01802 72:-0.802689 73:0.145894 74:-0.499055 75:-0.424942 76:-0.464745 77:-0.390306 78:-0.0674 79:0.133621 80:-0.159071 81:-0.140546 82:0.016899 83:0.067119 84:-0.561927 85:0.478315 86:0.200845 87:-0.309966 88:0.169643 89:-0.440848 90:-0.689345 91:0.272693 92:-0.412151 93:0.339843 94:-0.151753 95:0.542781 96:0.249782 97:0.191589 98:0.001757 99:0.180356 100:0.046215 101:0.027237 102:-0.759808 103:0.146662 104:0.176942 105:-0.129276 106:-0.038168 107:-0.313218 108:-0.751819 109:0.7001 110:-0.566673 111:-0.52317 112:-0.04257 113:0.196515 114:-0.428342 115:0.151261 116:0.570959 117:0.125859 118:0.461903 119:-0.634573 120:-0.457327 121:-0.409333 122:-0.498663 123:-0.400607 124:-0.4 125:0.056576 126:-0.673639 127:-0.358277 128:-0.597679 129:-0.046808 130:-0.795186 131:-0.905738 132:-0.951931 133:0.057971 134:-0.20855 135:-0.86981 136:0.468482 137:0.748202 138:-0.816014 139:0.139169 140:-0.247828 141:-0.628085 142:0.84 143:-0.37617 144:-0.687274 145:-0.002022 146:0.423352 147:0.890701 148:-0.320624 149:-0.689525 150:0.484366 151:-0.223881 152:0.007927 153:-0.976473 154:0.10769 155:-0.58222 156:0.745561 157:-0.713922 158:-0.820976 159:-0.246142 160:-0.802083 161:0.162581 162:-0.758115 163:-0.336991 164:-0.246641 165:0.2062 166:-0.594859 167:-0.658302 168:-0.246465 169:0.118255 170:-0.332386 171:-0.808302 172:-0.375943 173:-0.62824 174:0.943364 175:-0.556064 176:-0.627443 177:-0.089194 178:-0.011494 179:-0.119106 180:-0.586382 181:-0.118902 182:-0.053395 183:0.398207 184:-0.568745 185:-0.755835 186:0.717167 187:0.044586 188:-0.040282 189:-0.775193 190:-0.305416 191:-0.288222 192:0.042032 193:-0.361047 194:-0.601216 195:0.709834 196:0.275168 197:-0.132003 198:-0.721092 199:-0.593638 200:-0.045789 201:0.779735 202:0.230111 203:0.12704 204:-0.692111 205:-1.0 206:-0.379258 207:-0.649338 208:0.00606 209:0.328531 210:0.187515 211:-0.292522 212:-0.670266 213:-0.822953 214:-0.261364 215:-0.389393 216:-0.9936 217:0.036625 218:-0.33511 219:-0.114283 220:-0.511426 221:-0.652158 222:-0.861548 223:-0.013699 224:0.069553 225:-0.827226 226:-0.015531 227:-0.498769 228:0.184348 229:-0.852082 230:-0.87133 231:-0.487226 232:-0.548387 233:-0.150928 234:-0.872639 235:0.788809 236:-0.333132 237:-0.565455 238:-0.883906 239:-0.901185 240:0.993472 241:0.107692 242:0.348328 243:-0.878146 244:0.217516 245:0.602547 246:-0.900512 247:-0.463174 248:-0.674038 249:0.361871 250:-0.225 251:0.09383 252:-0.965355 253:-0.195414 254:-0.542356 255:0.087521 256:-0.812333 257:-0.844957 258:-0.187551 259:-0.428571 260:-0.204841 261:-0.82278 262:0.097772 263:-0.318643 264:0.361099 265:-0.870445 266:-0.909543 267:-0.419547 268:-0.272727 269:-0.091155 270:-0.898481 271:-0.505586 272:-0.901393 273:0.311793 274:-0.827676 275:-0.835022 276:-0.961804 277:0.2749 278:-0.244899 279:-0.65749 280:-0.344264 281:-0.05345 282:0.209406 283:-0.671292 284:-0.7427 285:-0.669209 286:-0.294118 287:-0.22378 288:-0.825743 289:-0.409767 290:-0.185912 291:0.540439 292:-0.766772 293:-0.777555 294:-0.587702 295:-0.193548 296:0.099309 297:-0.725388 298:-0.488081 299:-0.365031 300:-0.50168 301:-0.613232 302:-0.661144 303:-0.920004 304:0.25 305:0.053207 306:-0.657944 307:-0.266019 308:-0.003298 309:-0.450683 310:-0.248379 311:-0.713118 312:-0.77886 313:0.333333 314:-0.52068 315:-0.847776 316:0.570136 317:0.135896 318:-1.0 319:-0.701327 320:-0.78679 321:0.743468 322:0.188406 323:0.395418 324:-0.852762 325:0.829046 326:0.832456 327:0.835861 328:-0.836462 329:-0.757234 330:0.997314 331:-0.033104 332:-0.259403 333:-0.017524 334:-0.734617 335:-0.591291 336:-0.97554 337:-0.768623 338:-0.779789 339:0.126665 340:-0.207547 341:-0.500625 342:-0.546529 343:0.069531 344:-0.423832 345:0.10594 346:-0.813749 347:-0.857663 348:-0.908816 349:-0.063063 350:-0.038254 351:-0.866919 
0.0234375 1:-0.49573 2:-0.505376 3:-0.514712 4:0.32108 5:0.446102 6:1.0 7:0.225151 8:0.899445 9:0.181108 10:-0.299458 11:0.314873 12:-0.347331 13:-0.070414 14:-0.003662 15:-0.625408 16:-0.344178 17:0.376575 18:-0.329826 19:0.323619 20:-0.431015 21:-0.290636 22:-0.321844 23:-0.333418 24:0.517068 25:0.229358 26:-0.005652 27:-0.856559 28:-0.656371 29:-0.009354 30:0.01699 31:-0.632023 32:-0.45798 33:-0.067613 34:1.0 35:-0.435938 36:-0.033136 37:0.209563 38:-0.215369 39:-0.017035 40:-0.38055 41:-0.46126 42:-0.350451 43:0.195789 44:-0.317986 45:-0.244597 46:1.0 47:-0.335202 48:-0.530311 49:0.21626 50:-0.036701 51:0.321151 52:0.015385 53:0.138702 54:-0.756483 55:0.660215 56:0.527531 57:-0.539127 58:-0.09722 59:-0.210236 60:-0.141746 61:-0.019608 62:-0.184908 63:-0.78236 64:-0.189286 65:-0.050698 66:0.709239 67:0.13389 68:-0.173267 69:-0.010435 70:-0.090909 71:0.114035 72:-0.833998 73:-0.187047 74:-0.328216 75:-0.418526 76:0.382935 77:0.143409 78:-0.300405 79:0.568966 80:-0.277071 81:-0.331403 82:-0.313811 83:0.16185 84:-0.554 85:0.100772 86:-0.378386 87:0.104155 88:0.321429 89:-0.119674 90:-0.930374 91:-0.120457 92:-0.544139 93:0.348275 94:-0.962557 95:-0.963058 96:0.272409 97:0.17757 98:0.255582 99:-0.520815 100:0.372443 101:-0.546577 102:-0.738822 103:-0.026324 104:0.51258 105:-0.615613 106:0.234733 107:-0.967812 108:0.713524 109:-0.651383 110:-0.735544 111:-0.50648 112:-0.308821 113:-0.023866 114:-0.78735 115:-0.352941 116:-0.754457 117:0.32512 118:-0.29501 119:0.458204 120:-1.0 121:-0.2662 122:-0.353691 123:-0.41308 124:-0.075 125:-0.177151 126:-0.801063 127:-0.551625 128:-0.596172 129:-0.054867 130:-0.732998 131:-0.837247 132:-0.95694 133:0.478261 134:-0.458322 135:-0.822121 136:-0.008259 137:-0.214979 138:-0.79211 139:-0.443738 140:-0.64622 141:-0.526065 142:0.222857 143:-0.297922 144:-0.800696 145:-0.46033 146:-0.6182 147:0.48992 148:-0.64847 149:-0.750848 150:0.497863 151:-0.044776 152:0.270062 153:-0.680673 154:-0.250376 155:0.502517 156:0.728404 157:-0.406221 158:-0.571999 159:-0.273794 160:-0.416667 161:-0.083204 162:-0.823441 163:0.296055 164:-0.017983 165:0.12088 166:-0.243933 167:-0.497487 168:-0.394712 169:0.301952 170:-0.774392 171:-0.741898 172:-0.432738 173:-0.393798 174:0.932406 175:-0.460386 176:-0.662333 177:-0.082138 178:0.390805 179:0.025931 180:-0.844569 181:0.117137 182:-0.143824 183:0.386142 184:-0.379079 185:-0.549145 186:0.741133 187:-0.006369 188:0.428986 189:-0.838741 190:0.018671 191:0.200927 192:0.0912 193:-0.522388 194:-0.800824 195:0.751395 196:-0.610738 197:0.249142 198:-0.962381 199:-0.504974 200:-0.689723 201:0.39042 202:-0.831584 203:-0.82247 204:-0.663938 205:0.037037 206:-0.707092 207:-0.101413 208:-0.242887 209:-0.122153 210:0.157251 211:-0.503221 212:-0.747725 213:-0.807322 214:-0.227273 215:-0.347713 216:-0.923904 217:-0.600888 218:-0.538441 219:-0.041662 220:-0.269928 221:-0.429146 222:-0.967528 223:-0.452055 224:-0.580602 225:-0.195473 226:-0.304846 227:0.271307 228:0.02598 229:-0.361137 230:-0.493301 231:-0.488381 232:-0.290323 233:-0.073502 234:-0.873012 235:0.753072 236:-0.395402 237:-0.328661 238:-0.841611 239:-0.832994 240:0.992843 241:-0.138462 242:0.241848 243:-0.775292 244:0.262297 245:-0.01399 246:-0.885024 247:-0.693271 248:-0.762672 249:0.348988 250:-0.1625 251:-0.289498 252:-0.798149 253:-0.319142 254:-0.975795 255:0.075539 256:-0.854881 257:-0.844708 258:-0.186494 259:-0.205357 260:-0.037309 261:-0.632462 262:-0.135156 263:0.475064 264:0.378491 265:-0.738326 266:-0.843905 267:-0.418903 268:0.090909 269:0.010307 270:-0.969031 271:-0.699961 272:-0.017716 273:0.486728 274:-0.695499 275:-0.81933 276:-0.965275 277:-0.043825 278:-0.482236 279:-0.96865 280:-0.371061 281:-0.161067 282:0.2619 283:-0.784544 284:-0.852381 285:-0.665235 286:-0.411765 287:0.015754 288:-0.870164 289:-0.096661 290:-0.019382 291:0.545823 292:-0.58682 293:-0.624857 294:-0.593567 295:0.580645 296:-0.234321 297:-0.822015 298:-0.239079 299:-0.538414 300:-0.507008 301:-0.793797 302:-0.769373 303:-0.932054 304:-0.066667 305:-0.367135 306:-0.517766 307:-0.049956 308:-0.684015 309:-0.450971 310:-0.741727 311:-0.774042 312:-0.714215 313:-0.515152 314:-0.013226 315:-0.406334 316:0.293868 317:0.129215 318:-0.19011 319:-0.73828 320:-0.876312 321:0.740569 322:0.072464 323:0.244981 324:-0.945253 325:0.706034 326:0.710108 327:0.714229 328:-0.646001 329:-0.595419 330:0.979002 331:0.025855 332:-0.708698 333:0.145792 334:-0.266741 335:-0.69554 336:-0.975196 337:-0.735388 338:-0.69484 339:0.154052 340:0.018868 341:0.434839 342:-0.198283 343:0.670383 344:-0.446732 345:0.068011 346:-0.667909 347:-0.633856 348:-0.894126 349:-0.063063 350:0.777218 351:-0.287023 
0.0234375 1:-0.853517 2:-0.853868 3:-0.85421 4:-0.733265 5:-0.652738 6:-0.417585 7:0.223105 8:0.137716 9:-0.484207 10:-0.621212 11:0.656039 12:-0.698602 13:-0.373971 14:-0.351038 15:-0.785787 16:-0.044521 17:-0.026101 18:-0.695296 19:0.322566 20:-0.593195 21:0.115834 22:-0.249503 23:-0.071124 24:-0.055548 25:-0.073395 26:-0.902667 27:-0.273053 28:0.290173 29:-0.821542 30:0.021041 31:0.023359 32:0.13007 33:-0.033087 34:-0.077885 35:-0.143551 36:0.01727 37:0.240094 38:0.283453 39:-0.075275 40:0.774653 41:1.0 42:0.900207 43:0.111579 44:0.459901 45:0.357538 46:-0.673687 47:0.699503 48:-0.540811 49:0.85895 50:0.570911 51:0.471779 52:0.761538 53:0.233424 54:-0.647519 55:-0.670484 56:0.101471 57:-0.410903 58:-0.61032 59:-0.489148 60:0.097138 61:-0.137255 62:0.282473 63:-0.501039 64:0.14303 65:-0.307765 66:0.707352 67:0.450389 68:0.632461 69:0.045969 70:-0.454545 71:0.136379 72:-0.276507 73:-0.009643 74:-0.826759 75:-0.426097 76:-0.700558 77:-0.782769 78:-0.157452 79:0.12069 80:-0.529 81:-0.24294 82:-0.146958 83:-0.328511 84:-0.557621 85:-0.373644 86:-0.341222 87:0.018997 88:0.5 89:-0.237118 90:-0.613084 91:-0.703649 92:0.13304 93:0.353291 94:0.053231 95:0.182158 96:0.247916 97:0.214953 98:-0.013951 99:-0.539249 100:-0.522592 101:-0.307006 102:-0.708966 103:-0.147043 104:-0.149121 105:-0.236483 106:0.206107 107:-0.531201 108:-0.726996 109:0.201726 110:-0.793039 111:-0.49223 112:-0.845343 113:-0.893776 114:-0.655019 115:0.243697 116:0.179361 117:-0.702792 118:0.255576 119:0.015177 120:-0.469233 121:-0.434099 122:-0.522368 123:-0.455142 124:-0.5 125:-0.296313 126:-0.827372 127:-0.174096 128:-0.770873 129:-0.031317 130:-0.660931 131:-0.744115 132:-0.941448 133:0.275362 134:-0.116968 135:-0.679809 136:0.33896 137:-0.049217 138:-0.80233 139:-0.198621 140:-0.392999 141:-0.417623 142:0.131429 143:0.383104 144:-0.43991 145:-0.132136 146:-0.209036 147:0.429802 148:-0.139349 149:-0.268467 150:0.436248 151:-0.044776 152:-0.19882 153:-0.491693 154:-0.481624 155:0.124808 156:0.724562 157:-0.44328 158:-0.724465 159:-0.32322 160:-0.791667 161:-0.323395 162:-0.889262 163:0.239153 164:-0.685757 165:0.131849 166:-0.714289 167:-0.717403 168:-0.249395 169:0.044776 170:-0.360782 171:-0.719543 172:0.833676 173:-0.629271 174:0.94437 175:-0.654009 176:-0.648315 177:-0.08121 178:-0.701149 179:-0.120605 180:-0.423725 181:0.373082 182:-0.161712 183:0.401215 184:-0.79156 185:-0.875164 186:0.730976 187:-0.414013 188:0.038591 189:-0.838269 190:0.141901 191:-0.626803 192:0.038296 193:-0.784321 194:-0.856856 195:0.755482 196:-0.496644 197:0.563559 198:-0.583579 199:-0.179467 200:0.088661 201:0.586332 202:0.072696 203:-0.317896 204:-0.810984 205:0.333333 206:-0.594656 207:-0.861488 208:0.265332 209:-0.134951 210:0.155619 211:-0.360201 212:-0.646524 213:-0.805788 214:-0.113636 215:-0.313364 216:-0.924951 217:-0.291841 218:-0.454591 219:-0.195456 220:-0.831149 221:-0.903211 222:-0.861511 223:-0.09589 224:-0.001923 225:-0.899326 226:-0.135573 227:-0.126359 228:0.062045 229:-0.656048 230:-0.769106 231:-0.48977 232:0.206779 233:-0.197596 234:-0.913789 235:0.649121 236:-0.343981 237:-0.720971 238:-0.823376 239:-0.86358 240:0.994311 241:-0.015385 242:0.514078 243:-0.908836 244:-0.036174 245:0.290797 246:-0.892513 247:-0.612048 248:-0.645219 249:0.355471 250:0.075 251:0.001021 252:-0.734588 253:-0.143691 254:-0.336818 255:0.082227 256:-0.556661 257:-0.604085 258:-0.181614 259:-0.044643 260:0.049569 261:-0.605279 262:0.212246 263:0.158361 264:0.381985 265:-0.76861 266:-0.763663 267:-0.422148 268:0.772727 269:-0.212177 270:-0.692481 271:-0.10266 272:-0.52962 273:0.363622 274:-0.815311 275:-0.828378 276:-0.962244 277:-0.458167 278:-0.299287 279:-0.689867 280:-0.394685 281:-0.583277 282:0.138631 283:-0.841768 284:-0.822499 285:-0.67147 286:-0.411765 287:-0.574357 288:-0.343347 289:-0.209084 290:-0.668128 291:0.548353 292:-0.867496 293:-0.856483 294:-0.590151 295:0.16129 296:-0.256491 297:-0.754871 298:-0.411184 299:-0.39152 300:-0.508566 301:-0.849801 302:-0.885098 303:-0.928066 304:-0.066667 305:-0.012213 306:-0.770914 307:0.231923 308:0.228123 309:-0.95425 310:-0.274169 311:-0.678673 312:-0.731377 313:-0.272727 314:-0.313165 315:-0.895235 316:0.571592 317:0.457526 318:-0.142996 319:-0.644966 320:-0.857482 321:0.73883 322:0.246377 323:0.21105 324:-1.0 325:0.955295 326:0.956324 327:0.957354 328:-0.963167 329:-0.950987 330:0.999601 331:0.136233 332:0.280813 333:-0.706965 334:-0.504016 335:-0.917501 336:-0.973992 337:-0.953643 338:-0.963837 339:0.13643 340:-0.284906 341:0.036647 342:-0.864101 343:0.409962 344:-0.656171 345:0.134314 346:-0.92849 347:-0.947095 348:-0.906847 349:-0.423423 350:0.284492 351:-0.908468 
0.0234375 1:-0.544681 2:-0.547481 3:-0.550257 4:-0.298423 5:-0.214331 6:-0.323328 7:0.00959 8:0.109697 9:-0.68396 10:-0.417222 11:0.469418 12:-0.534997 13:-0.475531 14:-0.355746 15:-0.804212 16:0.226027 17:-0.149122 18:-0.49084 19:0.255446 20:-0.718718 21:-0.288164 22:-0.332623 23:-0.112085 24:0.243985 25:0.33945 26:-0.48798 27:-0.600556 28:-0.649824 29:0.761617 30:-0.042408 31:-0.273263 32:-0.169727 33:0.485426 34:0.215385 35:0.51617 36:0.275411 37:0.766232 38:-0.546492 39:-0.023467 40:-0.666428 41:-0.414703 42:-0.105576 43:-0.444211 44:0.099225 45:0.293178 46:-0.555269 47:0.720063 48:0.433311 49:0.904278 50:0.697222 51:0.183689 52:0.630769 53:0.028322 54:-0.591123 55:0.121389 56:-0.750953 57:-0.592969 58:-0.245446 59:-0.383044 60:-0.20212 61:-0.764706 62:-0.290116 63:-0.723695 64:1.0 65:0.3346 66:0.753414 67:-0.029841 68:-0.204214 69:-0.166704 70:-0.666667 71:-0.08991 72:-0.827827 73:-0.055854 74:-0.121337 75:-0.425368 76:0.301394 77:-0.099505 78:0.356438 79:-0.155172 80:0.280717 81:-0.598387 82:-0.343545 83:-0.175687 84:-0.561857 85:-0.035765 86:-0.156443 87:-0.064129 88:0.071429 89:-0.336357 90:-0.698712 91:-0.662124 92:0.2514 93:0.304052 94:-0.174872 95:0.04441 96:0.017377 97:0.028037 98:-0.251329 99:-0.330358 100:0.538857 101:0.349709 102:-0.706972 103:0.423169 104:0.394827 105:-0.723643 106:-0.129771 107:-0.707489 108:-0.510621 109:0.144655 110:-0.344081 111:-0.484091 112:-0.239771 113:-0.256519 114:-0.655636 115:0.0 116:-0.031355 117:-0.691977 118:-0.130732 119:-0.485637 120:-0.458592 121:-0.5566 122:-0.55119 123:-0.480801 124:-0.25 125:-0.506738 126:-0.745115 127:-0.757598 128:-0.477724 129:-0.025601 130:-0.723544 131:-0.86297 132:-0.966085 133:-0.884058 134:-0.745064 135:-0.875905 136:-0.264149 137:-0.622828 138:-0.792224 139:-0.725317 140:-0.766259 141:-0.484886 142:-0.097143 143:0.382718 144:-0.496578 145:-0.054734 146:-0.901112 147:0.450551 148:-0.781428 149:-0.823475 150:0.49391 151:-0.373134 152:0.334859 153:-0.59615 154:0.592047 155:0.725432 156:0.721227 157:-0.095897 158:-0.496506 159:-0.345794 160:-0.75 161:-0.215977 162:-0.852759 163:0.255158 164:-0.104105 165:0.110128 166:-0.571584 167:-0.75548 168:-0.230925 169:-0.432836 170:-0.215506 171:-0.981552 172:0.17763 173:-0.23894 174:0.913716 175:-0.392652 176:-0.567014 177:-0.030632 178:0.300287 179:0.433903 180:-0.767273 181:-0.44813 182:0.528247 183:0.408254 184:-0.123943 185:-0.390376 186:0.761304 187:-0.057325 188:0.517377 189:-0.78875 190:-0.709902 191:-0.202967 192:0.025718 193:-0.788143 194:-0.951005 195:0.747633 196:0.033557 197:0.238311 198:-0.867671 199:-0.173424 200:-0.340265 201:0.785916 202:-0.140903 203:-0.104695 204:-0.360638 205:0.333333 206:0.312805 207:-0.247185 208:-0.038416 209:-0.231516 210:0.160662 211:0.076266 212:-0.291317 213:-0.73065 214:-0.045455 215:-0.12098 216:-0.73963 217:-0.36189 218:-0.083497 219:-0.049295 220:-0.426106 221:-0.650247 222:-0.880021 223:0.205479 224:-0.122326 225:-0.848776 226:-0.312573 227:-0.732107 228:0.037737 229:-0.809484 230:-0.843559 231:-0.4867 232:0.225806 233:-0.05428 234:-0.859235 235:0.762637 236:-0.634685 237:-0.776253 238:-0.913153 239:-0.905391 240:0.994082 241:0.492308 242:0.578985 243:-0.785972 244:0.228282 245:-0.488277 246:-0.881016 247:-0.911081 248:-0.944191 249:0.355226 250:0.45 251:0.12273 252:-0.873297 253:-0.407037 254:-0.832443 255:0.076305 256:-0.913259 257:-0.910701 258:-0.187404 259:0.285714 260:-0.253115 261:-0.811011 262:-0.021122 263:0.127351 264:0.351572 265:-0.535172 266:-0.609992 267:-0.428322 268:0.272727 269:-0.1824 270:-0.681617 271:-0.662253 272:-0.380124 273:0.349725 274:-0.777575 275:-0.879759 276:-0.960539 277:0.14741 278:-0.196251 279:-0.914693 280:-0.264649 281:0.359456 282:0.128574 283:-0.538027 284:-0.673925 285:-0.675487 286:-0.088235 287:-0.325716 288:-0.85599 289:-0.123209 290:0.270017 291:0.564827 292:-0.554151 293:-0.663354 294:-0.592218 295:0.741936 296:-0.172359 297:-0.866965 298:-0.321616 299:-0.468136 300:-0.510841 301:-0.862221 302:-0.914104 303:-0.932028 304:0.066667 305:-0.456151 306:-0.782513 307:0.167651 308:-0.328745 309:-0.452037 310:-0.325939 311:-0.44724 312:-0.645469 313:-0.333333 314:0.125606 315:-0.387965 316:0.345135 317:0.345318 318:-0.163841 319:-0.453345 320:-0.601407 321:0.741087 322:0.217391 323:0.306455 324:-0.884564 325:0.765765 326:0.770524 327:0.775286 328:-0.808616 329:-0.790692 330:0.996682 331:0.160254 332:-0.189859 333:-0.490026 334:-0.515414 335:-0.888487 336:-0.974234 337:-0.835967 338:-0.795478 339:0.136948 340:0.09434 341:-0.047042 342:-0.49514 343:0.325882 344:-0.639956 345:0.043665 346:-0.854936 347:-0.864707 348:-0.906442 349:0.243243 350:0.353907 351:-0.844252 
0.0234375 1:-0.988372 2:-0.98822 3:-0.988059 4:-0.906169 5:-0.955381 6:-0.443548 7:0.264957 8:-0.292191 9:-0.85069 10:-1.0 11:1.0 12:-1.0 13:-0.132446 14:-0.171471 15:-0.880438 16:0.585616 17:-0.345659 18:-0.521369 19:-0.072797 20:-0.212633 21:-0.266895 22:-0.118446 23:0.212506 24:0.497904 25:-0.137615 26:-0.081398 27:-0.583757 28:-0.83397 29:0.57073 30:-0.02606 31:-0.280848 32:-0.285166 33:-0.369345 34:-1.0 35:-0.688805 36:0.351277 37:0.21949 38:0.61085 39:-0.067511 40:0.334767 41:0.24759 42:-0.043284 43:0.061053 44:0.104486 45:-0.431967 46:0.422923 47:-0.452141 48:-0.567422 49:-0.417339 50:-0.362065 51:0.459004 52:0.05 53:0.514409 54:-0.235364 55:-0.029614 56:-0.844793 57:-0.593622 58:-0.442859 59:-0.097943 60:0.178527 61:-0.72549 62:0.350235 63:-0.010051 64:0.307891 65:-0.377175 66:0.6857 67:6.2E-4 68:0.249191 69:0.296296 70:-0.333333 71:0.545973 72:-0.0697 73:-0.171421 74:-0.708905 75:-0.428839 76:-0.40434 77:-0.626102 78:-0.006163 79:0.206897 80:-0.015725 81:-0.54778 82:-0.648347 83:0.631037 84:-0.565698 85:-0.043761 86:-0.158161 87:0.548707 88:-0.276786 89:0.523996 90:-0.381426 91:-0.291268 92:-0.109869 93:0.389928 94:-0.176018 95:0.283307 96:-0.393318 97:0.065421 98:-0.702937 99:0.132342 100:-0.126812 101:-0.347383 102:-0.707317 103:-0.354293 104:-0.345158 105:0.218395 106:-0.038168 107:0.330001 108:-0.356942 109:0.249134 110:-0.753983 111:-0.406831 112:-0.888441 113:-0.900698 114:-0.661173 115:0.117647 116:-0.244916 117:-0.637592 118:0.636825 119:-0.071087 120:-0.462767 121:-0.398247 122:-0.359974 123:-0.488291 124:-0.425 125:-0.526782 126:-0.660893 127:0.008499 128:-0.122805 129:-0.061076 130:-0.500344 131:-0.684584 132:-0.938647 133:0.101449 134:-0.27296 135:-0.803007 136:0.522355 137:-0.281389 138:-0.778557 139:-0.393408 140:-0.512706 141:-0.473562 142:-0.005714 143:0.186927 144:-0.475855 145:-0.499001 146:-0.835357 147:0.444886 148:-0.495339 149:-0.722472 150:0.503542 151:-0.104478 152:0.224336 153:-0.768775 154:-0.364397 155:-0.898073 156:0.744763 157:-1.0 158:-1.0 159:-0.270508 160:-0.083333 161:-0.257148 162:-0.807622 163:-0.390054 164:-0.535164 165:0.127805 166:-0.501763 167:-0.550644 168:-0.167467 169:0.191734 170:0.139363 171:-0.416472 172:0.036896 173:-0.297415 174:0.935384 175:-0.548977 176:-0.597171 177:0.009762 178:0.206897 179:1.0 180:-0.194309 181:0.055119 182:-0.185205 183:0.400019 184:-0.626008 185:-0.755862 186:0.736488 187:0.133758 188:0.371156 189:-0.864515 190:0.160725 191:-0.207995 192:0.038172 193:-0.618307 194:-0.737739 195:0.728663 196:-0.66443 197:-0.175852 198:-0.674838 199:-0.755615 200:-0.830925 201:0.767584 202:-0.53415 203:-0.608604 204:-0.715287 205:-0.851852 206:-0.742586 207:-0.472864 208:-0.652777 209:-0.085042 210:0.159184 211:-0.537421 212:-0.722644 213:-0.775577 214:-0.159091 215:-0.057523 216:-0.889275 217:-0.187123 218:-0.748397 219:-0.358508 220:-0.931184 221:-0.933898 222:-0.861178 223:0.315069 224:-0.052822 225:-0.729344 226:-0.168273 227:-0.192783 228:0.014434 229:-0.651972 230:-0.787575 231:-0.488643 232:-0.225806 233:-0.142323 234:-0.930032 235:0.921904 236:-0.070405 237:-0.763428 238:-0.736872 239:-0.74768 240:0.991246 241:-0.292308 242:0.193344 243:-0.751309 244:0.221443 245:-0.144108 246:-0.838652 247:-0.754321 248:-0.816627 249:0.35633 250:0.15 251:0.092974 252:-0.837294 253:-0.246818 254:0.007538 255:0.083406 256:-0.694648 257:-0.773587 258:-0.186811 259:0.571429 260:-0.117578 261:-0.877955 262:-0.006155 263:-1.0 264:0.358391 265:-0.940384 266:-0.902908 267:-0.41784 268:0.454545 269:0.243464 270:-0.575555 271:-0.317743 272:-0.792419 273:0.32121 274:-0.812309 275:-0.817514 276:-0.962936 277:-0.74502 278:-0.365356 279:-0.725177 280:-0.336124 281:-0.549804 282:0.146806 283:-0.741503 284:-0.737672 285:-0.6651 286:-0.088235 287:-0.01966 288:-0.62748 289:-0.305628 290:-0.265714 291:0.571095 292:-0.737804 293:-0.815445 294:-0.5904 295:0.548387 296:-0.16928 297:-0.925014 298:-0.343187 299:-0.270174 300:-0.528708 301:-0.83674 302:-0.891855 303:-0.931304 304:0.4 305:-0.345028 306:-0.857729 307:0.158484 308:-0.425675 309:-0.422662 310:-0.753176 311:-0.795531 312:-0.741796 313:0.333333 314:-0.397715 315:-0.660214 316:0.624371 317:0.120391 318:-0.277956 319:-0.777431 320:-0.911303 321:0.740655 322:0.391304 323:0.232341 324:-0.934348 325:0.946401 326:0.947756 327:0.949099 328:-0.987783 329:-0.979084 330:0.999695 331:-0.613723 332:0.578425 333:-0.627348 334:-0.491275 335:-0.930543 336:-0.973715 337:-1.0 338:-1.0 339:0.136156 340:-0.086792 341:-0.056579 342:-0.925028 343:0.363924 344:-0.830926 345:0.113409 346:-0.981741 347:-0.989739 348:-0.907013 349:-0.279279 350:-0.016617 351:-0.841444 
0.0234375 1:0.295198 2:0.289298 3:0.283441 4:0.157813 5:-0.057702 6:-0.28378 7:0.060632 8:-0.108543 9:-0.961488 10:0.352298 11:-0.298842 12:0.206776 13:-0.173139 14:-0.161896 15:-0.677366 16:0.316781 17:0.32083 18:-0.553885 19:0.50525 20:-0.607933 21:-0.298514 22:-0.301646 23:-0.184527 24:0.127405 25:0.183486 26:-0.66667 27:-0.469675 28:0.183424 29:-0.48302 30:-0.110621 31:-0.714489 32:-0.569551 33:0.108622 34:-0.323077 35:-0.031967 36:-0.084063 37:0.050048 38:-0.292141 39:-0.04136 40:-0.421501 41:-0.63394 42:-0.176939 43:0.338947 44:-0.040482 45:-0.61087 46:0.445453 47:-0.146548 48:-0.545005 49:-0.19794 50:-0.212579 51:0.397902 52:-0.076923 53:0.304735 54:-0.564617 55:-0.40034 56:-0.159117 57:-0.565258 58:-0.412979 59:-0.006974 60:0.330863 61:-0.843137 62:0.601632 63:0.274188 64:0.260704 65:-0.262314 66:0.693778 67:-0.155187 68:-0.102709 69:-0.177749 70:-0.151515 71:-0.130991 72:-0.610471 73:-0.613244 74:-0.916277 75:-0.428745 76:-0.355607 77:-0.408574 78:-0.124736 79:0.431035 80:-0.259868 81:-0.518938 82:-0.560502 83:-0.400164 84:-0.556742 85:-0.296376 86:-0.471933 87:-0.103684 88:0.651786 89:-0.490813 90:-0.77995 91:-1.0 92:-0.20526 93:-0.056202 94:0.075035 95:0.603451 96:0.233841 97:0.738318 98:-0.026488 99:-0.259047 100:0.049588 101:-0.068973 102:-0.718384 103:0.467233 104:0.263385 105:-0.333842 106:0.694656 107:-0.418824 108:-0.820586 109:-0.014457 110:-0.297286 111:-0.548673 112:0.024082 113:-0.058147 114:-0.54197 115:0.151261 116:0.221712 117:-0.688844 118:0.023542 119:0.073062 120:-0.460594 121:-0.32731 122:-0.502072 123:-0.449811 124:-0.25 125:-0.312194 126:-0.871962 127:-0.241969 128:-0.064075 129:0.001394 130:-0.557717 131:-0.713095 132:-0.96768 133:0.623188 134:-0.648897 135:-0.867378 136:-0.647013 137:-0.194916 138:-0.774509 139:-0.763039 140:-0.88199 141:-0.503125 142:0.954286 143:-0.105189 144:-0.903039 145:-0.571423 146:-0.648401 147:0.446671 148:-0.591873 149:-0.849583 150:0.494093 151:-0.343284 152:0.161947 153:-0.904686 154:0.971137 155:0.61688 156:1.0 157:-0.410783 158:-0.70239 159:-0.28052 160:-0.333333 161:-0.113153 162:-0.958449 163:0.115734 164:-0.677662 165:0.153154 166:-0.825634 167:-0.745824 168:-0.252218 169:-0.285878 170:-0.428997 171:-0.547587 172:-0.554157 173:-0.119043 174:0.969056 175:-0.656445 176:-0.754284 177:-0.048935 178:0.356322 179:0.386188 180:-0.851433 181:0.092486 182:-0.284768 183:0.339273 184:-0.623301 185:-0.682619 186:0.734858 187:-0.159236 188:0.327986 189:-0.766884 190:0.437124 191:-0.107154 192:0.047732 193:-0.641406 194:-0.760227 195:0.725298 196:-0.446309 197:-0.283428 198:-0.601428 199:0.356511 200:-0.131272 201:0.767249 202:0.300766 203:0.459516 204:-0.934807 205:-0.037037 206:-0.653332 207:-0.438643 208:0.801492 209:-0.169938 210:0.23869 211:-0.145169 212:-0.31149 213:-0.869427 214:0.227273 215:-0.51464 216:-0.460973 217:-0.425737 218:-0.199462 219:-0.055644 220:-0.649342 221:-0.756804 222:-0.861841 223:-0.09589 224:0.047548 225:-0.894414 226:-0.221362 227:-0.266991 228:-0.531873 229:-0.632619 230:-0.730308 231:-0.48589 232:-0.16129 233:-0.018843 234:-0.933307 235:0.592988 236:-0.177224 237:-0.983287 238:-0.750148 239:-0.805616 240:0.994543 241:0.230769 242:0.488143 243:-0.904328 244:0.013195 245:-0.616687 246:-0.88512 247:-0.898697 248:-0.971932 249:0.35348 250:0.1 251:-0.220152 252:-0.93186 253:-0.404346 254:-0.901128 255:0.074795 256:-0.870774 257:-0.884181 258:-0.187521 259:0.375 260:-0.239885 261:-0.793756 262:0.08392 263:-0.025117 264:0.35817 265:-0.630515 266:-0.791833 267:-0.416757 268:-0.454545 269:0.083554 270:-0.99492 271:-0.392399 272:-0.810371 273:0.326912 274:-0.876281 275:-0.889997 276:-0.964112 277:0.466135 278:-0.528272 279:-0.789321 280:-0.230407 281:-0.11578 282:0.220046 283:-0.773122 284:-0.823019 285:-0.669247 286:-0.058824 287:-0.270664 288:-0.848581 289:-0.213865 290:-0.262361 291:0.541657 292:-0.718602 293:-0.728813 294:-0.58745 295:-0.048387 296:0.063895 297:-0.720883 298:-0.331134 299:-0.416432 300:-0.328186 301:-0.788691 302:-0.856679 303:-0.928026 304:-0.2 305:-0.079481 306:-0.829267 307:-0.178427 308:-0.037179 309:-0.458538 310:-0.27735 311:-0.562739 312:-0.787407 313:0.090909 314:-0.570365 315:-0.763176 316:0.274494 317:0.16002 318:-0.117626 319:-0.623347 320:-0.769066 321:0.745404 322:0.246377 323:0.433457 324:-0.891856 325:-0.073119 326:-0.056106 327:-0.038879 328:-0.33415 329:-0.436406 330:0.978252 331:0.300698 332:0.304765 333:-0.91802 334:-0.509848 335:-0.225878 336:-0.971665 337:-0.510632 338:-0.481532 339:0.143327 340:0.184906 341:-0.062406 342:-0.604538 343:0.441019 344:0.091334 345:0.043766 346:-0.577106 347:-0.622273 348:-0.901307 349:-0.396396 350:0.374619 351:-0.84611 
0.0234375 1:-0.289966 2:-0.29461 3:-0.299189 4:-0.055757 5:0.09335 6:-0.141492 7:0.038321 8:0.247534 9:-0.508321 10:-0.250723 11:0.317347 12:-0.400907 13:-0.585485 14:-0.587213 15:-0.771432 16:-0.196704 17:0.187954 18:-0.593213 19:0.10885 20:0.068818 21:-0.430825 22:-0.361205 23:-0.136864 24:0.670792 25:0.183486 26:0.29645 27:-0.369447 28:-0.502478 29:0.196841 30:-0.267581 31:0.175787 32:0.042425 33:0.177238 34:0.076923 35:0.053851 36:-0.57341 37:-0.307968 38:-0.316924 39:-0.024897 40:0.148407 41:-0.397099 42:-0.435441 43:0.551579 44:-0.191383 45:-0.729251 46:0.234955 47:-0.032897 48:-0.551321 49:0.687872 50:0.696331 51:0.096776 52:0.276923 53:-0.058688 54:-0.405024 55:-0.333514 56:-0.051866 57:-0.60217 58:-0.244942 59:-0.357435 60:-0.383666 61:0.196078 62:-0.545312 63:-0.461617 64:-0.809622 65:0.713771 66:0.690859 67:-0.312658 68:-0.534931 69:0.164531 70:1.0 71:0.541025 72:-0.605718 73:-0.34929 74:-0.03618 75:-0.49148 76:-0.271301 77:-0.397958 78:0.27607 79:0.086207 80:0.486428 81:-0.26902 82:0.176385 83:-0.517373 84:-0.559923 85:-0.356419 86:-0.609201 87:0.114547 88:0.276786 89:-0.012345 90:-0.945334 91:-0.107538 92:-0.222748 93:0.382507 94:-0.322983 95:0.237317 96:-0.083863 97:0.252336 98:-0.429058 99:0.063634 100:-0.481621 101:-0.317178 102:-0.729513 103:-0.419129 104:-0.563359 105:-0.099179 106:-0.954198 107:-0.378625 108:-0.915581 109:0.25571 110:-0.272162 111:-0.731308 112:-0.110425 113:-0.052 114:-0.675997 115:-0.117647 116:-0.099935 117:-0.525283 118:0.49487 119:-0.750877 120:-0.45996 121:-0.829442 122:-0.805903 123:-0.476044 124:-0.75 125:-0.479127 126:-0.692375 127:-0.28337 128:-0.858176 129:-0.033656 130:-0.813337 131:-0.823434 132:-0.953845 133:0.043478 134:-0.271537 135:-0.694693 136:0.255282 137:-0.002943 138:-0.79376 139:-0.154441 140:-0.327088 141:-0.411711 142:0.108571 143:0.368065 144:-0.394156 145:0.055637 146:-0.643887 147:0.447452 148:-0.314226 149:-0.569493 150:0.491886 151:0.19403 152:0.057543 153:-0.838514 154:-0.848744 155:0.135623 156:0.683981 157:-0.327803 158:-0.505361 159:-0.085817 160:-0.395833 161:0.591843 162:-0.310075 163:0.020792 164:-0.217069 165:0.117978 166:-0.35645 167:-0.449465 168:-0.240912 169:0.182549 170:-0.319567 171:-0.684864 172:-0.042158 173:-0.244056 174:0.96363 175:-0.377292 176:-0.477959 177:-0.090708 178:0.034483 179:0.005961 180:-0.610395 181:-0.154168 182:0.050094 183:1.0 184:-0.452729 185:-0.575225 186:0.729926 187:-0.159236 188:0.283016 189:-0.754775 190:0.116581 191:0.048755 192:0.034989 193:-0.446658 194:-0.66576 195:0.734676 196:-0.127517 197:0.049126 198:-0.860386 199:0.679647 200:-0.344673 201:0.769283 202:-0.349453 203:-0.390837 204:-0.78867 205:1.0 206:-0.845411 207:-0.396701 208:-0.362306 209:-0.661574 210:0.126899 211:-0.626036 212:-0.756471 213:-0.847881 214:-0.5 215:-0.891033 216:-0.591414 217:-0.178062 218:0.141734 219:0.22502 220:-0.402259 221:-0.558397 222:-0.899145 223:0.178082 224:-0.290841 225:-0.621865 226:-0.196436 227:-0.620236 228:0.055489 229:-0.893473 230:-0.902769 231:-0.486937 232:0.483871 233:-0.120117 234:-0.869075 235:0.847041 236:-0.661452 237:-0.688725 238:-0.957571 239:-0.9563 240:0.993577 241:0.6 242:0.345733 243:-0.899572 244:0.126013 245:-0.049095 246:-0.885653 247:-0.518437 248:-0.660399 249:0.358227 250:-0.15 251:0.048081 252:-0.922869 253:-0.07694 254:-0.227809 255:0.055677 256:-0.741034 257:-0.830698 258:-0.18641 259:-0.125 260:-0.079761 261:-0.869012 262:-0.089175 263:-0.492797 264:0.355486 265:-0.618264 266:-0.668097 267:-0.420205 268:0.647727 269:-0.024923 270:-0.777186 271:-0.462931 272:-0.291017 273:0.320437 274:-0.640787 275:-0.707712 276:-0.955686 277:0.434263 278:-0.143445 279:-0.727676 280:-0.035831 281:0.166879 282:-0.085131 283:-0.573807 284:-0.669209 285:-0.671905 286:-0.411765 287:-0.26701 288:-0.847394 289:-0.11726 290:-0.279906 291:0.548347 292:-0.658007 293:-0.680931 294:-0.588623 295:0.548387 296:-0.04569 297:-0.816294 298:-0.299753 299:-0.30278 300:-0.52182 301:-0.765327 302:-0.846672 303:-0.931125 304:-0.333333 305:-0.286237 306:-0.819257 307:0.117278 308:-0.273702 309:-0.374559 310:-0.611572 311:-0.796745 312:-0.76274 313:-0.272727 314:-0.584511 315:-0.752679 316:0.695331 317:-1.0 318:-0.159794 319:-0.943273 320:-0.937424 321:0.742021 322:-1.0 323:0.361854 324:-0.662749 325:0.571909 326:0.579399 327:0.58692 328:-0.642947 329:-0.636452 330:0.986218 331:-0.008452 332:-0.24703 333:-0.466054 334:-0.506561 335:-0.619687 336:-0.983707 337:-0.684997 338:-0.672062 339:0.151487 340:-0.124528 341:0.204238 342:-0.491875 343:0.321642 344:-0.410445 345:0.467781 346:-0.710425 347:-0.65289 348:-0.901661 349:-0.279279 350:0.544329 351:-0.382122 
0.0234375 1:-0.406181 2:-0.40821 3:-0.410203 4:-0.351364 5:-0.402641 6:-0.303775 7:0.437503 8:0.251836 9:-0.689979 10:-0.018514 11:0.086983 12:-0.181166 13:-0.460671 14:-0.412325 15:-0.772031 16:0.270548 17:0.092293 18:-0.448919 19:0.521906 20:-0.55791 21:-0.328237 22:0.111185 23:0.369035 24:0.469819 25:0.220183 26:-0.135115 27:-0.678361 28:-0.641865 29:0.47029 30:-0.024263 31:-0.947178 32:-0.821095 33:0.053445 34:-0.569231 35:-0.269512 36:-0.115433 37:0.15068 38:0.163999 39:0.070178 40:-0.002064 41:-0.115571 42:0.216972 43:-0.031579 44:0.377325 45:-0.368927 46:-0.206188 47:-0.163566 48:-0.534067 49:-0.043488 50:0.00283 51:0.351979 52:0.8 53:0.198975 54:-0.519456 55:0.062997 56:0.013608 57:-0.651797 58:-0.080161 59:0.156237 60:0.281798 61:-0.686275 62:0.299909 63:-0.16543 64:0.224363 65:0.182133 66:0.690963 67:-0.022043 68:-0.34361 69:0.29725 70:-0.333333 71:0.562195 72:-0.702704 73:-0.126011 74:-0.18216 75:-0.438577 76:0.093976 77:-0.161602 78:-0.203314 79:0.387931 80:-0.255329 81:-0.525965 82:-0.535807 83:0.451922 84:-0.580145 85:0.271429 86:-0.307542 87:-0.070938 88:-0.071429 89:-0.294745 90:-1.0 91:-0.388994 92:0.070619 93:0.308922 94:0.026689 95:0.140939 96:-0.150777 97:0.17757 98:-0.352327 99:-0.485028 100:0.279496 101:-0.351668 102:-0.728975 103:-0.48741 104:-0.663951 105:-0.03298 106:0.175573 107:-0.217383 108:-0.892659 109:0.507465 110:-0.751718 111:-0.522345 112:-0.492584 113:-0.362061 114:-0.612023 115:0.151261 116:0.436256 117:-0.20146 118:0.409121 119:-0.302834 120:-0.451248 121:-0.560509 122:-0.644398 123:-0.450647 124:-0.2875 125:-0.154608 126:-0.810054 127:-0.553231 128:0.34589 129:-0.026682 130:-0.324708 131:-0.670471 132:-0.960398 133:-0.188406 134:-0.52557 135:-0.991825 136:0.461537 137:-0.807284 138:-0.791738 139:-0.829291 140:-0.830076 141:-0.495962 142:0.131429 143:0.17464 144:-0.590553 145:-0.188652 146:-0.13117 147:0.423875 148:-0.396389 149:-0.632525 150:0.494884 151:-0.283582 152:0.095781 153:-0.885229 154:-0.314132 155:-0.247142 156:0.763797 157:-0.412533 158:-0.755194 159:-0.324001 160:-0.083333 161:-0.304977 162:-0.898197 163:0.244803 164:-0.545611 165:0.177694 166:-0.43951 167:-0.464757 168:-0.279795 169:-0.17566 170:-0.504811 171:-0.498957 172:0.098414 173:-0.583262 174:0.941343 175:-0.429839 176:-0.3998 177:-0.020046 178:0.172414 179:0.539997 180:-0.215359 181:0.270459 182:0.137794 183:0.27294 184:-0.44333 185:-0.516824 186:0.729558 187:0.044586 188:0.280977 189:-0.70773 190:0.096385 191:-0.307528 192:0.040963 193:-0.43618 194:-0.590891 195:0.787492 196:-0.610738 197:0.614046 198:-0.604321 199:-0.874483 200:-0.23279 201:0.815923 202:-0.313727 203:-0.454609 204:-0.619363 205:-0.037037 206:-0.276522 207:-0.692765 208:0.460349 209:-0.546482 210:0.115414 211:-0.775345 212:-0.869152 213:-0.801361 214:-0.5 215:-0.340016 216:-0.78008 217:-0.333991 218:-0.33625 219:-0.06625 220:-0.618772 221:-0.71317 222:-0.861197 223:0.150685 224:0.068546 225:-0.829819 226:-0.261743 227:-0.469685 228:0.030729 229:-0.753525 230:-0.766195 231:-0.488986 232:-0.290323 233:-0.249096 234:-0.651551 235:0.801256 236:1.0 237:-0.460894 238:-0.586046 239:-0.716056 240:0.990447 241:-0.2 242:0.288683 243:-0.969179 244:0.276274 245:-1.0 246:-0.885681 247:-1.0 248:-1.0 249:0.355056 250:-0.35 251:0.260886 252:-0.65099 253:-0.299659 254:0.41825 255:0.092916 256:-0.598339 257:-0.730799 258:-0.184253 259:-0.571429 260:-0.019384 261:-0.87809 262:-0.038647 263:0.036478 264:0.385109 265:-0.74354 266:-0.790524 267:-0.420164 268:0.636364 269:-0.063784 270:-0.866517 271:-0.493828 272:-0.136368 273:0.253832 274:-0.645489 275:-0.708005 276:-0.971289 277:0.14741 278:-0.663625 279:-0.593461 280:-0.561021 281:-0.246299 282:0.144479 283:-0.764397 284:-0.845761 285:-0.668242 286:-0.029412 287:-0.200356 288:-0.913418 289:-0.418982 290:-0.765344 291:0.552738 292:-0.683311 293:-0.681355 294:-0.592045 295:-0.354839 296:-0.245319 297:-0.752277 298:-0.5143 299:-0.13127 300:-0.50386 301:-0.637143 302:-0.670832 303:-0.935079 304:0.333333 305:-0.371585 306:-0.643075 307:0.151585 308:-0.579406 309:-0.436615 310:-0.494082 311:-0.680158 312:-0.655276 314:0.262195 315:-0.420629 316:0.524432 317:-0.715465 318:-0.144392 319:-0.890375 320:-0.92606 321:0.742341 322:0.130435 323:0.396617 324:-0.792194 325:0.653544 326:0.661375 327:0.669162 328:-0.826501 329:-0.79871 330:0.997897 331:0.496566 332:0.013257 333:-0.614239 334:-0.635499 335:-0.761176 336:-0.973718 337:-0.855572 338:-0.866033 339:0.132155 340:0.215094 341:-0.520301 342:-0.600286 343:0.426302 344:-0.819948 345:0.097533 346:-0.856343 347:-0.810351 348:-0.905897 349:0.063063 350:0.488177 351:-0.367448 
0.0234375 1:-0.492625 2:-0.493468 3:-0.4943 4:-0.529672 5:-0.566729 6:-0.40315 7:0.378757 8:-0.006416 9:-0.774761 10:-0.120655 11:0.181353 12:-0.264342 13:-0.428255 14:-0.338552 15:-0.753864 16:0.410317 17:0.197946 18:-0.467224 19:-0.005912 20:-0.020641 21:-0.369045 22:-0.226683 23:-0.252631 24:0.669579 25:0.06422 26:0.190724 27:-0.695605 28:-0.107801 29:0.156158 30:-0.048268 31:0.02063 32:0.027832 33:0.296443 34:0.323077 35:0.178819 36:-0.105335 37:0.001998 38:-0.110468 39:-0.026566 40:-0.008444 41:0.031073 42:0.19137 43:0.313684 44:0.355484 45:-0.087834 46:0.333042 47:0.45167 48:-0.367115 49:0.347591 50:0.107086 51:0.440247 52:0.415385 53:0.26805 54:-0.627334 55:-0.141502 56:-0.515418 57:-0.596713 58:-0.881129 59:-0.866424 60:0.004532 61:-0.294118 62:0.149637 63:-0.651934 64:-0.335613 65:-0.695494 66:0.722108 67:-0.413323 68:-0.514636 69:-0.112112 70:-0.306818 71:-0.047192 72:-0.762756 73:-0.662472 74:0.193861 75:-0.442831 76:-0.329084 77:-0.440247 78:0.231551 79:-0.431034 80:0.445871 81:-0.341225 82:-0.916835 83:0.640415 84:-0.584307 85:0.286472 86:-0.175746 87:0.127764 88:-0.928571 89:-0.116067 90:-0.897764 91:-0.972124 92:-0.183555 93:0.338811 94:-0.740159 95:-0.681814 96:0.212222 97:0.850467 98:-0.005687 99:-0.584644 100:-0.026388 101:0.48746 102:-0.711311 103:0.73668 104:0.526813 105:0.116416 106:0.259542 107:-0.140571 108:-0.859163 109:-0.24646 110:-0.677564 111:-0.315375 112:-0.775665 113:-0.781404 114:-0.660358 115:0.857143 116:-0.10793 117:-0.60042 118:-0.187567 119:-0.195858 120:-0.469984 121:-0.486216 122:-0.684623 123:-0.511477 124:-0.225 125:-0.760755 126:-0.901394 127:-0.496892 128:-0.826207 129:-0.023677 130:-0.817517 131:-0.872208 132:-0.952084 133:0.043478 134:-0.174286 135:-0.703184 136:-0.384032 137:-0.285691 138:-0.432273 139:-0.642478 140:-0.720181 141:-0.52563 142:-0.005714 143:-0.515345 144:-0.449492 145:-0.199804 146:-0.555666 147:0.483061 148:-0.546337 149:-0.559134 150:0.46706 151:-0.208955 152:-0.218579 153:-0.483689 154:-0.301366 155:-0.441413 156:0.749983 157:-0.38151 158:-0.508857 159:-0.246696 160:-0.5 161:0.029308 162:-0.51169 163:0.256376 164:-0.713795 165:0.130154 166:-0.757289 167:-0.773178 168:-0.270544 169:-0.138921 170:-0.694625 171:-0.7315 172:0.055144 173:-0.374193 174:0.943452 175:-0.769653 176:-0.857252 177:-0.049403 178:-0.057471 179:0.454377 180:-0.901593 181:0.053724 182:0.223811 183:0.399007 184:-0.567023 185:-0.788139 186:0.726837 187:0.55414 188:0.168075 189:-0.951119 190:-0.065207 191:-0.13287 192:0.044367 193:-0.329875 194:-0.504833 195:0.742121 196:-0.503356 197:0.143894 198:-0.707755 199:0.123979 200:-0.157682 201:0.787053 202:-0.156975 203:-0.364854 204:-0.594188 205:0.222222 206:-0.221064 207:-0.83408 208:-0.587869 209:-0.449276 210:0.165104 211:-0.360291 212:-0.571561 213:-0.815218 214:-0.045455 215:-0.367381 216:-0.822251 217:-0.190303 218:-0.727653 219:0.094986 220:-0.927815 221:-0.960335 222:-0.861024 223:-0.616438 224:-0.016525 225:-0.848277 226:-0.12953 227:-0.246911 228:0.029377 229:-0.636705 230:-0.751571 231:-0.484825 232:-0.032258 233:0.027125 234:-0.908312 235:0.769189 236:-0.284212 237:-0.643822 238:-0.864772 239:-0.874419 240:0.993108 241:-0.261538 242:0.267918 243:-0.844629 244:0.132866 245:-0.012999 246:-0.905577 247:-0.76339 248:-0.79747 249:0.355474 250:0.5 251:0.039504 252:-0.857216 253:-0.410871 254:-0.569581 255:0.097067 256:-0.794935 257:-0.757508 258:-0.186506 259:0.392857 260:-0.071051 261:-0.457973 262:0.04105 263:-0.485932 264:0.357918 265:-0.741428 266:-0.805842 267:-0.422198 268:-0.090909 269:-0.18029 270:-0.731196 271:-0.289055 272:-0.798076 273:0.428361 274:-0.910035 275:-0.91479 276:-0.961723 277:0.01992 278:-0.082705 279:-0.749607 280:-0.267739 281:-1.0 282:0.155988 283:-0.905372 284:-0.874507 285:-0.666575 286:-0.0 287:0.043527 288:-0.637864 289:-0.1802 290:-0.301592 291:0.540601 292:-0.751629 293:-0.803447 294:-0.589201 295:0.677419 296:-0.063196 297:-0.897676 298:-0.284318 299:-0.332947 300:-0.503606 301:-0.743305 302:-0.830501 303:-0.925377 304:-0.2 305:0.02822 306:-0.804926 307:0.021473 308:0.166988 309:-0.295799 310:-0.284858 311:-0.577298 312:-0.722661 313:-0.454545 314:-0.271866 315:-0.853564 316:0.587561 317:0.105943 318:-0.061114 319:-0.760602 320:-0.878726 321:0.741719 322:1.0 323:0.310408 324:-0.964818 325:0.743798 326:0.74829 327:0.752808 328:-0.737281 329:-0.717725 330:0.99468 331:0.028526 332:-0.060176 333:-0.588167 334:-0.362537 335:-0.532315 336:-0.976375 337:-0.778493 338:-0.790912 339:0.135451 340:-0.328302 341:-0.144236 342:-0.810434 343:0.220901 344:-0.245605 345:0.137454 346:-0.727915 347:-0.766511 348:-0.904253 349:-0.063063 350:0.418759 351:-0.772066 
0.0234375 1:-0.837376 2:-0.837208 3:-0.837034 4:-0.833285 5:-0.884584 6:-0.439223 7:0.00638 8:-0.169299 9:-0.825158 10:-0.429406 11:0.485125 12:-0.553205 13:-0.536511 14:-0.527651 15:-0.796432 16:0.361301 17:-0.090082 18:-0.772693 19:0.174962 20:-0.469274 21:-0.803511 22:-0.291918 23:-0.247149 24:0.356031 25:0.33945 26:-0.280783 27:-0.795314 28:-0.09132 29:-0.477964 30:-0.012396 31:-0.564005 32:-0.661921 33:0.018847 34:0.107692 35:-0.2113 36:-0.680703 37:0.454905 38:-0.416477 39:0.362485 40:-0.281106 41:-0.056701 42:-0.129551 43:0.347368 44:0.044565 45:0.179708 46:0.58062 47:0.100018 48:-0.54655 49:-0.256563 50:-0.779203 51:0.241535 52:0.476923 53:-0.005263 54:-0.940267 55:1.0 56:0.163406 57:-0.586899 58:-0.00499 59:0.096377 60:0.033705 61:0.176471 62:0.007949 63:-0.453368 64:0.058286 65:-0.017811 66:0.754865 67:0.050317 68:0.135187 69:-0.083075 70:0.030303 71:0.02932 72:-0.627412 73:0.101516 74:0.035449 75:-0.975177 76:0.660709 77:0.433896 78:-0.309613 79:0.051724 80:-0.227211 81:-0.377401 82:0.315234 83:-0.24163 84:-0.560665 85:0.479216 86:0.265619 87:-0.291738 88:0.035714 89:-0.427804 90:-0.608768 91:-0.241548 92:-0.049847 93:-1.0 94:-0.265177 95:-0.023119 96:0.290455 97:0.056075 98:0.062343 99:-0.427589 100:0.18146 101:0.403406 102:-0.764441 103:0.708379 104:1.0 105:0.336258 106:0.045802 107:-0.024996 108:-0.516685 109:0.091339 110:-0.873744 111:-0.536764 112:-0.90728 113:-0.918975 114:-0.658587 115:-0.184874 116:-0.030405 117:-0.535786 118:0.256761 119:-0.271969 120:-0.446648 121:-0.618562 122:-0.743026 123:-0.463929 124:-0.3 125:-0.273141 126:-0.922755 127:-0.620161 128:-0.509297 129:-0.024076 130:-0.718256 131:-0.840123 132:-0.963396 133:0.275362 134:-0.657652 135:-0.906099 136:0.478915 137:-0.147691 138:-0.789028 139:-0.433171 140:-0.613933 141:-0.541109 142:0.314286 143:-0.43551 144:-0.634336 145:-0.449351 146:-0.182414 147:0.425051 148:-0.513559 149:-0.682213 150:0.497924 151:-0.283582 152:0.170857 153:-0.776257 154:-0.308379 155:-0.253002 156:0.745667 157:-0.547175 158:-0.704249 159:-0.27079 160:-0.583333 161:-0.082308 162:-0.779401 163:0.112671 164:-0.286243 165:0.071675 166:-0.562155 167:-0.700666 168:-0.279609 169:0.008037 170:-0.578277 171:-0.846352 172:0.450973 173:-0.518799 174:0.937777 175:-0.581414 176:-0.547458 177:-0.059902 178:-0.149425 179:0.216205 180:-0.421366 181:0.547175 182:0.306778 183:0.328432 184:-0.517313 185:-0.708882 186:0.737008 187:-0.566879 188:0.383797 189:-0.907613 190:-0.262345 191:0.328427 192:0.132967 193:-0.414297 194:-0.654786 195:0.762519 196:-0.033557 197:0.33742 198:-0.879594 199:0.026438 200:-0.025505 201:0.784147 202:-0.009333 203:0.09941 204:-0.8628 205:0.333333 206:-0.731735 207:-0.459995 208:-0.036443 209:-0.116397 210:0.164941 211:0.130832 212:-0.333591 213:-0.790133 214:-0.267045 215:-0.253439 216:-0.839145 217:-0.312991 218:-0.777546 219:-0.171307 220:-0.908879 221:-0.926515 222:-0.859912 223:-0.09589 224:0.191099 225:-0.789655 226:-0.26289 227:-0.110767 228:1.0 229:-0.679652 230:-0.77649 231:-0.484049 232:-0.032258 233:0.090262 234:-0.887712 235:0.597118 236:-0.702473 237:-0.702071 238:-0.869358 239:-0.87542 240:0.992724 241:-0.876923 242:0.162435 243:-0.787473 244:0.025957 245:-0.400443 246:1.0 247:-0.769267 248:-0.813146 249:0.358293 250:-0.1 251:0.248602 252:-0.69724 253:-0.243749 254:-0.204961 255:0.081886 256:-0.740664 257:-0.7963 258:-0.188128 259:-0.285714 260:-0.225977 261:-0.820019 262:-0.050895 263:-0.263554 264:0.350861 265:-0.835955 266:-0.860578 267:-0.41699 268:0.008523 269:0.205099 270:-0.762352 271:-0.427043 272:-0.693051 273:0.31497 274:-0.797213 275:-0.813825 276:-0.960685 277:0.2749 278:-0.180532 279:-0.608303 280:-0.325685 281:-0.40706 282:0.177143 283:-0.739754 284:-0.733747 285:-0.666412 286:-0.0 287:-0.094131 288:-0.694076 289:-0.264973 290:-0.0741 291:0.572535 292:-0.783717 293:-0.844222 294:-0.589012 295:-0.612903 296:-0.032879 297:-0.967553 298:-0.331783 299:0.292391 300:1.0 301:-0.587505 302:-0.724314 303:-0.930032 304:-0.166667 305:-0.218209 306:-0.887485 307:-0.063952 308:-0.005189 309:-0.451795 310:-0.155448 311:-0.459604 312:-0.806667 313:0.090909 314:-0.59319 315:-0.686461 316:0.227402 317:0.561912 318:-0.372896 319:-0.583624 320:-0.75736 321:0.735044 322:0.072464 323:0.134985 324:-0.86257 325:0.902841 326:0.905224 327:0.907591 328:-0.964109 329:-0.958238 330:0.999572 331:-0.013089 332:0.180738 333:-0.650675 334:-0.49717 335:-0.909026 336:-0.973814 337:-0.976595 338:-0.972683 339:0.13597 340:-0.166038 341:-0.235391 342:-0.850166 343:0.521864 344:-0.742105 345:0.156094 346:-0.957166 347:-0.954468 348:-0.906705 349:0.324324 350:0.500014 351:-0.768759 
0.0234375 1:-0.281565 2:-0.288555 3:-0.295435 4:0.147254 5:0.180414 6:0.108852 7:0.048754 8:0.344221 9:-0.58318 10:-0.285221 11:0.339717 12:-0.413229 13:-0.41466 14:-0.39971 15:-0.826233 16:-0.023973 17:-0.279989 18:-0.641045 19:-0.111817 20:-0.512572 21:-0.273009 22:-0.422689 23:-0.334373 24:0.359053 25:0.376147 26:-0.30273 27:-0.771159 28:-0.537728 29:0.249563 30:-0.194066 31:-0.134894 32:-0.137625 33:-0.03203 34:-0.009615 35:-0.174063 36:-0.356462 37:-0.143522 38:-0.435121 39:-0.084937 40:-0.545787 41:-0.697684 42:-0.156224 43:0.28 44:-0.017863 45:-0.567926 46:0.039188 47:-0.090095 48:-0.499101 49:0.40159 50:0.44619 51:-0.45402 52:0.415385 53:-0.691316 54:0.169444 55:-0.198312 56:0.45397 57:-0.508777 58:0.054949 59:0.197775 60:-0.316761 61:-0.607843 62:-0.338375 63:-0.560012 64:-0.393259 65:0.454058 66:0.605207 67:0.420743 68:1.0 69:0.432916 70:-0.333333 71:0.463063 72:0.097635 73:1.0 74:0.439376 75:-0.429936 76:0.821221 77:0.710182 78:-0.75106 79:-0.051724 80:-0.431713 81:-0.33826 82:-0.112256 83:0.718001 84:-0.543075 85:0.510735 86:0.057072 87:0.253319 88:0.5 89:-0.051104 90:-0.835905 91:-0.514114 92:-0.101477 93:0.351267 94:-0.265325 95:-0.292849 96:0.007605 97:0.121495 98:-0.287757 99:-0.649874 100:0.138584 101:0.010184 102:-0.727129 103:-0.098584 104:-0.259365 105:-0.100081 106:-0.038168 107:-0.31255 108:-0.900752 109:0.071815 110:-0.307872 111:-0.511064 112:0.249642 113:0.319098 114:-0.79642 115:0.386555 116:-0.240741 117:-0.550269 118:-0.014128 119:0.134812 120:-0.479133 121:-0.347637 122:-0.590963 123:-0.500517 124:-0.5 125:-0.580896 126:-0.93419 127:-0.190865 128:-0.77541 129:-0.043288 130:-0.929706 131:-0.970029 132:-0.961331 133:0.275362 134:-0.808944 135:-0.848655 136:0.284944 137:-0.07902 138:-0.789748 139:-0.141842 140:-0.474539 141:-0.646266 142:0.222857 143:-0.713062 144:-0.420961 145:-0.09523 146:-0.751824 147:0.437468 148:-0.799963 149:-0.927969 150:0.482806 151:0.253731 152:-0.037256 153:-0.884152 154:0.871528 155:0.046227 156:0.757961 157:-0.433576 158:-0.647337 159:-0.184731 160:-0.333333 161:0.328688 162:-0.6403 163:-0.038768 164:-0.333527 165:0.106948 166:-0.528022 167:-0.666776 168:-0.179741 169:-0.543054 170:0.102278 171:-0.676499 172:-0.813668 173:0.002035 174:0.92921 175:-0.418923 176:-0.494019 177:-0.026427 178:0.862069 179:0.481341 180:-0.58722 181:-1.0 182:0.087991 183:0.396562 184:-0.371285 185:-0.505577 186:0.747486 187:0.095541 188:0.497255 189:-0.756985 190:-0.24173 191:-0.072205 192:0.038873 193:-0.242162 194:-0.480403 195:0.764685 196:-0.395973 197:0.287845 198:-0.824278 199:-0.460608 200:-0.100829 201:0.78552 202:-0.108783 203:-0.392588 204:-0.783223 205:-0.555556 206:-0.637238 207:-0.7915 208:-0.079331 209:-0.222874 210:0.167556 211:-0.433189 212:-0.72853 213:-0.747697 214:-0.045455 215:0.08123 216:-0.874675 217:-0.382436 218:0.214415 219:-0.023682 220:-0.17168 221:-0.360112 222:-0.914221 223:0.191781 224:-0.164193 225:-0.671408 226:-0.261061 227:-0.600641 228:0.038294 229:-0.609788 230:-0.667622 231:-0.485827 232:-0.112903 233:-0.020206 234:-0.832013 235:0.801212 236:-0.732309 237:-0.702251 238:-0.951206 239:-0.932845 240:0.993682 241:-0.384615 242:0.420127 243:-0.771212 244:0.269481 245:0.41022 246:-0.881776 247:-0.549201 248:-0.565627 249:0.353391 250:-0.3 251:-0.055733 252:-0.769741 253:-0.271508 254:-0.984493 255:0.146974 256:-0.953207 257:-0.942015 258:-0.186358 259:-0.142857 260:0.152936 261:-0.686611 262:0.195016 263:0.412623 264:0.366274 265:-0.684134 266:-0.778134 267:-0.418421 268:0.53125 269:0.033067 270:-0.941234 271:-0.440882 272:-0.324427 273:0.282752 274:-0.710009 275:-0.803627 276:-0.956465 277:-0.330677 278:-0.067694 279:-0.750025 280:-0.39513 281:-0.512803 282:0.150182 283:-0.70981 284:-0.729107 285:-0.673625 286:-0.411765 287:-0.443412 288:-0.662194 289:-0.183176 290:-0.126266 291:0.702323 292:-0.745392 293:-0.771739 294:-0.587558 295:0.290323 296:0.085218 297:-0.853536 298:-0.134664 299:-0.04645 300:-0.287886 301:-0.707689 302:-0.798764 303:-0.925229 304:-0.033333 305:-0.009941 306:-0.824033 307:0.288163 308:-0.462024 309:-0.439338 310:-0.599734 311:-0.715205 312:-0.718611 313:-0.545455 314:-0.159921 315:-0.685349 316:0.547117 317:-0.674764 318:-0.160466 319:-0.713101 320:-0.768544 321:0.737378 322:-0.391304 323:0.093848 324:-0.757846 325:0.501036 326:0.507624 327:0.514308 328:-0.504332 329:-0.433535 330:0.967024 331:0.322298 332:-0.297949 333:-0.383542 334:-0.491359 335:-0.280442 336:1.0 337:-0.561476 338:-0.527234 339:0.153855 340:0.09434 341:0.053386 342:-0.553452 343:0.381493 344:-0.222441 345:0.052996 346:-0.580344 347:-0.547136 348:-0.889113 349:0.045045 350:0.666965 351:-0.405244 
0.0234375 1:-0.916173 2:-0.916229 3:-0.916274 4:-0.8208 5:-0.834051 6:-0.437706 7:0.112074 8:-0.137951 9:-0.77851 10:-0.519245 11:0.568049 12:-0.625387 13:-0.515551 14:-0.374416 15:-0.75784 16:0.17637 17:0.250618 18:-0.252086 19:0.606654 20:-0.593302 21:-0.101605 22:-0.518827 23:-0.31562 24:0.50076 25:0.192661 26:0.035774 27:-0.528702 28:-0.409053 29:0.195031 30:-1.0 31:-0.35418 32:-0.254469 33:0.398437 34:0.246154 35:0.437397 36:-0.16006 37:0.177242 38:-0.388079 39:-0.03524 40:-0.067827 41:-0.276546 42:-0.250325 43:-0.124211 44:-0.078135 45:-0.468691 46:-0.047921 47:-0.413724 48:-0.52557 49:0.210081 50:0.009937 51:-0.04453 52:-0.323077 53:-0.32636 54:-0.673737 55:0.553013 56:-0.407362 57:-0.607816 58:-0.905753 59:-0.678664 60:-0.032927 61:-0.960784 62:0.012927 63:-0.294913 64:0.217808 65:-0.768337 66:0.724352 67:-0.715307 68:-0.724406 69:-0.090973 70:0.060606 71:-0.017019 72:-0.655521 73:-0.001631 74:-0.211667 75:-0.426626 76:0.191784 77:0.006217 78:-0.237567 79:0.017241 80:-0.267536 81:-0.633683 82:-0.08569 83:-0.233862 84:-0.551235 85:-0.238521 86:-0.460965 87:0.08525 88:-0.178571 89:-0.102475 90:-0.857156 91:-0.237185 92:-0.20844 93:0.3423 94:-0.23323 95:0.150829 96:0.754561 97:0.252336 98:0.607254 99:0.192943 100:0.435614 101:0.586402 102:-0.705997 103:0.451841 104:0.155317 105:-0.392552 106:0.328244 107:-0.462989 108:-0.884702 109:0.080063 110:-0.761896 111:-0.551742 112:-0.733082 113:-0.696243 114:-0.662525 115:0.016807 116:-0.160638 117:-0.410701 118:0.117613 119:-0.108368 120:-0.453672 121:-0.327045 122:-0.371345 123:-0.499366 124:-0.4 125:-0.566383 126:-0.78864 127:-0.367201 128:-0.793225 129:-0.037235 130:-0.710241 131:-0.807022 132:-0.963727 133:-0.42029 134:-0.661732 135:-0.799121 136:-0.00393 137:-0.446384 138:-0.791228 139:-0.447006 140:-0.7194 141:-0.553177 142:0.131429 143:-0.57262 144:-0.668527 145:0.14037 146:0.181055 147:0.354948 148:-0.382637 149:-0.645245 150:0.476569 151:-0.283582 152:-0.053777 153:-0.923579 154:-0.615815 155:0.163486 156:0.776893 157:-0.290426 158:-0.561396 159:-0.217605 160:-0.5625 161:0.108915 162:-0.763292 163:-0.034185 164:-0.947058 165:0.126427 166:-0.976521 167:-0.978075 168:-0.251354 169:-0.138921 170:-0.491944 171:-0.890401 172:0.537887 173:-0.375486 174:0.966426 175:-0.685321 176:-0.693407 177:-0.065543 178:0.494253 179:0.113181 180:-0.61331 181:0.756627 182:0.528524 183:0.419925 184:-0.444643 185:-0.686816 186:0.71564 187:-0.006369 188:0.088703 189:-0.84239 190:-0.090542 191:-0.03923 192:0.034634 193:-0.566874 194:-0.785646 195:0.736287 196:-0.288591 197:0.012067 198:-0.907774 199:-0.167234 200:-0.351232 201:0.765901 202:-0.316086 203:-0.314154 204:-0.669512 205:0.352431 206:-0.434705 207:-0.571382 208:0.161755 209:0.471492 210:0.115523 211:0.034605 212:-0.367857 213:-0.934201 214:-0.568182 215:-0.593209 216:-0.803723 217:-0.26394 218:-0.636742 219:-0.092464 220:-0.766219 221:-0.796149 222:-0.862637 223:-0.178082 224:-0.033256 225:-0.754425 226:-0.210319 227:0.070323 228:0.05153 229:-0.580063 230:-0.700906 231:-0.489236 232:0.483871 233:-0.133108 234:-0.90021 235:0.672329 236:-0.352481 237:-0.691237 238:-0.838235 239:-0.845291 240:0.993225 241:0.107692 242:0.320134 243:-0.868243 244:0.037878 245:-0.160456 246:-0.889322 247:-0.749466 248:-0.795868 249:0.35455 250:0.1 251:-0.026059 252:-0.848888 253:-0.412613 254:0.005428 255:0.068539 256:-0.698729 257:-0.803825 258:-0.185925 259:0.142857 260:-0.058119 261:-0.921782 262:-0.014494 263:0.413138 264:0.36382 265:-0.627393 266:-0.784675 267:-0.417081 268:0.272727 269:0.072335 270:-0.946936 271:-0.359595 272:-0.825267 273:0.428548 274:-0.959582 275:-0.984605 276:-0.964116 277:0.083665 278:-0.700206 279:-0.892647 280:-0.313085 281:-0.456672 282:0.121333 283:-0.782076 284:-0.761311 285:-0.662713 286:-0.411765 287:0.194908 288:-0.472864 289:-0.171321 290:0.236322 291:0.580536 292:-0.585237 293:-0.670398 294:-0.591012 295:0.290323 296:-0.143913 297:-0.907192 298:-0.605452 299:-0.071124 300:-0.51799 301:-0.774883 302:-0.822975 303:-0.9257 304:0.066667 305:0.058742 306:-0.710903 307:-0.163395 308:-0.15463 309:-0.442248 310:-0.374274 311:-0.643396 312:-0.732463 313:-0.515152 314:-0.312335 315:-0.770767 316:0.391146 317:0.785544 318:-0.271045 319:-0.600954 320:-0.795447 321:0.736853 322:-0.275362 323:0.173166 324:-0.959442 325:0.927656 326:0.929402 327:0.931137 328:-0.964442 329:-0.956844 330:0.999639 331:0.699419 332:0.393336 333:-0.652273 334:-0.529875 335:-0.821413 336:-0.974522 337:-0.959732 338:-0.960028 339:0.136759 340:0.516981 341:0.238458 342:-0.708774 343:0.417832 344:-0.659237 345:0.423505 346:-0.938723 347:-0.947976 348:-0.906748 349:0.297297 350:0.380547 351:-0.929266 
0.0234375 1:-1.0 2:-1.0 3:-1.0 4:-0.873521 5:-0.952754 6:-0.444944 7:-1.0 8:-0.341133 9:-0.898347 10:-0.606298 11:0.63601 12:-0.673708 13:-0.319128 14:-0.500175 15:-0.724535 16:0.163527 17:0.268095 18:-0.88678 19:0.025374 20:-0.14726 21:-0.706134 22:-0.506623 23:-0.463539 24:0.526529 25:0.321101 26:0.094998 27:-0.71776 28:-0.330889 29:-0.143283 30:-0.091423 31:-0.389523 32:-0.584603 33:-0.084268 34:0.676923 35:-0.331278 36:-0.665886 37:-0.260278 38:0.466053 39:0.015288 40:0.049793 41:-0.360815 42:0.176191 43:-0.023158 44:0.320121 45:-0.618176 46:0.161474 47:-0.200403 48:-0.551282 49:-0.809729 50:-0.779907 51:0.348553 52:-0.107692 53:0.327963 54:-0.635133 55:0.204287 56:-0.245334 57:-0.597303 58:-0.029887 59:0.220059 60:0.588408 61:-0.686275 62:0.605578 63:0.143073 64:-0.785086 65:-0.303799 66:0.717193 67:-0.280755 68:-0.398932 69:-0.256899 70:-0.575758 71:-0.32048 72:-0.664082 73:-0.266124 74:-0.557969 75:-0.404668 76:-0.49692 77:-0.522448 78:-0.138776 79:0.258621 80:-0.344787 81:-0.537881 82:-1.0 83:1.0 84:-0.572824 85:0.038627 86:-0.365201 87:0.277239 88:-0.482143 89:0.103334 90:-0.79932 91:-0.487338 92:-0.364593 93:0.369377 94:-0.346476 95:-0.051648 96:0.273422 97:0.364486 98:0.053502 99:-0.25841 100:-0.52124 101:0.079413 102:-0.727169 103:-0.283839 104:0.091208 105:0.074133 106:-0.221374 107:-0.009961 108:-0.233015 109:0.233597 110:-0.791879 111:-0.464745 112:-0.889792 113:-0.90559 114:-0.660308 115:0.092437 116:-0.175205 117:-0.687827 118:0.360329 119:-0.342456 120:-0.458445 121:-0.519436 122:-0.691361 123:-0.463147 124:-0.15 125:-0.322292 126:-0.962765 127:-0.341853 128:-0.460152 129:-0.085275 130:-0.754304 131:-0.866283 132:-0.954437 133:-0.072464 134:-0.360778 135:-0.861094 136:-0.026852 137:-0.463713 138:-0.790808 139:-0.465165 140:-0.662087 141:-0.506816 142:-0.051429 143:-0.109981 144:-0.84263 145:-0.545798 146:0.199089 147:0.53453 148:-0.405208 149:-0.624804 150:0.495401 151:0.19403 152:0.102524 153:-0.882895 154:0.150493 155:-0.575587 156:0.729343 157:-0.969913 158:-0.965194 159:-0.262222 160:-0.041667 161:0.044715 162:-0.784958 163:0.153431 164:-0.555891 165:0.135677 166:-0.610325 167:-0.78538 168:-0.247089 169:-0.138921 170:-0.336863 171:-0.950308 172:-0.079722 173:-0.274235 174:0.940276 175:-0.517132 176:-0.699051 177:-0.061672 178:-0.425287 179:0.200155 180:-0.931553 181:-0.595433 182:-0.44829 183:0.383515 184:-0.794181 185:-0.850955 186:0.741843 187:-0.566879 188:0.675255 189:-0.756883 190:-0.254102 191:0.06582 192:0.055108 193:-0.561675 194:-0.695576 195:0.744578 196:-0.020134 197:0.149628 198:-0.831205 199:-0.785527 200:-0.634805 201:0.765163 202:-0.381273 203:-0.367176 204:-0.445524 205:0.259259 206:0.349101 207:-0.311313 208:0.158717 209:-0.673392 210:0.173184 211:-0.842344 212:-0.846462 213:-0.813926 214:-0.045455 215:-0.722609 216:-0.477017 217:-0.072502 218:-0.450616 219:-0.167419 220:-0.790218 221:-0.843259 222:-0.861781 223:-0.342466 224:0.002511 225:-0.8611 226:0.014295 227:0.011453 228:0.094736 229:-0.62126 230:-0.700526 231:-0.483435 232:0.346774 233:0.075413 234:-0.833922 235:0.801473 236:-0.198861 237:-0.536065 238:-0.802316 239:-0.802994 240:0.994621 241:0.415385 242:0.540362 243:-0.747505 244:0.127152 245:0.053187 246:-0.882158 247:-0.666004 248:-0.791304 249:0.355922 250:0.2 251:0.028718 252:-0.906909 253:-0.051022 254:-0.023287 255:0.089408 256:-0.751341 257:-0.843995 258:-0.18881 260:-0.294252 261:-0.883099 262:0.002907 263:-0.498135 264:0.348189 265:-0.986698 266:-0.989876 267:-0.418794 268:0.636364 269:-0.002644 270:-0.979922 271:-0.544089 272:-0.238684 273:0.30986 274:-0.710171 275:-0.84055 276:-0.960342 277:-0.314741 278:-0.253424 279:-0.961455 280:-0.2027 281:-0.626972 282:0.156677 283:-0.763478 284:-0.804453 285:-0.670074 286:-0.058824 287:-0.317714 288:-0.74888 289:-0.29262 290:-0.651604 291:0.566222 292:-0.901612 293:-0.932637 294:-0.589906 295:-0.16129 296:-0.239523 297:-0.869423 298:-0.137665 299:0.15334 300:-0.492598 301:-0.704809 302:-0.762223 303:-0.930693 304:0.6 305:-0.247399 306:-0.841652 307:0.168661 308:-0.315184 309:-0.426193 310:-0.467333 311:-0.719131 312:-0.757316 313:0.575758 314:-0.476324 315:-0.792663 316:0.505989 317:-0.931024 318:-0.101671 319:-1.0 320:-1.0 321:0.742491 322:0.130435 323:0.596693 324:-0.662002 325:0.933651 326:0.935328 327:0.93699 328:-0.985317 329:-0.967755 330:0.999658 331:0.593414 332:0.362077 333:-0.612567 334:-0.49762 335:-0.936768 336:-0.974128 337:-0.982315 338:-0.977598 339:0.136205 340:0.033962 341:-0.033065 342:-0.856754 343:0.332165 344:-0.835041 345:0.10729 346:-0.973812 347:-0.955808 348:-0.9068 349:-0.423423 350:0.440284 351:-0.660482 
0.0234375 1:0.269484 2:0.258376 3:0.247294 4:0.519249 5:0.21016 6:-0.222081 7:0.119217 8:-0.157302 9:-0.97402 10:0.526409 11:-0.6073 12:0.729516 13:0.384809 14:0.709002 15:0.050225 16:0.046233 17:0.879598 18:0.722292 19:-0.006173 20:-0.238474 21:-0.406719 22:-0.01465 23:0.111208 24:0.570935 25:0.192661 26:-0.021071 27:-0.782788 28:-0.399872 29:0.541679 30:-0.041526 31:0.842223 32:0.61423 33:0.914858 34:0.346635 35:0.351335 36:-0.207268 37:-0.185964 38:1.0 39:0.037446 40:1.0 41:0.63944 42:-0.621108 43:-0.229474 44:-0.105181 45:-0.454412 46:-0.324655 47:-0.072398 48:-0.599346 49:-0.104154 50:-0.036927 51:-0.0891 52:-0.261538 53:-0.566516 54:-0.103701 55:0.014126 56:-0.167755 57:-0.59376 58:0.29638 59:0.07269 60:-0.071687 61:-0.843137 62:-0.097767 63:-0.882689 64:-0.836559 65:0.040111 66:0.828307 67:-0.048477 68:-0.272847 69:-0.075733 70:0.515151 71:0.039052 72:-0.830908 73:-0.886071 74:0.306892 75:-0.416524 76:0.052789 77:-0.365008 78:-0.095639 79:0.293103 80:-0.138861 81:-0.936302 82:0.004552 83:-0.0267 84:-0.561611 85:0.546003 86:-0.109744 87:-0.200816 88:-0.495536 89:-0.351584 90:-0.874987 91:-0.188204 92:0.010695 93:0.377369 94:-0.182643 95:-0.553496 96:0.447143 97:0.065421 98:0.223123 99:-0.763197 100:-0.048482 101:-0.42003 102:-0.686715 103:-0.440831 104:-0.2128 105:0.009788 106:-0.038168 107:-0.108595 108:-0.472318 109:0.07323 110:-0.259668 111:-0.511008 112:0.30137 113:0.607427 114:-0.527393 115:-0.319328 116:0.123478 117:-0.414446 118:0.264885 119:0.451792 120:1.0 121:0.228095 122:0.165805 123:-0.657679 124:0.075 125:-0.683361 126:-0.738172 127:0.042277 128:0.246903 129:-0.010881 130:-0.349567 131:-0.636902 132:-0.987687 133:0.101449 134:-0.724975 135:-0.914028 136:0.258649 137:-0.062481 138:-0.786476 139:-0.044081 140:-0.137612 141:-0.66916 142:0.68 143:-0.669726 144:-0.047004 145:-0.181425 146:-0.32536 147:0.467182 148:-0.036529 149:-0.397733 150:0.423343 151:-0.179104 152:-0.200972 153:-0.741945 154:0.174817 155:-0.265351 156:0.760996 157:-0.696486 158:-0.802155 159:-0.254558 160:-0.71875 161:0.062953 162:-0.825832 163:0.124101 164:0.366005 165:0.107854 166:-0.137555 167:-0.294303 168:-0.191226 169:-0.396096 170:-0.22035 171:-0.793936 172:-0.228022 173:-0.537871 174:0.943137 175:-0.438145 176:-0.494674 177:-0.001948 178:-0.011494 179:0.695461 180:-0.478573 181:-0.098927 182:-0.144528 183:0.358748 184:-0.502737 185:-0.620518 186:0.720695 187:0.312102 188:0.109586 189:-0.665058 190:0.518156 191:1.0 192:0.053212 193:-0.056553 194:-0.494255 195:0.678594 196:-0.288591 197:-0.087171 198:-0.944826 199:0.904005 200:-0.458756 201:0.772848 202:-0.425562 203:-0.215964 204:-0.644053 205:0.333333 206:-0.369473 207:-0.345997 208:-0.160035 209:-0.647989 210:1.0 211:-0.907764 212:-0.946956 213:-0.806032 214:0.198864 215:-0.5775 216:-0.772772 217:-0.426706 218:0.324961 219:-0.436145 220:-0.334634 221:-0.608764 222:-0.847297 223:0.342466 224:0.186255 225:-0.921077 226:-0.192258 227:-0.628691 228:0.039342 229:-0.419819 230:-0.588426 231:-0.504511 232:-0.322581 233:-0.336015 234:-0.743022 235:0.786036 236:0.721467 237:-0.554633 238:-0.626791 239:-0.76421 240:0.99217 241:0.107692 242:0.337476 243:-0.944453 244:0.131598 245:0.871821 246:-0.876182 247:-0.502884 248:-0.599731 249:0.35231 250:0.05 251:-0.072288 252:-0.923149 253:-0.489386 254:0.235384 255:0.06323 256:-0.587536 257:-0.729044 258:-0.189733 259:-0.642857 260:-0.234227 261:-0.900036 262:0.023126 263:-0.226637 264:0.344859 265:-0.864578 266:-0.878535 267:-0.417541 268:0.681818 269:0.176479 270:-0.824057 271:-0.296453 272:-0.432283 273:0.329325 274:-0.593943 275:-0.735149 276:-0.957999 277:0.01992 278:-0.254876 279:-0.822483 280:-0.233306 281:-0.662546 282:0.15924 283:-0.75373 284:-0.809044 285:-0.667299 286:-0.294118 287:-0.141267 288:-0.834765 289:-0.10271 290:-0.18015 291:0.533599 292:-0.65691 293:-0.608259 294:-0.584395 295:0.290323 296:0.172476 297:-0.537439 298:-0.511158 299:0.231166 300:-0.767253 301:-0.549654 302:-0.651567 303:-0.933212 304:0.333333 305:-0.282982 306:-0.803071 307:-0.083971 308:-0.53235 309:1.0 310:-0.593372 311:-0.733767 312:-0.766471 313:0.128788 314:-0.608357 315:-0.714776 316:0.434691 317:-0.866052 318:-0.146868 319:-0.95594 320:-0.9973 321:0.742106 322:-0.333333 323:0.390409 324:-0.856387 325:-0.0779 326:-0.066964 327:-0.055692 328:-0.147551 329:-0.134197 330:0.914669 331:0.188003 332:0.03577 333:-0.691655 334:-0.481075 335:-0.2724 336:-0.974166 337:-0.379087 338:-0.424882 339:0.243738 340:-0.132075 341:0.308859 342:-0.478306 343:0.305024 344:-0.307083 345:0.097031 346:-0.469524 347:-0.358444 348:-0.861273 349:-0.042793 350:0.846634 351:0.01263 
0.0234375 1:-0.370176 2:-0.372201 3:-0.374221 4:-0.347089 5:-0.222967 6:-0.447042 7:-0.062317 8:-0.301025 9:-0.694997 10:-0.184904 11:0.222981 12:-0.281067 13:-0.231475 14:0.00254 15:-0.688439 16:0.15411 17:0.338836 18:-0.001865 19:0.297031 20:-0.639344 21:-0.278932 22:-0.172121 23:-0.034979 24:0.209492 25:0.146789 26:-0.45752 27:-0.761512 28:-0.187936 29:0.290085 30:-0.020048 31:-0.229323 32:-0.267006 33:0.842951 34:-0.384615 35:0.962159 36:0.433908 37:-0.406586 38:-0.114376 39:-0.054571 40:-0.320343 41:-0.009135 42:-0.43756 43:-0.191579 44:-0.414621 45:0.77519 46:-0.024249 47:0.109839 48:-0.548643 49:-0.23195 50:-0.613396 51:0.379536 52:0.292308 53:0.275447 54:-0.928061 55:0.34435 56:-0.329088 57:-0.601178 58:-0.137758 59:-0.07021 60:0.049807 61:-0.254902 62:0.044652 63:-0.562735 64:-0.283126 65:-0.101833 66:0.773581 67:-0.255495 68:-0.637958 69:-0.011692 70:-0.272727 71:0.162908 72:-0.946766 73:0.081757 74:0.306008 75:-0.410516 76:0.361326 77:-0.126618 78:-0.548911 79:0.034483 80:-0.487297 81:-0.600848 82:-0.339071 83:0.275966 84:-0.554745 85:0.276521 86:-0.099669 87:-0.20856 88:-0.428571 89:-0.41817 90:-0.818183 91:-0.136757 92:-0.400974 93:0.366902 94:-0.669079 95:-0.648164 96:0.095451 97:0.626168 98:-0.277078 99:-0.575472 100:0.167293 101:-0.527115 102:-0.58036 103:-0.316175 104:-0.26173 105:0.007966 106:-0.022901 107:-0.133281 108:-0.668963 109:0.569275 110:-0.5878 111:-0.637436 112:-0.345453 113:-0.271762 114:-0.750058 115:0.336134 116:-0.610038 117:-0.163535 118:0.162895 119:-0.123669 120:-0.461694 121:-0.461639 122:-0.601942 123:-0.49486 124:0.1 125:-0.600128 126:-0.906519 127:-0.587286 128:-0.676807 129:-0.056324 130:-0.651027 131:-0.718963 132:-0.963423 133:0.565217 134:-0.619288 135:-0.732093 136:0.088679 137:-0.887252 138:-0.79094 139:-0.829948 140:-0.861478 141:-0.493036 142:-0.577143 143:0.297526 144:-0.479604 145:-0.364301 146:-0.580101 147:0.464028 148:-0.412321 149:-0.463149 150:0.494142 151:-0.354478 152:0.093626 153:-0.57007 154:0.296977 155:-0.718102 156:0.75155 157:-0.808159 158:-0.774599 159:-0.280846 160:-0.260417 161:-0.294901 162:-0.419181 163:-0.020805 164:-0.584312 165:0.122859 166:-0.546174 167:-0.655001 168:-0.299366 169:0.008037 170:-0.704003 171:-0.712143 172:-0.020149 173:-0.452748 174:0.918645 175:-0.628948 176:-0.695883 177:-0.072143 178:0.034483 179:0.037796 180:-0.680839 181:0.228917 182:0.692524 183:0.672567 184:-0.158457 185:-0.367679 186:0.774867 187:-0.464968 188:0.611802 189:-0.741815 190:0.134287 191:0.187088 192:0.055254 193:-0.26796 194:-0.565067 195:0.75503 196:-0.503356 197:0.232899 198:-0.888604 199:-0.476959 200:-0.376053 201:0.786728 202:-0.510974 203:-0.758428 204:-0.662267 205:-0.074074 206:-0.470568 207:-0.841356 208:-0.316055 209:-0.721513 210:0.167869 211:-0.809189 212:-0.845366 213:-0.795152 214:0.431818 215:-0.196605 216:-0.642164 217:-0.247546 218:0.073672 219:-0.29232 220:-0.467469 221:-0.62117 222:-0.874678 223:0.150685 224:-0.09155 225:-0.77025 226:-0.190236 227:-0.427253 228:-0.011366 229:-0.712864 230:-0.765892 231:-0.489743 232:0.193548 233:-0.25335 234:-0.744345 235:0.764471 236:-0.67583 237:-0.705324 238:-0.820225 239:-0.838384 240:0.991236 241:0.046154 242:0.004795 243:-0.643215 244:0.103003 245:-0.741831 246:-0.885287 247:-0.960985 248:-0.984595 249:0.354461 250:-0.6 251:-0.04138 252:-0.904561 253:-0.242691 254:-0.150077 255:0.086077 256:-0.714162 257:-0.811 258:-0.187518 259:-0.303571 260:-0.167672 261:-0.881101 262:0.058109 263:-0.760283 264:0.355635 265:-0.960733 266:-0.94702 267:-0.419403 268:0.818182 269:-0.182302 270:-0.77626 271:-0.450869 272:-0.34196 273:0.365141 274:-0.706933 275:-0.758418 276:-0.966222 277:0.657371 278:-0.53293 279:-0.71221 280:-0.296305 281:-0.205694 282:0.150106 283:-0.77962 284:-0.85392 285:-0.668011 286:-0.117647 287:-0.187237 288:-0.949873 289:-0.294519 290:-0.110464 291:0.562586 292:-0.540121 293:-0.545522 294:-0.593642 295:-0.354839 296:-0.206856 297:-0.71203 298:-0.437384 299:0.9325 300:-0.488589 301:-0.46291 302:-0.682694 303:-0.935685 304:0.466667 305:-0.299408 306:-1.0 307:0.062631 308:-0.363261 309:-0.32992 310:-0.58423 311:-0.779459 312:-0.754813 313:-0.545455 314:-0.496296 315:-0.761957 316:0.429574 317:-0.719996 318:-0.102428 319:-0.965327 320:-0.952214 321:0.741022 322:0.202899 323:0.070749 324:-0.671641 325:0.677088 326:0.684446 327:0.691763 328:-0.84101 329:-0.81106 330:0.997765 331:0.026941 332:-0.141625 333:-0.421099 334:-0.587409 335:-0.831238 336:-0.974072 337:-0.844532 338:-0.828953 339:0.135192 340:0.033962 341:-0.197414 342:-0.659215 343:0.39782 344:-0.606377 345:0.043567 346:-0.836221 347:-0.8081 348:-0.90402 349:0.045045 350:0.791495 351:-0.339464 
0.0234375 1:-0.185343 2:-0.189094 3:-0.19279 4:-0.118403 5:0.061564 6:-0.213203 7:0.400746 8:0.186059 9:-0.540284 10:-0.441473 11:0.494671 12:-0.560078 13:-0.509046 14:-0.518789 15:-0.792447 16:-0.424658 17:-0.055049 18:-0.80085 19:0.103174 20:-0.473728 21:-0.236748 22:-0.576764 23:-0.566687 24:0.403574 25:-0.055046 26:-0.219211 27:-0.800151 28:-0.715895 29:0.36732 30:-0.016384 31:-0.623653 32:-0.763559 33:0.131643 34:0.315385 35:0.026422 36:-0.872956 37:-0.14743 38:-0.430009 39:-0.024526 40:-0.330224 41:-0.313721 42:-0.25766 43:-0.077895 44:-0.149835 45:-0.22721 46:0.844565 47:0.065017 48:-0.519466 49:-0.023349 50:-0.211754 51:0.310924 52:0.538462 53:0.131086 54:-0.795893 55:0.063163 56:0.421882 57:-0.608011 58:0.415037 59:0.484232 60:-0.370789 61:-0.411765 62:-0.29233 63:-0.577528 64:-0.209743 65:-0.116496 66:0.720397 67:0.197508 68:0.082335 69:0.330098 70:-0.363636 71:0.473861 72:-0.499 73:-0.63713 74:-0.158323 75:-0.420055 76:-0.835023 77:-0.893341 78:0.124268 79:0.775862 80:0.619265 81:-0.268348 82:-0.037479 83:-0.523645 84:-0.558896 85:0.187363 86:0.039559 87:-0.474521 88:-0.071429 89:-0.715106 90:-0.39875 91:-0.338671 92:-0.310637 93:0.307766 94:-0.267675 95:-0.480357 96:0.044555 97:-0.084112 98:-0.242596 99:-0.646123 100:-0.562533 101:-0.214952 102:-0.719407 103:0.11895 104:0.230888 105:0.348147 106:0.022901 107:0.184805 108:-0.514612 109:-0.187892 110:-0.679481 111:-0.499348 112:-0.258824 113:-0.064734 114:-0.809673 115:0.252101 116:-0.761756 117:0.095666 118:0.141678 119:0.064919 120:-0.468777 121:-0.556716 122:-0.720209 123:-0.469025 124:-0.05 125:-0.370952 126:-0.989616 127:-0.589482 128:-0.433873 129:-0.067047 130:-0.722244 131:-0.822945 132:-0.957744 133:0.15942 134:-0.48606 135:-0.834593 136:-0.181468 137:-0.580833 138:-0.790331 139:-0.476196 140:-0.640242 141:-0.506347 142:0.565714 143:-0.106779 144:-0.704053 145:-0.212642 146:-0.661651 147:0.523193 148:-0.63136 149:-0.758637 150:0.494564 151:-0.104478 152:0.194551 153:-0.75291 154:0.001785 155:-0.120721 156:0.678516 157:-0.684306 158:-0.86393 159:-0.280698 160:-0.229167 161:-0.201331 162:-0.905046 163:-0.007926 164:0.348436 165:0.119544 166:-0.164248 167:-0.526899 168:-0.215906 169:-0.359357 170:-0.271198 171:-0.982205 172:0.249169 173:-0.449502 174:0.942967 175:-0.28021 176:-0.46702 177:-0.126757 178:-0.149425 179:-0.145497 180:-0.665727 181:0.118041 182:-0.005827 183:0.413785 184:-0.60617 185:-0.735657 186:0.733323 187:-0.057325 188:0.293527 189:-0.866889 190:-0.146974 191:0.133808 192:0.033929 193:-0.254756 194:-0.343334 195:0.755149 196:-0.073825 197:0.23164 198:-0.580232 199:-0.866636 200:-0.502262 201:0.772638 202:-0.690043 203:-0.809696 204:-0.585665 205:1.0 206:-0.014677 207:-0.615211 208:-0.077618 209:-0.241316 210:0.161314 211:-0.412302 212:-0.65424 213:-0.669881 214:0.363636 215:0.573084 216:-0.455565 217:-0.234352 218:-0.424287 219:-0.082394 220:-0.420628 221:-0.455496 222:-0.861222 223:0.633562 224:0.077511 225:-0.504593 226:-0.20976 227:-0.648792 228:0.037375 229:-0.720196 230:-0.755882 231:-0.485282 232:-0.33871 233:0.044606 234:-0.749673 235:0.810337 236:-0.286402 237:-0.682375 238:-0.885936 239:-0.934276 240:0.992778 241:0.046154 242:0.134795 243:-0.942834 244:0.190288 245:-0.17147 246:-0.880371 247:-0.732046 248:-0.852307 249:0.352984 250:-0.25 251:-0.118158 252:-0.937929 253:-0.275008 254:-0.666824 255:0.064635 256:-0.845136 257:-0.896045 258:-0.185673 259:0.035714 260:0.096613 261:-0.828769 262:-0.032674 263:-0.214138 264:0.372602 265:-0.884837 266:-0.922779 267:-0.418324 268:0.454545 269:0.083304 270:-0.914861 271:-0.381022 272:-0.018318 273:0.242227 274:-0.663336 275:-0.773576 276:-0.961679 277:-0.23506 278:-0.334434 279:-0.890609 280:-0.254345 281:-0.333563 282:0.15028 283:-0.517746 284:-0.55358 285:-0.66715 286:0.029412 287:-0.156831 288:-0.727549 289:-0.179971 290:-0.144206 291:0.54468 292:-0.740345 293:-0.818406 294:-0.588989 295:0.419355 296:-0.04665 297:-0.962548 298:-0.055525 299:-0.04828 300:-0.517238 301:-0.593085 302:-0.670664 303:-0.928717 304:0.533333 305:-0.185778 306:-0.67769 307:-0.079815 308:-0.514577 309:-0.441658 310:-0.752508 311:-0.894147 312:-0.754567 313:-0.454545 314:-0.580437 315:-0.719807 316:0.506179 317:-0.085446 318:0.016709 319:-0.756729 320:-0.827541 321:0.742232 322:-0.391304 323:0.34345 324:-0.849784 325:0.54087 326:0.549692 327:0.558539 328:-0.676197 329:-0.643668 330:0.990989 331:0.22815 332:-0.099544 333:-0.499655 334:-0.432472 335:-0.795724 336:-0.974018 337:-0.758575 338:-0.741666 339:0.149726 340:-0.237736 341:0.393681 342:-0.324818 343:0.358168 344:-0.520059 345:0.155388 346:-0.756222 347:-0.702481 348:-0.899197 349:-0.081081 350:0.891546 351:-0.104365 
0.0234375 1:-0.75458 2:-0.753841 3:-0.753091 4:-0.932046 5:-1.0 6:-0.44742 7:-0.896312 8:-0.498485 9:-0.856848 10:-0.182153 11:0.251548 12:-0.340127 13:-0.578236 14:-0.498853 15:-0.772301 16:0.534247 17:0.171673 18:-0.495802 19:0.616435 20:-0.445487 21:-0.389738 22:-0.46852 23:-0.543871 24:0.392602 25:-0.174312 26:-0.2367 27:-0.926489 28:0.096822 29:-0.554965 30:-0.414475 31:-0.450504 32:-0.490976 33:-0.131051 34:0.430769 35:-0.444588 36:-0.098624 37:0.418175 38:0.162197 39:-0.34514 40:-0.064494 41:-0.21385 42:-0.066704 43:0.28 44:0.112143 45:-0.431547 46:-0.020124 47:0.051319 48:-0.51885 49:0.247863 50:-0.386804 51:0.127742 52:0.661538 53:-0.099614 54:-0.911938 55:-0.202359 56:-0.472316 57:-0.652401 58:-0.699932 59:-0.552951 60:-0.227803 61:-0.45098 62:-0.553588 63:-0.291905 64:-0.082523 65:-0.647336 66:0.708561 67:0.045529 68:-0.091793 69:-0.110917 70:-0.151515 71:-0.006597 72:-0.639743 73:-0.144103 74:-0.460921 75:-0.444336 76:-0.117794 77:-0.265096 78:-0.261502 79:0.155172 80:-0.401941 81:-0.468788 82:-0.177651 83:0.066358 84:-0.569167 85:-0.005259 86:-0.344707 87:0.173772 88:-0.107143 89:-0.014226 90:-0.771626 91:0.028247 92:-0.375182 93:0.396133 94:-0.569402 95:-0.576743 96:0.242134 97:0.738318 98:0.038389 99:-0.602704 100:0.339604 101:-0.537356 102:-0.67674 103:-0.695227 104:-0.48525 105:-0.054866 106:-0.038168 107:-0.310917 108:-0.591876 109:0.009015 110:-0.837082 111:-0.494223 112:-0.898745 113:-0.930318 114:-0.657754 115:-0.016807 116:0.042737 117:-0.723729 118:0.213769 119:-0.168072 120:-0.436841 121:-0.576371 122:-0.630672 123:-0.465571 124:-0.1 125:-0.321737 126:-0.824266 127:-0.377298 128:-0.730671 129:-0.121896 130:-0.796745 131:-0.840067 132:-0.962476 133:-0.449275 134:-0.68976 135:-0.756652 136:0.346279 137:-0.350576 138:-1.0 139:-0.646623 140:-0.727438 141:-0.497548 142:0.314286 143:0.022439 144:-0.66998 145:-0.216052 146:-0.604037 147:0.438172 148:-0.485272 149:-0.685847 150:0.47932 151:0.19403 152:-0.045216 153:-0.842309 154:-0.492342 155:0.291417 156:0.695815 157:-0.52214 158:-0.80658 159:-0.280756 160:-0.5 161:-0.139046 162:-0.981793 163:0.245414 164:-0.471972 165:0.127025 166:-0.535671 167:-0.668266 168:-0.239875 169:-0.138921 170:-0.291122 171:-0.819205 172:-0.393294 173:-0.109205 174:0.954951 175:-0.652603 176:-0.780713 177:-0.085081 178:0.172414 179:-0.179322 180:-0.789566 181:-0.023011 182:0.210628 183:0.403108 184:-0.571064 185:-0.720779 186:0.728808 187:0.044586 188:0.207309 189:-0.888473 190:-0.251425 191:0.249371 192:0.024505 193:-0.359177 194:-0.722224 195:0.728885 196:-0.181208 197:0.029863 198:-0.92203 199:0.39553 200:-0.47155 201:0.773051 202:-0.400275 203:-0.442297 204:-0.642205 205:-0.407407 206:-0.358696 207:-0.592324 208:0.477344 209:-0.695343 210:0.159946 211:-0.83035 212:-0.915971 213:-0.82307 214:-0.477273 215:-0.947662 216:-0.567746 217:-0.273007 218:-0.718364 219:-0.355254 220:-0.947159 221:-0.997169 222:-0.860253 223:0.315069 224:0.155386 225:-0.959041 226:-0.388139 227:-0.280598 228:0.027902 229:-0.719319 230:-0.76767 231:-0.484902 232:-0.032258 233:0.070127 234:-0.866473 235:0.654174 236:-0.417858 237:-0.769219 238:-0.955708 239:-0.965483 240:0.993695 241:0.076923 242:0.430649 243:-0.941162 244:0.138469 245:-0.341512 246:-0.862735 247:-0.90517 248:-0.954568 249:0.354687 250:0.1 251:0.008162 252:-0.925443 253:-0.28126 254:-0.269322 255:0.083602 256:-0.726206 257:-0.784262 258:-0.190567 259:-0.370536 260:-0.408463 261:-0.74721 262:0.037478 263:0.500538 264:0.349393 265:-0.699661 266:-0.825874 267:-0.418197 268:0.090909 269:0.044459 270:-0.970362 271:-0.470163 272:0.024278 273:0.285037 274:-0.68652 275:-0.842 276:-0.966439 277:-0.36255 278:-0.52665 279:-0.981857 280:-0.337042 281:-0.325573 282:0.16226 283:-0.710949 284:-0.778656 285:-0.667667 286:0.176471 287:-0.164455 288:-0.823234 289:-0.1453 290:-0.540409 291:0.555927 292:-0.731887 293:-0.767637 294:-0.591236 295:0.419355 296:-0.235445 297:-0.809941 298:-0.354153 299:0.076229 300:-0.498382 301:-0.572736 302:-0.733208 303:-0.931583 304:-0.6 305:-0.253124 306:-0.933523 307:0.067208 308:-0.284835 309:-0.445114 310:-0.665238 311:-0.849591 312:-0.693035 313:-0.272727 314:0.1612 315:-0.738634 316:0.521345 317:-0.785041 318:-0.160882 319:-0.911733 320:-0.9142 321:0.742195 322:-0.181159 323:0.383844 324:-0.768747 325:0.868185 326:0.87142 327:0.87463 328:-0.955211 329:-0.932026 330:0.999448 331:-0.454188 332:-0.059981 333:-0.44771 334:-0.49968 335:-0.87427 336:-0.973812 337:-0.928675 338:-0.936143 339:0.135956 340:0.486792 341:-0.163186 342:-0.823599 343:0.377667 344:-0.661195 345:0.697763 346:-0.904653 347:-0.912461 348:-0.906367 349:-0.531532 350:0.502712 351:-0.774169 
0.0234375 1:-0.372388 2:-0.374527 3:-0.376624 4:-0.329764 5:-0.219365 6:-0.286647 7:0.327395 8:0.280257 9:-0.472907 10:-0.704793 11:0.747105 12:-0.793359 13:-0.523766 14:-0.468303 15:-0.820152 16:0.342466 17:-0.304584 18:-0.502528 19:0.16823 20:-0.08745 21:-0.417671 22:-0.025889 23:0.147303 24:0.580496 25:0.082569 26:-0.008181 27:-0.668016 28:-0.362184 29:-0.063863 30:-0.070395 31:0.305224 32:0.348993 33:-1.0 34:-0.161538 35:-0.797386 36:0.768806 37:0.126315 38:-0.561246 39:-0.026698 40:-0.721311 41:-0.933382 42:-0.240043 43:0.010526 44:-0.291482 45:-0.655755 46:0.507917 47:-0.234449 48:-0.542342 49:-0.47276 50:-0.618531 51:0.346707 52:0.2 53:0.243141 54:-0.764793 55:-0.432036 56:0.118837 57:-0.590229 58:0.213987 59:-0.107793 60:0.180643 61:-0.294118 62:0.105644 63:-0.9917 64:0.268955 65:-0.120372 66:0.41317 67:-0.081334 68:-0.269034 69:-0.127347 70:-0.30303 71:-0.038999 72:-0.778008 73:0.480378 74:-0.344585 75:-0.355434 76:-0.212558 77:-0.507264 78:0.162716 79:0.017241 80:0.255594 81:-0.677578 82:-0.068878 83:0.65496 84:-0.578127 85:0.077412 86:-0.339921 87:0.212901 88:0.142857 89:0.011213 90:-0.957203 91:-0.364552 92:0.522417 93:0.362519 94:1.0 95:0.780598 96:-0.20533 97:0.028037 98:-0.187157 99:-0.675334 100:0.470003 101:-0.935105 102:-0.724755 103:-0.370116 104:-0.054445 105:0.141294 106:0.061069 107:0.172852 108:-0.275214 109:0.898075 110:-0.807473 111:-0.503207 112:-0.662262 113:-0.566743 114:-0.609514 115:-0.789916 116:1.0 117:1.0 118:0.403933 119:0.375082 120:-0.522126 121:-0.318084 122:-0.552317 123:-0.449301 124:-0.2 125:-0.313307 126:-0.958196 127:0.502323 128:0.1017 129:-0.021926 130:-0.036797 131:-0.106879 132:-0.621329 133:0.043478 134:0.550712 135:0.388731 136:0.109001 137:0.167156 138:-0.792266 139:0.017267 140:-0.401915 141:-0.431086 142:0.04 143:0.174942 144:-0.832406 145:0.165967 146:-0.778231 147:0.458875 148:-0.341805 149:-0.406922 150:0.562498 151:0.432836 152:0.56405 153:-0.029598 154:-0.128636 155:-0.292474 156:0.746199 157:-0.625493 158:-0.754462 159:-0.235584 160:-0.333333 161:0.195156 162:-0.737296 163:-0.339481 164:-0.437679 165:0.144849 166:-0.58651 167:-0.601182 168:-0.215544 169:-0.506315 170:-0.085098 171:-0.60236 172:0.36972 173:0.317023 174:0.970262 175:-0.446896 176:-0.660617 177:-0.047547 178:0.103448 179:0.323739 180:-0.924585 181:0.444348 182:0.137044 183:0.363657 184:-0.305336 185:-0.46071 186:0.756142 187:-0.159236 188:0.554528 189:-0.712428 190:0.381299 191:-0.111681 192:0.045347 193:-0.546235 194:-0.716506 195:0.740449 196:-0.181208 197:0.087618 198:-0.834301 199:0.018432 200:1.0 201:0.782937 202:1.0 203:0.650966 204:-0.913782 205:0.407407 206:-0.43837 207:-0.927616 208:0.101911 209:-0.393193 210:0.172424 211:-0.383776 212:-0.558931 213:-0.741967 214:-0.318182 215:0.072412 216:-0.615909 217:-0.532919 218:-0.664053 219:-0.132616 220:-0.43651 221:-0.468029 222:-0.958709 223:-0.123288 224:-1.0 225:1.0 226:0.147372 227:-0.335559 228:0.107894 229:-0.652678 230:-0.674531 231:-0.486094 232:-0.78125 233:-0.024549 234:-0.745154 235:0.787265 236:-0.619236 237:-0.718934 238:-0.525105 239:-0.390449 240:0.971312 241:0.230769 242:-0.190331 243:0.061153 244:0.403339 245:0.817424 246:-0.890402 247:-0.369744 248:-0.523577 249:0.377776 250:-0.3 251:0.248668 252:-0.820266 253:-0.2406 254:0.029423 255:0.037974 256:-0.677336 257:-0.755562 258:-0.183283 259:-0.142857 260:0.091264 261:-0.752995 262:-0.359698 263:0.045639 264:0.360519 265:-0.427605 266:-0.411491 267:-0.467372 268:0.090909 269:-0.65653 270:0.225443 271:-0.839202 272:-0.693367 273:0.323573 274:-0.489263 275:-0.488125 276:-1.0 277:0.2749 278:-1.0 279:-0.114368 280:-0.461809 281:-0.380303 282:0.154138 283:-0.696801 284:-0.802173 285:-0.665404 286:0.176471 287:-0.066133 288:-0.883499 289:-0.245283 290:0.576494 291:0.396411 292:-0.615674 293:-0.685652 294:-0.585391 295:0.032258 296:0.077248 297:-0.871707 298:-0.579956 299:0.417895 300:-0.158947 301:-0.637868 302:-0.765046 303:-0.929191 304:0.333333 305:-0.192902 306:-0.906764 307:0.210759 308:1.0 309:-0.372693 310:0.537161 311:-0.156357 312:-0.83126 313:0.212121 314:-0.460606 315:-0.829946 316:0.464332 317:0.058324 318:0.66991 319:-0.723478 320:-0.805168 321:0.738748 322:-0.101449 323:0.15383 324:-0.819389 325:0.614762 326:0.622946 327:0.631122 328:-0.767698 329:-0.763328 330:0.995875 331:-0.052591 332:-0.063873 333:-0.646976 334:-0.853221 335:-0.8084 336:-0.974648 337:-0.834244 338:-0.803615 339:0.124983 340:1.0 341:-1.0 342:0.468353 343:-0.342817 344:-0.785492 345:0.076892 346:-0.761048 347:-0.733665 348:-0.921081 349:0.153153 350:-1.0 351:1.0 
