svm_type c_svc
kernel_type rbf
gamma 2.44140625E-4
nr_class 2
total_sv 84
rho 2.3097149549637366
label 1 -1
nr_sv 44 40
SV
71.58925481759285 1:-0.515348 2:-0.502564 3:-0.489627 4:-0.547824 5:-0.236163 6:0.313064 7:1.0 8:0.328517 9:-0.433092 10:-0.935193 11:0.963137 12:-0.982777 13:-0.960163 14:-0.748883 15:-0.930632 16:0.220847 17:-0.359998 18:-0.453233 19:0.005085 20:-0.113319 21:0.959278 22:-0.246728 23:-0.328444 24:0.303573 25:-0.37037 26:0.533391 27:-0.668684 28:-0.537987 29:0.172362 30:-0.657099 31:-0.495618 32:-0.650176 33:-0.471378 34:0.59146 35:0.055313 36:-0.78338 37:0.013948 38:-0.401331 39:0.010265 40:-0.070374 41:0.063499 42:-0.56816 43:-0.343066 44:-0.898518 45:0.401165 46:-0.299356 47:-0.179416 48:-0.460469 49:-0.123723 50:-0.520793 51:0.440204 52:0.163111 53:0.236643 54:-0.907619 55:-0.055658 56:-0.320024 57:-0.679806 58:-0.6359 59:-0.549213 60:-0.475543 61:0.427957 62:-0.370467 63:-0.040739 64:-0.494066 65:-0.071785 66:-0.49036 67:0.038849 68:0.397164 69:-0.399051 70:-0.258065 71:-0.512565 72:0.379628 73:0.327387 74:-0.249069 75:-0.076714 76:0.109912 77:0.448297 78:-0.47976 79:-0.281553 80:-0.375474 81:-0.079644 82:0.381108 83:0.421267 84:-0.796053 85:-0.359929 86:-0.593375 87:0.315512 88:0.052632 89:-0.004625 90:-0.879005 91:0.551673 92:-0.182432 93:-0.449938 94:0.153809 95:0.0738 96:0.087362 97:0.02267 98:0.007103 99:-0.180676 100:-0.142335 101:-0.584241 102:-0.530327 103:-0.306512 104:-0.199663 105:-0.026625 106:-0.093264 107:0.06374 108:-0.523686 109:-0.243018 110:-0.583042 111:-0.085846 112:-0.081125 113:-0.108721 114:-0.746025 115:-0.189655 116:-0.295453 117:-0.435317 118:-0.114062 119:-0.753059 120:-0.514593 121:-0.634313 122:-0.15135 123:0.074171 124:-0.033333 125:-0.513454 126:0.333498 127:-0.288157 128:0.130336 129:0.324808 130:-0.299785 131:-0.686938 132:-0.876123 133:0.709677 134:-0.712066 135:-0.940018 136:0.003086 137:-0.05184 138:-0.154069 139:-0.145045 140:-0.544648 141:-0.16389 142:0.428571 143:-0.447389 144:-0.829337 145:-0.025102 146:-0.176831 147:0.284697 148:0.247738 149:-0.169107 150:0.63673 151:-0.411765 152:0.40652 153:-0.838032 154:0.527562 155:-0.026757 156:0.280277 157:1.0 158:1.0 159:1.0 160:-0.182836 161:0.808928 162:1.0 163:0.742745 164:-0.501752 165:-0.007239 166:-0.375739 167:-0.61391 168:0.172014 169:-0.527027 170:-0.19716 171:-0.879956 172:1.0 173:-0.110253 174:-0.663595 175:-0.012791 176:-0.393565 177:0.149899 178:0.22905 179:0.261432 180:-0.822383 181:-0.486536 182:0.094019 183:0.819714 184:0.384385 185:0.315499 186:-0.110595 187:0.305085 188:-0.924245 189:0.777396 190:0.256958 191:0.058676 192:0.809886 193:-0.07089 194:0.014773 195:0.839535 196:-0.213622 197:0.903259 198:0.717895 199:-0.123528 200:0.240782 201:-0.547533 202:-8.83E-4 203:-0.613278 204:-0.762327 205:0.189189 206:-0.484534 207:-0.887417 208:0.041016 209:-0.070656 210:0.361227 211:0.811239 212:1.0 213:0.021852 214:-0.117647 215:0.274266 216:0.821258 217:-0.375342 218:-0.126094 219:-0.05119 220:-0.043253 221:-0.176664 222:-0.525875 223:0.357143 224:-0.19155 225:-0.478983 226:-0.451726 227:-0.684932 228:-0.454719 229:-0.415978 230:-0.236441 231:-0.563922 232:-0.127778 233:-0.448209 234:-0.306938 235:0.387942 236:-0.254994 237:0.573926 238:-0.472838 239:-0.569872 240:0.977182 241:-0.168709 242:0.59566 243:-0.844403 244:0.836896 245:0.219681 246:0.291247 247:-0.360511 248:-0.442584 249:1.0 250:-1.0 251:0.771496 252:-0.648295 253:0.434414 254:0.327407 255:0.056395 256:0.246486 257:0.019858 258:0.608772 259:0.830097 260:0.615505 261:0.318215 262:-1.0 263:0.123519 264:-0.118403 265:1.0 266:1.0 267:-1.0 268:-0.112952 269:-0.983041 270:0.946726 271:-0.415701 272:-0.347215 273:0.908609 274:-0.61737 275:-0.815357 276:-0.164904 277:0.28 278:-0.069234 279:-0.939806 280:-0.047602 281:0.244969 282:-0.085334 283:-0.512314 284:-0.741173 285:0.118089 286:0.46875 287:-0.03836 288:-0.928869 289:-0.779665 290:0.803661 291:-0.538713 292:0.1485 293:0.512236 294:-1.0 295:0.152174 296:-0.816386 297:0.301369 298:-1.0 299:-0.647447 300:0.233382 301:-0.328233 302:-0.251877 303:-1.0 304:0.829787 305:-1.0 306:0.429422 307:0.252298 308:0.348068 309:0.061647 310:-0.543935 311:-0.70668 312:0.68022 313:-0.611765 314:0.023228 315:-0.960717 316:-1.0 317:0.120868 318:0.034258 319:1.0 320:1.0 321:-1.0 322:0.764042 323:-1.0 324:1.0 325:0.879356 326:0.882941 327:0.886384 328:-0.798111 329:-0.627116 330:0.988614 331:0.256839 332:-0.249722 333:-0.141034 334:-0.004634 335:-0.837573 336:-0.94557 337:-0.701345 338:-0.708821 339:-0.355128 340:-0.014634 341:0.301866 342:-0.547681 343:0.172839 344:-0.679539 345:0.610201 346:-0.751831 347:-0.701399 348:-0.734664 349:-0.134328 350:0.464863 351:-0.515213 
128.0 1:-0.229516 2:-0.224523 3:-0.219248 4:-0.136617 5:0.066409 6:0.536479 7:-0.435286 8:0.052428 9:-0.784132 10:-0.731247 11:0.782985 12:-0.821183 13:-0.751226 14:-0.369925 15:-0.861249 16:0.674367 17:0.2303 18:0.114342 19:-0.25775 20:0.184299 21:0.950653 22:0.082159 23:0.031495 24:-0.141412 25:-0.304398 26:-0.182382 27:-0.633754 28:-0.646885 29:0.200335 30:-0.612012 31:-0.034183 32:0.050625 33:-0.324209 34:0.029429 35:0.157217 36:-0.367866 37:-0.062934 38:-0.083234 39:-0.084776 40:0.166372 41:-0.195116 42:1.0 43:-0.138686 44:1.0 45:0.045183 46:0.100139 47:-0.068009 48:-0.626606 49:0.083016 50:0.375016 51:0.282131 52:-0.432897 53:-0.023509 54:0.113182 55:0.782091 56:-0.040776 57:-0.681335 58:0.329076 59:0.032101 60:1.0 61:0.427957 62:1.0 63:0.862999 64:0.203532 65:0.330115 66:-0.594428 67:0.30916 68:-0.151565 69:-0.486215 70:0.032258 71:-0.517004 72:-0.59244 73:-0.688879 74:0.700361 75:-0.075405 76:0.055318 77:0.268229 78:-0.131928 79:0.029126 80:0.060943 81:-0.357442 82:-0.693773 83:0.538041 84:-0.797574 85:-0.114929 86:-0.358075 87:0.698533 88:0.306579 89:0.728617 90:-0.242891 91:0.264626 92:0.224455 93:-0.425478 94:0.279547 95:0.192613 96:-0.012365 97:-0.279597 98:-0.101032 99:-0.443346 100:0.283125 101:-0.245643 102:-0.527961 103:-0.429085 104:-0.497145 105:-0.250521 106:-0.692573 107:-0.454007 108:-0.722749 109:-0.010915 110:-0.092555 111:-0.052407 112:0.406948 113:0.045589 114:-0.728034 115:-0.465517 116:-0.150855 117:-0.839447 118:-0.006579 119:-0.509225 120:-0.547987 121:-0.624655 122:-0.659266 123:0.240202 124:-0.2 125:0.444002 126:-0.815224 127:-0.022639 128:0.236558 129:0.332466 130:-0.173552 131:-0.605751 132:-0.89769 133:0.322581 134:-0.807611 135:-0.958008 136:0.027425 137:0.491815 138:-0.410826 139:-0.024513 140:-0.407701 141:-0.015033 142:-0.023809 143:-0.198005 144:-0.867137 145:0.01335 146:-0.373922 147:0.307952 148:-0.267896 149:-0.549993 150:0.614101 151:-0.607843 152:0.328986 153:-0.885631 154:0.056251 155:-0.757755 156:0.194368 157:-0.312374 158:-0.627554 159:-0.255088 160:0.268657 161:-0.207004 162:-0.731506 163:-0.05497 164:-0.461828 165:0.228522 166:-0.495167 167:-0.666387 168:0.191074 169:0.945946 170:-0.085505 171:-0.870154 172:-0.524773 173:0.0796 174:-0.482079 175:-0.076083 176:-0.441205 177:0.098879 178:-0.030405 179:0.144498 180:-0.82522 181:-0.26684 182:-0.363763 183:0.842641 184:-0.615561 185:-0.746687 186:0.827665 187:0.014831 188:0.301906 189:-0.820077 190:0.011067 191:-0.081683 192:0.676741 193:-0.62808 194:-0.784908 195:0.464977 196:0.108359 197:-0.05551 198:-0.92292 199:-0.535733 200:-0.283356 201:-0.64884 202:-0.378101 203:-0.706537 204:-0.76304 205:-0.027027 206:-0.433329 207:-0.8875 208:-0.487007 209:-0.416639 210:0.354497 211:-0.471536 212:-0.715721 213:-0.494728 214:-0.198529 215:-0.169148 216:-0.819591 217:0.020023 218:-0.186321 219:-0.146649 220:-0.099453 221:-0.421168 222:-0.463625 223:0.089286 224:-0.044158 225:-0.822241 226:-0.152354 227:-0.37035 228:-0.405452 229:-0.681803 230:-0.816103 231:-0.530072 232:0.466667 233:-0.250053 234:-0.944974 235:0.738779 236:0.16331 237:-0.142758 238:-0.498443 239:-0.694679 240:0.992567 241:-0.115928 242:0.86474 243:-0.955497 244:0.385661 245:0.387971 246:0.294085 247:-0.488226 248:-0.711168 249:0.928173 250:-0.164835 251:0.347871 252:-0.942813 253:-0.274956 254:-0.113098 255:0.037381 256:-0.560009 257:-0.840819 258:0.173435 259:0.223301 260:-0.166757 261:-0.935968 262:0.206945 263:-0.352626 264:-0.169254 265:-0.594905 266:-0.724799 267:0.455422 268:-0.156627 269:0.1915 270:-0.906228 271:-0.136487 272:-0.443836 273:0.905223 274:-0.748262 275:-0.861438 276:-0.166055 277:-0.52 278:-0.139906 279:-0.900647 280:-0.061216 281:0.335925 282:-0.113414 283:-0.566156 284:-0.769966 285:0.115621 286:-0.09375 287:-0.071478 288:-0.941979 289:-0.423465 290:-0.286158 291:-0.572429 292:-0.84313 293:-0.897722 294:-0.722671 295:0.086957 296:-0.138868 297:-0.926356 298:-0.191916 299:-0.297311 300:0.271664 301:-0.823586 302:-0.903478 303:-0.841223 304:-0.106383 305:-0.219159 306:-0.933495 307:0.506374 308:-0.397172 309:0.043216 310:-0.700712 311:-0.820972 312:0.681188 313:-0.152941 314:0.027548 315:-0.926447 316:0.17435 317:-0.204224 318:0.029693 319:-0.673261 320:-0.788992 321:0.580506 322:0.198217 323:0.397884 324:-0.921893 325:0.771759 326:0.77859 327:0.785158 328:-0.71214 329:-0.598439 330:0.9847 331:0.068064 332:0.315482 333:-0.731282 334:-0.013458 335:-0.488266 336:-0.978359 337:-0.54924 338:-0.614941 339:-0.361355 340:-0.373659 341:0.071975 342:-0.760138 343:0.29805 344:-0.390178 345:0.412463 346:-0.627789 347:-0.671743 348:-0.736287 349:-0.119403 350:0.268141 351:-0.830081 
128.0 1:0.043255 2:0.048807 3:0.054591 4:-0.229718 5:0.094064 6:0.460964 7:-0.316347 8:0.070904 9:-0.684275 10:-0.655424 11:0.723685 12:-0.777792 13:-0.734271 14:-0.367743 15:-0.976229 16:-0.232123 17:-0.585897 18:-0.02449 19:0.291721 20:0.126881 21:0.957339 22:-0.07518 23:-0.308291 24:0.189822 25:0.314815 26:0.28743 27:-0.787051 28:-0.705333 29:0.570833 30:-0.636518 31:-0.446683 32:-0.436999 33:-0.537178 34:-0.538373 35:-0.129824 36:-0.430021 37:-0.519961 38:-0.252281 39:-0.014997 40:0.257856 41:-0.065839 42:0.30649 43:1.0 44:0.223563 45:-0.632958 46:0.015303 47:-0.552218 48:-0.489796 49:0.078663 50:0.323704 51:0.023542 52:0.339298 53:-0.437123 54:0.253934 55:0.328937 56:-0.530496 57:-0.669713 58:-0.726173 59:-0.78678 60:-0.149516 61:0.064516 62:0.294849 63:-0.369595 64:0.141872 65:-0.489345 66:-0.487375 67:0.00495 68:-0.154549 69:-0.695389 70:-0.516129 71:-0.959899 72:0.023844 73:-0.047905 74:0.010878 75:-0.230774 76:0.011295 77:0.241929 78:-0.298161 79:-0.320388 80:-0.161791 81:-0.416994 82:0.620451 83:0.462689 84:-0.679031 85:-0.353295 86:-0.484639 87:0.404818 88:0.157895 89:0.210404 90:-0.879806 91:0.671393 92:0.974001 93:-0.374053 94:0.744743 95:0.181915 96:-0.43339 97:-0.098237 98:-0.401559 99:-0.613198 100:-0.267233 101:-0.002639 102:-0.490374 103:-0.044961 104:-0.204729 105:-0.31306 106:-0.651123 107:-0.448672 108:-0.581407 109:0.051484 110:-0.319706 111:-0.010465 112:0.392639 113:0.168961 114:-0.348311 115:-0.12931 116:0.32879 117:-0.545907 118:-0.103757 119:-0.423589 120:-0.427091 121:-0.437576 122:-0.282446 123:0.409871 124:0.033333 125:0.930765 126:-0.570362 127:-0.61308 128:0.298321 129:0.344953 130:-0.33112 131:-0.663707 132:-0.866677 133:0.064516 134:-0.652407 135:-0.934156 136:0.165296 137:-0.469106 138:-0.215236 139:-0.596529 140:-0.613574 141:-0.058454 142:-0.214286 143:-0.260614 144:-0.771635 145:0.016358 146:0.169272 147:0.413485 148:-0.220605 149:-0.640174 150:0.700814 151:-0.372549 152:0.617463 153:-0.927656 154:0.051895 155:-0.209872 156:0.174677 157:-0.165618 158:-0.639964 159:-0.181392 160:0.283582 161:-0.015418 162:-0.867635 163:0.121025 164:-0.401947 165:-0.008799 166:-0.490188 167:-0.734286 168:0.158311 169:0.162162 170:-0.240372 171:-0.967052 172:0.986397 173:-0.387709 174:-0.695054 175:-0.322116 176:-0.667967 177:0.079868 178:0.318005 179:0.122644 180:-0.947795 181:0.811285 182:-0.237887 183:0.790056 184:-0.311779 185:-0.643328 186:0.774535 187:0.033898 188:0.123907 189:-0.817978 190:-0.156362 191:-0.34749 192:0.682014 193:-0.640981 194:-0.802818 195:0.462946 196:-0.188854 197:-0.071113 198:-0.881803 199:-0.158969 200:0.897816 201:-0.517742 202:0.198257 203:-0.595661 204:-0.74734 205:-0.081081 206:-0.477297 207:-0.946172 208:-0.100617 209:-0.258751 210:0.357975 211:-0.401022 212:-0.627003 213:-0.512672 214:0.0 215:-0.251409 216:-0.817687 217:-0.161678 218:-0.039707 219:0.023431 220:0.067832 221:-0.35264 222:-0.478214 223:-0.258929 224:0.0087 225:-0.822236 226:-0.334921 227:-0.514897 228:-0.44241 229:-0.420902 230:-0.602141 231:-0.523414 232:-0.261111 233:-0.117904 234:-0.902477 235:0.884554 236:-0.444398 237:0.638095 238:-0.643817 239:-0.731168 240:0.987587 241:0.095193 242:0.778737 243:-0.890136 244:0.643133 245:-0.415635 246:0.269523 247:-0.810719 248:-0.881146 249:0.927468 250:-0.010989 251:0.311143 252:-0.944065 253:-0.612628 254:0.362551 255:0.024793 256:-0.529815 257:-0.761004 258:0.151996 259:0.109223 260:-0.342776 261:-0.884652 262:0.243908 263:-0.179333 264:-0.19332 265:-0.620678 266:-0.716638 267:0.453632 268:-0.301205 269:0.169988 270:-0.922994 271:-0.221771 272:-0.351192 273:0.914838 274:-0.652383 275:-0.830527 276:-0.163984 277:-0.04 278:-0.050747 279:-0.969359 280:-0.066014 281:-0.136214 282:-0.128808 283:-0.667313 284:-0.835699 285:0.112377 286:0.21875 287:-0.144938 288:-0.937427 289:-0.358491 290:0.087145 291:-0.547935 292:-0.670215 293:-0.813338 294:-0.72272 295:0.434783 296:-0.150684 297:-0.945569 298:-0.401479 299:-0.295095 300:0.225132 301:-0.78334 302:-0.849361 303:-0.837691 304:0.021277 305:-0.115655 306:-0.952598 307:0.079731 308:0.606423 309:0.039243 310:-0.434831 311:-0.665783 312:0.68733 313:0.023529 314:0.099856 315:-0.943515 316:0.023788 317:-0.19611 318:0.02712 319:-0.684037 320:-0.744083 321:0.583955 322:0.6737 323:0.481065 324:-0.903315 325:0.718551 326:0.726859 327:0.734842 328:-0.667307 329:-0.490971 330:0.97576 331:0.216136 332:0.256288 333:-0.670709 334:-0.034372 335:-0.565878 336:-0.952479 337:-0.475721 338:-0.611628 339:-0.350562 340:0.063415 341:0.148673 342:-0.849306 343:0.324174 344:-0.532918 345:0.596505 346:-0.593159 347:-0.696591 348:-0.73126 349:0.0 350:0.36201 351:-0.869022 
128.0 1:-0.43656 2:-0.421197 3:-0.405761 4:-0.821992 5:-0.742308 6:0.13915 7:-0.140113 8:-0.052873 9:-0.679523 10:-0.766172 11:0.816251 12:-0.85469 13:-0.794558 14:-0.749604 15:-0.912609 16:0.160773 17:-0.134869 18:-0.873622 19:0.118536 20:-0.362152 21:0.950056 22:-0.151553 23:-0.315598 24:-0.04912 25:-0.361111 26:-0.109685 27:-0.594284 28:0.008747 29:0.023768 30:-0.659125 31:0.025506 32:-0.314108 33:-0.318615 34:-0.044432 35:0.140173 36:-0.647183 37:0.227985 38:-0.112765 39:-0.314388 40:0.049952 41:0.39583 42:0.468181 43:-0.153285 44:0.452899 45:-0.00693 46:0.081321 47:-0.667613 48:-0.489075 49:-0.216209 50:-0.331424 51:0.293072 52:-0.098417 53:-0.062631 54:-0.603713 55:0.514072 56:-0.147274 57:-0.682196 58:-0.550671 59:-0.7182 60:-0.36996 61:0.393548 62:-0.164064 63:-0.78333 64:0.535697 65:-0.395389 66:-0.487329 67:-0.370759 68:-0.530311 69:-0.026645 70:0.112903 71:0.108603 72:-0.462188 73:0.925877 74:-0.581076 75:-0.026715 76:-0.457561 77:-0.00814 78:-0.092299 79:-0.242718 80:0.180004 81:-0.103402 82:0.196385 83:-0.174164 84:-0.729484 85:-0.260929 86:-0.442648 87:0.446936 88:-0.010526 89:0.285842 90:-0.724433 91:-0.355121 92:-0.144747 93:-0.42246 94:-0.016477 95:-0.416041 96:-0.026187 97:0.105793 98:-0.131585 99:-0.722472 100:0.141433 101:-0.076058 102:-0.536969 103:-0.138907 104:-0.028275 105:-0.389245 106:-0.402418 107:-0.61629 108:-0.277766 109:-0.103646 110:-0.631528 111:-0.305504 112:-0.726085 113:-0.742655 114:-0.683573 115:-0.017241 116:-0.179016 117:-0.649488 118:0.103551 119:-0.446388 120:-0.557696 121:-0.678091 122:-0.82736 123:0.224632 124:-0.2 125:0.363752 126:-0.953812 127:0.281269 128:-0.354837 129:0.318387 130:-0.440907 131:-0.778446 132:-0.8682 133:0.233871 134:-0.658052 135:-0.918927 136:0.30878 137:0.514849 138:-0.253418 139:0.047787 140:-0.586423 141:-0.137975 142:-0.047619 143:-0.374513 144:-0.928249 145:-0.047202 146:0.237894 147:0.429043 148:-0.247462 149:-0.702038 150:0.634835 151:-0.009804 152:0.401529 153:-0.98015 154:0.052403 155:-0.127637 156:0.225513 157:-0.375029 158:-0.679193 159:-0.373701 160:0.153451 161:-0.567234 162:-0.764459 163:-0.340456 164:-0.735591 165:-0.200088 166:-0.759564 167:-0.745238 168:0.128948 169:0.378378 170:-0.462196 171:-0.699721 172:-0.563547 173:-0.25563 174:-0.661883 175:-0.636846 176:-0.682708 177:0.058321 178:-0.423293 179:0.016725 180:-0.805158 181:0.145401 182:-0.864723 183:0.832215 184:-0.723785 185:-0.69973 186:0.814178 187:0.169492 188:0.187084 189:-0.698726 190:-0.214582 191:-0.102833 192:0.605461 193:-0.54829 194:-0.60044 195:0.463457 196:0.294118 197:-0.060978 198:-0.823303 199:-0.251107 200:-0.179991 201:-0.714373 202:-0.56928 203:-0.847746 204:-0.788278 205:0.040541 206:-0.520207 207:-0.940394 208:0.007823 209:-0.151134 210:0.352633 211:-0.3251 212:-0.634857 213:-0.499799 214:-0.191176 215:-0.191874 216:-0.867566 217:-0.037322 218:-0.76459 219:-0.010812 220:-0.758082 221:-0.785277 222:-0.381713 223:-0.026786 224:0.079608 225:-0.807196 226:-0.225936 227:-0.569738 228:-0.413272 229:-0.778081 230:-0.880078 231:-0.520968 232:-0.733333 233:-0.076705 234:-0.945359 235:0.797166 236:-0.574423 237:0.466625 238:-0.675752 239:-0.745999 240:0.990006 241:-0.055608 242:0.870742 243:-0.920002 244:0.110739 245:-0.313727 246:0.275748 247:-0.711139 248:-0.860758 249:0.932544 250:-0.153846 251:0.399553 252:-0.944976 253:-0.26203 254:0.221159 255:0.052245 256:-0.489769 257:-0.777309 258:0.173904 259:0.38835 260:-0.166242 261:-0.941611 262:0.100576 263:-0.626615 264:-0.187866 265:-0.666717 266:-0.794815 267:0.45939 268:-0.174699 269:0.265568 270:-0.908716 271:-0.285361 272:-0.563738 273:0.916178 274:-0.807733 275:-0.873122 276:-0.162561 277:0.07 278:0.001249 279:-0.918549 280:-0.207781 281:-0.689082 282:-0.117388 283:-0.87516 284:-0.95902 285:0.111837 286:-0.296875 287:-0.265519 288:-0.916788 289:-0.596644 290:-0.935004 291:-0.566835 292:-0.925908 293:-0.903842 294:-0.722963 295:-0.173913 296:-0.145152 297:-0.857382 298:-0.308905 299:-0.415547 300:-0.024237 301:-0.731005 302:-0.779725 303:-0.838357 304:0.191489 305:-0.123205 306:-0.892661 307:0.545769 308:0.129117 309:0.008533 310:-0.673017 311:-0.822419 312:0.679969 313:-0.341176 314:0.001787 315:-0.940941 316:0.468896 317:-0.010796 318:-0.061014 319:-0.568017 320:-0.832255 321:0.58165 322:-0.106092 323:0.417379 324:-0.981638 325:0.879077 326:0.883521 327:0.887776 328:-0.944225 329:-0.907132 330:0.999508 331:0.019889 332:0.221484 333:-0.555624 334:0.005245 335:-0.939131 336:-0.951582 337:-0.914679 338:-0.93553 339:-0.363855 340:0.34439 341:0.055238 342:-0.936748 343:0.219449 344:-0.864849 345:0.602713 346:-0.928177 347:-0.929491 348:-0.738155 349:0.19403 350:0.557406 351:-0.777846 
11.006307065707787 1:-0.421659 2:-0.410181 3:-0.398462 4:-0.475733 5:0.2198 6:0.534606 7:0.109138 8:0.796795 9:0.567615 10:-0.683248 11:0.726005 12:-0.755692 13:-0.567975 14:-0.19401 15:-0.745878 16:0.484206 17:0.537135 18:0.106177 19:0.384285 20:-0.785237 21:0.959539 22:-0.668889 23:-0.089333 24:-0.057772 25:0.5 26:-0.341027 27:0.456078 28:-0.991676 29:1.0 30:-0.676515 31:-0.575903 32:-0.423211 33:-0.511708 34:-0.030583 35:-0.029865 36:-0.268966 37:-0.297298 38:0.148488 39:0.141489 40:-0.198797 41:-0.371064 42:0.424149 43:0.167883 44:0.486409 45:-0.456835 46:-0.242955 47:0.206972 48:-0.478319 49:0.261294 50:0.314397 51:0.536036 52:-0.376462 53:0.353725 54:-0.495005 55:0.061696 56:-0.320324 57:-0.702653 58:-0.51411 59:-0.848065 60:-0.425448 61:-0.294624 62:-0.257817 63:-0.742207 64:0.15912 65:-0.915002 66:-0.488347 67:-0.079412 68:0.247431 69:-0.518709 70:0.072581 71:-0.75555 72:0.373089 73:0.928446 74:0.064448 75:0.011194 76:-0.091198 77:0.284554 78:-0.189375 79:-0.407919 80:-0.015701 81:-0.284158 82:0.04523 83:-0.17533 84:-0.475726 85:-0.906309 86:-0.837305 87:0.167079 88:0.589474 89:-0.701521 90:-0.507266 91:0.275149 92:-0.402408 93:-0.426107 94:0.257343 95:-0.019062 96:0.555474 97:-0.24937 98:0.493878 99:-0.341123 100:0.032205 101:-0.450277 102:-0.534235 103:-0.345928 104:-0.202153 105:0.030705 106:-0.747841 107:0.199557 108:-0.280408 109:0.023299 110:-0.549262 111:-0.099404 112:-0.018586 113:0.380353 114:-0.801121 115:0.051724 116:-0.417974 117:0.406502 118:0.026838 119:-0.296306 120:-0.592421 121:-0.419955 122:-0.338546 123:0.23781 124:-0.2375 125:0.380609 126:-0.700459 127:-0.309415 128:-0.707835 129:0.340912 130:-0.681974 131:-0.671328 132:-0.883126 133:-0.033266 134:-0.871174 135:-0.673617 136:0.0735 137:-0.216193 138:-0.197008 139:-0.499107 140:-0.666287 141:0.018752 142:0.345238 143:-0.045957 144:-0.766168 145:-0.181167 146:-0.57732 147:0.341097 148:-0.53538 149:-0.690844 150:0.632367 151:-0.352941 152:0.386828 153:-0.907002 154:-0.172166 155:-0.105369 156:0.117179 157:-0.366014 158:-0.48856 159:-0.176706 160:0.679104 161:0.00898 162:-0.689246 163:0.269479 164:-0.82919 165:0.089402 166:-0.807401 167:-0.798709 168:0.150912 169:0.20946 170:-0.27141 171:-0.847219 172:0.294538 173:-0.564555 174:-0.687537 175:-0.605788 176:-0.778106 177:0.057971 178:1.0 179:0.015417 180:-0.875224 181:0.588522 182:-0.059512 183:0.822995 184:-0.292214 185:-0.582722 186:0.906039 187:-0.004237 188:0.588032 189:-0.859649 190:-0.076979 191:-0.868592 192:0.750791 193:-1.0 194:-0.94696 195:0.471302 196:0.009288 197:0.026169 198:-0.861461 199:-0.657209 200:-0.483817 201:-0.64156 202:-0.222269 203:-0.580602 204:-0.758376 205:0.081081 206:-0.447264 207:-0.840446 208:-0.078199 209:-0.601039 210:0.36238 211:-0.594905 212:-0.748266 213:-0.512025 214:0.176471 215:-0.278692 216:-0.800869 217:-0.023315 218:-0.255691 219:-0.117927 220:-0.144808 221:-0.288287 222:-0.460873 223:-0.017857 224:-0.065796 225:-0.565216 226:-0.059821 227:-0.488132 228:-0.443992 229:-0.534804 230:-0.655482 231:-0.533835 232:0.155556 233:-0.239829 234:-0.853689 235:0.700677 236:-0.76157 237:0.586139 238:-0.724586 239:-0.721204 240:0.989193 241:0.140434 242:0.859686 243:-0.742055 244:0.673263 245:-0.275717 246:0.271536 247:-0.625149 248:-0.738222 249:0.933787 250:0.054945 251:0.405393 252:-0.906105 253:-0.360355 254:-0.084423 255:0.057626 256:-0.75186 257:-0.927728 258:0.169302 259:0.101942 260:-0.215777 261:-0.95939 262:0.144272 263:-0.416808 264:-0.199774 265:-0.701203 266:-0.691153 267:0.44159 268:-0.325301 269:-0.039286 270:-0.793682 271:-0.104817 272:-0.626163 273:0.906947 274:-0.861423 275:-0.955059 276:-0.162805 277:0.2 278:-0.005275 279:-0.951376 280:0.152434 281:-0.424177 282:-0.104089 283:-0.819014 284:-0.872256 285:0.116506 286:0.28125 287:-0.003237 288:-0.888096 289:-0.314428 290:0.342895 291:-0.45437 292:-0.628567 293:-0.714854 294:-0.717581 295:0.021739 296:-0.067427 297:-0.874823 298:-0.344188 299:-0.951731 300:0.199613 301:-0.995647 302:-0.973356 303:-0.838173 304:0.853723 305:-0.196499 306:-0.942551 307:0.402211 308:-0.009619 309:0.027878 310:-0.60462 311:-0.753954 312:0.678124 313:-0.670588 314:-0.019522 315:-0.933036 316:0.169231 317:-0.395229 318:0.022555 319:-0.705223 320:-0.871127 321:0.580838 322:0.645171 323:0.406226 324:-0.970147 325:0.821066 326:0.825501 327:0.829741 328:-0.671195 329:-0.239876 330:0.941605 331:0.206396 332:-0.857658 333:0.893845 334:-0.028384 335:-0.843228 336:1.0 337:-0.36409 338:-0.33569 339:-0.427875 340:-0.045854 341:-0.270093 342:-0.285692 343:0.357738 344:-0.752182 345:-0.313087 346:-0.361161 347:-0.233956 348:-0.693979 349:0.343284 350:0.520316 351:-0.241081 
128.0 1:-0.064669 2:-0.057645 3:-0.050401 4:-0.288305 5:0.053266 6:0.449519 7:-0.192534 8:0.135154 9:-0.612723 10:-0.173717 11:0.224657 12:-0.244781 13:-0.024923 14:0.348659 15:-0.345102 16:0.193462 17:0.53245 18:-0.129356 19:-0.019751 20:-0.041751 21:0.957122 22:-0.111823 23:-0.121157 24:0.521535 25:-1.0 26:0.838634 27:-0.130212 28:-0.125162 29:-0.435948 30:-0.61276 31:-0.082976 32:-0.443667 33:-0.707484 34:-0.358338 35:-0.461981 36:-0.896495 37:0.080367 38:0.357443 39:-0.009773 40:0.459878 41:-0.195085 42:0.603411 43:-0.036496 44:0.456213 45:-0.845749 46:-0.303427 47:-0.05069 48:-0.491462 49:-0.582494 50:-0.437111 51:0.304564 52:-0.673778 53:-0.133307 54:-0.295926 55:0.354644 56:-0.308942 57:-0.678296 58:-0.083226 59:-0.111822 60:-0.388246 61:0.531183 62:-0.173659 63:-0.225196 64:-0.665558 65:0.473417 66:-0.534274 67:0.160737 68:-0.264618 69:-0.265464 70:-0.0 71:-0.302585 72:-0.5988 73:-0.433656 74:-0.579138 75:-0.051052 76:-0.616024 77:-0.116536 78:-0.174127 79:-0.203883 80:0.012144 81:-0.158222 82:0.985111 83:-0.327645 84:-0.76746 85:-0.229456 86:0.069102 87:0.370674 88:0.073684 89:0.115866 90:-0.183096 91:0.5138 92:0.261872 93:-0.422062 94:0.619615 95:-0.377726 96:0.122015 97:0.425693 98:0.018737 99:-0.944329 100:-0.203941 101:0.463471 102:-0.493434 103:0.627815 104:0.976159 105:-0.246582 106:-0.146805 107:-0.24571 108:-0.207276 109:-0.226577 110:-0.256073 111:0.068285 112:-0.002566 113:-0.259804 114:-0.584474 115:-0.284483 116:0.155815 117:-0.799768 118:-0.02377 119:0.150561 120:-0.4856 121:0.582863 122:0.796535 123:-0.576736 124:-0.516667 125:-0.025028 126:-0.617795 127:0.226059 128:-0.292159 129:0.320488 130:-0.791023 131:-0.787752 132:-0.883026 133:0.0 134:-0.942981 135:-0.792418 136:0.412958 137:0.052439 138:-0.162282 139:-0.153065 140:-0.42898 141:0.050584 142:0.619048 143:-0.070892 144:-0.790037 145:1.0 146:0.147115 147:0.214099 148:-0.202517 149:-0.56578 150:0.663169 151:-0.607843 152:0.492131 153:-0.930251 154:-0.20868 155:-0.257463 156:0.316507 157:-0.630172 158:-0.86413 159:-0.180027 160:0.257463 161:0.02264 162:-0.95824 163:-0.360263 164:-0.64469 165:-0.14987 166:-0.469802 167:-0.594895 168:0.23254 169:0.716216 170:0.090243 171:-0.624484 172:0.079875 173:-0.591385 174:-0.688085 175:-0.213094 176:-0.517178 177:0.012306 178:-0.022992 179:-0.134753 180:-0.827399 181:0.180958 182:-0.78983 183:0.82799 184:-0.737825 185:-0.812289 186:0.853924 187:-0.016949 188:0.50796 189:-0.816422 190:-0.047898 191:-0.690288 192:0.654203 193:-0.555832 194:-0.687191 195:0.443071 196:0.032508 197:-0.18583 198:-0.785532 199:-0.345367 200:-0.1427 201:-0.53519 202:-0.487483 203:-0.671898 204:-0.785855 205:0.540541 206:-0.512888 207:-0.796553 208:-0.184003 209:0.511832 210:0.388269 211:0.18582 212:-0.4739 213:-0.39283 214:-0.117647 215:0.009353 216:-0.90211 217:-0.019477 218:0.325845 219:-0.998904 220:-0.252433 221:-0.642341 222:-0.391994 223:0.035714 224:0.167057 225:-0.998911 226:-0.270907 227:0.206143 228:-0.418915 229:0.424523 230:-0.072757 231:-0.591784 232:0.155556 233:-0.216449 234:-0.876921 235:0.753396 236:-0.379652 237:0.7613 238:-0.812095 239:-0.841197 240:0.986742 241:0.517436 242:0.735208 243:-0.929818 244:0.136021 245:-0.249547 246:0.282158 247:-0.631691 248:-0.733698 249:0.925961 250:0.516484 251:0.31552 252:-0.912081 253:-0.553668 254:0.146888 255:0.280268 256:-0.506842 257:-0.652189 258:0.176169 259:0.106796 260:-0.148003 261:-0.812865 262:0.249783 263:0.015475 264:-0.155357 265:-0.666734 266:-0.859004 267:0.451571 268:0.036145 269:0.140238 270:-0.987654 271:-0.19428 272:-0.389846 273:0.939263 274:-0.646463 275:-0.709228 276:-0.162514 277:-0.36 278:-0.012903 279:-0.843249 280:-0.106832 281:0.293298 282:-0.13415 283:-0.544832 284:-0.809636 285:0.113139 286:0.3125 287:-0.112344 288:-0.958823 289:-0.287857 290:-0.238722 291:-0.406371 292:-0.789226 293:-0.812706 294:-0.727523 295:0.086957 296:-0.292423 297:-0.870252 298:-0.262854 299:-0.134402 300:0.221624 301:-0.783515 302:-0.832229 303:-0.833751 304:-0.489362 305:-0.022839 306:-0.959359 307:0.597278 308:-0.354929 309:0.041522 310:-0.635291 311:-0.789569 312:0.684304 313:-0.623529 314:0.093724 315:-0.947958 316:0.645405 317:0.088083 318:0.022626 319:-0.412029 320:-0.720351 321:0.586132 322:0.849629 323:0.457789 324:-0.981295 325:0.636985 326:0.645324 327:0.653313 328:-0.479235 329:-0.22688 330:0.881856 331:0.136401 332:-0.084315 333:-0.384158 334:0.00947 335:-0.460854 336:-0.949867 337:0.086957 338:-0.237021 339:-0.33508 340:-0.022439 341:0.076951 342:-0.810098 343:0.180383 344:-0.379476 345:0.598802 346:0.164101 347:-0.157703 348:-0.463249 349:0.11194 350:0.608832 351:-0.6745 
12.002221654890509 1:-0.102388 2:-0.095722 3:-0.088795 4:-0.25597 5:0.267542 6:0.560209 7:-0.580129 8:0.253822 9:-0.445316 10:-0.506625 11:0.562919 12:-0.60475 13:-0.376009 14:-0.021541 15:-0.73463 16:0.069936 17:0.284674 18:-0.220523 19:-0.135859 20:0.546699 21:0.945666 22:-0.02545 23:-0.151891 24:0.277389 25:0.814815 26:0.411757 27:-0.659682 28:-0.655603 29:0.027643 30:-1.0 31:-0.421358 32:-0.608701 33:-0.733113 34:0.48644 35:-0.614154 36:-0.804972 37:-0.11629 38:-0.748909 39:0.054132 40:-0.106599 41:0.431939 42:-5.2E-4 43:-0.941606 44:-0.139737 45:0.328993 46:0.20166 47:-0.159505 48:-0.325311 49:0.090369 50:-0.07814 51:0.112627 52:-0.128699 53:-0.290236 54:-0.27373 55:-0.099696 56:-0.00838 57:-0.681662 58:-0.358679 59:-0.517606 60:-0.467851 61:-0.554839 62:-0.303285 63:-0.503085 64:-0.230113 65:-0.042379 66:-0.491348 67:-0.135228 68:-0.524287 69:-0.280847 70:-0.193548 71:-0.388474 72:-0.755433 73:0.282283 74:-0.707523 75:-0.169794 76:-0.570882 77:-0.357474 78:0.005145 79:0.553398 80:0.428181 81:-0.25046 82:0.362923 83:-0.097332 84:-0.736277 85:-0.425631 86:-0.620604 87:0.164273 88:-0.726316 89:-0.399013 90:-0.719896 91:-0.066373 92:-0.220046 93:-0.452617 94:-0.081662 95:-0.529964 96:0.104682 97:-0.178841 98:0.042452 99:-0.890064 100:0.025295 101:-0.387259 102:-0.673919 103:-0.184437 104:-0.063985 105:-0.520079 106:-0.512953 107:-0.884682 108:0.05013 109:0.00522 110:-0.034075 111:0.061927 112:0.190189 113:0.156456 114:-0.853867 115:0.017241 116:-0.403363 117:-0.327672 118:0.142421 119:-0.255379 120:-0.499388 121:-0.205985 122:-0.096902 123:0.200063 124:-0.1 125:0.289126 126:-0.677868 127:-0.195019 128:-0.302015 129:0.339518 130:-0.518497 131:-0.744197 132:-0.864502 133:0.145161 134:-0.616826 135:-0.918568 136:0.166111 137:0.016079 138:-0.201746 139:-0.28514 140:-0.610371 141:-0.086639 142:0.142857 143:-0.321382 144:-0.876236 145:-0.208188 146:-0.303739 147:0.369344 148:-0.389843 149:-0.540658 150:0.632269 151:0.019608 152:0.390069 153:-0.904767 154:0.559328 155:-0.093798 156:0.034688 157:-0.276011 158:-0.486706 159:-0.266069 160:0.567164 161:-0.228504 162:-0.640561 163:0.240964 164:-0.550458 165:0.429898 166:-0.69688 167:-0.873852 168:0.175267 169:0.243243 170:-0.092664 171:-0.965479 172:0.162278 173:-0.006214 174:-0.748477 175:-0.49476 176:-0.787908 177:0.099794 178:0.406961 179:0.287862 180:-0.875794 181:0.273998 182:-0.768892 183:0.817364 184:-0.845362 185:-0.75996 186:0.896021 187:0.644068 188:1.0 189:-0.400307 190:0.034297 191:-0.777576 192:0.542203 193:-0.790151 194:-0.892397 195:0.459477 196:-0.386997 197:-0.124125 198:-0.922605 199:0.238845 200:-0.424368 201:-0.661773 202:-0.28971 203:-0.729656 204:-0.760789 205:-0.513514 206:-0.442781 207:-0.919598 208:0.189837 209:-0.269968 210:0.424382 211:-0.592819 212:-0.731937 213:-0.437951 214:-0.441176 215:0.202603 216:-0.722597 217:-0.150923 218:-0.042707 219:0.318928 220:-0.143675 221:-0.292413 222:-0.408836 223:0.214286 224:0.124374 225:-0.724207 226:-0.310679 227:-0.292796 228:-0.425907 229:-0.462866 230:-0.626928 231:-0.53498 232:0.066667 233:-0.22609 234:-0.886037 235:0.781148 236:-0.453091 237:0.953936 238:-0.650983 239:-0.7457 240:0.984252 241:-0.055608 242:0.667939 243:-0.895766 244:0.80542 245:0.172918 246:0.228431 247:-0.567726 248:-0.794209 249:0.9359 250:0.340659 251:0.419647 252:-0.971644 253:-0.336255 254:-0.227287 255:0.058145 256:-0.712686 257:-0.839492 258:0.17898 259:0.514563 260:-0.083113 261:-0.874667 262:0.121768 263:-0.222509 264:-0.130763 265:-0.649932 266:-0.809371 267:0.448919 268:0.084337 269:0.100298 270:-0.933882 271:-0.271121 272:-0.732855 273:0.909863 274:-0.822686 275:-0.943058 276:-0.165645 277:-0.68 278:-0.1623 279:-0.928886 280:-0.195675 281:-0.406118 282:-0.134478 283:-0.808713 284:-0.90243 285:0.115381 286:-0.0 287:-0.057501 288:-0.947205 289:-0.466035 290:-1.0 291:-0.548684 292:-0.948365 293:-0.813824 294:-0.726628 295:-0.152174 296:-0.388594 297:-0.634649 298:-0.211539 299:-0.710508 300:0.143548 301:-0.896916 302:-0.896559 303:-0.839268 304:0.414894 305:-0.195139 306:-0.904663 307:0.402393 308:-0.126203 309:0.048655 310:-0.671112 311:-0.795199 312:0.681701 313:-0.082353 314:0.041619 315:-0.918208 316:0.035026 317:-0.4466 318:0.019533 319:-0.853783 320:-0.856873 321:0.579024 322:0.3789 323:0.32454 324:-0.888438 325:0.762457 326:0.769361 327:0.775983 328:-0.689832 329:-0.380805 330:0.964471 331:0.145345 332:-0.315192 333:0.026356 334:-0.018899 335:-0.686458 336:-0.950282 337:-0.518683 338:-0.545396 339:-0.386673 340:0.125854 341:-0.180274 342:-0.551443 343:0.317591 344:-0.635821 345:0.60289 346:-0.588876 347:-0.503094 348:-0.71038 349:0.044776 350:0.79134 351:-0.046375 
49.446964536126465 1:-0.278463 2:-0.270607 3:-0.262513 4:-0.283572 5:0.056665 6:0.479927 7:-0.563988 8:0.176849 9:-0.621495 10:-0.689127 11:0.749813 12:-0.797111 13:-0.736741 14:-0.499364 15:-0.917162 16:0.111111 17:-0.17823 18:-0.618527 19:0.528776 20:-0.649262 21:0.951975 22:-1.0 23:-1.0 24:0.091762 25:-0.611111 26:0.121861 27:-0.772182 28:-0.262182 29:-0.397308 30:-0.518217 31:-0.505412 32:-0.397739 33:-0.622524 34:0.024812 35:-0.351145 36:-0.308012 37:0.366421 38:-0.268862 39:-0.070381 40:-0.103403 41:0.021435 42:0.193931 43:-0.255474 44:0.130591 45:-0.202367 46:0.488646 47:0.005993 48:-0.488951 49:0.500249 50:0.142242 51:0.274316 52:0.119924 53:0.025673 54:-0.615734 55:0.080257 56:-0.56012 57:-0.681589 58:0.408971 59:0.165226 60:-0.666513 61:0.35914 62:-0.379001 63:-0.076288 64:-1.0 65:0.133468 66:1.0 67:0.21489 68:-0.248069 69:0.041577 70:0.16129 71:0.066633 72:-0.546174 73:-0.366144 74:-0.112284 75:-0.056323 76:-0.007366 77:-0.14053 78:-0.002575 79:0.339806 80:0.242293 81:-0.774515 82:0.534063 83:-0.241686 84:-0.764027 85:-0.180553 86:-0.180013 87:0.530782 88:-0.083553 89:0.435387 90:-0.470309 91:0.484879 92:-1.0 93:-0.433717 94:-0.576947 95:-0.51643 96:0.273458 97:-0.763224 98:0.445503 99:-0.038544 100:0.103452 101:0.255568 102:-0.525365 103:0.41676 104:-0.021032 105:0.154427 106:-0.471503 107:0.161535 108:-0.736242 109:0.042052 110:-0.215941 111:-0.068545 112:0.413075 113:0.090609 114:-0.608585 115:-0.103448 116:-0.003833 117:-0.748101 118:-0.053414 119:-0.283983 120:-1.0 121:-0.488361 122:-0.432328 123:0.210914 124:-0.4 125:0.294293 126:-0.816743 127:-0.137004 128:-1.0 129:0.33923 130:-1.0 131:-0.955206 132:-0.875695 133:0.16129 134:-0.905535 135:-0.826391 136:-0.040254 137:-0.113515 138:-0.224149 139:-0.052202 140:-0.522676 141:0.109206 142:0.380952 143:-0.001682 144:-0.805556 145:0.082868 146:-0.387461 147:0.349669 148:-0.097995 149:-0.550387 150:0.589209 151:0.098039 152:0.275555 153:-0.917606 154:0.319672 155:1.0 156:-0.249818 157:-0.045469 158:-0.614892 159:-0.347609 160:0.283582 161:-0.346471 162:-0.886964 163:0.43893 164:-0.039576 165:-0.245337 166:-0.283555 167:-0.64021 168:0.071264 169:0.45946 170:-0.525069 171:-0.912368 172:0.341551 173:-0.26138 174:-0.686227 175:-0.270248 176:-0.737291 177:0.049601 178:0.22905 179:-0.006168 180:-0.962562 181:-0.135833 182:0.536699 183:0.735915 184:-0.351069 185:-0.712374 186:0.838741 187:0.033898 188:0.356263 189:-0.941569 190:-0.475652 191:-0.557086 192:0.687311 193:-0.730091 194:-0.848466 195:0.474541 196:-0.130031 197:0.024914 198:-0.909076 199:-0.480891 200:-0.921749 201:-0.638024 202:-0.854765 203:-0.91491 204:-0.799412 205:-0.243243 206:-0.616037 207:-0.872494 208:0.056541 209:-0.160631 210:0.388951 211:-0.229311 212:-0.260198 213:-0.581026 214:-0.823529 215:-0.463124 216:-0.376952 217:-0.294317 218:-0.12517 219:-0.021227 220:0.06159 221:-0.405751 222:-0.456606 223:-0.071429 224:0.056341 225:-0.889336 226:-0.350094 227:-0.335982 228:-0.443381 229:-0.541458 230:-0.728666 231:-0.521423 232:0.511111 233:-0.098944 234:-0.970223 235:0.731434 236:-0.927074 237:0.871018 238:-1.0 239:-1.0 240:0.98646 241:0.215834 242:0.585913 243:-0.948584 244:0.295246 245:0.154028 246:0.186109 247:-0.638336 248:-0.754139 249:0.935911 250:0.164835 251:0.432104 252:-0.926054 253:-0.103411 254:0.451948 255:-0.015903 256:-0.553825 257:-0.822456 258:0.179925 259:0.650485 260:-0.110875 261:-0.936793 262:0.197842 263:-0.094075 264:-0.201903 265:-0.627644 266:-0.823673 267:0.446063 268:0.036145 269:0.062839 270:-0.964454 271:-0.090719 272:-0.156808 273:0.93908 274:-0.649544 275:-0.866814 276:-0.163745 277:-0.32 278:-0.044377 279:-0.971614 280:0.047392 281:0.021674 282:-0.117279 283:-0.656414 284:-0.892598 285:0.113 286:-0.21875 287:-0.127815 288:-0.975081 289:-0.602411 290:0.0864 291:-0.587763 292:-0.755612 293:-0.840763 294:-0.721955 295:0.76087 296:-0.12656 297:-0.903687 298:-0.340233 299:-0.234126 300:0.177615 301:-0.824853 302:-0.823464 303:-0.834826 304:0.191489 305:-0.040755 306:-0.930746 307:0.246393 308:-0.639895 309:0.041177 310:-0.852326 311:-0.919348 312:0.682612 313:0.219118 314:0.082784 315:-0.964383 316:0.153489 317:-0.195848 318:0.018243 319:-0.536014 320:-0.547498 321:0.579518 322:-0.296285 323:0.384174 324:-0.793783 325:0.808972 326:0.813926 327:0.818688 328:-0.673498 329:-0.430914 330:0.965651 331:0.136556 332:-0.110471 333:-0.289687 334:-0.019107 335:-0.774486 336:-0.967084 337:-0.378478 338:-0.527561 339:-0.379701 340:9.76E-4 341:-0.039156 342:-0.789735 343:0.360465 344:-0.671741 345:0.597155 346:-0.412249 347:-0.520836 348:-0.701691 349:-0.074627 350:0.526793 351:-0.695694 
99.45476747594506 1:0.388926 2:0.383398 3:0.378157 4:0.224132 5:0.129591 6:0.431691 7:-0.014188 8:-0.252884 9:-0.979731 10:-0.361455 11:0.473279 12:-0.562422 13:-0.609179 14:-0.509174 15:-0.906839 16:0.373566 17:-0.136892 18:-0.819287 19:1.0 20:-0.678804 21:0.958677 22:0.10729 23:-0.145742 24:-0.12671 25:-0.208333 26:-0.155275 27:-0.519808 28:0.15526 29:-0.205603 30:-0.618557 31:0.095596 32:-0.061781 33:-0.195759 34:0.352568 35:0.283514 36:-0.449092 37:0.517195 38:-0.602435 39:-0.013542 40:-0.484919 41:-0.123843 42:-0.016362 43:-0.240876 44:-0.252502 45:-0.046332 46:0.092894 47:0.089262 48:-0.473152 49:0.10355 50:-0.187947 51:0.312161 52:0.196146 53:0.026961 54:-0.567552 55:-0.184481 56:-0.336101 57:-0.678574 58:-0.089119 59:0.040196 60:-0.597841 61:-0.063441 62:-0.418647 63:-0.001024 64:0.268323 65:-0.952982 66:-0.490344 67:-0.141587 68:0.110087 69:0.345099 70:-0.225806 71:0.688225 72:0.735317 73:-0.559441 74:0.113431 75:-0.141582 76:-0.276647 77:-0.506002 78:0.19536 79:-0.747573 80:0.654007 81:-0.384465 82:-0.777026 83:0.594313 84:-0.716172 85:-0.356871 86:-0.345014 87:0.326391 88:0.305263 89:0.021729 90:-0.577906 91:0.29005 92:-0.804389 93:-0.47437 94:-0.509044 95:-0.260482 96:0.193768 97:0.143577 98:0.258824 99:-0.001256 100:-0.861864 101:0.260286 102:-0.525917 103:0.47925 104:0.056699 105:0.018789 106:-0.720207 107:0.008826 108:-1.0 109:0.33714 110:0.207996 111:-0.034712 112:0.492275 113:0.391109 114:-0.639058 115:-0.0 116:-0.046931 117:-0.655339 118:-0.014956 119:-0.125781 120:-0.545762 121:-0.480012 122:-0.699082 123:0.155547 125:0.096497 126:-0.99527 127:-0.262404 128:-0.179832 129:0.337768 130:-0.208299 131:-0.513283 132:-0.853543 133:0.0 134:-0.591006 135:-0.844163 136:0.918019 137:0.187306 138:-0.142089 139:0.097253 140:-0.329184 141:-0.097404 142:-0.095238 143:-0.315269 144:-0.76076 145:0.017252 146:-0.240556 147:0.343957 148:-0.675747 149:-0.848424 150:0.640194 151:0.117647 152:0.433854 153:-0.983032 154:-0.706946 155:-0.362064 156:0.36578 157:-0.281078 158:-0.568431 159:-0.129172 160:0.61194 161:0.126048 162:-0.641452 163:-0.265735 164:-0.394107 165:-0.268188 166:-0.518621 167:-0.679548 168:0.238889 169:0.513514 170:0.160995 171:-0.685027 172:0.520953 173:-0.498902 174:-0.6799 175:-0.721477 176:-0.805487 177:0.046701 178:0.110442 179:-0.119554 180:-0.793738 181:0.525207 182:-0.142522 183:0.744864 184:-0.537819 185:-0.696964 186:0.830577 187:0.050847 188:0.321966 189:-0.840997 190:-0.011926 191:-0.312641 192:0.587127 193:-0.62876 194:-0.680079 195:0.463179 196:-0.337461 197:-0.068399 198:-0.831176 199:-0.336784 200:-0.408505 201:-0.619991 202:-0.627889 203:-0.816493 204:-0.818632 205:-0.135135 206:-0.706266 207:-0.913256 208:-0.783609 209:-0.041795 210:0.388739 211:-0.078967 212:-0.482195 213:-0.524356 214:-0.823529 215:-0.253529 216:-0.78523 217:-0.087995 218:0.821018 219:0.316742 220:0.20235 221:-0.215292 222:-0.506151 223:0.428571 224:0.012608 225:-0.82422 226:-0.085764 227:-0.350629 228:-0.454011 229:-0.525982 230:-0.752974 231:-0.524598 232:0.688889 233:-0.13442 234:-0.97385 235:0.639748 236:-0.056393 237:0.61142 238:-0.52468 239:-0.734485 240:0.986273 241:-0.719133 242:0.7467 243:-0.958298 244:0.167066 245:-0.179116 246:0.370135 247:-0.501409 248:-0.618446 249:0.945168 250:0.120879 251:0.486388 252:-0.843107 253:-0.57323 254:-0.169498 255:0.065002 256:-0.874067 257:-0.968313 258:0.175119 259:0.631068 260:-0.100571 261:-0.964761 262:0.151386 263:0.045595 264:-0.441685 265:-0.773103 266:-0.924583 267:0.453081 268:-0.39759 269:0.171284 270:-0.985934 271:-0.082625 272:-0.17009 273:0.755266 274:-0.708373 275:-0.883152 276:-0.160849 277:-0.44 278:0.045737 279:-0.966744 280:-0.125442 281:-0.804859 282:-0.123954 283:-0.949397 284:-0.955875 285:0.114701 286:-0.46875 287:-0.088874 288:-0.92966 289:-0.235823 290:0.327162 291:-0.385817 292:-0.731084 293:-0.781961 294:-0.718452 295:0.652174 296:-0.04521 297:-0.883783 298:-0.426722 299:-0.557131 300:0.235287 301:-0.808689 302:-0.805998 303:-0.832775 304:-0.404255 305:0.009764 306:-0.874065 307:0.472568 308:-0.340072 309:0.037348 310:-0.76963 311:-0.893964 312:0.680187 313:-0.576471 314:-0.015337 315:-0.979109 316:0.532079 317:-0.098832 318:0.01883 319:-0.608693 320:-0.785648 321:0.580118 322:-0.125111 323:0.391153 324:-0.957107 325:0.510182 326:0.522894 327:0.535133 328:-0.455453 329:-0.115139 330:0.924506 331:0.15729 332:0.390354 333:-0.691111 334:-0.095985 335:-0.567974 336:-0.93575 337:-0.410413 338:-0.53754 339:-0.345864 340:-0.373659 341:0.149588 342:-0.826976 343:0.445249 344:-0.474698 345:0.589563 346:-0.553369 347:-0.639091 348:-0.718369 349:-0.402985 350:0.550604 351:-0.67131 
128.0 1:-0.813372 2:-0.796392 3:-0.779314 4:-0.819485 5:-0.409692 6:0.1686 7:-0.596736 8:0.292458 9:0.036532 10:-0.774226 11:0.832093 12:-0.875594 13:-0.941362 14:-0.48798 15:-0.9437 16:0.186547 17:-0.538411 18:0.24098 19:0.338408 20:-0.307483 21:0.958269 22:-0.616168 23:-0.796689 24:0.209731 25:-0.055556 26:0.473633 27:-0.802601 28:-0.558947 29:-0.362735 30:-0.613814 31:-0.534388 32:-0.726348 33:-0.602084 34:0.117138 35:-0.296612 36:-0.959416 37:-1.0 38:0.349988 39:-0.569901 40:-0.183982 41:-0.47393 42:0.113388 43:-0.29927 44:0.016649 45:-0.846909 46:-0.382753 47:0.162659 48:-0.495 49:0.035819 50:0.200688 51:0.207018 52:-0.629732 53:-0.156216 54:-0.154057 55:0.293634 56:-0.218191 57:-0.594775 58:0.339676 59:-0.007441 60:-0.441509 61:0.083871 62:-0.205451 63:-0.424809 64:0.054842 65:0.5574 66:-0.473877 67:0.509333 68:0.020319 69:-0.015998 70:-0.322581 71:-0.036476 72:-0.725443 73:0.602033 74:0.013799 75:-0.074051 76:0.20564 77:0.342576 78:-0.478964 79:-0.009709 80:-0.346461 81:-0.555154 82:-0.810009 83:0.076169 84:-0.753624 85:-0.768817 86:-0.575015 87:0.287064 88:-1.0 89:-0.12932 90:-0.377484 91:0.102799 92:-0.020601 93:-0.453303 94:0.159326 95:0.048404 96:0.491629 97:-0.86398 98:0.46325 99:-0.348416 100:0.495567 101:0.179708 102:-0.5458 103:0.287934 104:0.085284 105:0.198131 106:-0.236615 107:0.24819 108:-0.669829 109:-0.665215 110:-0.509213 111:-0.06632 112:-0.345242 113:-0.344982 114:-0.77979 115:0.181034 116:-0.673776 117:-0.200752 118:-0.217955 119:-0.874093 120:-0.523809 121:-0.819532 122:-0.739948 123:0.246095 124:0.4 125:0.644754 126:-0.635284 127:-0.355768 128:-0.443361 129:0.31546 130:-0.787016 131:-0.935468 132:-0.874413 133:0.129032 134:-0.758226 135:-0.944762 136:-0.196256 137:-0.458604 138:-0.262171 139:-0.400535 140:-0.549832 141:-0.052755 142:-0.107143 143:-0.248169 144:-0.78362 145:0.226924 146:0.175423 147:0.405112 148:-0.311786 149:-0.658728 150:0.598042 151:0.647059 152:0.264354 153:-0.931399 154:0.562523 155:0.204507 156:1.0 157:-0.164662 158:-0.64494 159:-0.18588 160:0.343284 161:-0.025577 162:-0.883822 163:0.157573 164:-0.373411 165:-0.008088 166:-0.401946 167:-0.651479 168:0.153997 169:0.351351 170:-0.263359 171:-0.949234 172:-0.085563 173:-0.068462 174:-0.731441 175:0.156821 176:-0.124661 177:-0.035272 178:-0.458505 179:-0.145434 180:-0.678517 181:0.398414 182:1.0 183:0.864784 184:-0.306022 185:-0.747564 186:0.860189 187:0.40678 188:0.430821 189:-0.981297 190:-0.251747 191:-0.278413 192:0.661024 193:-0.649865 194:-0.796911 195:0.449395 196:-0.089783 197:-0.173536 198:-0.91144 199:-1.0 200:-0.31946 201:-0.727805 202:-0.459423 203:-0.653228 204:-0.80505 205:-0.232264 206:-0.599009 207:-0.783875 208:-0.267781 209:0.51887 210:0.383284 211:0.237481 212:-0.541813 213:-0.372663 214:-1.0 215:0.031288 216:-0.933903 217:0.265595 218:-0.342996 219:-0.080509 220:-0.568067 221:-0.723254 222:-0.375235 223:-0.571429 224:0.244313 225:-0.920092 226:-0.254303 227:-0.763676 228:-0.446979 229:-0.787524 230:-0.804932 231:-0.521674 232:-0.377778 233:-0.09428 234:-0.893685 235:0.713147 236:-0.754489 237:0.69882 238:-0.840295 239:-0.848372 240:0.987459 241:-0.251649 242:0.791458 243:-0.893288 244:0.604998 245:-0.379761 246:0.272417 247:-0.831985 248:-0.914556 249:0.919827 250:0.10989 251:0.141136 252:-0.894124 253:-0.231285 254:0.006235 255:0.051407 256:-0.624647 257:-0.809559 258:0.168947 259:0.436893 260:-0.21011 261:-0.931388 262:0.257367 263:-0.071197 264:-0.270572 265:-0.662174 266:-0.861119 267:0.451399 268:-0.343374 269:0.137631 270:-0.969382 271:-0.484191 272:0.316899 273:0.9063 274:-0.555943 275:-0.795138 276:-0.164037 277:-1.0 278:-0.04566 279:-0.987869 280:0.003081 281:-0.342687 282:-0.126717 283:-0.528724 284:-0.73244 285:0.118288 286:0.640625 287:-0.032711 288:-0.875824 289:-0.464354 290:-0.366504 291:-0.54451 292:-0.580649 293:-0.772621 294:-0.719595 295:0.173913 296:-0.109567 297:-0.936133 298:-0.061484 299:-0.736948 300:0.244409 301:-0.877103 302:-0.851842 303:-0.840928 304:0.191489 305:-0.24424 306:-0.842809 307:0.557628 308:-0.35689 309:0.040484 310:-0.660141 311:-0.799558 312:0.681746 313:-0.435294 314:0.042883 315:-0.932002 316:-0.028973 317:0.349282 318:0.022528 319:-0.276101 320:-0.585736 321:0.587249 322:0.293314 323:0.449218 324:-0.963788 325:0.965168 326:0.966434 327:0.967645 328:-0.971828 329:-0.925001 330:0.999919 331:0.362667 332:0.672335 333:-0.619993 334:0.082903 335:-0.903232 336:-0.944555 337:-0.935552 338:-0.929222 339:-0.363213 340:0.469268 341:0.299295 342:-0.668689 343:-0.009167 344:-0.892374 345:0.609126 346:-0.879259 347:-0.840158 348:-0.743297 349:0.014925 350:-0.725381 351:0.399219 
128.0 1:-0.947422 2:-0.929149 3:-0.910796 4:-0.908998 5:-0.663013 6:0.117173 7:-1.0 8:-0.251252 9:-0.551132 10:-0.841561 11:0.877282 12:-0.904514 13:-0.789189 14:-0.672947 15:-0.923887 16:0.279585 17:-0.229293 18:-0.702411 19:-0.331517 20:0.683966 21:0.956878 22:-0.302586 23:-0.252893 24:0.344677 25:0.215278 26:0.641605 27:-0.216689 28:-0.990972 29:0.724466 30:-0.608253 31:-0.515246 32:-0.234318 33:-0.65688 34:0.380265 35:-0.446593 36:-0.109449 37:0.51264 38:-0.542385 39:-0.049367 40:-0.269664 41:-0.36489 42:-0.053618 43:-0.226277 44:-0.255858 45:-0.387293 46:0.024981 47:-0.021666 48:-0.492625 49:-0.297285 50:-0.401951 51:0.542156 52:0.097041 53:0.472721 54:-0.569807 55:0.31457 56:-0.546979 57:-0.691768 58:-5.78E-4 59:-0.342027 60:-0.458854 61:-0.019355 62:-0.247364 63:-0.492905 64:-0.281439 65:0.093408 66:-0.494408 67:-0.125882 68:0.04604 69:0.02978 70:-0.66129 71:0.139793 72:-0.060982 73:-0.105748 74:0.706611 75:-0.538165 76:0.065595 77:-0.126706 78:-0.203893 79:-0.356796 80:-0.032678 81:-0.916531 82:-0.05672 83:0.185923 84:-0.725395 85:0.373587 86:0.643052 87:0.634387 88:0.290789 89:0.401472 90:0.255605 91:-0.822794 92:0.67047 93:-0.451655 94:0.4875 95:-0.322052 96:0.54188 97:0.123426 98:0.398716 99:-0.812236 100:-0.270532 101:-0.663001 102:-0.528676 103:-0.172213 104:0.195287 105:-0.250816 106:0.136442 107:-0.376687 108:0.27299 109:-0.026271 110:-0.723171 111:-0.146572 112:-0.766232 113:-0.813138 114:-0.674037 115:0.086207 116:0.033231 117:-0.835613 118:0.193969 119:-0.657496 120:-0.496404 121:-0.830755 122:-0.746333 123:0.192864 124:0.466667 125:0.009199 126:-0.753235 127:-0.133175 128:-0.539497 129:0.338345 130:-0.424647 131:-0.591769 132:-0.856921 133:0.0 134:-0.567959 135:-0.823461 136:0.08389 137:0.255061 138:-0.279258 139:-0.347114 140:-0.584554 141:0.079018 142:-0.023809 143:0.048557 144:-0.812631 145:0.207253 146:0.016127 147:0.250653 148:-0.478787 149:-0.768949 150:0.63978 151:0.196078 152:0.423815 153:-0.963809 154:-0.41487 155:0.065843 156:0.360448 157:-0.192193 158:-0.62892 159:-0.230556 160:0.477612 161:-0.128703 162:-0.863877 163:-0.226282 164:-0.64854 165:0.077009 166:-0.639096 167:-0.77619 168:0.136811 169:0.027027 170:-0.364786 171:-0.939835 172:-0.178646 173:-0.278368 174:-0.660989 175:-0.404227 176:-0.641134 177:0.111942 178:0.051138 179:0.306206 180:-0.753977 181:0.140575 182:-0.613062 183:0.826646 184:-0.6142 185:-0.750743 186:0.820984 187:0.720339 188:0.259938 189:-0.864272 190:0.015178 191:0.767228 192:0.863172 193:-0.08904 194:-0.548798 195:0.419988 196:-0.114551 197:-0.157546 198:-0.905567 199:0.296992 200:0.293946 201:-0.388439 202:-0.265937 203:-0.626276 204:-0.892273 205:-1.0 206:-0.850813 207:-0.871483 208:0.560016 209:-0.612121 210:0.331688 211:-0.7612 212:-0.879597 213:-0.510867 214:0.4375 215:-0.309957 216:-0.80696 217:-0.004939 218:-0.455615 219:-0.041526 220:-0.785668 221:-0.903152 222:-0.377343 223:0.607143 224:0.180469 225:-1.0 226:-0.296723 227:-0.822897 228:-0.448873 229:-0.988355 230:-0.838607 231:-0.521034 232:-0.822222 233:-0.032654 234:-0.784904 235:0.805155 236:-0.319127 237:0.581534 238:-0.638059 239:-0.771405 240:0.987276 241:0.562677 242:0.768566 243:-0.928886 244:0.571006 245:-0.177681 246:0.080311 247:-0.610338 248:-0.834513 249:0.937849 250:-0.010989 251:0.447969 252:-0.94425 253:-0.491014 254:-0.157899 255:0.060899 256:-0.753482 257:-0.866969 258:0.168095 259:0.252427 260:-0.234158 261:-0.939065 262:0.139994 263:0.231065 264:-0.197745 265:-0.559802 266:-0.702447 267:0.456103 268:-0.156627 269:0.19531 270:-0.931213 271:-0.047723 272:-0.370445 273:0.905078 274:-0.748251 275:-0.925145 276:-0.161955 277:0.46 278:0.017128 279:-0.984397 280:-0.06999 281:-0.632899 282:-0.109472 283:-0.781336 284:-0.806496 285:0.11404 286:-0.03125 287:-0.113907 288:-0.853266 289:-0.37969 290:-0.115112 291:-0.865528 292:-0.722764 293:-0.827763 294:-0.72368 295:0.831522 296:-0.170997 297:-0.931551 298:-0.342944 299:0.242012 300:0.206937 301:-0.564782 302:-0.796771 303:-0.842607 304:0.425532 305:-0.153656 306:-0.973205 307:0.485386 308:-0.558779 309:0.042101 310:-0.691267 311:-0.794425 312:0.682728 313:0.129412 314:0.066583 315:-0.924735 316:0.427821 317:-0.369721 318:0.028812 319:-0.867407 320:-0.979331 321:0.579849 322:0.10312 323:0.361533 324:-0.983814 325:1.0 326:1.0 327:1.0 328:-1.0 329:-1.0 330:1.0 331:1.0 332:1.0 333:-0.914897 334:-0.02685 335:-1.0 336:-0.904342 337:-1.0 338:-1.0 339:-0.363913 340:-0.123902 341:0.027563 342:-0.999439 343:0.271291 344:-0.948811 345:0.601972 346:-1.0 347:-1.0 348:-0.739 349:-0.358209 350:0.220448 351:-1.0 
81.33459417872652 1:-0.85792 2:-0.839752 3:-0.82151 4:-0.948812 5:-0.851573 6:0.118266 7:-0.560634 8:-0.172505 9:-0.666164 10:-0.917255 11:0.945596 12:-0.966086 13:-0.901107 14:-0.600353 15:-0.937312 16:0.971161 17:-0.409346 18:-0.236603 19:0.665328 20:-0.923922 21:0.955975 22:-0.423742 23:-0.019241 24:-0.112297 25:-0.238426 26:-0.343227 27:0.147415 28:0.038591 29:-1.0 30:-0.573792 31:-0.90373 32:-0.634928 33:-0.565617 34:0.094057 35:-0.144449 36:-0.389628 37:-0.3286 38:-0.387333 39:0.030227 40:0.1179 41:0.369294 42:-0.683828 43:-0.335766 44:-0.889124 45:1.0 46:-0.13163 47:-0.004773 48:-0.490953 49:0.465181 50:0.066119 51:0.103881 52:-0.607708 53:-0.178686 54:-0.757071 55:0.289552 56:-0.546144 57:-0.672125 58:-0.909325 59:-0.854577 60:-0.385053 61:-0.053763 62:-0.217898 63:-0.538272 64:-0.088064 65:0.347965 66:-0.473665 67:-0.04779 68:-0.232195 69:-0.056885 70:-0.354839 71:-0.018449 72:-0.531753 73:-0.337652 74:-0.786945 75:-0.045679 76:-0.459702 77:-0.203208 78:-0.066956 79:-0.747573 80:0.233098 81:-0.253632 82:-0.368731 83:0.083033 84:-0.746035 85:0.145335 86:-0.126387 87:0.337872 88:-0.478947 89:0.039367 90:-0.578211 91:0.187297 92:-0.882939 93:-0.423487 94:-0.550158 95:-0.746842 96:0.031508 97:0.062972 98:-0.060376 99:-0.781328 100:0.479481 101:-0.092141 102:-0.540814 103:0.397115 104:0.387526 105:-0.542791 106:-0.291019 107:-0.592717 108:-0.281904 109:-0.035939 110:-0.848168 111:-0.278949 112:-0.892629 113:-0.99235 114:-0.676777 115:0.258621 116:0.015341 117:-0.976431 118:-0.06685 119:-0.50803 120:-0.519578 121:-0.641754 122:-0.692917 123:0.203367 124:-0.066667 125:0.232492 126:-0.900446 127:-0.027201 128:-0.334431 129:0.399299 130:-0.615636 131:-0.818608 132:-0.868962 133:0.064516 134:-0.656964 135:-0.915737 136:0.37112 137:-0.814739 138:-0.243779 139:-0.730018 140:-0.572872 141:-0.039023 142:0.142857 143:-0.182324 144:-0.620737 145:-0.195678 146:0.096004 147:0.215479 148:-0.292516 149:-0.517884 150:0.644095 151:0.27451 152:0.43482 153:-0.900286 154:0.601556 155:0.488461 156:0.71668 157:0.164078 158:-0.643111 159:-0.222999 160:0.865672 161:-0.092127 162:-0.919141 163:0.5337 164:-0.728794 165:-0.037933 166:-0.685762 167:-0.794991 168:0.15633 169:0.45946 170:-0.234098 171:-0.88269 172:0.640477 173:0.285944 174:-0.704651 175:-0.255708 176:-0.610842 177:0.080342 178:0.332831 179:0.114085 180:-0.928769 181:0.4269 182:-0.542821 183:0.825411 184:-0.50286 185:-0.640948 186:0.827129 187:0.288136 188:0.305178 189:-0.842583 190:-0.208108 191:0.09198 192:0.63824 193:-0.326363 194:-0.656198 195:0.447235 196:0.095975 197:-0.113985 198:-0.914768 199:-0.316722 200:-0.747305 201:-0.653955 202:-0.81635 203:-0.923026 204:-0.782885 205:-0.135135 206:-0.447738 207:-0.904969 208:-0.30453 209:-0.033388 210:0.456933 211:-0.156626 212:-0.56091 213:-0.398629 214:-0.588235 215:0.113377 216:-0.759944 217:-0.10482 218:-0.789297 219:0.002358 220:-0.993584 221:-0.975343 222:-0.376109 223:-0.285714 224:0.145948 225:-0.954616 226:-0.220549 227:-0.462331 228:-0.338879 229:-0.724418 230:-0.881847 231:-0.522888 232:0.233333 233:-0.122511 234:-0.993725 235:0.732456 236:-0.421139 237:0.620863 238:-0.764187 239:-0.845903 240:0.985783 241:-0.440151 242:0.687543 243:-0.960164 244:0.44512 245:-0.43005 246:0.272082 247:-0.792567 248:-0.729811 249:0.925661 250:-0.538462 251:0.279858 252:-0.803391 253:-0.27948 254:0.2222 255:-0.346487 256:-0.653929 257:-0.812383 258:0.179339 259:0.339806 260:-0.094843 261:-0.900831 262:0.08105 263:0.533335 264:-0.154056 265:-0.446079 266:-0.606919 267:0.449271 268:-0.325301 269:0.124162 270:-0.933149 271:-0.178393 272:-0.638132 273:0.907007 274:-0.787251 275:-0.925454 276:-0.162259 277:-0.6 278:0.012145 279:-0.939251 280:-0.064247 281:-0.100163 282:-0.133288 283:-0.659228 284:-0.866559 285:0.114136 286:0.21875 287:-0.101009 288:-0.970681 289:-0.483123 290:-0.147635 291:-0.531724 292:-0.688647 293:-0.813019 294:-0.727385 295:0.434783 296:-0.245529 297:-0.934956 298:-0.473698 299:0.054565 300:0.294433 301:-0.649063 302:-0.776316 303:-0.831055 304:-0.404255 305:-0.009892 306:-0.940132 307:0.351113 308:-1.0 309:0.040243 310:-0.971508 311:-0.992157 312:0.682252 313:-0.717647 314:0.080587 315:-0.938522 316:0.501621 317:0.196423 318:0.039139 319:-0.580146 320:-0.801854 321:0.577792 322:0.787816 323:0.35243 324:-0.956511 325:0.962313 326:0.963685 327:0.965003 328:-0.972934 329:-0.930293 330:0.999936 331:0.424706 332:0.727968 333:-0.721411 334:-0.003496 335:-0.904227 336:-0.94536 337:-0.950043 338:-0.974677 339:-0.364015 340:-0.436098 341:-0.011175 342:-0.988211 343:0.271432 344:-0.890824 345:0.601232 346:-0.938589 347:-0.944526 348:-0.738973 349:0.522388 350:0.217384 351:-0.944057 
60.76843541840724 1:-0.882258 2:-0.866959 3:-0.85161 4:-0.634094 5:-0.1005 6:-0.005769 7:-0.446695 8:-1.0 9:-0.180118 10:-0.754751 11:0.658907 12:-0.488362 13:0.067294 14:1.0 15:0.133142 16:0.163563 17:0.940325 18:1.0 19:-0.225688 20:0.444071 21:0.956496 22:-0.668513 23:-0.586615 24:0.157686 25:0.24537 26:0.333916 27:-0.445235 28:-0.625949 29:0.073349 30:-0.256269 31:-0.040207 32:-0.03068 33:-0.846398 34:-0.296018 35:-0.675852 36:-0.400206 37:0.259625 38:-0.344216 39:0.00466 40:-0.058162 41:-0.287104 42:0.32369 43:-0.182482 44:0.300261 45:-0.518103 46:0.685438 47:-0.657992 48:-0.487386 49:-0.438982 50:-0.025262 51:0.475698 52:0.075017 53:0.345308 54:-0.045462 55:0.463735 56:-0.48238 57:-0.679254 58:-0.154805 59:-0.66502 60:-0.26045 61:0.049462 62:-0.018559 63:-0.740709 64:0.135072 65:-0.720459 66:-0.488467 67:0.237587 68:0.282417 69:0.127871 70:-0.0 71:0.160974 72:-0.039481 73:0.337769 74:-0.646432 75:-0.061099 76:-0.54864 77:-0.506377 78:0.004429 79:-0.208434 80:0.416985 81:-0.529696 82:-0.22346 83:0.429886 84:-0.767646 85:0.003012 86:-0.11112 87:0.245992 88:-0.515789 89:-0.114598 90:-0.484671 91:0.94466 92:0.196796 93:-0.439459 94:0.868666 95:0.222281 96:-0.437814 97:-0.219144 98:-0.377442 99:-0.415689 100:-0.069762 101:-0.05446 102:-0.594096 103:0.24087 104:0.415503 105:0.128528 106:-0.430052 107:0.17743 108:-0.152663 109:0.223868 110:-0.681798 111:-0.039492 112:-0.188057 113:0.078715 114:-0.540335 115:-0.310345 116:0.452195 117:0.291633 118:0.058411 119:-0.14187 120:-0.564779 121:0.293989 122:0.966124 123:0.551264 124:0.525 125:0.547773 126:-0.267837 127:-0.197362 128:-0.684263 129:0.338289 130:-0.692962 131:-0.927968 132:-0.869831 133:0.657258 134:-0.665752 135:-0.959361 136:-0.085595 137:-0.09714 138:-0.229233 139:-0.10239 140:-0.421731 141:-0.033645 142:0.333333 143:-0.222259 144:-0.803013 145:-0.161224 146:0.20373 147:0.635149 148:-0.376871 149:-0.593394 150:0.636582 151:0.215686 152:0.407996 153:-0.939351 154:-0.382369 155:-0.619846 156:0.102894 157:-0.619615 158:-0.852018 159:-0.253423 160:0.402985 161:-0.279465 162:-0.858795 163:-0.077224 164:-0.875199 165:-0.004214 166:-0.684491 167:-0.670245 168:0.189482 169:0.743243 170:0.004087 171:-0.645121 172:-0.137041 173:-0.036594 174:-0.744457 175:-0.194601 176:-0.610286 177:0.129571 178:0.169746 179:0.275563 180:-0.841635 181:0.001679 182:-0.255957 183:0.829494 184:-0.620528 185:-0.848456 186:0.827602 187:0.542373 188:0.301194 189:-0.936127 190:-0.238381 191:0.039723 192:0.668328 193:-0.470353 194:-0.762431 195:0.448526 196:-0.634675 197:-0.133168 198:-0.927396 199:0.246766 200:-9.1E-4 201:-0.675508 202:-0.224298 203:-0.561807 204:-0.759912 205:-0.162162 206:-0.451315 207:-0.845866 208:-0.037967 209:0.061633 210:0.325167 211:0.121695 212:-0.457083 213:-0.565982 214:-0.5 215:-0.318293 216:-0.795076 217:-0.171122 218:-0.604007 219:0.020818 220:-0.227909 221:-0.303847 222:-0.307516 223:-0.0 224:0.547719 225:-0.544084 226:-0.090706 227:0.006634 228:-0.462462 229:0.059448 230:-0.274529 231:-0.600076 232:0.022222 233:-0.331672 234:-0.804079 235:0.887593 236:-0.409633 237:0.627301 238:-0.796819 239:-0.914874 240:0.987481 241:-0.176249 242:0.787013 243:-0.995911 244:0.420449 245:0.510188 246:0.387356 247:-0.433881 248:-0.648111 249:0.920106 250:0.274725 251:0.293759 252:-0.936865 253:-0.5173 254:0.142733 255:0.023847 256:-0.660884 257:-0.834741 258:0.173442 259:0.475728 260:-0.160969 261:-0.933352 262:0.067619 263:-0.476214 264:-0.163545 265:-0.797592 266:-0.824648 267:0.453182 268:-0.277108 269:0.175906 270:-0.91802 271:-0.292353 272:-0.567441 273:0.916871 274:-0.845026 275:-0.914673 276:-0.161392 277:-0.52 278:0.077543 279:-0.932385 280:-0.03855 281:-0.010786 282:0.138219 283:-0.704966 284:-0.871567 285:0.115772 286:0.5 287:-0.056904 288:-0.953116 289:-0.373956 290:-0.11752 291:-0.568136 292:-0.860482 293:-0.949764 294:-0.722811 295:0.586957 296:-0.142961 297:-0.969182 298:-0.298952 299:0.05908 300:-1.0 301:-0.72261 302:-0.836891 303:-0.832581 304:-0.148936 305:-0.014783 306:-0.969187 307:0.336345 308:0.121004 309:0.039441 310:-0.607369 311:-0.732184 312:0.682466 313:0.047059 314:0.056496 315:-0.937652 316:-0.090983 317:0.527655 318:0.216708 319:-0.295153 320:-0.559387 321:0.588786 322:-0.15364 323:0.463356 324:-0.938749 325:0.605082 326:0.597198 327:0.588266 328:0.078492 329:0.952318 330:-0.469931 331:0.151522 332:-0.731375 333:0.519368 334:-0.061383 335:-0.663452 336:-0.915922 337:1.0 338:1.0 339:-1.0 340:-0.045854 341:-0.095435 342:-0.441571 343:0.356358 344:-0.603125 345:0.609001 346:1.0 347:1.0 348:1.0 349:0.201493 350:0.776725 351:-0.150133 
128.0 1:0.845693 2:0.834409 3:0.823335 4:0.373329 5:0.293618 6:0.186755 7:-0.300552 8:-0.388251 9:-1.0 10:0.234687 11:-0.123288 12:0.022435 13:0.180586 14:0.160239 15:-0.796255 16:0.311017 17:-0.090573 18:-0.953753 19:-1.0 20:0.676572 21:0.958763 22:0.93422 23:0.299975 24:-0.969234 25:0.543981 26:-0.553631 27:-0.517827 28:-0.69963 29:0.545801 30:-0.657162 31:-0.29501 32:-0.232517 33:-0.358078 34:-0.272937 35:0.22586 36:-0.433976 37:0.244352 38:-0.809411 39:-0.019959 40:-0.003996 41:0.38508 42:-0.142278 43:-0.284672 44:-0.303672 45:0.294034 46:0.035448 47:-1.0 48:-0.48417 49:-0.6669 50:-1.0 51:0.299477 52:-0.0351 53:-0.178737 54:-1.0 55:-0.246159 56:-0.501238 57:-0.688218 58:-0.455293 59:-0.530747 60:-0.405347 61:0.156989 62:-0.218367 63:-0.254438 64:-0.512201 65:0.156263 66:-0.485556 67:-0.108058 68:-0.494369 69:-0.001375 70:-0.008065 71:0.082425 72:-0.725163 73:-0.385943 74:-0.09217 75:0.251384 76:-0.33496 77:-0.156922 78:0.127487 79:0.378641 80:0.56541 81:-0.021018 82:0.337557 83:-0.601456 84:-0.745969 85:-0.620881 86:-0.470911 87:0.299027 88:-0.105263 89:-0.066643 90:-0.383609 91:0.65328 92:-0.079886 93:-0.413156 94:0.204796 95:-0.184378 96:0.459226 97:0.002519 98:0.410594 99:-0.483107 100:-0.15865 101:0.011197 102:-0.538513 103:0.20092 104:-0.079508 105:-0.19576 106:-0.328152 107:-0.230952 108:-0.729878 109:-0.291896 110:-0.47445 111:0.051281 112:0.233473 113:0.356397 114:-0.467498 115:0.051724 116:0.260613 117:-0.2647 118:-0.085531 119:-0.02883 120:-0.530234 121:0.049827 122:0.20482 123:-0.128327 124:-1.0 125:-0.041005 126:-0.700051 127:-0.192484 128:-0.329218 129:0.342065 130:-0.409523 131:-0.679231 132:-0.87203 133:0.645161 134:-0.689247 135:-0.905465 136:0.388747 137:-0.189493 138:-0.935729 139:-0.523031 140:-0.683409 141:-0.066716 142:-0.047619 143:-0.285066 144:-0.885264 145:0.383923 146:-0.404747 147:0.314726 148:-0.546353 149:-0.615762 150:0.625733 151:-0.529412 152:0.351185 153:-0.876922 154:0.002563 155:-0.487123 156:0.16669 157:-0.740403 158:-0.927259 159:-0.207616 160:0.164179 161:-0.099183 162:-0.94123 163:-0.469429 164:-0.643859 165:0.026253 166:-0.641064 167:-0.770198 168:0.154997 169:0.27027 170:-0.247142 171:-0.830447 172:-0.020776 173:-0.078189 174:-0.707195 175:-0.359845 176:-0.59538 177:0.058329 178:0.288354 179:0.026748 180:-0.860152 181:0.054192 182:-0.384991 183:0.820317 184:-0.480716 185:-0.62135 186:0.802979 187:-0.033898 188:0.189099 189:-0.773464 190:-0.26541 191:-0.288159 192:0.642854 193:-0.701044 194:-0.863488 195:0.447457 196:-0.139319 197:-0.207659 198:-0.91324 199:-0.68977 200:0.181927 201:-0.482543 202:-0.244409 203:-0.773158 204:-0.736175 205:0.108108 206:-0.377777 207:-0.946772 208:-0.515418 209:0.141139 210:0.527525 211:-0.284456 212:-0.613842 213:-0.426086 214:-0.205882 215:0.080086 216:-0.821024 217:0.033254 218:-0.433535 219:0.050213 220:-0.438021 221:-0.628269 222:-0.369423 223:-0.321429 224:0.291167 225:-0.880143 226:-0.356826 227:-0.099169 228:-0.453982 229:-0.221329 230:-0.38048 231:-0.510728 232:0.194445 233:-0.049405 234:-0.834914 235:0.601745 236:-0.658026 237:0.654471 238:-0.77506 239:-0.829311 240:0.988418 241:-0.085768 242:0.840559 243:-0.918477 244:0.171444 245:-0.216307 246:0.298171 247:-0.829658 248:-0.926535 249:0.933951 250:0.604396 251:0.447477 252:-0.940944 253:-0.53921 254:-0.22701 255:-0.100202 256:-0.7785 257:-0.869424 258:0.171717 259:0.961165 260:-0.179017 261:-0.938682 262:0.266124 263:-0.363941 264:-0.202503 265:-0.806891 266:-0.911616 267:0.452739 268:-0.807229 269:0.165455 270:-0.961902 271:-0.17133 272:-0.452013 273:0.912876 274:-0.81757 275:-0.896487 276:-0.160953 277:0.6 278:0.08708 279:-0.926773 280:0.027465 281:0.053336 282:-0.131952 283:-0.620087 284:-0.800616 285:0.112439 286:-0.0625 287:-0.13438 288:-0.937439 289:-0.264526 290:0.33761 291:-0.301309 292:-0.674984 293:-0.719906 294:-0.72707 295:0.434783 296:-0.235148 297:-0.863496 298:-0.164937 299:-0.149271 300:0.214368 301:-0.806736 302:-0.911503 303:-0.837535 304:1.0 305:-0.114446 306:-0.983853 307:0.38102 308:-0.065768 309:0.047901 310:-0.649486 311:-0.805033 312:0.679113 313:0.505882 314:-0.011835 315:-0.955657 316:0.374766 317:0.19317 318:-0.044507 319:-0.653214 320:-0.864817 321:0.576458 322:0.10312 323:0.310339 324:-0.982602 325:0.23028 326:0.249506 327:0.268129 328:-0.276511 329:-0.278354 330:0.953655 331:0.163706 332:0.835554 333:-1.0 334:0.021095 335:-0.422243 336:-0.820555 337:-0.334613 338:-0.435564 339:-0.299162 340:0.250732 341:0.324655 342:-0.612426 343:0.165873 344:-0.375489 345:0.589541 346:-0.43096 347:-0.467851 348:-0.716766 349:0.223881 350:0.409986 351:-0.68291 
73.4162273826866 1:-0.66731 2:-0.655386 3:-0.643184 4:-0.433224 5:0.026367 6:0.584383 7:0.275064 8:0.764797 9:0.261857 10:-0.786057 11:0.831507 12:-0.86665 13:-0.776219 14:-0.700711 15:-0.925677 16:0.565614 17:-0.242293 18:-0.828903 19:-0.305374 20:-0.045243 21:0.958147 22:-0.481536 23:-0.322202 24:-0.154722 25:-0.0 26:-0.48249 27:-0.228772 28:-0.558553 29:0.081146 30:-0.60106 31:0.199992 32:-0.183396 33:-0.52581 34:0.278707 35:-0.185525 36:-0.848707 37:0.161598 38:-0.347827 39:-0.064624 40:-0.72187 41:-0.841301 42:0.172834 43:-0.29927 44:0.146522 45:-0.807605 46:-0.15655 47:-0.373362 48:-0.47484 49:-0.032323 50:-0.306946 51:0.362038 52:-0.629732 53:0.095398 54:-0.755578 55:0.172013 56:0.039306 57:-0.687589 58:0.082412 59:0.014271 60:-0.52115 61:0.015054 62:-0.302878 63:-0.163328 64:-0.59663 65:-0.019223 66:-0.488212 67:0.378121 68:-0.103316 69:-0.204118 70:0.193548 71:-0.210622 72:-0.720966 73:-0.201979 74:0.362551 75:0.254348 76:0.033793 77:0.299701 78:-0.389818 79:-0.708738 80:-0.280532 81:-0.568627 82:-0.280849 83:0.197801 84:-0.748312 85:0.911494 86:1.0 87:-0.189368 88:-0.242105 89:-0.396973 90:-0.055743 91:0.006078 92:0.08207 93:-0.624969 94:-0.308121 95:-0.498224 96:0.330572 97:-0.151133 98:0.433473 99:-0.478113 100:-0.050538 101:-0.758942 102:-0.538372 103:-0.49197 104:-0.062076 105:-0.275282 106:-0.402418 107:-0.542712 108:0.222945 109:0.632352 110:-0.812811 111:-0.045384 112:-0.604511 113:-0.61304 114:-0.619376 115:-0.448276 116:0.675635 117:0.105581 118:0.175145 119:-0.542029 120:-0.504766 121:-0.698303 122:-0.668325 123:0.255034 124:0.033333 125:0.58714 126:-0.822868 127:-0.059472 128:-0.710221 129:0.338066 130:-0.782026 131:-0.902378 132:-0.875895 133:0.0 134:-0.787732 135:-0.916718 136:0.229394 137:0.030197 138:-0.174978 139:6.9E-4 140:-0.552556 141:-0.248245 142:-0.047619 143:-0.542435 144:-0.856718 145:0.230215 146:-0.823056 147:0.272118 148:-0.997931 149:-0.94972 150:0.633963 151:-0.176471 152:0.382019 153:-0.920842 154:-0.011129 155:0.328478 156:-0.035332 157:-0.267427 158:-0.855844 159:-0.23649 160:0.462687 161:-0.151095 162:-1.0 163:0.200345 164:-0.425 165:-0.078965 166:-0.522132 167:-0.717458 168:0.163894 169:0.027027 170:-0.209908 171:-0.934638 172:0.369734 173:-0.526082 174:-0.696027 175:-0.264481 176:-0.497076 177:-0.004005 178:0.22905 179:-0.216788 180:-0.727745 181:-0.038367 182:0.199108 183:0.942027 184:-0.573303 185:-0.690202 186:0.822972 187:-0.542373 188:0.277149 189:-0.873626 190:-0.080617 191:0.422167 192:0.299669 193:-0.372178 194:-0.749763 195:0.454477 196:-0.931889 197:-0.090557 198:-0.949966 199:-0.103074 200:0.080952 201:1.0 202:-0.306197 203:-0.771673 204:-0.872946 205:-0.324324 206:-0.80957 207:-0.950131 208:0.13991 209:-0.640992 210:0.31607 211:-0.767985 212:-0.786805 213:-0.450701 214:-0.088235 215:0.257957 216:-0.563684 217:-0.161551 218:-0.63293 219:0.004399 220:-0.663058 221:-0.690646 222:-0.409289 223:-0.357143 224:-0.330346 225:-0.428023 226:-0.221793 227:-0.677786 228:-0.423353 229:-0.877038 230:-0.915679 231:-0.52436 232:-0.377778 233:-0.191297 234:-0.965198 235:0.766245 236:-0.652852 237:0.550471 238:-0.863349 239:-0.920013 240:0.986985 241:-0.025448 242:0.748858 243:-0.954098 244:0.322392 245:0.027192 246:-0.740101 247:-0.564677 248:-0.763831 249:0.920048 250:0.340659 251:0.266408 252:-0.931286 253:-0.263273 254:-0.873928 255:0.052782 256:-1.0 257:-0.992787 258:0.178387 259:0.533981 260:0.068616 261:-0.85353 262:-0.087968 263:0.456479 264:-0.255175 265:-0.595001 266:-0.810922 267:0.45094 268:-0.590361 269:0.133654 270:-0.984576 271:-0.031185 272:-0.49938 273:0.912516 274:-0.731845 275:-0.827385 276:-0.163773 277:-0.52 278:-0.051001 279:-0.934387 280:-0.097 281:-0.348601 282:-0.120288 283:-0.652005 284:-0.761601 285:0.114855 286:-0.09375 287:-0.083849 288:-0.860453 289:-0.571772 290:-0.192522 291:-0.274523 292:-0.787623 293:-0.848462 294:-0.720491 295:0.565217 296:-0.07706 297:-0.911724 298:-0.297698 299:-0.363703 300:0.257952 301:-0.737874 302:-0.784994 303:-0.837286 304:0.191489 305:-0.103062 306:-0.911685 307:0.737914 308:0.755518 309:0.03832 310:-0.524071 311:-0.79172 312:0.679604 313:0.035294 314:0.016831 315:-0.994134 316:0.113976 317:-0.722623 318:0.019238 319:-0.77798 320:-0.883399 321:0.578097 322:-0.201189 323:0.313495 324:-0.916076 325:0.887939 326:0.891266 327:0.894459 328:-0.807308 329:-0.542597 330:0.984377 331:0.43134 332:-0.924166 333:1.0 334:-0.273076 335:-0.938229 336:-0.945719 337:-0.798193 338:-0.852365 339:-0.371792 340:9.76E-4 341:-0.479298 342:-0.527944 343:0.167523 344:-0.912376 345:0.596844 346:-0.920879 347:-0.881655 348:-0.739823 349:0.044776 350:-0.106765 351:-0.631752 
63.86628972604798 1:-0.422091 2:-0.412445 3:-0.40252 4:-0.351859 5:0.26677 6:0.621885 7:0.221849 8:0.579293 9:0.011405 10:-0.731316 11:0.779213 12:-0.814859 13:-0.701064 14:-0.4228 15:-0.84579 16:-0.284928 17:0.262883 18:-0.24394 19:0.158999 20:-0.228551 21:0.973757 22:-0.760463 23:-0.415419 24:0.136523 25:-0.24537 26:0.284461 27:-0.195319 28:-0.711613 29:0.106965 30:-0.604716 31:-0.269011 32:-0.383159 33:-0.80625 34:0.169648 35:-0.708105 36:-0.682623 37:0.123859 38:0.016455 39:-0.012498 40:0.019854 41:-0.48633 42:0.207233 43:-0.153285 44:0.138646 45:-0.923044 46:0.283559 47:-0.91124 48:1.0 49:-0.484143 50:-0.213023 51:0.486485 52:-0.431521 53:0.381427 54:0.18045 55:0.493356 56:-0.168843 57:-0.678442 58:0.27978 59:-0.013453 60:-0.479182 61:-0.019355 62:-0.241669 63:-0.563786 64:-0.30028 65:0.439463 66:-0.523108 67:0.279539 68:-0.098561 69:-0.046981 70:0.306452 71:-0.044128 72:-0.629515 73:-0.399378 74:-0.017725 75:-0.091117 76:-0.334712 77:-0.340556 78:-0.305325 79:0.495146 80:-0.233148 81:-0.564066 82:0.179228 83:0.729322 84:-0.695838 85:0.025794 86:0.002984 87:0.083203 88:0.2 89:-0.382801 90:-0.420604 91:0.516436 92:-0.558709 93:-0.423678 94:0.037109 95:0.055623 96:0.483034 97:-0.350126 98:0.503275 99:0.438821 100:0.255169 101:0.223502 102:-0.546842 103:0.434459 104:0.167754 105:-0.435625 106:-0.416235 107:-0.465195 108:-0.70705 109:-0.092449 110:-0.434532 111:-0.024676 112:0.158304 113:0.38142 114:-0.581552 115:-0.112069 116:0.095091 117:-0.097008 118:0.041777 119:-0.646843 120:-0.513967 121:-0.522003 122:-0.318546 123:0.292238 124:-0.733333 125:0.62112 126:-0.577238 127:0.168283 128:-0.570625 129:0.337469 130:-0.682817 131:-0.903484 132:-0.844825 133:0.387097 134:-0.27952 135:-0.885764 136:0.202749 137:1.0 138:0.031006 139:0.399091 140:-0.426317 141:-0.185262 142:-0.023809 143:-0.385961 144:-0.949639 145:-0.029633 146:0.299592 147:0.181888 148:-0.254565 149:-0.810821 150:0.663838 151:0.764706 152:0.500953 153:-0.981546 154:0.461606 155:-0.784932 156:0.195745 157:-0.754749 158:-0.870167 159:-0.200364 160:0.761194 161:-0.063763 162:-0.918396 163:1.0 164:-0.506384 165:-0.09585 166:-0.414465 167:-0.665198 168:0.153715 169:0.189189 170:-0.264121 171:-0.941556 172:0.536826 173:-0.281665 174:-0.698737 175:-0.313612 176:-0.728211 177:0.04241 178:0.866566 179:-0.041315 180:-0.940565 181:0.269708 182:0.05032 183:1.0 184:-0.588862 185:-0.680084 186:0.801042 187:0.474576 188:0.14427 189:-0.842541 190:0.022933 191:-0.247533 192:0.630235 193:-0.492465 194:-0.663418 195:0.432311 196:-0.287926 197:-0.224508 198:-0.762967 199:-0.176504 200:-0.429043 201:-0.583107 202:-0.376197 203:-0.616714 204:-0.838603 205:0.094595 206:-0.716868 207:-0.725645 208:-0.248813 209:0.027688 210:0.30629 211:-0.200509 212:-0.555256 213:-0.571606 214:-0.4375 215:-0.420099 216:-0.781945 217:-0.060694 218:0.097423 219:0.19316 220:-0.109276 221:-0.310355 222:-0.495857 223:0.5625 224:-0.15909 225:-0.645784 226:-0.409361 227:-0.823921 228:-0.444434 229:-0.641134 230:-0.658797 231:-0.532821 232:0.333333 233:-0.275251 234:-0.789074 235:0.788979 236:-0.685689 237:0.441008 238:-0.830701 239:-0.889954 240:0.98546 241:-0.040528 242:0.62826 243:-0.93058 244:0.444715 245:0.757197 246:0.141504 247:-0.36842 248:-0.741715 249:0.93553 250:-0.142857 251:0.395237 252:-0.989881 253:-0.335762 254:-0.438049 255:0.041263 256:-0.715593 257:-0.790327 258:0.177843 259:-0.592233 260:-0.097552 261:-0.844834 262:0.214192 263:-0.476778 264:-0.20712 265:-0.870422 266:-0.938068 267:0.452879 268:-0.156627 269:0.174774 270:-0.964513 271:-0.109624 272:-0.391456 273:0.693945 274:-0.789348 275:-0.900662 276:-0.163442 277:-0.44 278:-0.041836 279:-0.937639 280:0.001838 281:-0.088596 282:-0.134033 283:-0.642427 284:-0.855866 285:0.11348 286:0.34375 287:-0.114935 288:-0.97004 289:-0.38509 290:0.064632 291:-0.559339 292:-0.730118 293:-0.764364 294:-0.722809 295:0.086957 296:-0.150378 297:-0.896253 298:-0.261707 299:-0.640348 300:0.239264 301:-0.722027 302:-0.709426 303:-0.83362 304:-0.204787 305:-0.034198 306:-0.858774 307:0.332932 308:0.121352 309:0.050837 310:-0.708638 311:-0.854248 312:0.680269 313:-0.105882 314:0.00225 315:-0.970239 316:0.166194 317:-0.372738 318:0.06782 319:-0.568331 320:-0.7068 321:0.58101 322:0.521545 323:0.406902 324:-0.891755 325:0.881074 326:0.884289 327:0.887383 328:-0.764347 329:-0.532502 330:0.98108 331:0.180762 332:-0.416715 333:0.123061 334:-0.002572 335:-0.634602 336:-0.965045 337:-0.554937 338:-0.582782 339:-0.350608 340:-0.15122 341:0.200049 342:-0.596863 343:0.214754 344:-0.561392 345:0.496416 346:-0.577036 347:-0.584018 348:-0.720747 349:-0.19403 350:0.552191 351:-0.537666 
128.0 1:-0.834342 2:-0.818456 3:-0.802447 4:-0.697163 5:-0.514287 6:0.206977 7:-0.210558 8:0.229395 9:-0.469673 10:-0.876024 11:0.903484 12:-0.924294 13:-0.765604 14:-0.623883 15:-0.914926 16:-0.076851 17:-0.158792 18:-0.761334 19:0.257186 20:-0.463162 21:0.952637 22:-0.46125 23:-0.522728 24:-0.113062 25:-0.074074 26:-0.366751 27:-0.642505 28:-0.636337 29:0.58952 30:-0.628394 31:-0.25796 32:-0.310486 33:-0.434618 34:-0.589152 35:0.050376 36:-0.371945 37:0.320495 38:0.266255 39:0.163235 40:0.387558 41:1.0 42:0.33629 43:-0.649635 44:0.233789 45:0.455786 46:0.119168 47:0.627589 48:-0.483324 49:1.0 50:0.340233 51:0.250538 52:0.339298 53:0.053406 54:-0.767868 55:0.096472 56:-0.175441 57:-0.680919 58:0.184539 59:-0.191252 60:-0.017074 61:0.006452 62:0.181874 63:-0.516831 64:0.585437 65:0.024082 66:-0.461823 67:0.488172 68:0.016562 69:-0.40046 70:-0.193548 71:-0.381404 72:-0.409408 73:0.441915 74:-0.282278 75:-0.122265 76:-0.602733 77:-0.70064 78:-0.151316 79:0.339806 80:0.066728 81:-0.701557 82:0.09475 83:0.266461 84:-0.771423 85:-0.428069 86:-0.532178 87:0.43832 88:0.11579 89:0.31281 90:-0.757737 91:-0.786345 92:0.220912 93:-0.467852 94:0.184053 95:-0.50357 96:-0.214793 97:-0.259446 98:-0.329014 99:-0.706128 100:-0.62565 101:-0.022699 102:-0.541284 103:0.518333 104:0.440032 105:-0.473206 106:-0.443869 107:-0.479412 108:-0.402618 109:-0.018783 110:-0.754092 111:-0.091281 112:-0.50759 113:-0.456245 114:-0.67796 115:-0.327586 116:-0.078902 117:-0.315541 118:0.097566 119:-0.550411 120:-0.512297 121:-0.567201 122:-0.56355 123:0.288159 124:0.5 125:0.646573 126:-0.786852 127:-0.152215 128:-0.414425 129:0.412293 130:-0.621835 131:-0.820486 132:-0.867449 133:0.129032 134:-0.636817 135:-0.907574 136:0.159998 137:-0.554016 138:-0.185925 139:-0.523754 140:-0.64016 141:0.095474 142:-0.095238 143:0.183822 144:-0.639364 145:0.43083 146:-0.647395 147:0.758475 148:-0.135068 149:-0.227631 150:0.600037 151:0.27451 152:0.300629 153:-0.71499 154:-0.176807 155:0.387677 156:0.151047 157:0.302225 158:-0.403352 159:-0.217449 160:-0.014925 161:-0.079527 162:-0.889314 163:-0.532405 164:-0.224379 165:0.886766 166:-0.420544 167:-0.620201 168:0.087843 169:-0.283784 170:-0.53095 171:-0.788245 172:0.55461 173:-0.411577 174:-0.686465 175:-0.389095 176:-0.666063 177:0.039762 178:0.521863 179:-0.068045 180:-0.860789 181:1.0 182:-0.317554 183:0.832521 184:-0.634455 185:-0.766187 186:0.881978 187:0.0 188:0.657093 189:-0.760596 190:-0.342455 191:-0.367621 192:0.562044 193:-0.810829 194:-0.900225 195:0.480699 196:-0.114551 197:0.105976 198:-0.898838 199:-0.360005 200:-0.364465 201:-0.664743 202:-0.316316 203:-0.695316 204:-0.832465 205:-0.0 206:-0.67847 207:-0.883155 208:0.180709 209:1.0 210:0.122329 211:0.418883 212:-0.288794 213:-0.528861 214:-0.058823 215:-0.224291 216:-0.883373 217:-0.149421 218:-0.59292 219:0.00551 220:-0.597168 221:-0.68628 222:-0.397751 223:0.214286 224:-0.053192 225:-0.725 226:-0.245387 227:-0.365241 228:-0.463652 229:-0.55624 230:-0.626959 231:-0.521066 232:0.066667 233:-0.09424 234:-0.88645 235:0.660351 236:-0.360818 237:-0.897025 238:-0.738416 239:-0.84798 240:0.987903 241:0.287465 242:0.80216 243:-0.970941 244:0.620999 245:-0.415859 246:0.392026 247:-0.786281 248:-0.782508 249:0.926377 250:-0.010989 251:0.294877 252:-0.860397 253:-0.275104 254:-0.57054 255:0.13093 256:-0.469421 257:-0.600851 258:0.192938 259:0.378641 260:-0.033244 261:-0.693643 262:-0.068241 263:0.232846 264:-0.214332 265:-0.372185 266:-0.604723 267:0.424943 268:-0.445783 269:-0.046277 270:-0.884448 271:-0.21024 272:-0.031652 273:0.85664 274:-0.679357 275:-0.858092 276:-0.163575 277:-0.04 278:-0.041233 279:-0.975568 280:-0.051293 281:0.014654 282:-0.1488 283:-0.689516 284:-0.851704 285:0.113338 286:0.0625 287:-0.124249 288:-0.922071 289:-0.485735 290:-0.636597 291:-0.548533 292:-0.858843 293:-0.812689 294:-0.723885 295:0.608696 296:-0.188342 297:-0.849818 298:-0.360918 299:-0.619733 300:0.220248 301:-0.899137 302:-0.897174 303:-0.836871 304:0.87234 305:-0.102214 306:-0.922679 307:0.464779 308:0.057575 309:0.014258 310:-0.67101 311:-0.826899 312:0.686246 313:-0.270588 314:0.145148 315:-0.949996 316:0.453116 317:0.803512 318:0.022464 319:-0.158692 320:-0.600911 321:0.568139 322:-0.125111 323:0.330506 324:-1.0 325:0.930545 326:0.932826 327:0.935015 328:-0.893639 329:-0.779015 330:0.99742 331:-0.018274 332:-0.219059 333:-0.123696 334:-0.012484 335:-0.816292 336:-0.972468 337:-0.852486 338:-0.839652 339:-0.363051 340:0.079024 341:0.14232 342:-0.695172 343:0.309262 344:-0.763189 345:0.592233 346:-0.887553 347:-0.881494 348:-0.738119 349:-0.014925 350:0.411012 351:-0.830498 
126.95629088791253 1:-0.404816 2:-0.39951 3:-0.393861 4:-0.113957 5:0.020992 6:0.631041 7:0.067865 8:0.126389 9:-0.732963 10:-0.838835 11:0.818898 12:-0.806167 13:-0.185921 14:0.273506 15:-0.859451 16:-0.173778 17:-0.095925 18:-0.499729 19:0.060947 20:-0.037601 21:0.957397 22:-0.115034 23:-0.445862 24:-0.100252 25:-0.027778 26:-0.18476 27:-0.675552 28:-0.647166 29:0.11267 30:-0.601664 31:-0.647508 32:-0.272265 33:-0.780771 34:0.5603 35:-0.88295 36:0.203908 37:0.103088 38:0.168873 39:-0.028025 40:0.112453 41:0.036606 42:0.045021 43:0.109489 44:-0.054875 45:-0.66565 46:0.462491 47:-0.345306 48:-0.5669 49:-0.137925 50:0.258032 51:0.436805 52:-0.255334 53:0.230778 54:-0.08426 55:0.363901 56:-0.268266 57:-0.709752 58:-0.27828 59:-0.625053 60:-0.169872 61:-0.156989 62:0.118803 63:-0.676536 64:1.0 65:0.118961 66:-0.485251 67:-0.058284 68:-0.052151 69:-0.083299 70:-1.0 71:-0.0584 72:-0.324688 73:-0.608682 74:-0.247146 75:-0.082399 76:-0.276038 77:-0.517022 78:-0.140888 79:-0.339806 80:0.066384 81:-0.789392 82:-1.0 83:0.481782 84:-0.674199 85:-0.285915 86:-0.215186 87:0.41817 88:0.705263 89:0.227927 90:-0.508999 91:-0.901737 92:0.050312 93:-0.463326 94:0.398387 95:0.189977 96:-0.516042 97:-0.319899 98:-0.573873 99:0.094548 100:-0.098481 101:0.26086 102:-1.0 103:0.46715 104:0.435841 105:-0.15142 106:-0.388601 107:-0.164433 108:-0.546428 109:0.017787 110:-0.47582 111:-0.084111 112:-0.202198 113:-0.257693 114:-0.652439 115:-0.344828 116:0.017717 117:-0.633825 118:-0.0894 119:-0.279034 120:-0.528078 121:-0.38707 122:-0.431934 123:0.266543 124:0.066667 125:0.455396 126:-0.855581 127:-0.225355 128:0.074191 129:0.311205 130:-0.413119 131:-0.695319 132:-0.851672 133:-0.129032 134:-0.529612 135:-0.901734 136:0.301101 137:-0.431989 138:-0.14784 139:-0.798798 140:-0.731893 141:-0.008941 142:-0.071429 143:-0.038903 144:-0.698053 145:-0.015118 146:-0.030277 147:0.332619 148:-0.352734 149:-0.715831 150:0.65363 151:-0.411765 152:0.475196 153:-0.953788 154:-0.147353 155:-0.250113 156:0.252948 157:-0.390547 158:-0.65619 159:-0.273699 160:0.41791 161:-0.278867 162:-0.764821 163:0.15233 164:-0.6674 165:-0.15319 166:-0.520776 167:-0.622272 168:0.189563 169:0.324324 170:-0.082396 171:-0.739841 172:-0.048911 173:-0.33086 174:-0.716395 175:-0.556691 176:-0.709098 177:0.100702 178:0.822088 179:0.333458 180:-0.780087 181:-0.318526 182:-0.154075 183:0.87065 184:-0.374342 185:-0.643968 186:0.785167 187:0.0 188:0.142811 189:-0.835752 190:-0.024557 191:0.30673 192:0.729131 193:-0.648409 194:-0.859553 195:0.448674 196:-0.30031 197:-0.17846 198:-0.940235 199:-0.527174 200:-0.5843 201:-0.620313 202:-0.343753 203:-0.557728 204:-0.836119 205:0.189189 206:-0.698142 207:-0.68491 208:-0.14963 209:0.049389 210:0.298813 211:-0.019443 212:-0.298542 213:-0.474223 214:-0.147059 215:-0.125532 216:-0.676633 217:-0.060394 218:-0.428837 219:0.021016 220:-0.688869 221:-0.828794 222:-0.377716 223:0.071429 224:0.196232 225:-0.965034 226:-0.203495 227:-0.326738 228:-0.297749 229:-0.606628 230:-0.792527 231:-0.524886 232:-0.777778 233:-0.145843 234:-0.968979 235:0.892202 236:-0.392875 237:0.566573 238:-0.672419 239:-0.799209 240:0.988857 241:0.245994 242:0.827109 243:-0.927689 244:0.18801 245:-0.842165 246:0.085124 247:-0.971308 248:-0.928155 249:0.934089 250:-0.692308 251:0.513451 252:-0.87046 253:-0.432359 254:-0.412449 255:0.04361 256:-0.598753 257:-0.749465 258:0.17976 259:0.174757 260:-0.103295 261:-0.862851 262:0.498116 263:-0.430477 264:-0.196128 265:-0.563591 266:-0.78748 267:0.462568 268:-0.204819 269:0.272062 270:-0.942412 271:-0.276799 272:-0.646674 273:0.9193 274:-0.812024 275:-0.876422 276:-0.162601 277:-0.64 278:-1.69E-4 279:-0.908235 280:-0.19132 281:-0.182495 282:-0.167686 283:-0.76833 284:-0.887511 285:0.11435 286:0.40625 287:-0.100821 288:-0.939208 289:-0.439735 290:0.629404 291:-0.509969 292:-0.65901 293:-0.778364 294:-0.722812 295:0.097826 296:-0.152765 297:-0.932111 298:-0.319647 299:-0.473815 300:0.247198 301:-0.851098 302:-0.888181 303:-0.836827 304:-0.191489 305:-0.0979 306:-0.951477 307:0.493147 308:-0.428119 309:0.091521 310:-0.815652 311:-0.852537 312:0.681238 313:0.223529 314:0.015212 315:-0.92828 316:0.164616 317:0.001112 318:0.025246 319:-0.517865 320:-0.796409 321:0.582873 322:0.255275 323:0.432143 324:-0.962213 325:0.73721 326:0.743183 327:0.748936 328:-0.556471 329:-0.413902 330:0.93708 331:0.235565 332:0.104952 333:-0.592891 334:-0.027752 335:-0.723626 336:-0.903253 337:-0.483907 338:-0.441462 339:-0.354156 340:-0.077073 341:0.1232 342:-0.467133 343:0.290853 344:-0.629234 345:0.59235 346:-0.571471 347:-0.594434 348:-0.731423 349:-0.19403 350:0.340308 351:-0.700769 
127.41560280394091 1:-0.284769 2:-0.274743 3:-0.264566 4:-0.422071 5:-0.123585 6:0.277095 7:-0.224882 8:-0.014439 9:-0.749548 10:-0.516457 11:0.6149 12:-0.691072 13:-0.818114 14:-0.65661 15:-0.904081 16:0.316046 17:-0.051288 18:-0.75013 19:0.337643 20:-0.194462 21:0.960828 22:-0.173291 23:-0.307129 24:0.25096 25:0.333333 26:0.410926 27:-0.707025 28:-0.742275 29:0.541884 30:-0.622733 31:-0.419101 32:-0.440121 33:-0.652835 34:-0.016734 35:-0.417034 36:-0.459263 37:-0.222911 38:-0.079266 39:0.040825 40:0.346893 41:0.217215 42:0.189322 43:0.19708 44:0.100128 45:-0.159833 46:0.229465 47:-0.151388 48:-0.388546 49:0.468923 50:0.20462 51:0.456849 52:0.019959 53:0.235665 54:-0.357953 55:-0.060058 56:0.089132 57:-0.680101 58:0.059257 59:0.214041 60:0.129341 61:-0.397849 62:0.365871 63:0.291921 64:-0.442332 65:0.812401 66:-0.495856 67:0.270262 68:-0.339439 69:0.251278 70:0.064516 71:0.288387 72:-0.727343 73:-0.305463 74:-0.391022 75:-0.051184 76:-0.263988 77:-0.281933 78:-0.19248 79:0.145631 80:-0.023473 81:-0.702535 82:-0.054101 83:0.223629 84:-0.755699 85:-0.25734 86:-0.599908 87:0.232764 88:-0.389474 89:-0.182465 90:-0.886624 91:0.048119 92:-0.068555 93:-0.421377 94:0.090878 95:-0.069038 96:-0.422604 97:-0.138539 98:-0.596649 99:-0.182562 100:-0.032426 101:0.011373 102:-0.513178 103:0.076643 104:0.088392 105:0.070485 106:-0.443869 107:0.143082 108:-0.45996 109:0.17318 110:-0.281589 111:-0.039844 112:-0.106943 113:-0.272794 114:-0.649665 115:0.12931 116:0.005498 117:-0.749804 118:0.103364 119:-0.724804 120:-0.530397 121:-0.695699 122:-0.502849 123:0.239424 124:0.133333 125:0.472629 126:-0.617862 127:-0.208748 128:0.063924 129:0.34167 130:-0.416582 131:-0.746706 132:-0.868905 133:0.516129 134:-0.664715 135:-0.93428 136:0.473271 137:-0.705112 138:-0.215145 139:-0.567671 140:-0.460091 141:-0.010239 142:-0.395833 143:-0.112202 144:-0.553705 145:0.528304 146:-0.058595 147:0.36005 148:-0.001055 149:-0.584342 150:0.689392 151:-0.392157 152:0.536153 153:-0.951898 154:-0.04912 155:0.11919 156:0.215307 157:0.270418 158:-0.315834 159:0.012345 160:0.544776 161:0.240575 162:-0.725416 163:-0.299283 164:-0.279527 165:-0.164047 166:-0.278495 167:-0.543486 168:0.183446 169:0.148649 170:-0.17513 171:-0.795442 172:-0.133566 173:-0.146329 174:-0.333983 175:-0.144752 176:-0.402247 177:0.089225 178:-0.082296 179:0.12783 180:-0.783125 181:-0.046043 182:0.084103 183:0.820193 184:-0.301359 185:-0.642928 186:0.802921 187:0.440678 188:0.227785 189:-0.857039 190:-0.403125 191:0.041298 192:0.674986 193:-0.335922 194:-0.59289 195:0.488112 196:-0.089783 197:0.046264 198:-0.865534 199:-0.48475 200:-0.13225 201:-1.0 202:-0.469708 203:-0.774682 204:-0.809553 205:0.189189 206:-0.6203 207:-0.91368 208:0.072322 209:-0.578485 210:0.341981 211:-0.604747 212:-0.781131 213:-0.595129 214:-0.294118 215:-0.833428 216:-0.586065 217:0.0283 218:-0.181492 219:0.044796 220:-0.360246 221:-0.576322 222:-0.41307 223:-0.125 224:0.007941 225:-0.830671 226:-0.126949 227:-0.574094 228:-0.554801 229:-0.803967 230:-0.808336 231:-0.523245 232:-0.733333 233:-0.137787 234:-0.911662 235:0.497102 236:-0.230444 237:0.624835 238:-0.581792 239:-0.751262 240:0.982864 241:0.321395 242:0.656673 243:-0.943169 244:0.485085 245:-0.780736 246:0.229253 247:-0.778936 248:-0.785315 249:0.933286 250:0.384615 251:0.421957 252:-0.864349 253:-0.49203 254:0.340287 255:-0.005305 256:-0.356263 257:-0.740761 258:0.17895 259:-0.048544 260:-0.143787 261:-0.923344 262:0.118166 263:0.029306 264:-0.15391 265:-0.393181 266:-0.572991 267:0.442168 268:-0.180723 269:0.073548 270:-0.915062 271:-0.171491 272:-0.643046 273:0.910681 274:-0.594124 275:-0.699366 276:-0.164361 277:0.12 278:-0.054672 279:-0.878619 280:0.015453 281:0.182679 282:-0.133668 283:-0.580707 284:-0.770558 285:0.113739 286:-0.53125 287:-0.104743 288:-0.941696 289:-0.479186 290:-0.471616 291:-0.550343 292:-0.64773 293:-0.685183 294:-0.726473 295:0.173913 296:-0.217553 297:-0.855331 298:-0.475632 299:0.019784 300:0.341792 301:-0.756017 302:-0.785609 303:-0.841609 304:0.212766 305:-0.195459 306:-0.898916 307:0.20323 308:-0.042717 309:0.058172 310:-0.706962 311:-0.803319 312:0.684799 313:0.129412 314:0.122915 315:-0.904272 316:0.260029 317:-0.681907 318:0.027392 319:-0.832413 320:-0.900114 321:0.580113 322:-0.049034 323:0.378581 324:-0.918298 325:0.805093 326:0.811244 327:0.817149 328:-0.769556 329:-0.611661 330:0.988785 331:0.34163 332:0.114276 333:-0.476227 334:-0.054038 335:-0.604304 336:-0.958375 337:-0.614416 338:-0.681821 339:-0.348496 340:0.063415 341:0.298514 342:-0.68352 343:0.208999 344:-0.547846 345:0.602568 346:-0.63634 347:-0.629063 348:-0.732729 349:-0.19403 350:0.369406 351:-0.649378 
79.65875006421399 1:-0.818326 2:-0.800504 3:-0.782597 4:-0.924044 5:-0.845303 6:0.125949 7:0.014694 8:-0.041329 9:-0.667539 10:-0.802573 11:0.849219 12:-0.883544 13:-0.865088 14:-0.705536 15:-0.883097 16:-0.255304 17:0.203531 18:-0.532883 19:-0.337387 20:0.00773 21:0.958684 22:-0.377875 23:-0.542005 24:0.187368 25:0.222222 26:0.340552 27:-0.838397 28:-0.346666 29:-0.247475 30:-0.59331 31:-0.672406 32:-0.542363 33:-0.696076 34:0.080208 35:-0.618415 36:-0.400025 37:0.077667 38:-0.404305 39:0.033974 40:-0.284615 41:-0.056965 42:0.216451 43:-0.474453 44:0.182537 45:-0.109023 46:0.695488 47:0.02293 48:-0.520531 49:0.327837 50:0.420542 51:-0.015743 52:-0.123193 53:-0.37512 54:0.092087 55:1.0 56:0.18758 57:-0.686493 58:0.258071 59:-0.290491 60:0.063357 61:-0.122581 62:0.235602 63:-0.802771 64:-0.11241 65:-0.001909 66:-0.479811 67:-0.011762 68:-0.21144 69:-0.143863 70:0.016129 71:-0.152968 72:-0.605536 73:-0.013394 74:0.073019 75:-0.156943 76:0.350731 77:0.316835 78:0.108675 79:-0.747573 80:0.295155 81:-0.693208 82:-0.528888 83:0.829656 84:-0.74206 85:0.456222 86:-0.012826 87:0.251834 88:-0.326316 89:-0.063419 90:-0.71103 91:-0.824797 92:-0.325628 93:-0.431244 94:-0.05908 95:-0.209815 96:0.058338 97:1.0 98:-0.02125 99:-0.413922 100:-0.375441 101:0.918477 102:-0.560775 103:0.941866 104:0.998587 105:0.394419 106:-0.443869 107:0.232 108:-0.460081 109:-0.088396 110:-0.774861 111:-0.092416 112:-0.710285 113:-0.568148 114:-0.65936 115:0.793103 116:0.286562 117:-9.6E-4 118:-0.068286 119:-0.528543 120:-0.537227 121:-0.687217 122:-0.667423 123:0.188687 124:-0.066667 125:0.114955 126:-0.864189 127:-0.231185 128:-0.775061 129:0.340707 130:-0.812792 131:-0.927694 132:-0.872927 133:0.064516 134:-0.731074 135:-0.889032 136:-0.077152 137:-0.243676 138:-0.258526 139:-0.601435 140:-0.664323 141:-0.140958 142:0.238095 143:-0.528102 144:-0.794865 145:-0.020286 146:-0.109194 147:0.424562 148:-0.356928 149:-0.438016 150:0.604081 151:0.259804 152:0.278793 153:-0.856358 154:0.488341 155:-0.128755 156:0.128774 157:0.197999 158:-0.449619 159:-0.052187 160:0.238806 161:0.166246 162:-0.711404 163:0.324223 164:-0.783047 165:0.107641 166:-0.75595 167:-0.819712 168:0.128847 169:0.135135 170:-0.461381 171:-0.894449 172:0.155944 173:-0.359986 174:-0.698362 175:-0.535492 176:-0.757458 177:0.060632 178:0.169746 179:0.03762 180:-0.913837 181:0.976059 182:0.508285 183:-1.0 184:-0.527951 185:-0.873507 186:0.824417 187:0.372881 188:0.28947 189:-0.998351 190:-0.008938 191:0.093229 192:0.717863 193:-0.464667 194:-0.667227 195:0.481879 196:-0.263158 197:0.036709 198:-0.874676 199:0.008311 200:0.009978 201:-0.629949 202:-0.276545 203:-0.671934 204:-0.869898 205:-0.540541 206:-0.786525 207:-0.891495 208:-0.552069 209:0.421669 210:0.397377 211:0.292403 212:-0.270139 213:-0.532927 214:-1.0 215:-0.238082 216:-0.814043 217:0.342215 218:-0.784132 219:-0.039013 220:-0.909515 221:-0.938441 222:-0.372815 223:0.357143 224:0.360266 225:-0.914954 226:-0.054712 227:-0.705748 228:-0.446821 229:-0.663176 230:-0.837281 231:-0.520854 232:0.422222 233:-0.08524 234:-0.954211 235:0.857524 236:-0.799897 237:0.579746 238:-0.831116 239:-0.888449 240:0.984291 241:0.125353 242:0.533126 243:-0.891092 244:0.183484 245:-0.707334 246:0.241888 247:-0.823297 248:-0.822888 249:0.930276 250:0.340659 251:0.368098 252:-0.896137 253:-0.306213 254:-0.406482 255:0.068946 256:-0.676538 257:-0.799806 258:0.172135 259:0.067961 260:-0.175604 261:-0.834254 262:0.075922 263:0.041538 264:-0.061835 265:-0.493384 266:-0.714699 267:0.454792 268:-0.108434 269:0.174732 270:-0.938935 271:-0.307774 272:-0.908196 273:0.908861 274:-0.897919 275:-0.89017 276:-0.161824 277:-0.36 278:0.077652 279:-0.796582 280:-0.04161 281:-0.804249 282:-0.127266 283:-0.844404 284:-0.913718 285:0.114744 286:-0.296875 287:-0.085779 288:-0.90409 289:-0.239469 290:0.026377 291:-0.554436 292:-0.811736 293:-0.926813 294:-0.721384 295:0.782609 296:-0.098077 297:-0.97219 298:-0.057103 299:0.129991 300:0.31958 301:-0.634468 302:-0.754926 303:-0.835588 304:0.021277 305:-0.075198 306:-0.950688 307:0.635677 308:0.30934 309:0.046895 310:-0.637173 311:-0.768613 312:0.679608 313:0.417647 314:8.65E-4 315:-0.959372 316:0.416894 317:0.209479 318:0.012824 319:-0.472319 320:-0.724736 321:0.565827 322:-0.277266 323:0.218761 324:-0.904734 325:0.937204 326:0.939166 327:0.941057 328:-0.881207 329:-0.716673 330:0.996158 331:0.221273 332:-0.436098 333:0.307398 334:-0.006723 335:-0.844023 336:-0.946898 337:-0.794559 338:-0.790289 339:-0.362608 340:0.125854 341:0.125452 342:-0.686312 343:0.136438 344:-0.798933 345:0.6028 346:-0.772795 347:-0.751133 348:-0.735249 349:1.0 350:0.472723 351:-0.554556 
11.729048171774945 1:-0.41064 2:-0.398738 3:-0.386688 4:-0.51597 5:-0.227267 6:0.286049 7:-0.352973 8:0.160849 9:-0.574606 10:-0.746595 11:0.80255 12:-0.845542 13:-0.823004 14:-0.695705 15:-0.927987 16:-0.069936 17:-0.270749 18:-0.737647 19:0.279051 20:-0.134859 21:0.957418 22:-0.718722 23:-0.809355 24:0.110262 25:-0.342593 26:0.188682 27:-0.75668 28:-0.557058 29:0.274826 30:-0.619258 31:-0.737015 32:-0.611038 33:-0.542449 34:0.163301 35:-0.085797 36:-0.531863 37:0.013177 38:-0.85962 39:-0.345622 40:-0.416504 41:-0.012583 42:0.18326 43:0.507299 44:0.139053 45:0.23934 46:0.807904 47:-0.504268 48:-0.471562 49:-0.153066 50:-0.389992 51:0.21825 52:0.185134 53:-0.194973 54:-0.641372 55:0.343785 56:-0.050364 57:-0.694276 58:0.271497 59:0.269465 60:-0.697847 61:0.032258 62:-0.433512 63:-0.193608 64:-0.33175 65:-0.242482 66:-0.487862 67:0.261268 68:-0.041621 69:0.078917 70:0.16129 71:0.098929 72:-0.504683 73:-0.417862 74:-0.587847 75:-0.138808 76:-0.696366 77:-0.86826 78:-0.11941 79:1.0 80:0.158203 81:-0.854593 82:0.254103 83:-0.021463 84:-0.732618 85:-0.043127 86:-0.15112 87:-0.01321 88:0.010526 89:-0.580536 90:-0.421213 91:0.203579 92:-0.220285 93:-0.472813 94:-0.287282 95:-0.580457 96:-0.144826 97:-0.098237 98:-0.343415 99:-0.522561 100:-0.484283 101:-0.274565 102:-0.518187 103:-0.149302 104:0.214532 105:-0.146754 106:-0.803109 107:-0.18273 108:-0.181604 109:-0.244643 110:-0.720225 111:-0.099826 112:-0.374368 113:-0.343199 114:-0.776181 115:-0.094828 116:-0.699234 117:0.055063 118:0.139276 119:-0.369823 120:-0.527521 121:-0.685582 122:-0.746707 123:0.217047 124:-0.4 125:0.312396 126:-0.964249 127:-0.30287 128:-0.504152 129:0.342503 130:-0.788736 131:-0.914886 132:-0.870414 133:0.887097 134:-0.673958 135:-0.934317 136:0.2985 137:-0.629981 138:-0.188417 139:-0.900832 140:-0.830951 141:-0.058434 142:0.285714 143:-0.256823 144:-0.840593 145:0.346908 146:-0.396608 147:0.138782 148:-0.556551 149:-0.724711 150:0.62667 151:-0.039216 152:0.355358 153:-0.920985 154:0.117932 155:0.133217 156:0.322372 157:-0.451688 158:-0.83064 159:-0.255841 160:1.0 161:-0.240023 162:-0.947527 163:0.341858 164:0.055275 165:0.065392 166:-0.222202 167:-0.61577 168:0.153468 169:0.243243 170:-0.268998 171:-0.977251 172:0.280939 173:-0.159507 174:-0.68359 175:-0.29053 176:-0.547861 177:0.014465 178:1.0 179:-0.15357 180:-0.8275 181:0.450411 182:0.238155 183:0.854491 184:-0.649376 185:-0.869333 186:0.818299 187:0.644068 188:0.236342 189:-0.944228 190:-0.167627 191:0.438287 192:0.678958 193:-0.090977 194:-0.456508 195:0.467491 196:-0.23839 197:-0.034345 198:-0.895006 199:-0.396248 200:-0.541882 201:-0.614769 202:-0.645685 203:-0.843524 204:-0.725115 205:-0.135135 206:-0.105375 207:-0.791559 208:0.077842 209:-0.361833 210:0.348065 211:-0.534514 212:-0.6286 213:-0.391252 214:0.095588 215:0.430604 216:-0.390692 217:-0.161187 218:-0.349571 219:0.297776 220:-0.52053 221:-0.507269 222:-0.372876 223:0.392857 224:0.268795 225:-0.647922 226:-0.367702 227:-0.625287 228:-0.4522 229:-0.740964 230:-0.840589 231:-0.518894 232:0.511111 233:-0.03463 234:-0.937829 235:0.731404 236:-0.730326 237:0.22043 238:-0.914726 239:-0.949832 240:0.986354 241:0.178134 242:0.656445 243:-0.970634 244:0.357196 245:-0.691938 246:0.221304 247:-0.99021 248:-1.0 249:0.931112 250:-0.538462 251:0.406773 252:-0.964292 253:-0.443814 254:-0.354136 255:0.046582 256:-0.748794 257:-0.819996 258:0.163795 259:0.184466 260:-0.297449 261:-0.820713 262:0.104375 263:-0.02815 264:-0.388011 265:-0.670706 266:-0.786395 267:0.453105 268:-0.39759 269:0.165041 270:-0.958218 271:-0.163857 272:-0.140485 273:0.914166 274:-0.624271 275:-0.866456 276:-0.164578 277:-0.44 278:-0.062592 279:-0.99598 280:0.089104 281:-0.225913 282:-0.123914 283:-0.536034 284:-0.705496 285:0.114402 286:0.46875 287:-0.091956 288:-0.909454 289:-0.347065 290:-0.051431 291:-0.495832 292:-0.805134 293:-0.91965 294:-0.723591 295:0.869565 296:-0.172513 297:-0.970931 298:-0.375044 299:0.484108 300:0.328416 301:-0.481398 302:-0.657925 303:-0.834967 304:0.404255 305:-0.074636 306:-0.944026 307:0.400446 308:-0.634828 309:0.040267 310:-0.836896 311:-0.8546 312:0.683171 313:0.505882 314:0.107841 315:-0.924886 316:0.373808 317:-0.534409 318:0.028665 319:-0.767271 320:-0.814037 321:0.581003 322:0.445468 323:0.413184 324:-0.894075 325:0.852775 326:0.857462 327:0.861965 328:-0.809893 329:-0.672195 330:0.993219 331:0.1044 332:0.140673 333:-0.506948 334:-6.15E-4 335:-0.786851 336:-0.955709 337:-0.741492 338:-0.774791 339:-0.352056 340:-0.389268 341:0.519043 342:-0.435845 343:0.299632 344:-0.759924 345:0.594016 346:-0.745787 347:-0.708374 348:-0.734355 349:-0.19403 350:0.470374 351:-0.546488 
