svm_type c_svc
kernel_type rbf
gamma 2.44140625E-4
nr_class 2
total_sv 24
rho 0.5969484783024989
label 1 -1
nr_sv 11 13
SV
83.77005793615798 1:-0.414058 2:-0.414021 3:-0.413797 4:-0.09699 5:0.394302 6:0.588569 7:0.221849 8:0.669147 9:0.290375 10:-0.651456 11:0.661414 12:-0.665905 13:-0.545739 14:-0.626425 15:-0.764842 16:-1.0 17:0.112263 18:-0.273385 19:0.158999 20:-0.13505 21:1.0 22:-0.752317 23:-0.102747 24:0.483472 25:-0.168367 26:0.347843 27:0.009469 28:-0.511634 29:0.106965 30:0.062976 31:0.150143 32:-0.031071 33:-0.51818 34:0.386457 35:-0.545163 36:-0.524135 37:0.481496 38:0.073285 39:-0.289888 40:-0.050237 41:-0.614435 42:0.058375 43:-0.18797 44:0.092604 45:-0.985396 46:0.161499 47:-0.890931 48:1.0 49:-0.780722 50:-6.07E-4 51:0.927802 52:-0.666667 53:0.876021 54:0.758296 55:0.273358 56:-0.198457 57:-0.455376 58:0.372949 59:-0.092921 60:-0.479182 61:-0.013861 62:-0.389801 63:-0.713064 64:-0.30028 65:0.577499 66:-0.910538 67:0.477797 68:-0.174756 69:0.417024 70:1.0 71:0.111289 72:-0.793739 73:-0.595591 74:0.030052 75:0.205798 76:-0.453404 77:-0.37645 78:-0.510182 79:0.422222 80:-0.7235 81:-0.165496 82:0.188073 83:0.66196 84:-0.353128 85:0.025528 86:-0.085303 87:-0.370347 88:0.2 89:-0.55428 90:-0.184017 91:0.536151 92:-0.552897 93:0.10077 94:-0.154213 95:0.205506 96:0.318006 97:-0.448649 98:0.848711 99:0.853831 100:0.645806 101:0.171376 102:-0.039713 103:0.357874 104:6.27E-4 105:-0.771308 106:-0.176471 107:-0.366227 108:-0.539745 109:-0.312082 110:-0.21672 111:0.393921 112:0.202306 113:0.379045 114:-0.70622 115:-0.438356 116:-0.065079 117:-0.11009 118:0.485893 119:-0.556435 120:0.696721 121:-0.563174 122:-0.432596 123:0.461703 124:-0.680798 125:0.571194 126:-0.370798 127:-0.031216 128:-0.482186 129:0.213283 130:-0.682817 131:-0.940514 132:-0.944285 133:0.015873 134:-0.31707 135:-0.923875 136:-0.28383 137:1.0 138:1.0 139:0.499131 140:-0.558006 141:-0.899085 142:-0.266862 143:-0.585772 144:-1.0 145:-0.678847 146:0.67978 147:-0.860881 148:0.16465 149:-0.64413 150:0.395694 151:1.0 152:0.430563 153:-0.870499 154:0.78609 155:-1.0 156:-0.286995 157:-0.903018 158:-0.940754 159:-0.200364 160:0.666667 161:0.035129 162:-0.918396 163:1.0 164:-0.37988 165:-0.701568 166:-0.528333 167:-0.760811 168:-0.090822 169:-0.027523 170:-0.228756 171:-0.921941 172:0.407534 173:-0.348389 174:-0.759998 175:-0.367787 176:-0.901837 177:0.649645 178:0.817027 179:0.130502 180:-0.968131 181:0.017459 182:-0.018575 183:1.0 184:-0.58284 185:-0.674647 186:0.753017 187:0.610738 188:0.110581 189:-0.824513 190:0.540284 191:-0.335265 192:0.173253 193:-0.492465 194:-0.708734 195:0.557253 196:0.050505 197:-0.18509 198:-0.752073 199:0.269855 200:-0.487231 201:-0.583107 202:-0.091059 203:0.169348 204:-0.500883 205:0.421053 206:-0.509227 207:0.697485 208:-0.376737 209:-0.18503 210:0.344587 211:-0.160064 212:-0.572358 213:-0.841781 214:-0.4375 215:-0.549119 216:-0.826845 217:-0.349875 218:0.101301 219:0.809128 220:-0.112846 221:-0.326712 222:-0.889104 223:0.511905 224:-0.742539 225:-0.415519 226:-0.78738 227:-1.0 228:-0.751003 229:-0.508491 230:-0.461712 231:0.20065 232:0.529412 233:-0.167581 234:-0.404035 235:0.81285 236:-0.621603 237:0.445771 238:-0.776084 239:-0.845115 240:0.982375 241:-0.210526 242:0.638404 243:-0.908613 244:0.572996 245:1.0 246:0.557432 247:-0.372586 248:-0.741715 249:0.93553 250:-0.031056 251:0.575208 252:-1.0 253:-0.471148 254:-0.345179 255:0.237324 256:-0.543666 257:-0.600137 258:-0.860869 259:-1.0 260:-0.589729 261:-0.869983 262:0.214192 263:-0.604286 264:0.468139 265:-0.935808 266:-1.0 267:0.529535 268:-0.28 269:0.171582 270:-0.976074 271:-0.490129 272:-0.198458 273:0.746999 274:-0.879396 275:-0.936676 276:-0.993439 277:-0.44 278:-0.790469 279:-0.934867 280:-0.107481 281:0.012304 282:-0.779981 283:-0.625496 284:-0.854476 285:-0.544803 286:0.421687 287:-0.219819 288:-0.985721 289:0.609339 290:0.064632 291:0.036162 292:-0.602054 293:-0.746374 294:0.96298 295:0.121951 296:0.727252 297:-0.880749 298:-0.261707 299:-0.680916 300:0.847177 301:-0.725784 302:-0.732507 303:-0.83362 304:-0.617857 305:-0.034198 306:-0.866186 307:-0.449723 308:0.277517 309:0.019516 310:-0.020379 311:-0.460008 312:-0.881519 313:-0.212121 314:-0.912616 315:-0.912835 316:0.417516 317:-0.304399 318:-0.072213 319:-0.568331 320:-0.7068 321:0.99021 322:0.515789 323:0.899852 324:-0.891755 325:0.690989 326:0.69164 327:0.69225 328:-0.562994 329:-0.521084 330:0.974257 331:-0.609072 332:-0.47255 333:0.123061 334:-0.575039 335:0.168699 336:-0.98654 337:-0.554937 338:-0.582782 339:-0.345993 340:-0.37069 341:0.357721 342:0.128063 343:0.68103 344:0.19987 345:0.752391 346:-0.577036 347:-0.584018 348:-0.750034 349:-0.19403 350:0.68465 351:-0.339154 
68.97496576739906 1:-0.873874 2:-0.874466 3:-0.87504 4:-0.619331 5:-0.579486 6:-0.461548 7:-0.210558 8:0.299342 9:-0.323396 10:-0.898845 11:0.890185 12:-0.883639 13:-0.658894 14:-0.856286 15:-0.889481 16:-0.668689 17:-0.44031 18:-0.803026 19:0.257186 20:-0.426875 21:-0.5037 22:-0.442928 23:-0.267452 24:0.148631 25:0.020408 26:-0.418511 27:-0.670532 28:-0.380369 29:0.58952 30:-6.98E-4 31:0.170167 32:0.141667 33:0.406002 34:-0.512996 35:0.636718 36:0.009988 37:0.740706 38:0.379317 39:-0.06601 40:0.4206 41:1.0 42:0.211665 43:-0.699248 44:0.192833 45:0.438141 46:-0.101385 47:1.0 48:-0.823826 49:1.0 50:0.701981 51:0.621804 52:0.393939 53:0.430558 54:-0.654236 55:-0.295863 56:-0.211974 57:-0.498454 58:0.262983 59:-0.284662 60:-0.017074 61:0.033663 62:0.084271 63:-0.656687 64:0.585437 65:0.106914 66:-0.833664 67:0.951912 68:0.045291 69:-0.108556 70:0.234568 71:-0.297997 72:-0.504461 73:0.415356 74:-0.324207 75:0.134189 76:-0.858485 77:-0.801936 78:-0.077723 79:0.244444 80:-0.140923 81:-0.460581 82:0.102961 83:0.08391 84:-0.817787 85:-0.473826 86:-0.667854 87:0.420501 88:0.11579 89:0.418507 90:-0.774325 91:-0.875008 92:0.236992 93:-0.140796 94:0.048184 95:-0.634544 96:-0.602585 97:-0.351351 98:-0.329054 99:-0.680741 100:-0.651969 101:-0.122172 102:-0.027933 103:0.464018 104:0.328139 105:-0.851505 106:-0.235294 107:-0.387706 108:-0.061451 109:-0.223606 110:-0.821853 111:0.083108 112:-0.559502 113:-0.461836 114:-0.810227 115:-0.780822 116:-0.269869 117:-0.331229 118:0.590768 119:-0.368212 120:0.702551 121:-0.627121 122:-0.705812 123:0.457089 124:0.795511 125:0.606442 126:-0.686299 127:-0.428589 128:-0.293814 129:1.0 130:-0.621835 131:-0.845056 132:-0.968128 133:-0.492063 134:-0.684851 135:-0.946126 136:-0.360564 137:-0.712661 138:0.551209 139:-0.4897 140:-0.791594 141:-0.449276 142:-0.407625 143:0.578819 144:-0.579183 145:0.071952 146:-0.737165 147:1.0 148:0.351869 149:0.850057 150:-0.647008 151:0.430199 152:-0.548509 153:1.0 154:-0.189702 155:0.313897 156:-0.358523 157:0.243266 158:-0.456319 159:-0.217449 160:-0.416667 161:0.0177 162:-0.889314 163:-0.903713 164:0.094277 165:1.0 166:-0.535631 167:-0.70923 168:-0.817189 169:-0.669725 170:-1.0 171:-0.637794 172:0.430283 173:-0.595787 174:-0.700783 175:-0.48479 176:-0.822891 177:0.641013 178:0.344346 179:0.068487 180:-0.852553 181:1.0 182:-0.413136 183:0.832521 184:-0.65699 185:-0.81948 186:0.908652 187:-0.14094 188:0.643593 189:-0.732219 190:-0.177478 191:-0.463798 192:-0.068773 193:-0.810829 194:-0.951992 195:0.609862 196:0.333333 197:0.162192 198:-0.894188 199:-0.013109 200:-0.420023 201:-0.664743 202:0.022673 203:-0.130716 204:-0.457777 205:0.298246 206:-0.424759 207:-0.472242 208:0.096784 209:1.0 210:0.04332 211:0.550127 212:-0.302966 213:-0.754035 214:-0.058823 215:-0.335521 216:-0.942422 217:-0.494989 218:-0.756101 219:0.524343 220:-0.602309 221:-0.707329 222:-0.765208 223:0.047619 224:-0.583335 225:-0.546231 226:0.035561 227:-0.109414 228:-0.774299 229:-0.38832 230:-0.394997 231:0.410508 232:0.176471 233:0.703593 234:-0.687605 235:0.676798 236:-0.112335 237:-1.0 238:-0.654027 239:-0.786038 240:0.988433 241:0.171053 242:0.85901 243:-0.96507 244:0.764933 245:-0.466905 246:1.0 247:-0.791719 248:-0.782508 249:0.926377 250:0.118012 251:0.461902 252:-0.869858 253:-0.355282 254:-0.54422 255:0.523456 256:-0.14868 257:-0.225917 258:-0.795685 259:0.25 260:-0.482139 261:-0.706073 262:-0.068241 263:0.522757 264:0.441737 265:-0.420153 266:-0.656002 267:0.500125 268:-0.6 269:-0.052098 270:-0.893293 271:-0.62709 272:0.359653 273:0.914789 274:-0.757216 275:-0.88712 276:-0.9937 277:-0.04 278:-0.78942 279:-0.975321 280:-0.179912 281:0.158227 282:-0.876524 283:-0.682945 284:-0.848663 285:-0.545051 286:-0.012048 287:-0.23001 288:-0.93737 289:0.345932 290:-0.636597 291:0.072731 292:-0.836768 293:-0.812482 294:0.955359 295:0.707317 296:0.628794 297:-0.807826 298:-0.360918 299:-0.659791 300:0.818833 301:-0.903279 302:-0.922788 303:-0.836871 304:0.828571 305:-0.102214 306:-0.934554 307:-0.163184 308:0.204858 309:-0.862007 310:0.119849 311:-0.352924 312:-0.612775 313:-0.424242 314:-0.339096 315:-0.838991 316:0.766272 317:1.0 318:-0.39884 319:-0.158692 320:-0.600911 321:0.974009 322:-0.438597 323:0.796689 324:-1.0 325:0.819531 326:0.820987 327:0.822415 328:-0.802761 329:-0.773618 330:0.99649 331:-1.0 332:-0.267104 333:-0.123696 334:-0.59061 335:-0.412423 336:-0.994045 337:-0.852486 338:-0.839652 339:-0.358525 340:0.137931 341:0.242347 342:-0.147411 343:0.811816 344:-0.425111 345:0.959813 346:-0.887553 347:-0.881494 348:-0.767701 349:-0.014925 350:0.498486 351:-0.757719 
54.38007870033702 1:-0.39479 2:-0.399351 3:-0.403811 4:0.262883 5:0.087877 6:0.611743 7:0.067865 8:0.190475 9:-0.659308 10:-0.835267 11:0.73447 12:-0.648612 13:0.357428 14:0.169534 15:-0.789469 16:-0.823022 17:-0.357928 18:-0.535229 19:0.060947 20:0.102466 21:-0.164801 22:-0.084938 23:-0.149472 24:0.165817 25:0.071429 26:-0.204343 27:-0.720785 28:-0.399252 29:0.11267 30:0.071184 31:-0.535713 32:0.232516 33:-0.454817 34:0.849521 35:-0.817611 36:1.0 37:0.454115 38:0.260013 39:-0.309669 40:0.068334 41:-0.046428 42:-0.134295 43:0.082707 44:-0.111261 45:-0.719657 46:0.447635 47:-0.195504 48:-0.926588 49:-0.365319 50:0.597592 51:0.863371 52:-0.424242 53:0.671435 54:0.364006 55:0.08769 56:-0.402129 57:-1.0 58:-0.271391 59:-0.752478 60:-0.169872 61:-0.267327 62:0.013676 63:-0.848436 64:1.0 65:0.214403 66:-0.863052 67:-0.289902 68:-0.086048 69:0.363024 70:-1.0 71:0.093969 72:-0.393118 73:-0.847104 74:-0.277163 75:0.22584 76:-0.364725 77:-0.584967 78:-0.048441 79:-0.533333 80:-0.14159 81:-0.649094 82:-1.0 83:0.352817 84:-0.220104 85:-0.317424 86:-0.322792 87:0.375629 88:0.705263 89:0.299802 90:-0.338793 91:-1.0 92:0.064146 93:-0.116042 94:0.343403 95:0.407341 96:-1.0 97:-0.416216 98:-0.67555 99:0.392403 100:0.124747 101:0.215918 102:-1.0 103:0.399245 104:0.323097 105:-0.164816 106:-0.117647 107:0.088173 108:-0.287391 109:-0.179683 110:-0.294905 111:0.116563 112:-0.210122 113:-0.262522 114:-0.782695 115:-0.808219 116:-0.156148 117:-0.653308 118:0.239298 119:0.161483 120:0.647457 121:-0.37227 122:-0.559041 123:0.432638 124:0.276808 125:0.341694 126:-0.789747 127:-0.519274 128:0.295443 129:-0.062861 130:-0.413119 131:-0.701098 132:-0.951501 133:-1.0 134:-0.5745 135:-0.940167 136:-0.107299 137:-0.578176 138:0.630002 139:-0.784412 140:-0.891797 141:-0.616576 142:-0.360704 143:0.123587 144:-0.658781 145:-0.65518 146:0.186209 147:-0.37441 148:0.010846 149:-0.400757 150:0.228868 151:-0.367521 152:0.304677 153:-0.675718 154:-0.144682 155:-0.400741 156:-0.195456 157:-0.508042 158:-0.718701 159:-0.273699 160:0.1875 161:-0.202695 162:-0.764821 163:-0.053064 164:-0.65061 165:-0.800862 166:-0.655945 167:-0.711604 168:0.304473 169:0.155963 170:0.296503 171:-0.548084 172:-0.341707 173:-0.442075 174:-0.845202 175:-0.744573 176:-0.877558 177:0.839644 178:0.756036 179:1.0 180:-0.735631 181:-0.773958 182:-0.237798 183:0.87065 184:-0.233956 185:-0.613898 186:0.722489 187:-0.14094 188:0.109064 189:-0.816867 190:0.446995 191:0.257976 192:0.524257 193:-0.648409 194:-0.910212 195:0.575044 196:0.030303 197:-0.136702 198:-0.937488 199:-0.270888 200:-0.64881 201:-0.620313 202:-0.029437 203:0.394526 204:-0.483438 205:0.54386 206:-0.468035 207:1.0 208:-0.267394 209:-0.158581 210:0.332342 211:0.047545 212:-0.312821 213:-0.641875 214:-0.147059 215:-0.227789 216:-0.706842 217:-0.349384 218:-0.552311 219:0.547876 220:-0.694305 221:-0.851622 222:-0.739905 223:-0.142857 224:-0.208359 225:-0.942303 226:0.24581 227:-0.034656 228:-0.573185 229:-0.459646 230:-0.741939 231:0.342309 232:-0.941177 233:0.455239 234:-0.927937 235:0.92203 236:-0.162588 237:0.581447 238:-0.566739 239:-0.717394 240:0.990798 241:0.122807 242:0.890661 243:-0.90457 244:0.293497 245:-1.0 246:0.457832 247:-0.97731 248:-0.928155 249:0.934089 250:-0.652174 251:0.70867 252:-0.879972 253:-0.655662 254:-0.30672 255:0.244814 256:-0.356195 257:-0.519433 258:-0.852593 259:-0.0125 260:-0.599337 261:-0.889515 262:0.498116 263:-0.530749 264:0.50838 265:-0.618251 266:-0.844599 267:0.539735 268:-0.333333 269:0.270026 270:-0.953223 271:-0.717692 272:-0.594339 273:0.979412 274:-0.904585 275:-0.908458 276:-0.99179 277:-0.64 278:-0.717995 279:-0.903506 280:-0.370806 281:-0.120405 282:-1.0 283:-0.779098 284:-0.898672 285:-0.543287 286:0.518072 287:-0.204378 288:-0.954643 289:0.466324 290:0.629404 291:0.203234 292:-0.472396 293:-0.765526 294:0.962955 295:0.134146 296:0.721062 297:-0.93706 298:-0.319647 299:-0.510264 300:0.859004 301:-0.855136 302:-0.913675 303:-0.836827 304:-0.6 305:-0.0979 306:-0.965363 307:-0.101532 308:-0.348476 309:1.0 310:-0.419181 311:-0.453311 312:-0.83791 313:0.212121 314:-0.860594 315:-0.759772 316:0.415599 317:0.110181 318:-0.378803 319:-0.517865 320:-0.796409 321:0.992557 322:0.122807 323:0.933936 324:-0.962213 325:0.317182 326:0.315604 327:0.313912 328:-0.177501 329:-0.399587 330:0.91439 331:-0.501433 332:0.069677 333:-0.592891 334:-0.614597 335:-0.116037 336:-0.924072 337:-0.483907 338:-0.441462 339:-0.349567 340:-0.206897 341:0.204134 342:0.491581 343:0.78634 344:-0.010241 345:0.960065 346:-0.571471 347:-0.594434 348:-0.760892 349:-0.19403 350:0.405254 351:-0.572289 
75.22815832036986 1:-0.260892 2:-0.257856 3:-0.254693 4:-0.203199 5:-0.092376 6:-0.284082 7:-0.224882 8:0.041634 9:-0.680468 10:-0.284139 11:0.35893 12:-0.419614 13:-0.750955 14:-0.893697 15:-0.86993 16:-0.043103 17:-0.299435 18:-0.791557 19:0.337643 20:-0.092649 21:0.079534 22:-0.145176 23:0.063463 24:0.636999 25:0.469388 26:0.496668 27:-0.768644 28:-0.565101 29:0.541884 30:0.014524 31:-0.121828 32:-0.166465 33:-0.136663 34:0.165527 35:-0.09161 36:-0.140131 37:0.024377 38:-0.043984 39:-0.221955 40:0.368529 41:0.149747 42:0.037101 43:0.172932 44:0.052027 45:-0.197439 46:0.074996 47:0.042784 48:-0.707293 49:0.362797 50:0.529764 51:0.889367 52:-0.045455 53:0.678071 54:-0.043662 55:-0.520361 56:0.330013 57:-0.484223 58:0.118331 59:0.152411 60:0.129341 61:-0.710891 62:0.290219 63:0.314338 64:-0.442332 65:1.0 66:-0.876354 67:0.456714 68:-0.635168 69:0.8605 70:0.62963 71:0.514797 72:-0.922309 73:-0.482737 74:-0.469825 75:0.2976 76:-0.346514 77:-0.307179 78:-0.193313 79:0.022222 80:-0.316158 81:-0.462681 82:-0.047007 83:0.030419 84:-0.721122 85:-0.285985 86:-0.741582 87:-0.037273 88:-0.389474 89:-0.274117 90:-1.0 91:0.028875 92:-0.056287 93:0.113354 94:-0.080153 95:0.018234 96:-0.876734 97:-0.221622 98:-0.707782 99:0.020994 100:0.222071 101:-0.081547 102:0.031625 103:-0.094943 104:-0.094834 105:0.308726 106:-0.235294 107:0.552776 108:-0.15154 109:0.00695 110:0.0729 111:0.323139 112:-0.101147 113:-0.277681 114:-0.779702 115:-0.054795 116:-0.17053 117:-0.770671 118:0.601668 119:-0.708605 120:0.639362 121:-0.808921 122:-0.638122 123:0.401963 124:0.356608 125:0.36556 126:-0.431943 127:-0.498683 128:0.283061 129:0.257454 130:-0.416582 131:-0.7602 132:-0.969663 133:0.269841 134:-0.713569 135:-0.973371 136:0.201726 137:-0.879181 138:0.49076 139:-0.536759 140:-0.594899 141:-0.618655 142:-1.0 143:-0.02623 144:-0.463006 145:0.230886 146:0.143837 147:-0.285881 148:0.561831 149:-0.06387 150:0.813338 151:-0.344729 152:0.602601 153:-0.662451 154:0.005463 155:0.013061 156:-0.255692 157:0.208771 158:-0.365499 159:0.012345 160:0.364583 161:0.371614 162:-0.725416 163:-0.614105 164:0.001553 165:-0.819663 166:-0.36512 167:-0.621289 168:0.237018 169:-0.082569 170:0.028464 171:-0.651134 172:-0.449993 173:-0.090664 174:1.0 175:-0.106045 176:-0.487769 177:0.802236 178:-0.484117 179:0.522929 180:-0.740033 181:-0.407356 182:0.017659 183:0.820193 184:-0.11526 185:-0.612148 186:0.75663 187:0.557047 188:0.197384 189:-0.840842 190:-0.296657 191:-0.026122 192:0.332083 193:-0.335922 194:-0.636284 195:0.617923 196:0.373737 197:0.099445 198:-0.859354 199:-0.205469 200:-0.178354 201:-1.0 202:-0.268664 203:-0.433695 204:-0.296872 205:0.54386 206:-0.296796 207:-0.698927 208:-0.022706 209:-0.923819 210:0.403036 211:-0.623561 212:-0.800716 213:-0.890069 214:-0.294118 215:-1.0 216:-0.60364 217:-0.204325 218:-0.24511 219:0.583964 220:-0.364624 221:-0.595999 222:-0.784553 223:-0.404762 224:-0.491429 225:-0.720595 226:0.629973 227:-0.514928 228:-0.884794 229:-0.738989 230:-0.775067 231:0.371608 232:-0.882353 233:0.494011 234:-0.761025 235:0.504129 236:0.092039 237:0.6444 238:-0.446876 239:-0.649911 240:0.975935 241:0.210526 242:0.674448 243:-0.926223 244:0.61695 245:-0.923182 246:0.712448 247:-0.784351 248:-0.785315 249:0.933286 250:0.565217 251:0.605375 252:-0.87383 253:-0.769642 254:0.824117 255:0.088724 256:0.032883 257:-0.502242 258:-0.856089 259:-0.3 260:-0.667082 261:-0.955098 262:0.118166 263:0.199489 264:0.662934 265:-0.441883 266:-0.623256 267:0.518258 268:-0.306667 269:0.069152 270:-0.924946 271:-0.574344 272:-0.588712 273:0.970522 274:-0.662537 275:-0.702345 276:-0.995239 277:0.12 278:-0.812796 279:-0.871918 280:-0.088921 281:0.3957 282:-0.777592 283:-0.550197 284:-0.735332 285:-0.544351 286:-0.927711 287:-0.208668 288:-0.957151 289:0.363071 290:-0.471616 291:0.066606 292:-0.451828 293:-0.638056 294:0.937029 295:0.219512 296:0.553037 297:-0.816484 298:-0.475632 299:-0.004459 300:1.0 301:-0.759847 302:-0.809718 303:-0.841609 304:-0.057143 305:-0.195459 306:-0.909131 307:-0.731603 308:0.090599 309:0.196294 310:-0.014132 311:-0.260596 312:-0.677808 313:0.090909 314:-0.428329 315:-0.672195 316:0.531574 317:-0.647252 318:-0.36335 319:-0.832413 320:-0.900114 321:0.989082 322:-0.326316 323:0.861607 324:-0.918298 325:0.493565 326:0.496981 327:0.500319 328:-0.572655 329:-0.602177 330:0.98474 331:-0.293111 332:0.079369 333:-0.476227 334:-0.655892 335:0.265605 336:-0.979797 337:-0.614416 338:-0.681821 339:-0.343867 340:0.103448 341:0.554511 342:-0.114759 343:0.673067 344:0.241823 345:0.982184 346:-0.63634 347:-0.629063 348:-0.76222 349:-0.19403 350:0.443624 351:-0.498832 
16.87040757329764 1:-0.85601 2:-0.854107 3:-0.852147 4:-0.962532 5:-0.992183 6:-0.666627 7:0.014694 8:0.013215 9:-0.575838 10:-0.773275 11:0.790288 12:-0.802563 13:-0.833311 14:-0.949625 15:-0.832099 16:-0.952831 17:0.034487 18:-0.569167 19:-0.337387 20:0.158852 21:-0.073135 22:-0.356717 23:-0.29704 24:0.551684 25:0.346939 26:0.413852 27:-0.968411 28:0.124752 29:-0.247475 30:0.093648 31:-0.580829 32:-0.409486 33:-0.244196 34:0.280438 35:-0.405407 36:-0.038287 37:0.420605 38:-0.442191 39:-0.230684 40:-0.440103 41:-0.148063 42:0.069325 43:-0.518797 44:0.138841 45:-0.144981 46:0.820231 47:0.256988 48:-0.869575 49:0.193518 50:0.803965 51:0.276468 52:-0.242424 53:-0.151394 54:0.626678 55:1.0 56:0.531687 57:-0.595424 58:0.347883 59:-0.391683 60:0.063357 61:-0.20396 62:0.144409 63:-1.0 64:-0.11241 65:0.077469 66:-0.856228 67:-0.184183 68:-0.390511 69:0.272973 70:0.555556 71:-0.020789 72:-0.762224 73:-0.131771 74:0.151566 75:0.054467 76:0.582559 77:0.400343 78:0.652336 79:-1.0 80:0.302849 81:-0.442663 82:-0.525355 83:0.787264 84:-0.637275 85:0.499097 86:-0.102513 87:0.005196 88:-0.326316 89:-0.107636 90:-0.692541 91:-0.916659 92:-0.316746 93:0.059397 94:-0.286702 95:-0.193249 96:-0.242264 97:1.0 98:0.106461 99:-0.289098 100:-0.283318 101:1.0 102:-0.069236 103:1.0 104:1.0 105:1.0 106:-0.235294 107:0.687115 108:-0.151731 109:-0.307214 110:-0.861182 111:0.077808 112:-0.791393 113:-0.574169 114:-0.790161 115:1.0 116:0.160283 117:-0.012897 118:0.278991 119:-0.325529 120:0.615519 121:-0.796921 122:-0.821646 123:0.344572 124:0.117207 125:-0.129759 126:-0.802703 127:-0.526502 128:-0.72873 129:0.247333 130:-0.812792 131:-0.968358 132:-0.973902 133:-0.619048 134:-0.781874 135:-0.927209 136:-0.786222 137:-0.370639 138:0.401011 139:-0.572936 140:-0.817987 141:-0.828099 142:0.249267 143:-0.876297 144:-0.790085 145:-0.663607 146:0.068128 147:-0.077674 148:0.004275 149:0.311032 150:-0.580918 151:0.413105 152:-0.655231 153:0.007977 154:0.826954 155:-0.264759 156:-0.394163 157:0.130234 158:-0.504332 159:-0.052187 160:-0.0625 161:0.289433 162:-0.711404 163:0.160479 164:-0.845057 165:-0.349188 166:-0.93824 167:-0.937938 168:-0.365043 169:-0.100917 170:-0.798918 171:-0.834634 172:-0.079668 173:-0.49754 174:-0.758187 175:-0.711713 176:-0.93899 177:0.709037 178:-0.138501 179:0.313636 180:-0.929407 181:0.96779 182:0.472613 183:-1.0 184:-0.483778 185:-1.0 186:0.797965 187:0.449664 188:0.261497 189:-1.0 190:0.477677 191:0.029461 192:0.484266 193:-0.464667 194:-0.712646 195:0.611145 196:0.090909 197:0.089405 198:-0.868916 199:0.554845 200:-0.030335 201:-0.629949 202:0.09821 203:-0.041453 204:-0.720654 205:-0.403509 206:-0.662459 207:-0.534173 208:-0.711057 209:0.295144 210:0.493757 211:0.405106 212:-0.284106 213:-0.762382 214:-1.0 215:-0.350566 216:-0.863421 217:0.309083 218:-0.993586 219:0.456772 220:-0.915661 221:-0.962638 222:-0.733716 223:0.238095 224:0.038245 225:-0.859668 226:0.99251 227:-0.770553 228:-0.753896 229:-0.539692 230:-0.835721 231:0.414284 232:0.647059 233:0.746908 234:-0.884931 235:0.88535 236:-0.800636 237:0.595681 238:-0.776634 239:-0.842996 240:0.979476 241:-0.017544 242:0.517719 243:-0.853376 244:0.288569 245:-0.831394 246:0.73477 247:-0.828848 248:-0.822888 249:0.930276 250:0.515528 251:0.544568 252:-0.905779 253:-0.414705 254:-0.297756 255:0.325661 256:-0.481001 257:-0.618857 258:-0.88552 259:-0.15 260:-0.720315 261:-0.858513 262:0.075922 263:0.218916 264:1.0 265:-0.545589 266:-0.769493 267:0.531548 268:-0.226667 269:0.171539 270:-0.949628 271:-0.759856 272:-1.0 273:0.968645 274:-1.0 275:-0.924462 276:-0.990268 277:-0.36 278:-0.582636 279:-0.784419 280:-0.166712 281:-0.999139 282:-0.73574 283:-0.871908 284:-0.935275 285:-0.5426 286:-0.566265 287:-0.187921 288:-0.919246 289:0.990458 290:0.026377 291:0.052755 292:-0.750875 293:-0.968603 294:0.97307 295:0.902439 296:0.862891 297:-1.0 298:-0.057103 299:0.108475 300:0.966892 301:-0.638034 302:-0.77862 303:-0.835588 304:-0.314286 305:-0.075198 306:-0.964519 307:0.208226 308:0.491685 309:-0.075477 310:0.245945 311:-0.1247 312:-0.911208 313:0.462121 314:-0.918174 315:-0.873194 316:0.722244 317:0.341248 318:-0.468262 319:-0.472319 320:-0.724736 321:0.971099 322:-0.663158 323:0.645789 324:-0.904734 325:0.836835 326:0.837884 327:0.838926 328:-0.779706 329:-0.709753 330:0.994773 331:-0.529505 332:-0.492696 333:0.307398 334:-0.581559 335:-0.501119 336:-0.968195 337:-0.794559 338:-0.790289 339:-0.358079 340:0.241379 341:0.208634 342:-0.122585 343:0.572654 344:-0.535813 345:0.982687 346:-0.772795 347:-0.751133 348:-0.764783 349:1.0 350:0.579862 351:-0.363296 
56.58799751702602 1:-0.793102 2:-0.797542 3:-0.801908 4:-0.119801 5:-0.024605 6:0.445883 7:-0.398632 8:0.59562 9:-0.005446 10:-0.893061 11:0.872886 12:-0.85761 13:-0.490362 14:-0.888324 15:-0.888503 16:0.253175 17:-0.451102 18:-0.89651 19:0.202083 20:-0.516807 21:-0.096026 22:-0.848481 23:-0.560729 24:0.516281 25:0.433673 26:0.487057 27:-0.533221 28:-0.874467 29:0.270905 30:0.17917 31:0.068551 32:-0.569914 33:0.29691 34:0.132695 35:0.521932 36:-0.75436 37:-0.027199 38:-0.042124 39:1.0 40:-0.286179 41:-0.486536 42:0.031171 43:-0.75188 44:0.074232 45:-1.0 46:0.356315 47:-0.921855 48:-0.823529 49:-0.677205 50:-0.070151 51:0.376725 52:0.242424 53:-0.559084 54:0.676214 55:0.317824 56:-0.017082 57:-0.417228 58:0.148508 59:0.035634 60:-1.0 61:-0.695049 62:-1.0 63:0.194258 64:-0.244553 65:-0.148786 66:-0.872131 67:-0.053032 68:1.0 69:0.559782 70:0.925926 71:0.30755 72:0.541001 73:0.541824 74:0.956595 75:-0.15376 76:0.986888 77:0.915778 78:0.032401 79:-0.144444 80:-0.162697 81:0.02324 82:-0.199272 83:0.227594 84:-0.680265 85:0.447815 86:0.052399 87:0.183005 88:0.726316 89:0.021139 90:-0.799677 91:-0.156852 92:0.158668 93:-0.023185 94:0.195411 95:0.194192 96:-0.018044 97:-0.010811 98:0.342721 99:-0.285948 100:0.13702 101:0.747814 102:0.00583 103:0.607769 104:0.021611 105:0.17509 106:1.0 107:0.310619 108:-0.945609 109:-0.629719 110:-0.182539 111:-0.079605 112:-0.04263 113:0.035955 114:-0.882707 115:0.342466 116:-0.508929 117:-0.274964 118:0.616068 119:0.248834 120:0.582651 121:-0.402357 122:-0.587635 123:0.264004 124:-0.760599 125:-0.253882 126:-0.797388 127:-0.382894 128:-0.587448 129:0.224583 130:-0.795583 131:-0.921435 132:-0.975303 133:0.269841 134:-0.808582 135:-0.92653 136:-0.047088 137:0.083164 138:0.679917 139:-0.230115 140:-0.807623 141:-0.947694 142:-0.008798 143:-1.0 144:-0.857956 145:-0.930062 146:1.0 147:-0.152639 148:0.369758 149:-0.339233 150:0.147115 151:-0.276353 152:0.140589 153:-1.0 154:-0.347347 155:-0.526049 156:-0.19082 157:-0.490916 158:-0.538284 159:-0.182736 160:0.375 161:0.096827 162:-0.644363 163:-0.199686 164:-0.821766 165:-0.554479 166:-0.695299 167:-0.771654 168:0.192026 169:0.779816 170:0.180324 171:-0.64254 172:-0.229314 173:0.207197 174:-0.853607 175:-0.490459 176:-0.799231 177:0.701009 178:-0.260483 179:0.284663 180:-0.934108 181:-0.994437 182:-0.502481 183:0.825673 184:-0.405777 185:-0.811967 186:0.789839 187:-0.197987 188:0.244058 189:-0.912438 190:0.157948 191:0.148705 192:-0.250025 193:-0.266325 194:-0.617408 195:0.589448 196:0.050505 197:-0.006344 198:-0.902603 199:0.007457 200:0.018042 201:-0.483196 202:-0.016921 203:-0.357395 204:-0.410388 205:0.368421 206:-0.384232 207:-0.780679 208:-1.0 209:0.178415 210:1.0 211:0.135122 212:-0.341077 213:-0.739429 214:-0.698529 215:-0.347011 216:-0.727829 217:-1.0 218:-0.332069 219:0.548341 220:-0.274255 221:-0.385506 222:-0.804544 223:0.047619 224:-0.532328 225:-0.499504 226:-0.208808 227:0.216922 228:-1.0 229:-0.252372 230:-0.591401 231:0.473855 232:0.882353 233:0.844851 234:-0.948906 235:0.747534 236:-0.58182 237:0.054846 238:-0.728777 239:-0.723603 240:0.987744 241:-0.614035 242:0.851688 243:-0.854053 244:0.807824 245:-0.169924 246:0.724782 247:-0.635448 248:-0.762141 249:0.937143 250:-0.080745 251:0.631153 252:-0.931636 253:-0.673955 254:0.131972 255:0.218024 256:-0.322271 257:-0.661584 258:-0.869761 259:-0.175 260:-0.667915 261:-0.989258 262:0.277109 263:-0.230947 264:0.917677 265:-0.745299 266:-0.882393 267:0.529177 268:-0.866667 269:0.152813 270:-0.938501 271:-0.353819 272:-0.049062 273:0.975253 274:-0.761044 275:-0.847047 276:-0.989017 277:-0.92 278:-0.66809 279:-0.917792 280:-0.162198 281:-0.211438 282:-0.672822 283:-0.746442 284:-0.79535 285:-0.542625 286:-0.060241 287:-0.188914 288:-0.903972 289:0.428271 290:-0.344668 291:-0.055021 292:-0.620705 293:-0.798982 294:0.965031 295:0.707317 296:0.747119 297:-0.879198 298:-0.363159 299:-0.113972 300:0.822978 301:-0.74047 302:-0.811463 303:-0.83089 304:-0.064286 305:0.022324 306:-0.926365 307:-0.221235 308:0.617019 309:-0.769716 310:0.236571 311:-0.253612 312:-0.766501 313:0.212121 314:-0.661098 315:-0.939446 316:0.356322 317:0.258108 318:0.193317 319:-0.47047 320:-0.771231 321:0.976714 322:-0.270175 323:0.720705 324:-0.968135 325:0.661298 326:0.660761 327:0.660133 328:-0.457471 329:-0.430913 330:0.949526 331:-0.79036 332:-0.663322 333:0.316 334:-0.534761 335:-0.246603 336:-0.981035 337:-0.496077 338:-0.475579 339:-0.335368 340:0.301724 341:0.460536 342:0.615591 343:0.992144 344:-0.397721 345:0.959338 346:-0.535455 347:-0.453051 348:-0.739394 349:-0.014925 350:0.807699 351:0.127184 
31.392064849058958 1:-0.106964 2:-0.110138 3:-0.113182 4:0.409013 5:0.169819 6:0.668145 7:-0.583396 8:0.096419 9:-0.741715 10:0.21219 11:-0.184922 12:0.1979 13:0.104249 14:-0.045278 15:-0.302523 16:-0.713732 17:0.527185 18:0.161783 19:0.033765 20:-0.29312 21:-0.059545 22:-0.214095 23:-0.046553 24:0.532093 25:-0.163265 26:0.347232 27:-0.70378 28:-0.421573 29:0.282328 30:0.102752 31:0.14388 32:0.308346 33:0.284613 34:0.448102 35:0.488283 36:0.022695 37:-0.955871 38:1.0 39:-0.383429 40:1.0 41:0.604849 42:-0.21971 43:-0.383459 44:-0.115027 45:-0.330353 46:-0.382048 47:0.116757 48:-0.839998 49:-0.977974 50:-0.288492 51:0.924379 52:0.893939 53:0.913879 54:-0.057726 55:0.359782 56:1.0 57:-0.479951 58:0.856173 59:-0.180274 60:0.236674 61:-0.045545 62:0.156462 63:-0.92282 64:-0.918424 65:0.025725 66:-0.866684 67:-0.034307 68:-0.744112 69:0.168429 70:-0.814815 71:-0.138532 72:-1.0 73:-0.79787 74:0.826893 75:0.384249 76:0.559179 77:-0.007855 78:-0.6251 79:0.688889 80:-0.609961 81:-1.0 82:-0.580042 83:1.0 84:-1.0 85:0.371488 86:-0.357221 87:0.429331 88:1.0 89:0.217366 90:-0.847342 91:-0.012334 92:-0.127032 93:0.14911 94:-0.050411 95:-0.438191 96:-0.290358 97:-0.762162 98:0.040807 99:-0.422317 100:-0.029115 101:-0.862699 102:-0.00287 103:-1.0 104:-1.0 105:0.005092 106:-1.0 107:0.354684 108:-0.570211 109:-0.040085 110:0.070706 111:0.252343 112:0.225965 113:0.235414 114:-0.781586 115:-0.575342 116:-0.22359 117:-0.583833 118:-0.074588 119:-0.056139 120:0.6241 121:-0.221382 122:-0.18309 123:0.276826 124:0.955112 125:-0.106493 126:-0.539796 127:-0.3613 128:0.745111 129:-1.0 130:-0.311636 131:-0.73024 132:-0.983057 133:-0.396825 134:-0.798762 135:-1.0 136:-0.272879 137:-0.555536 138:0.424955 139:-0.432652 140:-0.512653 141:-0.877466 142:-0.079179 143:-0.952027 144:-0.424195 145:-0.639238 146:0.295959 147:-0.279679 148:1.0 149:0.443596 150:-0.264995 151:-0.094017 152:-0.14574 153:-0.307481 154:0.322124 155:-0.879755 156:-0.525575 157:-1.0 158:-0.863506 159:-0.18378 160:-0.25 161:0.139701 162:-0.755372 163:-0.05917 164:0.257881 165:-0.251809 166:-0.22538 167:-0.565124 168:-0.375922 169:-0.541284 170:-0.432619 171:-0.80687 172:-0.063067 173:-1.0 174:-0.700186 175:-0.544636 176:-0.85984 177:0.705611 178:-0.057179 179:0.30038 180:-0.884741 181:0.069078 182:0.24221 183:0.829018 184:-0.120347 185:-0.392684 186:0.888508 187:0.449664 188:0.449899 189:-0.774422 190:0.092851 191:1.0 192:0.390324 193:-0.020352 194:-0.697732 195:0.570023 196:0.616162 197:-0.042416 198:-1.0 199:0.190829 200:-0.458269 201:-0.61507 202:-0.260517 203:-0.468111 204:-0.096028 205:0.263158 206:-0.015651 207:-0.573937 208:0.2228 209:-0.851336 210:0.420243 211:-1.0 212:-1.0 213:-0.7333 214:-0.588235 215:-0.62505 216:-0.849265 217:0.008084 218:-0.077914 219:0.395716 220:-0.295093 221:-0.659149 222:-0.757327 223:0.333333 224:-0.260995 225:-0.923128 226:-0.224051 227:-0.529953 228:-0.745662 229:-0.375806 230:-0.523514 231:0.075378 232:0.529412 233:-0.361022 234:-0.627546 235:0.754723 236:1.0 237:-0.027265 238:-0.404964 239:-0.710475 240:0.983571 241:-0.017544 242:0.777109 243:-0.983451 244:0.673075 245:-0.516674 246:0.743101 247:-0.752044 248:-0.807559 249:0.929243 250:1.0 251:0.524027 252:-0.915242 253:-0.141824 254:1.0 255:0.164831 256:0.008334 257:-0.576154 258:-1.0 259:-0.25 260:-0.978317 261:-0.980499 262:0.22392 263:-1.0 264:-1.0 265:-1.0 266:-0.995627 267:0.52895 268:-0.553333 269:0.155565 270:-0.952948 271:-0.715041 272:0.446119 273:-1.0 274:-0.656792 275:-0.768547 276:-0.987567 277:0.32 278:-0.671427 279:-0.943425 280:-0.27023 281:-0.271781 282:-0.687401 283:-0.829511 284:-1.0 285:-0.542707 286:1.0 287:-0.191121 288:-1.0 289:0.647969 290:-0.117728 291:-0.035385 292:-0.48673 293:-0.610188 294:0.963261 295:-0.126524 296:0.723735 297:-0.781805 298:-0.193795 299:0.453511 300:0.879839 301:-0.485989 302:-0.728445 303:-0.842592 304:0.085714 305:-0.139079 306:-0.980241 307:-0.391978 308:0.112772 309:-0.012719 310:-0.153567 311:-0.600342 312:-0.895157 313:0.454546 314:-0.98278 315:-0.961498 316:0.4497 317:-1.0 318:-0.408254 319:-1.0 320:-1.0 321:0.9888 322:-0.214035 323:0.792791 324:-0.925014 325:0.173035 326:0.170899 327:0.168599 328:-0.081444 329:-0.210275 330:0.877687 331:-0.518111 332:0.016631 333:-0.49826 334:-0.615127 335:0.348031 336:-0.984491 337:-0.340874 338:-0.419302 339:-0.299382 340:-0.412716 341:0.574552 342:0.024152 343:0.712398 344:0.248989 345:0.960058 346:-0.432628 347:-0.406798 348:-0.731556 349:0.044776 350:0.679399 351:-0.371474 
34.411817479820996 1:-0.401286 2:-0.398476 3:-0.395538 4:-0.345241 5:-0.221643 6:-0.261419 7:-0.352973 8:0.226896 9:-0.457273 10:-0.677576 11:0.704374 12:-0.726952 13:-0.759529 14:-0.938387 15:-0.913029 16:-0.657679 17:-0.587022 18:-0.778779 19:0.279051 20:-0.018511 21:-0.163301 22:-0.709156 23:-0.707386 24:0.44824 25:-0.27551 26:0.235128 27:-0.84415 28:-0.242123 29:0.274826 30:0.023869 31:-0.697904 32:-0.572721 33:0.137845 34:0.378933 35:0.424532 36:-0.264946 37:0.335593 38:-1.0 39:-0.714276 40:-0.608984 41:-0.099857 42:0.029901 43:0.492481 44:0.093033 45:0.214677 46:1.0 47:-0.390838 48:-0.809364 49:-0.383485 50:-0.225343 51:0.579931 52:0.181818 53:0.093251 54:-0.465819 55:0.05884 56:0.044252 57:-0.730802 58:0.363385 59:0.212181 60:-0.697847 61:0.081188 62:-0.60453 63:-0.26861 64:-0.33175 65:-0.195076 66:-0.866326 67:0.436275 68:-0.06592 69:0.604219 70:0.777778 71:0.284889 72:-0.629678 73:-0.617803 74:-0.73339 75:0.096159 76:-1.0 77:-1.0 78:0.011871 79:1.0 80:0.036789 81:-0.789029 82:0.26351 83:-0.275668 84:-0.579235 85:-0.050301 86:-0.253053 87:-0.585061 88:0.010526 89:-0.830807 90:-0.185082 91:0.197268 92:-0.210016 93:-0.167925 94:-0.601021 95:-0.750048 96:-0.510282 97:-0.178378 98:-0.349433 99:-0.434706 100:-0.443683 101:-0.422473 102:0.021011 103:-0.380877 104:0.056893 105:-0.154859 106:-1.0 107:0.06053 108:0.285786 109:-0.494874 110:-0.757721 111:0.043228 112:-0.407091 113:-0.348356 114:-0.916191 115:-0.410959 116:-1.0 117:0.043795 118:0.669177 119:-0.015727 120:0.649402 121:-0.794607 122:-0.91006 123:0.376651 124:-0.281796 125:0.143664 126:-0.953309 127:-0.615382 128:-0.402022 129:0.266216 130:-0.788736 131:-0.953628 132:-0.971253 133:1.0 134:-0.723082 135:-0.973409 136:-0.111967 137:-0.79638 138:0.546054 139:-0.893741 140:-1.0 141:-0.695876 142:0.343109 143:-0.321824 144:-0.852104 145:-0.064886 146:-0.361921 147:-1.0 148:-0.308479 149:-0.423507 150:-0.211743 151:0.065527 152:-0.281024 153:-0.445529 154:0.260797 155:0.028778 156:-0.084362 157:-0.574349 158:-0.899735 159:-0.255841 160:1.0 161:-0.159749 162:-0.947527 163:0.182387 164:0.564484 165:-0.422349 166:-0.297548 167:-0.70415 168:-0.093552 169:0.045872 170:-0.242852 171:-0.988097 172:0.080218 173:-0.115758 174:-0.686911 175:-0.33201 176:-0.672741 177:0.558558 178:1.0 179:-0.129935 180:-0.804324 181:0.260577 182:0.182887 183:0.854491 184:-0.681257 185:-0.992979 186:0.786201 187:0.879195 188:0.206278 189:-0.939043 190:0.165951 191:0.398784 192:0.346182 193:-0.090977 194:-0.496187 195:0.595502 196:0.131313 197:0.014739 198:-0.890181 199:-0.068997 200:-0.604665 201:-0.614769 202:-0.602895 203:-0.696499 204:0.296104 205:0.122807 206:0.835943 207:0.207982 208:-0.01662 209:-0.659768 210:0.413001 211:-0.543031 212:-0.646508 213:-0.471552 214:0.095588 215:0.378873 216:-0.381013 217:-0.514232 218:-0.453863 219:0.967899 220:-0.525424 221:-0.526084 222:-0.733793 223:0.285714 224:-0.09927 225:-0.419046 226:-0.578302 227:-0.614327 228:-0.760417 229:-0.649806 230:-0.842652 231:0.449269 232:0.764706 233:0.990489 234:-0.837225 235:0.751952 236:-0.691577 237:0.207432 238:-0.887216 239:-0.929391 240:0.984591 241:0.04386 242:0.674159 243:-0.964641 244:0.477705 245:-0.812141 246:0.698406 247:-0.996269 248:-1.0 249:0.931112 250:-0.478261 251:0.588232 252:-0.974281 253:-0.677542 254:-0.219116 255:0.254296 256:-0.596937 257:-0.658733 258:-0.921535 259:0.0 260:-0.924165 261:-0.843833 262:0.104375 263:0.108236 264:-0.194065 265:-0.72911 266:-0.84348 267:0.529773 268:-0.546667 269:0.161733 270:-0.969566 271:-0.563953 272:0.190836 273:0.974117 274:-0.696025 275:-0.896856 276:-0.995664 277:-0.44 278:-0.826572 279:-0.997092 280:0.011485 281:-0.181768 282:-0.713822 283:-0.495698 284:-0.644463 285:-0.543197 286:0.614458 287:-0.194679 288:-0.924653 289:0.708858 290:-0.051431 291:0.251075 292:-0.738836 293:-0.958804 294:0.957439 295:1.0 296:0.669845 297:-0.998024 298:-0.375044 299:0.471349 300:0.980062 301:-0.484629 302:-0.68031 303:-0.834967 304:0.2 305:-0.074636 306:-0.957391 307:-0.302996 308:-0.583972 309:-0.235214 310:-0.498351 311:-0.461389 312:-0.751029 313:0.575758 314:-0.488829 315:-0.747394 316:0.669872 317:-0.483684 318:-0.35418 319:-0.767271 320:-0.814037 321:0.990202 322:0.403509 323:0.908334 324:-0.894075 325:0.617459 326:0.62015 327:0.622789 328:-0.647458 329:-0.664189 330:0.990774 331:-0.759055 332:0.106805 333:-0.506948 334:-0.571964 335:-0.318259 336:-0.977102 337:-0.741492 338:-0.774791 339:-0.347452 340:-0.896552 341:0.995254 342:0.579253 343:0.798489 344:-0.415 345:0.963671 346:-0.745787 347:-0.708374 348:-0.763874 349:-0.19403 350:0.576764 351:-0.351764 
19.03372133889053 1:-0.642901 2:-0.650165 3:-0.657675 4:0.217593 5:1.0 6:-0.906028 7:-0.269865 8:-0.477708 9:-0.255978 10:-0.112068 11:-0.052149 12:0.28836 13:0.857706 14:0.36525 15:0.745321 16:-0.740006 17:0.730089 18:0.071525 19:0.566635 20:-0.12719 21:-0.02879 22:0.543745 23:1.0 24:0.124587 25:0.058673 26:-0.072282 27:-0.519 28:0.526322 29:-0.362624 30:0.056673 31:0.371258 32:0.539768 33:-1.0 34:0.083447 35:-1.0 36:0.782797 37:0.513954 38:0.031772 39:-0.220211 40:-0.569411 41:-0.831474 42:-0.055651 43:-0.458647 44:-0.046911 45:-0.85784 46:0.881121 47:0.041216 48:-0.813103 49:0.432634 50:0.256202 51:0.651243 52:0.045455 53:0.395505 54:-0.887175 55:0.709248 56:0.498821 57:-0.351546 58:0.909422 59:1.0 60:0.095705 61:-0.013861 62:0.045338 63:0.41212 64:0.292815 65:-0.330029 66:-0.880091 67:-0.826439 68:-0.629087 69:-0.06176 70:0.283951 71:-0.588278 72:-0.334224 73:0.035834 74:0.485584 75:0.498991 76:0.19318 77:-0.118667 78:0.716386 79:-0.066667 80:0.491021 81:-0.492844 82:0.195325 83:0.066281 84:-0.749293 85:-0.333829 86:-0.499588 87:0.2573 88:-0.178947 89:0.134752 90:-0.812218 91:0.6399 92:-0.58495 93:0.012889 94:-0.098235 95:0.408427 96:-0.067952 97:-0.535135 98:0.326841 99:0.093925 100:-0.0725 101:-0.643759 102:0.017215 103:-0.407546 104:-0.468598 105:-0.696451 106:0.529412 107:-0.649926 108:0.214555 109:1.0 110:-0.113307 111:-1.0 112:1.0 113:1.0 114:1.0 115:-0.191781 116:1.0 117:1.0 118:-1.0 119:-0.411157 120:0.597803 121:0.718349 122:0.785499 123:-1.0 124:-0.522444 125:-0.834529 126:0.002655 127:-0.52332 128:1.0 129:0.879094 130:-0.05385 131:-0.264949 132:-0.995086 133:0.269841 134:-0.815947 135:-0.850738 136:-0.908054 137:-0.078424 138:0.428448 139:0.031304 140:-0.541236 141:-0.617626 142:-0.14956 143:-0.182405 144:-0.740406 145:-1.0 146:0.102071 147:-0.359162 148:0.165488 149:-0.420462 150:-1.0 151:0.407407 152:-1.0 153:-0.487416 154:0.479737 155:0.785234 156:-0.171051 157:0.558819 158:-0.395695 159:-0.173468 160:-1.0 161:0.074395 162:-0.891075 163:-0.258006 164:0.910793 165:-0.705297 166:1.0 167:1.0 168:-0.186917 169:0.337156 170:-0.278876 171:1.0 172:-0.637773 173:0.022893 174:-0.503727 175:1.0 176:1.0 177:-1.0 178:-0.382465 179:-1.0 180:1.0 181:0.007026 182:-0.287051 183:0.82683 184:0.303334 185:-0.137009 186:1.0 187:-0.47651 188:0.543591 189:-0.664286 190:-0.40596 191:-0.402369 192:0.147058 193:-0.423135 194:-0.419548 195:0.533979 196:0.757576 197:-0.264054 198:-0.531417 199:0.500186 200:-0.692782 201:-0.637688 202:0.120922 203:-0.138852 204:1.0 205:-0.45614 206:1.0 207:0.156845 208:1.0 209:-0.192581 210:0.429938 211:0.499415 212:0.153996 213:1.0 214:1.0 215:1.0 216:0.47028 217:0.250778 218:-0.30544 219:0.630154 220:1.0 221:1.0 222:1.0 223:-0.714286 224:1.0 225:1.0 226:1.0 227:0.130617 228:-0.74545 229:0.74353 230:1.0 231:1.0 232:0.588235 233:0.980833 234:-0.16956 235:0.215013 236:0.57552 237:0.571427 238:5.37E-4 239:0.025471 240:0.771105 241:1.0 242:-0.121299 243:-0.090737 244:-0.066166 245:0.304736 246:0.83443 247:-0.084754 248:-0.133964 249:0.747476 250:0.52795 251:-0.142098 252:-0.354592 253:-0.535331 254:0.596058 255:0.258072 256:-0.229899 257:-0.659886 258:-0.921519 259:0.6 260:-0.83666 261:-0.99446 262:0.177171 263:0.588849 264:0.645563 265:-0.292626 266:-0.418419 267:0.54988 268:-0.386667 269:0.254998 270:-0.83317 271:1.0 272:1.0 273:0.980255 274:1.0 275:1.0 276:1.0 277:1.0 278:1.0 279:1.0 280:1.0 281:-0.284109 282:-0.761857 283:1.0 284:1.0 285:1.0 286:-1.0 287:1.0 288:1.0 289:-1.0 290:0.570915 291:0.145555 292:0.407354 293:0.157738 294:-0.010714 295:-1.0 296:-0.938382 297:0.50066 298:-0.364094 299:-0.407621 300:0.837821 301:-0.583578 302:-0.567223 303:-0.850031 304:-0.6 305:-0.241274 306:-0.740841 307:-0.039479 308:-0.539399 309:-0.117594 310:0.081755 311:-0.076878 312:-0.365387 313:-0.348485 314:0.203084 315:-0.274136 316:-0.576088 317:0.025889 318:-0.328699 319:-0.518294 320:-0.776197 321:0.974022 322:-1.0 323:0.654579 324:-0.938139 325:-0.247486 326:-0.270731 327:-0.295621 328:0.626252 329:0.727004 330:0.138988 331:-0.670125 332:-0.399641 333:0.067824 334:1.0 335:0.346917 336:-0.966293 337:0.681599 338:0.163709 339:1.0 340:-0.103448 341:1.0 342:0.265395 343:-1.0 344:0.414895 345:1.0 346:0.236245 347:0.374558 348:-1.0 349:-1.0 350:-0.163821 351:-0.068948 
41.815138549517414 1:-0.677536 2:-0.677273 3:-0.676875 4:-0.429223 5:-0.051377 6:0.122102 7:0.440918 8:1.0 9:0.912628 10:-0.668801 11:0.683158 12:-0.692434 13:-0.615735 14:-0.622941 15:-0.803656 16:-0.199249 17:-0.004969 18:-0.391935 19:0.304042 20:-0.137206 21:-0.130738 22:-0.280116 23:-0.258968 24:0.732804 25:0.163265 26:0.715856 27:-0.606572 28:-0.6731 29:0.692415 30:0.010359 31:-0.792597 32:-0.450665 33:0.353918 34:-1.0 35:0.981148 36:0.109488 37:-0.160911 38:-0.401487 39:-0.328632 40:-0.937494 41:-0.541105 42:-0.100068 43:-0.849624 44:-0.157522 45:-0.166065 46:-1.0 47:-0.452244 48:-0.83091 49:-0.607669 50:-0.307595 51:0.517433 52:1.0 53:-0.154809 54:-0.123726 55:-0.187959 56:-0.992133 57:-0.384056 58:0.027926 59:-0.14686 60:-0.06036 61:-0.172277 62:0.093092 63:0.015943 64:0.105892 65:-0.225754 66:-0.860541 67:-0.393695 68:-0.723551 69:-0.034681 70:0.654321 71:-0.436342 72:-0.573324 73:0.086195 74:0.276201 75:0.358478 76:0.409701 77:0.850282 78:-0.698517 79:-0.644444 80:-0.694404 81:0.758647 82:0.470638 83:0.325716 84:-0.602214 85:0.294633 86:0.291942 87:-1.0 88:-0.719737 89:-0.974969 90:0.42458 91:0.461338 92:0.112834 93:0.148167 94:1.0 95:1.0 96:1.0 97:-0.264865 98:1.0 99:0.418468 100:0.825623 101:0.411908 102:1.0 103:0.817819 104:0.246807 105:0.004319 106:0.294118 107:0.194765 108:-0.983637 109:-0.539062 110:-0.439837 111:1.0 112:-0.098397 113:0.195253 114:-0.826198 115:-0.59589 116:-0.334971 117:0.206027 118:0.538654 119:-0.03744 120:0.590143 121:-0.689351 122:-0.760597 123:0.344319 124:0.256858 125:-0.065647 126:-0.835551 127:-0.376698 128:0.020809 129:0.204434 130:-0.454557 131:-0.730298 132:-0.941787 133:-0.507937 134:-0.477458 135:-0.922968 136:-0.322346 137:-0.783094 138:0.534516 139:-0.787621 140:-0.846359 141:-0.64803 142:-0.102639 143:-0.05289 144:-0.745119 145:-0.685174 146:-0.047659 147:0.300422 148:-0.294247 149:-0.448894 150:-0.07915 151:-1.0 152:-0.065974 153:-0.560595 154:0.444361 155:-0.626676 156:-0.380902 157:-0.708805 158:-0.740935 159:-0.232316 160:0.25 161:-0.098233 162:-0.768175 163:0.040753 164:-0.404589 165:-0.717391 166:-0.518036 167:-0.609203 168:1.0 169:0.266055 170:0.896587 171:-0.376395 172:0.114057 173:-0.642894 174:-0.626088 175:-0.580991 176:-0.847241 177:0.706599 178:0.186785 179:0.303717 180:-0.847349 181:0.870653 182:0.111344 183:0.839731 184:0.120445 185:-0.358354 186:0.921327 187:-0.838926 188:0.468784 189:-0.845289 190:-0.37629 191:0.751992 192:0.414038 193:0.019184 194:-0.326897 195:0.557057 196:0.161616 197:-0.066445 198:-0.816674 199:-0.680353 200:-0.238545 201:-0.623161 202:0.959349 203:1.0 204:0.70495 205:0.684211 206:0.295547 207:0.647219 208:-0.350397 209:0.701353 210:0.643268 211:0.463659 212:-0.310297 213:-1.0 214:-0.558824 215:-0.535085 216:-0.818376 217:-0.166525 218:-0.545183 219:0.623702 220:-0.256792 221:-0.393371 222:-0.819896 223:-0.404762 224:-0.60149 225:-0.276891 226:0.240999 227:-0.439006 228:-0.764954 229:-0.598076 230:-0.874453 231:0.353476 232:0.647059 233:0.443544 234:-0.910028 235:0.619214 236:-0.344561 237:0.624798 238:-0.490842 239:-0.69038 240:0.987283 241:-0.552632 242:0.821873 243:-0.92902 244:0.611063 245:-0.867607 246:0.681331 247:-0.963487 248:-0.971971 249:0.929736 250:0.217391 251:0.527551 252:-0.935865 253:-0.359035 254:0.308077 255:0.286548 256:-0.435338 257:-0.685107 258:-0.936019 259:-0.075 260:-0.938937 261:-0.925151 262:0.369414 263:-0.46764 264:0.382839 265:-0.885597 266:-0.931161 267:0.53383 268:-0.6 269:0.279463 270:-0.931143 271:-0.726437 272:-0.522007 273:0.993455 274:-0.822272 275:-0.826209 276:-0.991706 277:-0.7 278:-0.729861 279:-0.880075 280:-0.196303 281:-0.528653 282:-0.70787 283:-0.729775 284:-0.741704 285:-0.536848 286:-0.39759 287:-0.074946 288:-0.846927 289:0.104888 290:1.0 291:0.098037 292:-0.227292 293:-0.74665 294:0.955226 295:0.219512 296:0.681029 297:-0.995947 298:-0.230414 299:0.278124 300:0.82541 301:-0.483435 302:-0.695593 303:-0.833271 304:0.457143 305:-0.060446 306:-0.967879 307:-0.154547 308:0.583861 309:-0.458916 310:0.9313 311:0.681442 312:-0.597544 313:-0.363636 314:-0.539161 315:-0.564497 316:0.730624 317:0.689238 318:-0.510175 319:-0.252765 320:-0.634963 321:0.991868 322:-0.410526 323:0.907231 324:-0.951512 325:0.748504 326:0.748172 327:0.747788 328:-0.548009 329:-0.448713 330:0.962808 331:-0.617648 332:-0.956588 333:0.841427 334:-0.519429 335:-0.311882 336:-0.974042 337:-0.454319 338:-0.458932 339:-0.348418 340:0.25431 341:0.199781 342:0.43469 343:0.800655 344:-0.462805 345:0.974438 346:-0.419261 347:-0.385658 348:-0.704458 349:-0.19403 350:0.973208 351:0.102336 
48.321276547281705 1:-0.06126 2:-0.060919 3:-0.060317 4:0.218101 5:0.313492 6:1.0 7:-0.336799 8:0.414455 9:-0.363536 10:0.432611 11:-0.403802 12:0.41224 13:0.277238 14:-0.211371 15:-0.192866 16:-0.440475 17:0.483077 18:-0.312364 19:0.256134 20:0.373468 21:-0.657059 22:-0.26658 23:-0.407212 24:0.572818 25:0.377551 26:0.428352 27:-1.0 28:-0.314934 29:-0.237698 30:0.119688 31:-0.795414 32:-1.0 33:0.036717 34:-0.589603 35:0.195805 36:-0.341075 37:0.151052 38:0.188381 39:-0.229441 40:0.548027 41:0.275181 42:-0.456822 43:-0.007519 44:-0.327175 45:-0.56101 46:-0.674457 47:-0.190183 48:-0.849249 49:0.925667 50:1.0 51:-1.0 52:-0.265152 53:-1.0 54:1.0 55:-0.658012 56:0.312042 57:-0.508177 58:0.60762 59:0.102126 60:-0.067311 61:0.112871 62:-0.028118 63:-0.642625 64:-0.407602 65:-0.011469 66:-0.867386 67:0.982574 68:-0.089484 69:-1.0 70:0.234568 71:-0.9431 72:-0.461989 73:-1.0 74:0.473095 75:-1.0 76:1.0 77:1.0 78:0.718306 79:-0.022222 80:0.233456 81:0.153114 82:0.390652 83:0.176421 84:-0.716526 85:0.025845 86:-0.280305 87:0.610724 88:0.061842 89:0.471361 90:-0.748064 91:-0.309027 92:0.603492 93:-0.050789 94:0.54127 95:-0.21345 96:-0.898403 97:-0.416216 98:-0.511261 99:-0.680977 100:-0.621623 101:0.294502 102:-0.110079 103:-0.211968 104:-0.432724 105:0.673376 106:-0.235294 107:1.0 108:-0.354527 109:-0.266353 110:0.60768 111:-0.450245 112:0.644675 113:0.281487 114:-0.956536 115:-0.520548 116:-0.441529 117:-0.686007 118:0.20536 119:-0.041988 120:0.854886 121:0.024674 122:-0.221122 123:0.534772 124:0.376559 125:0.431228 126:-0.595308 127:-0.297891 128:0.287388 129:0.432764 130:-0.442629 131:-0.73778 132:-0.957705 133:-0.619048 134:-0.614719 135:-0.976739 136:-0.26306 137:-0.968766 138:0.464269 139:-1.0 140:-0.958064 141:-0.674657 142:-0.032258 143:-0.146503 144:-0.681754 145:-0.6271 146:0.667969 147:-0.622926 148:0.34318 149:-0.057469 150:-0.65599 151:0.042735 152:-0.560162 153:-0.516749 154:-0.232181 155:-0.005824 156:-0.121294 157:0.214244 158:-0.521483 159:-0.077223 160:-1.0 161:0.232348 162:-0.887483 163:-0.457603 164:0.316032 165:-0.5305 166:-0.382792 167:-0.759882 168:0.599118 169:0.045872 170:0.33866 171:-1.0 172:0.408336 173:1.0 174:-0.539033 175:0.253637 176:-0.358114 177:0.346647 178:-0.66709 179:-0.23502 180:-0.746931 181:-0.157193 182:0.089914 183:0.844023 184:0.32192 185:-0.451586 186:0.906405 187:0.020134 188:0.422329 189:-0.884525 190:-0.08981 191:0.606199 192:0.081087 193:-0.185657 194:-0.530459 195:0.616663 196:0.090909 197:0.07655 198:-0.855436 199:0.265439 200:1.0 201:-0.708805 202:0.879099 203:0.62316 204:-0.012003 205:0.421053 206:-0.046292 207:-1.0 208:-0.330802 209:-0.123454 210:-1.0 211:-0.360993 212:-0.67587 213:-0.725843 214:-0.117647 215:-0.373256 216:-0.888152 217:-0.36108 218:-0.335308 219:0.491702 220:0.254998 221:-0.280644 222:-1.0 223:0.083333 224:-0.640343 225:-0.631262 226:0.896501 227:0.088224 228:-0.776479 229:-0.052851 230:-0.342117 231:-0.148283 232:-0.058824 233:-0.29017 234:-0.651915 235:1.0 236:-0.081669 237:0.823354 238:-0.57855 239:-0.678657 240:0.996246 241:0.133772 242:1.0 243:-0.884028 244:0.590997 245:-0.944231 246:0.673244 247:-1.0 248:-0.976416 249:0.928103 250:0.900621 251:0.450769 252:-0.934629 253:-0.235834 254:0.90457 255:0.424113 256:-0.118146 257:-0.442331 258:-0.851344 259:0.3 260:-0.638326 261:-0.921154 262:-0.044273 263:0.620422 264:0.654693 265:-0.490855 266:-0.720248 267:0.540654 268:-0.33 269:0.242373 270:-0.971113 271:-0.674359 272:0.093267 273:0.973595 274:-0.620381 275:-0.88372 276:-1.0 277:-0.12 278:-0.885465 279:-1.0 280:0.045197 281:0.92018 282:-0.48273 283:-0.436154 284:-0.66389 285:-0.53225 286:0.807229 287:-0.102192 288:-0.946086 289:0.619469 290:0.917262 291:0.476673 292:-0.374839 293:-0.734961 294:0.9516 295:-0.304878 296:0.654557 297:-0.965051 298:-0.407117 299:-0.195888 300:0.819713 301:-0.532142 302:-0.587944 303:-0.822963 304:-0.571429 305:0.043596 306:-0.841758 307:-0.375865 308:0.600425 309:-0.133155 310:0.955337 311:0.198226 312:-1.0 313:-0.515151 314:-0.906083 315:-0.865708 316:0.530034 317:0.164611 318:-0.430291 319:-0.571354 320:-0.77831 321:0.992764 322:0.340351 323:0.945242 324:-0.960821 325:0.011192 326:-0.007508 327:-0.027578 328:0.447049 329:0.641921 330:0.290064 331:-0.645866 332:-0.609134 333:0.426397 334:-0.597942 335:1.0 336:-0.975384 337:0.535823 338:0.544564 339:0.227338 340:-0.008621 341:0.575788 342:0.595676 343:0.709935 344:1.0 345:0.984171 346:0.612029 347:0.828188 348:0.144087 349:-0.134328 350:0.938556 351:0.24688 
-19.30951279544471 1:-0.518075 2:-0.516222 3:-0.51426 4:-0.393425 5:-0.232734 6:-0.193046 7:1.0 8:0.404103 9:-0.276725 10:-1.0 11:1.0 12:-1.0 13:-1.0 14:-0.999176 15:-0.917797 16:-0.194683 17:-0.703976 18:-0.487632 19:0.005085 20:0.008283 21:-0.030833 22:-0.22111 23:0.030748 24:0.707584 25:-0.306122 26:0.640786 27:-0.71034 28:-0.208869 29:0.172362 30:-0.077891 31:-0.26048 32:-0.66575 33:0.314587 34:0.886457 35:0.644412 36:-0.697356 37:0.336608 38:-0.438547 39:-0.260888 40:-0.165772 41:-0.017216 42:-0.862613 43:-0.383459 44:-1.0 45:0.381748 46:-0.770663 47:0.008343 48:-0.795725 49:-0.348279 50:-0.391449 51:0.867779 52:0.151515 53:0.679399 54:-0.862397 55:-0.514051 56:-0.508155 57:-0.479091 58:-0.684302 59:-0.670692 60:-0.475543 61:0.809901 62:-0.533964 63:-0.085069 64:-0.494066 65:-0.001693 66:-0.86946 67:-0.06917 68:0.772771 69:-0.106461 70:0.135802 71:-0.45716 72:0.532534 73:0.277732 74:-0.279738 75:0.238909 76:0.21859 77:0.555681 78:-1.0 79:-0.466667 80:-1.0 81:0.874176 82:0.391467 83:0.277242 84:-0.969194 85:-0.398857 86:-0.73447 87:0.147008 88:0.052632 89:-0.025415 90:-0.986659 91:0.57432 92:-0.171664 93:-0.042832 94:0.006527 95:0.232814 96:-0.203974 97:-0.048649 98:0.146582 99:0.023521 100:0.060133 101:-0.791703 102:-0.004715 103:-0.579827 104:-0.441323 105:0.101495 106:0.511029 107:0.432904 108:-0.251661 109:-0.492922 110:-0.497945 111:0.108467 112:-0.071611 113:-0.112978 114:-0.883658 115:-0.561644 116:-0.52475 117:-0.452433 118:0.192937 119:-0.763755 120:0.694536 121:-0.722071 122:-0.246148 123:0.215039 124:0.157107 125:-1.0 126:1.0 127:-0.597139 128:0.363152 129:0.080166 130:-0.299785 131:-0.69146 132:-0.97727 133:0.650794 134:-0.762309 135:-0.979225 136:-0.642203 137:-0.159219 138:0.617114 139:-0.083913 140:-0.687263 141:-0.864842 142:0.624633 143:-0.711327 144:-0.836838 145:-0.67146 146:-0.033076 147:-0.529074 148:0.951621 149:1.0 150:-0.047336 151:-0.367521 152:-0.03097 153:0.136579 154:0.886902 155:-0.150472 156:-0.151725 157:1.0 158:1.0 159:1.0 160:-0.651042 161:1.0 162:1.0 163:0.68041 164:-0.372093 165:-0.548124 166:-0.481847 167:-0.702018 168:0.110959 169:-1.0 170:-0.035211 171:-0.807771 172:1.0 173:-0.021961 174:-0.590432 175:0.0985 176:-0.476741 177:1.0 178:-0.057179 179:0.832895 180:-0.796909 181:-1.0 182:0.028295 183:0.819714 184:1.0 185:1.0 186:-1.0 187:0.342282 188:-1.0 189:1.0 190:1.0 191:-0.007522 192:0.810873 193:-0.07089 194:-0.012067 195:1.0 196:0.171717 197:1.0 198:0.796851 199:0.351545 200:0.209868 201:-0.547533 202:0.621774 203:0.182463 204:0.03478 205:0.54386 206:0.001863 207:-0.503887 208:-0.057219 209:-0.304889 210:0.434556 211:1.0 212:1.0 213:0.37646 214:-0.117647 215:0.208332 216:1.0 217:-0.864483 218:-0.176307 219:0.438292 220:-0.046611 221:-0.191352 222:-0.927015 223:0.238095 224:-0.791338 225:-0.140285 226:-1.0 227:-0.730134 228:-0.763471 229:-0.189771 230:0.423319 231:-0.35457 232:-0.080882 233:-1.0 234:1.0 235:0.388669 236:0.053555 237:0.589392 238:-0.302773 239:-0.394612 240:0.961844 241:-0.359649 242:0.597048 243:-0.788067 244:1.0 245:0.327837 246:0.821965 247:-0.364653 248:-0.442584 249:1.0 250:-1.0 251:1.0 252:-0.656678 253:1.0 254:0.804767 255:0.285611 256:1.0 257:1.0 258:1.0 259:0.83125 260:0.603246 261:0.390914 262:-1.0 263:0.34912 264:0.792918 265:1.0 266:1.0 267:-1.0 268:-0.231667 269:-1.0 270:1.0 271:-0.90677 272:-0.129833 273:0.968386 274:-0.68836 275:-0.837371 276:-0.996303 277:0.28 278:-0.838124 279:-0.937178 280:-0.17488 281:0.483735 282:-0.461587 283:-0.466758 284:-0.694291 285:-0.536771 286:0.614458 287:-0.136041 288:-0.944222 289:-0.42334 290:0.803661 291:0.105963 292:1.0 293:1.0 294:-1.0 295:0.195122 296:-1.0 297:1.0 298:-1.0 299:-0.688191 300:0.838409 301:-0.33113 302:-0.268779 303:-1.0 304:0.771429 305:-1.0 306:0.511977 307:-0.624963 308:0.535806 309:0.280051 310:0.593409 311:0.117801 312:-0.88371 313:-0.863636 314:-0.82842 315:-0.878101 316:-1.0 317:0.242984 318:-0.313902 319:1.0 320:1.0 321:-1.0 322:0.873684 323:-1.0 324:1.0 325:0.686526 326:0.688048 327:0.689518 328:-0.625609 329:-0.618009 330:0.984508 331:-0.459649 332:-0.298975 333:-0.141034 334:-0.578278 335:-0.480488 336:-0.966853 337:-0.701345 338:-0.708821 339:-0.350545 340:-0.068966 341:0.561209 342:0.265878 343:0.623026 344:-0.166041 345:0.998708 346:-0.751831 347:-0.701399 348:-0.764188 349:-0.134328 350:0.569496 351:-0.30706 
-51.11673761147417 1:-0.199265 2:-0.200904 3:-0.202427 4:0.228605 5:0.1445 6:0.37241 7:-0.435286 8:0.112306 9:-0.724591 10:-0.651337 11:0.668357 12:-0.678487 13:-0.633686 14:-0.565983 15:-0.79271 16:0.527432 17:0.069566 18:0.093378 19:-0.25775 20:0.37848 21:-0.64495 22:0.118962 23:0.583205 24:0.110597 25:-0.233418 26:-0.201543 27:-0.657226 28:-0.398763 29:0.200335 30:0.043356 31:0.575663 32:1.0 33:0.680568 34:0.220246 35:0.803201 36:0.017001 37:0.235261 38:-0.048845 39:-0.381967 40:0.137377 41:-0.298121 42:1.0 43:-0.172932 44:1.0 45:0.014225 46:-0.131816 47:0.145241 48:-1.0 49:-0.100226 50:0.746152 51:0.662777 52:-0.668561 53:0.326104 54:0.658099 55:0.687469 56:0.063892 57:-0.505699 58:0.429865 59:-0.043795 60:1.0 61:0.809901 62:1.0 63:1.0 64:0.203532 65:0.453618 66:-1.0 67:0.545109 68:-0.276067 69:-0.236064 70:0.580247 71:-0.462546 72:-0.745012 73:-0.943473 74:0.991632 75:0.241917 76:0.136078 77:0.342908 78:-0.023281 79:-0.111111 80:-0.152162 81:0.277962 82:-0.691476 83:0.423077 84:-0.978545 85:-0.1293 86:-0.478335 87:1.0 88:0.306579 89:1.0 90:0.127152 91:0.263394 92:0.240582 93:0.090929 94:0.179716 95:0.4113 96:-0.335537 97:-0.372973 98:-0.006438 99:-0.328535 100:0.686994 101:-0.38799 102:2.99E-4 103:-0.734944 104:-0.799151 105:-0.376298 106:-0.764706 107:-0.349323 108:-0.56441 109:-0.214156 110:0.430863 111:0.264516 112:0.486764 113:0.041924 114:-0.864249 115:-1.0 116:-0.354558 117:-0.861383 118:0.39499 119:-0.287821 120:0.577957 121:-0.708407 122:-0.81255 123:0.402843 124:-0.042394 125:0.325915 126:-0.729003 127:-0.267933 128:0.491252 129:0.160681 130:-0.173552 131:-0.598085 132:-1.0 133:-0.111111 134:-0.860658 135:-0.997578 136:-0.598517 137:0.439936 138:0.085929 139:0.045237 140:-0.537672 141:-0.626335 142:-0.266862 143:-0.201605 144:-0.888105 145:-0.608762 146:-0.327976 147:-0.454022 148:0.143764 149:0.024135 150:-0.417168 151:-0.595442 152:-0.409915 153:-0.197439 154:0.166519 155:-0.969548 156:-0.289199 157:-0.423264 158:-0.688983 159:-0.255088 160:-0.020833 161:-0.123241 162:-0.731506 163:-0.310594 164:-0.304965 165:-0.139862 166:-0.625205 167:-0.762174 168:0.321128 169:1.0 170:0.287516 171:-0.789604 172:-0.950403 173:0.339585 174:0.285413 175:3.96E-4 176:-0.537257 177:0.833703 178:-0.412961 179:0.561601 180:-0.80102 181:-0.704418 182:-0.462697 183:0.842641 184:-0.626263 185:-0.786679 186:0.804211 187:-0.11745 188:0.274423 189:-0.799213 190:0.516975 191:-0.157751 192:0.338312 193:-0.62808 194:-0.833534 195:0.592769 196:0.69697 197:-0.007502 198:-0.919377 199:-0.284087 200:-0.335613 201:-0.64884 202:-0.094674 203:-0.173553 204:0.029771 205:0.263158 206:0.114505 207:-0.504508 208:-0.63933 209:-0.726565 210:0.423534 211:-0.470821 212:-0.734587 213:-0.683967 214:-0.198529 215:-0.275369 216:-0.869742 217:-0.217862 218:-0.251108 219:0.29342 220:-0.102991 221:-0.438908 222:-0.848399 223:-0.119048 224:-0.569753 225:-0.706685 226:0.50247 227:-0.119333 228:-0.703747 229:-0.56606 230:-0.791343 231:0.249717 232:0.705882 233:-0.04631 234:-0.858034 235:0.759753 236:0.709289 237:-0.185 238:-0.336638 239:-0.570272 240:1.0 241:-0.298246 242:0.938399 243:-0.943467 244:0.508698 245:0.538283 246:0.826979 247:-0.492757 248:-0.711168 249:0.928173 250:-0.055901 251:0.521732 252:-0.952693 253:-0.354999 254:0.142995 255:0.224935 256:-0.29403 257:-0.699858 258:-0.879907 259:0.05 260:-0.705513 261:-0.968784 262:0.206945 263:-0.407104 264:0.606762 265:-0.650659 266:-0.779916 267:0.532213 268:-0.28 269:0.188507 270:-0.915811 271:-0.526695 272:-0.279706 273:0.964894 274:-0.833757 275:-0.891014 276:-0.998558 277:-0.52 278:-0.961049 279:-0.895413 280:-0.193441 281:0.612284 282:-0.645176 283:-0.532445 284:-0.734505 285:-0.541071 286:-0.253012 287:-0.172274 288:-0.957437 289:0.508906 290:-0.286158 291:-0.008135 292:-0.808117 293:-0.928807 294:0.963952 295:0.121951 296:0.757104 297:-0.928022 298:-0.191916 299:-0.329396 300:0.895472 301:-0.827564 302:-0.929178 303:-0.841223 304:-0.485714 305:-0.219159 306:-0.946125 307:-0.072786 308:-0.31322 309:-0.164136 310:0.00916 311:-0.329717 312:-0.840196 313:-0.272727 314:-0.811082 315:-0.753086 316:0.42743 317:-0.117527 318:-0.346776 319:-0.673261 320:-0.788992 321:0.989577 322:0.038596 323:0.887674 324:-0.921893 325:0.406952 326:0.409961 327:0.412897 328:-0.46618 329:-0.588631 330:0.979183 331:-0.830424 332:0.288504 333:-0.731282 334:-0.59214 335:0.636743 336:-1.0 337:-0.54924 338:-0.614941 339:-0.356817 340:-0.862069 341:0.101757 342:-0.329453 343:0.796299 344:0.730135 345:0.57065 346:-0.627789 347:-0.671743 348:-0.765838 349:-0.119403 350:0.310092 351:-0.757122 
-92.77094427379275 1:0.104979 2:0.109072 3:0.113396 4:0.087773 5:0.178979 6:0.181284 7:-0.316347 8:0.131833 9:-0.59719 10:-0.521714 11:0.559193 12:-0.592156 13:-0.603959 14:-0.563488 15:-1.0 16:-0.915921 17:-1.0 18:-0.04874 19:0.291721 20:0.307059 21:-0.168868 22:-0.043728 23:0.06168 24:0.554977 25:0.44898 26:0.351337 27:-0.890333 28:-0.500683 29:0.570833 30:-0.022544 31:-0.171808 32:-0.159044 33:0.150954 34:-0.452804 35:0.355927 36:-0.089857 37:-0.367201 38:-0.255946 39:-0.293072 40:0.254519 41:-0.157703 42:0.17627 43:1.0 44:0.18206 45:-0.685904 46:-0.267481 47:-0.449761 48:-0.831785 49:-0.10545 50:0.680989 51:0.327417 52:0.393939 53:-0.235595 54:0.86775 55:0.037545 56:-0.939315 57:-0.303534 58:-0.788532 59:-0.926887 60:-0.149516 61:0.140594 62:0.210724 63:-0.479909 64:0.141872 65:-0.474746 66:-0.865715 67:-0.146205 68:-0.281771 69:-0.54708 70:-0.259259 71:-1.0 72:0.064943 73:-0.173241 74:0.068353 75:-0.115265 76:0.069542 77:0.311831 78:-0.490067 79:-0.511111 80:-0.584872 81:0.150152 82:0.632605 83:0.328972 84:-0.249807 85:-0.391558 86:-0.616105 87:0.345894 88:0.157895 89:0.275296 90:-0.988062 91:0.704 92:1.0 93:0.372152 94:0.820466 95:0.39523 96:-0.890963 97:-0.178378 98:-0.431711 99:-0.556186 100:-0.123887 101:-0.098254 102:0.07995 103:-0.248833 104:-0.447417 105:-0.509756 106:-0.676471 107:-0.341263 108:-0.342347 109:-0.139211 110:7.2E-4 111:0.46024 112:0.470393 113:0.165771 114:-0.454593 115:-0.465753 116:0.209985 117:-0.564342 118:0.212308 119:-0.12067 120:1.0 121:-0.443726 122:-0.39234 123:0.594762 124:0.236908 125:1.0 126:-0.360448 127:-1.0 128:0.565736 129:0.291969 130:-0.33112 131:-0.664741 132:-0.967315 133:-0.619048 134:-0.700899 135:-0.973245 136:-0.351055 137:-0.619082 138:0.49057 139:-0.567679 140:-0.762553 141:-0.695907 142:-0.642229 143:-0.329574 144:-0.758578 145:-0.603858 146:0.484787 147:-0.113423 148:0.217857 149:-0.206915 150:1.0 151:-0.321937 152:1.0 153:-0.492344 154:0.159862 155:-0.35565 156:-0.32071 157:-0.264107 158:-0.701862 159:-0.181392 160:-0.0 161:0.08858 162:-0.867635 163:-0.091955 164:-0.204283 165:-0.550824 166:-0.619229 167:-0.84001 168:-0.040149 169:-0.06422 170:-0.160112 171:-0.969195 172:0.9826 173:-0.550333 174:-0.742227 175:-0.380969 176:-0.82531 177:0.771737 178:0.064803 179:0.510899 180:-0.978606 181:0.746102 182:-0.32769 183:0.790056 184:-0.132207 185:-0.612821 186:0.702046 187:-0.087248 188:0.089417 189:-0.796848 190:0.188081 191:-0.442251 192:0.357028 193:-0.640981 194:-0.851931 195:0.590561 196:0.212121 197:-0.023898 198:-0.876371 199:0.296895 200:0.893655 201:-0.517742 202:1.0 203:0.249719 204:0.140024 205:0.192982 206:0.017783 207:-0.940224 208:-0.213361 209:-0.534135 210:0.42923 211:-0.389971 212:-0.644894 213:-0.720803 214:0.0 215:-0.365103 216:-0.867573 217:-0.515035 218:-0.069015 219:0.551541 220:0.064832 221:-0.369524 222:-0.866823 223:-0.583333 224:-0.490289 225:-0.706677 226:-0.413786 227:-0.39999 228:-0.74855 229:-0.196742 230:-0.342992 231:0.368577 232:-0.257353 233:0.589702 234:-0.734278 235:0.91394 236:-0.243355 237:0.658728 238:-0.52891 239:-0.621629 240:0.987649 241:-0.052632 242:0.829297 243:-0.85204 244:0.789033 245:-0.466625 246:0.783588 247:-0.816232 248:-0.881146 249:0.927468 250:0.118012 251:0.480267 252:-0.953951 253:-1.0 254:0.857564 255:0.184768 256:-0.245583 257:-0.542223 258:-0.972484 259:-0.096875 260:-1.0 261:-0.91315 262:0.243908 263:-0.131876 264:0.518658 265:-0.677333 266:-0.771494 267:0.530328 268:-0.44 269:0.166739 270:-0.933147 271:-0.642787 272:-0.136002 273:0.974809 274:-0.727253 275:-0.855031 276:-0.994501 277:-0.04 278:-0.805969 279:-0.968698 280:-0.199981 281:-0.054996 282:-0.745816 283:-0.655857 284:-0.826311 285:-0.546725 286:0.228916 287:-0.252645 288:-0.952848 289:0.678954 290:0.087145 291:0.074753 292:-0.492827 293:-0.813371 294:0.963611 295:0.512195 296:0.726458 297:-0.958194 298:-0.401479 299:-0.327125 300:0.826113 301:-0.78723 302:-0.874331 303:-0.837691 304:-0.314286 305:-0.115655 306:-0.966563 307:-1.0 308:0.830142 309:-0.25989 310:1.0 311:0.277939 312:-0.564006 313:-0.045454 314:-0.520874 315:-0.81535 316:0.244421 317:-0.108529 318:-0.365309 319:-0.684037 320:-0.744083 321:0.993918 322:0.740351 323:1.0 324:-0.903315 325:0.268698 326:0.272103 327:0.275398 328:-0.383041 329:-0.478539 330:0.967019 331:-0.539594 332:0.226977 333:-0.670709 334:-0.624996 335:0.388507 336:-0.973837 337:-0.475721 338:-0.611628 339:-0.345947 340:0.103448 341:0.255043 342:-0.579312 343:0.832451 344:0.288056 345:0.96906 346:-0.593159 347:-0.696591 348:-0.760726 349:0.0 350:0.433871 351:-0.812784 
-25.994367755879072 1:-0.413576 2:-0.411454 3:-0.409118 4:-0.284374 5:0.335741 6:0.36767 7:0.109138 8:0.899023 9:1.0 10:-0.56928 11:0.563462 12:-0.548184 13:-0.312403 14:-0.364891 15:-0.584718 16:0.224648 17:0.47165 18:0.08502 19:0.384285 20:-0.827494 21:-0.012295 22:-0.657628 23:0.397751 24:0.222807 25:0.653061 26:-0.38824 27:1.0 28:-1.0 29:1.0 30:-0.130102 31:-0.405961 32:-0.12627 33:0.214292 34:0.149111 35:0.511685 36:0.18703 37:-0.073683 38:0.23504 39:-0.093713 40:-0.330215 41:-0.489235 42:0.316022 43:0.142857 44:0.458956 45:-0.504071 46:-0.680471 47:0.483141 48:-0.817673 49:0.113677 50:0.66917 51:0.992063 52:-0.590909 53:0.8384 54:-0.247803 55:-0.345738 56:-0.508771 57:-0.876516 58:-0.543683 59:-0.992978 60:-0.425448 61:-0.520792 62:-0.407874 63:-0.927284 64:0.15912 65:-0.956973 66:-0.866934 67:-0.337917 68:0.486571 69:-0.284379 70:0.641975 71:-0.752022 72:0.52394 73:1.0 74:0.140089 75:0.441004 76:-0.085362 77:0.362198 78:-0.184594 79:-0.611285 80:-0.30106 81:0.435245 82:0.05307 83:-0.467827 84:1.0 85:-1.0 86:-1.0 87:-0.183555 88:0.589474 89:-1.0 90:-0.335758 91:0.274792 92:-0.394537 93:0.087492 94:0.149132 95:0.093311 96:0.413571 97:-0.340541 98:0.835414 99:-0.191525 100:0.317296 101:-0.631977 102:-0.012997 103:-0.629708 104:-0.444318 105:0.223837 106:-0.882353 107:0.6381 108:0.130555 109:-0.173063 110:-0.433979 111:0.045199 112:-6.3E-5 113:0.377974 114:-0.943096 115:-0.178082 116:-0.668957 117:0.399424 118:0.45781 119:0.12777 120:0.422842 121:-0.418795 122:-0.4549 123:0.400137 124:-0.087282 125:0.238127 126:-0.556264 127:-0.623497 128:-0.647657 129:0.249481 130:-0.681974 131:-0.673506 132:-0.98465 133:-0.811508 134:-0.926086 135:-0.70744 136:-0.515818 137:-0.34035 138:0.528281 139:-0.463291 140:-0.820133 141:-0.572205 142:0.460411 143:0.109169 144:-0.751164 145:-0.925929 146:-0.632314 147:-0.347048 148:-0.275311 149:-0.336737 150:-0.118635 151:-0.299145 152:-0.127214 153:-0.347406 154:-0.182608 155:-0.238555 156:-0.41272 157:-0.481436 158:-0.544743 159:-0.176706 160:0.552083 161:0.115556 162:-0.689246 163:0.092471 164:-0.922642 165:-0.380772 166:-1.0 167:-0.913861 168:-0.121736 169:-0.0 170:-0.249826 171:-0.747097 172:0.097613 173:-0.887111 174:-0.705957 175:-0.820675 176:-0.965218 177:0.700366 178:1.0 179:0.262124 180:-0.873465 181:0.446394 182:-0.136374 183:0.822995 184:-0.100387 185:-0.510878 186:0.954919 187:-0.147651 188:0.571813 189:-0.843782 190:0.34402 191:-1.0 192:0.601134 193:-1.0 194:-1.0 195:0.599646 196:0.535354 197:0.078328 198:-0.855094 199:-0.471406 200:-0.544236 201:-0.64156 202:0.201296 203:0.307207 204:0.062522 205:0.403509 206:0.08385 207:-0.155065 208:-0.188646 209:-0.951306 210:0.436443 211:-0.612275 212:-0.76749 213:-0.719474 214:0.176471 215:-0.394865 216:-0.848409 217:-0.288742 218:-0.337265 219:0.337009 220:-0.148493 221:-0.304368 222:-0.844924 223:-0.261905 224:-0.602284 225:-0.282575 226:0.966871 227:-0.348022 228:-0.750468 229:-0.357976 230:-0.454766 231:0.182541 232:0.294118 233:0.002897 234:-0.592199 235:0.719452 236:-0.740555 237:0.602589 238:-0.635736 239:-0.607605 240:0.991632 241:-0.0 242:0.931988 243:-0.644901 244:0.821837 245:-0.291658 246:0.787144 247:-0.630097 248:-0.738222 249:0.933787 250:0.192547 251:0.586674 252:-0.915798 253:-0.518124 254:0.186073 255:0.28954 256:-0.601857 257:-0.871508 258:-0.897753 259:-0.10625 260:-0.787525 261:-0.994177 262:0.144272 263:-0.50904 264:0.495034 265:-0.760674 266:-0.745195 267:0.51765 268:-0.466667 269:-0.045024 270:-0.799447 271:-0.483586 272:-0.562524 273:0.966672 274:-0.959459 275:-1.0 276:-0.992191 277:0.2 278:-0.726875 279:-0.949519 280:0.09782 281:-0.461978 282:-0.584209 283:-0.840933 284:-0.877368 285:-0.53953 286:0.325301 287:-0.097614 288:-0.903125 289:0.794276 290:0.342895 291:0.391384 292:-0.416888 293:-0.678645 294:1.0 295:0.04878 296:0.942379 297:-0.847095 298:-0.344188 299:-1.0 300:0.788075 301:-1.0 302:-1.0 303:-0.838173 304:0.803571 305:-0.196499 306:-0.955814 307:-0.299162 308:0.128306 309:-0.533783 310:0.367258 311:-0.067302 312:-0.977955 313:-0.939394 314:-1.0 315:-0.777124 316:0.421208 317:-0.329341 318:-0.398182 319:-0.705223 320:-0.871127 321:0.989995 322:0.698246 323:0.898939 324:-0.970147 325:0.535067 326:0.534976 327:0.53473 328:-0.39025 329:-0.221311 330:0.920547 331:-0.558725 332:-0.93087 333:0.893845 334:-0.61559 335:-0.498576 336:1.0 337:-0.36409 338:-0.33569 339:-0.42381 340:-0.137931 341:-0.58189 342:1.0 343:0.878898 344:-0.391023 345:-1.0 346:-0.361161 347:-0.233956 348:-0.72281 349:0.343284 350:0.642619 351:0.084776 
-23.336352812172507 1:-0.015397 2:-0.011653 3:-0.007693 4:-8.52E-4 5:0.128114 6:0.152318 7:-0.192534 8:0.199738 9:-0.505903 10:0.301802 11:-0.359468 12:0.46834 13:0.639695 14:0.255442 15:0.137812 16:-0.238286 17:0.46551 18:-0.156089 19:-0.019751 20:0.097304 21:-0.184383 22:-0.081617 23:0.348905 24:1.0 25:-1.0 26:1.0 27:0.108473 28:0.511007 29:-0.435948 30:0.041344 31:0.487248 32:-0.174894 33:-0.272566 34:-0.239398 35:-0.161647 36:-0.891825 37:0.424164 38:0.491032 39:-0.286417 40:0.513204 41:-0.298088 42:0.528943 43:-0.067669 44:0.427146 45:-0.905595 46:-0.777174 47:0.166523 48:-0.833833 49:-0.898727 50:-0.285179 51:0.69187 52:-1.0 53:0.176996 54:0.048727 55:0.074415 56:-0.485454 57:-0.452832 58:-0.046181 59:-0.199004 60:-0.388246 61:1.0 62:-0.313676 63:-0.306537 64:-0.665558 65:0.615966 66:-0.924544 67:0.20782 68:-0.492155 69:0.092166 70:0.530864 71:-0.202349 72:-0.753371 73:-0.636783 74:-0.721729 75:0.297903 76:-0.878572 77:-0.111742 78:-0.141775 79:-0.377778 80:-0.246965 81:0.705532 82:1.0 83:-0.658047 84:-0.793425 85:-0.255307 86:-0.01333 87:0.269853 88:0.073684 89:0.143088 90:0.23185 91:0.533296 92:0.278492 93:0.109607 94:0.648117 95:-0.445495 96:-0.15826 97:0.383784 98:0.163046 99:-1.0 100:-0.030635 101:0.457493 102:0.073465 103:0.602567 104:0.973022 105:-0.367892 106:0.397059 107:-0.034622 108:0.245452 109:-0.473175 110:0.121217 111:0.827731 112:0.018264 113:-0.264642 114:-0.709373 115:-0.712329 116:0.006394 117:-0.821231 118:0.362673 119:1.0 120:0.795746 121:1.0 122:0.810883 123:-0.521229 124:-0.421446 125:-0.323612 126:-0.431843 127:0.040418 128:-0.146365 129:0.034737 130:-0.791023 131:-0.807408 132:-0.984545 133:-0.746032 134:-1.0 135:-0.828642 136:0.093472 137:-0.044294 138:0.600122 139:-0.092506 140:-0.560916 141:-0.521201 142:1.0 143:0.058204 144:-0.783537 145:1.0 146:0.451634 147:-0.756922 148:0.246196 149:-0.016312 150:0.384758 151:-0.595442 152:0.387448 153:-0.510551 154:-0.238419 155:-0.408976 156:-0.093748 157:-0.767914 158:-0.934489 159:-0.180027 160:-0.036458 161:0.130659 162:-0.95824 163:-0.689861 164:-0.612427 165:-0.795113 166:-0.594757 167:-0.68022 168:0.778366 169:0.688073 170:0.795499 171:-0.334281 172:-0.176971 173:-0.938204 174:-0.708601 175:-0.21198 176:-0.633764 177:0.551521 178:-0.402795 179:-0.086279 180:-0.804176 181:-0.101947 182:-0.919674 183:0.82799 184:-0.825106 185:-0.897027 186:0.854704 187:-0.167785 188:0.488589 189:-0.795096 190:0.401145 191:-0.809156 192:0.258321 193:-0.555832 194:-0.733154 195:0.568952 196:0.573232 197:-0.144447 198:-0.775675 199:0.009463 200:-0.189229 201:-0.53519 202:-0.302423 203:-0.041317 204:-0.13045 205:1.0 206:-0.060509 207:0.170901 208:-0.305288 209:0.405033 210:0.47884 211:0.282899 212:-0.490107 213:-0.474792 214:-0.117647 215:-0.080649 216:-0.963772 217:-0.282465 218:0.384998 219:-1.0 220:-0.256464 221:-0.662842 222:-0.757937 223:-0.190476 224:-0.25222 225:-0.998202 226:-0.092515 227:1.0 228:-0.720068 229:1.0 230:0.766313 231:-0.851968 232:0.294118 233:0.115421 234:-0.659856 235:0.775213 236:-0.14186 237:0.791854 238:-0.751475 239:-0.776491 240:0.985555 241:0.438596 242:0.774077 243:-0.907548 244:0.236892 245:-0.258932 246:0.805909 247:-0.636659 248:-0.733698 249:0.925961 250:0.714286 251:0.485208 252:-0.921805 253:-0.887378 254:0.533573 255:1.0 256:-0.208723 257:-0.32731 258:-0.8681 259:-0.1 260:-0.674136 261:-0.835324 262:0.249783 263:0.177522 264:0.657635 265:-0.724999 266:-0.918409 267:0.528158 268:-0.066667 269:0.136635 270:-1.0 271:-0.605365 272:-0.195961 273:1.0 274:-0.720677 275:-0.713825 276:-0.991621 277:-0.36 278:-0.740143 279:-0.834193 280:-0.255627 281:0.552039 282:-0.780743 283:-0.50643 284:-0.789909 285:-0.545397 286:0.373494 287:-0.216985 288:-0.974415 289:0.863818 290:-0.238722 291:0.553817 292:-0.70983 293:-0.812506 294:0.929593 295:0.121951 296:0.358866 297:-0.839917 298:-0.262854 299:-0.162458 300:0.820884 301:-0.787405 302:-0.856967 303:-0.833751 304:-1.0 305:-0.022839 306:-0.973796 307:0.124773 308:-0.265094 309:-0.204968 310:0.252959 311:-0.206755 312:-0.700076 313:-0.878788 314:-0.545487 315:-0.831557 316:1.0 317:0.206627 318:-0.397673 319:-0.412029 320:-0.720351 321:0.996658 322:1.0 323:0.968568 324:-0.981295 325:0.056762 326:0.05482 327:0.052601 328:-0.034272 329:-0.207998 330:0.839252 331:-0.696202 332:-0.127049 333:-0.384158 334:-0.556121 335:0.72442 336:-0.971196 337:0.086957 338:-0.237021 339:-0.330356 340:-0.086207 341:0.111702 342:-0.469445 343:0.633467 344:0.76328 345:0.974032 346:0.164101 347:-0.157703 348:-0.488154 349:0.11194 350:0.759339 351:-0.534741 
-37.72557424942807 1:-0.057469 2:-0.054834 3:-0.051974 4:0.048061 5:0.395265 6:0.43247 7:-0.580129 8:0.325158 9:-0.292321 10:-0.26733 11:0.263237 12:-0.247866 13:0.024159 14:-0.16774 15:-0.56444 16:-0.43497 17:0.140819 18:-0.249413 19:-0.135859 20:0.829258 21:-1.0 22:0.007694 23:0.301733 24:0.672456 25:1.0 26:0.497646 27:-0.696653 28:-0.413963 29:0.027643 30:-1.0 31:-0.125918 32:-0.567165 33:-0.336301 34:0.76197 35:-0.398767 36:-0.734478 37:0.164926 38:-0.864368 39:-0.205004 40:-0.212158 41:0.382978 42:-0.188388 43:-1.0 44:-0.20066 45:0.307236 46:0.030531 47:0.03281 48:-0.629542 49:-0.091405 50:0.170682 51:0.44295 52:-0.25 53:-0.036119 54:0.081789 55:-0.577211 56:0.130256 57:-0.511387 58:-0.364221 59:-0.636606 60:-0.467851 61:-1.0 62:-0.458767 63:-0.640183 64:-0.230113 65:0.03162 66:-0.8707 67:-0.464757 68:-0.988485 69:0.069294 70:0.234568 71:-0.306576 72:-0.959227 73:0.223532 74:-0.893647 75:0.024924 76:-0.810345 77:-0.396441 78:0.361624 79:0.488889 80:0.561282 81:0.507569 82:0.373146 83:-0.370418 84:-0.601727 85:-0.471144 86:-0.76411 87:-0.189803 88:-0.726316 89:-0.576952 90:-0.708066 91:-0.095141 92:-0.209774 93:-0.05748 94:-0.317805 95:-0.674194 96:-0.181125 97:-0.264865 98:0.196605 99:-0.92727 100:0.307116 101:-0.556839 102:-0.309002 103:-0.42534 104:-0.278122 105:-0.951532 106:-0.382353 107:-1.0 108:0.649864 109:-0.194777 110:0.541603 111:0.798061 112:0.238783 113:0.153217 114:-1.0 115:-0.232877 116:-0.651759 117:-0.343505 118:0.67509 119:0.207655 120:0.747616 121:-0.116069 122:-0.185431 123:0.35744 124:0.077307 125:0.111438 126:-0.522262 127:-0.481661 128:-0.15825 129:0.234825 130:-0.518497 131:-0.757314 132:-0.965022 133:-0.460317 134:-0.664274 135:-0.957341 136:-0.349592 137:-0.084366 138:0.518478 139:-0.234026 140:-0.759054 141:-0.741067 142:0.061584 143:-0.453779 144:-0.900446 145:-0.969986 146:-0.222964 147:-0.255883 148:-0.047293 149:0.048053 150:-0.120233 151:0.133903 152:-0.111376 153:-0.331724 154:0.935455 155:-0.22559 156:-0.544724 157:-0.383828 158:-0.54282 159:-0.266069 160:0.395833 161:-0.147013 162:-0.640561 163:0.057046 164:-0.453986 165:0.208855 166:-0.867334 167:-1.0 168:0.146824 169:0.045872 170:0.266825 171:-0.966279 172:-0.071566 173:0.176165 174:-1.0 175:-0.648576 176:-0.977669 177:0.836685 178:0.186785 179:0.894213 180:-0.874292 181:0.02323 182:-0.897217 183:0.817364 184:-1.0 185:-0.809005 186:0.935656 187:0.879195 188:1.0 189:-0.326431 190:0.562607 191:-0.902583 192:-0.139193 193:-0.790151 194:-0.94395 195:0.586789 196:-0.111111 197:-0.079605 198:-0.919048 199:0.910335 200:-0.482366 201:-0.661773 202:0.073207 203:-0.261808 204:0.04558 205:-0.368421 206:0.093712 207:-0.742876 208:0.106847 209:-0.547805 210:0.537982 211:-0.609884 212:-0.750981 213:-0.567415 214:-0.441176 215:0.130158 216:-0.759218 217:-0.497445 218:-0.072741 219:1.0 220:-0.147356 221:-0.308545 222:-0.779206 223:0.047619 224:-0.316388 225:-0.544922 226:-0.292119 227:0.031248 228:-0.728544 229:-0.256144 230:-0.394932 231:0.162104 232:0.176471 233:0.069023 234:-0.686402 235:0.804566 236:-0.256982 237:1.0 238:-0.538389 239:-0.642082 240:0.979378 241:-0.22807 242:0.68874 243:-0.859915 244:0.965729 245:0.26936 246:0.710997 247:-0.572499 248:-0.794209 249:0.9359 250:0.515528 251:0.602767 252:-0.981671 253:-0.472089 254:-0.028552 255:0.291196 256:-0.539002 257:-0.697238 258:-0.85596 259:0.425 260:-0.565573 261:-0.902326 262:0.121768 263:-0.20045 264:0.74767 265:-0.70761 266:-0.86719 267:0.525366 268:-0.013333 269:0.09622 270:-0.944403 271:-0.709963 272:-0.728018 273:0.969679 274:-0.91643 275:-0.98603 276:-0.997756 277:-0.68 278:-1.0 279:-0.925532 280:-0.376742 281:-0.436455 282:-0.782892 283:-0.828365 284:-0.91951 285:-0.541491 286:-0.108434 287:-0.156982 288:-0.962704 289:0.397491 290:-1.0 291:0.072221 292:-1.0 293:-0.814036 294:0.935932 295:-0.146341 296:0.109454 297:-0.469925 298:-0.211539 299:-0.752812 300:0.704508 301:-0.901054 302:-0.922165 303:-0.839268 304:0.214286 305:-0.195139 306:-0.91528 307:-0.298767 308:-0.004514 309:-0.033058 310:0.119466 311:-0.228799 312:-0.817126 313:-0.181818 314:-0.754609 315:-0.723031 316:0.258081 317:-0.386308 318:-0.419948 319:-0.853783 320:-0.856873 321:0.98771 322:0.305263 323:0.788632 324:-0.888438 325:0.382782 326:0.385367 327:0.387824 328:-0.424811 329:-0.365682 330:0.951659 331:-0.678635 332:-0.367026 333:0.026356 334:-0.600689 335:0.002841 336:-0.971616 337:-0.518683 338:-0.545396 339:-0.382315 340:0.241379 341:-0.40238 342:0.255336 343:0.823342 344:-0.030642 345:0.982883 346:-0.588876 347:-0.503094 348:-0.739491 349:0.044776 350:1.0 351:0.363081 
-68.23104622553195 1:-0.253859 2:-0.253166 3:-0.252325 4:0.006307 5:0.132351 6:0.229278 7:-0.563988 8:0.243806 9:-0.517095 10:-0.579331 11:0.607292 12:-0.630594 13:-0.608289 14:-0.713946 15:-0.893513 16:-0.369409 17:-0.465782 18:-0.656838 19:0.528776 20:-0.658359 21:-0.550828 22:-1.0 23:-1.0 24:0.423421 25:-0.571429 26:0.156493 27:-0.867723 28:0.272074 29:-0.397308 30:0.295585 31:-0.278228 32:-0.065725 33:-0.061287 34:0.214774 35:0.011059 36:0.119902 37:0.801246 38:-0.276259 39:-0.363628 40:-0.208066 41:-0.062907 42:0.042576 43:-0.293233 44:0.084118 45:-0.241352 46:0.489462 47:0.236175 48:-0.830745 49:0.400383 50:0.450549 51:0.652642 52:0.092093 53:0.392895 54:-0.427631 55:-0.319118 56:-1.0 57:-0.510109 58:0.522114 59:0.099769 60:-0.666513 61:0.683168 62:-0.543516 63:-0.127751 64:-1.0 65:0.230837 66:1.0 67:0.330882 68:-0.460524 69:0.548699 70:0.777778 71:0.245698 72:-0.684208 73:-0.555655 74:-0.096571 75:0.285786 76:0.041339 77:-0.140093 78:0.339945 79:0.244444 80:0.200153 81:-0.617166 82:0.54557 83:-0.550696 84:-0.772315 85:-0.201501 86:-0.284505 87:0.626416 88:-0.083553 89:0.589928 90:-0.271048 91:0.501969 92:-1.0 93:0.045876 94:-1.0 95:-0.653862 96:0.041529 97:-0.891892 98:0.766958 99:0.214021 100:0.422269 101:0.209608 102:0.0058 103:0.335476 104:-0.226455 105:0.487858 106:-0.294118 107:0.580655 108:-0.585609 109:-0.15054 110:0.197214 111:0.189206 112:0.493773 113:0.087118 114:-0.735384 115:-0.424658 116:-0.181513 117:-0.768947 118:0.306947 119:0.151823 120:-1.0 121:-0.515577 122:-0.559481 123:0.369713 124:-0.281796 125:0.118594 126:-0.731289 127:-0.40973 128:-1.0 129:0.231802 130:-1.0 131:-1.0 132:-0.976819 133:-0.428571 134:-0.961456 135:-0.863302 136:-0.719993 137:-0.22719 138:0.47213 139:0.015569 140:-0.663263 141:-0.427274 142:0.530792 143:0.199663 144:-0.804584 145:-0.495411 146:-0.348235 147:-0.319383 148:0.409953 149:0.023127 150:-0.823981 151:0.225071 152:-0.671056 153:-0.421814 154:0.569149 155:1.0 156:-1.0 157:-0.133807 158:-0.675844 159:-0.347609 160:-0.0 161:-0.27744 162:-0.886964 163:0.302981 164:0.405003 165:-0.96043 166:-0.371193 167:-0.732167 168:-1.0 169:0.33945 170:-0.983001 171:-0.867844 172:0.15775 173:-0.30976 174:-0.699634 175:-0.300571 176:-0.913372 177:0.673083 178:-0.057179 179:0.212045 180:-1.0 181:-0.528161 182:0.503089 183:0.735915 184:-0.196106 185:-0.728962 186:0.825509 187:-0.087248 188:0.33092 189:-0.936047 190:-0.439128 191:-0.666587 192:0.37583 193:-0.730091 194:-0.898823 195:0.603167 196:0.308081 197:0.07701 198:-0.904897 199:-0.199519 200:-1.0 201:-0.638024 202:-1.0 203:-0.969017 204:-0.225654 205:-0.017544 206:-0.287419 207:-0.393066 208:-0.040103 209:-0.414548 210:0.479958 211:-0.193087 212:-0.274055 213:-0.861118 214:-0.823529 215:-0.596053 216:-0.365357 217:-0.731966 218:-0.175159 219:0.483765 220:0.058569 221:-0.423298 222:-0.839535 223:-0.333333 224:-0.418666 225:-0.817397 226:-0.489932 227:-0.052605 228:-0.749727 229:-0.367395 230:-0.608121 231:0.404137 232:0.764706 233:0.680954 234:-0.931561 235:0.751984 236:-1.0 237:0.910405 238:-1.0 239:-1.0 240:0.984855 241:0.087719 242:0.584682 243:-0.933798 244:0.410256 245:0.245738 246:0.63623 247:-0.643323 248:-0.754139 249:0.935911 250:0.31677 251:0.61683 252:-0.935848 253:-0.027324 254:0.991865 255:0.054906 256:-0.284108 257:-0.663592 258:-0.851882 259:0.6 260:-0.612019 261:-0.969678 262:0.197842 263:0.003533 264:0.487239 265:-0.684543 266:-0.881949 267:0.52236 268:-0.066667 269:0.058316 270:-0.976013 271:-0.464395 272:0.165517 273:0.999812 274:-0.7241 275:-0.897274 276:-0.994032 277:-0.32 278:-0.794889 279:-0.971104 280:-0.045379 281:0.168149 282:-0.670443 283:-0.642561 284:-0.905777 285:-0.545639 286:-0.445783 287:-0.233911 288:-0.990802 289:0.040569 290:0.0864 291:-0.060027 292:-0.648538 293:-0.850888 294:0.969027 295:0.878049 296:0.789023 297:-0.892422 298:-0.340233 299:-0.264648 300:0.755286 301:-0.828834 302:-0.848084 303:-0.834826 304:-0.085714 305:-0.040755 306:-0.943185 307:-0.637796 308:-0.589745 309:-0.213267 310:-0.555853 311:-0.714912 312:-0.776155 313:0.206439 314:-0.589394 315:-0.891472 316:0.402073 317:-0.108238 318:-0.429233 319:-0.536014 320:-0.547498 321:0.988332 322:-0.691228 323:0.86916 324:-0.793783 325:0.503642 326:0.504129 327:0.504524 328:-0.394521 329:-0.417016 330:0.953265 331:-0.695897 332:-0.154236 333:-0.289687 334:-0.601014 335:-0.278711 336:-0.988601 337:-0.378478 338:-0.527561 339:-0.375293 340:-0.034483 341:-0.120346 342:-0.412388 343:0.882672 344:-0.141889 345:0.970468 346:-0.412249 347:-0.520836 348:-0.730653 349:-0.074627 350:0.651159 351:-0.565035 
-34.88561032188222 1:0.490532 2:0.488522 3:0.48657 4:0.774311 5:0.223273 6:0.107195 7:-0.014188 8:-0.210377 9:-0.974141 10:-0.01915 11:0.09822 12:-0.16365 13:-0.384644 14:-0.72516 15:-0.874902 16:0.048483 17:-0.411612 18:-0.862351 19:1.0 20:-0.695106 21:-0.073646 22:0.144947 23:0.311171 24:0.130321 25:-0.127551 26:-0.169644 27:-0.483956 28:1.0 29:-0.205603 30:0.025754 31:0.810828 32:0.73282 33:1.0 34:0.603283 35:1.0 36:-0.122645 37:1.0 38:-0.684921 39:-0.291218 40:-0.696589 41:-0.220706 42:-0.207204 43:-0.278195 44:-0.319453 45:-0.080258 46:-0.143401 47:0.338498 48:-0.81132 49:-0.075589 50:0.031237 51:0.701723 52:0.19697 53:0.394645 54:-0.355864 55:-0.698812 56:-0.541091 57:-0.457667 58:-0.052984 59:-0.035065 60:-0.597841 61:-0.095049 62:-0.587892 63:-0.037386 64:0.268323 65:-1.0 66:-0.86944 67:-0.479209 68:0.224053 69:1.0 70:0.185185 71:1.0 72:1.0 73:-0.787933 74:0.205682 75:0.089781 76:-0.365646 77:-0.571945 78:0.89575 79:-1.0 80:1.0 81:0.219964 82:-0.775354 83:0.493353 84:-0.478133 85:-0.395492 86:-0.464116 87:0.171235 88:0.305263 89:0.011441 90:-0.459447 91:0.290933 92:-0.801813 93:-0.176437 94:-0.906471 95:-0.269364 96:-0.063601 97:0.081081 98:0.50279 99:0.263998 100:-1.0 101:0.215234 102:0.004631 103:0.414558 104:-0.132956 105:0.198409 106:-0.823529 107:0.349937 108:-1.0 109:0.203874 110:1.0 111:0.347089 112:0.584381 113:0.388771 114:-0.768258 115:-0.260274 116:-0.232238 117:-0.675079 118:0.379242 119:0.460615 120:0.585724 121:-0.503765 122:-0.85695 123:0.307086 124:0.197007 125:-0.15532 126:-1.0 127:-0.565209 128:-0.010902 129:0.216429 130:-0.208299 131:-0.491736 132:-0.953472 133:-0.746032 134:-0.637696 135:-0.881433 136:1.0 137:0.10434 138:0.641897 139:0.17571 140:-0.451906 141:-0.758315 142:-0.407625 143:-0.441283 144:-0.743829 145:-0.602399 146:-0.128425 147:-0.337819 148:-0.495227 149:-0.740473 150:0.009279 151:0.247863 152:0.10262 153:-0.880933 154:-1.0 155:-0.526181 156:-0.014899 157:-0.389323 158:-0.627629 159:-0.129172 160:0.458333 161:0.24499 162:-0.641452 163:-0.572428 164:-0.191101 165:-1.0 166:-0.653359 167:-0.777261 168:0.848378 169:0.412844 170:1.0 171:-0.446492 172:0.38723 173:-0.762084 174:-0.669106 175:-1.0 176:-1.0 177:0.66363 178:-0.219822 179:-0.051016 180:-0.755408 181:0.361209 182:-0.225406 183:0.744864 184:-0.499827 185:-0.703042 186:0.80981 187:-0.060403 188:0.295273 189:-0.822775 190:0.471809 191:-0.404952 192:0.020252 193:-0.62876 194:-0.725849 195:0.590815 196:-0.030303 197:-0.021047 198:-0.823416 199:0.022699 200:-0.465857 201:-0.619991 202:-0.569096 203:-0.593308 204:-0.360629 205:0.122807 206:-0.485906 207:-0.695782 208:-0.966315 209:-0.269714 210:0.479611 211:-0.020704 212:-0.498494 213:-0.744788 214:-0.823529 215:-0.367416 216:-0.830588 217:-0.394526 218:1.0 219:0.996683 220:0.199783 221:-0.230462 222:-0.902105 223:0.333333 224:-0.484413 225:-0.709951 226:0.836669 227:-0.081044 228:-0.762613 229:-0.345487 230:-0.659059 231:0.347442 232:1.0 233:0.510216 234:-0.942122 235:0.655007 236:0.364882 237:0.629905 238:-0.371339 239:-0.626298 240:0.984391 241:-1.0 242:0.788655 243:-0.947386 244:0.270694 245:-0.170858 246:0.961328 247:-0.50598 248:-0.618446 249:0.945168 250:0.267081 251:0.678116 252:-0.85248 253:-0.924744 254:0.058266 255:0.313078 256:-0.797939 257:-0.951663 258:-0.872635 259:0.575 260:-0.59478 261:-1.0 262:0.151386 263:0.22536 264:-0.390556 265:-0.835087 266:-0.986083 267:0.529747 268:-0.546667 269:0.16805 270:-0.998221 271:-0.453377 272:0.144914 273:0.81024 274:-0.789448 275:-0.916293 276:-0.988357 277:-0.44 278:-0.638148 279:-0.96591 280:-0.280996 281:-1.0 282:-0.714083 283:-1.0 284:-0.994153 285:-0.542675 286:-0.831325 287:-0.191307 288:-0.945019 289:1.0 290:0.327162 291:0.623373 292:-0.603816 293:-0.770447 294:0.993832 295:0.756098 296:1.0 297:-0.861166 298:-0.426722 299:-0.595642 300:0.841249 301:-0.812635 302:-0.830382 303:-0.832775 304:-0.885714 305:0.009764 306:-0.882545 307:-0.146256 308:-0.248167 309:-0.305544 310:-0.247675 311:-0.615519 312:-0.885166 313:-0.818182 314:-0.983202 315:-0.945191 316:0.862252 317:-6.52E-4 318:-0.425012 319:-0.608693 320:-0.785648 321:0.989088 322:-0.438597 323:0.878584 324:-0.957107 325:-0.272716 326:-0.271446 327:-0.270351 328:0.009832 329:-0.093528 330:0.897282 331:-0.655175 332:0.366327 333:-0.691111 334:-0.72179 335:0.381803 336:-0.956925 337:-0.410413 338:-0.53754 339:-0.341216 340:-0.862069 341:0.256872 342:-0.516739 343:1.0 344:0.468369 345:0.954031 346:-0.553369 347:-0.639091 348:-0.747615 349:-0.402985 350:0.682557 351:-0.53018 
-68.48033113809879 1:-0.850484 2:-0.849443 3:-0.848361 4:-0.804367 5:-0.449083 6:-0.558678 7:-0.596736 8:0.365993 9:0.322432 10:-0.724813 11:0.75876 12:-0.786745 13:-0.967038 14:-0.700933 15:-0.941356 16:-0.249296 17:-0.937773 18:0.223013 19:0.338408 20:-0.233231 21:-0.102693 22:-0.603114 23:-0.687944 24:0.581687 25:0.040816 26:0.570463 27:-0.913978 28:-0.245417 29:-0.362735 30:0.038511 31:-0.330734 32:-0.846805 33:-0.010455 34:0.324213 35:0.096034 36:-1.0 37:-1.0 38:0.481899 39:-1.0 40:-0.311245 41:-0.600967 42:-0.053091 43:-0.338346 44:-0.035914 45:-0.906793 46:-0.904027 47:0.428689 48:-0.838184 49:-0.156856 50:0.52477 51:0.565364 52:-0.939394 53:0.145884 54:0.260043 55:-0.013088 56:-0.299547 57:1.0 58:0.442104 59:-0.086437 60:-0.441509 61:0.176238 62:-0.349261 63:-0.546202 64:0.054842 65:0.711109 66:-0.848785 67:1.0 68:0.052472 69:0.463092 70:0.037037 71:0.120575 72:-0.919813 73:0.607763 74:0.072266 75:0.24503 76:0.363271 77:0.430759 78:-0.997763 79:-0.155556 80:-0.943637 81:-0.146369 82:-0.808584 83:-0.153739 84:-0.708364 85:-0.848727 86:-0.714484 87:0.083653 88:-1.0 89:-0.199796 90:-0.108514 91:0.088104 92:-0.007702 93:-0.061236 94:0.014126 95:0.194661 96:0.329344 97:-1.0 98:0.792071 99:-0.2013 100:1.0 101:0.119159 102:-0.037504 103:0.172446 104:-0.098573 105:0.581123 106:0.205882 107:0.711576 108:-0.481268 109:-1.0 110:-0.358139 111:0.199588 112:-0.373769 113:-0.350146 114:-0.920084 115:0.027397 116:-0.970037 117:-0.215071 118:-0.002367 119:-1.0 120:0.662363 121:-0.984122 122:-0.902522 123:0.409509 124:0.67581 125:0.603923 126:-0.458166 127:-0.680968 128:-0.32871 129:-0.018121 130:-0.787016 131:-0.977299 132:-0.975468 133:-0.492063 134:-0.809823 135:-0.984065 136:-1.0 137:-0.607508 138:0.393471 139:-0.357671 140:-0.692925 141:-0.686776 142:-0.431085 143:-0.304137 144:-0.774833 145:-0.260523 146:0.493991 147:-0.140447 148:0.075001 149:-0.254453 150:-0.67961 151:0.863248 152:-0.725803 153:-0.518607 154:0.940338 155:0.108657 156:1.0 157:-0.263071 158:-0.707026 159:-0.18588 160:0.083333 161:0.077349 162:-0.883822 163:-0.04655 164:-0.156301 165:-0.549593 166:-0.513306 167:-0.745085 168:-0.087719 169:0.192661 170:-0.226555 171:-0.936171 172:-0.38859 173:0.057622 174:-0.917801 175:0.361407 176:-0.135154 177:0.396442 178:-1.0 179:-0.111061 180:-0.588476 181:0.190621 182:1.0 183:0.864784 184:-0.122843 185:-0.788155 186:0.866753 187:0.503356 188:0.408414 189:-0.980792 190:7.07E-4 191:-0.368317 192:0.282528 193:-0.649865 194:-0.845863 195:0.575828 196:0.373737 197:-0.131527 198:-0.90737 199:-1.0 200:-0.373187 201:-0.727805 202:-0.24913 203:0.029954 204:-0.265247 205:-0.003289 206:-0.249961 207:0.265049 208:-0.397648 209:0.413611 210:0.470678 211:0.342133 212:-0.558767 213:-0.433395 214:-1.0 215:-0.056722 216:-1.0 217:0.183772 218:-0.445698 219:0.393797 220:-0.573114 221:-0.744765 222:-0.736772 223:-1.0 224:-0.136076 225:-0.868146 226:-0.009182 227:-0.883027 228:-0.754089 229:-0.715715 230:-0.767934 231:0.399643 232:-0.411765 233:0.703401 234:-0.708673 235:0.732641 236:-0.729455 237:0.724342 238:-0.788773 239:-0.786589 240:0.987333 241:-0.45614 242:0.845435 243:-0.856449 244:0.747511 245:-0.421764 246:0.7887 247:-0.837562 248:-0.914556 249:0.919827 250:0.254658 251:0.288331 252:-0.903757 253:-0.271581 254:0.322269 255:0.269695 256:-0.397742 257:-0.63812 258:-0.899286 259:0.325 260:-0.778044 261:-0.963819 262:0.257367 263:0.039868 264:0.235856 265:-0.720279 266:-0.920592 267:0.527977 268:-0.486667 269:0.133997 270:-0.981108 271:-1.0 272:0.900307 273:0.966005 274:-0.620125 275:-0.813834 276:-0.994605 277:-1.0 278:-0.79712 279:-0.988442 280:-0.105787 281:-0.346807 282:-0.732148 283:-0.486778 284:-0.682094 285:-0.536425 286:0.879518 287:-0.12986 288:-0.890755 289:0.40189 290:-0.366504 291:0.086344 292:-0.329514 293:-0.757669 294:0.985735 295:0.219512 296:0.833093 297:-0.943376 298:-0.061484 299:-0.779905 300:0.854846 301:-0.881197 302:-0.876845 303:-0.840928 304:-0.085714 305:-0.24424 306:-0.849106 307:0.038603 308:-0.267328 309:-0.229978 310:0.160351 311:-0.245867 312:-0.815069 313:-0.636364 314:-0.749538 315:-0.77335 316:0.18029 317:0.496282 318:-0.398377 319:-0.276101 320:-0.585736 321:0.998064 322:0.178947 323:0.956994 324:-0.963788 325:0.909494 326:0.910549 327:0.911583 328:-0.947757 329:-0.923169 330:0.99989 331:-0.25179 332:0.659421 333:-0.619993 334:-0.440758 335:-0.690493 336:-0.965826 337:-0.935552 338:-0.929222 339:-0.358688 340:1.0 341:0.556071 342:-0.073202 343:0.371158 344:-0.825209 345:0.996381 346:-0.879259 347:-0.840158 348:-0.772967 349:0.014925 350:-1.0 351:1.0 
-34.59427085118787 1:-1.0 2:-1.0 3:-1.0 4:-0.939773 5:-0.764913 6:-0.688838 7:-1.0 8:-0.208652 9:-0.427324 10:-0.839929 11:0.841949 12:-0.844285 13:-0.700243 14:-0.912372 15:-0.905636 16:-0.101157 17:-0.532697 18:-0.742708 19:-0.331517 20:1.0 21:-0.201701 22:-0.278868 23:0.146709 24:0.762728 25:0.339286 26:0.768134 27:-0.023026 28:-0.998773 29:0.724466 30:0.053463 31:-0.296048 32:0.322713 33:-0.146723 34:0.636115 35:-0.137669 36:0.461274 37:0.993996 38:-0.611354 39:-0.336857 40:-0.420958 41:-0.482528 42:-0.251455 43:-0.263158 44:-0.322987 45:-0.432274 46:-0.252004 47:0.202189 48:-0.835263 49:-0.556525 50:-0.24053 51:1.0 52:0.060606 53:1.0 54:-0.359222 55:0.01694 56:-0.973082 57:-0.687171 58:0.049245 59:-0.44726 60:-0.458854 61:-0.013861 62:-0.396174 63:-0.62796 64:-0.281439 65:0.185454 66:-0.874537 67:-0.44352 68:0.101635 69:0.531159 70:-0.481482 71:0.334478 72:-0.046541 73:-0.242749 74:1.0 75:-0.821938 76:0.15161 77:-0.123759 78:-0.22536 79:-0.552778 80:-0.334041 81:-0.921961 82:-0.049645 83:-0.016671 84:-0.534829 85:0.40818 86:0.611444 87:0.857145 88:0.290789 89:0.542498 90:1.0 91:-0.914489 92:0.692471 93:-0.052219 94:0.466145 95:-0.361857 96:0.395637 97:0.059459 98:0.70075 99:-0.822957 100:-0.128749 101:-0.88561 102:-0.001215 103:-0.409871 104:0.033745 105:-0.376927 106:1.0 107:-0.232506 108:1.0 109:-0.232599 110:-0.7633 111:-0.174914 112:-0.855397 113:-0.8201 114:-0.805996 115:-0.123288 116:-0.137888 117:-0.857503 118:0.771992 119:-0.577229 120:0.758031 121:-1.0 122:-0.909642 123:0.349297 124:0.755611 125:-0.276213 126:-0.6357 127:-0.404983 128:-0.444647 129:0.222498 130:-0.424647 131:-0.582003 132:-0.957033 133:-0.746032 134:-0.613973 135:-0.860313 136:-0.497169 137:0.179012 138:0.358121 139:-0.300431 140:-0.730854 141:-0.475643 142:-0.266862 143:0.302348 144:-0.814179 145:-0.292597 146:0.255641 147:-0.638949 148:-0.186645 149:-0.536849 150:0.002517 151:0.339031 152:0.05356 153:-0.746037 154:-0.553572 155:-0.046714 156:-0.023432 157:-0.292928 158:-0.690401 159:-0.230556 160:0.270833 161:-0.03667 162:-0.863877 163:-0.523416 164:-0.618899 165:-0.402233 166:-0.797972 167:-0.888046 168:-0.27722 169:-0.247706 170:-0.519719 171:-0.918751 172:-0.507656 173:-0.342112 174:-0.577859 175:-0.508245 176:-0.791225 177:0.876283 178:-0.301144 179:0.936772 180:-0.697804 181:-0.156279 182:-0.730082 183:0.826646 184:-0.624049 185:-0.793501 186:0.791365 187:1.0 188:0.230803 189:-0.848989 190:0.525052 191:0.750858 192:1.0 193:-0.08904 194:-0.590991 195:0.543855 196:0.333333 197:-0.114725 198:-0.901227 199:1.0 200:0.265197 201:-0.388439 202:0.118358 203:0.132845 204:-0.877789 205:-1.0 206:-0.803881 207:-0.385555 208:0.514945 209:-0.964813 210:0.38618 211:-0.802948 212:-0.900265 213:-0.717097 214:0.4375 215:-0.42897 216:-0.855349 217:-0.258688 218:-0.58557 219:0.452959 220:-0.791415 221:-0.926909 222:-0.739434 223:0.571429 224:-0.232056 225:-1.0 226:-0.222081 227:-0.99801 228:-0.756384 229:-1.0 230:-0.838498 231:0.411076 232:-1.0 233:1.0 234:-0.391891 235:0.829959 236:-0.046981 237:0.597613 238:-0.521296 239:-0.678262 240:0.986877 241:0.491228 242:0.816394 243:-0.906244 244:0.710501 245:-0.169064 246:0.449329 247:-0.61524 248:-0.834513 249:0.937849 250:0.118012 251:0.634741 252:-0.954137 253:-0.7677 254:0.075691 255:0.299984 256:-0.604459 257:-0.751507 258:-0.902967 259:0.0875 260:-0.818278 261:-0.972142 262:0.139994 263:0.519927 264:0.502461 265:-0.614329 266:-0.756849 267:0.532929 268:-0.28 269:0.192361 270:-0.941644 271:-0.405867 272:-0.165866 273:0.964744 274:-0.833745 275:-0.965176 276:-0.990525 277:0.46 278:-0.687909 279:-0.984738 280:-0.205401 281:-0.756968 282:-0.619403 283:-0.794966 284:-0.785524 285:-0.543828 286:-0.156627 287:-0.218695 288:-0.868017 289:0.623474 290:-0.115112 291:-1.0 292:-0.588645 293:-0.833104 294:0.956812 295:0.957317 296:0.673778 297:-0.936181 298:-0.342944 299:0.223266 300:0.798992 301:-0.568195 302:-0.82103 303:-0.842607 304:0.228571 305:-0.153656 306:-0.988608 307:-0.118399 308:-0.497333 309:-0.191016 310:0.044358 311:-0.225769 312:-0.770917 313:0.090909 314:-0.654415 315:-0.746842 316:0.735526 317:-0.301054 318:-0.353123 319:-0.867407 320:-0.979331 321:0.98875 322:-0.101754 323:0.838586 324:-0.983814 325:1.0 326:1.0 327:1.0 328:-1.0 329:-1.0 330:1.0 331:1.0 332:1.0 333:-0.914897 334:-0.61318 335:-1.0 336:-0.925173 337:-1.0 338:-1.0 339:-0.359393 340:-0.310345 341:0.012997 342:-1.0 343:0.759269 344:-1.0 345:0.980894 346:-1.0 347:-1.0 348:-0.768598 349:-0.358209 350:0.247203 351:-1.0 
-1.1311420676584554 1:-0.900172 2:-0.898617 3:-0.897025 4:-1.0 5:-1.0 6:-0.686071 7:-0.560634 8:-0.125425 9:-0.574084 10:-0.969333 11:0.967708 12:-0.96679 13:-0.896462 14:-0.829388 15:-0.92984 16:1.0 17:-0.768642 18:-0.265875 19:0.665328 20:-1.0 21:-0.266019 22:-0.404144 23:0.505332 24:0.149657 25:-0.160714 26:-0.390829 27:0.530639 28:0.796555 29:-1.0 30:0.146135 31:-1.0 32:-0.629505 33:0.080232 34:0.296854 35:0.333138 36:-0.020414 37:-0.114946 38:-0.421399 39:-0.235458 40:0.075308 41:0.314935 42:-1.0 43:-0.37594 44:-0.990103 45:1.0 46:-0.502447 47:0.222947 48:-0.833208 49:0.358306 50:0.353878 51:0.431608 52:-0.909091 53:0.11537 54:-0.638154 55:-0.018941 56:-0.97137 57:-0.345495 58:-1.0 59:-1.0 60:-0.385053 61:-0.077228 62:-0.363193 63:-0.68243 64:-0.088064 65:0.473841 66:-0.848518 67:-0.266055 68:-0.430182 69:0.402298 70:-0.012346 71:0.14245 72:-0.665255 73:-0.521418 74:-1.0 75:0.310256 76:-0.642312 77:-0.214156 78:0.159163 79:-1.0 80:0.18229 81:0.500761 82:-0.363996 83:-0.145166 84:-0.661714 85:0.15705 86:-0.22613 87:0.196804 88:-0.478947 89:0.036107 90:-0.459981 91:0.179631 92:-0.881398 93:0.10182 94:-0.963101 95:-1.0 96:-0.277658 97:-0.005405 98:0.051093 99:-0.78153 100:0.9763 101:-0.204968 102:-0.026937 103:0.310616 104:0.264981 105:-1.0 106:0.090074 107:-0.558891 108:0.128204 109:-0.244211 110:-1.0 111:-0.792661 112:-1.0 113:-1.0 114:-0.808952 115:0.150685 116:-0.158944 117:-1.0 118:0.281689 119:-0.285489 120:0.677131 121:-0.7326 122:-0.850076 123:0.361178 124:0.117207 125:0.03301 126:-0.857276 127:-0.27359 128:-0.197343 129:0.863379 130:-0.615636 131:-0.842896 132:-0.969723 133:-0.619048 134:-0.705589 135:-0.954453 136:0.018377 137:-1.0 138:0.43152 139:-0.710714 140:-0.718093 141:-0.664775 142:0.061584 143:-0.169555 144:-0.55392 145:-0.949589 146:0.375159 147:-0.752469 148:0.105191 149:0.106401 150:0.073043 151:0.430199 152:0.107344 153:-0.30028 154:1.0 155:0.426826 156:0.546623 157:0.093446 158:-0.705127 159:-0.222999 160:0.8125 161:0.00377 162:-0.919141 163:0.420713 164:-0.753837 165:-0.601275 166:-0.853989 167:-0.909599 168:-0.061986 169:0.33945 170:-0.141978 171:-0.812839 172:0.540118 173:0.732534 174:-0.788534 175:-0.278033 176:-0.752745 177:0.773282 178:0.085133 179:0.49104 180:-0.951041 181:0.228946 182:-0.654745 183:0.825411 184:-0.442971 185:-0.608819 186:0.80318 187:0.315436 188:0.277824 189:-0.82456 190:0.086431 191:0.028124 192:0.201663 193:-0.326363 194:-0.701317 195:0.573479 196:0.676768 197:-0.06895 198:-0.91085 199:0.053635 200:-0.818452 201:-0.653955 202:-0.92704 203:-1.0 204:-0.109592 205:0.122807 206:0.082807 207:-0.634238 208:-0.438161 209:-0.259468 210:0.59129 211:-0.109747 212:-0.578073 213:-0.486697 214:-0.588235 215:0.032825 216:-0.801775 217:-0.422043 218:-1.0 219:0.51956 220:-1.0 221:-1.0 222:-0.737876 223:-0.619048 224:-0.283954 225:-0.925113 226:0.160219 227:-0.297927 228:-0.623044 229:-0.626385 230:-0.929107 231:0.377981 232:0.397059 233:0.567531 234:-1.0 235:0.753065 236:-0.206894 237:0.640108 238:-0.688113 239:-0.783115 240:0.983175 241:-0.675439 242:0.713609 243:-0.949995 244:0.573438 245:-0.48465 246:0.78811 247:-0.798025 248:-0.729811 249:0.925661 250:-0.478261 251:0.444947 252:-0.812561 253:-0.36364 254:0.646714 255:-1.0 256:-0.444726 257:-0.643698 258:-0.854413 259:0.2 260:-0.585198 261:-0.930692 262:0.08105 263:1.0 264:0.662397 265:-0.496631 266:-0.658268 267:0.525737 268:-0.466667 269:0.120368 270:-0.943646 271:-0.583739 272:-0.58109 273:0.966733 274:-0.877067 275:-0.965537 276:-0.991121 277:-0.6 278:-0.696577 279:-0.936586 280:-0.197573 281:-0.004044 282:-0.775106 283:-0.645993 284:-0.869411 285:-0.54366 286:0.228916 287:-0.204583 288:-0.986367 289:0.352768 290:-0.147635 291:0.129612 292:-0.526436 293:-0.812934 294:0.930573 295:0.512195 296:0.480483 297:-0.941528 298:-0.473698 299:0.031183 300:0.929408 301:-0.65266 302:-0.800299 303:-0.831055 304:-0.885714 305:-0.009892 306:-0.953225 307:-0.410211 308:-1.0 309:-0.235785 310:-1.0 311:-1.0 312:-0.792337 313:-1.0 314:-0.59821 315:-0.797135 316:0.82523 317:0.32677 318:-0.278756 319:-0.580146 320:-0.801854 321:0.986161 322:0.908772 323:0.826294 324:-0.956511 325:0.902077 326:0.903223 327:0.904363 328:-0.949808 329:-0.928591 330:0.999912 331:-0.129939 332:0.717247 333:-0.721411 334:-0.57649 335:-0.693678 336:-0.96664 337:-0.950043 338:-0.974677 339:-0.359495 340:-1.0 341:-0.064425 342:-0.96854 343:0.759465 344:-0.820408 345:0.979293 346:-0.938589 347:-0.944526 348:-0.76857 349:0.522388 350:0.243163 351:-0.920038 
