svm_type c_svc
kernel_type rbf
gamma 0.001953125
nr_class 2
total_sv 22
rho 0.1880033137597831
label 1 -1
nr_sv 12 10
SV
1.2376518824305551 1:-0.829455 2:-0.847142 3:-0.865526 4:0.514171 5:1.0 6:-0.834002 7:0.900998 8:-1.0 9:-0.120979 10:0.408223 11:-0.590711 12:0.775806 13:1.0 14:1.0 15:1.0 16:0.0432 17:1.0 18:1.0 19:1.0 20:-0.06129 21:0.582091 22:0.583473 23:-0.07088 24:-0.599129 25:0.314685 26:-0.607642 27:-0.326145 28:0.412311 29:-0.521799 30:0.198235 31:-0.022392 32:0.765319 33:-0.793333 34:-0.576923 35:-1.0 36:1.0 37:0.831804 38:0.274647 39:0.803618 40:0.420637 41:0.548514 42:-0.260862 43:0.183673 44:-0.059633 45:-0.796865 46:0.926145 47:-0.835833 48:0.231323 49:-0.565587 50:-0.576944 51:0.328029 52:-0.365854 53:0.226763 54:-0.830403 55:1.0 56:-0.233227 57:0.2524 58:-0.31328 59:-0.320172 60:0.539093 61:-0.043478 62:0.867709 63:-0.017926 64:0.159962 65:-1.0 66:-0.767022 67:-1.0 68:-1.0 69:0.138267 70:-0.189189 71:1.0 72:1.0 73:0.198969 74:-0.638624 75:0.005334 76:-0.418863 77:-0.355918 78:-0.041176 79:0.043478 80:-0.262456 81:-0.535421 82:0.08325 83:-0.002654 84:-0.558279 85:-0.319133 86:-0.31338 87:0.638129 88:0.123288 89:0.44337 90:-0.491987 91:0.702896 92:-0.369411 93:-0.495523 94:0.047714 95:0.144403 96:-0.457672 97:0.076923 98:-0.722621 99:0.467003 100:-0.447293 101:0.396685 102:0.967654 103:0.635232 104:0.914108 105:-1.0 106:0.25 107:-1.0 108:-0.164363 109:1.0 110:-0.30221 111:-0.999812 112:1.0 113:1.0 114:1.0 115:0.726496 116:1.0 117:0.568126 118:-1.0 119:0.395566 120:0.270421 121:1.0 122:1.0 123:1.0 124:-0.130435 125:1.0 126:0.514076 127:-0.677184 128:0.279831 129:-0.319684 130:-0.554156 131:-0.519265 132:-0.952656 133:-0.452711 134:-0.005697 135:-0.543654 136:-1.0 137:-0.168185 138:0.233574 139:-0.329245 140:-0.69617 141:-0.254673 142:0.209677 143:0.261423 144:-0.329455 145:0.166293 146:0.412951 147:-0.414383 148:-0.283809 149:-0.495005 150:-0.655094 151:0.15 152:1.0 153:-0.368717 154:0.232785 155:0.627492 156:-0.455187 157:1.0 158:0.848952 159:1.0 160:0.219512 161:0.517806 162:-0.379052 163:0.450129 164:-0.525644 165:0.26417 166:-0.584546 167:-0.750546 168:-0.76328 169:-0.33871 170:0.034765 171:-0.931532 172:-0.628567 173:-0.906498 174:-0.78859 175:-0.639423 176:-0.408246 177:-0.967497 178:1.0 179:-1.0 180:1.0 181:1.0 182:0.241045 183:-0.282924 184:0.168894 185:0.180329 186:-0.150592 187:0.101449 188:0.491169 189:0.101014 190:-0.763274 191:0.836664 192:-0.709052 193:0.010713 194:-0.126701 195:0.267721 196:-0.512772 197:-0.695412 198:0.428649 199:0.164682 200:0.803009 201:-1.0 202:0.185787 203:-0.254437 204:1.0 205:-0.655172 206:0.982054 207:-0.705746 208:1.0 209:-0.529631 210:-0.051195 211:1.0 212:1.0 213:1.0 214:0.745455 215:1.0 216:1.0 217:-1.0 218:-0.597684 219:-0.651219 220:0.964629 221:0.993394 222:-0.208022 223:0.117647 224:-0.477512 225:0.056417 226:1.0 227:0.423034 228:1.0 229:1.0 230:1.0 231:1.0 232:0.738095 233:1.0 234:1.0 235:0.710185 236:0.226622 237:0.381664 238:-0.680516 239:-0.649391 240:0.990707 241:0.090909 242:0.458985 243:-0.690978 244:0.574904 245:-0.51928 246:-0.426576 247:-0.896149 248:-0.902743 249:0.03936 250:0.181818 251:-0.170393 252:-0.623923 253:0.284871 254:0.231995 255:-0.622795 256:-0.367522 257:-0.295506 258:-0.212853 259:0.141304 260:0.634193 261:0.296858 262:-1.0 263:1.0 264:-0.746143 265:1.0 266:1.0 267:-1.0 268:-0.432018 269:-1.0 270:1.0 271:0.991415 272:-0.048996 273:-0.713657 274:-0.690193 275:-0.742584 276:0.999416 277:0.243243 278:0.772559 279:-0.898128 280:1.0 281:-0.549698 282:0.188233 283:-0.030972 284:0.272323 285:0.983729 286:1.0 287:1.0 288:1.0 289:-1.0 290:-0.118885 291:0.499625 292:-0.537852 293:-0.725189 294:-0.972636 295:-0.448276 296:-0.645935 297:-0.768105 298:0.198752 299:0.603972 300:0.619009 301:-0.455148 302:-0.509733 303:-0.757132 304:0.351955 305:0.3776 306:-0.310524 307:-0.374633 308:1.0 309:0.161727 310:-0.168662 311:-0.342188 312:0.82573 313:-0.533333 314:-0.334408 315:-0.497671 316:-1.0 317:-0.929575 318:-0.370345 319:1.0 320:1.0 321:-1.0 322:1.0 323:-1.0 324:1.0 325:-0.943693 326:-0.9905 327:-1.0 328:1.0 329:1.0 330:-1.0 331:0.033346 332:-0.341148 333:-0.126301 334:1.0 335:0.106547 336:0.332943 337:1.0 338:1.0 339:1.0 340:-1.0 341:1.0 342:0.832445 343:-1.0 344:-0.548698 345:-0.103317 346:1.0 347:1.0 348:-1.0 349:-0.758242 350:-1.0 351:0.057791 
2.6071193428058246 1:-0.795586 2:-0.798776 3:-0.801765 4:-0.193269 5:-0.070374 6:0.055263 7:0.607697 8:1.0 9:0.72038 10:-0.295785 11:0.344126 12:-0.395737 13:-0.320742 14:-0.113694 15:-0.604917 16:0.5808 17:0.69006 18:0.962122 19:0.227686 20:-0.028078 21:0.279387 22:-0.156534 23:-0.401819 24:0.285499 25:0.489511 26:0.549989 27:-0.138579 28:-0.106681 29:0.079036 30:-1.0 31:0.364136 32:0.930111 33:0.672958 34:-1.0 35:0.31748 36:0.251282 37:0.432447 38:-1.0 39:0.802004 40:-0.721401 41:-0.081218 42:0.178383 43:0.061224 44:0.53635 45:-0.112065 46:-0.490938 47:-0.50383 48:0.255842 49:-0.464528 50:-0.417807 51:0.139086 52:-0.073171 53:-0.191747 54:-0.546913 55:0.207932 56:-0.124753 57:0.278922 58:-0.45279 59:-0.845059 60:0.319153 61:0.217391 62:0.578742 63:-0.846992 64:-0.502272 65:0.880079 66:-1.0 67:0.444216 68:0.127429 69:0.38136 70:-0.189189 71:0.365909 72:-0.821062 73:0.190353 74:0.142458 75:1.0 76:0.657761 77:0.924537 78:-0.820738 79:-0.391304 80:-0.959353 81:0.16706 82:1.0 83:0.126187 84:-0.547706 85:-0.566929 86:-0.156248 87:0.020419 88:-0.607306 89:-0.395298 90:-0.226547 91:0.659372 92:0.355952 93:-0.678765 94:0.171478 95:-0.199692 96:0.44057 97:0.307692 98:0.396903 99:-0.522696 100:0.226632 101:0.568397 102:0.961091 103:0.661186 104:0.257033 105:1.0 106:-0.416667 107:0.141575 108:-0.817868 109:-0.310759 110:-0.619067 111:-0.999994 112:-0.847101 113:-0.683018 114:-0.479157 115:0.504273 116:-0.010595 117:-0.288836 118:1.0 119:0.077391 120:-0.180687 121:-0.670759 122:-0.779884 123:-0.567577 124:0.173913 125:0.3948 126:-0.796251 127:-0.213885 128:-0.759916 129:-0.612212 130:-0.830053 131:-0.789162 132:-0.984305 133:0.225725 134:-0.587155 135:-0.84584 136:0.478794 137:1.0 138:0.170614 139:0.389731 140:-0.52881 141:-0.593807 142:0.548387 143:-0.311182 144:-0.923193 145:-0.065775 146:-0.378911 147:-0.366407 148:-0.894422 149:-0.91728 150:-0.94312 151:0.8 152:-0.410072 153:-0.667414 154:-0.317853 155:0.492907 156:-0.05082 157:0.421966 158:0.543413 159:0.078195 160:0.02439 161:-0.022844 162:-0.638527 163:-0.167628 164:-0.763371 165:0.293369 166:-0.923819 167:-0.999182 168:-0.798679 169:-0.354839 170:-0.320382 171:-0.974735 172:-0.419745 173:0.163238 174:-0.776474 175:0.150738 176:0.114814 177:-0.826768 178:-0.382979 179:-0.034882 180:-0.772899 181:0.442574 182:-0.021306 183:-0.315248 184:-0.234319 185:-0.060482 186:-0.537305 187:0.101449 188:-0.656637 189:0.4846 190:-0.526543 191:0.08361 192:-0.683204 193:-0.627314 194:-0.74913 195:0.78479 196:-1.0 197:0.375934 198:-0.916989 199:-0.702203 200:-0.330776 201:-0.942918 202:-0.437033 203:-0.528475 204:0.671636 205:-0.724138 206:-0.173736 207:-0.580567 208:-0.871121 209:0.254772 210:0.250065 211:0.283961 212:-0.119961 213:-1.0 214:-0.563636 215:-0.926066 216:-0.923453 217:-0.163565 218:-0.313784 219:0.644242 220:-0.662977 221:-0.81944 222:0.091785 223:1.0 224:-0.344944 225:-0.979124 226:-0.188902 227:-0.58718 228:0.729463 229:-0.85002 230:-0.9345 231:-0.288231 232:0.227679 233:-0.045744 234:-0.988649 235:0.87895 236:-0.143498 237:-0.09245 238:-0.854013 239:-0.9091 240:0.995231 241:-0.438017 242:0.860875 243:-0.869078 244:0.039117 245:-0.335997 246:-0.441154 247:-0.254195 248:-0.619763 249:0.347722 250:0.727273 251:0.480048 252:-0.839611 253:-0.045634 254:-0.907324 255:-0.581708 256:-0.927778 257:-0.945388 258:-0.251982 259:0.043478 260:0.052694 261:-0.943288 262:0.402584 263:-0.045921 264:-0.848735 265:-0.056324 266:-0.201879 267:0.570748 268:0.277959 269:0.100785 270:-0.782267 271:0.887643 272:-0.76911 273:-0.603846 274:-0.893951 275:-0.901332 276:0.99736 277:-0.135135 278:0.825826 279:-0.888088 280:0.493676 281:0.747566 282:0.347085 283:0.767952 284:0.304757 285:0.589785 286:0.411765 287:0.010703 288:-0.936838 289:-0.49706 290:0.207588 291:-0.03913 292:-0.556784 293:-0.810517 294:-0.95372 295:-0.724138 296:-0.440304 297:-0.918412 298:-0.517275 299:0.419292 300:0.248778 301:-0.744761 302:-0.862067 303:-0.798006 304:0.173184 305:-0.303855 306:-1.0 307:0.42019 308:-0.318942 309:-0.204085 310:-0.841617 311:-0.890304 312:0.929279 313:0.2 314:0.026129 315:-0.931692 316:0.52421 317:-0.183513 318:-0.331318 319:-0.438022 320:-0.480128 321:0.938532 322:-0.355932 323:0.146474 324:-0.584166 325:0.944442 326:0.943954 327:0.944596 328:-0.591993 329:-0.449132 330:0.939383 331:0.169969 332:-1.0 333:1.0 334:-0.694569 335:-0.949007 336:0.182063 337:-0.671003 338:-0.584037 339:-0.927842 340:0.324324 341:-0.934886 342:1.0 343:0.859761 344:-0.890283 345:-0.129454 346:-0.671824 347:-0.592954 348:0.744275 349:-0.098901 350:0.870236 351:1.0 
3.8118488061615343 1:0.350286 2:0.347491 3:0.345004 4:0.704996 5:0.387205 6:1.0 7:0.810295 8:0.302295 9:-0.34692 10:0.986836 11:-1.0 12:1.0 13:0.710428 14:0.552536 15:0.454688 16:0.1584 17:0.924383 18:0.731696 19:0.458158 20:-0.130769 21:0.134422 22:-0.176349 23:-0.721857 24:-0.037315 25:0.202797 26:-0.068031 27:-0.898062 28:-0.174934 29:-0.060836 30:0.397075 31:-1.0 32:-0.802842 33:-0.359049 34:-0.548077 35:-0.881937 36:-0.309165 37:0.583007 38:0.677406 39:0.842681 40:0.404919 41:0.180269 42:0.512429 43:0.510204 44:0.503325 45:-0.92587 46:-0.819977 47:0.266587 48:0.400197 49:1.0 50:1.0 51:-1.0 52:-0.609756 53:-0.413672 54:-0.483901 55:-0.326558 56:-0.656055 57:0.164344 58:-0.37176 59:-0.271516 60:-0.048908 61:0.652174 62:-0.058935 63:0.463496 64:-0.528353 65:-0.029789 66:-0.905165 67:0.247991 68:-0.213833 69:-0.505625 70:0.189189 71:-0.584617 72:-0.771981 73:-0.968231 74:0.204222 75:0.018349 76:0.694691 77:0.573381 78:1.0 79:-0.391304 80:0.83053 81:0.088512 82:0.270566 83:-1.0 84:-0.614104 85:-0.778975 86:-0.364517 87:0.228859 88:-0.266362 89:-0.065747 90:0.118999 91:0.149797 92:0.871545 93:-0.757201 94:0.795081 95:0.443636 96:-0.592539 97:0.615385 98:-0.464551 99:-0.272921 100:-0.494011 101:0.284739 102:0.86472 103:-0.072898 104:0.103862 105:0.779635 106:0.382813 107:0.37943 108:-0.057475 109:-0.102401 110:1.0 111:-0.999577 112:-0.305656 113:-0.461191 114:-0.481993 115:1.0 116:-0.019076 117:-0.984668 118:0.509348 119:0.438726 120:0.205747 121:-0.306265 122:-0.425287 123:-0.470659 124:1.0 125:0.846348 126:-0.437456 127:-0.706972 128:0.707631 129:-1.0 130:-0.659133 131:-0.790805 132:-0.979371 133:0.757882 134:-0.43494 135:-1.0 136:-0.292499 137:-0.571681 138:0.227068 139:-0.757443 140:-0.909602 141:-0.654953 142:0.346774 143:-0.779624 144:0.050193 145:-0.21251 146:-0.320242 147:-0.394555 148:-0.733256 149:-0.889162 150:-0.950259 151:-1.0 152:-0.407229 153:-0.923195 154:-0.170009 155:0.812523 156:0.049769 157:0.744811 158:-0.022542 159:0.059835 160:0.609756 161:-0.059331 162:-1.0 163:-0.003302 164:-0.39542 165:6.3E-5 166:-0.621922 167:-0.76603 168:-0.799907 169:0.258064 170:-0.272992 171:-0.909651 172:0.406767 173:0.003683 174:-0.55383 175:0.014013 176:-0.023204 177:-0.877199 178:0.659574 179:-0.130306 180:-0.694313 181:-0.596496 182:0.352836 183:1.0 184:0.109071 185:0.147528 186:-0.552637 187:-0.101449 188:-0.439693 189:-0.183809 190:-0.556141 191:0.031106 192:-0.533135 193:-0.807365 194:-0.932025 195:0.785193 196:0.46321 197:0.408138 198:-1.0 199:0.082848 200:-0.333488 201:-0.67443 202:-0.300199 203:-0.307057 204:0.80025 205:0.517241 206:0.662022 207:-0.410248 208:-0.013342 209:-1.0 210:0.156784 211:-0.469818 212:-0.376172 213:-0.905632 214:0.018182 215:-0.516885 216:-0.670397 217:-0.297518 218:0.100921 219:-0.32794 220:0.154639 221:-0.257452 222:0.146552 223:0.470588 224:-0.142471 225:-0.94859 226:-0.050995 227:-0.075602 228:0.581801 229:-0.635898 230:-0.743562 231:-0.289471 232:0.666667 233:-0.074574 234:-0.79873 235:1.0 236:-0.593776 237:0.032479 238:-0.840725 239:-0.890265 240:0.995082 241:-1.0 242:0.815779 243:-0.787989 244:0.826891 245:-0.556967 246:-0.485242 247:-1.0 248:-0.934704 249:0.291368 250:-0.181818 251:0.531983 252:-0.681422 253:-0.035452 254:0.097442 255:-0.675516 256:-0.848791 257:-0.877102 258:-0.251954 259:0.130435 260:0.032208 261:-0.926434 262:-0.028899 263:-0.588125 264:-0.855136 265:-0.212702 266:-0.472085 267:0.565887 268:0.277959 269:0.059149 270:-0.8366 271:0.801398 272:-0.36079 273:-0.710865 274:-0.795471 275:-0.847367 276:0.997293 277:-0.625845 278:0.691419 279:-1.0 280:0.537641 281:0.403253 282:0.013694 283:0.449064 284:0.412496 285:0.552317 286:-0.0 287:-0.020073 288:-0.667302 289:-0.30534 290:0.208347 291:1.0 292:-0.353059 293:-0.544727 294:-0.933564 295:0.655172 296:-0.287932 297:-0.673169 298:-0.583556 299:-0.704689 300:-0.321341 301:-0.928932 302:-0.977554 303:-0.79448 304:0.664804 305:0.010337 306:-0.931306 307:0.529082 308:-0.39535 309:-0.116621 310:-0.635106 311:-0.633663 312:0.953925 313:-0.191667 314:0.534914 315:-0.346378 316:0.718698 317:-0.660171 318:-0.3418 319:-0.726402 320:-0.768184 321:0.984437 322:0.065913 323:0.655604 324:-0.775521 325:-0.309831 326:-0.324344 327:-0.313762 328:0.409565 329:0.678122 330:0.049344 331:-0.011799 332:-0.682605 333:0.547223 334:-0.760283 335:0.230446 336:0.307007 337:0.099109 338:0.154623 339:-0.891604 340:-0.189189 341:-0.293367 342:0.104567 343:0.848945 344:0.653738 345:0.699235 346:0.142765 347:0.238789 348:1.0 349:0.456044 350:0.521809 351:0.10397 
2.087584617956684 1:0.162934 2:0.170846 3:0.178892 4:0.0107 5:-0.191678 6:-0.317902 7:-0.132299 8:-0.074047 9:-0.651108 10:-0.366641 11:0.319854 12:-0.292959 13:0.213299 14:0.511246 15:-0.3714 16:-0.4176 17:0.474623 18:0.459171 19:-1.0 20:0.040876 21:0.028798 22:0.605091 23:0.242897 24:-1.0 25:-1.0 26:-0.991308 27:0.862034 28:-0.312509 29:-0.160941 30:0.580098 31:0.089573 32:0.091278 33:0.100748 34:-0.423077 35:-0.119488 36:-0.540396 37:0.387557 38:-0.028672 39:0.742194 40:-0.365678 41:0.003214 42:0.549488 43:0.102041 44:0.970502 45:-0.308013 46:-0.134972 47:-0.384864 48:0.137438 49:-0.515454 50:-0.315159 51:0.454179 52:1.0 53:0.539829 54:-0.634551 55:0.144731 56:1.0 57:0.519217 58:0.160359 59:-0.302574 60:0.40142 61:0.217391 62:0.497587 63:-0.697777 64:-0.221718 65:-0.014727 66:-0.892025 67:0.718194 68:0.544105 69:-0.607611 70:0.027027 71:-0.456343 72:-0.120415 73:-0.540065 74:-0.050964 75:-0.026832 76:-0.144134 77:-0.415157 78:-0.043484 79:0.478261 80:-0.237375 81:-0.815908 82:-0.316265 83:0.100265 84:-0.715147 85:-0.359273 86:-0.230998 87:0.258867 88:0.074581 89:-0.019049 90:-0.641379 91:0.329712 92:-1.0 93:-0.572721 94:-0.893791 95:-0.418346 96:0.460909 97:-0.153846 98:0.944274 99:0.920144 100:-4.01E-4 101:-0.91891 102:0.910151 103:-0.613339 104:0.104791 105:-0.055268 106:-0.229167 107:-0.659967 108:0.835291 109:-1.0 110:0.499753 111:-0.999957 112:0.271644 113:0.518309 114:-1.0 115:-0.957265 116:-1.0 117:1.0 118:-0.017086 119:0.731232 120:1.0 121:0.604218 122:0.588009 123:-1.0 124:0.021739 125:0.27613 126:0.252652 127:1.0 128:-0.098464 129:-0.907085 130:1.0 131:1.0 132:1.0 133:0.273644 134:1.0 135:1.0 136:1.0 137:-0.065674 138:0.295681 139:0.030732 140:0.07413 141:0.200059 142:0.806452 143:0.838133 144:0.843525 145:1.0 146:-0.134594 147:-0.408247 148:-0.614417 149:-0.702836 150:-0.952681 151:-0.325 152:-0.334964 153:-0.562084 154:-1.0 155:0.117532 156:0.282255 157:0.539967 158:1.0 159:-1.0 160:-0.365854 161:-1.0 162:0.430804 163:-1.0 164:-0.74665 165:0.402744 166:-0.322072 167:-0.345662 168:-1.0 169:-0.225807 170:-1.0 171:-0.001425 172:-0.894154 173:0.713817 174:1.0 175:-0.045571 176:-0.203343 177:-0.828846 178:-0.531915 179:-0.016592 180:-0.913613 181:0.092092 182:-0.234146 183:-0.226521 184:0.006282 185:0.035056 186:-0.198861 187:-0.73913 188:0.524376 189:0.135688 190:-0.833388 191:0.418353 192:-0.675583 193:1.0 194:1.0 195:-1.0 196:-0.561571 197:-0.493022 198:0.745002 199:0.032565 200:-1.0 201:-0.771295 202:-0.631048 203:-0.615533 204:0.798854 205:0.146552 206:0.914601 207:-0.354708 208:-0.051779 209:-0.523725 210:0.356674 211:-0.715938 212:-0.735911 213:-0.928207 214:-0.418182 215:-0.662423 216:-0.898803 217:-0.34583 218:0.373583 219:-1.0 220:1.0 221:1.0 222:-1.0 223:0.426471 224:-1.0 225:0.388564 226:-1.0 227:1.0 228:0.794678 229:0.607711 230:0.529604 231:-1.0 232:1.0 233:-1.0 234:0.951127 235:-1.0 236:-0.40165 237:0.006639 238:1.0 239:1.0 240:-1.0 241:-0.702479 242:-1.0 243:1.0 244:-1.0 245:-0.0719 246:-0.407918 247:-0.480897 248:-0.71571 249:0.114143 250:-1.0 251:0.190019 252:-0.898983 253:-0.326072 254:0.251346 255:-0.629402 256:-0.592366 257:-0.593865 258:-0.266687 259:0.369565 260:-0.6331 261:0.152403 262:1.0 263:0.049243 264:-0.862799 265:-0.401764 266:-0.470471 267:0.637003 268:1.0 269:0.337258 270:-0.689217 271:0.612524 272:-0.299101 273:-0.736594 274:-0.416512 275:-0.271098 276:0.916114 277:0.297297 278:-0.670212 279:0.658422 280:0.609369 281:0.428114 282:0.332893 283:0.573324 284:0.638669 285:0.27802 286:-0.529412 287:-0.299464 288:-0.29398 289:-0.108781 290:0.383713 291:0.833511 292:-0.237514 293:-0.419563 294:-0.847326 295:-1.0 296:0.085492 297:-0.417774 298:1.0 299:0.080576 300:-0.360437 301:1.0 302:1.0 303:1.0 304:0.396648 305:1.0 306:1.0 307:1.0 308:-0.292546 309:-0.446 310:-0.53948 311:-0.515722 312:1.0 313:1.0 314:1.0 315:0.390089 316:0.692233 317:-0.570993 318:-0.328823 319:-0.760951 320:-0.797184 321:0.970919 322:-0.596987 323:0.320806 324:-0.821219 325:0.261329 326:0.271717 327:0.296158 328:-0.3428 329:-0.262523 330:0.891047 331:0.340067 332:-0.188256 333:-0.106663 334:-0.350776 335:-0.189564 336:0.172496 337:-0.473294 338:-0.485928 339:-0.935377 340:-0.216216 341:-0.767728 342:-0.16935 343:0.648278 344:-0.216918 345:1.0 346:-0.557183 347:-0.499934 348:0.768969 349:0.296703 350:1.0 351:0.79416 
0.7317936755080942 1:-0.094215 2:-0.088316 3:-0.082086 4:-0.087336 5:0.258652 6:0.207531 7:1.0 8:0.983248 9:1.0 10:-0.185397 11:0.207183 12:-0.240934 13:-0.028255 14:0.143989 15:-0.559105 16:-0.488 17:0.369155 18:0.640109 19:-0.473404 20:-0.00687 21:0.007035 22:-0.215046 23:-0.632864 24:-0.146308 25:-0.356643 26:-0.290545 27:-0.846469 28:-0.66581 29:-0.014194 30:0.407156 31:0.580582 32:-0.304087 33:0.150871 34:-0.567308 35:-0.111901 36:-1.0 37:0.531339 38:-0.237068 39:0.775515 40:0.293558 41:0.486038 42:0.174936 43:0.061224 44:0.269048 45:-0.617012 46:-0.073455 47:-1.0 48:1.0 49:-0.911496 50:-0.616552 51:0.372693 52:-1.0 53:0.353105 54:-0.448926 55:0.519144 56:-0.195386 57:0.290553 58:-0.242071 59:-0.443591 60:-0.248778 61:0.913043 62:-0.296105 63:-0.363537 64:-0.877353 65:0.130309 66:-0.20155 67:-0.082186 68:-0.52001 69:-0.115153 70:-1.0 71:-0.175746 72:-0.775226 73:-0.391613 74:-0.612861 75:-0.066838 76:-1.0 77:-1.0 78:0.210425 79:1.0 80:0.605472 81:-0.387622 82:0.584048 83:0.048556 84:-0.64437 85:0.451931 86:1.0 87:-0.822021 88:-0.120244 89:-0.676753 90:0.714429 91:0.731267 92:0.512669 93:-0.227965 94:0.52639 95:1.0 96:-0.434682 97:0.615385 98:-0.444719 99:1.0 100:0.174001 101:0.213328 102:0.971034 103:0.183849 104:0.392938 105:-0.342746 106:-0.458333 107:-0.740358 108:-0.330044 109:-0.097044 110:-0.299077 111:-0.999771 112:-0.552367 113:-0.417657 114:-0.483259 115:0.709402 116:-0.056082 117:-0.533114 118:0.78711 119:0.635092 120:-1.0 121:-0.45931 122:-0.580171 123:-0.511921 124:-1.0 125:0.804246 126:-0.687791 127:-0.495948 128:-0.588567 129:0.86089 130:-0.860512 131:-0.770418 132:-0.981136 133:-1.0 134:-0.387733 135:-0.738807 136:-0.026448 137:0.001467 138:0.146243 139:-0.265204 140:-0.320161 141:-0.644944 142:0.16129 143:-0.522704 144:0.11913 145:-1.0 146:0.411444 147:-0.440976 148:-0.536571 149:-0.704328 150:-0.947466 151:0.5 152:-0.24139 153:-0.754699 154:0.355163 155:-0.042207 156:0.007958 157:-0.221732 158:-0.436731 159:-0.317016 160:0.219512 161:-0.667 162:-0.589742 163:0.594983 164:0.095248 165:0.639809 166:-0.332182 167:-0.589594 168:-0.810346 169:0.677419 170:-0.294126 171:-0.99039 172:0.343958 173:0.055758 174:-0.639946 175:-0.32994 176:-0.422106 177:-0.915712 178:-0.191489 179:-0.320692 180:-0.686982 181:0.213856 182:-1.0 183:-0.188599 184:-1.0 185:-1.0 186:-0.422413 187:-0.710145 188:-0.48182 189:-0.152403 190:0.156967 191:0.970259 192:-0.723571 193:-0.212319 194:-0.514407 195:0.716481 196:-0.96823 197:0.138484 198:-0.858988 199:-0.440087 200:0.011781 201:-0.976939 202:-0.282278 203:-0.468829 204:0.867593 205:-0.448276 206:1.0 207:-0.488404 208:-0.293422 209:0.383586 210:-0.319492 211:-0.25324 212:-0.378178 213:-0.866457 214:-0.454545 215:-0.395016 216:-0.76284 217:-0.47627 218:-0.505211 219:1.0 220:-0.443164 221:-0.583005 222:0.077185 223:0.058823 224:-0.445634 225:-0.810482 226:-0.226536 227:-0.383607 228:0.62933 229:-0.800521 230:-0.860108 231:-0.287608 232:-0.047619 233:0.086004 234:-0.838996 235:0.868057 236:-0.797579 237:0.009426 238:-0.828775 239:-0.825605 240:0.995453 241:-0.239669 242:0.835675 243:-0.636614 244:0.70066 245:-0.71282 246:-0.409567 247:-0.269842 248:-0.110609 249:-0.555688 250:0.454545 251:-0.479877 252:0.387565 253:-0.018793 254:0.720523 255:-1.0 256:-0.743892 257:-0.797484 258:-0.253787 259:-0.565217 260:-0.186126 261:-0.770672 262:0.27326 263:-0.259386 264:0.478571 265:-0.798315 266:-0.916121 267:0.590522 268:-0.219025 269:0.033119 270:-0.843988 271:0.904214 272:-0.023342 273:-0.322231 274:-0.693514 275:-0.767896 276:1.0 277:0.081081 278:0.810829 279:-0.898916 280:0.446452 281:-0.552538 282:0.246116 283:0.116402 284:0.237189 285:0.896733 286:-0.294118 287:0.628084 288:-0.065621 289:-0.332758 290:-1.0 291:0.416988 292:-1.0 293:-1.0 294:-0.947689 295:-0.448276 296:-0.25155 297:-0.551333 298:-0.596654 299:0.006861 300:-0.759283 301:-0.689412 302:-0.776016 303:-0.790857 304:0.027933 305:0.014132 306:-0.831597 307:0.412224 308:-0.139626 309:0.32011 310:-0.641904 311:-0.767171 312:0.930391 313:0.108333 314:0.105566 315:-0.926716 316:0.919289 317:-0.103038 318:-0.241021 319:-0.507234 320:-0.602267 321:0.971755 322:-0.657251 323:0.442434 324:-0.801364 325:0.918119 326:0.922053 327:0.927369 328:-0.762092 329:-0.668454 330:0.980418 331:0.358728 332:-0.703829 333:0.643583 334:-0.792349 335:-0.662553 336:0.473365 337:-0.789139 338:-0.741212 339:-0.920563 340:0.418919 341:-0.480721 342:0.311255 343:0.82228 344:-0.765665 345:0.1229 346:-0.780424 347:-0.750458 348:0.730255 349:0.296703 350:0.611227 351:0.281293 
4.266181730917595 1:-1.0 2:-1.0 3:-1.0 4:-0.640039 5:-0.720042 6:-0.704883 7:0.762869 8:0.105959 9:-0.464663 10:-0.84882 11:0.853091 12:-0.863418 13:-0.500372 14:-0.348152 15:-0.960782 16:-0.1008 17:-0.822724 18:-0.09558 19:-0.25774 20:-0.731048 21:0.363708 22:-0.230074 23:-0.692703 24:-0.304901 25:0.482517 26:-0.62074 27:-0.630301 28:0.257375 29:0.040947 30:0.26152 31:0.279809 32:0.356599 33:0.266172 34:-0.817308 35:0.006137 36:-0.315669 37:0.453952 38:-0.092794 39:0.833533 40:0.205111 41:0.903417 42:1.0 43:0.755102 44:1.0 45:0.064365 46:-0.314771 47:1.0 48:0.13154 49:0.069673 50:-0.411176 51:0.487791 52:-0.756098 53:0.477195 54:-1.0 55:-0.086926 56:0.676437 57:0.623511 58:-0.363992 59:-0.772308 60:0.195102 61:-0.913044 62:0.343108 63:-0.983585 64:1.0 65:1.0 66:-0.591322 67:0.75479 68:0.30961 69:-1.0 70:-0.297297 71:-0.724844 72:-0.586077 73:1.0 74:-0.602968 75:-0.15658 76:0.283217 77:0.457646 78:0.033108 79:0.652174 80:-0.10609 81:-0.201867 82:-0.18137 83:0.085571 84:-0.644756 85:-0.427491 86:-0.234291 87:1.0 88:0.123288 89:1.0 90:0.744404 91:-0.619529 92:-0.209333 93:-0.503056 94:-0.102722 95:-0.327929 96:-0.552352 97:-0.923077 98:-0.972141 99:-0.231258 100:-1.0 101:0.571854 102:0.96971 103:0.742547 104:0.916441 105:0.001653 106:-0.416667 107:-0.418627 108:-0.468761 109:-0.15589 110:-0.742495 111:-0.999689 112:-0.808779 113:-0.685 114:-0.475415 115:0.709402 116:0.120083 117:-0.506529 118:0.940959 119:-0.191084 120:0.672746 121:-0.796725 122:-0.923091 123:-0.57804 124:-0.173913 125:-0.002197 126:-0.823228 127:-0.484178 128:-0.878855 129:-0.95382 130:-0.855419 131:-0.834967 132:-0.987913 133:0.011349 134:-0.823988 135:-0.820559 136:0.166889 137:0.335613 138:0.305301 139:0.148104 140:-0.168188 141:-0.0108 142:0.516129 143:0.458272 144:-0.118953 145:0.558616 146:-0.284153 147:-0.406737 148:-0.705602 149:-0.889668 150:-0.920239 151:-0.4 152:0.166398 153:-0.897633 154:-0.614786 155:-0.073531 156:-0.115795 157:0.196017 158:-0.116657 159:-0.218816 160:-1.0 161:-0.362095 162:-0.810491 163:-0.113619 164:-0.841127 165:0.41992 166:-0.92372 167:-0.978372 168:-0.791629 169:-0.096774 170:-0.056838 171:-0.982988 172:-0.064344 173:0.468384 174:-0.989402 175:0.095119 176:0.018921 177:-0.88942 178:0.234043 179:-0.149547 180:-0.768322 181:-0.119789 182:0.286643 183:-0.256139 184:-0.234403 185:-0.538206 186:-0.49488 187:-0.362319 188:-0.466904 189:-0.786131 190:0.137285 191:-1.0 192:-0.661155 193:-1.0 194:-1.0 195:0.781725 196:1.0 197:0.341833 198:-0.902367 199:0.350336 200:-0.289819 201:-0.975641 202:-0.64031 203:-0.677095 204:0.782622 205:-0.034483 206:0.738128 207:-0.615036 208:-0.403402 209:-0.450395 210:0.102079 211:-0.504397 212:-0.607758 213:-0.947826 214:-0.272727 215:-0.900947 216:-0.875096 217:-0.160013 218:-0.434397 219:-0.562657 220:-0.596106 221:-0.714732 222:0.091237 223:0.735294 224:-0.336183 225:-0.876986 226:-0.064759 227:-0.608184 228:0.625904 229:-0.893623 230:-0.940825 231:-0.288451 232:-0.619048 233:-0.177865 234:-0.85872 235:0.83024 236:-0.020175 237:1.0 238:-0.845992 239:-0.890383 240:0.991915 241:-0.107438 242:0.436899 243:-0.875242 244:0.181122 245:-0.435563 246:-0.412388 247:-0.194489 248:-0.239951 249:-0.720265 250:-0.0 251:-0.563355 252:-0.015934 253:-0.052765 254:-0.68114 255:-0.632701 256:-0.855083 257:-0.868519 258:-0.251707 259:0.217391 260:0.103132 261:-0.834178 262:-0.160904 263:0.196151 264:-0.919046 265:-0.408962 266:-0.641121 267:0.609903 268:-1.0 269:0.212131 270:-0.883197 271:0.757216 272:-0.719441 273:-0.362657 274:-0.910726 275:-0.869765 276:0.994724 277:-1.0 278:-0.011452 279:-0.36722 280:0.180718 281:-0.557403 282:0.189611 283:0.290084 284:0.727572 285:1.0 286:-0.470588 287:0.637425 288:0.504848 289:-0.54237 290:-0.076285 291:0.628798 292:-0.532195 293:-0.718089 294:-0.954647 295:-0.034483 296:-0.44595 297:-0.776897 298:-0.455809 299:-1.0 300:-0.312857 301:-1.0 302:-1.0 303:-0.795276 304:-0.005587 305:-0.129479 306:-0.840487 307:0.724876 308:-0.54723 309:-0.149387 310:-0.894364 311:-0.951559 312:0.927639 313:-0.066667 314:-0.112501 315:-0.934648 316:0.83235 317:-0.355881 318:-0.402477 319:-0.706326 320:-0.855105 321:0.977041 322:-0.265537 323:0.487801 324:-0.940844 325:0.865915 326:0.873207 327:0.882698 328:-0.887205 329:-0.860286 330:0.996503 331:1.0 332:0.169747 333:-0.472226 334:-0.74045 335:-0.768997 336:0.246385 337:-0.874639 338:-0.875043 339:-0.919472 340:0.459459 341:-0.173976 342:-0.426308 343:0.930087 344:-0.963707 345:-0.09104 346:-0.90774 347:-0.906627 348:0.725344 349:-0.406593 350:0.720079 351:-0.14954 
4.419312143845323 1:-0.351167 2:-0.359195 3:-0.367172 4:0.435598 5:-0.149095 6:0.327803 7:-0.094358 8:0.119553 9:-0.626855 10:-0.345573 11:0.307964 12:-0.304486 13:0.279134 14:0.434452 15:-0.752632 16:-0.7856 17:-0.275115 18:-0.468017 19:0.253009 20:0.141389 21:0.231014 22:0.060505 23:-0.210112 24:0.134849 25:0.230769 26:0.20879 27:-0.462799 28:-0.106275 29:-0.83889 30:0.492459 31:0.397632 32:-0.245484 33:-0.645142 34:-0.115385 35:-0.718431 36:-0.575348 37:0.468973 38:1.0 39:0.835705 40:1.0 41:1.0 42:0.066253 43:0.020408 44:0.160533 45:-0.957013 46:0.238194 47:-0.395661 48:-0.45588 49:-0.017414 50:0.364926 51:0.229769 52:-0.414634 53:0.140445 54:-0.545 55:0.25605 56:-1.0 57:1.0 58:-0.938666 59:-0.716781 60:-2.32E-4 61:-0.130435 62:-0.26506 63:0.363853 64:0.6276 65:-0.036661 66:-0.580899 67:-0.393409 68:-0.792769 69:0.086363 70:-0.297297 71:0.249408 72:-0.973118 73:-0.536577 74:-1.0 75:0.013071 76:-0.559442 77:-0.34235 78:-0.039793 79:0.826087 80:-0.277813 81:-0.216381 82:-0.334346 83:-0.289642 84:-0.627585 85:-0.59502 86:-0.573163 87:0.347366 88:1.0 89:0.135084 90:-0.689655 91:-0.384968 92:-0.282543 93:1.0 94:-0.604351 95:-0.418147 96:0.139839 97:-0.538462 98:-0.014266 99:-0.116995 100:-0.138088 101:0.536565 102:-1.0 103:-0.019946 104:-0.699567 105:0.195015 106:-0.333333 107:-0.263462 108:-1.0 109:0.03084 110:-0.19382 111:-0.999153 112:-0.483255 113:-0.425177 114:-0.476339 115:0.709402 116:0.027409 117:-0.636771 118:0.570662 119:1.0 120:-0.824136 121:-0.431178 122:-0.72994 123:-0.576849 124:0.217391 125:0.417554 126:-1.0 127:-1.0 128:-1.0 129:-0.61177 130:-1.0 131:-1.0 132:-0.982511 133:0.112232 134:-0.390532 135:-0.968789 136:0.093636 137:-0.526466 138:0.233207 139:0.033152 140:-0.221295 141:-0.378208 142:0.548387 143:-0.036697 144:-0.083305 145:0.523515 146:0.519609 147:-0.443028 148:-0.523593 149:-0.741241 150:-0.924795 151:0.7 152:-0.040587 153:-0.856412 154:0.224229 155:-0.357298 156:-0.419264 157:-0.475083 158:-0.275098 159:0.210262 160:1.0 161:0.438515 162:-0.173516 163:-0.071817 164:-0.674903 165:0.453614 166:-0.774757 167:-0.896234 168:-0.800907 169:-0.096774 170:-0.31758 171:-1.0 172:-0.617979 173:-0.750036 174:-0.684155 175:-0.564296 176:-0.584443 177:-0.783109 178:-0.361702 179:0.45799 180:-0.181647 181:-0.842934 182:-0.38219 183:-0.169449 184:-0.67302 185:-0.699241 186:-0.40328 187:-1.0 188:0.002321 189:-0.551642 190:-0.632086 191:-0.047705 192:-1.0 193:-0.587658 194:-0.684364 195:0.778048 196:0.658406 197:0.315629 198:-0.800566 199:-1.0 200:-0.433715 201:-0.911258 202:-0.583046 203:-0.819089 204:0.775605 205:-0.047414 206:0.625015 207:-1.0 208:-0.322291 209:0.262171 210:0.262923 211:-0.284214 212:-0.577984 213:-0.899101 214:-0.854545 215:-0.564775 216:-0.984399 217:-0.397844 218:-0.845258 219:-0.656436 220:-0.356636 221:-0.559099 222:0.018665 223:0.529412 224:-0.852296 225:-0.523703 226:-0.221701 227:0.160492 228:0.590718 229:-0.744323 230:-0.845926 231:-0.286889 232:0.071429 233:0.140094 234:-0.911981 235:0.809453 236:-0.846484 237:0.049636 238:-1.0 239:-1.0 240:0.99298 241:-0.438017 242:0.59362 243:-0.878253 244:-0.069506 245:0.201199 246:-0.391722 247:-0.164409 248:-0.413751 249:-0.689721 250:0.090909 251:-0.501232 252:-0.381243 253:-0.0119 254:1.0 255:0.420146 256:-0.732151 257:-0.768426 258:-0.253028 259:1.0 260:-0.093717 261:-0.852497 262:0.139245 263:-1.0 264:-0.855353 265:-0.782661 266:-0.7771 267:0.569815 268:0.277959 269:-0.16945 270:-0.510559 271:0.703899 272:-0.843958 273:-0.560723 274:-0.855867 275:-0.837778 276:0.998007 277:1.0 278:0.88556 279:-0.695459 280:0.401264 281:-1.0 282:0.239457 283:-0.138886 284:0.142053 285:0.481376 286:-0.352941 287:-0.222512 288:0.273018 289:-0.343384 290:-0.249699 291:0.536283 292:-0.712674 293:-0.804528 294:-0.943433 295:-0.448276 296:-0.265896 297:-0.675569 298:-0.454157 299:-0.059268 300:0.780703 301:-0.744538 302:-0.854267 303:-0.796931 304:0.530726 305:-0.2465 306:-0.988342 307:0.308022 308:-0.203265 309:-0.167744 310:-0.785302 311:-0.869734 312:0.93489 313:0.4 314:0.248681 315:-0.955058 316:0.467082 317:-0.492655 318:-0.337157 319:-0.652403 320:-0.771725 321:0.948357 322:-0.536723 323:-0.015996 324:-0.718215 325:0.394266 326:0.397613 327:0.412872 328:-0.247438 329:-0.387902 330:0.878292 331:0.137809 332:0.085177 333:-0.621277 334:-1.0 335:-0.928161 336:0.251869 337:-0.663661 338:-0.654818 339:-0.919228 340:-0.405405 341:-0.344752 342:-0.007205 343:1.0 344:-0.89957 345:0.048309 346:-0.664579 347:-0.677238 348:0.739623 349:-0.406593 350:0.617149 351:-0.258545 
7.673834120961221 1:-0.058618 2:-0.048145 3:-0.037594 4:-0.360656 5:-0.31053 6:-0.719694 7:0.258967 8:-0.382653 9:-0.585711 10:0.172596 11:-0.040485 12:-0.093408 13:-0.430822 14:-0.308938 15:-0.700652 16:0.3248 17:0.473572 18:0.379122 19:0.18414 20:0.789065 21:-0.585837 22:1.0 23:0.352016 24:-0.383367 25:0.048951 26:-0.293605 27:-0.40427 28:-0.29927 29:0.398816 30:0.368412 31:-0.244074 32:-0.019224 33:0.34096 34:-0.307692 35:0.180328 36:-0.136537 37:-0.285609 38:0.706247 39:0.699589 40:0.871727 41:0.943394 42:-1.0 43:0.00861 44:-0.372471 45:-0.665429 46:0.168845 47:-0.165745 48:0.247722 49:-0.442435 50:-0.484264 51:0.497995 52:-0.268293 53:0.618115 54:-0.84148 55:-0.523701 56:0.310384 57:-0.413826 58:-1.0 59:-1.0 60:0.256153 61:-0.771739 62:0.701595 63:-0.432192 64:-0.785411 65:-0.185522 66:-0.858589 67:-0.648432 68:-0.921504 69:-0.086789 70:-0.675676 71:-0.245753 72:-0.768869 73:0.188306 74:-0.249738 75:-0.140479 76:-0.369675 77:-0.152369 78:-0.051273 79:-0.391304 80:-0.278187 81:-0.284145 82:-0.328812 83:-0.099125 84:-0.550052 85:0.142593 86:0.525636 87:0.179702 88:0.025875 89:-0.090354 90:-0.090217 91:0.230228 92:0.579259 93:-0.127936 94:0.045775 95:-0.182416 96:-0.188144 97:0.076923 98:-0.378502 99:-0.349469 100:-0.740252 101:0.482181 102:0.873113 103:-0.252524 104:-0.677324 105:0.208783 106:1.0 107:-0.216252 108:-0.733614 109:-0.109706 110:0.62907 111:-0.999368 112:-0.568165 113:-0.561824 114:-0.496621 115:0.230769 116:-0.24192 117:-0.818079 118:0.846691 119:-0.1257 120:0.144714 121:-0.699954 122:-0.824858 123:-0.548147 124:0.282609 125:0.695316 126:-0.873836 127:-0.52307 128:-0.010286 129:0.117587 130:-0.581081 131:-0.723908 132:-0.974023 133:0.112232 134:-0.359785 135:-0.953736 136:0.359255 137:-0.605061 138:0.22032 139:-1.0 140:-1.0 141:-0.528324 142:0.032258 143:-0.451798 144:0.011762 145:-0.374613 146:-0.213596 147:-0.398756 148:-0.664886 149:-0.790731 150:-0.938599 151:-0.5 152:-0.1641 153:-0.827008 154:0.312904 155:-0.164497 156:-0.236075 157:-0.32093 158:-0.586372 159:-0.065696 160:0.02439 161:-0.215094 162:-0.955727 163:0.009829 164:-0.935164 165:0.331528 166:-0.947264 167:-0.984502 168:-0.792768 169:-0.096774 170:-0.078265 171:-0.929414 172:-0.74467 173:-0.552217 174:-0.710739 175:-0.543675 176:-0.709131 177:-0.858209 178:-0.574468 179:-0.072888 180:-0.771511 181:0.149499 182:-0.46895 183:-0.27729 184:-0.585686 185:-0.862606 186:-0.417023 187:0.217391 188:-0.149476 189:-0.848944 190:0.291961 191:0.798169 192:-0.726697 193:-0.548966 194:-0.770904 195:0.752552 196:-0.057314 197:0.127053 198:-0.993878 199:0.292664 200:-0.068403 201:1.0 202:-0.649501 203:-0.757883 204:0.737528 205:1.0 206:0.209532 207:-0.941391 208:0.326787 209:-0.498195 210:-1.0 211:-0.683965 212:-0.668883 213:-0.933056 214:0.163636 215:-0.746331 216:-0.846801 217:0.340331 218:-0.28074 219:-0.351333 220:-0.59247 221:-0.756758 222:0.096987 223:-1.0 224:-0.243856 225:-0.975277 226:-0.012553 227:-0.158144 228:0.852969 229:-0.871146 230:-0.904034 231:-0.289058 232:-1.0 233:-0.353153 234:-0.560775 235:0.85275 236:-0.398282 237:-0.025763 238:-0.726478 239:-0.785111 240:0.989713 241:-0.239669 242:0.37369 243:-0.820465 244:0.799117 245:-0.874331 246:-0.423623 247:-0.754228 248:-0.5537 249:0.539032 250:1.0 251:1.0 252:0.002061 253:-0.002144 254:-0.255709 255:-0.553308 256:-0.848756 257:-0.88356 258:-0.252381 259:-0.282609 260:-0.0802 261:-0.910724 262:0.021959 263:-0.008874 264:-0.817562 265:-0.70556 266:-0.928109 267:0.62161 268:0.135963 269:0.326309 270:-1.0 271:0.857217 272:-0.778497 273:-0.612073 274:-0.93588 275:-0.923646 276:0.996198 277:-0.851351 278:0.439038 279:-0.875364 280:0.304657 281:-0.237651 282:0.222093 283:0.021807 284:-0.139465 285:0.556582 286:-0.294118 287:-0.011748 288:-0.722909 289:-0.723289 290:-0.697795 291:0.469487 292:-0.769579 293:-0.835741 294:-0.938418 295:0.241379 296:-0.095647 297:-0.562004 298:-0.639379 299:-0.108931 300:-0.418592 301:-0.719374 302:-0.823619 303:-0.794117 304:-0.363128 305:-0.105599 306:-0.978126 307:0.494488 308:-0.076175 309:-0.003115 310:-0.865021 311:-0.943093 312:0.930202 313:-0.733333 314:0.062267 315:-0.994003 316:0.898438 317:-0.688428 318:-0.321325 319:-0.899109 320:-0.942652 321:0.970101 322:-0.114878 323:0.127176 324:-0.785872 325:0.773376 326:0.782077 327:0.79472 328:-0.811906 329:-0.764289 330:0.990064 331:0.43459 332:-0.203522 333:-0.038878 334:-0.664857 335:-0.584119 336:1.0 337:-0.648961 338:-0.673683 339:-0.904419 340:-0.189189 341:0.538681 342:0.075261 343:0.562212 344:-0.416375 345:-0.748789 346:-0.732054 347:-0.727007 348:0.725362 349:-0.758242 350:0.036366 351:-0.59903 
1.3983186600069724 1:-0.968836 2:-0.964184 3:-0.959484 4:-1.0 5:-1.0 6:-0.94271 7:0.6281 8:-0.477872 9:-0.921627 10:-0.636933 11:0.65728 12:-0.683091 13:-0.424835 14:-0.336456 15:-0.784713 16:0.12 17:0.058256 18:-0.304913 19:-0.838854 20:0.847723 21:0.081145 22:-1.0 23:-0.96547 24:0.052391 25:-0.454545 26:0.313964 27:-0.368973 28:0.327826 29:-1.0 30:0.4754 31:-0.865511 32:-0.307423 33:-0.205355 34:1.0 35:-0.552695 36:-0.154268 37:0.766967 38:0.050243 39:1.0 40:0.20426 41:0.393401 42:-0.041822 43:-0.061224 44:0.091145 45:-0.789027 46:0.295072 47:0.06295 48:-1.0 49:0.009027 50:0.26115 51:0.110453 52:-0.268293 53:-0.012332 54:-0.579063 55:0.939149 56:0.282385 57:-0.678073 58:0.009705 59:-0.248472 60:0.393503 61:0.304348 62:0.528322 63:-0.458392 64:-0.15067 65:0.330044 66:-0.51209 67:0.25841 68:-0.045612 69:-0.24235 70:-0.135135 71:-0.274736 72:-0.769833 73:0.050668 74:0.578787 75:0.017095 76:0.666206 77:-0.140977 78:0.393649 79:0.73913 80:0.247931 81:-1.0 82:-1.0 83:1.0 84:-0.543739 85:0.959293 86:0.428089 87:0.509262 88:-0.120244 89:0.064821 90:-1.0 91:-1.0 92:0.504162 93:-0.059786 94:-0.484156 95:-1.0 96:0.089725 97:-1.0 98:-0.102997 99:-1.0 100:-0.551438 101:0.12217 102:0.912254 103:-0.044943 104:-0.071496 105:0.992939 106:-1.0 107:0.584803 108:-0.184349 109:-0.365009 110:-0.61301 111:-0.999966 112:-0.958484 113:-1.0 114:-0.481542 115:0.042735 116:-0.19541 117:-0.993159 118:-0.168686 119:-0.726099 120:0.412744 121:-0.856381 122:-0.929207 123:-0.548382 124:-0.73913 125:0.937183 126:-0.750446 127:-0.833923 128:-0.136177 129:-0.308203 130:-0.691771 131:-0.589193 132:-0.99222 133:-0.190416 134:-0.797038 135:-0.627935 136:0.10341 137:-1.0 138:0.240657 139:-0.896813 140:-0.836371 141:-0.139206 142:0.16129 143:1.0 144:1.0 145:-0.072821 146:-0.553752 147:-0.583291 148:-0.840735 149:-0.847283 150:-0.93065 151:-0.1 152:0.111107 153:-0.41207 154:-0.225759 155:-0.267657 156:-0.263166 157:-0.26846 158:-0.559172 159:0.17931 160:-0.170732 161:0.263402 162:-0.717183 163:0.578766 164:-0.873674 165:0.401701 166:-0.81511 167:-0.858344 168:-0.813571 169:0.935484 170:-0.601252 171:-0.748991 172:-0.152721 173:0.621287 174:-0.680566 175:0.090148 176:-0.33703 177:-0.877226 178:0.319149 179:-0.126373 180:-1.0 181:-0.020641 182:-0.401851 183:-0.205865 184:0.038791 185:-0.448615 186:-0.24702 187:-0.246377 188:0.35953 189:-0.826138 190:-0.206949 191:0.910737 192:-0.532233 193:-0.259084 194:-0.537323 195:0.657513 196:-0.25251 197:-0.094597 198:-0.721726 199:-0.335637 200:-0.801854 201:-0.927121 202:-0.831288 203:-0.8609 204:0.770165 205:-0.327586 206:0.716828 207:-0.705289 208:-0.906124 209:0.032485 210:0.311664 211:-0.399653 212:-0.405772 213:-0.950897 214:-1.0 215:-0.898627 216:-0.813808 217:-0.129025 218:-0.728452 219:-0.709239 220:-0.820019 221:-0.845805 222:0.090257 223:0.058823 224:-0.484126 225:-0.816125 226:-0.158124 227:-0.626386 228:0.606866 229:-0.921243 230:-0.960776 231:-0.288095 232:0.428571 233:-0.022287 234:-0.943874 235:0.88486 236:-0.473868 237:0.005146 238:-0.769351 239:-0.776113 240:0.993952 241:-0.173554 242:0.636288 243:-0.732588 244:-0.028569 245:-0.260733 246:1.0 247:-0.553307 248:-0.492774 249:-0.168299 250:0.090909 251:-0.270215 252:-0.26267 253:-0.033785 254:-0.318706 255:-0.708261 256:-0.894918 257:-0.928564 258:-0.252125 259:0.347826 260:-0.023852 261:-0.937984 262:0.213908 263:-0.001778 264:-0.814759 265:-0.788049 266:-0.89671 267:0.593171 268:-0.07703 269:0.063917 270:-0.881182 271:0.880449 272:-0.741006 273:-0.799156 274:-0.916589 275:-0.928218 276:0.99761 277:0.513514 278:0.973517 279:-0.850506 280:0.024646 281:1.0 282:0.353003 283:0.887218 284:0.362881 285:0.475593 286:-0.176471 287:-0.074205 288:-1.0 289:-0.388098 290:-0.175908 291:-1.0 292:-0.357472 293:-0.641216 294:-0.927505 295:0.034483 296:-0.248189 297:-0.776684 298:-0.454818 299:-0.525804 300:-0.399383 301:-0.713943 302:-0.783421 303:-0.790813 304:0.620112 305:0.040808 306:-0.755635 307:0.500503 308:-0.526737 309:-0.07845 310:-0.902309 311:-0.90632 312:0.93237 313:-0.316667 314:0.192409 315:-0.848252 316:0.835239 317:-0.046336 318:-0.076409 319:-0.584262 320:-0.783581 321:0.97512 322:-0.47646 323:0.470631 324:-1.0 325:0.901743 326:0.907615 327:0.915062 328:-0.852883 329:-0.843336 330:0.995231 331:-0.697768 332:0.218734 333:-0.55534 334:-0.588062 335:-1.0 336:0.228126 337:-0.980421 338:-0.974544 339:-0.91973 340:1.0 341:0.186161 342:-0.520222 343:0.851896 344:-0.930581 345:0.052218 346:-0.976451 347:-0.978662 348:0.723541 349:-0.934066 350:0.370894 351:-0.628412 
3.9367136609016646 1:-0.914651 2:-0.916827 3:-0.918993 4:-0.387867 5:-0.262694 6:-0.482867 7:-0.207786 8:0.270374 9:-0.012719 10:-0.714446 11:0.759473 12:-0.804024 13:-0.711742 14:-1.0 15:-0.960869 16:-0.3984 17:-0.955908 18:-1.0 19:0.598445 20:-1.0 21:0.27096 22:-0.042088 23:0.007535 24:-0.584638 25:0.482517 26:-1.0 27:1.0 28:-0.356992 29:0.670189 30:0.334644 31:0.472232 32:0.209107 33:0.700148 34:-0.466346 35:0.305582 36:-0.229977 37:-1.0 38:-0.211443 39:0.763799 40:-0.432102 41:-0.207631 42:-0.222348 43:0.755102 44:-0.246321 45:-0.774981 46:0.05404 47:-0.999852 48:0.28421 49:-0.426291 50:-0.254138 51:-0.114647 52:-0.170732 53:-0.718949 54:0.057146 55:0.501115 56:0.47459 57:0.430035 58:-0.015634 59:-0.077242 60:-1.0 61:0.304348 62:-1.0 63:1.0 64:-0.821858 65:0.401809 66:-0.496588 67:0.413134 68:0.14356 69:-0.412453 70:1.0 71:-0.406466 72:-0.741193 73:0.028194 74:0.050054 75:-0.019664 76:0.969266 77:0.803952 78:0.350101 79:-0.043478 80:0.148001 81:-0.606728 82:-0.6072 83:0.656589 84:-0.348842 85:0.356654 86:0.115012 87:-0.051969 88:0.025875 89:-0.232022 90:-0.84462 91:0.105044 92:1.0 93:-1.0 94:0.39642 95:0.185122 96:1.0 97:-0.038462 98:0.896301 99:-0.305385 100:-0.053907 101:1.0 102:0.897292 103:1.0 104:0.438025 105:0.401605 106:-0.375 107:-0.236447 108:-0.961678 109:-0.222339 110:-0.237714 111:-1.0 112:-0.764367 113:-0.694806 114:-0.480442 115:0.162393 116:-0.043544 117:-0.705991 118:0.660719 119:-0.343863 120:0.486341 121:-0.783585 122:-0.899595 123:-0.549886 124:-0.130435 125:0.749266 126:-0.974395 127:-0.302496 128:-0.370996 129:-0.329037 130:-0.711589 131:-0.709675 132:-0.978009 133:1.0 134:-0.365974 135:-0.872892 136:-0.065672 137:0.305816 138:0.267535 139:0.332811 140:-0.310819 141:-0.453265 142:0.258065 143:-0.150678 144:-0.60059 145:-0.622653 146:-0.517219 147:-0.431549 148:-0.926725 149:-0.954952 150:-0.950711 151:0.6 152:-0.941775 153:-0.679138 154:0.25044 155:-0.669727 156:-0.21712 157:-0.29906 158:-0.252625 159:-0.192168 160:1.0 161:-0.465312 162:-0.590104 163:-0.112712 164:-0.516977 165:0.515828 166:-0.662731 167:-0.7217 168:-0.797897 169:1.0 170:-0.256019 171:-0.869376 172:-0.741952 173:0.141087 174:-0.823645 175:0.180318 176:0.311469 177:-0.954118 178:0.356383 179:-0.25162 180:-0.449621 181:-0.990284 182:0.317866 183:-0.261214 184:-0.031297 185:-0.001737 186:-0.274514 187:-0.246377 188:0.330684 189:-0.149691 190:-0.004281 191:0.521295 192:-0.580024 193:-0.305609 194:-0.515915 195:0.738476 196:0.46321 197:0.175829 198:-0.791054 199:0.782216 200:-0.405363 201:-0.914056 202:-0.380743 203:-0.568315 204:0.691706 205:-0.034483 206:0.021514 207:-0.787178 208:-0.396739 209:1.0 210:0.577986 211:0.501317 212:0.00619 213:-0.925703 214:1.0 215:-0.764145 216:-0.965599 217:-0.272 218:-0.599337 219:-0.111607 220:-0.67018 221:-0.760982 222:0.075444 223:0.014706 224:-0.693514 225:-0.686685 226:-0.064462 227:-0.222114 228:0.489537 229:-0.87178 230:-0.948955 231:-0.287932 232:-0.52381 233:0.048474 234:-1.0 235:0.785736 236:0.117985 237:0.304275 238:-0.786803 239:-0.909444 240:0.992229 241:-0.041322 242:0.502601 243:-1.0 244:1.0 245:-0.066645 246:-0.395743 247:-0.229134 248:-0.511009 249:0.065844 250:-0.636364 251:0.191347 252:-0.676512 253:0.009884 254:-0.361332 255:-0.604735 256:-0.905157 257:-0.93009 258:-0.251894 259:0.304348 260:0.083485 261:-0.970775 262:0.156884 263:-0.081113 264:-0.896991 265:-0.685181 266:-0.740792 267:0.58981 268:-0.290023 269:0.063449 270:-0.754866 271:0.953515 272:-0.567914 273:0.975299 274:-0.853812 275:-0.834173 276:0.99863 277:0.081081 278:1.0 279:-0.664066 280:0.924658 281:0.5768 282:0.284036 283:0.671493 284:0.728632 285:0.453587 286:-0.0 287:-0.109307 288:-0.592691 289:-0.208892 290:0.18565 291:0.56807 292:-0.337012 293:-0.545087 294:-0.875424 295:-0.034483 296:0.057252 297:-0.581057 298:-0.401812 299:0.365044 300:-0.428662 301:-0.551314 302:-0.677512 303:-0.807036 304:-0.653631 305:-0.404069 306:-0.874832 307:0.570735 308:0.476575 309:-0.010928 310:-0.604407 311:-0.767365 312:0.928079 313:-0.166667 314:0.070558 315:-1.0 316:0.528093 317:1.0 318:-0.605214 319:0.161604 320:-0.102589 321:0.948164 322:-0.47646 323:0.44114 324:-0.878868 325:1.0 326:1.0 327:1.0 328:-0.675055 329:-0.578376 330:0.965368 331:-0.02905 332:-0.74532 333:0.636682 334:-0.796573 335:-0.648678 336:0.178359 337:-0.731753 338:-0.674739 339:-0.921012 340:-0.081081 341:-0.498093 342:0.453021 343:0.847877 344:-0.890115 345:0.114713 346:-0.743511 347:-0.696562 348:0.736048 349:0.868132 350:0.871252 351:0.710059 
7.241474352205278 1:0.352725 2:0.346417 3:0.339966 4:0.840675 5:0.158588 6:0.142046 7:0.776702 8:-0.422889 9:-0.953987 10:0.738901 11:-0.636023 12:0.49347 13:0.324038 14:0.237619 15:-0.802013 16:-0.3936 17:-0.372012 18:-0.513341 19:-0.87973 20:0.931304 21:-0.475588 22:0.261035 23:-0.535836 24:0.052692 25:0.65035 26:0.063737 27:-0.980792 28:0.678173 29:-0.686964 30:0.468133 31:0.432439 32:-0.440557 33:0.632199 34:-0.028846 35:0.26573 36:-0.61933 37:-0.459764 38:-0.274418 39:0.671459 40:0.840805 41:0.908751 42:-0.434141 43:-0.061224 44:-0.093406 45:-0.85144 46:-0.575992 47:0.06699 48:0.155102 49:-0.432071 50:-0.434543 51:0.321094 52:-0.463415 53:0.227207 54:-0.815898 55:0.525757 56:0.594992 57:0.142881 58:0.25062 59:-0.271257 60:1.0 61:0.217391 62:0.981046 63:-0.450729 64:-1.0 65:0.377008 66:-0.257539 67:-0.249223 68:-0.696593 69:0.220351 70:-0.891892 71:0.478216 72:-1.0 73:-0.876114 74:0.575777 75:0.095786 76:0.044727 77:-0.067302 78:0.061821 79:-1.0 80:-0.059466 81:-0.742529 82:-0.573891 83:0.690475 84:-0.594535 85:1.0 86:0.559261 87:0.213146 88:0.366819 89:-0.054067 90:-0.994303 91:0.562042 92:0.101424 93:-0.686684 94:-0.480716 95:-0.603506 96:0.1747 97:0.538462 98:0.07137 99:-0.42723 100:-0.358148 101:-0.123089 102:0.986645 103:-0.077377 104:0.67999 105:0.930729 106:-0.479167 107:0.548196 108:1.0 109:0.007854 110:0.219184 111:-0.999755 112:-0.210758 113:-0.426833 114:-0.485052 115:0.162393 116:-0.030408 117:-1.0 118:0.729511 119:0.532627 120:0.036692 121:-0.304752 122:-0.585465 123:-0.479138 124:-0.652174 125:0.813343 126:-0.779278 127:-0.616818 128:-0.087066 129:-0.076672 130:-0.719584 131:-0.76161 132:-0.990294 133:0.112232 134:-0.765769 135:-0.85935 136:-0.011493 137:0.591711 138:0.280411 139:0.120926 140:-0.47839 141:-0.061891 142:1.0 143:0.399895 144:-0.692142 145:0.500943 146:0.493089 147:-0.436265 148:-0.485182 149:-0.593619 150:-0.949304 151:-0.45 152:-0.241126 153:-0.513994 154:-0.341198 155:0.2009 156:0.51859 157:-0.02675 158:0.286916 159:0.113587 160:0.317073 161:0.079921 162:-0.432488 163:0.158614 164:-0.412917 165:0.52483 166:-0.570708 167:-0.723353 168:-0.780666 169:-0.096774 170:-0.115607 171:-0.923503 172:0.094222 173:-0.20878 174:-0.840037 175:-0.255315 176:-0.550525 177:-0.775971 178:-0.021277 179:0.210016 180:-0.80898 181:-0.203813 182:-0.26199 183:-0.191151 184:-0.137986 185:-0.359195 186:-0.542393 187:-0.246377 188:-0.582338 189:-0.321161 190:-0.540209 191:-0.591982 192:1.0 193:-0.180685 194:-0.362939 195:1.0 196:-0.057314 197:1.0 198:-0.240524 199:-0.966581 200:-0.509766 201:-0.967704 202:-0.716357 203:-0.722305 204:0.795657 205:-0.655172 206:0.995756 207:-0.624442 208:0.35263 209:-0.060126 210:-0.085208 211:-0.420909 212:-0.450062 213:-0.90888 214:0.309091 215:-0.570282 216:-0.774179 217:-0.292303 218:-0.364072 219:-0.69718 220:-0.113026 221:-0.382327 222:0.043394 223:0.279412 224:-0.482039 225:-0.77832 226:-0.267393 227:0.83041 228:0.483284 229:-0.687883 230:-0.790365 231:-0.286581 232:0.851191 233:0.120635 234:-0.916406 235:0.937124 236:-0.427001 237:0.04028 238:-0.815931 239:-0.853798 240:0.994955 241:-0.173554 242:0.762913 243:-0.792373 244:0.116155 245:-0.367698 246:-0.412446 247:-0.312922 248:-0.349126 249:0.283871 250:-0.090909 251:0.416899 252:-0.21884 253:-0.092905 254:0.637798 255:1.0 256:-0.734139 257:-0.764246 258:-0.249708 259:0.782609 260:0.247064 261:-0.719494 262:-0.011882 263:0.521223 264:-1.0 265:-0.295792 266:-0.48293 267:0.653059 268:0.703945 269:0.374722 270:-0.726173 271:0.804423 272:-0.536514 273:-0.602267 274:-0.719854 275:-0.732291 276:0.993807 277:-0.027027 278:0.411297 279:-0.785011 280:0.2908 281:-0.479635 282:0.19288 283:0.064789 284:0.504133 285:0.574913 286:-0.338235 287:0.025125 288:0.36768 289:-0.780934 290:-0.611848 291:0.452803 292:-0.563556 293:-0.711789 294:-1.0 295:0.103448 296:-1.0 297:-0.436422 298:-0.678506 299:-0.104274 300:-0.22672 301:-0.585275 302:-0.60372 303:-0.79416 304:-0.363128 305:-0.134263 306:-0.777075 307:0.3253 308:-0.711217 309:-0.140175 310:-0.958838 311:-1.0 312:0.930138 313:-0.6 314:0.007658 315:-0.991383 316:0.721361 317:-0.40482 318:-0.406591 319:-0.689735 320:-0.786192 321:0.970972 322:-0.235405 323:0.367151 324:-0.869737 325:0.035071 326:0.046526 327:0.076552 328:-0.209386 329:-0.332674 330:0.873936 331:0.244068 332:0.180116 333:-0.671151 334:-0.747222 335:-0.001411 336:0.186585 337:-0.468379 338:-0.531282 339:-0.93081 340:0.351351 341:-0.652433 342:-0.412284 343:0.883926 344:-0.252391 345:-0.218136 346:-0.55289 347:-0.603191 348:0.741034 349:-1.0 350:0.305148 351:-0.622804 
7.86412647242992 1:0.132362 2:0.143941 3:0.155639 4:-0.239419 5:-0.089293 6:-0.580405 7:0.09421 8:-0.210884 9:-0.409101 10:-0.903492 11:0.912565 12:-0.92067 13:-0.664856 14:-0.592161 15:-0.843012 16:-0.1392 17:-0.03892 18:-0.322331 19:0.327787 20:0.161503 21:0.178622 22:-0.55215 23:-0.747653 24:0.131852 25:0.174825 26:0.400609 27:-0.613113 28:-0.228034 29:0.200137 30:0.4179 31:-0.332809 32:0.059058 33:1.0 34:-0.132212 35:1.0 36:0.958356 37:0.562571 38:-0.252211 39:0.747324 40:-0.39586 41:0.135808 42:-0.018093 43:0.102041 44:0.094288 45:-0.51089 46:1.0 47:-0.128447 48:0.019255 49:-0.586817 50:-0.52419 51:0.174031 52:-0.073171 53:-0.18716 54:-0.635664 55:0.865913 56:0.446438 57:-0.155994 58:-0.308214 59:-0.228314 60:0.466001 61:-0.043478 62:0.752285 63:0.159196 64:-0.484247 65:-0.078407 66:-0.64716 67:0.055935 68:-0.085004 69:0.142254 70:0.027027 71:0.215414 72:-0.36186 73:-1.0 74:-0.189066 75:0.058807 76:-0.309286 77:-0.516412 78:-0.014181 79:0.130435 80:-0.194768 81:-0.732902 82:-0.369546 83:0.364585 84:-1.0 85:0.349814 86:0.353914 87:-0.469223 88:-1.0 89:-0.504202 90:-0.407416 91:-0.087654 92:-0.034266 93:-0.553136 94:-0.09371 95:-0.530026 96:-0.058018 97:0.153846 98:-0.251809 99:-0.581367 100:-0.459973 101:-0.249348 102:0.905575 103:-0.250366 104:-0.631325 105:-0.284851 106:-0.8125 107:-0.862775 108:-0.76584 109:-0.266584 110:-0.807251 111:-0.999787 112:-0.812554 113:-0.791668 114:-0.485077 115:0.57265 116:-0.216196 117:-0.817656 118:0.77 119:-0.546976 120:0.640783 121:-0.738325 122:-0.803386 123:-0.541745 124:0.478261 125:0.860562 126:-0.587402 127:-0.624247 128:0.323648 129:1.0 130:-0.768527 131:-0.791515 132:-0.990529 133:0.273644 134:-0.83122 135:-0.863637 136:0.193977 137:-0.417775 138:1.0 139:0.827636 140:0.749543 141:-0.450622 142:0.290323 143:-0.149238 144:0.446283 145:0.261824 146:-0.223381 147:-0.335909 148:-0.780875 149:-0.880488 150:-0.919432 151:0.4 152:0.329386 153:-0.831859 154:0.489127 155:0.086136 156:-0.807953 157:0.082494 158:-0.301088 159:0.209082 160:-0.597561 161:0.188893 162:-0.829022 163:0.047362 164:-0.38106 165:-1.0 166:-0.555182 167:-0.711693 168:-0.806193 169:-0.322581 170:-0.313521 171:-0.94945 172:-0.020737 173:-0.146858 174:-0.916567 175:-0.082747 176:-0.310512 177:-0.684689 178:0.234043 179:0.362102 180:-0.67211 181:-0.063029 182:-0.763251 183:-0.264699 184:-0.793896 185:-0.737165 186:-0.416954 187:-0.474638 188:-0.192651 189:-0.136541 190:1.0 191:0.141558 192:-0.867524 193:-0.526567 194:-0.662705 195:0.781738 196:0.333079 197:0.347027 198:-0.781261 199:0.93128 200:-0.913089 201:-0.901211 202:-0.767513 203:-0.787121 204:0.79006 205:-0.775862 206:0.993708 207:-0.544621 208:-0.398503 209:0.642632 210:-0.540872 211:-0.088474 212:-0.361891 213:-0.922647 214:0.059091 215:-0.728239 216:-0.936099 217:-0.23764 218:-0.416258 219:-0.738436 220:-0.620009 221:-0.745882 222:0.090901 223:0.411765 224:-0.34851 225:-0.946892 226:-0.073771 227:-0.311149 228:0.178846 229:-0.854301 230:-0.897856 231:-0.288236 232:-0.142857 233:-0.04931 234:-0.845413 235:0.678691 236:-0.31101 237:-0.054354 238:-0.828625 239:-0.880116 240:0.990941 241:-0.041322 242:0.344999 243:-0.851403 244:-0.041483 245:-0.29305 246:-0.432043 247:-0.066966 248:-0.113484 249:-1.0 250:-0.272727 251:-0.664281 252:0.152972 253:-0.047607 254:0.01854 255:-0.496067 256:-0.874655 257:-0.891766 258:-0.252369 259:0.347826 260:-0.101471 261:-0.907202 262:0.093589 263:0.240987 264:-0.918856 265:-0.521031 266:-0.702846 267:0.688733 268:0.455453 269:0.672052 270:-0.713975 271:0.970175 272:-0.066865 273:-0.648638 274:-0.671623 275:-0.699729 276:0.9981 277:-0.783784 278:0.686225 279:-0.880359 280:0.584301 281:-0.046463 282:1.0 283:0.057476 284:0.047877 285:0.578258 286:-0.176471 287:0.032512 288:-0.576624 289:0.008523 290:-0.798999 291:0.374995 292:-0.735398 293:-0.831096 294:-0.928756 295:-0.724138 296:0.089962 297:-0.521641 298:-0.412869 299:-0.235792 300:0.286436 301:-0.705315 302:-0.743949 303:-0.791063 304:0.173184 305:0.020861 306:-0.83552 307:0.585791 308:-0.529826 309:-0.1968 310:-0.867865 311:-0.873097 312:0.932946 313:-0.383333 314:0.211192 315:-0.796871 316:0.729337 317:-0.147263 318:-0.335344 319:-0.395477 320:-0.60549 321:0.990049 322:-0.054614 323:0.614533 324:-0.912397 325:0.854624 326:0.859157 327:0.866351 328:-0.703201 329:-0.677296 330:0.982626 331:-0.277094 332:0.066215 333:-0.376056 334:-0.71294 335:-0.98228 336:0.253411 337:-0.806869 338:-0.798597 339:-0.915461 340:0.216216 341:0.482112 342:0.054033 343:0.799017 344:-0.781137 345:0.030011 346:-0.813305 347:-0.79383 348:0.727908 349:1.0 350:0.533123 351:-0.118693 
-1.9242722986683591 1:-0.163739 2:-0.168083 3:-0.172194 4:0.403824 5:0.194116 6:0.601835 7:0.387412 8:0.432956 9:-0.185203 10:-0.314816 11:0.426549 12:-0.533343 13:-0.817323 14:-0.578981 15:-0.947027 16:0.0236 17:-0.913983 18:0.277923 19:-0.387821 20:0.410019 21:1.0 22:0.409901 23:-0.284238 24:-0.05388 25:-0.412587 26:-0.069088 27:-0.944145 28:-0.548139 29:0.475692 30:0.337327 31:-0.152694 32:0.316965 33:-0.37309 34:-0.307692 35:-0.6115 36:-0.146425 37:-0.903897 38:-0.987539 39:0.786847 40:-0.225382 41:0.816044 42:-0.84799 43:-1.0 44:-1.0 45:1.0 46:-1.0 47:0.927617 48:0.072113 49:-0.650919 50:-0.624608 51:0.33666 52:0.707317 53:0.239816 54:-0.736386 55:-1.0 56:0.659143 57:0.484509 58:1.0 59:1.0 60:-0.462002 61:0.130435 62:-0.003863 63:0.607178 64:-0.200306 65:-0.118476 66:-0.682033 67:-0.339776 68:-0.700367 69:-0.281724 70:0.135135 71:-0.616413 72:-0.946529 73:0.543481 74:0.279351 75:-0.188759 76:-0.077875 77:-0.41793 78:-0.176328 79:-0.217391 80:-0.45564 81:-0.822836 82:0.278517 83:-0.935457 84:-0.618311 85:-0.328462 86:0.129378 87:0.041004 88:-0.266362 89:-0.288694 90:0.10377 91:0.337409 92:0.227578 93:-0.465097 94:-0.103055 95:-0.554813 96:0.379231 97:0.615385 98:0.380116 99:-0.598047 100:-0.723708 101:-0.06922 102:0.902385 103:0.604227 104:1.0 105:-0.057639 106:0.0625 107:-0.459166 108:-0.355469 109:-0.806472 110:-0.262503 111:-0.999924 112:-0.520759 113:-0.679528 114:-0.517978 115:-1.0 116:-0.45845 117:-0.839072 118:-0.004607 119:-0.434396 120:0.145468 121:-0.793375 122:-0.888739 123:-0.564602 124:0.565217 125:0.368 126:-0.867102 127:-0.308792 128:0.392705 129:-0.385342 130:-0.474936 131:-0.632823 132:-0.975274 133:0.112232 134:-0.431063 135:-0.950474 136:-0.480235 137:-0.005511 138:0.221893 139:-0.343027 140:-0.839206 141:-0.613461 142:-1.0 143:-0.483825 144:-0.68844 145:0.968148 146:0.415665 147:-0.441283 148:1.0 149:1.0 150:1.0 151:0.33125 152:0.597554 153:1.0 154:0.680926 155:0.646571 156:-0.434864 157:0.100417 158:-0.16285 159:0.092746 160:0.902439 161:0.029078 162:-0.888948 163:0.35156 164:1.0 165:1.0 166:1.0 167:1.0 168:0.796034 169:0.935484 170:0.333405 171:-0.071721 172:-1.0 173:-0.218275 174:-0.737317 175:-0.298115 176:-0.451854 177:-0.866383 178:0.148936 179:-0.114541 180:-0.813947 181:-0.799162 182:0.301207 183:-0.24603 184:0.427621 185:0.574099 186:-1.0 187:-0.42029 188:-1.0 189:1.0 190:-0.312851 191:0.179868 192:-0.667963 193:-0.307155 194:-0.41994 195:0.668864 196:-0.707968 197:-0.101922 198:-0.412949 199:-0.342052 200:1.0 201:-0.472824 202:1.0 203:1.0 204:-1.0 205:0.258621 206:-1.0 207:1.0 208:-1.0 209:0.010256 210:0.241304 211:-0.155996 212:-0.191222 213:-0.892096 214:0.163636 215:-0.579551 216:-0.738256 217:0.324036 218:-0.636202 219:-0.711273 220:-0.866833 221:-0.911405 222:0.098387 223:-0.529412 224:-0.126455 225:-0.949327 226:-0.114765 227:-0.496278 228:-1.0 229:-0.93649 230:-0.972277 231:-0.288008 232:-0.047619 233:0.039945 234:-0.992373 235:0.647495 236:1.0 237:0.076476 238:-0.569556 239:-0.617167 240:0.993803 241:-0.305785 242:0.582837 243:-0.869887 244:0.579678 245:-0.458904 246:-0.423147 247:-0.650006 248:-0.603249 249:0.121073 250:0.090909 251:0.15307 252:-0.38491 253:1.0 254:0.860051 255:-0.572031 256:1.0 257:1.0 258:1.0 259:-1.0 260:1.0 261:0.977511 262:0.49152 263:0.588105 264:-0.987059 265:0.119584 266:0.227013 267:1.0 268:-0.503016 269:1.0 270:0.406011 271:-0.922303 272:1.0 273:1.0 274:1.0 275:1.0 276:-1.0 277:0.189189 278:-0.794538 279:0.683635 280:0.851334 281:-0.380696 282:0.236164 283:0.03349 284:-0.251948 285:0.597633 286:-0.411765 287:0.07587 288:-0.797751 289:1.0 290:0.226754 291:-0.1757 292:0.508741 293:0.259642 294:0.337634 295:0.310345 296:1.0 297:1.0 298:-0.068181 299:0.072732 300:0.133086 301:-0.561877 302:-0.571481 303:-0.777292 304:0.173184 305:0.227225 306:-0.53833 307:-1.0 308:0.856108 309:0.454162 310:1.0 311:1.0 312:-1.0 313:0.033333 314:-1.0 315:1.0 316:1.0 317:-0.022824 318:-1.0 319:-0.507229 320:-0.675806 321:0.955538 322:-1.0 323:0.259235 324:-0.88149 325:0.649109 326:0.658735 327:0.674753 328:-0.681181 329:-0.711222 330:0.980172 331:-0.166025 332:0.067371 333:-0.532805 334:-0.569629 335:-0.766055 336:0.263955 337:-0.892961 338:-0.899476 339:-0.917719 340:0.081081 341:0.69897 342:0.124903 343:0.936767 344:-0.832329 345:0.0274 346:-0.883405 347:-0.883003 348:0.724724 349:-0.846154 350:0.334627 351:-0.514334 
-6.105877408313783 1:-0.390854 2:-0.382339 3:-0.373601 4:-0.569759 5:-0.356392 6:-0.446106 7:0.003656 8:0.863518 9:0.586788 10:-0.528216 11:0.62356 12:-0.709408 13:-1.0 14:-0.932667 15:-0.940259 16:0.0304 17:-1.0 18:0.027481 19:0.724053 20:-0.017609 21:0.20783 22:-0.042643 23:-0.368833 24:0.582934 25:1.0 26:1.0 27:0.410119 28:1.0 29:-0.426815 30:0.389899 31:0.631238 32:0.974016 33:0.698183 34:-0.389423 35:0.2596 36:0.285987 37:1.0 38:-0.599829 39:0.748693 40:-1.0 41:-1.0 42:0.116143 43:-0.142857 44:0.507349 45:-1.0 46:-0.102864 47:-0.042404 48:0.113529 49:-0.58475 50:-0.423343 51:0.45974 52:-0.756098 53:0.57485 54:-0.687804 55:0.205916 56:0.669912 57:-0.443589 58:0.217058 59:0.11794 60:0.588601 61:0.565217 62:0.647434 63:0.015016 64:-0.349483 65:0.433864 66:-0.287976 67:0.21226 68:0.15656 69:-0.164866 70:-0.216216 71:-0.193313 72:-0.597924 73:0.406095 74:-0.01801 75:-0.081086 76:0.216805 77:-0.069423 78:0.492193 79:0.630435 80:0.514902 81:-0.581582 82:0.44049 83:-0.643695 84:-0.5859 85:-0.801801 86:-0.511517 87:0.269858 88:-0.071537 89:0.020954 90:-0.451564 91:0.106582 92:-0.324516 93:-0.538719 94:-0.654826 95:-0.486459 96:0.160513 97:0.807692 98:0.029314 99:-0.026403 100:-0.533999 101:0.305725 102:0.87707 103:-0.07372 104:-0.224092 105:-0.443383 106:-0.583333 107:-0.95373 108:-0.4807 109:-0.1817 110:-0.563647 111:-0.999954 112:-0.821797 113:-0.720743 114:-0.47185 115:0.555556 116:0.257542 117:-0.376793 118:0.404256 119:-1.0 120:0.45737 121:-1.0 122:-1.0 123:-0.561783 124:0.217391 125:0.189939 126:-0.74691 127:-0.727966 128:0.559104 129:0.340537 130:-0.647193 131:-0.674177 132:-0.979824 133:-0.129886 134:-0.450867 135:-0.863297 136:0.20469 137:-0.545448 138:0.237969 139:0.173145 140:-0.290053 141:-0.791895 142:-0.177419 143:-0.60691 144:-0.171818 145:-0.103265 146:-0.652317 147:-0.415497 148:-0.987621 149:-0.969303 150:-0.927586 151:1.0 152:0.862348 153:-0.447128 154:-0.224166 155:-0.858251 156:-0.160971 157:-1.0 158:-1.0 159:-0.05975 160:0.219512 161:-0.317151 162:-0.598578 163:0.044512 164:0.114353 165:0.089956 166:-0.228853 167:-0.58495 168:-0.724763 169:-0.354839 170:-0.030552 171:-0.977188 172:-0.140918 173:-0.883661 174:-0.780223 175:-0.350806 176:-0.55927 177:-0.807237 178:0.489362 179:0.140007 180:-0.756876 181:-0.187145 182:0.19728 183:-0.17032 184:-0.208733 185:-0.543647 186:-0.407696 187:-0.942029 188:-0.077529 189:-0.930216 190:-1.0 191:-0.149266 192:-0.731673 193:-0.621876 194:-0.735847 195:0.798526 196:-0.317575 197:0.504726 198:-0.802588 199:-0.468276 200:-0.882546 201:-0.909287 202:-1.0 203:-0.911451 204:0.743075 205:-0.241379 206:-0.022539 207:-0.561595 208:0.051028 209:-0.380924 210:0.026234 211:-0.626971 212:-0.555034 213:-0.896148 214:1.0 215:-0.268974 216:-0.668397 217:-0.079951 218:-0.522916 219:-0.503615 220:-0.591718 221:-0.684111 222:0.077138 223:0.235294 224:-0.558662 225:-0.725037 226:-0.061517 227:-1.0 228:0.628445 229:-1.0 230:-1.0 231:-0.288006 232:0.166667 233:0.109366 234:-0.821777 235:0.901634 236:-0.067269 237:0.122 238:-0.743393 239:-0.741239 240:0.985906 241:-0.305785 242:0.11257 243:-0.610648 244:0.288338 245:-1.0 246:-0.427385 247:-0.587369 248:-0.317065 249:-0.593406 250:-0.090909 251:-1.0 252:1.0 253:-0.083685 254:-1.0 255:-0.573267 256:-0.9928 257:-0.957228 258:-0.251982 259:0.032609 260:0.132645 261:-0.696446 262:0.035825 263:-0.579445 264:-0.78345 265:-0.985921 266:-0.8611 267:0.593621 268:-0.148027 269:-0.012882 270:-0.481284 271:0.790942 272:0.290713 273:-0.82809 274:-0.577442 275:-0.603127 276:0.991671 277:0.72973 278:0.449715 279:-0.86507 280:0.264538 281:0.269925 282:0.158298 283:0.194034 284:-0.137562 285:0.354864 286:0.117647 287:-0.352564 288:-0.807583 289:0.004737 290:-0.005512 291:0.511875 292:-0.380527 293:-0.695468 294:-0.961567 295:0.12069 296:-0.470199 297:-0.850148 298:-0.384138 299:-0.543362 300:-0.387369 301:-0.784812 302:-0.868112 303:-0.798439 304:-0.541899 305:-0.371328 306:-0.925993 307:0.720439 308:-1.0 309:-0.151486 310:-0.968826 311:-0.947539 312:0.932266 313:-0.733333 314:0.219355 315:-0.797732 316:0.861518 317:-0.697806 318:-0.398 319:-0.671034 320:-0.673014 321:0.962503 322:-0.47646 323:0.216548 324:-0.686152 325:0.500677 326:0.506715 327:0.522311 328:-0.404243 329:-0.415006 330:0.901404 331:-0.068937 332:-0.380161 333:-0.093148 334:-0.75389 335:-0.523305 336:0.424059 337:-0.564429 338:-0.607982 339:-0.922429 340:0.135135 341:-0.488057 342:-0.304104 343:0.813425 344:-0.529598 345:0.520147 346:-0.586061 347:-0.641668 348:0.756357 349:-0.230769 350:0.823585 351:-0.069162 
-3.745878305954083 1:1.0 2:1.0 3:1.0 4:1.0 5:0.073221 6:0.434407 7:0.632398 8:-0.360623 9:-0.925343 10:1.0 11:-0.97909 12:0.914453 13:0.731032 14:0.651328 15:-0.103183 16:-0.0432 17:0.30209 18:-0.344266 19:0.640461 20:0.492141 21:-0.269135 22:0.651086 23:0.479166 24:1.0 25:0.381119 26:0.93684 27:0.90529 28:0.395296 29:-0.625165 30:0.409462 31:0.276465 32:0.886292 33:0.422811 34:-0.230769 35:0.137126 36:0.337942 37:0.102406 38:-0.342582 39:0.726759 40:-0.023392 41:0.62021 42:0.107943 43:0.602041 44:0.243109 45:-0.255943 46:-0.07825 47:-0.910009 48:-0.154725 49:-0.585422 50:0.021467 51:-0.131383 52:0.689024 53:-1.0 54:1.0 55:0.440991 56:0.383667 57:0.389089 58:-0.070579 59:-0.171813 60:0.428416 61:-0.478261 62:0.592889 63:-0.0019 64:0.388692 65:-0.363675 66:-0.322905 67:-0.901109 68:-0.991568 69:0.016985 70:-0.081081 71:0.193163 72:-0.523273 73:0.62647 74:-0.052009 75:0.042175 76:0.066045 77:-0.063855 78:0.215293 79:-0.913044 80:0.171514 81:-0.616455 82:0.964767 83:0.348842 84:-0.539508 85:0.153709 86:0.664608 87:-1.0 88:-0.217656 89:-1.0 90:1.0 91:0.423369 92:0.046735 93:-0.413499 94:-0.001907 95:0.285262 96:0.468607 97:0.423077 98:0.477352 99:0.462703 100:0.261725 101:-0.124905 102:0.916827 103:-0.157693 104:-0.396371 105:-0.09926 106:-0.5 107:-0.596868 108:-0.646609 109:-0.118681 110:0.506713 111:-0.999368 112:-0.278477 113:-0.446629 114:-0.53748 115:0.059829 116:-0.348749 117:-0.797878 118:0.879582 119:0.149525 120:0.405597 121:-0.143768 122:-0.398832 123:-0.643656 124:0.304348 125:0.314101 126:-0.637219 127:-0.622474 128:0.145452 129:-0.024002 130:-0.678053 131:-0.748355 132:-0.975272 133:-0.04918 134:-0.312923 135:-0.930019 136:-0.316734 137:-0.429138 138:0.301808 139:0.531988 140:-0.076388 141:-0.68958 142:0.322581 143:-0.393929 144:-0.367499 145:0.508312 146:-0.558576 147:-0.400475 148:-0.803589 149:-0.901649 150:-0.944171 151:-0.6 152:-0.335892 153:-0.812258 154:0.771905 155:-1.0 156:-0.15114 157:-0.903701 158:-0.497137 159:0.247295 160:0.317073 161:1.0 162:1.0 163:0.33584 164:-0.493767 165:0.364196 166:-0.637953 167:-0.758629 168:-0.798071 169:-0.096774 170:-0.256455 171:-0.964938 172:-0.160229 173:-1.0 174:-1.0 175:-1.0 176:-1.0 177:-0.860983 178:0.319149 179:-0.07704 180:-0.358585 181:-1.0 182:1.0 183:-0.306685 184:0.142878 185:-0.131777 186:-0.448353 187:0.217391 188:-0.178746 189:-0.836691 190:-0.241729 191:0.686185 192:-0.711638 193:-0.441132 194:-0.585409 195:0.775856 196:-0.577837 197:0.31443 198:-0.829356 199:0.353338 200:-0.232072 201:-0.933185 202:-0.560269 203:-0.761977 204:0.76199 205:0.241379 206:0.484878 207:-0.927961 208:0.18653 209:-0.600326 210:0.012624 211:-0.746313 212:-0.676926 213:-0.904693 214:0.6 215:-0.224194 216:-0.586175 217:-0.276218 218:-0.632889 219:-0.63503 220:-0.352503 221:-0.45073 222:0.033504 223:-0.147059 224:-0.733682 225:-0.528959 226:-0.164665 227:0.108478 228:0.606479 229:-0.663194 230:-0.791087 231:-0.291897 232:-0.47619 233:-0.250877 234:-0.780938 235:0.963113 236:0.190642 237:0.026661 238:-0.743156 239:-0.803125 240:0.989315 241:-0.157025 242:0.330091 243:-0.885496 244:0.448478 245:-0.22845 246:-0.426486 247:-0.003772 248:-0.320076 249:0.292884 250:0.090909 251:0.408606 252:-0.667368 253:-0.083836 254:-0.257182 255:-0.651319 256:-0.92355 257:-0.951173 258:-0.252156 259:-0.217391 260:-0.053794 261:-1.0 262:0.162206 263:-0.651117 264:-0.844402 265:-1.0 266:-0.853324 267:0.61596 268:-0.574014 269:0.370101 270:-0.283148 271:0.689899 272:-0.41971 273:-0.744678 274:-0.851599 275:-0.867982 276:0.998245 277:-0.567568 278:0.919986 279:-0.816249 280:0.124095 281:-0.974716 282:-1.0 283:-1.0 284:-1.0 285:0.531875 286:0.158088 287:-0.477451 288:-0.369696 289:-0.702359 290:-0.164791 291:0.419056 292:-0.191777 293:-0.571973 294:-0.913358 295:-1.0 296:-0.237685 297:-0.856734 298:-0.609512 299:-0.52268 300:-0.412291 301:-0.765891 302:-0.771189 303:-0.791974 304:-0.72067 305:0.041145 306:-0.737469 307:0.383113 308:-0.626338 309:-0.224743 310:-0.822012 311:-0.880641 312:0.928381 313:0.114583 314:-0.002396 315:-0.860731 316:0.513961 317:-0.648642 318:-0.475847 319:-0.842778 320:-0.819736 321:0.991696 322:-0.054614 323:1.0 324:-0.525165 325:-1.0 326:-1.0 327:-0.960205 328:0.491169 329:0.257327 330:0.51309 331:-0.083237 332:0.423566 333:-0.860512 334:-0.760528 335:-0.273828 336:0.540037 337:-0.156891 338:-0.319211 339:-1.0 340:0.560811 341:-1.0 342:-0.35801 343:0.883255 344:-0.577889 345:-0.069543 346:-0.288992 347:-0.35226 348:0.783011 349:0.384615 350:0.350744 351:-0.475669 
-5.097730260241188 1:0.787147 2:0.784992 3:0.78249 4:0.939721 5:0.194248 6:-0.318795 7:-0.169129 8:-0.756937 9:-1.0 10:-0.182387 11:0.243001 12:-0.319425 13:-0.197144 14:-0.098238 15:-0.882893 16:-0.8064 17:-0.457534 18:-0.48049 19:-0.785145 20:1.0 21:-0.622679 22:0.514992 23:0.033378 24:-0.063137 25:0.733392 26:-0.075169 27:-0.615161 28:-0.840208 29:1.0 30:0.351637 31:0.251476 32:0.477737 33:0.980414 34:-0.538462 35:0.613842 36:0.318983 37:-0.265276 38:0.745565 39:-1.0 40:0.501911 41:0.988372 42:-0.28032 43:0.726722 44:-0.059976 45:-0.620044 46:-0.298262 47:0.231169 48:-0.014603 49:-1.0 50:-1.0 51:0.430544 52:-0.560976 53:0.640053 54:-0.868089 55:0.077681 56:0.436998 57:0.370462 58:-0.250258 59:-0.79025 60:0.298087 61:1.0 62:0.480174 63:-1.0 64:-0.531585 65:0.43405 66:-0.611309 67:0.152018 68:-0.165094 69:-0.254259 70:-0.72973 71:-0.319948 72:-0.950541 73:-0.465229 74:0.316738 75:-0.051109 76:0.268871 77:0.158549 78:-0.385287 79:-0.369565 80:-0.650402 81:-0.264425 82:-0.608573 83:-0.313911 84:-0.601722 85:-0.3489 86:-0.515125 87:0.449185 88:-0.071537 89:0.220675 90:-0.961178 91:-0.35069 92:0.482185 93:-0.698804 94:1.0 95:0.759156 96:-0.943382 97:0.923077 98:-0.615252 99:-0.09516 100:-0.030593 101:-0.118657 102:0.928967 103:-0.376824 104:-0.229845 105:0.654829 106:-0.166667 107:0.476515 108:-0.148042 109:-0.102379 110:0.917452 111:1.0 112:0.006384 113:-0.105579 114:-0.478643 115:0.777778 116:0.00156 117:-0.949127 118:0.397906 119:-0.051141 120:0.557716 121:-0.590443 122:-0.710404 123:-0.57893 124:0.347826 125:0.316657 126:-0.77012 127:-0.81532 128:0.327778 129:-0.083237 130:-0.581992 131:-0.595563 132:-0.974314 133:-0.372005 134:-0.364766 135:-0.829599 136:0.569911 137:-0.385741 138:0.280061 139:-0.158886 140:-0.499413 141:-0.583428 142:0.806452 143:-0.38047 144:-0.231028 145:-0.110367 146:1.0 147:-0.295551 148:-0.493761 149:-0.806916 150:-1.0 151:0.75 152:-0.640122 153:-1.0 154:0.051123 155:-0.176791 156:-0.145181 157:-0.257723 158:-0.381767 159:-0.08679 160:-0.170732 161:-0.248981 162:-0.786781 163:0.345842 164:-1.0 165:0.433574 166:-0.829732 167:-0.885111 168:-0.804073 169:0.16129 170:-0.411847 171:-0.814381 172:-0.288472 173:-0.192853 174:-0.753324 175:-0.297453 176:-0.35268 177:-0.971593 178:-0.308511 179:-0.523457 180:-0.493636 181:0.527562 182:0.153326 183:-0.017631 184:-0.272141 185:-0.478571 186:-0.597444 187:1.0 188:-0.989691 189:0.081849 190:0.540484 191:0.810151 192:-0.568395 193:-0.351338 194:-0.65414 195:0.763685 196:0.202948 197:0.267389 198:-0.933264 199:-0.841827 200:0.29211 201:-0.995596 202:-0.124866 203:-0.444226 204:0.718067 205:-0.862069 206:0.280563 207:-0.820231 208:-0.775059 209:-0.576265 210:0.223053 211:-0.866101 212:-0.77267 213:-0.922936 214:0.454545 215:-0.454497 216:-0.786126 217:-0.195524 218:1.0 219:-0.386685 220:0.483907 221:-0.0428 222:0.036918 223:0.625 224:-0.344921 225:-1.0 226:-0.105657 227:-0.034146 228:0.571778 229:-0.795931 230:-0.878758 231:-0.289286 232:-0.142857 233:-0.20877 234:-0.812864 235:0.90256 236:0.236126 237:-0.001312 238:-0.552847 239:-0.631264 240:1.0 241:-0.041322 242:0.736609 243:-0.847991 244:0.729916 245:-0.260448 246:-0.401331 247:-0.362467 248:-0.598788 249:-0.539733 250:0.090909 251:-0.56858 252:-0.315745 253:0.038417 254:-0.38527 255:-0.5898 256:-0.800447 257:-0.8479 258:-0.252139 259:0.478261 260:-0.009038 261:-0.915443 262:0.078716 263:-0.07077 264:-0.877723 265:-0.779162 266:-0.883218 267:0.612431 268:-0.148027 269:0.258782 270:-0.957666 271:0.626843 272:-0.675019 273:-0.373953 274:-0.86668 275:-0.821446 276:0.996229 277:0.513514 278:0.531426 279:-0.69336 280:0.557369 281:-0.644857 282:0.23909 283:0.128519 284:0.515282 285:0.782504 286:-0.0 287:0.405178 288:0.297666 289:-0.579892 290:-0.410051 291:0.411981 292:-0.389029 293:-0.720458 294:-0.963564 295:-0.448276 296:-0.486195 297:-0.869337 298:-0.327551 299:0.952983 300:-1.0 301:-0.590214 302:-0.697114 303:-0.799314 304:-0.631285 305:-0.259545 306:-0.946514 307:0.594353 308:-0.20634 309:-0.129641 310:-0.737429 311:-0.847656 312:0.931993 313:-0.65625 314:0.141734 315:-0.957082 316:0.838819 317:-0.874712 318:-0.539413 319:-0.976541 320:-0.980821 321:0.976526 322:-0.491525 323:0.385515 324:-0.793326 325:-0.006567 326:0.010034 327:0.045817 328:-0.309963 329:-0.492028 330:0.943694 331:-0.323444 332:0.607715 333:-1.0 334:-0.785362 335:1.0 336:-1.0 337:-0.413832 338:-0.631553 339:-0.92539 340:-0.810811 341:-0.499057 342:-1.0 343:0.826833 344:1.0 345:-0.681168 346:-0.406709 347:-0.566417 348:0.752707 349:0.824176 350:0.241168 351:-1.0 
-3.395080400919883 1:0.281496 2:0.293861 3:0.306477 4:-0.138701 5:-0.359807 6:-0.261663 7:0.850212 8:0.259773 9:-0.357916 10:-0.236321 11:0.361565 12:-0.480725 13:-0.848875 14:-0.98215 15:-0.921262 16:-1.0 17:-0.656395 18:-0.788517 19:0.021723 20:-0.202279 21:-1.0 22:0.852005 23:1.0 24:-0.669742 25:0.146853 26:-0.557057 27:0.802591 28:-1.0 29:0.216497 30:0.410961 31:1.0 32:1.0 33:-1.0 34:-0.365385 35:-0.786617 36:0.028999 37:-0.355159 38:-0.022149 39:0.401967 40:-0.740304 41:-0.431796 42:0.192636 43:-0.0 44:0.580336 45:-0.716097 46:-0.280012 47:0.105905 48:-0.011105 49:-0.352455 50:-0.529827 51:0.21 52:-0.268293 53:0.015793 54:-0.796671 55:-0.851323 56:-0.273293 57:0.192478 58:-0.697402 59:-0.76259 60:0.246815 61:-1.0 62:0.517199 63:-0.524823 64:0.166952 65:-0.805445 66:-0.793885 67:-0.548727 68:-0.702481 69:-0.148908 70:0.040541 71:-0.405457 72:-0.445821 73:-0.258189 74:0.037567 75:-0.078412 76:0.884164 77:0.88135 78:-1.0 79:-0.054348 80:-1.0 81:-0.085437 82:0.047982 83:-0.781571 84:-0.553277 85:-1.0 86:-0.788333 87:0.316165 88:0.366819 89:0.168512 90:-0.317829 91:0.143521 92:0.618915 93:-0.178149 94:0.158203 95:0.179217 96:-0.611181 97:1.0 98:-0.830981 99:0.055817 100:-0.240931 101:-0.312844 102:0.908323 103:0.18328 104:0.218222 105:0.597052 106:-0.270833 107:0.059873 108:-0.204295 109:-0.208697 110:0.020836 111:-0.997354 112:-0.601106 113:-0.450894 114:-0.46236 115:0.74359 116:0.253317 117:-0.436715 118:0.654329 119:-0.611183 120:0.155148 121:-0.967626 122:-0.988059 123:-0.559782 124:0.347826 125:0.452596 126:-0.924223 127:-0.599324 128:-0.123337 129:-0.690713 130:-0.51459 131:-0.405673 132:-1.0 133:0.273644 134:-0.790399 135:-0.547627 136:-0.142286 137:-0.336926 138:0.199692 139:-0.350846 140:-0.763847 141:-0.06383 142:0.225806 143:0.671779 144:0.172272 145:-0.352588 146:-0.244021 147:-0.41661 148:-0.895026 149:-0.938636 150:-0.924414 151:1.0 152:0.528481 153:-0.701087 154:-0.057156 155:-0.007119 156:-0.436344 157:-0.41968 158:-0.85288 159:-0.085181 160:0.073171 161:-0.270841 162:-0.997281 163:-0.086885 164:-0.383491 165:-0.712746 166:-0.552271 167:-0.770042 168:-0.767505 169:0.935484 170:-0.025505 171:-0.961185 172:-0.696275 173:-0.957619 174:-0.800891 175:-0.793113 176:-0.749033 177:-0.864689 178:-0.021277 179:-0.135702 180:-0.384993 181:-0.784235 182:0.310038 183:-0.466366 184:-0.245823 185:-0.36927 186:-0.463107 187:-0.710145 188:-0.329953 189:-0.596905 190:0.172837 191:0.120851 192:-0.738465 193:-0.601324 194:-0.668495 195:0.748029 196:0.593341 197:0.049328 198:-0.647596 199:1.0 200:0.137579 201:-0.946098 202:-0.328603 203:-0.551205 204:0.83007 205:0.068966 206:0.844655 207:-0.81645 208:0.163724 209:-0.351286 210:0.106632 211:-0.556259 212:-0.613517 213:-0.941771 214:0.672727 215:-0.851014 216:-0.909436 217:-0.246573 218:-0.434079 219:-0.399097 220:-0.303802 221:-0.508375 222:0.065023 223:0.588235 224:-0.467463 225:-0.724868 226:-0.16959 227:-0.68802 228:0.615065 229:-0.954273 230:-0.980746 231:-0.28798 232:0.142857 233:0.079456 234:-0.899242 235:0.685283 236:-0.457208 237:0.046531 238:-0.720528 239:-0.660693 240:0.999837 241:0.38843 242:0.947032 243:-0.344937 244:-7.53E-4 245:-0.590359 246:-0.410195 247:-0.847897 248:-0.698333 249:0.357951 250:0.363636 251:0.657866 252:-0.27953 253:0.02321 254:-0.688447 255:-0.603492 256:-0.92714 257:-0.946483 258:-0.251872 259:0.391304 260:0.121479 261:-0.934264 262:0.236463 263:-0.387662 264:-0.88846 265:-0.809819 266:-0.890313 267:0.649608 268:-0.07703 269:0.662407 270:-0.620267 271:1.0 272:-0.661838 273:-0.568146 274:-0.782096 275:-0.764226 276:0.995599 277:-0.351351 278:0.501056 279:-0.810442 280:0.25045 281:-0.840369 282:0.205983 283:-0.658168 284:-0.516447 285:0.64974 286:-0.235294 287:0.763105 288:0.401685 289:0.12023 290:0.180581 291:0.876331 292:-0.58586 293:-0.884636 294:-0.954068 295:0.517241 296:-0.450744 297:-1.0 298:-0.654833 299:-0.533203 300:-0.458535 301:-0.780174 302:-0.829415 303:-0.799866 304:-0.050279 305:-0.459275 306:-0.737192 307:0.321616 308:0.100067 309:1.0 310:-0.677622 311:-0.803809 312:0.93947 313:0.2 314:0.299445 315:-0.926413 316:0.905666 317:-0.640837 318:-0.394979 319:-0.798626 320:-0.844133 321:0.97477 322:-0.386064 323:0.406219 324:-0.855011 325:0.585515 326:0.590526 327:0.603521 328:-0.441487 329:-0.446846 330:0.928766 331:0.07163 332:-0.103174 333:-0.34757 334:-0.646686 335:-0.437236 336:0.231796 337:-0.548475 338:-0.622228 339:-0.917936 340:-0.027027 341:-0.326789 342:-0.562591 343:0.790185 344:-0.039612 345:-0.53381 346:-0.541542 347:-0.624764 348:0.751686 349:0.296703 350:0.522873 351:-0.512063 
-4.507680573148737 1:-0.052025 2:-0.045525 3:-0.039045 4:-0.1078 5:-0.116585 6:-0.692199 7:0.600237 8:-0.565033 9:-0.711957 10:-1.0 11:1.0 12:-1.0 13:-0.68725 14:-0.846969 15:-0.921068 16:-0.6728 17:-0.625492 18:-0.905572 19:-0.061531 20:0.831482 21:-0.115043 22:-0.139227 23:-0.420472 24:0.187344 25:0.980769 26:0.355847 27:-0.481374 28:-0.453573 29:-0.091676 30:0.133257 31:-0.392879 32:0.021927 33:-0.537156 34:0.038462 35:-0.880122 36:0.238131 37:-0.04478 38:-0.544196 39:0.81941 40:0.569312 41:0.634319 42:-0.411236 43:1.0 44:-0.132957 45:-0.82173 46:-0.268467 47:0.736872 48:0.162002 49:0.225249 50:0.330175 51:1.0 52:-0.95122 53:1.0 54:-0.489598 55:0.665025 56:0.005836 57:0.243626 58:-0.120624 59:-0.441131 60:0.45128 61:0.304348 62:0.63967 63:-0.65356 64:-0.35822 65:-0.556604 66:-0.904445 67:-0.562373 68:-0.621089 69:-0.304219 70:-0.702703 71:-0.897442 72:0.219403 73:0.361825 74:1.0 75:-1.0 76:1.0 77:0.891198 78:-0.593039 79:0.130435 80:-0.612856 81:-0.518929 82:-0.18125 83:-0.569112 84:-0.595914 85:-0.403465 86:-0.055315 87:0.218935 88:-0.144597 89:-0.071236 90:-0.263974 91:0.426415 92:0.653824 93:-0.515129 94:0.933927 95:0.369997 96:-1.0 97:-0.0 98:-0.685234 99:-0.459171 100:1.0 101:0.500933 102:1.0 103:0.067215 104:0.16166 105:0.519737 106:-0.875 107:0.036203 108:-0.379161 109:0.014462 110:-0.586439 111:-0.999739 112:-0.783196 113:-0.716245 114:-0.473154 115:0.299145 116:0.176919 117:-0.678369 118:0.593428 119:-0.292703 120:0.397413 121:-0.796243 122:-0.826846 123:-0.554337 124:-0.130435 125:0.645333 126:-0.708635 127:-0.43323 128:1.0 129:-0.249917 130:-0.507217 131:-0.606602 132:-0.986006 133:0.273644 134:-0.577535 135:-0.938496 136:-0.230699 137:0.152108 138:-1.0 139:0.035037 140:-0.643901 141:-0.13734 142:0.935484 143:0.326136 144:-0.559708 145:0.315625 146:-0.167727 147:-1.0 148:-0.892276 149:-0.937117 150:-0.92142 151:-0.2 152:0.664298 153:-0.670111 154:0.026284 155:0.219998 156:0.044296 157:0.217593 158:0.150721 159:0.066119 160:0.865854 161:-0.018009 162:-0.732325 163:-0.036201 164:-0.403185 165:0.120479 166:-0.671017 167:-0.77268 168:-0.790063 169:-0.612903 170:-0.16719 171:-0.949549 172:-0.246186 173:-0.617478 174:-0.772463 175:-0.524908 176:-0.664337 177:-0.937952 178:0.148936 179:-0.584991 180:-0.516896 181:0.218466 182:0.084732 183:-0.274591 184:0.492981 185:0.662736 186:-0.65426 187:-0.710145 188:-0.435531 189:0.026998 190:-0.523958 191:-0.329721 192:-0.656401 193:-0.529919 194:-0.706818 195:0.7298 196:-0.25251 197:-0.023203 198:-0.727267 199:-0.34573 200:-0.657057 201:-0.913155 202:-0.581756 203:-0.654876 204:0.793038 205:-1.0 206:0.7987 207:-0.672481 208:-0.482337 209:0.941079 210:0.802402 211:-0.030755 212:-0.243522 213:-0.989644 214:0.309091 215:-0.981968 216:-0.894078 217:-0.279107 218:-0.808067 219:-0.651619 220:-0.697225 221:-0.749364 222:0.070003 223:-0.352941 224:-0.870196 225:-0.491195 226:-0.122181 227:-0.412751 228:0.579857 229:-0.875022 230:-0.910863 231:-0.287204 232:0.619048 233:0.320692 234:-0.671759 235:0.908642 236:0.399041 237:-1.0 238:-0.68247 239:-0.686869 240:0.995463 241:0.090909 242:0.675724 243:-0.727351 244:-0.120654 245:-0.210355 246:-0.406273 247:-0.863389 248:-1.0 249:0.351445 250:-0.454545 251:0.649054 252:-1.0 253:-0.143094 254:-0.105659 255:0.500346 256:-0.895325 257:-0.884124 258:-0.25189 259:0.304348 260:0.076659 261:-0.807307 262:0.04965 263:0.204658 264:-0.808515 265:-0.34264 266:-0.459054 267:0.675818 268:0.24246 269:0.484736 270:-0.691933 271:0.815046 272:-0.470127 273:-1.0 274:-0.83023 275:-0.856553 276:0.998044 277:-0.567568 278:0.836066 279:-0.917268 280:0.193344 281:-0.580766 282:0.305664 283:-0.399086 284:-0.408731 285:0.638171 286:-0.227941 287:0.369955 288:-0.336897 289:-0.730345 290:0.254698 291:0.677058 292:-0.1089 293:-0.302195 294:-0.854328 295:0.37931 296:-0.062867 297:-0.50527 298:-0.56739 299:-0.714674 300:-0.285115 301:-0.758148 302:-0.825823 303:-0.788685 304:-0.050279 305:0.221276 306:-0.708862 307:0.273885 308:-0.716772 309:-0.230788 310:-0.880853 311:-0.825124 312:0.928716 313:-0.733333 314:-0.030999 315:-0.543847 316:0.279961 317:0.228526 318:-0.601312 319:-0.432403 320:-0.592028 321:1.0 322:-0.408663 323:0.715682 324:-0.877238 325:0.708048 326:0.717731 327:0.73264 328:-0.765016 329:-0.781004 330:0.993377 331:-1.0 332:0.555269 333:-0.79354 334:-0.826694 335:-0.224754 336:0.388252 337:-0.820167 338:-0.871486 339:-0.918476 340:-0.405405 341:-0.055246 342:-0.806612 343:0.926329 344:-0.642841 345:0.341272 346:-0.847528 347:-0.874336 348:0.724154 349:0.120879 350:0.080221 351:-0.947512 
-1.9633880644770727 1:-0.616182 2:-0.607014 3:-0.597797 4:-0.920167 5:-0.794095 6:-1.0 7:0.409643 8:-0.953289 9:-0.883705 10:-0.806166 11:0.817224 12:-0.83469 13:-0.500197 14:-0.329119 15:-0.977878 16:-0.9872 17:-0.916525 18:-0.270561 19:0.237473 20:-0.516147 21:0.432271 22:-0.677959 23:-1.0 24:0.017825 25:0.482517 26:0.085187 27:-1.0 28:-0.254412 29:-0.590681 30:0.517355 31:-0.432783 32:-1.0 33:0.239525 34:0.153846 35:0.103464 36:-0.96048 37:0.659568 38:-0.114767 39:0.785526 40:0.337018 41:0.482248 42:0.547668 43:0.428571 44:0.553053 45:-0.639732 46:0.152869 47:-0.051676 48:0.192947 49:-0.244774 50:-0.322669 51:0.417677 52:0.170732 53:0.416067 54:-0.874561 55:0.737165 56:-0.037055 57:0.077039 58:-0.523912 59:-0.729914 60:0.214854 61:-0.065217 62:0.400373 63:-0.799613 64:0.244791 65:0.134516 66:1.0 67:-0.188931 68:-0.4833 69:0.166212 70:-0.054054 71:0.339245 72:-0.590673 73:0.552635 74:-0.961557 75:-0.011444 76:0.333818 77:1.0 78:0.923828 79:0.173913 80:1.0 81:1.0 82:0.033165 83:-0.787305 84:1.0 85:-0.767393 86:-1.0 87:-0.067216 88:0.2207 89:-0.669497 90:-0.561446 91:0.412944 92:0.230314 93:-0.466056 94:0.079034 95:-0.036479 96:-0.696952 97:0.346154 98:-1.0 99:-0.021199 100:0.178905 101:0.730238 102:0.70658 103:-0.282814 104:-0.374624 105:0.187699 106:0.0 107:-0.239694 108:-0.731024 109:0.016565 110:-0.647042 111:-0.99989 112:-0.559872 113:-0.365326 114:-0.446061 115:0.025641 116:0.437781 117:-0.06195 118:-0.200213 119:-0.399962 120:0.470453 121:-0.278354 122:-0.386998 123:-0.99957 124:0.043478 125:-1.0 126:1.0 127:-0.416658 128:-0.605497 129:-0.681037 130:-0.69576 131:-0.683635 132:-0.973559 133:0.112232 134:-0.244486 135:-0.803876 136:0.270001 137:0.246764 138:-0.221803 139:1.0 140:1.0 141:1.0 142:0.548387 143:0.93235 144:0.833544 145:-0.124304 146:0.194257 147:-0.406185 148:0.66164 149:0.658311 150:-0.60414 151:0.75 152:0.050761 153:0.830999 154:0.622798 155:0.138879 156:1.0 157:0.129 158:-0.128086 159:0.329028 160:-0.378049 161:0.330684 162:-0.63384 163:0.520468 164:-0.952811 165:0.397775 166:0.524172 167:0.531469 168:1.0 169:0.870968 170:1.0 171:1.0 172:1.0 173:-0.243643 174:-0.762225 175:1.0 176:1.0 177:1.0 178:-0.329787 179:1.0 180:0.561617 181:0.311602 182:0.950936 183:-0.969412 184:1.0 185:1.0 186:1.0 187:-0.246377 188:1.0 189:0.966346 190:-0.998019 191:-0.108901 192:-0.673007 193:-0.06346 194:-0.143274 195:0.206846 196:0.658406 197:-1.0 198:1.0 199:-0.33543 200:0.157388 201:-0.926665 202:0.010521 203:-0.400991 204:0.577113 205:0.517241 206:-0.115081 207:-0.839578 208:0.023511 209:-0.857253 210:1.0 211:-0.148149 212:0.023382 213:-0.719373 214:0.072727 215:0.208256 216:0.059188 217:1.0 218:-0.361928 219:-0.24337 220:0.469797 221:0.418419 222:1.0 223:1.0 224:1.0 225:1.0 226:-0.304756 227:0.069747 228:0.649666 229:-0.379317 230:-0.348307 231:-0.335991 232:0.428571 233:-0.799117 234:0.622936 235:0.349243 236:-0.974035 237:0.026025 238:-0.684691 239:-0.57319 240:0.968664 241:1.0 242:-0.563838 243:0.549314 244:0.891379 245:0.596908 246:-1.0 247:1.0 248:1.0 249:1.0 250:0.272727 251:0.591087 252:0.443095 253:-1.0 254:0.001844 255:-0.624656 256:0.653066 257:0.65384 258:-1.0 259:0.847826 260:-1.0 261:1.0 262:0.275723 263:0.259691 264:1.0 265:-0.291077 266:-0.327896 267:0.649468 268:-0.396519 269:0.35958 270:-0.546643 271:-1.0 272:-0.464247 273:-0.664017 274:0.464071 275:0.457504 276:0.009493 277:0.297297 278:-1.0 279:1.0 280:-1.0 281:0.372873 282:0.431974 283:1.0 284:1.0 285:-1.0 286:-0.205882 287:-1.0 288:0.525004 289:0.716343 290:1.0 291:0.022464 292:1.0 293:1.0 294:1.0 295:-0.448276 296:0.680366 297:0.876668 298:-1.0 299:-0.195191 300:-0.315575 301:-0.040008 302:0.160431 303:-1.0 304:0.50838 305:-1.0 306:0.552258 307:-0.092783 308:0.484486 309:-0.235049 310:-0.222039 311:-0.385626 312:0.860417 313:-0.266667 314:-0.227992 315:-0.557756 316:-0.193592 317:-0.618802 318:-0.400115 319:-0.170386 320:-0.08018 321:0.714093 322:-0.672316 323:-0.767839 324:0.707007 325:0.898176 326:0.905802 327:0.91493 328:-1.0 329:-1.0 330:1.0 331:-0.543093 332:0.524411 333:-0.683372 334:-0.772249 335:-0.749711 336:0.156271 337:-0.970473 338:-0.971511 339:-0.920194 340:0.351351 341:-0.575966 342:-0.777319 343:0.773178 344:-0.68726 345:-1.0 346:-0.943838 347:-0.949091 348:0.723236 349:0.648352 350:-0.017593 351:-0.837087 
-8.002064974596065 1:0.574839 2:0.570106 3:0.565265 4:0.921341 5:0.14746 6:0.285562 7:0.443533 8:-0.390503 9:-0.946459 10:0.168724 11:-0.066111 12:-0.044291 13:-0.230557 14:-0.341139 15:-0.60118 16:-0.2768 17:0.53873 18:0.064795 19:-0.381746 20:0.215942 21:0.371337 22:0.539111 23:0.057925 24:-0.207886 25:0.034965 26:-0.223904 27:-0.520293 28:-0.538602 29:0.115077 30:1.0 31:-0.592975 32:-0.497293 33:0.119783 34:-0.634615 35:-0.030016 36:-0.549465 37:-0.203912 38:0.13363 39:0.763844 40:-0.004011 41:0.997337 42:-0.224442 43:-0.545918 44:-0.111778 45:0.078965 46:0.258855 47:-0.91198 48:0.153721 49:-0.469299 50:-0.605903 51:0.349034 52:-0.268293 53:0.286544 54:-0.867559 55:0.389464 56:0.816031 57:-0.145765 58:0.118435 59:-0.251955 60:0.119728 61:0.304348 62:0.237608 63:-0.632725 64:-0.648538 65:-0.308534 66:-0.981906 67:-0.646073 68:-0.672453 69:-0.197602 70:0.256757 71:-0.63571 72:0.042131 73:-0.160233 74:-0.171282 75:-0.032648 76:0.25168 77:0.089365 78:-0.594399 79:-0.804348 80:-0.932535 81:-0.381275 82:-0.425772 83:-0.477323 84:-0.585858 85:0.186807 86:-0.29745 87:-0.524701 88:-0.16895 89:-0.616067 90:-0.828697 91:0.54623 92:-0.167514 93:-0.427737 94:-1.0 95:-0.901178 96:0.233074 97:0.269231 98:0.24753 99:-0.424189 100:-0.171484 101:-1.0 102:0.907304 103:-1.0 104:-1.0 105:0.182168 106:-0.25 107:-0.067165 108:-0.361234 109:-0.298965 110:0.272162 111:-0.999892 112:-0.354672 113:-0.47906 114:-0.480044 115:0.487179 116:-0.007645 117:-0.972 118:0.447587 119:-0.564962 120:0.429661 121:-0.650568 122:-0.741591 123:-0.588546 124:0.586957 125:0.132554 126:-0.529221 127:-0.537157 128:-0.182393 129:-0.617863 130:-0.601292 131:-0.641404 132:-0.99371 133:0.354351 134:-0.750638 135:-0.880558 136:-0.15342 137:-0.178473 138:0.275857 139:-0.647769 140:-0.571577 141:-0.521153 142:0.548387 143:-0.337554 144:-0.039965 145:0.485184 146:-0.226816 147:-0.37526 148:-0.724845 149:-0.868737 150:-0.892848 151:0.2 152:0.738269 153:-0.699314 154:-0.839274 155:-0.217154 156:-1.0 157:-0.161799 158:-0.618904 159:-0.160385 160:1.0 161:-0.363392 162:-0.85194 163:0.050394 164:-0.398334 165:0.325169 166:-0.416347 167:-0.517704 168:-0.746079 169:0.612903 170:0.003672 171:-0.795966 172:-0.856669 173:-0.830826 174:-0.776219 175:-0.419543 176:-0.531358 177:-0.938571 178:0.659574 179:-0.483055 180:-0.577271 181:-0.536237 182:-0.818578 183:-1.0 184:-0.794841 185:-0.856739 186:-0.445613 187:-0.130435 188:-0.684164 189:-0.2124 190:0.46934 191:0.10813 192:-0.692957 193:-0.53134 194:-0.718578 195:0.818836 196:0.983734 197:0.612544 198:-0.868834 199:-0.500357 200:-0.772726 201:-0.905212 202:-0.983334 203:-1.0 204:0.742608 205:0.241379 206:-0.01112 207:-0.888907 208:-0.129563 209:-0.678904 210:0.385089 211:-1.0 212:-1.0 213:-0.932307 214:-0.127273 215:-0.653562 216:-1.0 217:-0.469966 218:-0.227033 219:0.027698 220:-0.512203 221:-0.728007 222:0.068035 223:-0.294118 224:-0.599979 225:-0.936755 226:-0.180495 227:-0.382256 228:0.704407 229:-0.850913 230:-0.875096 231:-0.288392 232:0.285714 233:-0.092713 234:-0.727145 235:0.918204 236:-1.0 237:0.022112 238:-0.854288 239:-0.87412 240:0.996294 241:-0.966942 242:1.0 243:-0.618761 244:0.308376 245:-0.466319 246:-0.447279 247:-0.613932 248:-0.455214 249:0.479967 250:0.454545 251:0.776669 252:-0.152759 253:0.001773 254:-0.579119 255:-0.598235 256:-0.914489 257:-0.951309 258:-0.252086 259:-0.5 260:-0.010026 261:-0.963807 262:-0.011694 263:-0.542383 264:-0.84482 265:-0.884753 266:-1.0 267:0.600361 268:-0.006032 269:0.122341 270:-0.877318 271:0.889932 272:-0.35989 273:-0.264246 274:-0.687688 275:-0.719263 276:0.997724 277:0.297297 278:0.672399 279:-0.870252 280:0.021785 281:-0.35381 282:0.137431 283:-0.261048 284:-0.160786 285:0.48441 286:-0.095588 287:-0.261033 288:-0.352848 289:-0.254985 290:-0.769721 291:0.461909 292:-0.938711 293:-0.954608 294:-0.95592 295:0.37931 296:-0.840626 297:-0.509026 298:-0.359791 299:-0.66391 300:-0.397767 301:-0.775619 302:-0.81994 303:-0.799628 304:-0.173184 305:-0.435844 306:-0.774863 307:0.687951 308:-0.475209 309:-1.0 310:-1.0 311:-0.9818 312:0.930768 313:-1.0 314:0.049362 315:-0.912543 316:0.822962 317:-1.0 318:-0.349686 319:-1.0 320:-1.0 321:0.976571 322:-0.235405 323:0.37113 324:-0.835478 325:-0.392379 326:-0.382404 327:-0.345302 328:0.065458 329:-0.120273 330:0.743171 331:0.052135 332:0.201604 333:-0.684185 334:-0.746206 335:-0.56116 336:0.257598 337:-0.40531 338:-0.482204 339:-0.946645 340:0.756757 341:-0.877326 342:-0.418318 343:0.900369 344:-0.801872 345:-5.0E-6 346:-0.536182 347:-0.545584 348:0.752779 349:0.274725 350:0.53003 351:-0.199702 
-6.41060219897269 1:-0.255894 2:-0.250234 3:-0.244624 4:-0.248797 5:-0.53318 6:-0.79788 7:0.092975 8:-0.666592 9:-0.992075 10:-0.849035 11:0.861701 12:-0.877535 13:-0.584657 14:-0.428417 15:-0.950714 16:1.0 17:-0.802754 18:-0.246628 19:-0.094035 20:0.316598 21:0.006848 22:-0.522706 23:-0.489411 24:-0.011075 25:0.426573 26:-0.013642 27:-0.221958 28:0.708569 29:-0.764431 30:0.909579 31:0.701621 32:0.776518 33:-0.662296 34:-0.153846 35:-0.655866 36:-0.240185 37:0.81368 38:-0.117633 39:0.794414 40:0.101955 41:0.433441 42:0.039819 43:-0.22449 44:0.165318 45:-0.689497 46:0.244087 47:0.273652 48:0.312901 49:0.227386 50:0.458805 51:0.196921 52:0.044207 53:0.146556 54:-0.671473 55:-0.116924 56:-0.570886 57:-1.0 58:-0.929659 59:-0.720451 60:0.23941 61:0.217391 62:0.595315 63:0.080849 64:-0.138237 65:0.073549 66:-0.94884 67:1.0 68:1.0 69:1.0 70:-0.013514 71:0.575593 72:0.089203 73:0.102562 74:-0.610221 75:-0.002374 76:-0.238914 77:-0.673854 78:0.165832 79:0.043478 80:0.155344 81:-0.950798 82:-0.093631 83:-0.451592 84:-0.285073 85:-0.777508 86:-0.728359 87:0.132805 88:0.61035 89:-0.264174 90:-0.849068 91:0.481989 92:0.17892 93:-0.474847 94:0.557315 95:0.33862 96:-0.725584 97:-0.384615 98:-0.684112 99:-0.100067 100:-0.553265 101:-0.300351 102:0.90031 103:-0.90743 104:-0.816961 105:0.562385 106:-0.145833 107:1.0 108:0.516004 109:0.130335 110:-1.0 111:-0.99976 112:-1.0 113:-0.966968 114:-0.478027 115:0.068376 116:0.081499 117:-0.779455 118:0.983753 119:-0.195994 120:-0.557819 121:-0.773041 122:-0.883719 123:-0.559447 124:-0.766304 125:0.507284 126:-0.935534 127:-0.395476 128:-0.262996 129:-0.109182 130:-0.803699 131:-0.855554 132:-0.982378 133:-0.235813 134:-0.487216 135:-0.95727 136:0.930891 137:0.182632 138:0.24601 139:-0.002762 140:-0.266391 141:-1.0 142:0.354839 143:-1.0 144:-0.038715 145:-0.483437 146:0.68319 147:1.0 148:-0.551255 149:-0.76638 150:-0.915111 151:-0.2 152:0.064586 153:-0.939495 154:1.0 155:1.0 156:0.46094 157:0.883459 158:0.582344 159:-0.724787 160:0.414634 161:-0.600854 162:-0.661037 163:0.136736 164:-0.993789 165:0.481779 166:-1.0 167:-1.0 168:-0.796736 169:-1.0 170:-0.251624 171:-0.911599 172:0.808969 173:1.0 174:-0.712237 175:0.04509 176:-0.175587 177:-1.0 178:-0.021277 179:-0.384334 180:-0.802978 181:-0.206568 182:0.653609 183:-0.343285 184:-0.250426 185:-0.584161 186:-0.444818 187:0.681159 188:-0.24768 189:-1.0 190:-0.236062 191:-0.230701 192:-0.545891 193:-0.805821 194:-0.838374 195:0.775355 196:0.202948 197:0.230847 198:-0.831648 199:0.321019 200:-0.306579 201:-0.93713 202:-0.539789 203:-0.693086 204:0.808065 205:0.258621 206:0.897782 207:-0.77335 208:-0.319169 209:-0.634083 210:-0.027193 211:-0.825307 212:-0.76901 213:-0.944783 214:0.018182 215:-1.0 216:-0.786206 217:-0.223449 218:-1.0 219:-0.673406 220:-1.0 221:-1.0 222:0.09588 223:0.411765 224:-0.242698 225:-0.905239 226:-0.171716 227:-0.294956 228:0.620576 229:-0.822354 230:-0.872327 231:-0.288451 232:0.904762 233:-0.081917 234:-0.887449 235:0.908262 236:0.085262 237:0.118549 238:-0.815082 239:-0.854865 240:0.991493 241:0.68595 242:0.418395 243:-0.898568 244:-0.136195 245:0.447009 246:-0.509304 247:0.02503 248:-0.384993 249:0.645906 250:-0.090909 251:0.671676 252:-0.691698 253:0.034604 254:0.025831 255:-0.574676 256:-0.762228 257:-0.832324 258:-0.252265 259:0.565217 260:-0.021261 261:-0.953939 262:0.257906 263:0.183457 264:-0.817145 265:0.047658 266:-0.218006 267:0.51959 268:-0.574014 269:-0.002022 270:-0.733027 271:0.926155 272:-1.0 273:-0.595955 274:-1.0 275:-1.0 276:0.996876 277:-0.351351 278:0.92193 279:-0.875799 280:0.412037 281:0.06545 282:0.155438 283:0.526817 284:0.268732 285:0.740053 286:-1.0 287:0.182611 288:-0.74524 289:-0.777398 290:-0.128465 291:0.572563 292:-0.499846 293:-0.683448 294:-0.948103 295:1.0 296:-0.376014 297:-0.794471 298:-0.545366 299:-0.401369 300:-0.961011 301:-0.849011 302:-0.889922 303:-0.798056 304:-1.0 305:-0.443404 306:-0.785671 307:0.391607 308:-0.503999 309:-0.226857 310:-0.815488 311:-0.851546 312:0.924732 313:-0.35 314:-0.148182 315:-0.76612 316:0.69018 317:-0.60273 318:-0.136832 319:-0.859018 320:-0.888647 321:0.972613 322:-0.657251 323:0.289817 324:-0.777566 325:0.777496 326:0.787098 327:0.800501 328:-0.880446 329:-0.932331 330:0.998758 331:0.759587 332:0.793368 333:-0.991073 334:-0.888199 335:-0.956957 336:0.195598 337:-1.0 338:-1.0 339:-0.92019 340:0.567568 341:-0.699606 342:-0.771906 343:0.82764 344:-1.0 345:0.009797 346:-1.0 347:-1.0 348:0.722875 349:-0.054945 350:-0.417357 351:-0.846603 
-6.123384980838806 1:0.07001 2:0.086454 3:0.10307 4:-0.646702 5:-0.618844 6:-0.843858 7:-1.0 8:-0.426328 9:-0.714532 10:-0.780199 11:0.733536 12:-0.714201 13:0.008863 14:-0.026 15:-1.0 16:-0.2576 17:-0.773847 18:-0.664963 19:0.774728 20:-0.372169 21:0.250442 22:-0.010445 23:-0.292597 24:-0.373192 25:0.482517 26:-0.619914 27:0.038606 28:0.214349 29:-0.330716 30:0.434222 31:-0.004237 32:0.345236 33:0.962256 34:-0.317308 35:0.733812 36:0.682117 37:0.692975 38:-0.264259 39:0.993797 40:-0.428636 41:-0.162452 42:0.027105 43:0.265306 44:0.167561 45:-0.660238 46:0.06559 47:-0.820278 48:0.275831 49:-0.49524 50:-0.199049 51:0.502808 52:-0.121951 53:0.64961 54:-0.460308 55:0.890461 56:0.134326 57:0.350294 58:-0.252878 59:-0.144682 60:0.660233 61:-0.043478 62:1.0 63:0.767527 64:0.58637 65:-0.109469 66:-0.665409 67:-0.015808 68:-0.433748 69:-0.653112 70:-0.945946 71:-1.0 72:-0.228862 73:-0.017622 74:-0.212975 75:-0.04462 76:-0.490323 77:-0.201381 78:-0.027246 79:-0.217391 80:-0.238524 81:-0.146973 82:0.550862 83:-0.470947 84:-0.571878 85:0.022041 86:0.357861 87:-0.794805 88:-0.412481 89:-0.944463 90:0.645264 91:1.0 92:0.028072 93:-0.61038 94:-0.106053 95:0.186799 96:0.80461 97:-0.307692 98:1.0 99:0.334529 100:-0.135771 101:-0.403949 102:0.946092 103:-0.234437 104:-0.319087 105:-0.241701 106:0.166667 107:-0.798998 108:-0.491256 109:-0.269188 110:-0.403362 111:-0.9999 112:-0.882119 113:-0.906575 114:-0.470582 115:-0.179487 116:0.405735 117:-0.730863 118:-0.083517 119:0.93477 120:-0.508779 121:-0.45027 122:-0.721896 123:-0.493919 124:-0.652174 125:0.90192 126:-0.882794 127:-0.915444 128:-0.469082 129:0.892239 130:-0.739101 131:-0.709062 132:-0.996235 133:0.515763 134:-1.0 135:-0.64403 136:-0.331488 137:0.781607 138:-0.017524 139:0.844693 140:-0.386644 141:-0.405494 142:0.548387 143:-0.111984 144:-1.0 145:0.080773 146:-1.0 147:-0.394956 148:-1.0 149:-1.0 150:-0.945868 151:0.375 152:-1.0 153:-0.631347 154:-0.498345 155:0.948778 156:-0.410838 157:0.475656 158:0.011754 159:0.347995 160:-0.170732 161:0.228551 162:-0.908307 163:1.0 164:-0.62191 165:0.37603 166:-0.737961 167:-0.821537 168:-0.797422 169:0.935484 170:-0.254129 171:-0.884023 172:-0.802942 173:-0.410716 174:-0.809681 175:-0.452981 176:-0.4634 177:-0.834749 178:-1.0 179:0.049808 180:-0.633748 181:-0.364714 182:0.253928 183:-0.600409 184:-0.18204 185:-0.294221 186:-0.422744 187:-0.362319 188:-0.139185 189:-0.585051 190:-0.119013 191:1.0 192:-0.889328 193:-0.235968 194:-0.424336 195:0.825451 196:-0.285043 197:0.495105 198:-0.779963 199:-0.274438 200:-0.697025 201:-0.925644 202:-0.692008 203:-0.634946 204:0.693518 205:-0.034483 206:-0.402937 207:-0.240379 208:-0.039848 209:-0.337551 210:-0.034093 211:-0.402572 212:-0.35196 213:-0.927512 214:-0.090909 215:-0.720852 216:-0.691939 217:-0.194798 218:-0.648189 219:-0.372066 220:-0.844662 221:-0.847454 222:0.092701 223:0.397059 224:-0.400826 225:-0.863024 226:-0.138187 227:0.005555 228:0.642285 229:-0.760325 230:-0.853408 231:-0.285942 232:0.738095 233:0.280682 234:-0.847465 235:0.812326 236:-0.804304 237:0.003965 238:-0.749752 239:-0.746922 240:0.991932 241:0.090909 242:0.494242 243:-0.668878 244:0.83767 245:1.0 246:-0.53254 247:0.116688 248:-0.291527 249:0.059948 250:-0.363636 251:0.245916 252:-0.837229 253:-0.10335 254:-0.90848 255:-0.295825 256:-1.0 257:-1.0 258:-0.252146 259:-0.043478 260:-0.164355 261:-0.939229 262:0.295001 263:0.785132 264:-0.751499 265:-0.105169 266:-0.499641 267:0.556459 268:0.135963 269:0.053255 270:-0.998397 271:0.732214 272:-0.646159 273:-0.629912 274:-0.769954 275:-0.703402 276:0.997199 277:0.081081 278:0.667582 279:-0.577431 280:0.785863 281:-0.477202 282:0.252613 283:-0.094539 284:0.0733 285:0.557154 286:-0.764706 287:-0.008763 288:-0.324289 289:0.071758 290:0.090354 291:0.921352 292:-0.404276 293:-0.591925 294:-0.956249 295:-0.172414 296:-0.437573 297:-0.780291 298:-0.575835 299:1.0 300:1.0 301:-0.523231 302:-0.697369 303:-0.798341 304:1.0 305:-0.217792 306:-0.976381 307:0.535127 308:-0.676189 309:-0.174826 310:-0.8468 311:-0.875923 312:0.932567 313:-0.466667 314:0.183028 315:-0.84372 316:0.631889 317:0.060615 318:1.0 319:-0.535964 320:-0.656508 321:0.966634 322:-0.235405 323:0.372856 324:-0.867828 325:0.64442 326:0.657335 327:0.676516 328:-0.861204 329:-0.889622 330:0.99937 331:0.492818 332:1.0 333:-0.99498 334:-0.680396 335:-0.576243 336:0.063557 337:-0.914009 338:-0.925912 339:-0.919519 340:-0.621622 341:-0.063518 342:-0.657349 343:0.825141 344:-0.745124 345:-0.220363 346:-0.925925 347:-0.942726 348:0.723166 349:0.208791 350:-0.075094 351:-0.937568 
